5000 10
4596 -0.393198 0.00851024 -0.344311 0.0582904 -1.17039 -0.409667 -0.658497 0.106361 1.52976 -3.2458
3328 -0.520048 -0.140593 -0.456171 0.0675459 -1.47985 -0.414092 -0.813871 -0.0392842 1.81 -4.33379
646 -0.0876738 0.0918465 -0.433596 0.108035 -1.04002 -0.346977 -0.454805 0.117519 1.44039 -2.89164
1812 0.105497 0.231676 -0.0823711 0.228813 -1.04248 -0.817486 -0.320297 -0.107907 1.38162 -3.10734
6 -0.121468 0.171481 -0.440269 0.210272 -1.18413 -0.71051 -0.214901 0.295055 1.61268 -3.51529
2782 0.0988999 0.414789 -0.376349 0.260036 -1.11873 -0.910468 -0.532043 -0.142115 1.84799 -3.52351
2800 0.050356 0.523145 -0.365245 0.243646 -1.19648 -0.949303 -0.602692 -0.216385 2.294 -3.81608
2804 -0.0604284 0.578072 -0.376872 0.312477 -1.13193 -0.902579 -0.557404 -0.362796 2.23876 -3.86136
2805 0.0216733 0.508132 -0.361909 0.215521 -1.09729 -0.884824 -0.59373 -0.230873 2.09052 -3.58898
2000 -0.135952 0.346104 -0.856626 0.0345071 -1.31964 -0.492571 -0.484814 0.84463 2.30604 -4.07347
1995 -0.0558486 0.223955 -0.92113 0.110287 -1.3099 -0.465271 -0.524841 0.91265 2.22669 -4.02074
1994 -0.126641 0.332944 -0.749113 0.0381711 -1.17103 -0.534217 -0.45011 0.776882 2.01802 -3.83523
1603 -0.293128 -0.379331 -0.331565 0.277288 -1.29757 -1.12946 -0.126737 0.28406 2.0137 -4.20837
1982 -0.248457 -0.227869 -0.237157 0.314634 -1.16244 -0.827147 -0.140942 0.237479 1.78952 -3.38045
1627 0.144322 -0.225609 -0.432542 0.26677 -1.36189 -1.14956 -0.226316 0.319105 1.72197 -4.25981
2074 0.0331759 -0.0989279 -0.511255 0.168083 -1.27163 -0.901555 -0.373906 0.445488 1.66337 -3.90475
2068 0.108299 -0.148497 -0.490893 0.176999 -1.29402 -1.02457 -0.324495 0.470076 1.67489 -4.08404
2061 0.134433 -0.191697 -0.503656 0.131661 -1.42189 -1.19802 -0.412302 0.482976 1.80861 -4.30723
2993 -0.293832 0.31703 0.0940097 0.140888 -0.846064 -0.981498 -0.657982 0.307307 1.92041 -4.33248
2351 -0.202097 -0.20295 -0.947931 0.351065 -1.30329 -0.534918 -0.200001 -0.0298251 1.35484 -4.18341
2369 -0.373989 -0.160308 -0.925076 0.379134 -1.33065 -0.607102 -0.198898 -0.0640498 1.55195 -4.31511
2429 -0.0626974 0.109774 -1.10043 0.0977 -1.45381 -0.428252 -0.299233 0.796643 2.25522 -3.83118
2567 0.0138537 0.0902978 -1.16857 0.124503 -1.68795 -0.483659 -0.256055 0.814503 2.36081 -3.91511
2562 0.111088 0.0639072 -1.2146 0.113011 -1.65626 -0.384805 -0.336711 0.859184 2.24202 -3.84415
2553 0.0756498 0.0845131 -1.21036 0.084309 -1.68471 -0.431594 -0.301941 0.983096 2.36596 -3.88919
3089 0.101115 0.0918493 -1.08581 0.0741621 -1.58935 -0.530548 -0.424212 1.00723 2.38387 -3.77164
3091 -0.0115839 0.1174 -1.05783 0.0942251 -1.52216 -0.409375 -0.369459 0.98621 2.29513 -3.85681
3084 0.0839804 0.0194399 -1.00341 0.0888822 -1.51305 -0.479711 -0.306933 0.896511 2.34786 -3.58371
1608 0.0617258 0.176634 -0.985967 0.0266404 -1.50678 -0.532574 -0.442273 0.956537 2.47157 -3.88435
3088 0.0104779 0.149231 -1.11013 0.0992379 -1.48218 -0.390917 -0.386663 0.902122 2.41968 -3.94453
3086 -0.0137496 0.176874 -0.984819 0.0623902 -1.34868 -0.397844 -0.404457 0.863329 2.21763 -3.69666
1939 0.170128 0.167047 -0.644672 0.057138 -1.57974 -0.782663 -0.452398 0.729867 2.42118 -3.65466
1968 0.185733 0.164145 -0.664638 0.0770676 -1.66071 -0.859941 -0.50951 0.622025 2.50975 -3.64888
1972 0.103777 0.149764 -0.568526 0.0537767 -1.68647 -0.844802 -0.453704 0.610564 2.39213 -3.49332
1565 0.14137 0.225738 -0.615013 0.130882 -1.9809 -1.04506 -0.350265 0.564324 2.87857 -3.9804
1783 0.0970762 0.0929552 -0.413022 0.127071 -1.69214 -0.830916 -0.347023 0.42958 2.37577 -3.30977
1964 -0.0109492 0.0241455 -0.663711 0.173207 -1.94169 -0.937463 -0.374809 0.351614 2.68486 -3.64275
1979 0.108045 0.131397 -0.469947 0.1728 -1.77647 -0.987061 -0.345391 0.470669 2.54649 -3.64589
1971 0.0436237 0.114996 -0.554357 0.170106 -1.85975 -0.988916 -0.317719 0.427488 2.72636 -3.69016
2824 0.0598063 0.0878422 -0.96127 0.38251 -1.3286 -0.732642 -0.371844 -0.349046 2.06041 -3.5666
2403 0.0779819 0.0553516 -0.814507 0.276259 -1.1489 -0.658538 -0.221102 -0.0290464 1.83216 -3.14352
1587 -0.125787 0.129136 -0.638968 0.186796 -1.20218 -0.701467 -0.207165 0.177745 2.06262 -3.51098
2390 -0.180971 0.102438 -0.482623 0.202194 -1.15466 -0.556144 -0.340572 0.233787 1.75603 -3.15284
2399 -0.207544 0.0972496 -0.501302 0.268223 -1.17293 -0.581878 -0.24431 0.123436 1.77592 -3.1575
2017 -0.483394 0.544147 -0.140281 0.350488 -1.4469 -0.782754 -0.682869 -0.553689 2.10278 -4.17358
2754 -0.352177 0.438876 -0.211311 0.338239 -1.3088 -0.807814 -0.602791 -0.545256 2.07306 -3.8182
2032 -0.401237 0.521814 -0.218947 0.377437 -1.3602 -0.748344 -0.605429 -0.528582 2.12972 -4.02143
2746 -0.289928 0.395517 -0.311733 0.286253 -1.12555 -0.781366 -0.50764 -0.410839 1.88016 -3.48603
2024 -0.42457 0.548861 -0.210495 0.334769 -1.43394 -0.757167 -0.656903 -0.593043 1.96735 -4.1177
972 -0.0305667 0.0514088 -0.0973374 -0.00421546 -1.44375 -0.147145 -0.45555 0.587589 1.52847 -3.15892
857 -0.00124347 0.0285159 0.0752166 0.0184818 -1.77525 -0.424461 -0.58839 0.733395 1.91873 -3.95994
1801 0.0722165 0.0577173 0.0612994 0.15718 -1.33419 -0.526684 -0.156526 0.424123 1.66213 -3.23148
1496 0.125212 0.128122 0.164929 0.165449 -1.49403 -0.580598 -0.290166 0.189153 1.60111 -3.38422
890 0.0559855 0.148376 0.178275 0.155121 -1.56935 -0.69952 -0.324961 0.34317 1.75091 -3.39897
1540 0.182015 0.153421 0.159653 0.155499 -1.74742 -0.773266 -0.332981 0.353292 1.85145 -3.54953
1542 0.161249 0.104312 0.142621 0.235107 -1.74061 -0.910897 -0.248562 0.13551 1.75572 -3.50788
1920 0.192031 0.243814 0.181215 0.151714 -1.57161 -0.718129 -0.365572 -0.0215689 1.77398 -3.42004
1922 0.165099 0.11771 0.189135 0.119759 -1.40962 -0.766971 -0.325958 -0.00616396 1.60598 -3.37409
3023 0.00224032 -0.129604 -0.907062 0.0525518 -1.56696 -0.51441 -0.213135 0.894418 1.41155 -4.0552
3021 0.00205086 -0.229426 -0.950872 0.0576551 -1.55155 -0.483924 -0.242019 0.991713 1.43569 -4.20768
3016 0.0273444 -0.123402 -0.885418 0.108345 -1.50559 -0.519629 -0.171649 0.813002 1.38061 -3.90292
3017 -0.0294264 -0.0803169 -0.729452 0.0647395 -1.33207 -0.540565 -0.248183 0.698069 1.35903 -3.59179
4804 -0.0737506 0.431237 -0.476516 0.108295 -1.64759 -0.208236 -0.62572 0.0199635 1.84917 -3.37142
4844 -0.142159 0.425842 -0.568431 0.0980187 -1.57709 -0.114832 -0.712322 -0.014741 1.89281 -3.52818
4379 0.0702684 -0.191273 -0.602912 0.147905 -1.40862 -0.448522 -0.565887 0.0706816 1.5739 -3.09462
4488 -0.0042782 0.0831178 -0.277121 -0.0631182 -1.37828 -0.693255 -1.02465 0.11291 2.49222 -3.50787
7 -0.110723 -0.16937 -0.423056 0.0370218 -1.29491 -0.43601 -0.864861 0.0352925 1.90499 -3.84275
4460 -0.26399 -0.0642565 -0.344424 0.085515 -1.43971 -0.390412 -0.673538 -0.121396 1.62487 -3.1597
4203 -0.0563498 -0.288678 -0.309901 0.0885033 -1.3093 -0.38573 -0.575552 0.332541 1.63633 -3.11742
4306 -0.206132 -0.0470188 -0.366177 0.00950926 -1.24565 -0.533897 -0.760485 0.294741 1.86264 -3.2889
3307 -0.0239027 -0.13791 -0.286807 -0.0741539 -1.49401 -0.744974 -0.936847 0.320687 2.70374 -4.00663
3494 -0.183537 -0.0888837 -0.320091 0.0439998 -1.24966 -0.541026 -0.76024 0.274482 1.97775 -3.20242
3703 0.305062 -0.405153 -0.69523 0.187016 -1.86237 -0.585722 -0.581719 -0.236385 2.11493 -3.75474
3313 0.333157 -0.471903 -0.964599 0.13663 -1.79658 -0.620434 -0.68785 -0.132547 2.15912 -4.25718
3828 0.124896 -0.339067 -0.89626 0.187751 -1.76952 -0.489189 -0.615759 -0.185051 1.91239 -3.80589
3894 0.243598 -0.521985 -0.719821 0.188141 -1.87604 -0.594122 -0.581445 0.126948 1.88129 -4.13569
3779 -0.289171 -0.139644 -0.320364 0.121766 -1.29169 -0.406069 -0.731717 -0.0742021 1.40582 -3.35503
4652 0.0156529 -0.0234024 -0.844625 0.166803 -1.10894 -0.261247 -0.914558 -0.0762414 1.7614 -4.0854
3942 0.0162294 -0.476431 -0.391707 0.0459637 -1.32482 -0.481049 -0.538274 0.242088 1.71689 -3.18344
3261 0.110932 -0.717706 -0.642238 0.144396 -1.70946 -0.594903 -0.55297 0.272171 1.86158 -4.22363
4033 0.257063 -0.396387 -0.924777 0.156554 -1.92813 -0.457275 -0.773749 3.63732e-05 2.04025 -4.26047
3838 0.173784 -0.406802 -0.920866 0.187441 -1.77753 -0.404011 -0.588959 -0.0663686 1.91009 -3.89908
3908 0.0321195 -0.433868 -0.557288 0.156411 -1.61837 -0.456417 -0.588342 0.156737 1.69742 -3.57825
3521 0.284104 0.0314737 -0.479021 0.118016 -1.40785 -0.408692 -0.850619 0.202966 1.83563 -3.49328
3980 -0.183132 0.00516457 0.127409 0.0518143 -1.50842 -0.82992 -0.900935 -0.253449 2.0369 -3.66224
4092 -0.208016 -0.171973 -0.182031 0.01263 -1.08591 -0.542004 -0.621935 0.307285 1.89268 -3.17401
2473 -0.153888 0.0680709 -0.425101 0.0890983 -1.02316 -0.573364 -0.41767 0.186956 1.8575 -2.98446
1579 -0.261539 0.170832 -0.596854 0.148398 -1.14686 -0.826698 -0.440104 0.324565 2.42328 -3.7834
2462 -0.225348 0.147182 -0.39535 0.120735 -0.992012 -0.593533 -0.430086 0.230136 1.71356 -2.95505
1607 -0.257903 0.339766 -0.209456 0.12957 -1.21134 -0.901887 -0.541948 0.0968729 2.23064 -3.48576
1593 -0.321077 0.390694 -0.0938775 0.0490116 -1.29891 -0.907346 -0.656742 0.380113 2.39762 -4.12052
2627 -0.307444 0.209695 -0.0542078 0.130162 -1.2753 -0.724898 -0.544909 0.323498 1.92754 -3.34846
2607 -0.290085 0.259567 -0.134016 0.0953893 -1.27054 -0.644942 -0.522065 0.354761 1.91736 -3.20353
2608 -0.207398 0.204682 -0.0981299 0.162229 -1.05996 -0.662868 -0.478563 0.290209 1.82766 -3.02791
2619 -0.399031 0.257314 -0.102219 0.0878813 -1.23703 -0.749492 -0.574067 0.409614 2.2884 -3.62871
2867 -0.422786 0.365558 0.0197516 0.107619 -1.28106 -0.84709 -0.571933 0.455431 2.40022 -3.77266
2876 -0.366303 0.409236 0.00789465 0.119592 -1.29795 -0.750087 -0.567698 0.557079 2.44596 -3.84584
1289 0.308168 -0.0690524 -0.204155 0.187752 -0.903087 -0.419245 -0.327755 0.155507 1.77095 -2.94843
2335 -0.347242 -0.0682348 -0.480046 0.198152 -1.19987 -0.649983 -0.129392 0.191376 1.65186 -3.31224
2853 -0.309878 0.340824 -0.131092 0.284492 -1.44104 -1.00857 -0.518528 -0.209194 2.25128 -3.76482
2648 -0.404568 0.424803 -0.140992 0.265958 -1.55769 -0.955401 -0.632248 -0.285676 2.50019 -4.07214
2655 -0.396649 0.347172 -0.153457 0.260996 -1.40319 -0.86754 -0.60096 -0.254849 2.25126 -3.68186
1910 0.0697054 0.261287 -0.0871206 0.190676 -1.39174 -0.569908 -0.268787 0.0775526 1.42151 -3.13332
4694 -0.283221 -0.152926 -0.147984 0.156962 -1.28613 -0.345766 -0.730409 -0.118243 1.38557 -3.61051
3340 -0.413739 -0.240596 -0.211286 0.148951 -1.2823 -0.551687 -0.918815 -0.121089 1.60562 -4.63992
3335 -0.324396 -0.359253 -0.120736 0.186741 -0.997762 -0.496474 -0.804281 0.0364754 1.53273 -4.48868
4533 -0.306237 -0.208661 -0.185973 0.0680125 -0.939102 -0.301101 -0.826009 0.144203 1.35456 -3.80722
4316 -0.232765 -0.383704 -0.476001 0.0273759 -1.19898 -0.351653 -0.638713 0.461989 1.68449 -3.5842
1651 -0.355883 0.377375 0.0134398 0.0815415 -1.32051 -0.80119 -0.734702 0.684744 2.55503 -4.12134
1514 -0.289486 0.468572 -0.0141118 0.0021429 -1.04453 -0.721547 -0.577103 0.566411 2.10846 -3.77199
4184 -0.178486 0.0268511 -0.189014 0.0482833 -1.08115 -0.443827 -0.880661 0.127278 1.6779 -3.49676
4708 -0.140881 -0.291095 -0.315647 0.157593 -1.3329 -0.43005 -0.517665 0.190625 1.53694 -3.16036
2645 0.238663 0.258793 -0.767927 0.239879 -1.10221 -0.653308 -0.439461 0.0333315 1.38169 -3.55687
2720 0.286044 0.173917 -0.91023 0.237426 -1.1283 -0.735694 -0.48677 -0.0685774 1.58628 -3.8968
2701 0.17004 0.269043 -0.897087 0.243975 -1.16171 -0.682462 -0.400194 0.0564593 1.40602 -3.94167
2739 0.133629 0.170747 -0.722282 0.368064 -1.13244 -0.79948 -0.296558 -0.341788 1.94852 -3.49132
2828 0.191885 0.165486 -0.885607 0.314831 -1.24504 -0.766639 -0.336158 -0.172272 2.06075 -3.6003
2814 0.17203 0.131098 -0.980909 0.347979 -1.24373 -0.813253 -0.339004 -0.238533 2.15811 -3.66716
1832 0.182334 0.00885078 -0.11125 0.150582 -1.07491 -0.695087 -0.125792 0.57879 1.89036 -3.44735
1283 0.251421 0.0476669 -0.103879 0.0859214 -1.14653 -0.456435 -0.218029 0.814983 1.94934 -3.50936
1008 0.196755 0.14273 -0.107861 0.118966 -1.42674 -0.630475 -0.220184 0.438866 1.7034 -3.29152
1046 -0.137348 -0.0238563 0.170966 0.027241 -1.17227 -0.349506 -0.292691 0.554574 1.40061 -3.38661
1136 0.157577 0.108186 -0.0559432 0.134639 -0.978473 -0.537597 -0.235708 0.513954 1.76742 -3.28195
3162 0.139675 -0.0354931 -0.139617 0.141947 -1.08539 -0.77413 -0.251592 0.72409 1.71046 -3.60594
3159 0.161573 -0.0356665 -0.14449 0.135347 -1.14973 -0.727832 -0.224174 0.749177 1.74836 -3.48651
1657 -0.310326 -0.274932 0.197648 0.19933 -1.47503 -1.13213 -0.20002 0.383176 1.90486 -4.02606
2187 -0.35117 -0.263106 -0.0392131 0.163503 -1.21244 -1.06555 -0.25598 0.332181 1.96196 -3.90184
2010 -0.309591 -0.21027 -0.0756005 0.221699 -1.22033 -0.940114 -0.269219 0.276086 1.81252 -3.50734
2189 -0.392061 -0.209219 0.0310551 0.228758 -1.19169 -1.03049 -0.219424 0.288945 1.8703 -3.79162
2489 -0.253116 -0.0417971 -0.439142 0.224493 -1.40342 -0.513257 -0.257522 0.190029 1.65449 -3.0511
4979 -0.129373 0.362349 -0.672308 0.0693501 -1.50753 -0.169935 -0.635273 -0.0104078 1.80971 -3.20581
4760 -0.113696 0.535937 -0.570306 0.0937484 -1.93914 -0.177065 -0.837566 -0.0198594 2.27254 -4.20902
4991 -0.0850181 0.474409 -0.475202 0.0881736 -1.74757 -0.0991385 -0.595295 -0.051328 1.90977 -3.4731
781 0.0186071 0.435564 -0.368108 0.159576 -1.8073 -0.0965801 -0.651573 0.00191085 1.90262 -3.72829
1149 0.218344 0.240081 -0.228922 0.149952 -1.83467 -0.0731021 -0.565006 0.174578 1.90018 -3.4797
675 0.0704127 -0.213614 -0.100173 0.191211 -1.63289 -0.178942 -0.366095 0.0389822 1.48796 -3.4478
992 0.0450633 0.0145625 -0.126523 0.176378 -1.73567 -0.12488 -0.289436 0.255382 1.7039 -3.49374
838 0.174195 0.126643 -0.180063 0.221841 -1.73612 -0.1316 -0.340771 -0.0424164 1.49174 -3.53942
889 0.180075 0.302523 -0.112922 0.148952 -1.71151 -0.223053 -0.494133 0.0729399 1.63479 -3.30865
3 -0.0273403 0.00361895 0.018744 0.0743755 -2.02618 -0.292586 -0.503212 0.62625 1.8389 -4.14978
940 -0.161599 0.0161897 0.0360417 -0.0639183 -2.00523 -0.363134 -0.645369 0.801177 1.8897 -4.22423
915 -0.0926468 -0.0246616 0.0348312 0.000271327 -1.78831 -0.320968 -0.644622 0.831933 1.9858 -3.86759
882 -0.168705 -0.000593364 -0.0782405 -0.0621113 -2.22608 -0.352649 -0.686398 1.07307 2.37245 -4.7905
917 -0.137275 -0.0872997 -0.0673099 -0.00278538 -2.10732 -0.261348 -0.643164 0.890955 1.872 -4.34425
937 -0.167875 0.0313436 -0.0477677 -0.0520339 -1.88426 -0.342459 -0.62336 0.828326 1.96229 -4.10223
419 -0.430366 -0.166088 -0.206641 0.178634 -1.22959 -0.152319 -0.341263 0.408958 2.20611 -3.63124
4280 0.195063 -0.0445523 -0.550167 0.0622403 -1.09795 -0.340242 -0.713897 0.35626 1.67157 -3.16068
3243 0.389614 -0.1311 -0.927473 -0.0252305 -1.41355 -0.502262 -0.912932 0.334455 1.87265 -4.3251
4036 0.0999477 -0.10219 -0.647402 -0.0443083 -1.15012 -0.430204 -0.826216 0.376822 1.54131 -3.57489
2092 -0.0699485 -0.237955 -0.25925 0.189201 -1.23171 -1.12455 -0.342857 0.370698 1.78114 -3.76672
2093 -0.0523876 -0.307511 -0.395508 0.156578 -1.36625 -1.26428 -0.326978 0.514302 2.04527 -4.19301
2105 0.0591045 -0.257767 -0.431294 0.114224 -1.38934 -1.23429 -0.29745 0.514182 1.8387 -4.02675
2104 0.0860965 -0.258346 -0.41737 0.185198 -1.40936 -1.21398 -0.328991 0.568303 1.94673 -4.24516
2112 0.0423086 -0.304211 -0.377475 0.158028 -1.32687 -1.19679 -0.28314 0.487076 1.81019 -3.96868
1654 0.0934761 -0.243246 -0.39666 0.140395 -1.4111 -1.30628 -0.376461 0.40331 1.88718 -4.28961
2109 0.0609173 -0.281008 -0.456073 0.181047 -1.29463 -1.18058 -0.290216 0.391938 1.81099 -3.98548
3692 -0.0968105 -0.0674254 -0.119759 -0.00712639 -1.31041 -0.644434 -0.68161 0.30671 2.00403 -3.09773
443 -0.426806 -0.00485131 -0.0808876 0.187045 -1.53015 -0.230872 -0.490096 0.046772 2.20478 -3.16574
3113 -0.0973421 -0.179592 -0.221079 0.140401 -1.1428 -0.807387 -0.257114 0.784038 1.78827 -3.72682
3112 -0.120734 -0.090208 -0.276715 0.183386 -1.09434 -0.72981 -0.288548 0.739542 1.72694 -3.8894
1638 0.0259122 -0.195542 -0.246473 0.130144 -1.10829 -0.83953 -0.2569 0.829154 1.74464 -3.96807
3111 -0.0843853 -0.133627 -0.255629 0.128957 -1.08649 -0.735986 -0.317142 0.7984 1.6869 -3.81101
3114 -0.0951621 -0.130455 -0.230519 0.136913 -0.987055 -0.750557 -0.264664 0.722176 1.63305 -3.68088
3108 -0.170948 -0.109856 -0.147544 0.214652 -1.00393 -0.799545 -0.34046 0.616167 1.72589 -3.80684
1582 0.155367 -0.208647 -0.272984 0.110004 -1.05499 -0.70132 -0.237248 0.860363 1.63014 -3.7553
1498 0.0892303 -0.512522 -0.164405 0.0783627 -1.07492 -0.48818 -0.43206 0.0345548 1.68295 -3.38976
1035 -0.01328 -0.225045 0.147065 0.119397 -0.994446 -0.386293 -0.325571 -0.0985333 1.45452 -3.69045
1131 0.223669 -0.122102 -0.00654946 0.0836886 -1.07001 -0.487346 -0.365475 0.0196728 1.7746 -3.14485
1262 0.471185 -0.135998 -0.15128 0.196542 -1.15243 -0.559875 -0.384328 -0.0841721 1.91201 -3.14473
3235 0.319521 -0.173106 -0.20247 0.210012 -1.4631 -0.649063 -0.418298 -0.374453 1.94324 -3.18886
1218 0.0821724 0.00740513 -0.0261626 0.0880925 -1.2527 -0.253174 -0.49451 0.616373 1.63601 -3.22565
1703 -0.334007 -0.0597164 -0.0842746 0.2516 -1.63495 -0.652684 -0.246861 0.12315 1.47371 -3.24639
2143 -0.417193 0.0180402 -0.212162 0.334866 -1.92899 -0.5756 -0.28976 0.199165 1.56662 -3.92168
2044 -0.0456 0.00599143 -0.292239 0.183571 -1.26294 -0.840548 -0.333056 0.364931 1.58201 -3.27011
1590 -0.0660138 0.394506 0.0621712 0.0585304 -1.02996 -0.875661 -0.538208 0.125711 2.13686 -3.50879
2927 -0.200211 0.359087 -0.00982358 0.156368 -1.04372 -1.01969 -0.546118 0.192027 2.33002 -3.79837
2923 -0.138035 0.301082 -0.0310882 0.138472 -0.951298 -1.01872 -0.535419 0.126136 2.35744 -3.82019
2925 -0.124403 0.40404 -0.0578805 0.129613 -1.09056 -1.0107 -0.526484 0.0751502 2.37755 -3.92777
2926 -0.181454 0.34005 -0.00639329 0.149013 -0.961378 -0.948484 -0.49705 0.177268 2.22643 -3.73634
2922 -0.156911 0.36578 0.0224041 0.125568 -0.972434 -0.842742 -0.520108 0.167565 2.0968 -3.44669
3899 0.191896 -0.198523 -0.355945 0.113502 -1.77191 -0.541743 -0.797674 -0.212038 1.92853 -3.76023
1336 0.297541 0.0593759 -0.136869 0.111967 -0.987814 -0.442005 -0.284558 0.564657 1.78075 -3.32014
3538 -0.137277 -0.220331 -0.544156 0.0936882 -1.46127 -0.213521 -0.551146 0.141989 1.54967 -3.24573
3517 0.0889004 -0.262357 -0.550629 0.116961 -1.31351 -0.32702 -0.607153 0.240913 1.49525 -3.43279
2196 -0.27111 0.0155467 -0.631842 0.323963 -1.95498 -0.50366 -0.179662 0.106617 1.54353 -3.65236
172 -0.207467 0.0210827 -0.416407 0.195417 -1.17597 -0.0368621 -0.518519 0.326244 2.32748 -3.27718
33 -0.151194 -0.0176676 -0.472592 0.0940826 -1.35072 -0.0173637 -0.518111 0.446412 2.71282 -3.79839
26 -0.286921 -0.160388 -0.479816 0.183582 -1.36923 0.0262675 -0.437512 0.491054 2.54679 -3.96868
669 0.0689335 -0.139364 -0.108903 0.196358 -0.995922 -0.25485 -0.237408 0.107113 1.84177 -3.04504
4064 0.213249 -0.0172068 0.184335 0.100445 -1.09433 -0.649165 -0.478489 -0.275118 1.71089 -3.31642
643 0.070484 -0.0517855 0.0420371 0.216604 -1.30155 -0.310665 -0.33429 -0.145605 2.05956 -3.19365
1160 0.122606 0.144421 -0.118155 0.25906 -1.66809 -0.0735493 -0.287948 -0.152956 1.81396 -3.53972
742 -0.0224068 -0.073413 -0.441693 0.324192 -1.58011 -0.0326245 -0.088883 -0.0519843 1.64073 -3.27127
2 0.107962 -0.159129 -0.621012 0.223566 -1.65595 0.0812762 -0.188359 0.197716 1.85885 -3.68982
808 0.00134823 -0.0352135 -0.631366 0.194149 -1.14275 -0.00863473 -0.146917 0.314346 1.5147 -2.8717
220 -0.232019 -0.440793 -0.294086 0.275871 -1.40431 -0.213378 -0.0936867 0.489593 2.14005 -3.55556
401 -0.404493 -0.399662 0.0303842 0.19858 -1.53015 -0.434873 -0.201149 0.415036 2.36201 -3.89453
424 -0.319496 -0.253771 0.0404452 0.136634 -1.26411 -0.18783 -0.289691 0.344059 2.12234 -3.66979
13 0.0233798 -0.172108 -0.0639581 0.104373 -1.0409 -0.349234 -0.229971 0.495926 2.02932 -3.32578
1234 0.233332 0.0130208 0.0730691 -0.00579774 -0.799934 -0.354901 -0.39675 0.38662 1.83647 -3.25596
5 0.177571 0.0190947 -0.0985319 0.133028 -1.10069 -0.182419 -0.44234 0.304119 1.89146 -3.50634
1206 0.160865 -0.159995 0.0303485 0.255197 -1.20929 -0.391118 -0.323769 -0.0173734 1.49872 -3.20986
4027 0.237345 -0.171207 -0.0933316 0.163946 -1.25676 -0.410423 -0.410947 -0.0203948 1.46806 -3.13597
4028 0.134388 -0.266967 0.0750332 0.152592 -1.06283 -0.587291 -0.412464 -0.0876726 1.5732 -3.00784
1142 0.147718 -0.285221 -0.0142463 0.244933 -1.2563 -0.490349 -0.394186 -0.0095273 1.62525 -3.56238
95 0.0194936 -0.390142 0.070296 0.24784 -1.16515 -0.391982 -0.404879 0.0770407 1.78911 -3.61938
1189 0.182515 -0.19704 0.0108342 0.234427 -1.30529 -0.441014 -0.33848 -0.0687847 1.55279 -3.44214
3505 -0.204429 -0.186039 -0.0185137 0.0711828 -0.998025 -0.586696 -0.713507 0.20817 1.74069 -3.44425
3438 -0.109745 0.0244282 -0.294449 0.0884585 -1.06771 -0.44195 -0.870432 0.265792 1.74557 -3.45357
3398 0.115813 -0.572946 -0.731073 0.137811 -1.63778 -0.750372 -0.505763 0.196813 2.09231 -3.81144
3355 0.114637 -0.609881 -0.640978 0.12427 -1.84588 -0.667932 -0.571967 0.284313 2.13779 -4.13154
4195 0.0162412 -0.411266 -0.607734 0.117185 -1.59288 -0.455584 -0.519331 0.258667 1.63395 -3.31997
4261 -0.195089 -0.359542 -0.301527 0.0601665 -1.08904 -0.357744 -0.502285 0.285816 1.40234 -3.2133
4187 -0.00638933 -0.276723 -0.46423 0.0979932 -1.35671 -0.574018 -0.608796 0.260275 1.84895 -3.31514
3232 0.0777569 -0.0516939 0.115436 0.118557 -1.4965 -0.626918 -0.769116 -0.342279 1.56791 -3.72158
4062 0.303078 -0.0216444 -0.171654 0.0677634 -1.43498 -0.728445 -0.725696 -0.148208 1.93281 -3.46338
3264 0.432254 0.0687793 -0.395257 0.0137304 -1.14562 -0.530368 -0.997985 0.22198 1.80026 -4.05624
3866 0.151938 0.00966407 -0.288754 0.0276136 -1.11489 -0.550061 -0.779283 0.199136 1.63913 -3.3511
4588 -0.0829451 -0.129823 -0.371036 0.0984527 -1.28626 -0.533055 -0.616198 0.0524778 1.62115 -3.06607
546 -0.343429 -0.180328 -0.362392 0.26474 -1.23828 -0.190665 -0.310847 -0.0404154 2.02317 -3.22344
2442 -0.129788 0.0975549 -0.525285 0.128617 -1.13598 -0.57044 -0.237001 0.279784 1.79013 -2.99519
1609 -0.175856 -0.0166309 -0.924721 0.172138 -1.5081 -0.748533 -0.2632 0.445925 2.50536 -3.94435
1642 -0.087535 0.00272608 -0.894556 0.153696 -1.98399 -0.806185 -0.166455 0.358912 2.63061 -3.70161
1679 -0.637257 0.00292798 0.0134239 0.234204 -1.83568 -0.739606 -0.274533 0.214594 1.72057 -4.05256
617 -0.194677 -0.227973 -0.0900163 0.156047 -0.970637 -0.31227 -0.242186 0.423207 1.90799 -3.11666
2930 -0.231435 0.315945 -0.0510343 0.116821 -1.00415 -1.02039 -0.508601 0.17187 2.32137 -3.79183
2920 -0.266645 0.249885 -0.140039 0.175347 -1.03475 -0.908704 -0.482159 0.0634118 2.29071 -3.70337
2016 -0.428578 0.521695 -0.207464 0.331328 -1.45584 -0.746478 -0.677104 -0.581144 2.07684 -4.06636
2416 0.0136471 0.155239 -0.497115 0.167998 -1.2907 -0.652719 -0.465763 0.145464 1.34451 -3.3254
2406 0.0278124 0.108827 -0.394641 0.214752 -1.22681 -0.630879 -0.478623 0.0275891 1.29834 -3.24893
1568 0.241004 0.170202 -0.541991 0.259644 -1.34311 -0.944338 -0.434624 0.0652266 1.52317 -4.03306
2421 0.0696341 0.150926 -0.419295 0.175417 -1.26776 -0.6996 -0.406853 0.182142 1.38247 -3.23997
2412 0.012909 0.174324 -0.379968 0.216431 -1.18913 -0.701394 -0.396514 0.0450367 1.48622 -3.20604
1064 -0.455121 -0.0280317 -0.125247 0.225744 -1.8223 -0.0688668 -0.584888 0.060384 1.67593 -5.53634
1074 -0.469615 -0.0410165 -0.0788981 0.240092 -1.65564 -0.0822764 -0.479598 -0.0938556 1.59712 -5.33514
1059 -0.540774 0.0216869 -0.127795 0.185653 -1.89742 -0.0861561 -0.628867 0.0454536 1.83008 -5.78848
1116 -0.4049 0.0028302 -0.0707352 0.208927 -1.62656 -0.0169512 -0.446201 0.0190124 1.50036 -5.04146
4 -0.363646 -0.0442133 0.00887827 0.209621 -1.56877 -0.0201509 -0.468571 -0.0864036 1.76789 -4.84896
1110 -0.409255 0.0101338 -0.0822614 0.167917 -1.62296 -0.0750013 -0.495557 -0.0332313 1.44135 -4.94261
1075 -0.405157 0.0136632 -0.0605139 0.251103 -1.75151 -0.0688559 -0.467879 0.0388674 1.48532 -5.19639
670 -0.311582 -0.0970793 -0.10073 0.197902 -1.68429 0.0149591 -0.474615 0.275276 1.54928 -4.74382
1058 -0.326158 -0.0095376 -0.0119648 0.243907 -1.71876 -0.0248834 -0.477805 -0.0236921 1.52124 -4.94853
1077 -0.416368 0.019419 -0.0832738 0.235447 -1.53788 -0.0808803 -0.445567 -0.115516 1.50434 -5.00327
1015 -0.383464 -0.0101202 -0.107547 0.258044 -1.97986 -0.0562403 -0.519447 -0.0444952 1.71951 -5.39977
1060 -0.404663 0.0388056 -0.106683 0.285984 -1.69462 -0.0315785 -0.478151 -0.0791615 1.50491 -5.05112
1061 -0.491603 -0.00154122 -0.148093 0.238361 -1.90784 -0.142686 -0.54062 -0.0246884 1.77411 -5.85956
1112 -0.493661 -0.057919 -0.0913265 0.18309 -1.77432 -0.0742693 -0.505774 -0.06739 1.71713 -5.46686
1057 -0.458527 -0.0151995 -0.180811 0.282537 -1.92439 -0.0360717 -0.515328 0.0522589 1.89873 -5.9158
1128 -0.331014 -0.0217177 0.00129397 0.185499 -1.34354 -0.109022 -0.408826 -0.155385 1.23693 -4.17661
1070 -0.314154 -0.00703171 -0.000645953 0.184426 -1.47865 -0.0916283 -0.456061 -0.150326 1.36085 -4.52756
1085 -0.413568 -0.0187575 -0.102701 0.238013 -1.82855 -0.129593 -0.546898 -0.118179 1.72871 -5.64362
1019 -0.198545 0.0476359 0.0344953 0.254197 -1.74999 -0.0595779 -0.49276 -0.106282 1.34411 -4.46433
3237 -0.0466897 -0.142272 0.00751253 0.244886 -1.29671 -0.349719 -0.696625 -0.273943 1.3159 -3.63981
3365 -0.0732644 -0.11681 0.0500232 0.182426 -1.15301 -0.487761 -0.747333 -0.208909 1.5133 -3.52134
4539 -0.307941 -0.213417 -0.192534 0.0226048 -1.05187 -0.36256 -0.724781 0.265329 1.54799 -3.50595
1031 -0.271317 -0.0834836 -0.137652 0.212553 -1.70089 -0.442429 -0.930269 -0.774359 1.71275 -4.34711
4069 -0.119445 0.0826388 0.0174633 0.0260523 -1.35902 -0.625551 -0.869213 -0.174659 1.8118 -3.34318
4497 -0.12338 0.0774145 -0.262423 0.0444597 -1.29902 -0.585493 -0.835846 0.145452 2.11785 -3.34502
4744 -0.330742 -0.00894338 -0.171971 -0.00150125 -1.28538 -0.590357 -0.747772 0.140142 1.68253 -3.42361
4074 -0.0265893 0.115079 -0.248707 0.00824167 -1.20832 -0.47184 -0.855172 0.2253 1.87605 -3.08937
3301 0.198804 0.22124 -0.427445 -0.0565 -1.40554 -0.648315 -1.1113 0.18853 2.60068 -3.94426
3885 -0.312649 -0.302141 -0.35595 0.204206 -1.13801 -0.363482 -0.680427 -0.141742 1.43277 -3.63132
4745 -0.376474 -0.00811429 -0.165117 0.0987297 -1.23806 -0.555023 -0.739281 0.0265538 1.62239 -3.47364
3280 -0.55532 -0.0321749 -0.0151619 0.0471113 -1.50762 -0.664846 -0.968262 -0.0247878 2.0401 -4.50302
4741 -0.322124 -0.0731586 -0.0153006 0.017682 -1.29834 -0.44118 -0.805965 0.115031 1.71024 -3.39273
4484 -0.32763 -0.224717 -0.50336 0.0671621 -1.29786 -0.267384 -0.642377 0.409715 1.6624 -3.49801
3341 -0.41344 -0.359137 -0.478565 0.0781979 -1.4145 -0.381118 -0.738951 0.382808 1.81104 -4.29709
4480 -0.269121 -0.272003 -0.307842 0.124762 -1.20416 -0.36202 -0.631864 0.370145 1.52064 -3.42508
3626 0.143503 0.155769 -0.382197 0.0116983 -1.07193 -0.468154 -1.0288 0.00239036 2.04017 -3.63903
3326 0.058666 0.350622 -0.359218 -0.0693596 -1.20289 -0.609197 -1.19586 0.0214979 2.48511 -4.12548
3282 0.227094 0.272071 -0.406589 -0.140111 -1.3017 -0.456675 -1.13394 0.126394 2.18571 -3.77795
3537 0.0312543 0.147344 -0.0639109 -0.0459033 -1.38536 -0.638214 -1.03732 0.0858734 2.28747 -3.49162
3298 -0.371785 -0.0623164 -0.131084 0.143556 -1.95485 -0.661652 -0.892624 -0.569824 2.01916 -4.3583
4707 -0.399472 -0.0972097 -0.0620463 0.227572 -2.06906 -0.67715 -0.853436 -0.68938 2.03717 -4.29591
3680 -0.327559 -0.115803 -0.110408 0.201867 -1.80193 -0.601815 -0.830034 -0.632908 1.96867 -3.8661
4706 -0.363105 -0.0839692 -0.0318634 0.254606 -1.93768 -0.619363 -0.859603 -0.720139 1.9561 -4.18123
2348 -0.166277 -0.0857817 -0.891522 0.379298 -1.19983 -0.627934 -0.225973 -0.0264587 1.33844 -4.19162
2681 -0.0238272 0.0116774 -1.00162 0.303594 -1.35221 -0.583119 -0.368757 -0.0103146 1.30547 -4.46353
955 -0.118022 -0.050006 -0.114397 -0.0587168 -1.94442 -0.3567 -0.588216 0.901193 2.02899 -4.07724
945 -0.0297821 0.0826891 0.0340401 0.0615673 -2.00523 -0.259806 -0.5123 0.605012 1.95277 -3.81607
1005 -0.0519497 0.035186 0.114942 0.0202458 -2.09758 -0.372012 -0.575085 0.723184 2.11162 -4.18388
990 -0.130884 0.0324768 0.178086 0.00121735 -1.87589 -0.34719 -0.559472 0.663338 1.79765 -3.76355
933 -0.184223 -0.0197043 0.0018881 -0.0266392 -1.79842 -0.162232 -0.613208 0.804455 1.84948 -4.08085
902 -0.166105 -0.0444957 -0.0910982 -0.0443686 -2.01223 -0.271684 -0.525078 1.00237 2.12032 -4.21024
868 0.175145 0.310381 -0.201508 0.181255 -1.60317 -0.219241 -0.403104 -0.00997845 1.6754 -3.19221
4777 0.0960197 0.191588 -0.0265424 0.257247 -1.69397 -0.224726 -0.353465 -0.281164 1.65099 -3.39166
845 -0.0341145 0.00895219 -0.0298957 0.219926 -1.75074 -0.546632 -0.224164 0.107385 1.60726 -3.4101
1708 -0.516765 0.222144 0.200443 0.249186 -1.97031 -0.766588 -0.304782 0.162378 1.7762 -4.21728
2141 -0.663518 0.0235183 0.14201 0.245284 -1.94282 -0.802528 -0.376153 0.242892 1.83834 -4.50588
2089 -0.681811 0.0355311 0.00837734 0.276519 -1.90565 -0.81845 -0.305067 0.301484 1.98933 -4.42265
2566 0.0572704 0.0713891 -1.04345 0.136184 -1.6487 -0.514625 -0.322895 0.900249 2.43212 -3.70662
2563 0.178108 0.026447 -1.23447 0.156753 -1.70218 -0.454371 -0.297893 0.888834 2.33849 -3.87998
1652 0.201721 0.0245814 -1.11841 0.0685462 -1.86991 -0.579017 -0.301316 0.908202 2.62149 -3.84828
2555 0.0905513 0.00545645 -0.892583 0.156444 -1.98053 -0.733527 -0.306106 0.719697 2.64011 -3.68301
2569 0.112611 -0.0105622 -1.09344 0.130357 -1.85164 -0.621671 -0.348577 0.800629 2.43033 -3.82826
3195 0.111554 0.0960843 -0.78097 0.142829 -1.56309 -0.541784 -0.31586 0.610318 2.09707 -3.13712
1526 0.0145757 0.156783 -0.114407 0.211048 -1.14362 -0.630965 -0.223822 -0.0809688 1.28334 -2.81708
1017 0.0738534 0.0554403 0.183872 0.20576 -1.33289 -0.582626 -0.420411 -0.37366 1.40734 -3.37084
4063 0.211167 0.0092527 0.133397 0.142261 -1.25446 -0.56033 -0.626332 -0.269112 1.61064 -3.52143
639 0.133174 0.10559 0.225362 0.183534 -1.47963 -0.639668 -0.363995 -0.267126 1.96986 -3.21909
659 0.0243281 -0.00938111 -0.00629895 0.281142 -1.45288 -0.46222 -0.240088 0.100819 2.21271 -3.28308
1500 0.19104 -0.0273712 0.024949 0.176409 -1.13066 -0.490843 -0.575176 -0.0398759 1.4049 -3.30566
3618 0.176841 0.178652 -0.134654 0.0150406 -0.958247 -0.38439 -0.765549 0.0679836 1.40312 -3.13522
3327 0.0751458 0.182752 -0.503907 -0.0912592 -0.945052 -0.442555 -1.13352 0.21958 2.19091 -4.14041
3354 -0.059136 0.171812 -0.317735 0.0210213 -1.0584 -0.45581 -1.10678 0.0659447 2.0297 -4.21386
3439 -0.113475 0.0214566 -0.211697 -0.0283282 -1.10263 -0.346312 -0.87521 0.0822466 1.72247 -3.40185
3441 -0.173066 0.0731269 -0.348422 0.11101 -1.08276 -0.38987 -0.878045 0.0798705 1.82923 -3.48098
4182 -0.101829 0.049173 -0.380053 0.0295616 -0.911791 -0.311698 -0.926901 0.172054 1.83692 -3.64391
4464 -0.261138 -0.0844809 -0.0956046 0.124156 -1.66435 -0.569865 -0.682958 -0.418599 1.88455 -3.51637
3339 -0.147804 -0.170881 -0.439151 0.183866 -1.91479 -0.579854 -0.849999 -0.544952 2.18627 -3.99641
4458 -0.314116 -0.0824051 -0.324043 0.149253 -1.49712 -0.452798 -0.684945 -0.168166 1.79603 -3.07949
3556 -0.118345 -0.00241332 -0.0619497 0.10258 -1.75572 -0.563241 -0.786175 -0.319561 1.89713 -3.54311
4705 -0.395559 -0.135097 -0.207484 0.132773 -2.043 -0.603176 -0.857624 -0.57163 2.2247 -4.17062
4144 -0.223754 -0.202621 -0.34684 0.255445 -1.74357 -0.524103 -0.68781 -0.465695 1.87637 -3.60631
4699 -0.404316 -0.135245 -0.0979492 0.220303 -2.11173 -0.65618 -0.822174 -0.674925 2.1997 -4.27437
3356 -0.13553 -0.262501 -0.716157 0.223216 -2.09699 -0.63303 -0.808314 -0.608049 2.3758 -4.32571
4147 -0.0997679 -0.163495 -0.550575 0.125253 -1.48492 -0.431883 -0.643254 -0.0624194 1.68233 -3.06078
3291 -0.452947 -0.147611 -0.256927 0.163231 -1.89746 -0.625564 -0.928068 -0.601065 2.02785 -4.45327
3699 0.345258 -0.237903 -0.621417 0.0614229 -1.7565 -0.601069 -0.70372 -0.0732564 2.29723 -3.62483
3458 0.412341 -0.138989 -0.732735 0.0415495 -1.52802 -0.539226 -0.747965 -0.0367146 2.11614 -3.70085
4219 0.293666 -0.118482 -0.564964 0.00909836 -1.35341 -0.482224 -0.652322 0.0402703 1.81003 -3.12548
3456 0.336888 -0.12649 -0.787812 0.0419153 -1.42136 -0.419785 -0.646155 0.0491587 1.92787 -3.28428
4218 0.0320203 -0.105593 -0.616371 0.0636087 -1.40842 -0.405713 -0.653352 0.141155 1.69353 -3.17108
3743 -0.0649245 -0.260131 -0.284886 0.00888262 -0.999665 -0.595675 -0.629662 0.349838 1.76881 -3.10614
4231 -0.186006 -0.181431 -0.274045 0.0281328 -1.14733 -0.486642 -0.577821 0.314475 1.78171 -3.06098
4132 -0.259292 -0.117246 -0.350696 0.0121911 -1.20207 -0.409776 -0.610669 0.328875 1.57676 -3.32516
3357 -0.228025 -0.440573 -0.511811 -0.0409627 -1.33958 -0.45196 -0.810374 0.450231 2.02152 -4.19646
4021 0.128697 -0.35957 0.00203857 0.146483 -1.33749 -0.507751 -0.466644 -0.103749 1.49192 -3.41042
4960 0.145102 0.519914 -0.377766 0.164651 -1.2639 -0.132495 -0.733244 -0.278089 1.7588 -3.55827
1467 0.258788 0.13984 -0.00771833 0.202271 -1.16624 -0.336242 -0.585118 -0.313904 1.45345 -3.47822
1139 0.210916 -0.147388 0.119037 0.133306 -1.1766 -0.504042 -0.525162 -0.214247 1.54714 -3.67228
4059 0.209275 0.0349726 0.155376 0.184035 -1.16965 -0.720861 -0.477202 -0.253945 1.7824 -3.33188
1551 0.29393 0.198486 -0.016816 0.231343 -1.47639 -0.954036 -0.366263 -0.0292767 1.55199 -3.63345
1490 0.236293 0.253437 -0.0114695 0.17224 -1.26991 -0.808334 -0.483608 -0.0670002 1.51254 -3.438
3179 -0.00351874 0.461519 -0.12285 0.28294 -1.08766 -0.874198 -0.395684 -0.422757 1.68939 -3.28571
1000 0.0248576 0.122767 0.0264105 0.160345 -1.56968 -0.325839 -0.289201 -0.049494 1.56856 -3.3618
835 0.123297 0.0665258 -0.0492128 0.228008 -1.62606 -0.428951 -0.270002 0.0245693 1.34691 -3.51355
724 0.146765 -0.0996374 -0.103682 0.150124 -1.40908 -0.228931 -0.349732 -0.0460044 1.30445 -3.2958
984 0.0968196 0.0954114 -0.0929773 0.130784 -1.99244 -0.072101 -0.49717 0.111502 1.6579 -3.83005
672 0.0823241 -0.0161218 -0.182047 0.172835 -1.63324 -0.129437 -0.37036 0.285153 1.52536 -3.59761
584 0.097601 -0.189827 -0.714818 0.293311 -1.68346 0.0605189 -0.140434 0.196227 1.95795 -3.68542
597 0.0183495 -0.200054 -0.722165 0.333709 -1.41701 0.0133734 -0.118728 0.0733629 1.83545 -3.35454
756 0.0586407 -0.272711 -1.04821 0.404169 -1.82525 0.0362674 -0.0329837 0.0420079 2.21549 -4.38642
709 0.00165412 -0.217168 -0.930172 0.404515 -1.70489 0.0826247 -0.0729188 -0.07415 2.05826 -4.19098
702 0.126506 -0.244137 -1.06137 0.375879 -1.74251 0.0521603 -0.0500896 0.0127564 2.01446 -4.17723
760 0.125094 -0.212223 -0.700382 0.293086 -1.30272 -0.0162277 -0.163968 0.0224807 1.52681 -3.3195
4126 -0.244993 -0.228764 -0.459926 0.0726486 -1.21518 -0.367731 -0.671202 0.405476 1.67682 -3.44024
2735 -0.0804071 0.152039 -0.515993 0.272819 -1.14771 -0.726187 -0.304104 -0.0810807 1.60914 -3.07878
2902 -0.499898 0.356992 -0.116717 0.0946464 -0.99108 -0.577604 -0.665969 0.563679 1.83291 -4.09714
3199 0.173323 0.13122 -0.656688 0.298171 -1.05249 -0.608772 -0.35177 0.0555087 1.22532 -3.50596
2418 0.145424 0.171792 -0.498289 0.166091 -1.3068 -0.771838 -0.380527 0.12584 1.39342 -3.45339
2422 0.157506 0.182152 -0.585758 0.163559 -1.26397 -0.741012 -0.412086 0.189126 1.36208 -3.7196
1663 0.257687 -0.173356 -0.00822774 0.16144 -1.1104 -0.665673 -0.275631 0.247023 1.73655 -2.92626
1499 0.303732 0.0189392 -0.0598473 0.082589 -1.21521 -0.654742 -0.324644 0.0991994 1.66762 -2.9872
4083 -0.223105 -0.131405 -0.102644 0.045346 -1.22154 -0.562108 -0.732988 0.338974 1.97905 -3.26554
3700 -0.0959408 -0.226459 -0.25721 -0.0082956 -0.964474 -0.573357 -0.647988 0.299101 1.79085 -3.10766
4659 -0.352735 -0.0206026 -0.310209 0.183652 -0.928477 -0.364747 -0.886088 -0.0108182 1.45937 -4.22456
4655 -0.374426 -0.0413683 -0.257261 0.0960522 -1.07054 -0.377709 -0.957097 0.096523 1.49787 -4.40923
4661 -0.385598 -0.13569 -0.319894 0.127401 -1.17238 -0.430446 -0.926511 0.0622195 1.52253 -4.59269
4470 -0.385553 -0.148661 -0.209887 0.129997 -1.15929 -0.448203 -0.828624 -0.14419 1.53926 -4.1101
3638 -0.115599 -0.0972855 -0.207196 -0.00297485 -1.15093 -0.463993 -0.774623 0.324944 2.02979 -3.31926
4494 -0.0247752 0.078155 -0.194581 -0.00487988 -1.32607 -0.463018 -0.874803 0.215887 1.9963 -3.20952
3338 0.0715848 0.0878665 -0.172399 -0.0381962 -1.62328 -0.815992 -1.07734 0.133067 2.83202 -4.11404
4500 -0.0976288 0.106836 -0.0871877 -0.017774 -1.46369 -0.594442 -0.96454 0.272652 2.51255 -3.75333
4311 -0.11239 0.00885742 -0.263979 -0.0538556 -1.25981 -0.5841 -0.833813 0.30994 2.28046 -3.30541
4501 -0.0387984 0.0868082 -0.286701 -0.00425478 -1.30322 -0.645319 -0.848264 0.168225 2.10932 -3.26611
4447 -0.247781 -0.0571711 -0.33 0.152691 -1.51672 -0.505818 -0.634957 -0.0857217 1.74453 -3.19906
4453 -0.228399 -0.172044 -0.303106 0.0818484 -1.42593 -0.444411 -0.689931 -0.149281 1.75805 -3.19967
3315 -0.33419 -0.122623 0.181767 0.189354 -1.4501 -0.727359 -1.03615 -0.419057 1.81837 -4.72556
3642 -0.154613 -0.0324995 0.130131 0.169869 -1.3448 -0.53861 -0.829195 -0.352481 1.56919 -3.65059
4042 -0.178228 -0.207443 0.0895805 0.150888 -1.58551 -0.69685 -0.810809 -0.382827 1.7226 -3.98619
1394 0.152722 -0.0499317 0.0353117 0.0466039 -1.13985 -0.230336 -0.359382 0.643509 1.88802 -3.36783
1856 0.122513 0.0897702 0.085088 0.0905363 -1.06515 -0.576647 -0.366404 0.386953 1.59184 -2.96903
2528 -0.186984 0.108565 -0.651175 0.224349 -2.01771 -0.669879 -0.295455 -0.0444945 2.3426 -3.50529
2233 -0.263337 0.0738622 -0.693869 0.286276 -2.04921 -0.663343 -0.198167 -0.0559505 2.27444 -3.65931
765 0.0662367 -0.246816 -0.811923 0.313683 -1.49926 0.0580078 -0.0975408 0.120029 1.76901 -3.46257
16 0.02476 -0.0578441 -0.583217 0.287787 -1.3352 0.0351388 -0.0760098 0.0669866 1.85861 -3.50339
753 0.11455 -0.33502 -0.970458 0.259002 -1.47019 0.00892429 -0.0877816 -0.00561731 1.80206 -3.59138
832 0.102845 -0.248276 -0.985557 0.329296 -1.63717 0.0205756 -0.0332884 0.058192 1.72494 -3.78381
761 0.21805 -0.133036 -0.68642 0.281413 -1.56742 -0.0939302 -0.0719195 0.00442481 1.67802 -3.39925
752 0.076248 -0.141962 -0.722052 0.342417 -1.55866 0.0190007 -0.0683241 0.0795148 1.5905 -3.54282
822 0.00317756 -0.168153 -0.541541 0.261519 -1.64219 0.200702 -0.265234 0.18101 1.4355 -3.8869
677 0.214481 -0.148955 -0.424914 0.115954 -1.69205 -0.0115068 -0.194018 0.331155 1.53546 -3.53286
477 -0.276836 -0.0763642 -0.558022 0.170945 -1.51274 0.070777 -0.418541 0.287222 2.20394 -3.47456
1 -0.365229 -0.0738203 -0.27694 0.243932 -1.45551 -0.153141 -0.408844 0.0254327 2.43016 -3.75031
436 -0.2237 -0.0717071 -0.347478 0.276114 -1.14913 -0.0444248 -0.377655 -0.273159 1.9484 -3.22179
594 -0.0297048 -0.151802 -0.479552 0.290919 -1.45827 0.0285793 -0.326464 -0.145131 1.93242 -3.66473
591 -0.156603 -0.185493 -0.721253 0.359637 -1.57059 0.0953547 -0.251327 -0.161593 2.20048 -3.81728
592 -0.0529112 -0.143856 -0.643196 0.319839 -1.28756 0.0754978 -0.256407 -0.102411 1.7505 -3.26859
18 0.17421 -0.0107724 -0.212077 0.133275 -1.63301 -0.00111758 -0.346087 0.199376 1.89672 -3.45357
568 -0.00029206 -0.194828 -0.0877503 0.207205 -1.80722 -0.17237 -0.17605 0.227321 2.26173 -3.51803
92 0.166365 0.0555945 -0.148614 0.153481 -1.28672 -0.0592301 -0.322677 0.342486 2.00047 -3.29675
1247 0.158848 0.0650501 0.0341859 0.0808013 -0.770672 -0.547806 -0.363988 0.479738 1.92836 -3.15636
676 0.205768 0.00855466 -0.023022 0.0361258 -1.00512 -0.662677 -0.445829 0.0945902 1.73628 -3.07764
4757 0.115424 0.117846 0.0781438 0.11293 -1.52206 -0.291372 -0.426417 -0.038049 1.39292 -3.29381
3236 0.217717 0.00182025 0.0472246 0.138543 -1.05821 -0.307372 -0.55788 -0.0287321 1.43958 -3.34168
1376 -0.00234313 0.126043 0.154031 -0.0200356 -1.18819 -0.118899 -0.770736 0.766047 1.71789 -4.05632
4107 -0.220106 -0.093096 -0.178542 0.0647057 -1.3116 -0.52419 -0.819675 0.29786 2.12496 -3.54173
3399 -0.185133 -0.0962365 -0.155354 0.0884998 -1.2844 -0.601853 -0.773848 0.241297 1.99496 -3.56058
2216 -0.556022 -0.339545 -0.19085 0.272524 -1.45245 -1.05531 -0.115295 0.201547 2.11708 -4.09846
2571 0.0646483 0.000794811 -1.07225 0.111927 -1.66779 -0.620394 -0.365893 0.784976 2.38544 -3.70963
2565 0.217531 -0.0362815 -1.1444 0.110954 -1.71405 -0.562003 -0.338691 0.903671 2.43921 -3.82527
2572 0.188259 0.0277078 -1.1365 0.0965061 -1.80687 -0.627329 -0.304542 0.763907 2.38161 -3.80087
3163 0.202498 0.125807 -0.497961 0.148932 -1.71866 -0.891815 -0.334143 0.430655 2.28152 -3.3964
1974 0.114593 0.0215769 -0.568132 0.122112 -1.75611 -0.856647 -0.310456 0.625874 2.61901 -3.5964
2879 -0.0564072 -0.0548118 -0.780382 0.114321 -2.02734 -0.886852 -0.2758 0.417152 2.65405 -3.66451
1973 0.118802 -0.00495639 -0.399362 0.13694 -1.70511 -0.862831 -0.430976 0.444523 2.36489 -3.3987
1970 0.121236 0.213465 -0.525502 0.0877326 -1.75109 -0.891701 -0.42657 0.583502 2.64389 -3.687
1965 0.245481 0.200171 -0.653108 0.0481492 -1.77514 -0.885009 -0.502249 0.652517 2.65813 -3.81043
1967 0.216173 0.139918 -0.650148 0.157262 -1.87604 -0.974134 -0.367746 0.479314 2.73438 -3.74659
1645 0.133464 0.303971 -0.774788 0.0562634 -1.60254 -0.746809 -0.553967 0.921166 2.61195 -4.12914
3074 -0.0550798 0.299089 -0.630883 0.165596 -0.774287 -0.387474 -0.409817 0.610556 1.60599 -4.04067
3045 0.0509407 0.381645 -0.749721 0.0979483 -0.868315 -0.40717 -0.49676 0.778042 1.7955 -3.98693
3065 -0.228763 0.329116 -0.479703 0.171283 -0.92153 -0.370832 -0.564961 0.479975 1.53583 -3.99109
4392 0.0657739 -0.272363 -0.560891 0.110294 -1.30143 -0.39768 -0.51709 0.224791 1.44824 -3.32342
3345 0.362723 -0.279747 -0.938299 0.140534 -1.77753 -0.465025 -0.774413 0.0448271 2.01163 -4.30367
3955 0.388547 -0.0524448 -0.778977 0.0649823 -1.48016 -0.436331 -0.829257 0.117783 1.97755 -3.65892
3273 0.398961 0.153903 -0.633563 -0.102295 -1.37315 -0.520199 -1.11138 0.167247 2.35191 -4.13548
3910 0.396333 -0.101337 -0.761195 0.00057724 -1.32563 -0.448316 -0.870684 0.26004 1.82476 -3.65087
3151 -0.304649 0.36914 -0.720973 0.164877 -1.05676 -0.270198 -0.499941 0.652709 1.73285 -4.30544
3153 -0.321661 0.341769 -0.63315 0.119133 -0.935232 -0.277077 -0.539943 0.620035 1.60855 -4.07779
446 -0.386493 -0.0690305 -0.113318 0.176991 -1.49791 -0.165337 -0.463549 0.0356553 2.12493 -3.18116
2303 -0.22825 0.297274 -0.134802 0.247603 -1.73996 -0.840689 -0.668162 0.256748 1.4462 -4.67085
4417 -0.267573 -0.171801 -0.44257 0.0432634 -1.35479 -0.308589 -0.64841 0.285315 1.57565 -3.59969
4294 0.153506 -0.0907518 -0.571828 0.0597799 -1.10858 -0.320795 -0.647872 0.198629 1.42438 -3.1098
4474 -0.194738 -0.351919 -0.349975 0.0788426 -1.43012 -0.338051 -0.588593 0.176552 1.4848 -3.44673
4325 -0.218371 -0.386716 -0.302422 0.0766117 -1.18416 -0.532733 -0.473819 0.309827 1.65612 -3.14683
3207 0.0623729 0.113868 -0.781301 0.291551 -1.05375 -0.487055 -0.426324 0.00776713 1.19972 -3.43974
3958 0.262102 0.0829766 -0.376221 0.0109073 -1.17925 -0.513273 -0.841929 -0.0659071 1.92674 -3.21111
4068 0.261843 0.199989 -0.509159 -0.0460977 -1.20421 -0.373432 -0.965558 0.135158 2.01738 -3.43898
4734 0.00479132 0.129585 -0.353218 0.0196731 -1.01397 -0.404173 -0.905585 0.11644 1.88677 -3.33121
4614 -0.0361711 0.139076 -0.472696 -0.0632301 -0.929114 -0.389326 -0.96949 0.121533 2.02649 -3.76167
4622 -0.105795 0.305571 -0.472907 -0.0177232 -0.926752 -0.441828 -1.11436 -0.0698505 2.23588 -3.94639
1617 -0.0973433 0.284999 -0.0192904 0.0880117 -1.12316 -1.01573 -0.546559 0.176699 2.18565 -3.71915
1598 -0.0384246 0.329336 -0.0713158 0.201316 -1.43949 -0.98276 -0.493805 -0.129962 2.14671 -3.64931
2775 -0.143771 0.175777 -0.241157 0.166287 -1.18226 -0.763982 -0.354106 0.191531 1.68383 -3.01022
267 -0.212008 0.229845 -0.0932591 0.31766 -1.02583 -0.190683 -0.466506 -0.373419 2.10754 -3.4968
112 -0.0382926 -0.252261 -0.673107 0.249119 -1.23651 0.0868668 -0.218986 0.404895 2.16668 -3.80016
39 -0.249063 -0.0475199 -0.378367 0.146754 -1.36824 -0.0387124 -0.503956 0.654784 2.60887 -4.05717
170 -0.175369 0.0127977 -0.307701 0.106818 -1.14345 -0.0360633 -0.488622 0.445689 2.28109 -3.3962
299 -0.301331 -0.0794642 -0.11731 0.255208 -1.37528 -0.37715 -0.437881 -0.0958109 2.21665 -2.98516
491 -0.346145 0.0135393 -0.276146 0.25014 -1.1659 -0.0998252 -0.487077 -0.286423 1.92955 -3.28699
493 -0.320733 0.0146934 -0.392916 0.30075 -1.22833 -0.00843506 -0.464162 -0.344974 2.10835 -3.55876
19 -0.2167 0.080419 -0.306054 0.236589 -1.47512 -0.0599657 -0.376643 -0.0347395 2.48422 -3.68909
124 -0.285646 0.0992966 -0.193542 0.17663 -1.36934 -0.149031 -0.561274 -0.142763 2.48231 -3.49987
12 0.0205131 0.0895678 -0.253226 0.134562 -1.21012 0.046566 -0.270507 0.240823 2.02914 -3.38666
1366 0.24216 0.174022 -0.300233 0.0294899 -1.08502 0.0911288 -0.552534 0.394935 1.99965 -3.48486
662 0.0430072 0.158241 -0.201841 0.246915 -1.51107 -0.0909915 -0.301044 -0.0599386 1.78016 -3.30128
1308 0.154949 0.0262304 0.0150113 0.225036 -1.53763 -0.19114 -0.367573 -0.140518 1.63504 -3.43321
998 0.173753 -0.159328 0.0312647 0.168698 -1.60338 -0.381876 -0.404277 0.0501844 1.53048 -3.53744
1807 0.163128 -0.0833135 -0.0792548 0.0813902 -1.27004 -0.6165 -0.138117 0.565956 1.61989 -3.40898
1956 0.0531959 0.0569583 -0.23908 0.176513 -1.29751 -0.789023 -0.26731 0.33184 1.68307 -2.99104
2986 -0.225499 0.285442 0.0527335 0.158052 -0.95048 -0.866196 -0.518437 0.330299 1.71145 -4.10574
2990 -0.195377 0.247034 -0.0216859 0.149548 -0.994982 -0.919951 -0.550136 0.249463 1.72872 -3.95468
2980 -0.185576 0.30973 0.0610097 0.150323 -0.927095 -0.98628 -0.551621 0.295167 1.80286 -4.23275
2881 -0.166183 0.0858686 -0.705546 0.186614 -1.87109 -0.897023 -0.333336 0.0805473 2.65794 -3.63501
2883 -0.132396 0.0908634 -0.764536 0.210081 -1.84813 -0.664391 -0.264289 0.327507 2.4972 -3.59483
2877 -0.129734 -0.0926136 -0.935459 0.152726 -1.94295 -0.705117 -0.202061 0.606943 2.56491 -3.75637
2888 -0.123387 0.0458133 -0.744685 0.209529 -2.04148 -0.802487 -0.20925 0.274292 2.6976 -3.6664
2757 -0.0799689 0.167441 -0.247218 0.221103 -1.17018 -0.747502 -0.359898 -0.0562308 1.7086 -2.92079
3376 0.184445 0.0183119 -0.0643064 0.162119 -0.961051 -0.66275 -0.54018 0.126986 1.51365 -2.89792
886 -0.00439691 0.0530767 -0.094109 0.123194 -1.71445 -0.379054 -0.374454 0.501693 1.60796 -3.3583
867 0.0481871 0.231648 -0.051424 0.151967 -1.6278 -0.146382 -0.419015 0.0730637 1.5023 -3.51593
630 0.145178 0.0165806 0.0820978 0.149697 -1.38808 -0.232563 -0.484194 -0.158192 1.48143 -3.40775
3561 0.190221 -0.309682 -0.487039 0.126335 -1.763 -0.680634 -0.599073 -0.269 2.02296 -3.49769
3330 0.188261 -0.350248 -0.623655 0.0993816 -1.76546 -0.762136 -0.666174 -0.134842 2.15763 -3.85678
2098 -0.327884 -0.0610581 -0.304694 0.218474 -1.24104 -0.604162 -0.226387 0.14898 1.56915 -3.04093
925 -0.181405 -0.0335688 -0.0673853 0.0333586 -2.02097 -0.313999 -0.482735 0.872343 2.00506 -4.01941
986 0.0738197 0.253518 0.142996 0.0554889 -1.50522 -0.452981 -0.30762 0.383142 1.79205 -3.24579
1924 0.260309 0.192444 0.0857808 0.0549341 -1.33514 -0.804332 -0.323907 0.33544 1.68491 -3.49041
1921 0.246645 -0.0226669 0.176207 0.154741 -1.15871 -0.694885 -0.505359 -0.159251 1.65124 -3.3158
1501 0.227339 0.0237932 0.189604 0.159183 -1.24554 -0.618133 -0.496792 -0.251281 1.49398 -3.41917
3457 -0.0481201 -0.110244 0.12893 0.0231385 -1.09649 -0.766148 -0.730024 0.0555741 1.88483 -3.32646
3771 -0.187877 -0.138667 -0.152219 0.0874041 -1.00871 -0.66233 -0.626137 0.305775 1.94228 -3.16815
4141 -0.278099 -0.33783 -0.417699 0.0765342 -1.23993 -0.401159 -0.544232 0.37832 1.65441 -3.41736
3324 -0.353948 -0.45658 -0.993172 0.0613957 -1.75909 -0.191468 -0.791105 0.498336 1.96774 -4.79572
4664 -0.385712 -0.28376 -0.931092 0.0668643 -1.68205 -0.122879 -0.818256 0.604573 1.93426 -4.63734
4656 -0.38914 -0.282748 -0.734139 0.0451001 -1.50984 -0.136563 -0.724872 0.509409 1.70472 -4.27679
4660 -0.386951 -0.321629 -0.85537 0.00964792 -1.6114 -0.0969259 -0.772183 0.556235 1.77066 -4.5305
4683 -0.391661 -0.32961 -0.737422 0.0954346 -1.64856 -0.180562 -0.760849 0.493603 1.82469 -4.38578
2091 -0.5994 -0.265171 -0.113874 0.239551 -1.5787 -0.949752 -0.146363 0.245809 2.01921 -4.07712
2078 -0.552708 -0.174805 -0.166733 0.245972 -1.56501 -0.932013 -0.175926 0.347852 1.87274 -3.93278
2232 -0.517506 -0.362877 -0.0558533 0.269582 -1.47429 -1.0485 -0.116677 0.327729 2.08112 -4.09642
2081 -0.538863 -0.245389 -0.0095872 0.271893 -1.51925 -0.971264 -0.161323 0.270652 1.93075 -3.91618
2219 -0.557203 -0.280822 -0.0419205 0.213638 -1.38889 -1.05071 -0.191847 0.316558 2.0222 -3.96681
3939 -0.223365 -0.146166 -0.521861 0.134068 -1.34809 -0.429004 -0.607097 -0.126015 1.59508 -3.13082
4786 -0.144233 0.433544 -0.547075 0.0377206 -1.66926 -0.0265112 -0.762921 0.0644753 1.9829 -3.53982
4813 -0.186622 0.403888 -0.643425 0.0846252 -1.72885 -0.188389 -0.762916 -0.0132168 2.11112 -3.78896
1880 -0.1245 -0.219088 -0.164371 0.187692 -0.998595 -0.543655 -0.310089 0.108061 1.44625 -2.79445
1143 0.115785 0.182097 -0.0408587 0.0322748 -1.15529 -0.211332 -0.420008 0.434593 1.87597 -3.44542
1486 0.160329 0.194865 -0.0208512 0.0649036 -1.27381 -0.16628 -0.46528 0.57783 1.68309 -3.4945
1387 0.189642 0.019299 -0.195667 0.0867552 -0.979372 -0.157227 -0.407406 0.270282 1.73788 -2.80609
809 0.16263 -0.128085 -0.536263 0.15817 -1.30867 0.129324 -0.231489 0.305416 1.69031 -3.48006
803 0.0424366 -0.07426 -0.541902 0.20219 -1.28331 0.137787 -0.233193 0.218816 1.66043 -3.28935
695 0.0235669 -0.00152251 -0.402295 0.23919 -1.46877 0.0555211 -0.14221 0.0873922 1.73303 -3.62598
823 0.12273 -0.0804437 -0.649047 0.229222 -1.36328 0.131483 -0.231964 0.0977363 1.7109 -3.59612
730 0.0253112 0.00855754 -0.534815 0.322605 -1.34721 0.0822325 -0.181 -0.0638424 1.83916 -3.53672
1258 0.16082 0.126513 -0.352066 0.251184 -1.00269 0.0193755 -0.319884 0.198722 1.85493 -3.65364
115 -0.0145601 0.0412691 -0.420627 0.309055 -1.23238 0.0812134 -0.256739 -0.0652955 1.90607 -3.61227
538 -0.280363 -0.0181429 -0.408928 0.154713 -1.18638 -0.0704756 -0.500206 0.180732 2.10047 -3.13798
542 -0.216599 -0.157761 -0.404048 0.218139 -1.55753 -0.0127797 -0.365275 0.044381 2.33871 -3.72565
664 -0.403596 -0.0860924 -0.425884 0.320083 -1.3126 -0.0665443 -0.342688 -0.0121426 2.02408 -3.2601
15 -0.0128326 -0.268343 -0.00372156 0.241162 -1.4185 -0.357036 -0.120472 0.306892 2.0666 -3.35375
1138 0.20234 -0.088518 -0.0190716 0.170991 -1.27493 -0.433527 -0.225013 -0.0389733 1.95221 -3.25112
848 0.189545 0.291866 -0.0940674 0.116583 -1.44693 -0.107885 -0.456133 0.231229 1.58326 -3.56264
1158 0.266923 0.0824755 -0.176627 0.13797 -1.17444 -0.104521 -0.34116 0.407122 1.76716 -3.36128
1367 0.190868 0.0993692 -0.171455 0.04299 -0.957113 -0.139621 -0.505125 0.449016 1.77457 -3.25687
3277 -0.291637 -0.321916 0.041686 0.179427 -1.11709 -0.515055 -0.882163 -0.0170893 1.50742 -4.46504
1134 0.0784606 -0.148041 0.129694 0.188761 -1.15216 -0.546782 -0.77615 -0.412941 1.526 -3.72546
81 -0.32208 0.156147 -0.0345044 0.234373 -1.22125 -0.155495 -0.729791 -0.489371 2.20129 -3.91703
4039 -0.0625636 -0.514907 -0.485949 0.0717152 -1.2274 -0.628713 -0.496675 0.375769 1.75088 -3.60431
3947 -0.0133115 -0.456559 -0.48889 0.0721865 -1.30126 -0.365879 -0.486531 0.321663 1.60611 -3.23023
3240 0.219573 -0.460333 -0.307844 0.185003 -1.54929 -0.410273 -0.426354 0.131798 1.418 -3.75151
851 -0.0623501 -0.0799253 -0.121752 0.177993 -1.9898 -0.103323 -0.470646 0.0821631 1.35098 -4.24634
864 -0.090337 -0.113885 -0.214346 0.165505 -2.00569 -0.0474708 -0.51853 0.352957 1.34986 -4.20895
842 0.0347453 0.133644 0.0290308 0.16492 -1.97431 -0.329261 -0.372554 0.162913 1.74159 -3.66148
866 0.0186652 0.0576225 0.126255 0.153872 -1.98808 -0.508707 -0.442579 0.503466 1.86038 -3.82981
978 0.00382495 0.0722473 0.0518644 0.10057 -1.88411 -0.246177 -0.466762 0.590915 1.86473 -3.66194
2076 -0.59175 -0.0866014 0.0679042 0.298709 -1.88555 -0.860499 -0.26907 0.252802 1.7668 -4.11956
4438 -0.250563 -0.0744959 -0.105389 0.164941 -1.52733 -0.490029 -0.68711 -0.223299 1.68561 -3.39435
3944 -0.130212 -0.411373 -0.437699 0.0820285 -1.33915 -0.470547 -0.464628 0.355822 1.53086 -3.2489
1322 0.117287 0.0489539 0.00183748 -0.00498674 -1.12559 -0.466952 -0.718538 0.00833111 1.86221 -2.99374
1323 0.118068 -0.00798208 0.118294 0.00964621 -1.28593 -0.553909 -0.690741 -0.0844174 1.83326 -3.27132
3325 0.0878617 0.121167 0.0724122 -0.0226723 -1.51826 -0.801807 -0.889171 -0.11969 2.43362 -3.72643
1546 0.0471828 0.318894 -0.148696 -0.0436399 -1.40306 -0.78599 -1.03681 0.161702 2.53194 -3.75992
4412 0.0416287 0.330362 -0.395606 -0.0452665 -1.22888 -0.607368 -1.14593 -0.0286532 2.41877 -3.81299
4618 -0.14588 0.263458 -0.52115 -0.00708919 -1.02155 -0.45294 -1.03272 -0.0881002 2.16845 -3.92887
4620 -0.0405694 0.311688 -0.385174 -0.0299501 -1.01704 -0.537195 -1.09022 -0.0417936 2.34388 -3.90735
4269 0.284402 -0.124789 -0.777785 0.0363178 -1.13417 -0.287886 -0.714937 0.258362 1.51454 -3.46919
4283 0.10371 -0.061228 -0.526264 0.0415929 -1.12735 -0.349391 -0.74105 0.353698 1.54004 -3.38746
2995 -0.131923 -0.165027 -0.580812 0.214779 -1.14142 -0.499343 -0.300451 0.854634 1.50745 -4.22031
4889 0.0198791 0.570698 -0.50471 0.0848766 -1.81843 -0.267282 -0.803639 -0.0225373 2.09254 -3.76052
4329 -0.178504 -0.344601 -0.343504 0.0627544 -1.15839 -0.516567 -0.524086 0.24623 1.68846 -3.33312
3332 -0.0950756 -0.272157 -0.560249 -0.0858225 -1.38112 -0.637842 -0.794938 0.406376 2.47558 -3.91712
3260 -0.152622 -0.294003 -0.260017 -0.0764039 -1.21351 -0.702941 -0.759364 0.437845 2.39839 -3.82774
3971 -0.1896 -0.16711 -0.301942 -0.0296248 -0.985908 -0.540649 -0.679349 0.351582 1.89017 -3.11435
3931 0.00475842 -0.122205 -0.179104 -0.034875 -0.977244 -0.488716 -0.649841 0.278454 1.68925 -3.09427
4250 -0.136286 0.0534027 -0.121087 0.0873767 -1.09042 -0.549383 -0.755515 -0.193127 1.53227 -3.16242
4404 -0.00244946 0.000326359 -0.191201 0.0410466 -0.879486 -0.568048 -0.740973 0.165092 1.66892 -3.32372
3333 -0.41833 -0.250199 -0.315046 0.0493178 -1.29973 -0.444535 -0.804847 0.152059 1.71866 -4.45976
3534 -0.309184 -0.213099 -0.153519 0.0288449 -1.35292 -0.488719 -0.678604 0.194165 1.66957 -3.65625
3956 -0.13782 -0.172277 0.0541199 0.114802 -1.54156 -0.786884 -0.585251 0.0267945 1.55803 -3.39762
4537 -0.389927 -0.083913 -0.306302 0.0392837 -1.22156 -0.420856 -0.703699 0.232382 1.59895 -3.61507
4540 -0.369645 -0.0900469 -0.379375 0.0156936 -1.23252 -0.373515 -0.696914 0.123675 1.53435 -3.57717
2103 -0.0243974 -0.265596 -0.33348 0.185543 -1.25783 -1.16511 -0.271991 0.373492 1.88215 -3.95552
1958 -0.204519 -0.297439 -0.333407 0.262779 -1.29487 -1.1441 -0.25784 0.273816 2.00364 -3.83083
3226 -0.205874 -0.329898 -0.269528 0.224772 -1.14851 -0.972521 -0.178979 0.310009 1.7199 -3.37396
1621 -0.426842 -0.382754 -0.465603 0.371645 -1.35757 -1.07705 -0.112738 0.0907558 2.02996 -4.3977
2169 -0.440791 -0.292355 -0.461104 0.33041 -1.27137 -0.799578 -0.156441 0.0523733 1.83195 -3.85227
2167 -0.281761 -0.151333 -0.558101 0.299565 -1.10051 -0.776844 -0.170067 -0.0437337 1.64312 -3.6334
2178 -0.388493 -0.242266 -0.485631 0.302897 -1.1972 -0.78068 -0.192159 0.0530584 1.737 -3.77139
2946 -0.172907 0.539483 -0.360675 0.349391 -1.275 -0.925565 -0.607558 -0.624434 2.19509 -4.0222
1893 0.0486791 0.0913298 0.0705744 0.256903 -1.50632 -0.679773 -0.2876 -0.0524686 1.27157 -3.39096
1697 -0.139133 -0.066709 -0.280309 0.304459 -1.78913 -0.574493 -0.174889 0.17909 1.52336 -3.39761
2981 -0.146334 0.206324 -0.0374693 0.171633 -1.10921 -0.687327 -0.417247 0.265392 1.58187 -3.67607
2987 -0.243438 0.254258 -0.0637219 0.151195 -1.06357 -0.759715 -0.503651 0.207001 1.64621 -3.80787
2962 -0.106634 0.122681 -0.391958 0.180434 -0.940675 -0.528255 -0.318032 0.4145 1.77061 -3.00141
1618 -0.176518 0.253882 -0.548819 0.164504 -1.16996 -0.685136 -0.376088 0.597001 2.44285 -3.755
2967 -0.132536 0.189188 -0.560509 0.120512 -1.0232 -0.539773 -0.406767 0.344615 1.9261 -3.19539
397 -0.259942 -0.0418849 -0.124286 0.256224 -1.33342 -0.12701 -0.480949 0.120978 2.16179 -3.13165
551 -0.527529 0.0700713 -0.227378 0.212821 -1.39634 -0.127086 -0.536344 0.233418 2.04727 -3.52783
242 -0.410742 0.0492489 -0.184927 0.217001 -1.0507 -0.102105 -0.481153 -0.134302 1.82945 -3.10784
544 -0.308139 -0.169441 -0.363394 0.255471 -1.29004 -0.0647939 -0.360765 0.0100127 2.06773 -3.30364
460 -0.164908 0.031212 0.0078711 0.283908 -1.24429 -0.360719 -0.339901 -0.0809721 2.11432 -3.07599
623 -0.0847622 0.157121 -0.0792271 0.187406 -1.50729 -0.142206 -0.434927 -0.0312969 1.71654 -2.99559
1539 0.227282 -0.0204347 -0.082223 0.291901 -1.02082 -0.589662 -0.091807 0.0322826 1.59217 -2.98108
3306 -0.0358357 -0.43207 0.131839 0.202563 -1.16508 -0.606701 -0.572308 0.014805 1.46611 -3.89239
3876 0.0504668 -0.37359 -0.272416 0.116537 -1.86803 -0.671979 -0.69725 -0.263784 1.94799 -3.86481
3293 -0.510005 -0.0611349 -0.0321183 0.139627 -1.5149 -0.670045 -0.979211 -0.225869 1.90111 -4.4967
3263 -0.439527 -0.193371 0.0466646 0.181628 -1.34871 -0.593354 -0.990585 -0.147259 1.71731 -4.74025
3880 -0.188535 -0.188869 0.04324 0.0655569 -1.8895 -0.629527 -0.789139 -0.331335 1.77781 -3.72095
3953 -0.0901356 -0.2279 -0.0201848 0.154482 -1.80984 -0.650837 -0.764046 -0.300547 1.77685 -3.8801
3888 -0.150433 -0.175174 0.111992 0.124131 -1.90296 -0.652789 -0.775985 -0.517774 1.99442 -3.85607
4703 -0.495825 -0.120849 -0.0514915 0.226352 -2.11412 -0.681293 -0.858579 -0.648186 2.14542 -4.22945
11 0.026395 0.138441 0.173707 0.0280517 -1.38157 -0.246989 -0.539286 0.36258 1.75376 -3.34024
1140 0.0753489 0.332521 0.0168928 0.110118 -1.17232 -0.196031 -0.473406 0.188749 1.79156 -3.06283
1458 0.0680954 0.200094 0.200193 0.0582834 -1.45132 -0.252724 -0.581923 0.523682 1.84201 -3.74722
909 -0.124154 -0.00536285 -0.0787016 0.0491901 -1.87716 -0.357586 -0.624186 0.877525 1.93944 -4.13589
969 -0.0675011 -0.0408765 -0.161013 -0.00277285 -1.69756 -0.256741 -0.520958 0.803792 1.68334 -3.50904
743 0.182344 0.129984 -0.786465 0.317765 -1.37927 0.183246 -0.308195 -0.0131613 1.59242 -3.28686
830 0.226155 0.450016 -0.273024 0.118498 -1.50472 -0.169672 -0.588236 0.0189785 1.79228 -3.42467
4998 0.0448063 0.489826 -0.473268 0.127417 -1.56191 -0.203274 -0.670371 -0.0681053 1.84816 -3.33027
4989 0.204368 0.596282 -0.673061 0.134624 -1.6523 -0.0709909 -0.74643 0.0545075 2.00898 -3.84304
4982 0.104752 0.643681 -0.653639 0.177468 -1.60853 -0.135986 -0.773134 0.0265173 2.07042 -3.91662
4992 0.0379478 0.602203 -0.621665 0.137972 -1.57236 -0.035646 -0.780939 0.0306642 1.94268 -3.85407
8 0.0629807 0.593452 -0.593757 0.162255 -1.84146 -0.0915203 -0.764318 -0.0650847 2.17971 -4.14913
4887 0.00739932 0.366536 -0.502925 0.0863967 -1.59479 -0.0776259 -0.699837 0.0232305 1.83402 -3.23362
564 -0.287594 -0.0038082 -0.206425 0.194702 -1.25074 -0.238596 -0.435363 0.00251073 2.20828 -3.06278
2498 -0.332166 -0.0198575 -0.443656 0.18557 -1.33548 -0.565566 -0.260901 0.088512 1.69319 -3.03051
3013 0.0778918 -0.156006 -0.806288 0.10496 -1.44895 -0.560768 -0.147323 0.84161 1.42616 -3.96624
3019 -0.0335731 -0.0656252 -0.744854 0.113194 -1.44128 -0.52412 -0.23299 0.685493 1.48179 -3.85427
1845 0.170409 0.148758 -0.192952 0.0148687 -0.991956 -0.779425 -0.457182 0.249554 1.69571 -3.05894
1830 0.156232 -0.00843873 -0.145554 0.139077 -1.03886 -0.73832 -0.173456 0.555708 1.82514 -3.26841
1602 -0.0421911 0.0864039 -0.819411 0.256105 -1.20185 -0.797695 -0.343369 0.0203118 1.95363 -3.78632
2656 -0.00225196 0.0162164 -0.628877 0.30186 -1.00151 -0.633572 -0.276338 0.0252929 1.54226 -3.03083
2536 -0.099945 0.0406647 -0.885687 0.192119 -1.02096 -0.68154 -0.353761 0.500075 2.59902 -3.72277
1509 -0.171436 0.0194756 -0.927112 0.171716 -1.00927 -0.867799 -0.368794 0.488001 2.78171 -4.13403
2546 -0.115292 -0.14237 -0.826829 0.221984 -1.0656 -0.697332 -0.321581 0.535428 2.62201 -3.71235
2250 0.0995935 0.30475 -0.63306 0.111045 -1.34038 -0.696033 -0.529091 0.704415 2.16175 -3.65612
1947 0.180923 0.25825 -0.756709 0.012768 -1.57478 -0.733433 -0.529704 0.890678 2.42775 -3.968
2246 0.18194 0.281397 -0.799757 -0.00123319 -1.46396 -0.678378 -0.616514 0.980917 2.45776 -3.93897
1436 0.163055 0.15713 -0.157073 0.0658507 -1.05864 -0.1159 -0.40467 0.411907 1.7857 -3.13322
754 0.149164 -0.289992 -1.15899 0.342796 -1.71073 0.059073 -0.161425 0.118231 2.05156 -4.25763
580 0.0204524 -0.274417 -1.04455 0.333726 -1.69131 0.0620154 -0.0878551 0.139024 2.07631 -4.21122
711 0.13007 -0.281511 -0.927301 0.32949 -1.63049 0.0357334 -0.0682362 -0.00651463 1.98642 -4.05154
707 0.180333 -0.17323 -0.990254 0.343043 -1.69559 0.0900146 -0.0811726 0.0475012 1.95059 -4.03529
777 0.137907 -0.0802925 -0.456959 0.242419 -1.46145 0.0810755 -0.294722 0.23235 1.58238 -3.35314
4495 -0.118655 0.0830827 -0.244409 -0.0374614 -1.3875 -0.582261 -0.924632 0.258955 2.278 -3.51615
4414 0.0605553 0.228173 -0.0105484 -0.0452585 -1.4758 -0.679448 -1.07562 0.10404 2.53552 -3.74205
4491 -0.0260751 0.0901485 -0.207488 0.00902308 -1.39211 -0.633598 -0.900004 0.121913 2.23341 -3.36898
4415 0.0748949 0.227919 -0.167118 -0.0921017 -1.47226 -0.614716 -1.16298 0.192428 2.7178 -3.86588
4413 0.144467 0.246589 -0.277186 -0.0371142 -1.4195 -0.686517 -1.16362 0.120066 2.73344 -3.92217
4487 0.0107367 0.13327 -0.181941 0.0109883 -1.39001 -0.601776 -1.00206 0.146631 2.41493 -3.58109
2227 -0.484551 -0.30237 -0.194041 0.324727 -1.46342 -0.997718 -0.121973 0.128623 1.98949 -3.82432
2226 -0.502604 -0.323818 -0.140742 0.312985 -1.4469 -0.912649 -0.101426 0.146104 1.83026 -3.76966
2097 -0.459476 -0.289918 -0.11483 0.287153 -1.40668 -0.823842 -0.0596044 0.120876 1.7486 -3.7135
2095 -0.528188 -0.163352 -0.103629 0.275525 -1.56129 -0.809292 -0.0904477 0.200779 1.9197 -3.87909
2101 -0.406228 -0.192746 -0.182105 0.303141 -1.67142 -0.713474 -0.121226 0.281254 1.65967 -3.58997
2080 -0.548361 -0.315316 -0.0669433 0.294287 -1.51304 -0.932952 -0.14779 0.196574 1.8451 -3.82115
1777 -0.533459 -0.158591 -0.176754 0.248971 -1.54568 -0.829313 -0.199815 0.17441 1.768 -3.75731
2100 -0.566329 -0.33733 -0.159774 0.288753 -1.41155 -0.906901 -0.0835454 0.234191 1.9108 -3.89076
2330 -0.554462 -0.351722 -0.330995 0.304735 -1.4308 -0.889162 -0.0492437 0.144657 1.95148 -3.98202
2329 -0.518197 -0.106685 -0.37993 0.335996 -1.45325 -0.802179 -0.188287 0.107828 1.95861 -3.94781
2337 -0.345726 -0.200964 -0.381535 0.254724 -1.29982 -0.810458 -0.132445 0.170682 1.78149 -3.59404
1371 0.0315627 0.0251192 -0.0160409 -0.0171526 -1.17674 -0.0998097 -0.75433 0.890532 1.719 -4.03426
1885 0.0173638 -0.00250839 0.0528214 0.0270163 -1.12129 -0.510499 -0.581937 0.294329 1.31186 -3.01973
1378 0.0482525 0.0622188 0.0988593 -0.00756139 -1.13982 -0.0532212 -0.753572 0.845903 1.76074 -4.15285
1374 0.0223511 0.136486 0.0743869 -0.0188997 -1.16159 -0.055931 -0.766877 0.872605 1.87268 -4.16711
1373 -0.0272158 0.073626 0.0848878 -0.0116955 -1.19393 -0.0116973 -0.759638 0.809592 1.63343 -4.21726
4357 -0.3303 0.00189931 -0.267945 -0.0191972 -1.22804 -0.48845 -0.73489 0.136714 1.62148 -3.37461
4373 0.165885 -0.158742 -0.572774 0.0598566 -1.36002 -0.387671 -0.687624 0.196609 1.7479 -3.39114
2206 -0.357413 0.0182168 -0.713033 0.245449 -1.8338 -0.55013 -0.221898 0.118605 1.73253 -3.59708
2212 -0.297772 0.0491772 -0.625472 0.261689 -1.7314 -0.573979 -0.236156 0.100169 1.58917 -3.48655
1518 -0.381947 0.0548214 -0.603212 0.271146 -2.12308 -0.670223 -0.124384 0.21079 1.8401 -4.20193
2210 -0.488457 0.0574276 -0.489574 0.236797 -1.72398 -0.624574 -0.187173 0.160692 1.60733 -3.72457
2288 -0.602377 0.0246515 -0.265456 0.285391 -1.89878 -0.706417 -0.288049 0.29822 1.85633 -4.2309
525 -0.398581 0.0452619 -0.234754 0.225261 -1.1819 -0.231478 -0.534297 -0.15144 2.05171 -3.12684
1647 -0.567481 -0.391649 -0.227167 0.320232 -1.55158 -0.97211 0.0291905 0.16943 1.99099 -4.16283
2229 -0.534423 -0.407096 -0.197615 0.28918 -1.49976 -1.01003 -0.115605 0.0563937 2.0374 -3.95401
2224 -0.51153 -0.383648 -0.246125 0.305317 -1.42353 -1.04661 -0.120614 0.170686 2.02326 -3.94774
1040 -0.179439 -0.0894084 0.0739511 0.0533596 -0.908979 -0.229827 -0.354112 -0.0218223 1.23604 -3.14784
3909 -0.0928505 -0.24929 -0.371852 0.0849966 -1.36352 -0.484415 -0.54557 0.288398 1.52809 -3.18472
3286 -0.010781 -0.612691 -0.607114 0.153507 -1.85375 -0.566174 -0.616901 0.250095 1.98198 -4.36799
3454 0.119473 -0.512339 -0.648017 0.160274 -1.84159 -0.516866 -0.603184 0.132386 1.86389 -3.92086
3658 0.377365 -0.475683 -0.747088 0.124852 -1.68529 -0.521402 -0.586015 0.190051 1.95799 -3.85679
3959 0.394349 -0.100156 -0.737931 0.0312195 -1.45371 -0.487278 -0.827938 0.12776 1.97683 -3.62906
3242 0.346039 0.0689364 -0.498522 -0.0191728 -1.37471 -0.549346 -0.99004 0.0275347 2.18781 -3.86965
3623 0.0877083 0.256825 -0.361681 -0.0414037 -1.12402 -0.584351 -0.941416 -0.0400107 2.07395 -3.42933
4090 -0.130768 -0.138339 -0.210316 -0.00743429 -1.23576 -0.593991 -0.644296 0.285439 1.98209 -3.30896
3322 -0.0760073 -0.215139 -0.121921 -0.102848 -1.40299 -0.78211 -0.812571 0.398296 2.42361 -3.86981
3380 -0.0482124 -0.245508 -0.226233 -0.122193 -1.23111 -0.670457 -0.63444 0.295027 1.92542 -3.46673
3723 -0.0930058 -0.261413 -0.150594 -0.0260537 -1.10158 -0.694312 -0.673893 0.324379 2.2323 -3.51352
3304 -0.13986 -0.368125 -0.144866 0.00552384 -1.18504 -0.773435 -0.850915 0.438314 2.65058 -4.14932
3768 -0.18181 -0.25196 -0.168846 0.034425 -1.05089 -0.62731 -0.670124 0.307236 2.03535 -3.44183
1381 0.116296 -0.213357 0.0647864 0.150651 -1.18674 -0.465435 -0.335146 0.0206844 1.48137 -3.20366
143 -0.365127 -0.0107218 -0.212247 0.336942 -1.10529 -0.151422 -0.47828 -0.310762 2.07481 -3.45691
28 -0.390858 0.0326804 -0.260961 0.320368 -1.25112 -0.166464 -0.594248 -0.552003 2.39453 -4.22056
658 -0.479113 -0.0184403 -0.0379508 0.255272 -1.08047 -0.124459 -0.511951 -0.0874519 1.9209 -3.4923
142 -0.222516 0.0374791 -0.299795 0.245794 -1.04728 -0.0876169 -0.469576 -0.336265 1.94873 -3.45548
25 -0.473086 0.0782338 -0.0622391 0.286275 -1.30616 -0.0258725 -0.544034 -0.471528 2.18004 -4.08327
62 -0.467935 0.168139 -0.126671 0.259255 -1.24333 -0.172737 -0.647837 -0.416648 2.55317 -4.17378
145 -0.0809646 0.142771 -0.157236 0.22921 -0.988827 -0.0759359 -0.486357 -0.128375 1.96576 -3.31295
3847 -0.0362703 -0.0960624 -0.338213 0.185402 -1.56427 -0.416137 -0.669818 -0.0785515 1.61349 -3.26835
3285 0.0484325 -0.236836 -0.611876 0.152178 -1.8999 -0.468084 -0.85374 -0.28187 2.0243 -3.92788
3890 0.0725017 -0.106984 -0.376198 0.147205 -1.56873 -0.487905 -0.729609 -0.097366 1.71301 -3.21726
274 -0.222255 -0.123095 -0.298827 0.207152 -1.03867 -0.0316668 -0.455616 0.357361 2.02978 -3.31146
284 -0.229903 -0.0807727 -0.321484 0.229875 -0.949903 -0.122733 -0.394604 0.314909 2.05038 -3.39479
283 -0.271806 -0.0388521 -0.400317 0.271386 -1.02792 -0.129133 -0.394044 0.312366 1.99688 -3.26843
52 -0.162649 -0.225562 -0.258627 0.216911 -1.14914 -0.186086 -0.301075 0.525242 2.31669 -3.66104
105 -0.132104 -0.267892 -0.263487 0.219515 -1.13409 0.0108029 -0.143938 0.412385 1.91436 -3.87205
120 -0.162886 -0.139719 -0.454168 0.256652 -1.02284 0.048588 -0.237819 0.335051 2.09567 -3.66699
134 -0.327597 -0.0191134 -0.00343268 0.353883 -1.86129 -0.573936 -0.495929 -0.398336 2.63026 -3.48486
29 -0.267024 -0.0603989 0.0758503 0.296562 -2.0192 -0.599014 -0.533689 -0.318352 3.06948 -3.92054
37 -0.0556076 -0.0690686 -0.134763 0.201674 -1.6842 -0.422451 -0.445674 -0.201712 2.69945 -3.42684
86 0.00290341 -0.0718068 -0.0477213 0.195789 -1.4407 -0.410189 -0.45294 -0.0690956 2.59693 -3.38629
606 -0.149445 -0.246815 0.0222846 0.214052 -1.26605 -0.556916 -0.270196 0.19182 2.39189 -3.34964
610 -0.0676095 0.115184 -0.00730186 0.1567 -1.08482 -0.206182 -0.349822 0.186869 1.79534 -2.90219
844 0.0520855 0.304893 -0.00107735 0.102533 -1.80615 -0.18544 -0.529246 0.297345 1.98691 -3.5397
3393 -0.0932877 0.0778345 -0.0244281 -0.0748299 -1.27645 -0.448411 -0.73481 0.247637 2.08883 -3.29352
4238 -0.083633 -0.123301 -0.342472 0.0358988 -1.02518 -0.553844 -0.688765 0.275653 1.81777 -3.17506
2770 -0.169557 0.188159 -0.329867 0.191452 -1.13259 -0.699267 -0.466629 0.0829701 1.76179 -2.97263
2771 -0.203553 0.201376 -0.178816 0.210158 -1.24003 -0.798739 -0.414315 -0.0853414 1.81763 -3.23054
2916 -0.232687 0.339414 -0.179177 0.139695 -1.18817 -0.782951 -0.476551 0.0845719 2.10991 -3.52142
1583 0.0949962 0.0991231 -0.240404 0.112078 -1.08985 -0.691999 -0.327568 0.765283 1.68544 -3.51527
1620 0.0357754 0.170246 -0.251372 0.154377 -0.868646 -0.594892 -0.360735 0.673089 1.49987 -3.46735
1649 -0.0474807 0.309497 -0.51402 0.208039 -0.850519 -0.303399 -0.326405 0.688803 1.71367 -4.01388
1643 0.0611621 0.0717891 -0.196455 0.121103 -0.942603 -0.710275 -0.244194 0.840028 1.67049 -3.79413
1580 -0.044678 -0.115483 -0.265067 0.218131 -0.971912 -0.575978 -0.277392 0.833303 1.47854 -3.8158
1513 -0.285227 0.387909 -0.44314 0.194445 -0.938252 -0.332225 -0.550866 0.684179 1.71148 -4.2849
3059 -0.274368 0.301367 -0.490351 0.217078 -0.941834 -0.319554 -0.561498 0.52039 1.55702 -4.12401
1641 -0.372052 0.480156 -0.221336 0.0795462 -1.12512 -0.624067 -0.601182 0.655736 1.90849 -4.54225
2900 -0.403179 0.424174 -0.0146254 0.130471 -0.923043 -0.640395 -0.660949 0.397389 1.82416 -4.12944
2848 -0.345316 0.396715 0.163774 0.044531 -0.992895 -0.873295 -0.657258 0.474899 1.99036 -4.2704
2895 -0.405393 0.408126 -0.178961 0.112541 -1.13951 -0.576012 -0.655791 0.507386 1.78409 -4.24768
2894 -0.489916 0.428551 -0.302538 0.12418 -1.08927 -0.566654 -0.650603 0.554633 1.88812 -4.41395
2897 -0.398729 0.397066 -0.254177 0.126746 -1.01764 -0.542655 -0.55004 0.511759 1.70452 -4.1923
2909 -0.453805 0.485515 -0.248142 0.113426 -1.0861 -0.42635 -0.685349 0.550848 1.83186 -4.20284
4906 -0.122365 0.429271 -0.552825 0.0695433 -1.54694 -0.171336 -0.759514 0.0242228 2.05342 -3.35409
4771 -0.104996 0.587639 -0.597274 0.13013 -2.14875 -0.3011 -0.825113 -0.0671866 2.52338 -4.30717
4915 -0.0661317 0.477959 -0.537633 0.127777 -1.7163 -0.180602 -0.769722 0.0100251 2.10962 -3.71556
4857 -0.0876274 0.47886 -0.512438 0.0782906 -1.81703 -0.221105 -0.731218 0.0485199 2.07653 -3.60742
4788 -0.0752688 0.394958 -0.476282 0.065304 -1.5795 -0.153051 -0.660664 0.0214298 1.87895 -3.36877
4761 -0.18674 0.435349 -0.649344 0.100342 -2.02922 -0.184523 -0.871689 0.0435476 2.47629 -4.31547
4831 -0.0130206 0.436951 -0.569242 0.0446763 -1.5247 -0.144279 -0.713737 0.0852531 1.87746 -3.29849
3426 -0.0477286 -0.28833 -0.248993 0.172165 -1.28477 -0.611741 -0.636324 -0.228335 1.61949 -3.36928
3653 0.169194 -0.513228 -0.610354 0.138749 -1.80555 -0.772169 -0.518469 0.0315538 2.04879 -3.92457
4489 -0.163206 0.0306318 -0.322347 -0.0510848 -1.33714 -0.547331 -0.852573 0.238806 2.16536 -3.22651
3342 -0.161035 -0.393611 -0.495544 -0.0865547 -1.31451 -0.714318 -0.719801 0.476103 2.43078 -4.03275
3510 -0.152095 -0.210915 -0.228546 0.0973556 -0.9185 -0.638146 -0.755309 0.241346 2.03959 -3.62048
3311 -0.0343909 -0.341619 -0.14632 0.0548571 -1.06118 -0.813562 -0.735632 0.167527 2.32513 -3.92428
4241 -0.132646 -0.21827 -0.229825 0.0327982 -1.03452 -0.583012 -0.711452 0.230922 1.99799 -3.44139
3614 -0.0138303 0.206276 -0.366321 -0.0341694 -1.02144 -0.458287 -0.964563 0.0751085 1.83506 -3.30455
4603 -0.0941174 0.186409 -0.548881 -0.0808709 -0.84321 -0.279519 -1.0044 0.274996 1.9675 -3.94922
4610 -0.17132 0.150084 -0.620556 -0.0347855 -0.919446 -0.398569 -1.01592 0.113766 2.09264 -3.99465
4034 0.380656 0.029347 -0.693696 4.54533e-05 -1.47991 -0.437468 -0.939847 0.188008 1.96547 -3.61277
4578 -0.0210156 -0.274202 -0.382199 0.0868222 -1.40306 -0.615584 -0.589673 0.00292535 1.74479 -3.22677
4577 -0.0663836 -0.134333 -0.391948 0.0994023 -1.43102 -0.506605 -0.668946 -0.0849961 1.80912 -3.22246
3795 0.182005 -0.402657 -0.593103 0.217154 -1.93028 -0.710029 -0.678565 -0.299043 1.92995 -4.13754
3562 0.1069 -0.446661 -0.233021 0.182572 -1.66937 -0.60143 -0.495387 0.000678256 1.5336 -3.61373
331 -0.342526 -0.00752817 -0.107136 0.255631 -1.81606 -0.222562 -0.35413 0.0750579 2.1234 -3.3221
1737 -0.562851 0.0558 -0.119299 0.279751 -2.11994 -0.790243 -0.307418 0.145035 1.83189 -4.20814
2290 -0.709865 0.00889535 -0.172341 0.270818 -2.19651 -0.695162 -0.34489 0.256903 1.97297 -4.5842
2292 -0.683321 0.155412 0.0241589 0.257721 -2.05188 -0.740499 -0.39396 0.202269 1.93217 -4.58425
2293 -0.708227 0.121912 -0.0476615 0.248659 -2.03904 -0.696892 -0.469732 0.167585 1.78263 -4.54264
2157 -0.583511 0.146871 0.0651423 0.248457 -1.95576 -0.762286 -0.470824 0.239133 1.69985 -4.47756
3541 -0.134643 -0.156622 -0.468626 0.027224 -1.34319 -0.545076 -0.644068 0.270253 1.99638 -3.43301
4046 -0.0888445 0.0668003 0.143243 0.0167079 -1.43241 -0.874922 -0.862238 -0.101597 2.11464 -3.55711
3581 -0.0725554 -0.0705505 -0.687483 0.144224 -1.03369 -0.24796 -0.809476 -0.0896969 1.53861 -3.51339
4617 -0.0689444 0.220772 -0.449477 -0.0499875 -0.981034 -0.387684 -1.03131 -0.0317672 2.23953 -3.81682
4616 -0.103915 0.322872 -0.46521 -0.0559471 -0.873294 -0.414335 -1.10575 0.0431822 2.24659 -4.00371
4119 -0.0971921 0.20145 -0.336187 -0.0430323 -0.924344 -0.399232 -0.9588 0.0165194 1.95743 -3.62493
4623 -0.0181873 0.226481 -0.546926 -0.0481378 -0.997929 -0.473338 -1.05759 -0.0415329 2.38035 -3.94411
2317 -0.425293 -0.32254 -0.278115 0.269128 -1.26955 -0.908805 -0.087112 0.0942742 1.86075 -3.66735
1932 -0.444031 -0.28574 -0.380636 0.305621 -1.44754 -0.909469 -0.157403 0.0688459 1.93342 -3.85623
3660 -0.201631 -0.313916 -0.750014 0.0250701 -1.27295 -0.234184 -0.679456 0.399247 1.56759 -3.49946
4669 -0.32234 -0.352728 -0.774197 0.0722352 -1.66198 -0.0875761 -0.790229 0.452652 1.77168 -4.49124
4672 -0.377315 -0.319579 -0.646967 0.0473597 -1.57846 -0.231058 -0.668883 0.472998 1.66731 -4.16024
4714 -0.184197 -0.209381 -0.66001 0.11326 -1.39131 -0.336965 -0.575458 0.262253 1.49301 -3.45808
4674 -0.363188 -0.391985 -0.771927 0.0780694 -1.58704 -0.201064 -0.728023 0.497312 1.83317 -4.32034
3957 0.176777 0.0622241 -0.386823 -0.0278774 -1.31541 -0.406005 -0.941101 0.0898874 1.95213 -3.40173
3820 0.264162 0.134169 -0.201074 -0.0566618 -1.34915 -0.592018 -0.895485 0.337528 1.67618 -3.68903
4988 -0.0524305 0.393106 -0.453085 0.0794631 -1.48542 -0.155594 -0.640164 -0.059763 1.67304 -3.10638
4753 0.0513754 0.571644 -0.536324 0.0726136 -1.76426 -0.0903215 -0.766201 0.135782 1.77087 -4.28189
4924 0.0843928 0.54683 -0.382677 0.0740986 -1.71877 -0.088961 -0.820543 0.0520922 1.82312 -3.78287
4754 0.140125 0.357079 -0.00288394 0.0929443 -1.29954 -0.0617782 -0.545965 0.163746 1.91679 -3.46812
1133 0.119624 0.129781 -0.0804105 0.148552 -1.41697 -0.0262765 -0.438509 0.205877 1.61736 -3.4288
841 0.00918028 -0.0460211 -0.0758027 0.159402 -1.78899 -0.0532075 -0.47432 0.217069 1.3025 -3.97446
861 -0.103218 0.011429 -0.0734626 0.251455 -1.88935 -0.0456724 -0.385555 0.161322 1.43868 -4.18366
3470 0.153286 -0.335529 -0.00492312 0.0287638 -1.01099 -0.660861 -0.515927 0.30112 1.72216 -3.33244
1497 0.0700038 0.0999785 0.0183014 0.0310998 -1.05744 -0.485693 -0.793157 -0.216315 1.46782 -3.44166
1137 0.189512 -0.00918597 0.123728 0.130872 -1.24255 -0.511641 -0.545324 -0.137038 1.46805 -3.14686
869 0.0363776 0.145632 0.119536 0.151182 -1.53612 -0.675224 -0.293287 0.0969092 1.55707 -3.42631
1505 0.0860025 0.124235 0.0113757 0.14128 -1.59216 -0.405786 -0.259192 0.167383 1.43558 -3.4398
1704 -0.130347 0.0290684 -0.0882885 0.27195 -1.69858 -0.662481 -0.227486 0.176251 1.37707 -3.81409
2158 -0.247763 -0.0785612 -0.500074 0.294781 -2.12336 -0.521623 -0.220267 0.222934 1.67545 -3.93589
2152 -0.240732 -0.0679498 -0.725082 0.328639 -2.19268 -0.56025 -0.19611 0.183415 1.68996 -4.18217
1725 -0.0531443 -0.0798246 -0.636352 0.345692 -1.95353 -0.517989 -0.163095 0.155017 1.47617 -3.70869
1723 -0.129262 0.00598637 -0.62163 0.354093 -2.09314 -0.49947 -0.122531 0.13044 1.54964 -3.85358
1733 -0.0174288 -0.0457941 -0.514755 0.275755 -2.04265 -0.415844 -0.0969245 0.180866 1.35826 -3.78717
2149 -0.165805 -0.0330909 -0.739845 0.332142 -2.18801 -0.503588 -0.146766 0.165136 1.56546 -4.09295
1931 -0.00763629 0.121197 -0.169495 0.189296 -1.55662 -0.324709 -0.290225 0.00772611 1.20373 -3.12305
621 0.0530861 -0.129218 0.0123673 0.222048 -1.01993 -0.43184 -0.253631 0.145668 1.4045 -3.00624
14 0.195047 0.270633 -0.144371 0.168941 -1.40223 -0.17884 -0.449526 0.122251 1.97251 -3.2583
2659 0.014657 0.11497 -0.596583 0.197132 -1.06269 -0.596757 -0.223423 0.0481023 1.38926 -3.08501
2388 -0.134137 0.0346026 -0.484631 0.197606 -1.09351 -0.58084 -0.354173 0.23721 1.69741 -3.07823
3184 0.104404 0.223533 -0.654922 0.0826575 -1.29555 -0.656131 -0.413574 0.607734 2.07216 -3.34983
2581 -0.145436 0.102107 -0.559497 0.220447 -1.05309 -0.580187 -0.321227 0.0934424 1.47702 -3.05887
2404 -0.22724 0.15223 -0.447916 0.139715 -1.15093 -0.606133 -0.309059 0.108749 1.64127 -2.97056
2405 -0.22283 0.0456182 -0.513091 0.170468 -1.09251 -0.513226 -0.336783 0.238531 1.66215 -2.97437
1578 0.0407818 -0.1327 -0.586382 0.234675 -1.27475 -0.981134 -0.253713 0.138387 1.5331 -4.14024
2117 -0.0467814 -0.0635869 -0.380986 0.183679 -1.01008 -0.745361 -0.258584 0.166454 1.314 -3.11914
2124 -0.0166143 -0.0382504 -0.506322 0.166087 -1.06324 -0.674472 -0.225535 0.228144 1.36788 -3.15191
2114 0.0220485 -0.317164 -0.5049 0.115229 -1.2039 -1.02068 -0.254298 0.344902 1.68833 -3.73536
2121 0.0504194 -0.206719 -0.481818 0.198046 -1.23713 -0.995549 -0.205888 0.321343 1.71061 -3.71232
1541 0.0860861 0.150325 0.19783 0.165842 -1.74251 -0.750744 -0.360185 0.285601 1.78719 -3.5635
2267 -0.0422397 0.223248 -0.0937808 0.148845 -0.959812 -0.773356 -0.447639 0.151239 1.55869 -3.32714
1504 0.202859 0.0271594 -0.0840221 0.200124 -1.37225 -0.215382 -0.29155 -0.155063 1.33589 -3.32157
862 0.103899 0.0222189 -0.00317274 0.135355 -1.52387 -0.262617 -0.347037 0.0606637 1.57701 -3.24975
4972 0.204197 0.502343 -0.50067 0.0861214 -1.56518 -0.0722279 -0.679764 -0.00843923 1.90907 -3.45938
2665 -0.0201795 0.0741939 -0.669758 0.279445 -1.0324 -0.740207 -0.214604 -0.0851911 1.78212 -3.16068
3501 -0.0878673 -0.0547549 0.0756849 0.16506 -1.79495 -0.59848 -0.763084 -0.315531 1.77655 -3.59073
3435 0.128069 -0.219705 0.059939 -0.0321392 -1.30824 -0.938675 -0.756273 0.0302741 2.34873 -3.76476
3382 0.06203 0.0736318 0.123476 0.0363747 -1.33759 -0.745064 -0.829971 -0.188975 1.88044 -3.40469
4319 -0.170448 -0.286469 -0.383557 0.0180837 -1.23137 -0.563722 -0.529341 0.26508 1.8569 -3.33022
4624 -0.0548959 0.268068 -0.286016 -0.0359554 -1.05645 -0.481626 -0.993512 -0.0838765 2.09209 -3.69687
1321 0.135269 0.201595 -0.0852529 -0.0154565 -1.31084 -0.566074 -0.932675 -0.0308355 1.94918 -3.43257
3714 0.302501 -0.430892 -0.614494 0.147907 -1.86167 -0.745635 -0.575975 -0.0407565 1.99673 -3.94974
3704 0.22241 -0.268929 -0.537999 0.108439 -1.8459 -0.730616 -0.634152 -0.284573 2.01121 -3.72674
3612 0.247981 -0.310467 -0.537499 0.162745 -1.81939 -0.623697 -0.542204 -0.032886 1.82849 -3.67728
3911 0.00152964 -0.394136 -0.502267 0.164724 -1.72534 -0.621085 -0.536413 -0.0724683 1.75934 -3.47686
2395 -0.0801592 0.150781 -0.353056 0.199411 -1.05274 -0.548076 -0.249093 0.21148 1.53561 -2.93974
279 -0.271016 -0.113151 -0.19385 0.209534 -1.04978 -0.157385 -0.301942 0.233182 1.85436 -2.96034
1030 0.0751086 0.089503 0.107614 0.0743618 -0.96031 -0.262948 -0.280242 0.681306 1.67221 -4.04631
1252 0.195379 0.0153234 -0.0515355 -0.00311797 -0.845527 -0.447574 -0.330598 0.685973 1.86504 -3.5011
1240 0.166429 -0.00869155 -0.0264199 0.102852 -0.889301 -0.454578 -0.288627 0.730927 1.90156 -3.56201
1154 0.184073 -0.022961 0.112722 -0.00959722 -0.926314 -0.553757 -0.588308 0.142363 2.016 -3.11259
3258 0.0402758 0.0702309 0.141673 -0.010694 -1.19815 -0.775793 -0.802265 -0.114989 2.06126 -3.45073
3268 0.0613859 0.0237748 0.193144 -0.0197129 -1.38844 -0.836843 -0.876205 -0.0312307 2.15656 -3.63663
4044 0.0648777 0.134507 0.0799874 -0.022944 -1.38675 -0.844434 -0.880391 -0.0938364 2.21825 -3.58521
3234 0.0868983 -0.0710088 0.00605486 0.0173176 -1.60434 -0.598362 -0.777503 -0.250152 1.98564 -3.59054
74 -0.203607 -0.0398847 0.166932 0.273088 -1.78967 -0.472862 -0.340668 -0.194324 2.56827 -3.61409
1152 0.0607836 -0.251028 0.119725 0.120697 -1.16491 -0.642279 -0.331308 0.0413241 1.87884 -3.16577
3370 -0.0107088 -0.0771509 0.0130325 0.156735 -1.04272 -0.588521 -0.71635 -0.228403 1.33565 -3.41878
4177 -0.0897113 0.0532778 -0.290327 0.0632058 -1.08569 -0.3448 -0.905205 0.150651 1.78007 -3.44318
3486 0.143309 -0.0682947 -0.598649 0.0721608 -1.29231 -0.322447 -0.741801 0.221874 1.57155 -3.55742
1361 0.170695 0.112066 -0.318676 0.0729839 -0.944429 -0.0391106 -0.359072 0.340488 1.63819 -3.05941
2261 -0.310158 0.0475933 -0.793878 0.262864 -2.02471 -0.605834 -0.227926 0.044727 2.04295 -3.74306
2629 -0.275716 0.233419 -0.0650482 0.146861 -1.19649 -0.668642 -0.501308 0.279677 1.8095 -3.04339
256 -0.350424 -0.0599581 -0.250154 0.161976 -1.25458 -0.107237 -0.574222 -0.00936569 2.14189 -3.11017
4429 -0.163019 -0.206263 -0.438288 0.0142506 -1.09043 -0.530525 -0.588802 0.40589 1.7844 -3.07946
1144 0.191836 0.214399 -0.007877 0.0056188 -1.31568 -0.13598 -0.643447 0.598468 1.94068 -3.87322
1358 0.144387 0.17552 0.0213343 0.0231071 -1.08706 -0.157198 -0.543273 0.34 1.65319 -3.17388
681 0.0648018 0.0583663 -0.0530512 0.177825 -1.74714 -0.164849 -0.356993 0.33064 1.70138 -3.53015
3547 -0.151424 -0.0122482 0.0789526 0.157584 -1.61346 -0.517892 -0.672221 -0.0859449 1.59083 -3.27554
2745 -0.243245 0.21183 -0.302216 0.21335 -1.23193 -0.955153 -0.483085 -0.234155 2.09045 -3.45862
2294 -0.29899 0.162159 -0.24296 0.167513 -1.55446 -0.788765 -0.474731 0.245975 1.46552 -4.04683
1949 -0.227597 0.265357 -0.174785 0.180057 -1.59497 -0.717428 -0.582328 0.210125 1.38299 -4.23889
2301 -0.221733 0.250433 -0.287751 0.15928 -1.55943 -0.763944 -0.513012 0.18892 1.31712 -4.276
2309 -0.295666 0.189297 -0.07435 0.165269 -1.67658 -0.760285 -0.541258 0.318973 1.39628 -4.36899
2298 -0.320889 0.269264 -0.0846586 0.146558 -1.76461 -0.813071 -0.575076 0.329164 1.45036 -4.57615
3049 -0.0706857 0.340171 -0.716777 0.0923221 -0.880527 -0.313116 -0.466638 0.749369 1.76883 -3.95884
1612 0.0566582 0.448103 -0.589141 0.0478897 -1.01857 -0.443383 -0.471341 0.904607 1.95626 -4.05596
1646 -0.206591 0.379728 -0.619188 0.104788 -1.20452 -0.34594 -0.467205 0.830282 2.04343 -4.14089
1630 -0.279653 0.37603 -0.748147 0.155929 -1.04742 -0.205578 -0.455052 0.660254 1.81778 -4.31762
1271 0.256945 0.0176002 -0.0528402 0.203267 -1.2019 -0.381075 -0.324082 -0.0786814 2.00023 -3.27491
1516 0.197902 0.0525207 -0.0556942 0.175265 -1.42707 -0.507178 -0.218207 -0.0307131 1.56655 -3.10132
846 0.11259 0.0664716 0.199598 0.195385 -1.79616 -0.588677 -0.328618 0.314177 1.96295 -3.5331
782 0.103569 -0.052708 -0.178623 0.264284 -1.66073 -0.419342 -0.125532 0.321838 1.49393 -3.12317
799 0.16915 -0.102916 -0.593868 0.190604 -1.292 0.0412579 -0.155738 0.339587 1.65376 -3.08568
818 0.181795 -0.13374 -0.525618 0.221151 -1.47693 -0.0490637 -0.029748 0.259342 1.67992 -3.23
775 0.0791708 -0.0798746 -0.744471 0.283188 -1.43558 0.0130905 -0.106543 0.0338844 1.68979 -3.47043
1318 0.15498 -0.11893 -0.748042 0.2186 -1.21654 0.00913516 -0.209238 0.20809 1.75794 -3.39979
836 0.120073 -0.218448 -0.813188 0.224054 -1.40959 0.0104918 -0.123673 0.213343 1.77133 -3.332
722 0.241338 -0.317289 -0.947745 0.293865 -1.63513 0.0670825 -0.120079 0.284045 2.10327 -4.07264
1535 0.328706 0.170547 -0.222088 0.170456 -0.932502 -0.345681 -0.328039 -0.095672 1.50442 -2.96957
4686 0.238821 0.05357 0.0488551 0.158687 -1.13686 -0.471088 -0.520181 -0.147857 1.50722 -3.50621
698 0.0731722 0.0697071 -0.0424671 0.256102 -1.56254 -0.143457 -0.456897 -0.199452 1.53709 -3.56753
1372 0.0445882 0.11292 0.0235568 -0.0207264 -1.2331 -0.113179 -0.789757 0.937751 1.76217 -4.16378
3276 -0.216324 -0.39795 -0.0402296 0.0995005 -1.21901 -0.437725 -0.78192 0.137534 1.43073 -4.18702
4085 -0.141709 -0.235645 -0.25212 0.0992025 -1.30304 -0.385501 -0.646592 0.135516 1.19926 -3.58267
3283 -0.264476 -0.495077 -0.340468 0.199223 -1.19333 -0.410905 -0.629642 -0.0516335 1.55226 -4.07668
3329 -0.398501 -0.346632 -0.207579 0.145404 -1.13392 -0.526148 -0.798625 0.144801 1.60882 -4.48563
817 0.0591596 0.0193553 -0.0687488 0.2046 -1.72247 -0.319761 -0.236879 0.008188 1.44022 -3.33423
795 0.201411 -0.177612 -0.504103 0.153656 -1.24167 -0.0127205 -0.168758 0.461836 1.64063 -3.12088
1398 0.138771 -0.255587 -0.255305 0.136732 -1.23199 -0.17002 -0.249769 0.597268 1.91725 -3.65168
583 0.126445 -0.164504 -0.741468 0.304569 -1.35341 -0.0470073 -0.0623462 -0.0578983 1.91578 -3.31773
714 0.0799175 -0.356018 -0.996304 0.365106 -1.79474 -0.0180044 -0.0185254 0.0465294 2.02848 -4.16672
746 0.02055 -0.277867 -1.01348 0.383413 -1.69765 -0.0525843 -0.0190957 0.130031 1.87144 -3.96782
577 -0.0340149 -0.218223 -0.926823 0.401944 -1.66851 0.0374275 -0.0784608 0.00641411 1.95674 -3.77514
585 0.0400846 -0.183956 -0.905418 0.353061 -1.57857 0.00274612 -0.110778 0.0434873 1.93579 -3.69853
738 0.0847326 -0.28257 -0.701808 0.232971 -1.16211 0.0297441 -0.204802 0.0698545 1.58673 -3.22775
547 -0.34681 -0.0370389 -0.188689 0.184734 -1.66021 -0.158122 -0.417817 0.208429 2.3159 -3.30999
2144 -0.257805 0.102661 -0.210613 0.218227 -1.82335 -0.668658 -0.372082 0.138151 1.40134 -4.02001
1730 -0.204854 0.104308 -0.149462 0.202622 -1.73452 -0.700261 -0.305823 0.143836 1.35938 -3.72271
1694 -0.420342 0.0854893 -0.115203 0.284817 -1.81082 -0.66231 -0.269488 0.202797 1.43839 -4.0176
2139 -0.441365 0.0592042 -0.00726997 0.257239 -1.76431 -0.779018 -0.37151 0.118973 1.40661 -4.12582
1699 -0.459428 0.113792 0.00349256 0.349736 -1.84631 -0.589201 -0.246382 0.0446479 1.35784 -4.14495
1670 -0.397143 0.142498 0.0689778 0.251965 -1.84517 -0.883834 -0.378865 0.227304 1.58973 -4.50474
2151 -0.46702 0.223321 -0.0372703 0.186084 -1.86441 -0.852822 -0.475459 0.369932 1.61092 -4.71315
1684 -0.271386 0.171062 -0.0732637 0.212447 -1.89655 -0.796866 -0.366527 0.165348 1.50683 -4.19973
1622 -0.311805 0.162151 0.0387809 0.197516 -1.84287 -0.895151 -0.490106 0.331966 1.54103 -4.57166
1778 -0.0960068 0.157127 -0.0488095 0.244706 -1.66071 -0.63719 -0.389424 0.151351 1.2527 -3.84327
2576 0.136896 0.205505 0.260056 0.125242 -1.53626 -0.591867 -0.352215 0.217473 1.86651 -3.34707
1840 -0.126031 0.100127 0.11115 0.211493 -1.51426 -0.65782 -0.282918 0.245584 1.45929 -3.27057
2231 -0.508873 -0.321949 -0.256724 0.317626 -1.48677 -1.06309 -0.136475 0.129362 2.11691 -4.04574
1935 -0.474279 -0.481603 -0.217078 0.302018 -1.43827 -1.08223 -0.107206 0.212877 2.20917 -4.13395
2878 -0.209449 0.0336735 -0.681754 0.205368 -1.88538 -0.87316 -0.259119 0.110553 2.61177 -3.71171
2557 0.132865 0.057736 -0.880115 0.149438 -1.81965 -0.721613 -0.280147 0.497564 2.53574 -3.53417
598 -0.158406 -0.182585 -0.510321 0.291867 -1.07815 -0.132394 -0.22194 0.0313519 1.74019 -2.87338
4149 -0.165103 -0.170054 -0.498645 0.168313 -1.43717 -0.469999 -0.662715 -0.18003 1.71121 -3.19627
4591 -0.254011 -0.0936127 -0.277545 0.0755851 -0.950097 -0.416445 -0.709639 0.196763 1.33415 -3.37238
3667 -0.113583 -0.252584 -0.315851 0.0811163 -1.01986 -0.652918 -0.613713 0.212434 1.82134 -3.2486
4420 -0.265072 -0.198391 -0.465052 0.0353807 -1.32399 -0.286 -0.669118 0.380629 1.66374 -3.57767
3343 -0.432976 -0.304003 -0.735161 0.0182048 -1.61357 -0.421113 -0.762003 0.206941 2.00576 -4.24556
4685 -0.349365 -0.479469 -0.650351 -0.00524308 -1.38685 -0.395518 -0.624719 0.426931 1.93876 -4.16558
3321 -0.270358 -0.459045 -0.528713 -0.0137834 -1.52162 -0.442625 -0.724368 0.418554 1.91788 -4.19287
4137 -0.264766 -0.0928267 -0.262094 0.0458449 -1.19008 -0.336005 -0.741632 0.331336 1.63763 -3.32266
3206 0.0860363 0.158855 -0.7755 0.251375 -1.10178 -0.553375 -0.352394 0.143713 1.24444 -3.51776
4558 -0.244088 -0.153349 -0.37551 -0.0929383 -1.23971 -0.45256 -0.665714 0.251901 1.80573 -3.24392
3244 -0.104894 -0.355152 -0.259876 -0.0340579 -1.10609 -0.671162 -0.678768 0.498874 2.4012 -3.76594
3545 -0.193106 -0.105727 -0.369558 -0.0332924 -1.23451 -0.568093 -0.699073 0.389802 1.88372 -3.42714
4200 -0.20609 -0.362295 -0.457518 0.122782 -1.32724 -0.497996 -0.55419 0.228143 1.65192 -3.19395
4516 -0.262095 -0.0226683 -0.11672 0.0717047 -1.15942 -0.415844 -0.803006 0.0339103 1.4695 -3.3181
768 0.0624977 -0.225432 -0.747566 0.339627 -1.37923 0.0249264 -0.117165 -0.0102535 1.4516 -3.17561
762 0.17959 -0.186448 -0.566678 0.310293 -1.5245 6.91409e-05 -0.0899106 -0.0491602 1.67582 -3.54518
683 0.161233 -0.340584 -0.0577261 0.208212 -1.50106 -0.400366 -0.30434 0.155878 1.75085 -3.50907
282 -0.287941 -0.132155 -0.196925 0.228231 -1.69374 -0.19007 -0.50766 0.0718351 2.28008 -3.23649
4733 -0.170778 -0.332313 -0.460332 0.1211 -1.36179 -0.510963 -0.591805 0.205548 1.54428 -3.30386
3948 -0.0820789 -0.401046 -0.440164 0.120762 -1.24215 -0.470687 -0.434031 0.240712 1.51908 -3.103
1460 0.247358 -0.210119 -0.0677851 0.204593 -1.60631 -0.242369 -0.289961 0.00650355 1.62026 -3.56927
684 0.224039 -0.083273 -0.243212 0.151579 -1.46118 -0.232765 -0.263015 0.149839 1.9928 -3.21234
602 0.0720165 -0.129714 0.0361428 0.184433 -1.36365 -0.413356 -0.263463 0.164387 1.74883 -2.99106
4082 -0.0344773 -0.0157021 -0.0777316 0.182622 -1.76193 -0.219062 -0.49665 -0.0195671 1.33823 -3.54267
854 0.0549074 0.0653586 -0.126944 0.146804 -2.04752 -0.189054 -0.47883 0.150122 1.45906 -3.94568
860 0.0110664 -0.0305813 -0.0297684 0.191011 -1.88617 -0.209484 -0.412455 -0.0330853 1.40819 -3.77835
4503 0.113094 -0.0596632 -0.425273 0.105579 -1.14344 -0.387748 -0.788634 0.297978 1.67649 -3.28073
3744 -0.0349098 -0.279876 0.00896327 -0.0725247 -1.22537 -0.642168 -0.673692 0.332347 2.2122 -3.62953
4058 0.0972128 -0.340131 0.114639 0.0253999 -1.28617 -0.528047 -0.384773 0.0894967 1.63155 -3.32426
615 0.0317593 -0.418312 0.0504599 0.239091 -1.34798 -0.566003 -0.295121 -0.076354 1.99333 -3.30796
1204 0.34323 -0.319454 -0.150361 0.204397 -1.31705 -0.464997 -0.352779 0.0844601 1.58301 -3.65074
1946 -0.0917776 -0.0534733 -0.073502 0.193061 -1.41645 -0.610522 -0.233698 0.0101105 1.34869 -2.91449
3253 0.0108944 -0.579619 0.0311426 0.0749578 -1.16698 -0.705179 -0.475825 0.241282 2.03705 -3.67166
3603 -0.242967 -0.317381 -0.458026 0.102474 -1.16392 -0.374306 -0.641527 0.3888 1.69155 -3.54605
4735 -0.346605 -0.0401312 -0.113915 0.0507713 -1.25149 -0.418412 -0.755828 0.152724 1.60133 -3.33895
3377 0.0801875 -0.0353303 -0.169105 0.0587164 -1.03868 -0.664587 -0.552506 -0.0413115 1.30915 -2.89819
951 -0.142441 -0.00476727 -0.103303 0.0111029 -1.89622 -0.260572 -0.614857 0.828288 1.94678 -4.06778
4838 -0.12654 0.302059 -0.530065 0.0840468 -1.45041 -0.22503 -0.674826 0.0450221 1.77531 -3.12585
4794 -0.0586658 0.392346 -0.418294 0.0448563 -1.48838 -0.11009 -0.668882 0.120069 1.79706 -3.14338
600 0.228397 -0.0738869 0.0117246 0.19681 -1.28697 -0.359394 -0.302429 0.189934 2.10936 -3.32353
1891 0.00966872 0.0977027 0.0273059 0.231943 -1.60084 -0.480588 -0.270548 0.118015 1.31922 -3.45654
688 0.170037 0.033632 -0.2945 0.223388 -1.48642 -0.0282728 -0.318703 0.213629 1.90393 -3.62014
2966 -0.268617 0.233626 -0.435206 0.130638 -1.03695 -0.56522 -0.418429 0.379776 2.0063 -3.17918
1604 -0.146375 0.308277 -0.699308 0.106651 -1.09352 -0.347081 -0.295868 0.691761 2.0578 -3.47249
1589 -0.196794 0.395227 -0.288803 0.0463458 -1.03268 -0.571826 -0.488135 0.806832 2.21203 -3.83963
1644 -0.35781 0.459141 -0.617814 0.115923 -1.08526 -0.350735 -0.591837 0.733681 1.87986 -4.67035
3102 -0.345551 0.372123 -0.53341 0.139322 -1.12605 -0.36569 -0.424863 0.687478 1.6708 -4.17377
559 -0.474756 -0.0323665 -0.306131 0.202162 -1.29829 -0.124013 -0.460476 0.248262 1.96625 -3.24119
2175 -0.273481 -0.288629 -0.365041 0.307672 -1.2855 -0.794082 -0.122701 0.0645067 1.61641 -3.45979
856 0.0139669 0.0829835 0.111514 0.0724759 -1.48522 -0.0991058 -0.506463 0.311709 1.50686 -3.87078
825 -0.252399 -0.0307589 -0.0469833 0.250806 -1.57579 -0.0133255 -0.312202 0.0686786 1.33315 -3.84723
1103 -0.403787 0.0239023 -0.0853877 0.272644 -1.60643 -0.0562441 -0.495406 -0.0823401 1.4345 -5.02415
76 -0.627894 0.055269 -0.228166 0.158593 -1.62102 -0.00790475 -0.548296 0.277957 2.44965 -4.20279
442 -0.398582 -0.162161 -0.111382 0.200618 -1.12468 -0.203785 -0.412716 0.34797 2.10981 -3.30482
411 -0.0911464 -0.237581 -0.263183 0.185053 -1.12096 -0.0976524 -0.387648 -0.13861 1.91535 -3.19899
67 -0.219775 -0.194172 -0.447678 0.340261 -1.35056 0.010961 -0.443272 -0.275739 2.14959 -3.90603
1346 0.0922322 0.0250284 0.0643124 0.317177 -1.56564 -0.372172 -0.266081 -0.137069 2.10555 -3.29087
53 -0.384787 -0.0218846 -0.267474 0.285352 -1.47769 -0.0995511 -0.438823 -0.281342 2.61909 -3.93166
45 -0.453093 -0.0775174 -0.463784 0.231546 -1.53134 0.0305054 -0.489065 0.0816226 2.53678 -3.97846
75 -0.413189 -0.0257612 -0.495258 0.178426 -1.8219 -0.0323833 -0.528409 0.279709 2.87111 -4.03977
348 -0.332122 -0.101965 -0.0870637 0.20644 -1.12592 -0.200373 -0.432932 0.315257 1.9865 -3.23517
687 0.214138 -0.089514 -0.00391905 0.218834 -1.64077 -0.363885 -0.263267 -0.0250345 2.06454 -3.42167
1485 0.207753 0.213848 -0.0236015 0.0740012 -1.38885 -0.0878716 -0.538226 0.350241 1.75047 -3.68459
1903 0.27595 0.26842 -0.0178802 0.0805418 -1.1477 -0.224931 -0.577406 0.397146 1.80335 -3.4913
1306 0.101214 0.131821 -0.0727756 0.213249 -1.3733 -0.231407 -0.352106 -0.0410323 1.67529 -3.2216
1159 0.310948 0.062815 -0.190746 0.119092 -1.16916 -0.360332 -0.23281 0.513687 1.84463 -3.21264
693 0.23933 -0.163078 -0.188879 0.0840766 -1.37016 -0.151872 -0.298291 0.147301 1.51229 -3.09718
3254 0.0580198 -0.62996 -0.0418061 0.0901258 -1.18998 -0.653755 -0.424665 0.117053 1.96118 -3.66811
3348 -0.0678728 -0.569499 -0.428096 0.0915556 -1.52768 -0.683095 -0.54971 0.32582 2.04763 -4.00039
4077 -0.167705 -0.215936 -0.311057 0.0117195 -1.13708 -0.456099 -0.443005 0.398173 1.57684 -2.99474
3503 -0.167414 -0.344065 -0.311874 0.03706 -1.39367 -0.656813 -0.535459 0.158807 1.71429 -3.47293
4330 -0.170905 -0.358776 -0.375218 0.017101 -1.12362 -0.486536 -0.517496 0.318345 1.67853 -3.21488
307 -0.203789 -0.23606 -0.285451 0.136776 -1.33516 0.0664397 -0.348803 0.485084 2.28486 -3.66542
89 -0.112554 -0.151321 -0.386666 0.188414 -1.70552 0.038714 -0.380011 0.410539 2.4241 -3.7718
785 0.161782 -0.110732 -0.287831 0.242309 -1.65946 -0.184602 -0.289214 0.247844 2.01055 -3.24271
1268 0.319506 0.0521264 -0.0326346 0.255458 -1.8304 -0.472702 -0.379245 -0.0175619 2.41331 -3.37688
1232 0.226771 0.00720997 0.0285696 0.0889141 -0.975749 -0.394706 -0.301524 0.301503 1.70322 -3.02094
1184 0.192079 0.347095 -0.078514 0.12857 -1.04018 -0.118451 -0.573331 0.409803 1.75596 -3.44584
679 0.0197222 0.114772 0.0560107 0.261983 -1.53742 -0.142083 -0.437695 -0.197403 1.73892 -3.30836
1823 0.0229419 0.106715 -0.0755531 0.0807915 -0.984045 -0.677614 -0.210572 0.597247 1.7696 -3.09563
1544 0.199898 0.0860441 -0.168502 0.127734 -1.01232 -0.863343 -0.244156 0.720735 2.09617 -3.70502
1659 0.196603 0.0506819 -0.222743 0.0712374 -0.791943 -0.861486 -0.295221 0.594756 1.80498 -3.51836
1628 0.0794319 -0.0482289 -0.14759 0.0890252 -0.907542 -0.726437 -0.230235 0.751454 1.5333 -3.64019
1597 0.175792 0.0175258 -0.270863 0.0340139 -0.907297 -0.817755 -0.275197 0.716722 1.72214 -3.54185
1242 0.0707923 -0.0220531 0.0480547 0.133111 -0.929683 -0.407771 -0.29365 0.29627 1.60649 -3.13632
1326 0.182717 -0.0837292 -0.109156 0.108721 -0.890559 -0.356174 -0.275451 0.52928 1.78659 -2.98407
1701 -0.165217 0.0333144 -0.427118 0.259394 -1.63905 -0.560045 -0.264058 0.151248 1.50488 -3.30384
1736 -0.212822 -0.0486957 -0.425113 0.324121 -1.86777 -0.527605 -0.161835 0.145594 1.50459 -3.3885
4657 -0.325304 -0.0710059 -0.271508 0.0894802 -1.08779 -0.410143 -0.874264 0.0159046 1.49056 -4.12339
3761 -0.0784565 0.117368 -0.255129 -0.053604 -1.05275 -0.404626 -0.851286 0.256844 1.50162 -3.1682
1553 0.217735 -0.059268 -0.0816722 0.128652 -1.15915 -0.801469 -0.18057 0.72785 1.73202 -3.67671
3117 -0.119729 -0.127264 -0.186984 0.180848 -1.10362 -0.850107 -0.296039 0.752904 1.87728 -3.93373
3116 -0.124992 -0.165528 -0.224715 0.163792 -0.995489 -0.703138 -0.256755 0.655257 1.5987 -3.68022
2531 -0.241072 -0.0298193 -0.458976 0.237797 -2.0429 -0.962137 -0.306998 0.0872159 2.56596 -3.62299
1631 -0.230969 0.0764538 -0.526082 0.2733 -2.20782 -0.999455 -0.313447 0.119908 2.76066 -3.86614
2527 -0.160701 0.0296302 -0.539576 0.230198 -1.99731 -0.936648 -0.328753 0.0853175 2.73075 -3.63495
2515 -0.280172 0.00532463 -0.580402 0.185967 -2.04053 -0.971002 -0.313591 0.105411 2.79681 -3.80041
1960 -0.138612 -0.252095 -0.30332 0.219916 -1.17075 -0.916024 -0.177817 0.259399 1.74078 -3.46719
2011 -0.22154 -0.156156 -0.282271 0.157679 -1.26336 -0.882603 -0.246822 0.328448 1.75806 -3.29693
3836 -0.188705 -0.136794 -0.147475 0.161905 -1.62569 -0.658384 -0.744548 -0.402061 1.81914 -3.74221
4538 -0.383527 -0.109541 -0.306739 0.0221449 -1.20769 -0.355882 -0.630585 0.332052 1.49119 -3.41979
3360 -0.0589569 0.0421217 0.0918128 0.159542 -1.13175 -0.649321 -0.832572 -0.3262 1.49934 -3.84371
3241 0.239501 -0.0547395 0.0856574 0.147873 -1.29219 -0.672994 -0.850822 -0.454111 1.69152 -3.85489
1466 0.256125 -0.103421 0.137246 0.144547 -1.15111 -0.61475 -0.57979 -0.405973 1.60662 -3.39801
3238 0.251514 -0.174497 -0.0304752 0.175066 -1.18486 -0.430118 -0.416583 -0.180358 1.59056 -3.39228
1418 0.218009 -0.186618 -0.0229132 0.23212 -1.11563 -0.401651 -0.309007 -0.0267647 1.41988 -3.26808
4847 -0.0651317 0.477435 -0.48272 0.0473204 -1.59255 -0.0914726 -0.70272 0.012637 2.0245 -3.32877
4749 0.026476 0.149651 -0.0829788 0.106482 -1.81512 -0.184049 -0.441474 0.10811 1.33514 -3.92153
4862 -0.0353582 0.436254 -0.527334 0.088418 -1.70035 -0.191784 -0.796171 0.0302565 2.08025 -3.58293
4782 -0.103497 0.421351 -0.496042 0.0293221 -1.54287 -0.123959 -0.648679 0.124447 1.81432 -3.24236
4756 0.0311076 0.336598 -0.110604 0.0944108 -1.56028 -0.132126 -0.546523 -0.0874126 1.62436 -3.23932
4981 0.193171 0.5784 -0.41905 0.133164 -1.5141 -0.0671828 -0.69128 0.026292 1.96652 -3.52774
4965 0.0265356 0.520017 -0.482217 0.160514 -1.55661 -0.144466 -0.793573 0.0400176 1.85691 -3.59135
4750 0.167021 0.535645 -0.393156 0.112883 -1.51917 -0.141787 -0.701247 0.0751927 1.97192 -3.58445
4967 0.193904 0.576056 -0.393302 0.0778009 -1.46108 -0.0650404 -0.773277 0.13854 1.87228 -3.69405
1302 -0.0625574 0.165681 -0.100347 0.252215 -1.36759 -0.122781 -0.462787 -0.104651 1.73354 -3.26175
1426 0.161584 -0.227274 -0.135819 0.252958 -1.06757 -0.330782 -0.265537 -0.0131348 1.49127 -3.29089
1202 0.232166 -0.134465 -0.00762597 0.256518 -1.38815 -0.305985 -0.315552 -0.0371243 1.47076 -3.51152
1296 0.238801 -0.3795 0.0430265 0.163029 -1.19115 -0.608817 -0.275036 0.0751374 1.99917 -3.30075
3061 -0.297651 0.353166 -0.642435 0.193413 -1.01405 -0.326284 -0.550659 0.522478 1.51125 -4.26803
4518 -0.203701 -0.0222474 -0.203958 0.107709 -1.26354 -0.4453 -0.83157 -0.000803192 1.66261 -3.61455
3576 -0.307225 -0.0797058 -0.142285 0.141332 -1.30859 -0.522183 -0.825205 0.024183 1.67605 -3.71349
4880 -0.0211551 0.607589 -0.614031 0.123647 -1.73723 -0.0957873 -0.873583 -0.0746287 2.09524 -3.92365
4772 0.0223037 0.627422 -0.708311 0.128612 -1.8451 -0.101002 -0.938691 -0.0265262 2.33382 -4.34292
4999 -0.0145148 0.39856 -0.474815 0.0611263 -1.63269 -0.0886292 -0.641538 0.127117 1.86223 -3.25823
4843 -0.0321504 0.432986 -0.498914 0.101677 -1.92255 -0.17981 -0.71326 -6.76152e-05 2.12514 -3.73828
4815 0.054851 0.446624 -0.360852 0.168033 -1.81638 -0.194924 -0.701789 0.0323764 2.01372 -3.56933
4907 -0.101219 0.572278 -0.510579 0.172426 -1.59041 -0.18139 -0.798207 -0.0460459 1.94383 -3.97937
4923 -0.088658 0.538217 -0.591397 0.113468 -1.70636 -0.0990714 -0.757723 0.00950925 1.83924 -3.91448
2038 -0.124155 -0.0319774 -0.228761 0.159981 -1.19757 -0.717784 -0.354632 0.361237 1.54798 -3.13179
1566 0.00740787 -0.0743846 -0.26649 0.154656 -1.35046 -1.06779 -0.359956 0.345744 1.81686 -3.98366
2256 0.199924 0.151166 -0.65982 0.0589437 -1.5842 -0.825063 -0.506228 0.668555 2.51147 -3.64525
2254 0.233689 0.324978 -0.73733 6.56226e-05 -1.45512 -0.833127 -0.567651 0.861418 2.39283 -3.99302
1740 0.23566 0.248283 -0.515204 0.0434841 -1.72704 -0.847873 -0.424231 0.770427 2.36554 -3.75179
1557 0.166153 0.223111 -0.316688 0.146435 -1.63779 -0.882591 -0.351726 0.439351 2.45215 -3.38499
1717 -0.0631883 0.00188744 -0.450069 0.325172 -1.90451 -0.534539 -0.170789 -0.0108719 1.37715 -3.66405
3213 -0.0453829 0.102257 -0.706974 0.155177 -0.953408 -0.637866 -0.405483 0.296468 2.07144 -3.19285
2532 -0.12667 -0.0651359 -0.70174 0.216303 -0.933096 -0.951545 -0.504086 0.380059 2.59639 -3.9785
2541 -0.111093 -0.0632308 -0.798926 0.171317 -0.995468 -0.727975 -0.388313 0.458016 2.63307 -3.72835
1572 0.112954 0.0427113 -0.0551463 0.195859 -1.24744 -0.739219 -0.246617 0.431347 1.70009 -3.3149
1225 0.0969714 0.0853868 -0.215045 0.0795565 -0.899854 0.0763328 -0.410979 0.292924 1.92335 -3.58605
1403 0.175563 -0.121568 -0.166092 0.160275 -0.854286 -0.204811 -0.282703 0.411259 1.63433 -2.97426
3292 0.365287 -0.110648 -0.75202 0.00540518 -1.52941 -0.367184 -0.862504 0.0605576 1.46229 -4.19578
