5000 50
1183 -0.11521 -0.50943 0.174793 0.00155862 0.230883 0.281653 -0.42194 -0.00941105 0.275328 0.0849954 0.00944448 -0.429429 -0.15592 0.569618 -0.0531322 0.460023 0.265899 -0.596095 -0.254441 0.359053 -0.188299 0.0749131 -0.254022 0.0391748 0.0366424 0.180164 -0.677315 -0.0489283 0.428273 -0.0364518 0.0562258 0.26835 -0.182696 -0.651742 -0.0728338 -0.447819 -1.34207 -0.329784 0.460182 -1.04249 1.10053 1.03763 -1.52873 0.819992 0.156939 0.679938 1.26973 -0.00410577 0.480386 -0.0650406
5 0.0578198 -0.229644 -0.0884759 0.152829 0.226691 0.179852 -0.596904 -0.0234996 0.239436 -0.0356381 0.205425 -0.21666 -0.31428 0.492651 -0.0508727 0.536518 0.179884 -0.215458 -0.380328 0.135128 -0.0909707 -0.0716393 -0.134945 -0.294066 -0.0502307 -0.00520222 0.0847119 -0.308477 0.138062 0.0214191 -0.120263 0.0531241 -0.0032832 -0.635505 -0.160656 -0.18941 -1.4495 -0.505815 0.724066 -0.416459 0.932234 1.03264 -1.38085 0.812815 0.0927322 0.694463 0.86799 -0.214197 0.694992 -0.140164
1368 0.153091 -0.422513 0.340819 0.268313 0.342615 0.22316 -0.183692 0.0240996 0.521503 -0.218939 0.460311 0.284278 0.259179 0.792834 -0.208481 0.477407 0.0633017 -0.13633 -0.187565 0.131174 0.158167 -0.323345 -0.361427 -0.215013 -0.0203314 -0.475115 0.0394404 0.126199 0.0474244 0.166107 -0.109735 0.0752955 -0.230269 -0.625685 -0.0842013 -0.530062 -1.38656 -0.089465 0.466621 -0.449234 0.739392 1.27454 -1.22248 0.563153 -0.178225 0.57941 0.936375 0.248021 0.587845 -0.424962
1487 -0.161241 -0.435925 0.066796 0.313622 -0.0117391 0.238202 -0.512954 -0.0910073 0.281247 -0.0498629 0.371146 -0.0885118 0.0801739 0.180612 -0.187421 0.377014 -0.0274424 -0.452604 -0.195362 0.00809387 -0.136844 0.067631 -0.0409842 -0.240252 -0.109463 0.10623 -0.0622268 0.343767 0.0910048 0.486004 -0.112631 -0.0427958 -0.174973 -0.398577 -0.249089 -0.318562 -1.18873 -0.347003 0.519741 -0.11041 0.743182 1.03611 -1.08204 0.441072 -0.00869098 0.499761 0.798259 0.00214673 0.714782 -0.0877583
1143 0.0962611 -0.232309 0.0156886 0.000307255 -0.0809901 0.465808 -0.318801 0.109027 0.338453 0.0712549 0.30377 -0.371032 -0.510805 0.461854 0.116342 0.211112 0.0987254 -0.35433 -0.221713 0.242525 0.099665 -0.0132015 -0.0937699 0.079228 -0.141314 0.132168 -0.340811 -0.0647498 0.129722 0.0176563 -0.0436261 -0.0112299 -0.0929396 -0.819333 0.175504 -0.127548 -1.3983 -0.294277 0.481501 -0.937485 1.0269 0.904617 -1.40868 0.744191 0.026083 0.587694 1.04317 0.110454 0.195966 -0.0645211
1177 -0.0245512 -0.296137 -0.210348 -0.11508 -0.156947 0.437067 -0.313962 -0.112426 0.773307 0.382643 0.106101 -0.358605 -0.4232 0.249387 0.0402341 0.641387 0.400422 -0.510442 -0.0438299 0.260492 0.218468 -0.197871 -0.291361 -0.0780601 -0.289128 0.0937545 -0.558902 0.0227594 0.401067 0.108855 0.101232 -0.00872929 -0.138493 -0.554464 -0.0642798 -0.283307 -1.40944 -0.511827 0.38419 -0.777045 1.03342 0.987423 -0.976247 1.19093 0.0531835 0.558052 1.24231 -0.0469805 0.526781 -0.241485
1182 0.0902855 -0.378613 -0.074078 0.0436622 -0.185789 0.337912 -0.190765 0.0624921 0.417452 0.306159 0.140106 -0.334086 -0.369816 0.390892 -0.368455 0.611694 0.488768 -0.649334 -0.222685 0.100336 0.0251628 -0.0509077 -0.360556 -0.0389039 -0.281167 -0.0461808 -0.559938 0.0453281 0.371865 -0.0191762 -0.137054 0.0466559 -0.127131 -0.845303 -0.127965 -0.289261 -1.41884 -0.298586 0.635776 -0.745767 0.991224 0.874565 -1.29352 1.11235 -0.0747201 0.601725 1.00188 0.0840442 0.656096 0.0291066
1433 0.040568 -0.32039 -0.111765 -0.0118103 0.108527 0.0581046 -0.357647 0.216735 0.554555 0.329902 0.436943 0.0632755 -0.350719 0.674919 -0.0392237 0.636771 0.421876 -0.432724 0.0102711 0.235556 -0.0379208 0.0257737 -0.20736 0.304196 0.00566705 -0.0878793 -0.155627 -0.181875 0.369745 0.315699 0.0781265 0.089148 -0.232702 -0.841479 0.00907418 0.0811435 -1.44263 -0.572437 0.610045 -0.719731 0.901185 0.858874 -1.1298 0.869073 -0.333048 0.379176 1.18525 0.163754 0.753095 -0.0130721
1144 -0.0856379 -0.26328 0.110448 0.181963 0.355709 0.107813 -0.296476 -0.229837 0.249261 0.275993 0.287485 -0.192665 -0.0881503 0.753023 0.374505 0.645397 0.171463 -0.142776 0.222323 0.124715 -0.0564108 0.0340222 -0.129568 0.134892 0.1778 -0.14473 -0.640914 -0.325942 0.0676634 0.152686 0.0914598 0.291225 -0.153034 -0.797866 0.0128169 -0.0525043 -1.37488 -0.602807 0.465321 -0.917323 1.05239 0.963063 -1.34512 0.734393 -0.0117283 0.563015 1.13328 0.385547 0.650916 -0.241326
1451 -0.129719 -0.337645 0.135086 -0.0288123 0.190798 0.352237 -0.382433 -0.398419 0.136631 0.186783 0.269407 -0.00507539 0.200983 0.722999 0.242333 0.24229 -0.0556863 -0.430869 0.0692158 0.176398 -0.260648 -0.166767 -0.334959 0.197404 -0.0194074 0.0629756 -0.550074 0.0230275 0.226887 0.278317 -0.0189287 0.410958 0.12026 -0.631233 -0.254511 -0.0975152 -1.20076 -0.381028 0.534672 -0.826717 0.950455 1.05717 -1.10573 0.821795 0.00412477 0.765625 1.09741 0.170494 0.471029 -0.241306
275 -0.204684 -0.417014 -0.0827668 0.102691 0.263065 0.303457 -0.236429 -0.039955 0.0386575 0.327758 0.410785 -0.491618 0.265265 0.564699 0.148774 0.300105 -0.283456 -0.123041 -0.149868 -0.061674 -0.0224484 -0.39506 0.0100238 -0.632198 0.116848 0.127525 0.193265 -0.0290914 -0.172459 0.307376 -0.0765825 -0.0195939 0.0270196 -0.493781 -0.584422 -0.274325 -1.43503 -0.185843 0.805683 -0.171319 0.965578 1.06922 -1.47077 0.589485 -0.0293102 0.358249 0.598244 0.301477 0.582285 0.144797
52 0.184033 -0.0961396 -0.216071 0.35353 0.321649 0.0432752 -0.34114 -0.00232879 0.288869 0.13149 0.686075 -0.290699 0.0797905 0.635291 0.0529483 0.0786516 -0.0814048 0.0667693 -0.196336 -0.316178 0.0420213 -0.138113 0.112589 -0.50282 0.266178 0.146145 -0.087141 -0.191878 0.102618 0.151308 -0.167846 -0.095748 -0.254407 -0.734131 -0.135267 -0.223524 -1.66287 -0.332185 0.863001 -0.457803 1.23929 0.984386 -1.71471 0.423362 0.223157 0.442726 0.596034 0.446794 0.393389 0.299562
646 -0.141242 0.115058 -0.0494556 0.0866434 0.0687585 0.239669 -0.0654117 -0.0115279 0.0445657 -0.121304 0.314537 -0.151002 0.00324952 0.30913 -0.0559578 0.161486 0.0225297 -0.133971 0.00378354 -0.0586888 -0.013305 0.156755 -0.202085 -0.192881 -0.187266 -0.129098 0.0340253 0.0550469 0.129273 0.222778 0.126194 -0.00432834 -0.173454 -0.364798 0.0294432 -0.52544 -1.11794 -0.48174 0.532619 -0.109127 0.738525 0.781787 -0.859998 0.552927 -0.12649 0.487384 0.660183 0.233762 0.395007 -0.0703875
2296 0.124391 -0.147484 -0.18496 -0.628422 0.0216559 0.555372 -0.253613 0.468425 0.242188 -0.0623341 0.355609 -0.462618 0.178597 0.657276 -0.0253489 0.144749 0.0651474 -0.661182 0.194809 -0.380401 0.033289 0.565505 -0.146351 -0.69235 -0.0474419 -0.14344 0.0124407 0.52554 0.277782 0.136364 0.212284 -0.663111 -0.0930211 -1.19597 -0.042691 -0.428027 -1.64568 -0.374947 0.569043 -0.0231014 0.483029 1.39375 -1.35154 0.358337 0.210448 0.589237 1.62697 0.0763968 0.400596 -0.118609
3171 0.234843 -0.0096592 0.274194 0.0480719 0.315497 0.581322 -0.354705 -0.105249 -0.328625 0.238313 0.156813 0.0540973 0.188558 0.280977 -0.371958 -0.484387 0.0753647 -0.307586 0.175536 0.349563 0.0953566 0.233204 -0.493076 -0.179347 0.188429 0.0659892 -0.0111589 0.258057 0.365321 0.514371 -0.409289 0.0561032 -0.358619 -0.361463 0.035612 -0.36749 -1.39675 -0.415639 0.360891 0.104163 0.802415 0.872142 -1.1949 0.631227 0.0746024 0.701958 1.04487 -0.188377 0.598578 0.20469
1499 0.365971 0.125065 -0.0285565 0.140245 0.0431879 0.352172 -0.650878 -0.0859258 -0.344962 -0.0167165 0.143289 0.0917851 0.218685 0.119201 -0.230724 -0.0381672 0.0291457 -0.154339 0.175665 0.055552 0.0221357 0.000175737 -0.459731 -0.0343245 0.618476 0.0780103 -0.152913 0.18605 0.251978 0.548179 -0.48801 0.141353 -0.0569965 -0.623487 0.0127511 -0.155265 -1.51362 -0.494314 0.0414697 0.0572197 0.570281 1.02462 -1.27532 0.76541 0.0674087 0.796637 0.993051 -0.194473 0.325011 0.157566
1349 0.249738 -0.0378874 0.229184 0.115589 0.0878614 -0.0628658 -0.836404 -0.271065 0.103508 0.336771 0.252432 -0.279702 0.00462731 0.142988 -0.125409 0.402358 0.404646 -0.309212 0.440549 0.288027 -0.00844033 -0.33032 -0.243499 -0.26965 0.0395827 0.0263696 -0.507385 0.22302 0.188216 0.451222 -0.564121 -0.365435 -0.297203 -0.486405 -0.267122 -0.672856 -1.29927 -0.40239 0.388144 0.119856 0.897539 0.90891 -1.26857 0.44772 0.201754 0.545527 0.85314 -0.200291 0.654361 -0.264776
15 0.20228 -0.0573186 -0.0610501 -0.0855698 -0.0389696 0.434045 -0.618642 -0.00433258 -0.425995 0.16871 0.224213 -0.338962 0.394147 0.351224 -0.0962039 0.281401 0.105195 -0.212368 -0.244643 0.261155 -0.312789 -0.245721 -0.238765 -0.561042 0.247988 0.498672 -0.261094 0.255557 0.212744 -0.153237 -0.280519 -0.21225 -0.263149 -0.725347 0.15839 -0.51717 -1.40284 -0.398323 0.620621 -0.395489 1.01022 0.874208 -1.36275 0.766836 0.063887 0.861001 0.672688 -0.257853 0.412151 -0.210749
1324 0.202464 -0.375571 -0.189438 -0.0187363 0.0398878 0.250513 -0.324811 -0.339031 -0.126974 0.0103622 0.619885 -0.278631 -0.348135 0.125749 0.0109236 0.378516 0.184247 -0.342311 -0.37651 0.0824666 0.0220401 0.194209 -0.732912 -0.651393 -0.0991046 0.444826 -0.142837 0.545506 0.361406 0.144645 -0.347174 -0.0755402 -0.219 -0.652331 -0.307701 -0.200349 -1.36231 -0.408747 0.612054 -0.677794 1.02681 1.00391 -1.25067 1.11614 0.315265 0.850227 0.748671 -0.17037 0.278964 0.140072
1220 -0.0328545 -0.488018 0.290157 0.209417 0.486375 0.359051 -0.374908 0.0348157 0.372432 -0.0999481 0.461921 0.170596 0.0704912 0.725816 -0.18184 0.537251 -0.151651 -0.0680827 -0.400313 0.214484 0.15732 0.0407849 -0.241499 -0.347304 0.092727 -0.141756 0.186899 -0.165646 -0.0137711 0.0709618 -0.144768 -0.160608 -0.185635 -0.708966 -0.375828 -0.117221 -1.48374 -0.0667785 0.535294 -0.443338 0.881237 1.19616 -1.52374 0.735943 0.190783 0.441704 1.08808 0.0755018 0.500507 -0.402936
1016 0.203888 -0.192313 0.115168 0.150845 0.324415 0.370238 -0.264754 0.18449 0.364905 -0.194594 0.354709 0.161989 -0.185889 0.70264 -0.0999829 0.467116 -0.155235 -0.0823976 -0.288696 0.145089 0.353835 -0.178884 -0.270284 -0.267792 0.449136 -0.142537 -0.160231 -0.188263 0.0359207 0.301245 -0.225213 0.224017 -0.236751 -0.6131 -0.00106697 -0.271773 -1.54454 -0.0125274 0.467789 -0.604853 0.984821 1.09905 -1.62608 0.614198 0.0536214 0.462986 0.92248 0.0982761 0.370841 -0.457336
1024 0.42361 -0.232965 0.0088726 0.484222 0.444976 0.423102 -0.0569649 0.46405 0.371252 -0.231966 0.120031 0.196483 -0.254503 0.889489 -0.0857845 0.599239 -0.285386 0.232187 -0.216401 0.210975 -0.00550226 0.257588 -0.302087 -0.54688 0.223809 -0.0318728 0.0925704 0.126237 0.126545 0.184154 -0.162436 0.23853 -0.608848 -0.594723 0.185995 -0.280463 -1.49192 0.0455189 0.609514 -0.884019 0.884366 1.29425 -1.58233 0.451524 0.212278 0.404832 0.965524 0.21449 0.401674 -0.417496
1164 0.0626634 -0.41145 0.129291 0.195639 0.131075 0.166831 -0.224643 0.168961 0.655567 0.0181493 0.255632 0.094958 -0.197768 0.770685 0.539053 0.737833 0.196136 -0.225538 0.107201 0.326148 0.204281 -0.0345177 -0.147273 0.0129633 -0.0773034 0.0821028 -0.506723 -0.238941 0.171933 0.518943 0.016588 0.0594394 0.0322337 -0.805407 -0.083117 -0.240348 -1.36468 -0.559732 0.446724 -0.991138 1.02407 1.02822 -1.21678 0.898655 -0.080245 0.550322 1.17908 0.368912 0.490271 -0.193071
1373 -0.0388081 -0.238746 0.0827173 0.152899 0.494316 -0.462741 -0.474402 -0.18385 0.265161 -0.0434461 0.0569328 -0.367481 0.105069 0.945295 0.286735 0.824436 0.404592 -0.162782 -0.0724377 -0.176897 -0.138813 0.169638 -0.0489247 -0.143674 0.0696743 -0.0917059 -0.529888 0.0973237 0.178649 0.364254 0.0368805 0.263089 -0.169974 -0.740787 0.253631 -0.0666408 -1.29605 -0.253622 0.472566 -0.574342 0.901232 1.06497 -1.20602 0.75946 -0.0561504 0.919317 1.06834 0.00874295 1.20285 0.0511616
1374 -0.116548 -0.279676 -0.00632471 0.158112 0.394921 -0.441428 -0.615488 -0.192426 0.306737 0.164194 0.209165 -0.506708 -0.198412 0.749401 0.385552 0.851865 0.460395 -0.262654 0.0850269 -0.135136 -0.171214 0.258055 0.050821 -0.0676911 -0.0286606 -0.311698 -0.546405 -0.0842565 0.0786345 0.331968 0.0812303 0.232579 -0.213128 -0.46357 0.222905 -0.0488351 -1.37875 -0.409031 0.678663 -0.543821 1.01857 1.17236 -1.14815 0.636683 0.0367137 0.90488 1.19433 0.00469398 1.12519 -0.0206365
1378 -0.274591 -0.268572 -0.0220533 0.149385 0.408481 -0.339525 -0.450275 -0.412742 0.363075 0.00769223 0.113507 -0.577331 -0.17411 0.782835 0.443566 0.934049 0.452003 -0.107076 0.0200536 0.017016 -0.249849 0.225708 0.0132923 -0.132222 0.0280972 -0.275762 -0.497874 -0.185498 0.129673 0.270147 -0.0220492 0.324744 -0.202878 -0.448693 0.205166 -0.0606061 -1.34346 -0.33512 0.745129 -0.611216 0.865887 1.16334 -1.17087 0.576789 -0.0930122 0.946343 1.20739 0.081028 1.27236 0.0158811
1376 -0.170503 -0.123682 0.188878 0.245291 0.468653 -0.409569 -0.546579 -0.28707 0.204721 0.0658334 0.167102 -0.441626 -0.0745685 0.802904 0.50964 0.898541 0.531807 -0.18407 0.0747651 -0.0350547 0.0349274 0.080551 -0.0505615 -0.0588968 0.0257639 -0.462549 -0.456766 -0.00433306 0.177062 0.244428 0.124373 0.227815 -0.119134 -0.493588 -0.0746713 -0.0706858 -1.39138 -0.361898 0.70441 -0.506852 1.02958 0.961007 -1.20315 0.593568 -0.083713 0.846348 1.0578 0.100124 1.22657 -0.145308
3236 0.142392 0.014278 0.594632 0.32123 0.296207 -0.177368 -0.270731 0.211983 -0.280634 0.181089 0.463623 -0.101297 -0.152828 0.491213 0.0778142 0.873916 0.178908 -0.00407316 -0.0286318 0.0569528 0.120613 0.0499581 -0.433133 -0.246354 0.459401 -0.556439 -0.219823 -0.487445 0.207059 0.0534001 0.243215 0.067519 0.0821868 -0.762175 -0.400925 -0.100212 -1.45621 -0.142848 0.929947 -0.310332 0.924419 0.906607 -1.20148 0.817979 0.0546086 0.850004 0.728846 0.392492 0.519666 -0.344981
2844 0.0595442 -0.0411799 0.0570351 0.0405374 0.190018 0.553976 0.174354 -0.215356 0.242662 -0.335847 -0.163663 -0.227512 -0.0470161 0.907294 -0.360463 0.104638 0.00874037 -0.448472 0.606795 0.0598729 0.158373 0.423615 0.0275653 -0.353207 -0.247364 0.0221098 0.201526 -0.029685 0.169201 0.697642 -0.0701077 -0.0832587 -0.359148 -0.96221 0.0269435 -0.605238 -1.3068 -0.654199 0.734006 -0.292882 1.3086 0.769748 -1.61176 0.358426 -0.210655 0.474079 1.23537 -0.223814 0.501445 -0.152692
2840 0.27947 0.0194785 0.232365 0.0191839 0.148617 0.388671 0.243417 -0.425532 0.158924 -0.376592 -0.230305 -0.368268 -0.0773 0.856742 -0.285215 0.162112 0.0784049 -0.493281 0.659979 0.22408 0.0124853 0.309745 -0.042295 -0.290426 -0.264342 0.00857791 0.376546 -0.111516 0.305399 0.564996 -0.088333 0.024193 -0.479025 -1.15164 0.198128 -0.437856 -1.33162 -0.949853 0.610781 -0.183796 1.2961 0.698542 -1.75625 0.43781 -0.068252 0.568194 1.28387 -0.162262 0.420721 -0.150906
2848 0.314966 -0.13455 0.229899 0.26929 -0.100473 0.52128 0.165374 -0.380757 0.203258 -0.378823 -0.30765 -0.281101 0.0485228 0.847654 -0.368065 0.151244 0.106802 -0.27336 0.758435 0.128929 0.122499 0.483139 0.158841 -0.506413 -0.292344 0.0540892 0.460233 -0.0385285 0.351968 0.700364 0.0193679 -0.0579796 -0.285798 -1.17503 -0.0424537 -0.386586 -1.31322 -0.849207 0.722811 -0.0189145 1.35412 0.702566 -1.73425 0.175791 -0.0479915 0.5445 1.32819 -0.253333 0.358645 -0.30333
2988 0.339844 0.0477448 -0.0528745 0.248979 -0.00398302 0.387611 0.207853 -0.281383 0.136295 -0.101193 0.00340218 -0.355947 0.0652886 0.505739 -0.310787 0.387623 0.13123 -0.384804 0.760626 0.254549 0.0985559 0.158549 -0.120497 -0.151225 -0.0407852 -0.13643 0.377379 0.207413 0.287034 0.828228 -0.0729831 -0.226889 -0.376717 -1.04862 0.27223 -0.325225 -1.33606 -0.87474 0.469203 -0.124329 1.30787 0.733244 -1.67108 0.540145 -0.167195 0.615172 1.14528 -0.373472 0.400641 -0.175982
2845 0.124649 -0.0687321 0.245876 0.0250661 -0.01207 0.344149 0.0764371 -0.345233 0.253897 -0.335933 -0.289026 -0.142881 0.0626906 1.16386 -0.359955 0.108163 -0.0141138 -0.240824 0.739744 0.278591 0.301315 0.356811 0.0577122 -0.262379 -0.090029 0.0475319 0.115921 -0.181931 0.262543 0.693429 -0.0328923 0.0572048 -0.171442 -0.944142 -0.0827267 -0.50986 -1.32451 -0.763323 0.726302 -0.0229116 1.42917 0.693271 -1.68503 0.00614366 0.118558 0.588165 1.3501 -0.0091169 0.473638 -0.283241
2904 0.0818432 -0.0967426 0.292754 0.2414 -0.102242 0.416479 0.0618158 -0.333567 0.342926 -0.417629 -0.256025 -0.201208 0.130818 1.08896 -0.259635 0.107391 -0.130216 -0.297168 0.669756 0.0306423 0.382081 0.363465 0.281699 -0.385667 -0.0747325 -0.013131 0.195047 -0.253378 0.340935 0.743229 0.0386182 -0.139281 -0.224455 -1.0561 -0.00760367 -0.65665 -1.319 -0.617845 0.981576 -0.0635135 1.34229 0.796745 -1.61318 0.0717759 0.186546 0.671196 1.2507 -0.0941358 0.590474 -0.0942012
6 0.0873109 -0.021002 0.0390442 -0.131533 0.139058 0.395705 -0.18307 -0.163692 0.0895871 0.0567307 0.298354 -0.132933 0.049457 0.222073 -0.0225991 0.158177 -0.0545114 -0.373863 0.030504 0.28114 0.339722 0.311646 0.0224706 -0.158121 -0.130712 -0.188634 -0.0558744 0.162761 0.169985 0.365604 0.117989 -0.00328945 -0.280846 -0.490205 -0.126832 -0.464454 -1.17161 -0.392652 0.878612 0.0285418 0.597234 0.973175 -1.40363 0.411851 -0.213858 0.702237 0.613406 0.0493389 0.496989 -0.00096724
2748 -0.360363 0.144684 -0.136521 -0.0607432 0.542407 0.347286 -0.0893043 -0.00280319 -0.124133 0.183304 0.213034 0.124098 0.121406 0.426426 0.0494987 0.569178 0.0770563 -0.0697232 0.0864502 0.0940312 0.338063 0.149928 0.0247933 -0.0962258 -0.323678 -0.267265 -0.0487296 0.203244 0.293129 0.155352 0.261848 0.125223 -0.284975 -0.46082 -0.123803 -0.501872 -1.1739 -0.384009 0.416803 -0.0113735 0.859396 1.20992 -1.30242 0.654684 -0.0575965 0.555774 0.767644 -0.0982048 0.156698 -0.411001
2112 -0.256818 0.354516 -0.105014 0.121894 0.00213876 0.577336 -0.262444 -0.144831 -0.170021 -0.0964737 0.334977 -0.524691 -0.0607078 0.15261 -0.184584 -0.0849966 -0.0105855 -0.139516 0.162927 0.337779 0.134255 0.320843 0.432584 -0.683931 -0.359205 0.246738 -0.351048 0.0559478 0.518238 0.0374786 0.342611 -0.020639 -0.0341015 -0.835711 -0.337542 -0.411514 -1.50399 -0.775593 1.22875 0.216235 0.897745 1.17558 -1.17515 0.630497 -0.162229 1.06296 0.967924 0.111602 0.231193 -0.260951
2103 -0.394114 0.1944 -0.00762891 0.223755 -0.354554 0.738769 -0.429971 -0.205959 -0.322414 0.00653296 0.333805 -0.44997 -0.00708538 0.3114 -0.359229 -0.104137 0.00551539 -0.0799479 0.123332 0.341711 0.130513 0.202509 0.542408 -0.4759 -0.382236 0.327789 -0.287585 0.162124 0.573877 0.182288 0.13476 0.0145141 0.0451542 -0.79253 -0.350417 -0.478313 -1.49592 -0.940286 1.13512 0.18562 0.964069 1.17495 -1.17767 0.604298 -0.294261 0.945716 0.946695 0.248889 0.28806 -0.191429
2125 -0.235855 0.183956 0.131474 0.1915 -0.114305 0.536871 -0.311386 -0.184667 -0.126697 -0.0677187 0.36801 -0.420312 -0.0250541 0.0962167 -0.53947 0.0672785 0.196564 -0.188684 0.0505792 0.550259 0.139927 0.211133 0.489128 -0.47166 -0.114294 0.382689 -0.295279 0.154192 0.538035 0.147383 0.186394 0.0459692 -0.128945 -0.43384 -0.086242 -0.326045 -1.45717 -0.73361 1.08699 0.271465 0.865813 1.19573 -1.16133 0.47789 -0.30793 0.985646 0.903197 0.450144 0.286711 -0.42187
1962 -0.366272 0.0927785 -0.0586379 0.054646 -0.215602 0.588738 -0.311317 -0.293332 -0.279983 -0.110295 0.569746 -0.394341 0.0711739 0.109446 -0.527024 0.0502596 -0.0679141 -0.289262 0.0642347 0.14757 0.247018 0.249036 0.511759 -0.561495 -0.20953 0.43355 -0.474506 0.119411 0.532398 0.298038 0.00543321 -0.0448146 0.041969 -0.514734 -0.217363 -0.525413 -1.47474 -0.839304 1.04277 0.184558 0.928918 1.2413 -1.18839 0.725432 -0.283768 0.924571 0.88296 0.321046 0.256995 -0.331996
1989 -0.311024 0.0919882 -0.486768 -0.0632783 -0.264104 0.627928 -0.345328 -0.320332 -0.194668 -0.00964491 0.275821 -0.382365 -0.111467 0.172083 -0.534253 -0.0265071 -0.192621 -0.237595 0.224076 -0.169754 0.220553 0.0735568 0.272105 -0.441774 -0.196211 0.342228 -0.266662 0.122292 0.53262 0.387963 -0.0393835 0.0575376 -0.0889695 -0.2282 -0.129155 -0.569055 -1.50531 -0.429493 1.1365 0.331753 0.935917 1.10676 -1.10281 0.700279 -0.14281 0.748393 0.693857 0.256357 0.418134 -0.418298
1959 -0.363503 0.0033053 -0.224235 -0.00979953 -0.257694 0.688722 -0.151996 -0.325576 -0.20226 0.100277 0.447767 -0.348028 -0.0596869 0.110533 -0.6648 0.0128971 -0.262594 -0.198535 0.21025 -0.0424708 0.446391 0.237837 0.351465 -0.520372 0.0224355 0.177061 -0.238714 0.104011 0.575924 0.149241 0.0801494 -0.179832 0.0507967 -0.418753 -0.193334 -0.596704 -1.4939 -0.643534 0.935439 0.0479285 0.915351 1.0603 -1.15472 0.728048 -0.306246 0.886995 0.780952 0.137822 0.414024 -0.420299
2262 0.21459 0.507053 -0.0174954 -0.111973 0.2179 0.20585 -0.49955 -0.318583 0.272966 0.218111 0.368404 -0.104998 -0.105375 0.161853 -0.11103 0.0911513 0.0807429 0.0978062 0.23281 0.0214485 0.0370895 -0.0354733 0.164466 -0.123757 -0.272216 -0.138825 0.130304 -0.492212 0.329186 0.0513862 0.241186 -0.411529 -0.339948 -0.556865 -0.463062 -0.669645 -1.78689 -0.970433 0.428712 -0.0506142 0.856588 1.08217 -1.36725 0.555121 0.199915 0.658626 0.492934 0.280456 0.39894 0.0153092
760 -0.183698 -0.294172 0.112232 -0.0504859 0.185108 0.21338 -0.70956 -0.308972 0.2796 0.213712 0.213957 -0.24136 0.165793 0.746853 -0.30685 0.182206 -0.0895159 0.199216 0.0561702 -0.0735304 0.281282 0.00150834 -0.238462 -0.32078 0.189028 -0.0618455 0.144571 -0.00434325 0.07365 0.109343 0.0364552 -0.20307 -0.244873 -0.854966 0.527493 -0.607252 -1.67064 -0.398258 1.0701 -0.257705 0.652011 1.07909 -0.948404 0.701247 0.16932 0.425963 0.735524 -0.0144912 0.496764 -0.423743
752 0.0616227 -0.263745 0.0750894 0.0615478 0.16822 0.0745364 -0.622371 -0.365106 0.568915 0.170043 0.114298 -0.449592 0.426079 0.732306 -0.351777 0.189438 -0.12364 0.229055 -0.00584006 -0.195566 0.17798 0.169497 -0.324214 -0.523267 0.328896 -0.212385 0.35826 -0.0669692 0.0575403 -0.0535835 -0.0709954 -0.224783 -0.267767 -0.928634 0.618183 -0.655239 -1.71334 -0.465434 0.879331 -0.193089 0.741675 1.2543 -1.08436 0.825037 0.0498092 0.603243 0.749922 -0.0518166 0.481294 -0.357456
16 -0.100864 -0.209382 -0.174201 0.142982 0.430474 0.142043 -0.648685 0.0471606 0.205459 0.166527 0.131609 -0.559065 0.0760767 0.61624 -0.122216 0.0706238 -0.251956 0.0117127 -0.137368 -0.273551 0.340527 -0.193949 -0.163509 -0.178061 0.264595 0.0255773 0.0855618 -0.293116 0.145678 0.229003 -0.110035 -0.00151307 0.100264 -0.816213 0.273563 -0.715475 -1.62925 -0.426574 0.860933 -0.389657 0.984347 1.02165 -1.36277 0.63328 0.183841 0.483219 0.709701 -0.0990453 0.393963 -0.463792
118 0.069699 0.186232 -0.421221 0.171198 0.382844 0.204856 -0.584783 0.0743269 0.227467 0.39487 0.843265 -0.386961 0.188733 0.679574 -0.214189 0.0128384 -0.281447 -0.109009 -0.208756 0.0611217 -0.0665908 0.0652317 0.129723 -0.03627 -0.0677808 0.1195 0.252525 -0.102756 0.520305 0.205426 -0.395789 0.0828482 0.0221728 -0.838046 0.257123 -0.797088 -1.91096 -0.336033 1.08653 -0.501615 1.31307 0.863207 -1.21486 0.774294 0.19099 0.425952 1.00878 -0.112404 0.786475 -0.65065
108 0.0964106 0.248482 -0.612018 0.116688 0.23352 0.217268 -0.808881 0.0352863 0.269744 0.123865 0.841978 -0.209003 0.108239 0.614232 -0.239865 0.111891 -0.250112 0.144175 -0.114469 0.101457 0.0344524 0.0747033 0.0857697 0.276396 -0.0568186 0.00824663 0.226875 -0.0922989 0.471787 0.226305 -0.251766 0.033737 -0.159233 -0.797539 0.325393 -0.691825 -1.7929 -0.33567 1.11951 -0.549849 1.22991 0.871762 -1.18304 0.538718 0.194934 0.430086 0.86843 -0.134073 0.83128 -0.582396
63 -0.0504412 0.422505 -0.503274 0.357221 0.160455 0.0981013 -0.235441 0.12429 0.0833648 0.354352 0.945829 -0.428592 0.29434 0.740512 -0.200054 0.15857 -0.127277 -0.210679 -0.249165 0.0794503 0.162436 0.155375 -0.0968894 -0.0570759 -0.2074 -0.0411382 0.264713 -0.182501 0.299951 0.273904 -0.448333 0.0229693 -0.00298278 -0.854653 0.101521 -0.929656 -1.936 -0.206286 1.27588 -0.494494 1.48533 0.940672 -1.35546 0.600515 0.268043 0.502502 1.12383 -0.188041 0.752813 -0.613615
342 -0.0291917 0.317104 -0.412796 0.329344 -0.0125601 0.126043 -0.2744 0.27655 -0.02949 0.249886 0.842233 -0.200941 0.223345 0.636533 -0.242915 0.0329872 0.0034873 -0.166708 -0.0641308 0.157455 0.0143408 0.126798 -0.13992 -0.0377586 -0.196664 -0.136052 0.212388 0.14154 0.204458 0.351261 -0.322752 -0.0850696 0.0584188 -0.812622 0.0353268 -0.889302 -1.6388 -0.427464 1.01155 -0.256053 1.14509 0.934815 -1.05538 0.525315 0.0864532 0.304277 0.916398 -0.0998535 0.552995 -0.5852
3322 -0.454275 0.160923 -0.25184 0.226641 0.131276 0.286485 -0.511591 -0.176434 -0.214122 -0.143404 0.300383 -0.0995156 0.187639 0.354859 0.195366 0.297898 0.310419 -0.240007 0.244437 0.0170222 0.314681 -0.0666495 -0.0364623 -0.521868 0.137028 0.128443 0.22053 -0.0944603 0.0691208 0.178326 0.443525 -0.499327 -0.228163 -0.474008 0.377356 -0.147739 -1.67922 -0.64634 0.927724 -0.640839 0.986877 0.853251 -1.36768 0.610723 0.348296 0.804784 0.668057 0.173037 1.17316 -0.151603
3391 -0.502361 0.264173 -0.309171 0.14271 0.0907928 0.154201 -0.332554 -0.145628 0.152804 -0.254192 0.203345 -0.337803 0.219653 0.399812 -0.180134 0.341111 0.286951 -0.452889 0.0697986 -0.00158904 0.333254 -0.00798507 -0.491271 -0.437566 0.0645857 0.0395895 0.0946065 -0.189638 -0.059768 0.193825 0.489901 -0.135036 -0.283292 -0.622762 0.377922 -0.320164 -1.58047 -0.581776 0.878736 -0.476738 1.06107 0.814657 -1.35539 0.624988 0.178437 0.669344 0.735709 0.200359 0.857702 -0.356671
3238 0.046532 -0.239783 -0.140676 0.268737 -0.257621 0.370479 -0.552649 0.00606627 -0.0224115 0.056177 0.145474 0.00257383 -0.0662804 0.193434 -0.0176061 0.385254 0.482255 -0.274026 -0.0884347 0.251666 0.130015 0.176615 -0.0417513 -0.646413 0.382183 -0.196724 0.213534 -0.20938 0.0747428 0.0720898 0.325446 0.0101662 0.554651 -0.668901 -0.321762 -0.620597 -1.62117 -0.636041 0.69676 -0.24196 0.825286 1.04326 -1.15821 0.947854 -0.182159 0.857788 0.778675 -0.0373464 0.329303 -0.205468
1469 -0.0911288 -0.0251307 -0.305531 0.29715 0.027435 0.51508 -0.278796 -0.233349 0.230618 -0.0787904 -0.0214511 -0.237842 0.131184 0.118205 0.120889 0.45454 0.680045 -0.29159 0.013065 0.11054 0.0571838 0.000505981 -0.0124069 -0.327443 0.32275 0.215489 0.360597 0.135716 -0.090011 0.236279 -0.0166038 0.172077 0.413288 -0.373466 -0.461653 0.0720291 -1.89106 -0.382874 0.790615 -0.0913806 0.649467 1.16727 -1.35727 0.766893 -0.12392 0.510363 1.04691 -0.274028 0.330125 0.0401818
3253 -0.30183 -0.150346 -0.0767677 0.0424807 -0.0366256 0.714908 -0.367276 -0.119174 0.264359 -0.138876 0.0361643 -0.354302 0.445764 0.264537 0.163982 0.649171 0.609106 -0.0553301 0.389191 -0.197527 0.303166 -0.226727 0.0721137 -0.558012 0.0846544 0.287657 0.481895 0.149995 0.0894339 0.31297 -0.108971 -0.111656 0.362224 -0.413127 -0.0904646 0.0208569 -1.88654 -0.134826 0.977591 -0.155769 0.640342 1.23777 -1.27551 1.0839 -0.144548 0.516942 1.07839 -0.0930908 0.589234 -0.250543
1152 -0.0714222 0.0627349 -0.176374 0.167701 0.145443 0.344115 -0.421816 -0.215334 0.150555 -0.179792 0.050471 -0.371122 0.393055 0.253638 0.252011 0.332743 0.572844 -0.321475 0.0322184 -0.319474 0.33277 -0.0419263 0.198568 -0.33305 0.347096 0.141383 0.118533 -0.0721638 -0.031194 0.223587 -0.0766684 0.0330946 0.207397 -0.509897 -0.129858 0.0636942 -1.71276 -0.0083108 0.760272 -0.220316 0.78633 0.827567 -1.31663 0.731917 0.0771737 0.588754 0.871471 -0.108051 0.384709 -0.343337
1296 -0.00689734 -0.115862 0.27432 0.0627945 0.0685852 0.521452 -0.652474 -0.202948 -0.190387 -0.346836 0.106282 -0.39441 0.252513 0.31075 0.0574689 0.298426 0.519659 -0.345953 -0.423109 0.0233468 0.141375 0.0474487 0.226231 -0.573219 0.32356 0.496374 0.109174 0.186274 -0.138263 0.251668 -0.137518 -0.220136 -0.0717331 -0.35915 -0.0561113 -0.179572 -1.48792 -0.64347 0.906572 -0.540844 0.679137 1.15641 -1.42641 0.799181 0.0506523 0.661057 0.883368 -0.411833 0.601924 -0.117231
3513 -0.0457612 0.0779893 0.332122 0.195308 0.133829 0.538933 -0.248309 0.0624661 -0.560044 0.185092 0.249503 -0.0812404 0.0467308 0.277645 -0.0472195 0.32629 0.420814 -0.250655 -0.161912 -0.698901 0.352294 0.435778 0.0493289 -0.530362 0.268416 0.419197 0.556055 -0.165223 -0.101785 0.29812 -0.106196 -0.614035 0.0369093 -0.650272 0.237132 -0.0070616 -1.62211 -0.774377 0.740232 -0.470864 0.846451 0.973492 -1.35585 1.1724 0.0978734 0.574488 1.08378 -0.281891 0.635253 0.109993
1290 -0.0779115 -0.399749 0.243008 0.0742677 0.158783 0.40643 -0.595312 -0.0736588 -0.066471 0.00630594 0.141279 -0.364356 0.2466 0.149291 -0.0382119 0.385622 0.64625 -0.0879314 -0.112405 -0.0797886 0.274527 0.194334 0.252741 -0.512575 -0.025927 0.284969 0.0396637 0.00648569 -0.221382 0.409226 -0.155774 -0.0469422 0.0302495 -0.176824 -0.148588 -0.0125834 -1.34232 -0.545591 0.90209 -0.248029 0.852853 1.10832 -1.27658 0.645043 -0.0390361 0.392291 0.932116 -0.269708 0.510686 -0.220853
4117 -0.300457 0.205269 -0.129869 -0.160108 0.193455 0.129321 -0.5589 -0.0274665 0.0543125 -0.16635 0.198843 -0.224965 0.297077 0.350544 -0.26765 -0.00893973 0.368648 -0.290029 0.225309 -0.0297099 -0.0759328 -0.0457973 -0.455925 -0.3925 0.0557687 -0.000577036 -0.282247 -0.0365722 0.394635 0.300927 0.55291 0.00321614 -0.435845 -0.451094 0.197223 -0.132918 -1.4422 -0.543045 0.910824 -0.470378 0.816652 1.00445 -1.0254 0.657103 0.298352 0.53519 0.7051 0.44779 0.66626 -0.0575014
3400 -0.306105 0.276213 -0.149223 -0.105985 0.166688 0.0519294 -0.560005 0.053407 -0.0101199 -0.194321 0.143426 -0.163268 0.333054 0.51378 -0.238049 0.0856739 0.283994 -0.389496 0.0251929 -0.00645128 -0.00229312 0.0512102 -0.394639 -0.338724 0.056429 -0.0926841 -0.171605 0.098719 0.427259 0.322829 0.330069 -0.15166 -0.394907 -0.591013 0.159857 -0.35132 -1.3316 -0.570065 0.729552 -0.676695 0.921722 1.04232 -1.07718 0.668687 0.376749 0.567133 0.910564 0.306141 0.639491 -0.0346726
3359 -0.118827 0.293463 -0.404863 0.0167299 -0.259196 0.320164 -0.496339 0.117831 -0.147138 -0.363291 0.22404 -0.116543 0.441653 0.553621 -0.308773 0.151221 0.350029 -0.56217 0.114645 0.108642 -0.0577928 -0.0680085 -0.337557 -0.460076 0.0549419 -0.0360617 -0.128931 0.107426 0.227899 0.364679 0.482639 -0.406262 -0.221471 -0.628917 0.398016 -0.357461 -1.68124 -0.506701 1.06313 -0.494571 1.13491 0.974294 -1.25957 0.838949 0.392346 0.767818 0.94464 0.440586 0.929063 -0.0650324
4114 -0.135671 0.293483 -0.206527 0.017819 -0.176528 0.104758 -0.592917 0.0834912 0.00585589 -0.290503 -0.0210136 -0.0411531 0.171759 0.416739 -0.265566 0.44437 0.27603 -0.594268 -0.0325179 0.0192394 -0.151844 0.108013 -0.350663 -0.404903 -0.0556717 0.0123041 -0.191578 0.0647325 0.287836 0.44794 0.502882 -0.328922 -0.344756 -0.651988 0.224345 -0.478938 -1.4984 -0.454484 0.949954 -0.474141 0.918569 0.964869 -0.986376 0.690625 0.137685 0.520573 0.846124 0.249988 0.581329 -0.14147
4500 -0.108127 0.218011 -0.449203 0.0540037 -0.59233 0.213414 -0.602025 0.00434655 0.108408 -0.196907 -0.134335 -0.159992 0.164608 0.539583 -0.469833 0.432261 0.301097 -0.56366 0.0292604 -0.125927 -0.264824 -0.0950714 -0.347575 -0.470862 -0.202839 -0.0801629 -0.121365 0.421213 0.355137 0.289556 0.524671 -0.375364 -0.0566427 -0.571467 0.208936 -0.343182 -1.922 -0.33506 0.739011 -0.424238 0.863263 1.02536 -1.04033 1.02837 0.0462422 0.504385 0.931923 0.100431 0.609936 -0.0376069
3307 -0.372381 0.207906 -0.258981 -0.0667632 -0.326487 0.264966 -0.555401 0.0659004 0.00741947 -0.373561 0.131012 -0.159246 0.21419 0.389588 -0.215968 0.290599 0.420018 -0.399697 0.141354 0.003448 0.204895 -0.190194 -0.357879 -0.536443 0.0174779 0.0718559 0.0408527 0.543198 0.277612 0.48864 0.529024 -0.102839 -0.289695 -0.572851 0.037767 -0.228305 -1.81131 -0.670146 0.672491 -0.315055 1.02278 0.963392 -1.21013 1.04724 0.280763 0.691788 0.867062 -0.0330287 0.905548 -0.125765
4284 -0.196466 0.339805 -0.0992871 -0.132339 -0.161682 0.200632 -0.410753 -0.120922 0.116285 -0.138286 0.14677 0.00836883 0.244742 0.372191 -0.24353 0.280026 0.254446 -0.372839 0.0568005 -0.159492 -0.0197262 -0.170447 -0.267304 -0.300103 0.147093 0.0608385 0.155511 0.300269 0.0947971 0.34166 0.568314 -0.179415 -0.404101 -0.534014 -0.060015 -0.451722 -1.40778 -0.758038 0.693656 -0.317476 0.980018 0.861242 -0.955855 0.711466 0.19967 0.668054 0.837256 0.060956 0.661103 -0.271318
4300 -0.425563 0.215557 -0.0683985 0.0432648 -0.236443 0.181813 -0.423934 0.064378 0.198134 -0.249083 0.169715 -0.201334 0.131338 0.292947 -0.269837 0.48152 0.217412 -0.317495 -0.00809144 -0.0241882 0.144373 0.0104345 -0.227602 -0.387479 0.0242432 0.0469064 -0.0446428 0.200739 0.197918 0.358775 0.544211 -0.114214 -0.335059 -0.600498 -0.0941011 -0.223575 -1.3829 -0.642038 0.613801 -0.161316 0.801719 0.928398 -0.953319 0.720122 0.133327 0.498811 0.796954 0.145677 0.693795 -0.144467
4310 -0.342456 0.308292 -0.344977 -0.108164 -0.220948 0.226934 -0.603065 -0.113767 0.0866207 -0.107523 0.227547 -0.0294758 0.219527 0.143828 -0.21604 0.247433 0.318002 -0.407494 0.116112 -0.0706315 0.128269 -0.114879 -0.12202 -0.242766 0.0801973 -0.0127109 0.214807 0.0890978 0.352323 0.267944 0.480797 -0.192465 -0.440644 -0.465497 0.037028 -0.351421 -1.46804 -0.72055 0.707214 -0.182212 0.807847 0.864814 -0.773835 0.574501 0.074272 0.728372 0.949359 0.0887191 0.761866 -0.257011
3024 0.41701 0.120044 0.285847 0.302596 0.196458 0.650597 0.27419 -0.217005 0.561645 0.677185 0.544699 0.00929501 0.297224 0.597891 -0.0529924 -0.14275 -0.124358 -0.278472 0.119906 0.134053 0.160761 0.255923 0.00712029 -0.558981 -0.640415 -0.0446306 0.161767 0.29348 0.094367 0.2181 0.260936 -0.112733 -0.41787 -0.555083 0.278519 0.0359684 -1.38868 -0.478216 0.810908 -0.430865 1.06691 1.09369 -1.48481 0.351573 0.223189 0.916462 1.10375 0.333875 0.454737 0.138263
2317 -0.166277 -0.224276 -0.278072 -0.247952 -0.113275 0.232152 -0.248499 -0.325651 -0.157875 0.216048 0.132446 -0.445583 0.336549 0.259691 -1.0407 -0.090073 -0.0310022 -0.71543 0.375849 -0.158873 0.22106 0.10859 -0.136644 -0.288392 -0.184873 -0.494923 -0.193843 0.397872 0.250863 0.34308 0.517466 0.223704 -0.00149414 -0.306773 -0.211238 -0.526451 -1.60195 0.00369692 0.600501 -0.624354 0.875788 0.959002 -1.29984 0.448044 -0.00847879 0.674909 0.714944 0.0747869 0.647293 -0.504191
2919 -0.0877308 0.0116843 -0.0116001 -0.52564 0.542748 0.747344 -0.495171 0.0774899 0.404094 0.011932 0.355689 -0.295443 0.326796 0.277627 -0.14221 -0.0133708 -0.151357 -0.180797 -0.0206794 0.0591867 0.135054 0.534283 -0.129998 -0.265965 -0.113484 0.0329977 0.0164266 -0.434835 0.0301931 0.852117 -0.0570843 0.285434 -0.125945 -0.0843129 0.220107 -0.844124 -1.6406 -0.762588 0.557042 0.00108557 1.20325 1.20631 -1.05118 1.00164 0.0295625 0.741489 1.19813 -0.0337809 0.84786 -0.00759514
2912 -0.12278 -0.0835917 -0.0327151 -0.505166 0.315205 0.773316 -0.489297 0.06902 0.255051 0.0026129 0.38494 -0.207245 0.226729 0.290392 -0.046391 -0.202297 -0.0850366 -0.141409 -0.0755105 0.0624474 0.14154 0.421338 -0.293499 -0.320303 0.0209029 0.0465319 0.0023882 -0.240024 0.238912 0.880974 -0.0978505 0.155701 -0.139287 -0.152631 0.174312 -0.774332 -1.59349 -0.82603 0.582497 0.0735833 1.25882 0.991826 -1.02879 1.01609 -0.0693579 0.583758 1.12072 -0.137204 0.787353 -0.0241893
2594 0.0665509 0.0905789 0.158896 -0.0997011 0.0330605 0.24257 -0.0953626 0.0111997 -0.0644324 -0.00397458 0.793861 -0.393595 -0.00685793 0.111274 -0.35184 0.115411 -0.423869 -0.673002 0.107213 -0.55635 0.462022 0.0710857 -0.109955 -0.0632164 -0.114852 -0.067836 -0.493238 0.0311443 0.530043 0.499524 -0.0603977 -0.637852 -0.214996 -0.495704 0.211041 -0.581727 -1.80235 -0.234081 0.547873 -0.0674587 0.757975 1.22032 -1.21579 0.415918 -0.435287 0.637445 1.20177 0.0540007 0.163498 -0.106233
1615 -0.0384092 0.00581012 0.060271 -0.325335 0.0749307 0.15526 -0.213551 0.00362682 -0.101717 0.225669 0.544472 -0.647727 0.0231961 0.282627 -0.473031 0.114053 -0.0563273 -0.705529 0.213765 -0.385689 0.671758 0.293601 0.0127194 -0.387514 -0.18626 -0.0945506 -0.34023 0.313872 0.387613 0.286251 -0.163594 -0.395586 -0.247686 -0.758602 0.0302222 -0.482386 -1.91212 -0.101743 0.475834 -0.168282 0.407339 1.28891 -1.4118 0.192275 -0.269682 0.43658 1.4855 -0.0569354 0.347542 -0.366259
2590 -0.0207087 -0.00533119 -0.00799283 -0.161568 0.159709 0.31009 -0.130482 -0.0221887 -0.00236666 0.0853926 0.446118 -0.344695 0.0690993 0.316399 -0.184469 0.0831902 0.0130344 -0.63449 -0.0388925 -0.342055 0.480712 0.177491 0.119418 -0.313518 -0.0548736 -0.058498 -0.0934838 0.297692 0.348665 0.362966 0.0334633 -0.378825 -0.293254 -0.408538 0.125366 -0.439284 -1.34606 -0.176289 0.57155 -0.0412442 0.621682 1.16198 -1.08261 0.214852 -0.0616123 0.409942 1.22776 -0.0331256 0.350383 -0.217825
2598 -0.0743785 0.0857154 -0.0634271 -0.204817 0.182055 0.21014 -0.199102 0.158564 0.134219 -0.0228159 0.446016 -0.235962 0.146236 0.222054 -0.296034 0.205665 -0.0844492 -0.684565 0.00266397 -0.171053 0.44978 0.0994307 0.168912 -0.273113 -0.0551919 -0.0574099 -0.185102 0.177777 0.523841 0.43161 -0.0615758 -0.355845 -0.203111 -0.535618 0.00519148 -0.357989 -1.46352 -0.0535178 0.567664 -0.148735 0.614782 1.01836 -1.09968 0.282906 -0.194713 0.333826 1.10616 0.141892 0.265793 -0.0701525
4206 -0.340768 0.197858 0.235689 0.067953 0.225666 0.511049 -0.107278 0.0260485 0.308256 0.0150206 0.361565 -0.264994 0.0528088 0.233797 -0.149032 0.343562 0.0841382 0.292906 -0.18464 0.270747 0.0792444 -0.0627876 -0.294314 -0.322122 0.135461 0.0863304 0.288574 0.223958 -0.0260218 0.53941 0.238116 0.103634 -0.26781 -0.513388 0.236246 -0.453768 -1.39876 -0.456576 0.394513 -0.418896 0.539655 1.27774 -1.09924 0.456714 0.0745859 0.582883 0.848058 0.227671 0.581078 0.202138
3444 -0.360512 0.223735 0.390128 0.152553 0.16043 0.413988 -0.234634 0.0944521 0.10647 -0.0170101 0.537208 -0.193316 0.27044 0.178662 -0.179744 0.31584 0.0552498 0.500018 0.0236963 0.271927 0.0426728 0.0635653 -0.108278 -0.121091 -0.0288949 0.119348 0.404849 0.16946 0.216848 0.198881 0.0579567 -0.318159 -0.444868 -0.384857 0.0469821 -0.457371 -1.48915 -0.526301 0.112014 -0.658946 0.735751 1.29276 -1.18683 0.636855 -0.177114 0.797167 0.973893 0.236021 0.722765 0.0487996
3355 -0.378936 0.0656296 0.168767 0.274824 -0.0841262 0.404393 -0.115929 -0.0328001 0.233042 -0.0197312 0.52679 -0.441405 0.234493 0.121592 -0.198696 0.401057 0.255751 0.414251 0.0532 0.153358 -0.0562802 -0.218412 -0.167509 -0.133418 0.131592 0.17384 0.275443 0.162347 -0.0158329 0.738447 0.0392462 0.0163712 -0.208819 -0.428514 0.120099 -0.346952 -1.70585 -0.398617 0.317405 -0.516574 0.668909 1.40923 -1.28303 0.580756 0.0924941 0.905011 1.06762 0.340129 0.717001 -0.00942685
3951 -0.300347 0.0877626 0.0416042 0.132298 -0.0235909 0.335315 -0.280527 -0.252881 0.172997 0.246838 0.236105 -0.467808 0.0932064 0.200448 0.0619079 0.19836 0.460612 0.072604 0.214949 0.305616 -0.447698 -0.0421368 -0.115475 -0.242537 0.0101275 0.366187 0.476791 -0.127084 0.0519336 0.522452 -0.119321 0.167039 0.0357174 -0.350906 0.04802 -0.341893 -1.80205 -0.625361 0.41119 -0.155029 0.522739 1.50037 -1.26987 0.458324 -0.00122177 0.706395 1.19686 0.219397 0.549243 0.0584162
4213 -0.428635 0.250024 0.157845 0.196799 0.214515 0.403193 -0.379104 -0.0347074 0.403191 -0.0134093 0.291452 -0.391968 0.0547036 0.344205 -0.101664 0.320188 0.0867298 0.159181 -0.116021 0.121528 0.135093 -0.0817547 -0.265608 -0.21887 -0.125127 0.00160872 0.270902 0.137507 0.0439697 0.578167 0.250175 0.0260067 -0.265003 -0.596095 0.171303 -0.580731 -1.61523 -0.561444 0.415196 -0.320973 0.768365 1.23515 -1.04663 0.476045 -0.0391121 0.635188 1.00965 0.420593 0.542246 -0.0262565
7 -0.213835 0.157785 0.135516 0.170484 0.0880876 0.224532 -0.175779 0.227658 -0.00739676 -0.143803 0.107373 -0.255476 -0.132714 0.326043 -0.05237 0.308881 0.221618 -0.102075 0.307981 -0.090787 -0.0840433 0.0536826 -0.426499 -0.403702 -0.0700946 -0.0429823 0.173039 0.0736259 0.11128 0.312155 -0.0631963 -0.216504 0.0439483 -0.206954 0.124149 -0.513561 -1.60649 -0.349091 0.754054 -0.387204 0.999102 0.877893 -1.14054 0.737697 -0.0256663 0.57449 0.81803 0.285391 0.708102 -0.077889
3506 -0.295549 0.100573 0.28828 0.260968 0.326586 0.696714 -0.169032 0.0935634 0.252098 0.167187 0.433612 -0.348863 0.284729 0.102108 -0.190554 0.115693 0.123895 0.415218 -0.0073675 -0.0330535 -0.183799 -0.274246 -0.0314911 -0.239724 0.271243 0.0610547 0.318488 0.251323 -0.071383 0.481361 -0.106332 0.0626421 0.00706603 -0.134517 0.0735269 -0.312341 -1.60879 -0.380738 0.523262 -0.715005 0.663086 1.57661 -1.24584 1.00348 -0.0327457 0.883198 0.832561 0.249314 0.36627 0.0148775
1498 -0.276177 -0.344739 0.0786833 0.111015 0.0361251 0.402488 -0.277182 -0.023056 -0.0771282 -0.0359449 0.183296 -0.569753 0.273686 0.22335 0.226482 0.217458 0.295749 0.0529548 0.273261 0.0660769 0.307186 -0.139568 0.0354274 -0.551048 0.201418 0.129954 0.424564 -0.276128 -0.0300744 0.36678 -0.263481 -0.125297 0.472432 -0.362821 -0.112269 -0.118745 -1.48952 -0.193389 0.930605 -0.385587 1.00754 0.877682 -1.34402 0.779145 0.0904001 0.633538 0.733579 -0.0364671 0.237284 -0.134366
757 -0.194155 -0.602667 -0.0032789 -0.0566723 0.390545 0.159224 -0.498298 -0.0510586 0.133824 0.161783 0.0408419 -0.346799 0.201073 0.557683 0.100402 0.450839 -0.245192 -0.149021 0.023505 0.0245832 -0.00384155 -0.0832429 -0.102835 -0.762308 0.121331 0.112801 0.309301 -0.221252 0.0920688 0.294583 -0.205938 0.31819 -0.131576 -0.43867 -0.157623 -0.218913 -1.5789 -0.418673 0.944584 -0.283686 0.968747 1.00608 -1.36934 0.907807 0.227019 0.154077 0.54882 -0.0438895 0.469931 -0.176444
582 -0.059394 -0.48431 -0.264098 0.246989 0.289127 0.281101 -0.520128 -0.231767 0.209636 -0.0939885 0.141884 -0.361695 0.470429 0.480343 0.160492 0.134937 -0.0589927 -0.22116 0.163719 -0.246503 0.254821 -0.245763 -0.142039 -0.663614 0.0910062 0.350391 0.0836565 -0.209799 0.148827 0.134521 0.0592962 0.210105 -0.118794 -0.480113 -0.182449 -0.169575 -1.78727 -0.656185 0.785582 -0.407947 1.18156 0.893796 -1.57604 0.970418 0.0621802 0.207362 0.598253 0.0363826 0.363191 -0.438571
307 0.271925 -0.230901 -0.170494 0.189516 0.591544 0.0641703 -0.251325 -0.0658078 0.245993 -0.314422 0.541526 -0.186987 0.586685 0.581554 -0.390561 0.135441 0.170667 -0.193214 0.163524 -0.276051 -0.481925 -0.234973 -0.269246 -0.551646 0.0252176 0.403997 -0.0176432 -0.203532 0.54974 0.159995 0.0140699 0.0526275 -0.275636 -0.743059 -0.293243 -0.206447 -1.50902 -0.66215 0.899236 -0.387303 0.98214 1.0684 -1.6053 0.844328 -0.278751 0.330374 0.505453 -0.0588154 0.479321 -0.152129
1131 0.0517974 -0.120046 0.0406801 0.349975 0.112863 0.671236 -0.619413 0.213203 -0.123159 0.0709044 0.210245 -0.0676876 0.145863 0.290946 0.145021 0.0845085 0.424499 0.00377428 -0.329403 0.0249214 0.33497 0.168359 0.013153 -0.313028 0.0954924 0.224459 -0.235371 0.0129242 -0.0388625 0.306718 -0.0928297 -0.229241 0.128548 -0.253332 -0.0437309 -0.0668802 -1.60084 -0.255219 0.812053 -0.535137 0.850473 1.10854 -1.50683 0.623456 0.200898 0.622249 0.862941 -0.277531 0.379866 -0.35913
3257 -0.0432847 0.117626 -0.251388 0.595456 0.455316 0.730425 -0.386296 0.312023 -0.230391 0.0486106 -0.0364089 -0.0103338 -0.409519 0.41713 0.0878365 -0.228092 -0.143247 -0.221465 -0.225627 0.168259 0.722284 0.0139333 -0.216124 -0.486311 -0.0236192 0.0966448 -0.359213 0.0490227 -0.396952 0.28532 0.427189 0.0244087 -0.32448 -0.194055 -0.154438 -0.206783 -1.53112 -0.408172 0.41972 -0.428895 1.06471 0.867613 -1.24482 0.722887 -0.259769 0.725066 1.05714 -0.0707738 0.546314 -0.297441
4008 -0.0854806 0.0352956 0.0508736 0.163337 0.108474 0.201563 -0.578205 -0.0180699 -0.0317893 -0.157306 0.239414 -0.335051 -0.108018 0.236557 0.354692 0.0746637 0.534387 -0.0393397 0.229768 0.0491475 0.524918 0.264988 -0.209276 -0.449036 0.428872 0.0581739 0.0209637 0.0955302 0.225929 0.0651502 0.104736 -0.013308 0.400591 0.0802677 -0.0748096 -0.331463 -1.2942 -0.456244 0.875845 -0.297939 0.788965 1.27755 -1.17038 0.670074 -0.159215 0.83121 0.973171 -0.222149 0.40484 0.0184799
4067 -0.0958666 -0.103868 -0.186113 0.294976 0.266495 0.219096 -0.556619 0.136492 -0.205199 -0.363875 0.15003 -0.318604 -0.0850472 0.151812 0.161544 0.129438 0.328846 -0.0959536 0.360911 0.2352 0.454246 -0.0225244 -0.0972344 -0.558421 0.401922 -0.095094 0.374879 0.046178 0.204853 0.0285706 0.0167861 0.0120122 0.373637 -0.354837 -0.481297 -0.540411 -1.71006 -0.487567 0.532461 -0.314164 0.846809 1.09214 -1.15744 1.03048 -0.0641763 0.763312 1.10373 -0.316744 0.486279 0.109296
4055 -0.230701 -0.0563049 -0.26595 0.00170795 0.0539976 0.203867 -0.492372 -0.447955 0.0416334 -0.132809 0.268882 -0.345125 0.16975 -0.0301026 -0.125379 0.173922 0.659194 -0.281542 -0.0239568 -0.0242649 0.0800687 0.321239 -0.109541 -0.80442 0.0824818 0.21655 0.414955 0.0179311 -0.0382801 0.231531 0.0735359 0.164541 -0.050507 -0.293765 -0.115856 0.157576 -1.91315 -0.128036 0.690635 -0.477761 0.81325 0.982006 -1.26926 0.791895 -0.590761 0.306023 0.83398 0.010201 0.410094 -0.344091
1381 -0.064309 -0.173501 -0.226514 0.16641 -0.23452 0.281262 -0.400332 -0.032406 0.165655 0.0874521 0.177542 -0.445609 0.0587249 0.0597489 -0.0460955 0.585477 0.538377 -0.327103 -0.182495 0.0604495 0.123462 -0.0165363 0.21403 -0.519199 0.0808218 0.0652368 0.572437 0.139808 -0.103058 0.256597 -0.159944 0.373431 0.123637 -0.402559 -0.0658791 0.0687343 -1.88833 -0.0507431 0.545233 -0.368079 0.636272 1.10292 -1.23251 0.861572 -0.33124 0.556182 1.02601 -0.0695435 0.660424 -0.107426
411 -0.292001 -0.0961202 0.178405 -0.128499 0.221059 0.531535 -0.211261 0.0651959 0.165128 -0.0462743 0.527802 -0.523672 0.0108198 0.563277 0.103183 0.357878 0.135144 -0.13148 -0.16095 -0.0498755 0.260493 -0.374788 -0.191501 -0.534928 0.0944977 0.0321584 0.281048 0.107619 0.0562441 0.0984349 0.0286253 0.414255 0.377617 -0.929991 -0.0707466 -0.849718 -1.39885 -0.505642 0.89991 -0.264602 0.731374 1.11563 -1.27254 0.749925 -0.199244 0.464459 0.633513 -0.410847 0.679033 -0.515946
594 -0.0746354 -0.166412 -0.181072 0.179405 0.00749306 0.546971 -0.383192 0.0243486 0.168701 0.144689 0.252028 -0.489517 0.196311 0.655329 -0.0164466 0.323906 -0.190038 -0.269023 -0.23251 -0.17684 0.0893412 -0.319824 -0.305298 -0.250904 0.314082 -0.0389768 0.0159244 0.334369 0.571433 -0.216952 0.216732 0.153909 0.409077 -1.33543 0.0230564 -0.889712 -1.62504 -0.319771 0.699417 -0.370969 0.824998 1.05116 -1.30005 0.796527 -0.166633 0.540053 0.939124 -0.320582 0.526593 -0.370495
593 -0.14574 -0.0300878 0.0651072 -0.0391558 0.381415 0.338994 -0.587954 0.000146098 0.292324 0.299229 0.505267 -0.452501 0.142811 0.579995 -0.121256 0.0654369 -0.122739 -0.0639283 -0.103251 -0.103025 -0.0161458 -0.16385 -0.273167 -0.421251 0.164176 -0.0268542 0.081376 0.253495 0.527629 -0.0399203 0.160534 0.255434 0.0666961 -1.066 0.196206 -0.835953 -1.68523 -0.342385 0.689963 -0.369442 0.961109 0.995844 -1.15594 0.467978 0.00215554 0.280021 0.857818 -0.215616 0.541249 -0.275261
1342 -0.108932 -0.394685 0.215662 0.507701 0.268322 0.693488 -0.244713 -0.108033 -0.0914465 -0.160507 0.137881 -0.0944268 -0.0969133 0.462783 0.0227712 0.09267 -0.366819 -0.374984 -0.171735 -0.381435 0.294788 -0.313604 -0.300295 -0.200944 0.0263511 0.0668717 0.0373541 0.28676 0.548917 -0.013106 0.372447 0.227519 -0.0634394 -0.789031 -0.343046 -0.850064 -1.51414 -0.423132 0.465207 -0.389811 0.744083 1.00981 -1.05398 0.806676 -0.315136 0.127466 0.934121 0.108901 0.522074 -0.396253
4750 0.273346 -0.0566012 0.196489 0.5103 0.226752 0.69332 -0.320828 -0.138145 0.105459 -0.188412 0.336218 0.0379807 -0.537913 0.238801 0.166259 -0.0251576 -0.00546082 -0.08355 -0.0608895 -0.192931 0.20723 0.120708 0.11479 -0.173122 -0.206917 0.132246 -0.376584 -0.088403 0.526118 -0.0366534 0.529511 0.061866 -0.207991 -0.443418 -0.120752 -0.871911 -1.73164 -0.27989 0.624953 -0.913515 0.906579 0.931976 -0.909212 1.07004 -0.107658 0.408887 0.729005 0.24221 0.636323 -0.430623
4882 0.0744354 -0.276716 0.115868 0.647582 0.0675642 0.651166 -0.341324 -0.202511 -0.0245233 -0.0778226 0.191851 -0.157469 -0.244795 0.23061 0.315235 0.119733 -0.103699 0.0564796 0.214461 -0.12613 0.338657 0.263208 -0.112715 -0.301705 -0.0932604 -0.0669418 -0.429614 0.0699849 0.379603 0.450349 0.866824 0.144149 -0.275776 -0.447062 0.137126 -0.746975 -1.74947 -0.599489 0.621998 -0.562888 1.24686 0.84443 -1.18864 0.350736 0.00667248 0.265652 0.95683 0.219027 0.741219 -0.338359
830 0.175448 -0.131067 0.0344259 0.483388 0.463302 0.493534 -0.320574 -0.126228 -0.405397 -0.0355839 0.250158 -0.0384302 -0.327437 0.220714 -0.0505661 -0.00454021 0.0484271 -0.082135 0.255849 -0.070808 0.343974 0.0855193 -0.136427 -0.154435 0.159506 0.17005 -0.229417 -0.239907 0.2908 -0.0588414 0.42228 0.308819 -0.241632 -0.524089 0.0281542 -0.377732 -1.67899 -0.661839 0.423027 -0.568739 0.936054 0.857869 -1.24597 0.636407 0.095077 0.307309 0.942046 0.188042 0.366545 -0.461908
4799 0.306491 0.131024 -0.0890103 0.558492 0.392838 0.758423 0.0569402 -0.296064 -0.0239385 -0.00568265 0.267634 -0.185764 -0.382199 0.0552862 -0.0898151 0.313249 0.160829 -0.0194586 0.245573 -0.0971824 0.312157 -0.0353568 -0.0707161 0.0295844 0.0215683 -0.0265233 -0.0992126 -0.100704 0.219321 0.0118044 0.777024 0.214207 -0.487663 -0.23917 -0.0293543 -0.678918 -1.97011 -0.414357 0.841038 -0.652926 0.92892 1.05215 -1.29266 0.77212 0.390836 0.314946 0.856551 0.0161784 0.724039 -0.857381
4863 0.349271 0.143843 -0.260866 0.468967 0.145888 0.836936 -0.0583265 -0.331765 0.0293211 0.191362 0.338019 -0.0915474 -0.0432371 0.118773 -0.113876 0.487622 -0.23042 0.0520695 -0.00400753 -0.0515332 0.323277 0.0375476 -0.174298 0.139804 0.0873123 0.170528 0.0239231 0.0012179 0.279818 0.0850466 0.500238 0.232171 -0.496303 -0.0829095 -0.102631 -0.655181 -1.71862 -0.568219 0.957222 -0.723838 0.954762 1.17303 -1.1217 0.662194 0.589686 0.345614 0.906025 -0.266712 0.84178 -0.676548
4774 0.507059 0.230205 -0.208395 0.544566 0.223759 0.923105 0.0833464 -0.367527 -0.00118961 0.157659 0.347963 -0.30066 -0.0317014 0.0873196 -0.0725683 0.198959 -0.287618 -0.0672444 0.152755 -0.32631 0.120744 -0.04401 -0.173264 -0.0119462 -0.0140746 -0.00225108 -0.200964 0.00651084 0.234991 -0.014746 0.491082 0.156609 -0.427053 -0.150201 -0.0689191 -0.827416 -1.97939 -0.368918 0.750521 -0.841411 0.935306 1.30882 -1.21993 0.863015 0.531957 0.455092 0.958682 -0.0760148 0.819603 -0.506516
4855 0.500601 0.149017 -0.217927 0.534448 0.317017 0.882102 -0.0516903 -0.317742 -0.131632 0.182991 0.151524 -0.370345 -0.218228 0.0395995 -0.0164756 0.405286 -0.190994 -0.0115931 0.261937 -0.135832 0.0447175 -0.0370467 -0.0669031 0.0249149 0.0367218 0.110276 -0.0336767 -0.0150969 0.238554 0.130177 0.374144 0.382424 -0.444893 -0.451757 -0.0941671 -0.851 -2.0198 -0.556943 0.955555 -0.729632 1.02434 1.22749 -1.24762 0.890236 0.490779 0.34078 0.967287 -0.099706 0.716051 -0.406158
4980 0.403276 0.0564895 0.121841 0.54212 0.294958 0.788828 0.0687085 -0.386209 0.0596255 0.0359964 0.431945 -0.286629 -0.0076307 0.05924 0.100592 0.0438838 0.119506 -0.138966 0.191721 -0.193788 0.267269 0.199586 0.00739603 -0.283926 -0.105711 -0.127402 -0.236863 -0.120882 0.316316 -0.0292374 0.480289 0.277052 -0.473525 -0.374174 0.162173 -0.624085 -1.89621 -0.324461 0.758963 -0.780704 0.910618 0.913057 -1.04685 0.852562 0.137215 0.22108 0.876761 0.09876 0.689105 -0.622353
4765 0.391555 0.240595 -0.163778 0.613286 0.266243 0.660607 0.204998 -0.127485 -0.133188 -0.00761044 0.0536291 -0.498986 -0.382075 0.173606 0.0275058 0.582706 -0.521411 -0.0315532 0.169912 0.0193286 0.0811211 -0.132816 -0.259948 -0.223637 -0.193469 -0.265346 -0.274324 -0.0729074 0.182647 -0.00819367 0.392998 0.0250071 -0.46318 -0.528799 0.147048 -0.765695 -1.80982 -0.591734 0.645471 -0.435841 0.762787 1.48832 -1.18809 0.80282 0.684337 0.61773 0.988743 -0.0230312 0.660402 -0.435785
4752 0.437398 0.134056 -0.0918578 0.536942 0.165156 0.861432 -0.121532 -0.323565 -0.31674 0.343043 0.274965 -0.312833 -0.189452 0.0869043 0.0445736 0.280404 -0.304747 -0.0972231 -0.0107461 -0.304978 0.113708 -0.11768 -0.165571 -0.180259 -0.150266 0.16325 -0.115987 -0.123529 0.454323 0.00863355 0.224801 0.234382 -0.618059 -0.451558 -0.156838 -0.857395 -1.94875 -0.561405 0.737912 -0.599902 0.765019 1.3646 -1.1159 0.927531 0.520066 0.520125 0.98676 0.0971118 0.710015 -0.369617
4753 0.425835 -0.137897 -0.176921 0.826263 -0.0859082 0.557918 -0.0886248 -0.131638 -0.0846778 -0.0396936 0.153188 -0.674452 -0.059687 0.0179214 -0.265477 0.453955 -0.177759 0.264446 0.0363658 -0.440186 0.344965 -0.0422661 -0.35143 -0.350916 -0.238912 0.144054 -0.378708 -0.177714 0.142483 0.384316 0.187403 -0.128008 -0.391682 -0.714162 0.147723 -0.652389 -1.54793 -0.953028 0.812296 -0.232626 0.888068 1.26409 -1.206 0.795579 0.207431 0.811824 0.834663 0.321054 0.826378 -0.0438545
4930 0.427837 -0.0757727 0.135185 0.631438 -0.151616 0.448424 -0.210558 -0.11409 -0.0347936 -0.0330493 0.282474 -0.375668 -0.131912 0.12692 -0.144009 0.168147 0.0112367 0.102941 0.220347 -0.363786 0.254848 -0.114058 -0.457824 -0.492986 -0.474458 0.0845721 -0.405859 -0.140622 0.369217 0.463785 0.368951 -0.128988 -0.26706 -0.576685 0.312176 -0.520734 -1.4527 -0.936097 0.622039 -0.122975 0.82275 1.1858 -0.985852 0.800132 0.0992573 0.634237 0.85664 0.469922 0.79976 -0.260832
4925 0.335182 -0.326992 0.132447 0.674231 0.0584751 0.538023 -0.172251 -0.176938 -0.0899835 -0.101239 0.307915 -0.633439 -0.171589 0.00639201 -0.186889 0.344299 0.0103094 0.177709 0.551732 -0.18387 0.190825 -0.169936 -0.33983 -0.414655 -0.369344 -0.102557 -0.173067 -0.235833 0.35878 0.398713 0.456484 -0.118308 -0.289697 -0.648524 0.215899 -0.563373 -1.59016 -0.889132 0.616397 -0.149619 1.08334 1.13921 -1.27098 0.778977 -0.0571767 0.602306 0.842693 0.28802 0.764643 -0.183592
4931 0.58086 0.031362 0.0789054 0.696002 -0.29312 0.588563 -0.249919 0.104052 0.180344 0.0670496 0.280476 -0.432792 0.204152 0.102417 -0.0378093 0.442977 0.0167437 -0.0497244 0.232151 -0.290345 0.344142 -0.243805 -0.10032 -0.43076 -0.579322 -0.0319934 -0.416584 -0.21925 0.193301 0.323408 0.0603667 -0.221267 0.022044 -0.67321 0.327832 -0.492468 -1.67635 -0.777373 0.452956 -0.314498 0.60769 1.30891 -0.937557 0.850933 0.11103 0.808172 1.14519 0.378758 0.77438 -0.516904
4918 0.57975 -0.138208 0.176424 0.692269 -0.267255 0.5417 -0.166363 -0.274415 0.303783 -0.0403882 0.354679 -0.505206 -0.141824 0.10961 -0.121658 0.385166 0.0151195 0.146335 0.0509895 -0.370654 0.141493 -0.123309 -0.333389 -0.430566 -0.39103 0.206377 -0.285098 0.131442 0.404546 0.261039 0.522675 -0.170603 -0.439104 -0.600173 0.257936 -0.772334 -1.55999 -0.728502 0.687968 -0.403768 0.555537 1.27917 -0.948709 0.724104 -0.00763493 0.771616 0.75293 0.524409 1.0362 -0.244992
858 0.463321 -0.0525726 -0.0839673 0.269024 -0.191236 0.379792 -0.332997 0.0405032 -0.0223058 0.0784444 0.38423 -0.165552 0.244352 0.397497 -0.113909 0.348992 -0.0233947 -0.0584818 0.134255 0.120018 0.453966 -0.243574 -0.0109875 -0.249317 -0.234462 0.361332 0.107895 -0.126976 0.361901 0.136405 -0.0532689 0.0992056 0.151582 -0.666126 0.50247 -0.165282 -1.52088 -0.555442 0.490902 -0.421328 0.408209 1.1849 -1.06694 0.815658 -0.189598 0.779598 1.01126 0.542623 0.640692 -0.234424
1097 0.564665 -0.178201 -0.0295654 0.44112 -0.076149 -0.0634359 -0.27488 0.179084 0.101014 0.176958 0.361633 -0.413146 0.127361 0.814679 0.0347966 0.326891 0.093411 0.277022 0.311946 0.253837 0.400965 0.260212 -0.424701 -0.534256 0.478747 0.319805 -0.0628869 0.329892 0.376941 0.226116 0.251151 -0.316683 0.374129 -1.00535 0.278761 -0.322616 -1.57487 -0.563524 0.588673 -0.641388 0.391831 1.38609 -1.16789 0.913469 -0.17334 0.912314 1.24007 0.265592 0.829838 -0.317891
670 0.339879 -0.142964 -0.331576 0.39397 0.291382 -0.45748 -0.37417 0.0937881 0.0522879 0.197743 -0.123682 -0.654489 0.11877 0.722009 -0.323276 0.673897 0.0412916 0.256581 0.120853 -0.0112097 0.130741 0.321769 -0.345231 -0.469859 0.0789306 0.335905 -0.167299 0.445899 0.451444 0.0860266 0.020191 -0.0285419 -0.0181354 -1.01116 0.479736 -0.127577 -1.62504 -0.44245 0.482285 -0.321877 0.861926 0.970864 -1.51921 0.944127 -0.300249 0.708486 0.947159 0.0858744 0.940965 -0.470248
2275 0.386728 0.128076 -0.278093 0.242516 0.320546 -0.059296 -0.193988 0.0636063 -0.0146685 -0.042875 -0.153609 -0.342433 0.157152 0.498213 -0.258662 0.161218 0.19232 0.0524971 0.340564 0.00566128 0.258721 0.45007 -0.330049 -0.140745 0.138245 0.117652 -0.0558899 0.667444 0.414815 0.643352 0.0815274 0.069388 -0.186123 -0.736561 0.826108 -0.0869038 -1.03337 -0.385159 0.305564 -0.0793775 0.781484 0.771079 -1.40169 0.577894 0.0265549 0.688906 0.615629 -0.0758308 0.494664 -0.201029
1071 0.459483 -0.0357241 -0.0884139 0.455986 0.269351 -0.148692 -0.290159 0.158207 0.0598632 0.153921 0.0088842 -0.245085 -0.0498456 0.947482 -0.188572 0.657566 0.157754 0.125893 0.0132145 0.106787 0.0423203 0.559699 -0.133067 -0.782875 0.210381 0.451742 -0.0731036 0.434299 0.473438 0.199689 -0.0816771 0.0308396 -0.123481 -0.980506 0.489269 -0.472498 -1.69173 -0.198029 0.80677 -0.668864 0.673777 1.34562 -1.82469 0.878309 -0.0129338 0.858951 1.00408 -0.0903514 1.02362 -0.370569
4569 -0.264234 0.212543 -0.256878 0.102065 0.0535406 0.226113 -0.291185 -0.0397196 0.204534 0.232363 0.179633 -0.106052 -0.021728 0.549756 0.17417 0.278641 0.0915807 -0.259098 0.134388 0.164627 0.169737 -0.14369 -0.137151 -0.71335 -0.0797287 0.212424 0.194879 -0.0644678 0.0892362 0.434772 0.136952 0.122284 0.231999 -0.264556 0.335621 -0.679841 -1.50193 -0.438692 0.699591 -0.255709 0.843354 1.32953 -1.24761 0.596283 -0.146237 0.302136 0.972668 0.301644 0.111357 -0.0852371
3603 -0.156895 0.272529 -0.270291 -0.00322443 -0.00867256 0.394442 -0.19015 -0.046603 0.209556 0.19898 0.0500957 -0.216804 -0.208517 0.488522 0.038732 0.233979 0.179175 -0.21339 0.131072 0.102225 0.204684 -0.168517 -0.196505 -0.556876 -0.0860656 0.204285 0.102258 -0.117423 0.242074 0.477082 0.183878 0.0595628 -0.0799309 -0.11434 0.358026 -0.634946 -1.48626 -0.476741 0.72518 -0.287292 0.852835 1.36132 -1.145 0.481903 -0.219869 0.302956 1.13155 0.444634 -0.14186 -0.0223833
3708 0.000514184 0.541262 0.201234 0.0638022 -0.0558358 0.237754 -0.530265 0.219797 0.206356 0.440372 0.260545 -0.283358 0.0214552 -0.0781837 -0.320951 0.027956 0.0175263 0.0335896 0.262138 0.0897107 -0.0983943 -0.0145551 0.123836 -0.334145 0.318318 0.254317 0.21336 -0.00648919 0.0583729 0.300619 -0.0799877 0.388277 -0.239083 -0.491076 0.021303 -0.596248 -1.79726 -0.346652 0.311996 -0.83928 0.653996 1.22343 -1.33313 0.543325 0.118454 0.989108 1.08178 -0.023346 0.52437 0.102456
3860 -0.119825 0.409053 0.0841027 -0.0369484 -0.165478 0.149811 -0.624844 0.265288 0.208837 0.560125 0.2819 -0.363115 -0.0909918 -0.00799649 -0.280246 -0.0653184 0.1504 -0.0348011 0.404969 0.0570398 -0.0556522 0.0777736 0.0887907 -0.40813 0.427257 0.258787 0.0793433 0.255677 -0.0205341 0.303062 -0.130567 0.374561 -0.499355 -0.356055 0.0738513 -0.680908 -1.68503 -0.262113 0.334657 -0.702889 0.728167 1.162 -1.17379 0.755653 0.238159 0.985241 0.970377 -0.0710318 0.463441 0.019229
3579 0.0558953 0.681236 0.158028 -0.0749722 0.193625 0.331854 -0.524878 0.289819 0.201615 0.198495 0.107503 -0.0476935 -0.412251 0.0416663 0.0197972 0.32434 0.302708 -0.0404964 -0.00865478 -0.210693 -0.0195739 -0.0829052 -0.0963736 -0.685387 0.143078 0.304756 0.0943215 0.131025 0.0822299 0.336084 0.211483 0.564246 -0.193195 -0.485716 -0.13002 -0.470175 -1.63437 -0.483797 0.336669 -0.209695 0.906006 0.993726 -1.34213 0.596095 0.0887978 0.599625 0.82929 0.379441 0.245042 0.158596
3313 -0.260966 0.00119664 0.18788 0.361353 -0.209802 0.146342 -0.254437 0.407712 0.160331 0.282225 0.337225 -0.505777 0.138471 0.12826 -0.326564 -0.0923775 0.332171 0.162997 0.312699 0.0464287 -0.201582 0.0389745 -0.127892 -0.148162 0.270463 0.330267 0.315148 0.0382878 0.125428 0.333076 -0.19853 0.159172 -0.376563 -0.131186 -0.212305 -0.38592 -1.80926 -0.130413 0.259544 -0.599266 0.669665 1.34925 -1.39328 0.594953 0.249731 0.965862 1.0512 0.22407 0.570216 -0.150803
3705 -0.101233 0.312053 0.141001 0.0221918 -0.0101006 0.489984 -0.37792 0.204788 0.180049 0.29041 0.348412 -0.338213 -0.0530779 0.00850277 -0.402745 -0.133252 0.0908156 0.0905436 0.338434 0.178798 -0.223557 -0.215062 0.0808759 -0.307683 0.530285 0.229923 0.131121 0.338993 0.0085213 0.392854 -0.344327 0.133783 -0.474403 -0.18976 -0.059194 -0.53136 -1.78677 -0.286557 0.266662 -0.902944 0.624173 1.33124 -1.17713 0.747935 0.0340081 1.00102 1.01622 0.000253658 0.481403 0.10663
3312 -0.15624 0.313865 0.0642662 0.205429 -0.253048 0.121934 -0.431646 0.442079 0.244391 0.198977 0.190957 -0.173946 0.338496 0.146802 -0.374183 -0.128316 0.237808 -0.310643 0.435121 0.00474792 -0.202198 0.0230683 0.224345 -0.412215 0.353191 0.264093 -0.0616851 -0.0416409 0.0373677 0.440754 -0.0508554 0.512186 -0.319013 -0.18694 -0.0640052 -0.561622 -1.8128 -0.370291 0.365131 -0.606729 0.669567 1.22807 -1.32421 0.53125 -0.0552312 0.949233 1.0758 0.26424 0.65693 -0.264308
3840 -0.280109 0.189346 0.195877 0.457432 -0.125661 0.279851 0.0499067 -0.199133 0.283355 0.544044 0.2082 -0.34876 0.281385 0.265496 -0.320392 -0.0624427 0.342467 -0.452361 0.349447 -0.0248234 -0.323125 0.0673487 -0.0533643 -0.303329 0.276726 0.459895 0.0621201 -0.153609 0.0259141 0.397413 -0.112807 0.502668 -0.173754 -0.298774 -0.0741579 -0.608254 -1.72885 -0.45386 0.425542 -0.541329 0.701073 1.22387 -1.32927 0.758262 0.117015 0.788413 1.07998 0.33271 0.475248 -0.408001
3296 -0.215714 0.172788 0.232543 0.244423 -0.282717 0.194791 0.0710758 -0.0482741 0.101669 0.680226 0.119628 -0.326505 0.20997 0.453235 -0.335539 0.216498 0.358288 -0.59663 0.403301 0.13303 -0.130848 0.0686021 0.175986 -0.418854 0.418754 0.384254 0.167252 -0.130556 -0.0686892 0.292789 -0.300708 0.433787 -0.306999 -0.163757 0.0952868 -0.74649 -1.74788 -0.438102 0.622526 -0.565115 0.876319 1.19439 -1.29566 0.631004 0.304683 0.750274 1.30421 0.478223 0.404476 -0.356924
3828 -0.328257 0.131945 0.091307 0.386133 -0.180379 0.245621 -0.00927739 -0.0486423 0.366916 0.422743 0.203304 -0.307005 0.287466 0.28786 -0.445093 -0.0351204 0.403958 -0.368242 0.33769 0.144796 -0.175362 0.120215 0.0532012 -0.122103 0.445176 0.325538 0.212854 -0.149618 0.177251 0.389606 -0.067581 0.535237 -0.132154 -0.487904 0.110355 -0.657225 -1.66542 -0.420369 0.375056 -0.308208 0.623419 1.12879 -1.19775 0.789001 0.0838148 0.749625 1.12804 0.288598 0.683968 -0.340541
3345 -0.399223 -0.0282664 0.157518 0.320314 -0.161092 -0.0228772 -0.258504 -0.148347 0.288929 0.185253 0.321683 -0.302041 0.103473 0.160105 -0.401624 0.00517993 0.288846 -0.139183 0.280676 0.155063 -0.271493 0.38572 -0.203731 -0.193776 -0.0247025 0.424985 0.449145 -0.171856 0.264503 0.0828931 -0.0409567 0.381539 -0.23328 -0.32972 -0.0794712 -0.469172 -1.79987 -0.215816 0.385873 -0.381158 0.710268 1.22218 -1.49626 0.458389 0.138589 0.779404 0.968174 0.220457 0.621754 -0.157033
4383 -0.234408 0.0200916 0.147963 0.225023 -0.0543476 0.181179 -0.122885 -0.0321895 0.218098 0.0940657 0.436202 -0.187118 0.0893632 0.0337916 -0.309563 0.0595447 0.236992 -0.346962 0.0750865 0.127712 -0.0382829 0.25855 -0.306992 -0.128525 0.0764042 0.379235 0.287065 -0.0264614 0.147168 0.288607 -0.0648 0.19279 -0.0928393 -0.332925 -0.0246287 -0.495343 -1.45154 -0.364002 0.450408 -0.191479 0.599015 1.15889 -1.11808 0.619828 0.273631 0.533887 0.945491 0.320629 0.390393 -0.151989
4387 -0.409543 0.0918353 0.0194659 0.34066 0.0532491 -0.130361 -0.281984 0.0269946 0.31697 0.174705 0.316325 -0.217657 -0.0354654 0.183803 -0.174906 0.0626535 0.142823 -0.343494 0.376485 0.216839 -0.187596 0.414663 -0.313811 -0.0289266 -0.161554 0.269678 0.269638 0.0245683 0.228981 0.264099 -0.0654545 0.0754521 -0.0976133 -0.487293 -0.0740392 -0.288317 -1.55801 -0.299477 0.350537 0.0017321 0.721982 1.11685 -1.24521 0.66216 0.0425176 0.702687 1.06896 0.11867 0.463295 -0.0368841
4392 -0.436472 0.15111 0.0245827 0.14783 -0.0558421 0.138571 -0.17472 -0.189269 0.247738 0.217457 0.389699 -0.25037 -0.0140661 0.250055 -0.277708 -0.0423409 0.434898 -0.286036 0.155755 0.147057 -0.0606255 0.233436 -0.229766 -0.199543 -0.209105 0.227314 0.198408 -0.0672506 0.232957 0.0773326 0.104871 0.107879 0.0422766 -0.503755 -0.0705291 -0.45416 -1.44239 -0.375176 0.557348 -0.271385 0.637962 1.11233 -1.20277 0.612811 0.0566881 0.58782 0.986563 0.237262 0.550833 0.010428
4532 0.0140932 0.449351 0.0984854 -0.119313 0.201534 0.25089 -0.279213 0.205403 0.176805 -0.0968974 0.309968 -0.284488 -0.160407 0.35243 0.136436 0.364467 0.215199 -0.0821445 -0.170803 -0.0828676 -0.0735509 0.123548 -0.421212 -0.655819 0.114418 -0.00330949 0.109122 -0.130013 0.277945 0.0724924 0.152879 0.269029 -0.0975634 -0.386849 0.0102273 -0.344123 -1.57001 -0.36749 0.738475 -0.0737755 1.17039 0.984077 -1.13746 0.593309 0.230386 0.482747 0.851683 0.528723 0.26973 0.05218
3578 -0.0108579 0.512761 0.196695 0.00421242 0.235124 0.298401 -0.266839 0.24796 0.178101 -0.235112 0.217922 -0.381731 -0.127232 0.299595 0.0231782 0.429304 0.235289 -0.0132451 -0.175839 -0.00961551 0.0477943 0.188854 -0.364212 -0.65481 -0.0103767 0.0669875 -0.0219898 -0.0906292 0.326433 -0.0121232 0.239316 0.284474 -0.206787 -0.464628 0.0125853 -0.398254 -1.54885 -0.341413 0.802119 -0.0252352 1.03654 0.969361 -1.09186 0.552705 0.123476 0.598101 0.918534 0.432317 0.350262 -0.0366738
1994 -0.20222 -0.145298 -0.0521928 0.0500075 0.0639543 0.343454 0.0848091 -0.00721014 0.482637 -0.14767 0.0983997 -0.552664 -0.12797 0.342126 -0.405476 -0.111133 -0.264313 -0.425833 -0.562044 0.162979 0.462438 0.182819 0.470245 -0.408942 0.501417 -0.118573 0.501786 0.172355 0.827906 -0.060851 0.50612 -0.154269 -0.213467 -0.0872206 0.201772 -0.471323 -1.53843 -0.492551 0.248525 -0.427392 1.16693 1.07247 -1.62284 0.937277 -0.0492737 0.419106 0.834354 0.105211 0.225114 0.18264
2000 -0.166366 -0.137429 -0.0158686 0.0924062 0.0294345 0.25939 -0.0786814 -0.35679 0.520476 -0.00336342 0.149327 -0.436081 -0.162399 0.379824 -0.186739 -0.166314 -0.143653 -0.486398 -0.620765 0.216693 0.355402 0.285824 0.315341 -0.353566 0.403915 -0.0451761 0.363233 -4.90177e-05 0.887488 0.243357 0.362803 -0.170451 -0.119774 -0.173797 0.353342 -0.327484 -1.60606 -0.43729 0.164077 -0.277713 1.08082 1.16949 -1.67272 0.994198 -0.00731698 0.306225 0.897869 -0.0909585 0.301567 0.0325014
1996 -0.360641 -0.304216 -0.0385241 0.137279 0.268877 0.142541 -0.103613 -0.512283 0.552468 -0.161029 0.135694 -0.523859 -0.0533946 0.257381 -0.141472 -0.129359 0.0293457 -0.464879 -0.399353 0.392766 0.496496 0.178838 0.219492 -0.638756 0.352052 -0.0471747 0.261465 0.149752 0.853734 0.270565 0.286085 -0.204901 -0.273517 -0.118057 0.461491 -0.594244 -1.68304 -0.501143 0.141692 -0.14919 1.07175 1.04427 -1.58679 0.943066 0.0817135 0.382998 0.81196 0.0682778 0.453196 -0.144764
1999 -0.27762 -0.103053 -0.215234 0.0077092 0.0276631 0.258512 -0.0450252 -0.143854 0.483258 -0.0878023 0.166398 -0.431221 -0.0627955 0.365724 -0.253888 -0.106539 -0.182156 -0.403324 -0.477535 0.274876 0.384376 0.196255 0.280907 -0.477515 0.459644 -0.201883 0.310122 0.161777 0.832271 0.352064 0.264109 -0.170117 -0.204281 0.00324649 0.146496 -0.44377 -1.54864 -0.437779 0.385906 -0.354876 0.928384 1.10579 -1.43361 1.04827 -0.0681087 0.318858 0.767475 0.127516 0.484611 0.110093
1650 -0.103132 -0.259132 -0.0223867 0.0752157 0.0015925 0.329869 0.025302 -0.354733 0.645504 -0.424473 0.0821717 -0.489164 -0.127601 0.275438 -0.431001 -0.0720214 0.0933115 -0.409099 -0.560161 0.317855 0.439484 0.154632 0.462427 -0.393678 0.418847 -0.000465751 0.0782172 -0.155965 1.02133 0.213139 0.34631 -0.271872 -0.112291 -0.26961 0.183751 -0.556138 -1.56967 -0.303402 0.259041 -0.216633 1.12664 1.15188 -1.77494 1.06537 0.008941 0.381682 0.884617 0.164587 0.411184 0.182893
1608 -0.0319184 -0.238526 -0.131341 0.145449 0.288447 0.47962 0.171831 -0.362749 0.732221 -0.175681 -0.0608215 -0.541925 0.391887 0.299567 -0.249961 0.119119 0.415963 -0.0353488 -0.379925 0.136505 0.0810631 0.181618 0.0764446 -0.417509 0.54261 -0.0278808 -0.126752 -0.01131 0.845726 0.314419 0.600566 -0.298656 -0.445577 -0.488453 0.128665 -0.514297 -1.45613 0.0905753 0.544142 0.0673763 1.11291 0.854896 -1.52156 0.931914 -0.393675 0.53576 0.785175 0.203374 0.593926 0.0869142
1645 -0.133671 -0.0471503 -0.208919 -0.159195 0.221551 0.583748 -0.0554341 -0.111286 0.515995 -0.0160708 -0.144983 -0.675966 0.363068 0.38775 -0.239375 0.154751 -0.167988 -0.151094 -0.268794 0.228755 0.204966 -0.215135 0.00238423 -0.12737 0.257885 0.154894 -0.0284852 -0.344953 0.78174 0.246069 0.611027 -0.350843 -0.330552 -0.6164 -0.274897 -0.736029 -1.42496 -0.206949 0.0990245 0.102173 1.2934 0.878006 -1.50587 0.888968 -0.135376 0.718411 1.08782 0.577335 0.908573 0.317361
1612 -0.0467202 -0.137153 -0.232402 -0.178421 0.0453736 0.609363 0.0584334 0.32332 0.554942 -0.407018 -0.0370348 -0.620403 0.0538353 0.510781 -0.208436 -0.0750069 -0.227411 -0.465695 -0.0491445 0.516531 0.522141 -0.00466038 0.448403 0.040244 0.22081 0.0863956 0.159469 -0.139973 0.595664 -0.112998 0.216107 -0.0297908 -0.195771 -0.574987 -0.0214566 -0.628659 -1.25344 -0.498826 0.485226 -0.613467 1.30046 0.873346 -1.54121 0.779855 0.304794 0.804291 1.00391 0.286695 0.259676 0.524915
1643 0.100288 -0.349123 -0.489619 -0.290838 0.0946318 0.297473 -0.111288 0.204144 0.0905249 -0.05249 0.23315 -0.332584 0.19145 0.373925 0.0498489 -0.134877 0.170284 -0.287528 0.391505 0.463005 0.541007 0.292291 -0.230686 -0.0991037 0.199144 0.0579912 0.0820423 0.018781 0.303399 0.326035 -0.51626 -0.109417 -0.00877959 -0.588396 -0.036308 -1.04275 -1.11566 -0.568184 0.749011 -0.203784 1.13708 1.069 -1.42242 0.848267 0.327526 1.07058 0.888563 0.367891 0.0748853 0.602349
1630 0.0696542 -0.0227664 -0.00299936 0.0153583 0.364862 0.427667 0.200932 0.393395 0.77652 -0.382452 0.4534 -0.17355 0.18188 0.432921 -0.370581 0.132146 -0.0256104 -0.207758 -0.175024 0.0125476 0.671382 0.164076 0.0172749 -0.038579 0.43079 -0.0366699 -0.193556 -0.21047 0.476078 0.244835 0.0210824 -0.162717 -0.0195302 -0.663421 0.0266244 -1.06443 -1.3139 -0.259052 0.903547 -0.532406 0.810325 1.26216 -1.3438 0.934052 0.17169 0.778683 0.763825 -0.237969 0.389169 0.694999
3038 -0.206771 -0.184959 -0.440777 -0.0602465 0.0672573 0.401393 0.0896714 0.486375 0.326794 -0.14066 0.257892 -0.508567 0.211119 0.408561 -0.267756 -0.169401 -0.280731 -0.483802 -0.0972105 0.450282 0.40609 0.184092 0.530188 -0.255005 0.0942838 0.155397 0.256901 -0.220102 0.507084 -0.0159316 0.419022 -0.145813 -0.182641 -0.419311 -0.17839 -0.539363 -1.30862 -0.537697 0.352319 -0.646668 1.30761 0.982049 -1.27236 0.692728 0.264073 0.864841 1.26438 0.563363 0.242412 0.257446
3047 -0.130461 0.0684603 -0.371507 -0.217875 0.125657 0.51212 0.0792127 0.550755 0.248021 -0.0489695 0.30371 -0.525986 0.309631 0.459771 -0.294614 0.0503439 -0.375717 -0.413462 -0.0473975 0.501112 0.366588 0.200443 0.55011 -0.395578 0.148078 0.193941 0.228272 -0.191708 0.518175 -0.146942 0.533473 -0.232469 -0.320814 -0.499286 -0.311451 -0.516552 -1.23135 -0.518955 0.417789 -0.569932 1.45153 0.887943 -1.32331 0.738983 0.257747 0.894571 1.19825 0.403298 0.323406 0.233663
3043 -0.101992 0.00823056 -0.30221 -0.120065 0.145339 0.39477 0.0533469 0.348263 0.257234 -0.184027 0.17493 -0.594804 0.0626148 0.299931 -0.41692 0.0374445 -0.389223 -0.49697 -0.167191 0.35691 0.334123 0.243463 0.560542 -0.204855 0.253524 0.107319 0.366693 -0.142948 0.679243 -0.0912696 0.540954 0.0107539 -0.196572 -0.546604 -0.163395 -0.603467 -1.27505 -0.36693 0.37253 -0.467886 1.42513 0.915662 -1.41346 0.861512 0.155831 0.915338 1.0049 0.5417 0.34274 0.23954
668 0.0418801 0.281479 -0.541336 0.361561 0.0127598 0.353881 -0.00155573 0.118965 0.326783 0.177517 0.431848 -0.568335 0.267396 0.558347 0.078995 0.296167 0.271575 -0.148095 0.0961055 0.0269943 -0.0922216 0.18012 0.386856 -0.0473885 0.0615557 0.265019 0.283138 -0.128629 0.336279 0.449277 -0.00218052 -0.20819 0.0759143 -0.477127 -0.349537 -0.706292 -1.46543 0.0248795 0.854922 -0.177377 1.16466 0.898475 -1.06912 0.697895 0.106338 0.222372 1.0948 -0.23764 0.686801 -0.539986
54 0.131309 0.13523 -0.633473 -0.00545647 0.254679 0.571174 -0.277027 0.0124103 0.317576 0.111291 0.323519 -0.736525 0.330693 0.557022 0.153703 0.110048 0.455416 -0.100459 0.2222 -0.266877 -0.179089 0.155711 0.144217 -0.160001 0.352483 0.241059 0.377561 -0.231183 0.0521636 0.323353 0.176462 -0.167418 -0.150964 -0.615239 -0.556152 -0.542646 -1.78579 0.166883 0.78096 -0.117098 1.44393 0.844626 -1.31717 0.81915 0.116686 0.280764 1.25468 -0.179222 0.620621 -0.581405
296 0.162498 0.113517 -0.636632 -0.0897852 0.220516 0.642718 -0.3007 0.0321393 0.352124 0.206983 0.547992 -0.536782 0.1839 0.30827 0.0863868 0.198949 0.409578 0.00957832 0.330739 -0.160192 -0.0822572 -0.0194095 0.00166878 -0.208285 0.156675 0.0519809 0.216521 0.122523 0.154556 0.304707 0.209168 -0.121658 0.0310822 -0.753112 -0.202259 -0.501293 -1.40425 -0.110372 0.988565 -0.0363288 1.12046 1.02818 -1.02966 0.677081 -0.137449 0.28939 1.00791 0.0339134 0.445722 -0.195269
295 0.00570329 0.138293 -0.505389 -0.116247 0.209504 0.494627 -0.136107 0.004888 0.332047 0.202729 0.555778 -0.570397 0.239725 0.441615 -0.0482338 0.242117 0.438904 -0.0566918 0.133237 -0.151843 -0.105446 0.0667743 -0.15483 -0.174716 0.259571 0.119142 0.197795 0.19822 0.138956 0.311339 0.258923 -0.172255 0.115442 -0.723135 -0.211232 -0.557176 -1.34225 -0.18575 0.790014 -0.170754 1.13679 0.960308 -1.1395 0.726349 -0.108563 0.286089 1.08077 0.023279 0.558197 -0.360679
261 0.0540242 0.186292 -0.539481 -0.176029 0.173552 0.613033 -0.208445 0.0512308 0.25188 0.0715094 0.590703 -0.648537 0.238531 0.330198 -0.0780677 0.160243 0.29926 -0.122038 0.109643 -0.0835937 -0.217452 0.156757 0.0259278 -0.25617 0.252206 0.175241 0.185187 0.12147 0.116309 0.380901 0.2985 -0.274444 -0.115627 -0.524689 -0.210692 -0.540868 -1.37494 -0.155562 0.890848 -0.0583967 1.10742 0.863742 -1.04327 0.68426 -0.0938107 0.251159 0.906229 -0.00373135 0.651225 -0.268723
4804 0.090664 0.0164439 -0.0826555 0.484352 0.345865 0.371548 -0.357392 -0.128647 -0.159071 -0.239204 0.287942 -0.383638 0.0501258 0.315921 -0.167749 0.308085 -0.119049 -0.0466075 0.0761525 -0.00969124 -0.00223316 0.24264 0.0435702 0.0429867 -0.172942 -0.060846 0.01801 0.17106 0.081426 0.191627 0.443935 -0.0932876 -0.412515 -0.522835 0.144788 -0.722098 -1.58743 -0.423064 0.806717 -0.0579511 1.01312 1.2294 -0.924585 0.534634 0.200547 0.289424 0.975641 0.310611 0.457321 -0.183759
2370 -0.128341 -0.105686 -0.048494 -0.0382896 0.13014 0.103328 -0.125784 -0.115095 -0.265023 0.129189 0.617052 -0.295367 0.0309947 0.192467 -0.272249 0.237324 -0.106433 -0.234796 -0.167653 -0.0114659 0.1369 0.298925 -0.0629589 -0.326294 -0.381526 -0.191535 -0.121046 0.0527736 0.263899 0.784589 0.0253278 -0.214217 -0.158583 -0.599613 -0.19577 -0.596054 -1.33175 -0.270696 0.684386 -0.533739 0.756036 1.00583 -0.95957 0.842844 0.133509 0.637158 0.487943 0.224064 0.517844 -0.192102
1495 0.336187 -0.0422538 0.173998 0.208811 0.0562577 0.678139 -0.300742 0.138402 0.142457 -0.527151 0.288145 -0.278953 -0.00201025 0.257046 -0.211 -0.120243 -0.0307864 -0.0178121 0.0114654 0.407427 0.617755 -0.150238 -0.334431 -0.313556 -0.15005 -0.0519481 -0.00562926 0.389677 0.355569 -0.046966 0.328956 0.203722 0.0454296 -0.822712 -0.140761 -0.246636 -1.34892 -0.512658 0.48859 -0.84811 0.645862 0.819125 -0.932862 0.749118 0.144368 0.609697 0.872099 0.509455 0.54102 -0.0521475
672 0.129805 -0.142838 -0.223989 0.306966 -0.0827944 0.031513 -0.502766 -0.0925846 -0.0851325 0.0197182 0.470687 -0.215939 -0.393518 0.69825 -0.233029 0.147646 -0.0513556 0.0760607 -0.0825267 0.416537 0.339684 0.0266074 -0.365303 -0.150308 0.342051 0.12363 0.0417823 0.1469 -0.16474 0.0225861 0.3512 -0.107414 0.249879 -0.987204 0.210857 -0.335455 -1.55249 -0.628213 0.818943 -0.450495 0.448168 1.35874 -0.91469 1.02936 -0.0661986 0.94292 0.869735 0.454672 0.431368 -0.138158
824 0.0360676 -0.231679 -0.389669 -0.137063 -0.0291416 0.244864 -0.260825 -0.232074 0.33101 0.417323 0.435556 -0.050371 -0.363262 0.541869 -0.154109 0.607373 -0.259549 -0.0758551 0.287288 0.543781 0.28457 -0.027624 -0.305217 -0.275731 0.310576 0.309752 -0.023712 0.116549 -0.113978 0.0616522 0.185561 -0.115565 0.236514 -0.644281 0.427164 -0.42239 -1.51274 -0.50024 0.692562 -0.357381 0.472159 1.27659 -0.691519 1.08312 -0.167104 0.694507 0.943664 0.353506 0.365432 -0.550404
3234 -0.174867 -0.0600594 0.311815 0.259169 0.00264422 0.702028 -0.370044 0.207967 -0.415111 -0.0172697 0.203659 -0.160079 0.205441 0.222571 -0.182681 0.121852 -0.416372 -0.15915 -0.100682 -0.0605758 -0.310374 0.193762 -0.440467 -0.432738 0.126375 -0.0154143 0.117824 -0.00120937 0.360428 -0.0450032 -0.193834 -0.182406 0.192248 -0.700192 0.0606317 -0.251208 -1.60447 -0.486063 0.303203 -0.57569 1.00801 0.644937 -1.45982 0.54286 -0.209728 0.824285 0.825505 0.105895 0.970406 0.0733536
3880 -0.191656 0.174552 0.182084 0.122605 0.198664 0.467688 -0.259291 -0.203377 -0.350531 -0.175732 0.269681 -0.346495 0.246736 0.42698 0.220918 0.102837 -0.35383 -0.0182164 0.319364 -0.586335 -0.042276 0.246714 -0.496174 -0.41011 0.234002 0.107613 0.0903947 -0.01373 0.112814 -0.0664884 -0.293407 0.259919 -0.119749 -0.480013 -0.00406107 -0.723163 -1.28025 -0.485266 0.435167 -0.799697 0.870968 0.90612 -1.2053 0.377548 -0.367872 1.2653 0.888115 0.163136 1.09985 0.0327845
3876 -0.220127 0.104488 0.104335 0.178682 0.320569 0.43856 -0.130548 0.146089 -0.0925476 -0.160443 0.1688 -0.375658 0.253087 0.0919612 -0.150447 0.446893 -0.0343567 0.163329 0.168461 0.0652296 0.0051769 0.127445 -0.290506 -0.264822 0.160752 0.26342 0.475971 -0.0754104 0.0428811 0.171868 -0.333611 -0.0618587 -0.0705769 -0.387171 -0.124999 -0.461197 -1.55996 -0.653942 0.319611 -0.723277 0.830565 0.90413 -1.54506 0.252476 -0.0890513 0.958114 0.72218 0.476453 1.03628 -0.0698653
3793 -0.168026 0.0814715 0.363337 0.202789 0.350798 0.463633 -0.100055 0.1103 -0.253457 0.0129265 0.30521 -0.18917 0.246218 0.325442 0.203698 0.428931 -0.396184 0.0909619 0.299967 0.104593 -0.105023 0.377863 -0.619147 -0.601317 -0.066828 0.126658 0.373595 0.212729 0.182054 -0.0161546 0.072608 0.310749 0.0274153 -0.781786 0.0426965 -0.555491 -1.38423 -0.152733 0.645276 -0.753546 0.999197 0.707646 -1.47044 0.0620587 -0.188205 1.05694 0.731295 0.0888552 0.914055 -0.153191
3306 -0.0867312 0.136951 -0.0585153 -0.0492943 0.637735 0.258823 -0.250569 0.10269 0.0986401 -0.221448 -0.0359706 -0.417756 0.139801 0.18339 0.292087 0.224424 0.308501 -0.215829 0.439525 0.419132 0.284001 -0.0469807 -0.471744 0.0581629 0.142857 0.435108 0.519087 -0.265514 0.407313 -0.0378204 -0.0709223 -0.20979 0.187956 -0.17019 -0.589331 -0.719907 -1.30062 -0.566499 0.896242 -0.884069 0.879654 1.05491 -1.45882 0.509502 0.0425546 0.941655 0.755512 0.246532 0.438088 -0.23606
1008 0.116993 0.00967382 -0.268492 -0.168868 0.323156 0.373683 -0.378645 -0.0493095 0.0298896 0.0296289 -0.0803967 -0.31625 0.256582 0.445176 0.153982 0.160228 0.228443 -0.262231 -0.0956139 0.143963 0.463356 0.0592325 -0.15416 0.378333 0.0187629 0.39467 0.025886 -0.120856 0.0617438 0.197812 -0.161501 -0.135225 -0.0396611 -0.523345 -0.217842 -0.575008 -1.26824 -0.24117 0.796011 -0.421306 0.755113 0.866509 -1.31568 0.568912 0.219139 0.741582 0.648397 0.749355 0.491997 0.184474
1667 -0.104999 0.14076 0.120984 0.243016 0.69592 0.222904 -0.103403 0.0247013 0.00637029 0.0530525 0.113872 -0.183684 0.0914623 0.237322 -0.0336155 0.0981203 0.110487 -0.44075 -0.0186472 0.00318301 0.397822 0.45854 -0.300816 -0.00991963 0.454874 0.0564669 0.144422 -0.120419 0.192138 0.0907338 0.0541012 -0.367377 0.254953 -0.506514 -0.275851 -0.435749 -1.15547 -0.584332 0.70512 -0.231334 0.8777 0.620366 -1.17235 0.679027 -0.197896 0.887331 0.765649 0.383796 0.641191 -0.294696
1134 0.0917509 0.0697385 0.205671 0.378227 0.618622 0.0594122 -0.320556 0.29147 0.143101 -0.203365 0.267603 -0.251462 -0.0589377 0.0832833 0.1798 0.208468 0.366937 -0.237652 0.337918 -0.0282743 0.00912814 0.420588 -0.246578 -0.224528 0.320678 -0.160785 0.160305 -0.276044 0.538645 0.164427 -0.188793 -0.0508135 0.660476 -0.243069 -0.278767 -0.434457 -1.50333 -0.497728 0.666456 -0.396732 1.10447 0.878963 -1.1898 0.87851 -0.0334362 0.77077 0.959466 0.136811 0.609397 -0.422384
1481 0.0323131 0.0349098 0.216653 0.542333 0.61803 -0.0186086 -0.537306 -0.0647639 0.238433 -0.0584314 0.14791 -0.211269 0.41544 0.0996768 -0.0888134 0.292755 0.000726584 -0.62078 0.0676445 -0.293462 0.0235024 0.386896 0.118324 -0.455838 0.314473 -0.274566 0.0746298 0.236421 -0.00340045 0.209553 -0.0198595 -0.0770083 0.579848 -0.379317 -0.145228 -0.509167 -1.50943 -0.665687 0.603541 -0.413614 0.83591 0.917891 -1.14241 0.794373 -0.128059 0.818339 0.892779 0.0310279 0.965326 0.239632
4554 -0.425771 0.121685 0.0526517 0.0157541 -0.0418055 0.0911199 -0.620667 0.126135 0.186735 -0.148065 0.535601 -0.0090179 0.0113998 0.300824 -0.262579 0.334177 -0.000266281 -0.00134944 0.264752 0.198711 0.284681 -0.0293676 -0.390658 -0.322508 0.130284 -0.0241109 0.133813 0.416165 0.0650497 0.70845 0.122406 -0.246077 -0.265671 -0.337088 -0.0397579 -0.382388 -1.55081 -0.49835 0.7414 -0.073599 0.871263 0.962866 -0.881707 0.660362 0.13763 0.450396 0.813246 0.284969 0.68753 0.0224701
3332 -0.39648 0.152847 0.0462888 0.0878193 -0.149281 0.148069 -0.368241 0.0381795 0.340177 -0.298096 0.668546 -0.132247 -0.123927 0.207001 -0.300935 0.290382 0.397645 -0.0168977 0.362996 0.412641 0.363722 -0.110617 -0.292418 -0.223702 0.199288 -0.02476 0.132881 0.192985 0.206147 0.768325 0.198044 -0.304764 -0.445732 -0.257594 0.0871856 -0.518037 -1.66682 -0.688369 0.715943 -0.279749 1.13642 1.06368 -1.09996 0.786501 0.38317 0.649419 1.04521 0.103529 0.845831 -0.305746
4033 -0.319714 0.0951987 0.134862 0.361022 -0.286699 0.253345 -0.0684755 -0.420669 0.354476 0.45891 0.112412 -0.536701 0.187516 0.0499788 -0.374883 0.163431 0.336806 -0.102274 0.275523 0.251675 -0.285568 0.182553 -0.223353 -0.290096 0.285584 0.482646 0.153184 -0.0763657 0.137107 0.39055 0.0229713 0.333886 -0.177067 -0.304186 -0.14888 -0.509062 -1.90425 -0.401456 0.420365 -0.542992 0.586678 1.22583 -1.36789 0.365189 0.0729246 0.834303 1.16713 0.177054 0.661795 -0.164869
2576 0.23272 0.111558 -0.316692 0.0159076 0.239422 0.537578 -0.291774 -0.214483 0.0094839 -0.144057 0.229562 -0.224587 0.130574 0.356228 0.178068 0.338443 0.0751409 -0.298628 0.771554 0.0327508 0.102737 0.118252 0.175624 0.062658 0.272969 0.169261 -0.25582 -0.306215 0.0984621 0.256306 -0.369862 0.235633 -0.202526 -0.680308 -0.0667105 -0.0733662 -1.45993 -0.374581 0.631949 -0.659796 0.70664 0.888215 -1.35656 0.562159 0.089404 0.820779 0.946748 0.227953 0.550772 -0.0800312
857 0.00878633 0.109536 -0.213007 -0.00939281 0.0623808 0.0314634 -0.568287 -0.289253 -0.313077 -0.179006 0.280685 -0.518076 0.0216116 0.544661 0.202198 0.131033 0.187015 -0.15268 0.0547806 0.0809126 0.250643 0.292071 -0.0527753 0.000125174 0.0943152 -0.118564 -0.396102 -0.0308282 0.0538985 -0.0609026 -0.120077 0.284327 -0.0944194 -0.437932 0.228352 -0.170076 -1.45916 -0.319745 0.527922 -0.562635 0.86944 1.02389 -1.14155 0.814099 -0.13725 0.921014 1.01401 0.337226 0.874521 -0.10993
937 0.0699445 0.145064 -0.228924 0.0320338 -0.24893 0.0406298 -0.544028 -0.281569 -0.249685 -0.211776 0.379342 -0.333798 -0.0137295 0.836909 0.277775 0.228065 0.35483 0.101303 0.306612 -0.188656 0.321625 0.12349 -0.0412755 -0.149552 0.16596 -0.180692 -0.0528997 0.0172769 0.262468 -0.161828 0.0481685 0.0428474 -0.190529 -0.334475 0.152293 -0.562222 -1.39079 -0.408933 0.687442 -0.321819 1.04812 1.16368 -1.09268 0.535346 -0.615261 1.06132 1.14529 0.215255 0.819495 -0.318428
4454 -0.125702 0.152098 -0.047254 -0.0843316 -0.118884 0.353185 -0.39021 0.383504 0.253463 0.129589 0.365278 0.180689 0.151045 0.249877 -0.236673 -0.123911 -0.172979 -0.422459 0.371863 -0.204646 0.327007 0.0394371 -0.417222 -0.498583 0.0725318 0.195006 0.0660992 0.00461025 0.130761 0.42661 0.254842 0.169769 -0.0702101 -0.666458 0.160129 -0.691296 -1.24118 -0.466466 0.616591 -0.350063 0.710388 0.715441 -0.892153 0.597015 -0.113403 0.572035 0.833538 0.575597 0.846562 -0.251764
4069 0.0783946 0.19828 -0.236531 0.18979 0.0986635 0.403829 -0.204854 0.0212694 0.167082 -0.118099 0.0944593 0.148002 0.416428 0.296406 0.0590724 0.4501 -0.225557 -0.444781 -0.0940526 -0.0393858 -0.237068 0.298941 -0.626562 -0.665602 -0.188313 -0.125783 0.279191 0.129222 0.418199 -0.075154 0.166574 -0.0255033 0.158969 -0.580993 0.25265 -0.463615 -1.31233 -0.0755427 0.326683 -0.340853 1.12116 0.743718 -1.56518 0.286876 -0.22659 0.759478 0.813795 -0.101323 0.990238 0.267856
341 -0.128107 0.376388 -0.495752 0.401497 -0.0976611 0.212061 -0.271348 0.19084 0.102271 0.228602 0.837503 -0.255617 0.243682 0.667287 -0.251174 0.143116 -0.184845 -0.24081 -0.309299 0.145041 -0.0119032 0.0135217 0.161605 -0.0961643 -0.0274391 -0.209968 0.0848339 -0.00724662 0.212878 0.363113 -0.327721 -0.107261 -0.108315 -0.804709 -0.0433658 -0.603957 -1.67132 -0.49438 1.01883 -0.204798 1.27863 0.86257 -1.09458 0.64418 -0.0177604 0.434251 0.818144 0.0466178 0.629025 -0.565447
338 -0.0857457 0.224056 -0.483051 0.32605 0.174651 0.142666 -0.281888 0.282375 -0.00661687 0.480748 0.643676 -0.456454 0.270924 0.636402 0.157476 0.0614356 0.00456696 -0.0520748 -0.162959 0.137898 -0.0471057 0.0427392 0.130132 -0.139321 -0.260478 -0.0809182 0.086613 -0.24524 0.596511 0.350276 -0.354765 0.00188336 0.0382136 -0.792818 0.0491717 -0.915908 -1.88829 0.0303512 0.929952 -0.592084 1.36323 0.968879 -1.21507 0.652385 0.356067 0.307097 1.12719 -0.422001 0.68919 -0.700926
46 -0.0502408 0.221655 -0.633303 0.144319 0.0273276 0.41099 -0.133542 0.24646 0.117289 0.283451 0.689705 -0.787487 -0.0637379 0.637811 0.167758 0.104649 0.155573 -0.286523 -0.188353 0.0296063 -0.0468258 -0.061067 -0.0105123 -0.0292135 0.00890904 0.193743 0.141621 -0.0372438 0.41283 0.341764 -0.305146 -0.327916 -0.0167724 -0.693269 -0.413859 -0.791734 -1.83144 0.15279 0.811892 -0.397478 1.29997 1.06669 -1.12856 0.948425 0.289989 0.467013 1.40829 -0.22193 0.786241 -0.71512
232 -0.13159 0.180082 -0.487158 0.104072 0.0391439 0.3895 -0.288487 0.0543158 0.146629 0.223458 0.658111 -0.56905 0.0094145 0.522191 0.0996057 0.15819 0.227555 -0.145507 0.00435104 -0.159189 0.0582936 -0.06619 -0.110958 -0.126208 0.00190791 0.146999 0.0617223 0.107463 0.372377 0.359522 -0.0728281 -0.216915 -0.12895 -0.666332 -0.135977 -0.487159 -1.36334 -0.213814 0.583827 -0.165659 1.10501 0.894086 -0.953386 0.683984 -0.174159 0.398084 1.1205 -0.0880112 0.532389 -0.341594
42 -0.192462 0.274646 -0.371657 0.332479 -0.119776 0.316853 -0.195645 0.253861 0.199489 0.303685 0.75645 -0.679379 0.235164 0.717717 0.169266 0.234239 -0.129185 -0.183646 -0.0818748 -0.0579847 -0.164587 0.320251 0.124314 -0.184224 -0.327898 -0.171861 0.0431758 -0.1686 0.456915 0.235367 -0.250654 -0.281785 0.255008 -0.644352 -0.224798 -0.787787 -1.88081 -0.305464 1.12143 -0.628313 1.57861 1.10183 -1.3311 0.890481 0.292664 0.449882 1.26976 -0.589708 0.764684 -0.816145
1 0.0693815 0.0461595 -0.367902 0.199254 0.0427335 0.279825 -0.255645 0.0549642 0.289716 0.101109 0.640736 -0.45622 0.0222364 0.540233 -0.0274933 0.164021 0.0961225 0.049056 0.0585608 0.0752818 -0.0960859 -0.102604 -0.00809274 -0.440704 0.160667 0.205182 -0.0735825 0.0533517 0.18708 0.23366 0.00298519 -0.168968 0.0841026 -0.928343 -0.152015 -0.557032 -1.54153 -0.351873 0.773503 -0.229079 1.17652 0.811725 -1.39317 0.515922 0.0705206 0.437686 0.764238 -0.0371883 0.462671 -0.462077
231 -0.194141 0.134362 -0.194464 0.248119 0.227315 0.604768 0.276088 -0.168966 0.222758 0.0465316 0.649815 -0.256065 -0.131647 0.673671 -0.228203 0.21704 0.172285 -0.0389063 -0.0333325 0.118155 -0.0346854 -0.179951 0.093986 -0.589015 -0.0198832 0.723109 -0.0429792 0.528726 0.179068 -0.0770066 -0.0525374 0.262338 -0.280442 -0.983672 0.0438622 -0.629952 -1.29769 -0.445017 0.768333 -0.395797 0.860476 1.0539 -1.50617 0.730174 0.0126748 0.635454 0.550071 -0.129625 0.613186 -0.285467
4548 -0.25088 0.231389 0.079712 -0.124901 0.134569 0.0417295 -0.403208 0.150598 0.0549562 -0.15013 0.446956 -0.0541028 0.0645651 0.417161 -0.0966765 0.175678 0.240553 -0.106299 0.239747 0.30311 0.242846 -0.0878762 -0.41788 -0.370412 0.11864 -0.259538 0.182979 0.0574595 0.151247 0.686681 0.12278 -0.249062 -0.289641 -0.184563 -0.110416 -0.564802 -1.38903 -0.510779 0.639085 -0.279834 1.15192 0.98232 -1.00637 0.748618 0.269744 0.501526 1.03964 0.202138 0.74154 -0.229043
2500 0.131121 0.0902774 0.114965 -0.298368 0.200255 0.333742 -0.210487 -0.179608 -0.0604324 -0.0387487 0.392811 -0.319151 0.315 0.17201 -0.0605538 0.401518 0.0190294 -0.0676042 0.313831 0.0878465 0.0273568 0.105328 -0.0669558 -0.394857 -0.224138 -0.197121 0.0312797 -0.402246 0.045963 0.764427 0.436537 -0.0610646 -0.01482 -0.735015 -0.157269 -0.345509 -1.12663 -0.441836 0.529971 -0.395314 0.770365 1.01617 -1.18733 0.605599 -0.0173054 0.982674 0.573841 0.181615 0.42903 -0.145245
1184 -0.0410577 -0.317736 -0.0441173 0.106744 0.127828 0.221931 -0.377752 0.0999695 0.513576 0.206523 0.558358 -0.0892263 -0.468543 0.325752 0.0321482 0.610934 0.224925 -0.507852 0.0679489 0.125744 0.310304 -0.150752 -0.176714 0.158777 -0.0670297 0.139831 -0.63065 -0.0641985 0.0496604 0.30283 0.0820811 -0.139644 -0.0481822 -0.597993 0.139152 -0.127367 -1.24078 -0.808896 0.511714 -0.829969 1.02958 0.961586 -1.27246 0.762712 -0.0153045 0.678694 1.07588 0.244653 0.519332 -0.418207
1173 -0.066084 -0.780931 0.453434 0.183162 -0.0559374 0.332765 -0.0622757 -0.221371 0.266909 0.441427 0.200037 -0.213754 -0.165378 0.689158 -0.178549 0.525716 0.281428 -0.561946 -0.189115 0.364071 -0.182072 0.0704961 -0.386328 -0.111587 -0.278476 0.191668 -0.279483 -0.0744186 0.256548 -0.106729 0.0144469 -0.082187 -0.15826 -0.832408 -0.0365137 -0.484027 -1.53533 -0.132885 0.394689 -0.819769 1.11022 0.858467 -1.32341 0.782471 -0.0755522 0.565055 1.16752 0.0516675 0.601293 -0.291682
1361 0.128819 -0.383292 0.0826863 0.0652399 0.358718 0.434809 -0.371043 0.128117 0.436884 -0.291462 0.368261 0.353286 0.0428112 0.610314 -0.168578 0.621783 0.0330411 -0.359466 -0.18526 0.22877 0.325236 -0.191618 -0.0436302 -0.439486 0.104237 -0.498559 0.164536 -0.00224678 0.0657878 0.354585 -0.0681615 0.0802309 -0.192295 -0.715881 -0.095471 -0.300324 -1.3823 -0.238739 0.345935 -0.486203 0.919178 1.13818 -1.48724 0.630162 0.0594789 0.49719 1.05905 0.119011 0.559335 -0.380072
353 0.087482 0.130134 -0.418269 0.16145 0.0700351 -0.140756 -0.291075 0.121925 0.201424 0.328158 0.817474 -0.377998 0.248005 0.46029 0.113381 0.0872005 0.0710634 -0.361902 -0.0646425 -0.0910558 -0.0740069 -0.191957 0.000919869 -0.484578 -0.0932681 -0.168655 0.138839 0.17528 0.0326224 0.14306 -0.0953146 -0.0514333 -0.384283 -0.568449 -0.0679876 -0.5377 -1.4311 -0.521526 0.672892 -0.430342 1.02888 1.03427 -1.22729 0.658492 -0.296194 0.373057 0.57746 0.158914 0.380801 0.263106
4261 -0.0927998 0.0567113 0.27622 -0.0743608 0.140198 0.0646145 0.00425794 0.0630515 -0.160842 0.0455678 0.288483 -0.313802 0.196181 0.483708 -0.095649 0.331069 0.196572 -0.473171 0.139284 0.132627 0.318248 0.260022 -0.047713 -0.583448 -0.13681 0.302035 0.26887 0.365663 0.0636382 0.538985 0.0179118 0.233819 0.208095 -0.304023 0.202174 -0.175657 -1.25531 -0.18901 1.12462 -0.419113 0.912901 0.802747 -1.02955 0.637637 -0.231498 0.149114 0.820141 0.338154 0.45849 -0.115686
3350 -0.0458883 0.0265266 0.466581 -0.166441 -0.0779237 0.267414 -0.0162771 0.0240481 -0.0148006 0.106495 0.231909 -0.565765 0.494773 0.406472 -0.0151205 0.349663 0.175613 -0.584233 0.182575 0.183347 0.397971 0.103906 0.0262677 -0.603124 0.0610391 0.431071 0.549229 0.270318 0.0778101 0.514206 -0.166042 0.342572 0.186807 -0.376613 0.150441 -0.423837 -1.54992 -0.354964 1.19272 -0.620034 1.19944 0.917596 -1.31885 0.792436 -0.19218 0.341986 1.0234 0.296468 0.428677 0.0507688
4216 -0.479138 0.242555 0.254345 0.359868 -0.0347058 0.0552059 -0.308386 0.213534 0.0882767 0.0194642 0.351042 -0.215648 0.0719726 0.193479 -0.237266 -0.0616931 -0.0343629 0.10152 0.0933533 0.053906 0.144983 0.168733 -0.161299 -0.0777175 0.133981 0.133767 0.168804 0.191038 0.189919 0.348336 -0.0435564 -0.215691 -0.435656 -0.488038 0.0593746 -0.201446 -1.42212 -0.283819 0.356173 -0.135954 0.726275 1.06037 -1.12667 0.592451 -0.147138 0.507133 0.965672 0.0472052 0.417924 -0.216122
750 0.142761 -0.301717 0.204238 -0.1508 0.584585 0.24834 -0.502602 -0.130197 0.191761 -0.260407 0.197441 -0.0262912 0.589343 0.945869 -0.608381 0.112948 -0.267914 0.145338 -0.107515 -0.101926 -0.0110855 -0.115075 -0.433225 -0.401535 -0.00345189 0.198052 0.0114023 -0.193859 0.148137 -0.0108363 0.00646334 -0.00941493 0.274404 -0.756231 0.305132 -0.82892 -1.58226 -0.259893 0.731883 -0.437152 0.845051 1.18958 -1.13964 0.777126 -0.197655 0.412425 0.728728 0.158736 0.536199 -0.329136
804 0.157172 -0.233795 0.309779 -0.343328 0.590984 0.391134 -0.527746 -0.127503 0.306994 -0.306215 0.354118 -0.0315079 0.158344 0.846254 -0.42033 0.0573692 -0.382407 0.0441081 0.208925 0.176036 0.101392 -0.150605 -0.316918 -0.25275 0.0829237 0.310526 -0.415371 -0.0651145 0.0938675 0.034701 -0.110717 0.302459 0.500318 -0.551172 0.228233 -0.850819 -1.5835 -0.202409 0.619521 -0.798082 0.986336 1.10195 -1.11613 0.696503 -0.211433 0.399993 0.947094 0.168345 0.432432 0.0839793
12 0.445548 -0.0717454 0.283126 0.269934 0.454377 0.202829 -0.208243 0.127237 0.625121 -0.458248 0.577695 -0.0989049 0.0642241 0.441372 -0.392929 0.238592 0.00390047 0.00681048 -0.229711 -0.166451 0.346471 -0.0621259 0.0637493 -0.204278 0.292405 0.270607 -0.383419 -0.235246 0.136984 0.0764403 -0.0191063 -0.160413 0.163837 -0.387119 0.0304669 -0.756574 -1.48337 0.000348647 0.777595 -0.576285 1.03964 0.957447 -1.3717 0.600694 -0.0860772 0.427687 0.64514 -0.0628894 0.583356 -0.12639
695 0.316769 -0.180739 -0.093245 -0.0454792 0.266756 0.193372 -0.690274 0.201979 0.444547 -0.0838553 0.267114 0.143122 0.360137 0.640312 -0.750653 0.427463 0.0597185 -0.148901 -0.0930916 -0.235705 0.028384 -0.202696 -0.333603 -0.255475 0.103496 0.243001 -0.0432296 0.327697 0.157937 0.134134 -0.0428538 0.188144 -0.0714364 -0.729047 0.244475 -0.309691 -1.51836 -0.577162 0.977287 -0.546816 0.64083 0.964717 -1.5323 0.625434 -0.270115 0.359589 0.406249 0.0744916 0.874924 -0.691546
542 -0.180272 0.00976157 -0.0748059 0.150888 0.197083 0.728896 -0.090967 -0.132167 0.138452 -0.0158072 0.57796 -0.211993 0.160285 0.680915 -0.347095 0.476036 0.373546 0.0208471 -0.299754 -0.0114461 0.028417 -0.293073 -0.143942 -0.538894 0.000552506 0.71953 -0.0158221 0.519079 0.34634 -0.10458 -0.128687 0.314006 -0.224637 -1.2256 0.0820486 -0.492747 -1.44366 -0.529537 0.874271 -0.39097 0.8246 1.07375 -1.66168 0.951333 0.0739201 0.673798 0.674141 -0.465 0.833752 -0.620551
500 -0.35489 0.0953935 -0.256719 0.0355781 0.241918 0.656102 -0.021895 -0.112085 0.169331 0.0203199 0.446908 -0.330164 0.128673 0.605701 -0.340938 0.113691 0.253688 -0.159718 -0.136812 0.00667172 0.156181 -0.153226 -0.0102132 -0.511016 -0.0641602 0.367535 -0.202884 0.569306 0.217994 -0.128831 0.128454 0.121421 -0.0251005 -0.96103 0.15969 -0.661971 -1.26273 -0.412618 0.66869 -0.488272 0.879258 1.00937 -1.59865 0.774564 -0.120269 0.664689 0.495862 -0.283067 0.624997 -0.51195
666 0.089803 -0.0309748 -0.0982811 0.270403 0.214137 0.27355 -0.217141 -0.0732591 0.30953 0.434023 0.638292 -0.326118 -0.006811 0.635028 0.0261707 0.16679 -0.0103941 0.0697739 -0.229253 -0.165461 -0.249033 -0.467858 0.209831 -0.459525 0.0903557 0.0766985 0.00436554 -0.145086 -0.07667 0.326161 0.151187 0.0116795 -0.122844 -0.46541 -0.344608 -0.175444 -1.31242 -0.208807 0.575239 -0.173065 1.13306 0.992966 -1.46071 0.379202 -0.127145 0.423135 0.775575 0.135267 0.679335 0.464338
1171 0.0339819 -0.407961 -0.0179521 -0.0501045 0.117922 0.616708 -0.397309 0.100576 0.749184 0.0655011 0.264922 -0.164847 -0.319764 0.319277 -0.0912425 0.566503 0.251581 -0.406354 -0.123654 0.101726 0.412831 -0.057934 -0.13235 0.0737307 -0.124541 0.199255 -0.348124 0.25095 0.179978 0.172307 -0.0416368 -0.0678141 0.156427 -0.732386 0.184841 -0.337489 -1.36191 -0.547304 0.540996 -0.967775 1.10102 1.01332 -1.27103 1.02735 0.146008 0.636625 1.23606 0.121686 0.349617 -0.437935
1262 -0.152651 -0.0906526 0.163817 0.541737 0.256408 0.352226 -0.855016 0.177267 0.266095 0.204163 0.141791 -0.0780171 0.252364 0.192427 0.0287299 0.279641 0.305223 -0.165609 -0.187727 0.0691259 0.0255035 0.0426127 0.329889 -0.0651885 0.0146682 0.178701 -0.188987 0.153996 -0.0771439 0.324713 -0.227996 0.232557 -0.140841 -0.281082 -0.281185 -0.17029 -1.53327 -0.21212 0.780027 -0.58661 1.08202 1.11383 -1.30448 0.731782 0.0773418 0.832862 1.0524 -0.377399 0.367076 -0.22725
417 -0.460236 -0.327767 -0.012485 0.133877 0.0445082 0.464094 -0.264526 0.118744 0.224238 -0.191613 0.503266 -0.468104 -0.0747866 0.5798 0.162362 0.482557 0.239323 -0.220943 -0.315358 0.0434154 0.322587 -0.286215 -0.25747 -0.386735 0.246104 0.262183 -0.0998731 0.478689 0.186737 -0.0361734 0.0768054 0.296433 0.113574 -1.09743 -0.148818 -0.731542 -1.60323 -0.54752 0.705615 -0.141723 0.828128 1.05417 -1.52736 0.745366 -0.0416342 0.626083 0.711426 -0.276899 0.71009 -0.661646
496 -0.301674 0.129072 -0.398571 0.128976 0.230136 0.570303 -0.14405 -0.239738 0.111181 0.153709 0.53981 -0.433339 0.0221945 0.567443 -0.225741 0.262796 0.415265 0.0429867 -0.155179 -0.0225346 0.075931 -0.0639986 -0.00195489 -0.394606 -0.12632 0.571159 -0.0889675 0.518932 0.0527589 0.127664 0.0197462 0.1848 -0.102022 -1.00439 0.175826 -0.511287 -1.3168 -0.330385 0.651826 -0.390378 0.867918 0.963999 -1.43433 0.643702 -0.0732903 0.614651 0.696546 -0.3644 0.58122 -0.338943
320 -0.0981781 0.0847946 0.00458868 0.134135 0.0373694 0.327352 -0.0641793 -0.469893 0.260429 -0.022827 0.949839 -0.266737 0.514152 0.546088 -0.119364 0.21942 -0.254829 -0.1419 -0.0612218 0.295777 -0.294189 0.194015 0.0865654 -0.549541 0.135018 0.269789 -0.0939781 0.292761 0.0199488 -0.0802839 0.17485 -0.192305 -0.137321 -0.686504 0.0691436 -0.322011 -1.53299 -0.593747 0.799595 -0.176009 1.0628 0.986676 -1.26436 0.523352 0.0815809 0.619326 0.692678 0.133275 0.499619 -0.223105
60 0.0487782 0.128959 -0.0845116 0.0428188 0.0117881 0.22028 -0.0277914 -0.350636 0.31358 -0.00124344 1.05059 -0.273925 0.323815 0.645329 -0.0804962 0.184376 -0.428014 -0.215885 0.06888 0.0940796 -0.246302 0.360496 -0.0237242 -0.623502 0.37239 0.344259 -0.20488 0.200089 -0.230277 -0.00844429 0.174919 -0.0440329 0.0728722 -0.869795 -0.0384785 -0.378353 -1.73094 -0.380812 0.748762 -0.295028 1.27734 1.04049 -1.51521 0.678461 0.25962 0.545874 0.953658 0.137415 0.578144 -0.507977
89 0.143234 0.033948 -0.0226221 0.0721365 0.130246 0.322691 -0.0939062 -0.297182 0.0764375 -0.0255776 0.765733 -0.0958201 0.350001 0.83349 -0.0860044 0.214488 -0.270063 -0.103691 -0.0614946 0.23689 -0.269173 -0.385338 -0.294023 -0.536238 0.02708 0.410136 -0.228498 -0.0156985 0.00615187 -0.0880608 -0.0226058 -0.0263614 0.127252 -0.885379 -0.372732 -0.241453 -1.6456 -0.423558 0.710052 -0.054548 1.01234 1.13329 -1.42953 0.802098 0.168866 0.599415 0.858537 0.117143 0.497454 -0.517768
393 -0.265799 0.0742042 0.0827096 0.034442 0.0620947 0.191871 -0.172683 -0.497676 0.369035 -0.216694 1.03068 -0.0485401 0.138768 0.563404 0.107055 0.275992 -0.312452 -0.103669 -0.0536044 0.0841446 -0.062615 0.131447 0.0375086 -0.578851 0.148273 0.416051 -0.109648 0.139036 -0.0126834 -0.180267 -0.00417889 -0.112977 -0.166531 -0.956384 -0.406891 -0.634314 -1.51504 -0.505908 0.802837 -0.219604 1.16096 0.95536 -1.23936 0.87185 -0.0400406 0.692245 0.646019 0.0790639 0.543042 -0.483452
75 -0.134063 0.148101 -0.124484 0.361545 0.0860307 0.420326 0.122598 -0.495266 0.541524 -0.12878 0.911212 -0.222898 0.00384122 0.596353 0.00849687 0.224023 -0.182365 -0.151518 0.0827707 -0.0415554 -0.00618704 0.109408 0.197461 -0.77206 0.0814362 0.697107 -0.239838 0.237522 0.0355638 -0.115084 -0.0974357 0.205259 -0.21305 -1.02424 -0.287155 -0.516029 -1.6718 -0.498911 0.67228 -0.273724 1.16043 1.02089 -1.51935 0.870332 0.352476 0.646798 0.913031 0.135778 0.649987 -0.405517
514 -0.194061 0.356233 -0.209087 0.369135 0.204334 0.191482 -0.0167904 -0.446631 0.217568 -0.323889 0.782861 -0.225393 -0.0461198 0.553533 -0.0204373 0.225602 -0.10598 -0.0821535 -0.0151773 0.00808294 0.112262 0.183118 0.0600292 -0.513824 -0.136958 0.301164 -0.0502224 0.115645 0.044634 -0.0258819 0.0477046 0.146429 -0.380472 -0.928346 -0.163962 -0.57739 -1.44541 -0.517283 0.793533 -0.317855 0.871117 1.03185 -1.19571 0.655219 0.12072 0.354046 0.631077 0.0544652 0.661992 -0.147132
386 -0.104379 0.216612 -0.0513044 0.0947616 0.06538 0.255744 -0.00137885 -0.341625 0.465223 -0.0156756 0.775297 -0.282326 0.253341 0.655262 -0.0294155 0.341335 -0.114658 -0.049566 0.0293026 0.134678 -0.0461408 0.0723656 -0.0153681 -0.487662 0.0721326 0.30287 -0.0430503 0.133178 -0.141361 -0.0404723 0.162257 -0.061347 -0.100086 -0.62165 -0.00503917 -0.51562 -1.44548 -0.335166 0.515217 -0.0586853 1.14352 0.875614 -1.14663 0.620681 0.236492 0.470211 0.798199 0.121848 0.525272 -0.286483
