35 24
5 0.11378 -0.143808 0.0413284 -0.158731 0.215825 0.0957032 -0.0460849 -0.0788432 0.21555 -0.0501644 -0.0990488 0.0743312 0.033419 0.0441974 -0.014837 0.00153446 -0.141372 0.110314 0.107539 -0.130063 -0.203262 0.0705979 0.172945 0.219774
7 0.110856 -0.208289 0.0215447 -0.170925 0.260182 0.115856 -0.0561982 -0.0905386 0.286284 -0.0624429 -0.127472 0.0807777 0.0244728 0.026617 0.000201165 -0.00545683 -0.142466 0.10161 0.110025 -0.141449 -0.235631 0.0735348 0.198844 0.235724
17 0.151878 -0.267347 0.0226387 -0.250887 0.345962 0.162851 -0.104245 -0.0805618 0.353409 -0.11448 -0.188838 0.0748117 0.0302827 0.060317 -0.0312342 0.0362836 -0.166777 0.160553 0.165609 -0.175424 -0.296364 0.060138 0.239266 0.335125
20 0.0617864 -0.0767667 0.0308344 -0.0957023 0.137331 0.0497948 -0.0534571 -0.0408727 0.116088 -0.0287118 -0.0589702 0.0224676 0.00329025 0.022863 0.000127322 -0.0115847 -0.057609 0.0663123 0.0804979 -0.0540486 -0.129178 0.0242968 0.109767 0.0983366
34 0.230696 -0.431737 0.00743913 -0.432392 0.611182 0.279786 -0.186532 -0.151622 0.613458 -0.19792 -0.323432 0.176975 0.0950804 0.0972834 0.00957552 0.0580393 -0.264154 0.285079 0.260103 -0.24122 -0.439619 0.0858164 0.386988 0.580821
0 0.250461 -0.335932 0.144207 -0.279877 0.42463 0.217906 -0.130416 -0.136831 0.470516 -0.187405 -0.262641 0.103079 0.000118087 0.0249074 -0.0504515 -0.000930122 -0.249094 0.218233 0.275881 -0.235822 -0.397355 0.111305 0.37744 0.414287
15 0.0641877 -0.0986748 0.0109731 -0.072767 0.120123 0.0641643 -0.0349309 -0.0520062 0.103396 -0.0302682 -0.0443678 0.0249891 0.0138954 0.00303155 -0.0205392 0.00553085 -0.0765278 0.0725704 0.0587805 -0.0615923 -0.105356 0.052555 0.0791017 0.098408
24 0.0779027 -0.144473 0.0265449 -0.0971364 0.195532 0.104839 -0.047831 -0.0733033 0.210942 -0.0580519 -0.0990338 0.0366706 0.0320343 0.0193966 0.00662304 -0.00767192 -0.119867 0.090948 0.0823004 -0.0939247 -0.204481 0.0376147 0.140485 0.160055
26 0.12206 -0.211326 0.0521408 -0.15301 0.248444 0.142547 -0.0684557 -0.0885961 0.285046 -0.0758946 -0.122231 0.0468854 0.0268807 0.0562016 -0.0169213 -0.0124309 -0.16318 0.145725 0.120716 -0.112118 -0.262237 0.0767923 0.19795 0.229869
32 0.194425 -0.286864 0.0667396 -0.212313 0.366369 0.208866 -0.0856666 -0.127038 0.409514 -0.118065 -0.201202 0.102644 0.0612143 0.0475911 -0.0431325 -0.0074314 -0.263633 0.199932 0.201552 -0.217814 -0.40093 0.126863 0.32946 0.354776
18 0.0582681 -0.0978553 0.01482 -0.124312 0.145071 0.0922108 -0.0524812 -0.0404557 0.17281 -0.0660934 -0.0885159 0.039898 0.00588407 0.0269576 -0.0204032 0.011583 -0.072986 0.0871637 0.0646528 -0.0636059 -0.126231 0.00964333 0.125102 0.173944
6 0.119329 -0.1794 0.035025 -0.178105 0.256825 0.112462 -0.0629906 -0.056085 0.248734 -0.0998525 -0.151639 0.0536678 0.0456731 0.0618813 -0.0111495 0.0157562 -0.135845 0.106739 0.113721 -0.140064 -0.216705 0.0678911 0.210385 0.233846
11 0.117709 -0.256848 0.0193378 -0.225548 0.334031 0.162389 -0.112369 -0.0868078 0.341978 -0.104442 -0.190458 0.0780051 0.0264036 0.0580756 -0.0301638 0.0243056 -0.146188 0.141068 0.14551 -0.168009 -0.247047 0.0614119 0.246835 0.327674
4 0.109187 -0.235601 0.0213436 -0.172177 0.303576 0.149899 -0.071014 -0.0754485 0.29381 -0.086648 -0.155927 0.0706088 0.0154286 0.0664979 -0.00653862 0.0227718 -0.150507 0.137788 0.1488 -0.148223 -0.25191 0.05688 0.206543 0.280343
14 0.0972323 -0.135061 0.0405589 -0.111962 0.17869 0.0941539 -0.0475402 -0.0388568 0.183302 -0.0706623 -0.0860588 0.06226 0.0299342 0.0429788 -0.0291316 0.0182226 -0.127621 0.0886501 0.113835 -0.0828776 -0.177607 0.0580941 0.151708 0.178523
19 0.0762669 -0.121446 0.0437095 -0.105224 0.1466 0.0753765 -0.0442956 -0.0634795 0.168528 -0.0592327 -0.0752019 0.0288262 0.0164713 0.0266136 -0.0148247 0.0214185 -0.0967649 0.0753075 0.0760512 -0.0616938 -0.156182 0.0382786 0.107773 0.125199
9 0.0839749 -0.132124 0.0335098 -0.128615 0.207796 0.113235 -0.062061 -0.054598 0.214138 -0.0753303 -0.120804 0.0500241 0.0101253 0.0474245 -0.0211998 0.0052855 -0.128923 0.0838929 0.100188 -0.10238 -0.186513 0.0687674 0.176696 0.197395
30 0.0799468 -0.140445 0.0210616 -0.0870033 0.160609 0.111724 -0.0281624 -0.0605277 0.194984 -0.0466142 -0.0950097 0.0372627 0.0348529 0.0252396 0.00222486 0.0219182 -0.140632 0.083502 0.113498 -0.0963414 -0.200923 0.0655958 0.171555 0.176802
29 0.082193 -0.162302 0.0430112 -0.135804 0.189072 0.107404 -0.0472601 -0.06627 0.230098 -0.0641319 -0.0853713 0.064208 0.0277402 0.0470929 -0.017477 0.00462132 -0.0991667 0.116135 0.119228 -0.0995636 -0.195188 0.0416965 0.17316 0.200363
8 0.122745 -0.219179 0.0395112 -0.202056 0.30382 0.15948 -0.0868584 -0.093391 0.291781 -0.0896744 -0.163599 0.0649478 0.043153 0.0564814 -0.0340539 0.0340275 -0.167566 0.14269 0.134817 -0.142391 -0.239433 0.0607458 0.212308 0.300957
1 0.120453 -0.184686 0.0611433 -0.178884 0.276603 0.130701 -0.0788734 -0.0606143 0.280005 -0.0952847 -0.129373 0.0827003 0.0285605 0.0465294 -0.033214 0.0209434 -0.165401 0.145931 0.122755 -0.138758 -0.242333 0.0609159 0.219931 0.273226
28 0.124605 -0.167034 0.0535043 -0.109388 0.197824 0.093468 -0.0350714 -0.0715919 0.248776 -0.0843557 -0.11031 0.0383313 0.0296119 0.023179 -0.0123224 0.0144414 -0.159069 0.114949 0.120683 -0.106064 -0.233801 0.0753705 0.200466 0.193371
33 0.178037 -0.297963 0.143704 -0.169134 0.324522 0.158692 -0.0573344 -0.0978698 0.38671 -0.10465 -0.183881 0.0729625 0.022602 0.0713896 -0.0392318 -0.016708 -0.283165 0.2207 0.215602 -0.183343 -0.433825 0.143718 0.351529 0.326526
13 0.107278 -0.157255 0.0111063 -0.146668 0.19983 0.103358 -0.0456256 -0.0621154 0.225684 -0.0700558 -0.136117 0.0394988 0.0425585 0.0195658 -0.0285312 0.0164727 -0.0810127 0.0761451 0.0970601 -0.0968187 -0.157828 0.0367918 0.158643 0.210256
27 0.0601656 -0.0822336 0.0327868 -0.0885861 0.1273 0.0800333 -0.0444816 -0.0294539 0.161725 -0.0642179 -0.0865778 0.0159007 0.0304078 0.0207401 -0.0214036 -0.0141114 -0.0720371 0.0706657 0.0541923 -0.0561282 -0.145353 0.0168181 0.0924195 0.112262
12 0.0838715 -0.129798 -0.00490497 -0.145136 0.191481 0.0942807 -0.0380724 -0.0663907 0.192942 -0.042274 -0.104331 0.035976 0.00287426 0.0448183 -0.00904405 0.0255538 -0.0700606 0.0669921 0.0617053 -0.0901519 -0.127878 0.0081509 0.107869 0.16389
31 0.10163 -0.129418 0.0367908 -0.105312 0.182108 0.107631 -0.0486666 -0.0766243 0.215731 -0.0669471 -0.126062 0.0356082 0.0082952 0.0463897 -0.00590669 -0.00548702 -0.110527 0.112727 0.12295 -0.122349 -0.200807 0.0766037 0.179585 0.191538
16 0.0599132 -0.0856883 0.0339284 -0.061034 0.127216 0.0494043 -0.0312895 -0.0527849 0.127482 -0.0596694 -0.0584888 0.0383092 0.0130194 0.00244591 -0.020096 -0.00774708 -0.0751541 0.0426962 0.0447198 -0.0754038 -0.122948 0.0437383 0.071822 0.0950435
23 0.0380833 -0.101402 0.0103421 -0.0647097 0.102025 0.056921 -0.0204273 -0.0323314 0.106728 -0.0324922 -0.0719918 0.0451571 0.00716439 0.00571832 0.0111367 0.00459018 -0.0449696 0.0554883 0.0484577 -0.0507917 -0.0975711 0.0252413 0.0950483 0.111874
2 0.0910276 -0.194401 0.0269078 -0.135617 0.230671 0.116376 -0.0797966 -0.0575633 0.268528 -0.071852 -0.144111 0.0646343 0.0343767 0.0305277 -0.0159151 0.030969 -0.127949 0.102345 0.14121 -0.137704 -0.200284 0.0750337 0.189305 0.242932
21 0.0617216 -0.116423 0.0227996 -0.0804143 0.134821 0.0545611 -0.0364951 -0.0250155 0.150859 -0.0342013 -0.08617 0.0371642 0.0196213 0.0431015 -0.00928562 0.011177 -0.102893 0.0692937 0.063155 -0.0632962 -0.160042 0.0264059 0.120034 0.125126
25 0.0743762 -0.134486 0.0371083 -0.123775 0.154681 0.0953261 -0.0494705 -0.033265 0.179787 -0.0617405 -0.0877495 0.0391164 0.0408744 0.03875 0.000975754 -0.00662455 -0.13088 0.0834519 0.088683 -0.108528 -0.194138 0.0517279 0.171416 0.192713
10 0.10029 -0.129996 0.0363863 -0.115546 0.163627 0.101478 -0.0553955 -0.068814 0.194914 -0.056885 -0.0809345 0.0634355 0.0354613 0.0257466 -0.0301807 -0.0084123 -0.104116 0.0705637 0.090727 -0.0979222 -0.177166 0.0493896 0.140002 0.167678
3 0.158398 -0.217699 0.0357471 -0.18306 0.279367 0.151242 -0.0603922 -0.0730166 0.326377 -0.0949081 -0.149308 0.0855718 0.0367425 0.0651421 -0.0215287 0.0272863 -0.195965 0.141605 0.138198 -0.155718 -0.31142 0.0772945 0.243521 0.289335
22 0.0811212 -0.149789 -0.00176591 -0.153861 0.250976 0.130189 -0.0721482 -0.0718815 0.243387 -0.0672026 -0.111875 0.0619044 0.025374 0.0483566 -0.00328735 0.0377859 -0.110557 0.106479 0.0857962 -0.0948216 -0.17925 0.0242237 0.159562 0.237262
