5271 10
4596 0.371625 -0.0107972 -0.0883984 -0.214169 -1.54407 -0.391715 0.32971 -0.260925 0.890077 -3.26201
1920 0.437311 0.0376231 -0.170191 -0.240199 -2.12487 -0.693906 0.570833 -0.434118 1.47356 -4.69841
1127 0.506463 0.00472502 -0.131479 -0.306413 -2.11891 -0.529441 0.394676 -0.34452 1.20499 -4.58195
1380 0.436679 -0.0766072 -0.151484 -0.278064 -2.0947 -0.57565 0.480111 -0.391769 1.3864 -4.44166
1345 0.222864 -0.185699 -0.0882929 -0.204447 -1.83455 -0.345262 0.756215 -0.38753 1.48649 -4.32254
1482 -0.0351267 -0.189543 0.0475733 -0.134619 -1.70534 -0.253892 0.868509 -0.290044 1.17278 -4.34043
1489 -0.109276 -0.0971889 0.126367 -0.13629 -1.76005 -0.321478 1.08017 -0.342445 1.1815 -4.73496
3515 -0.147637 -0.0697145 0.0290458 -0.0345813 -1.49952 -0.280723 1.13934 -0.39021 0.870744 -4.36426
1077 0.198667 -0.019578 -0.190142 -0.185385 -1.75141 -0.358503 0.543545 -0.329186 0.598728 -3.91131
2033 0.16008 0.0313349 -0.502138 -0.465848 -2.08796 -0.349305 0.271584 -0.567634 0.506715 -4.09592
192 0.0742308 -0.106747 -0.214517 -0.139891 -1.61149 -0.110896 0.633528 -0.30049 0.545732 -3.9371
1669 0.542725 -0.0486912 -0.30699 -0.219694 -2.0516 -0.40616 0.402137 -0.33211 1.16227 -4.59956
1377 -0.00748356 0.169095 -0.477315 -0.161616 -1.90961 -0.25838 0.337534 -0.161613 1.24987 -4.78106
3563 0.0878533 0.182308 -0.46933 -0.197747 -2.08513 -0.268253 0.346628 -0.241893 1.22024 -5.21351
1630 -0.0211422 0.204092 -0.462677 -0.183661 -2.0427 -0.272586 0.376817 -0.210537 1.23124 -5.2023
1625 -0.0417176 0.240598 -0.494406 -0.179695 -2.02229 -0.291628 0.425087 -0.251255 1.26028 -5.20714
3955 -0.0372615 0.184188 -0.40737 -0.174037 -1.95732 -0.318814 0.37385 -0.182125 1.23165 -5.06626
1290 -0.0660721 -0.0125302 -0.474934 -0.0851304 -1.74359 -0.0957481 0.502904 -0.191528 1.31403 -4.55046
1543 -0.0855782 0.127359 -0.519356 -0.180011 -1.94642 -0.150719 0.399617 -0.227171 1.20337 -5.02251
1541 0.0107 0.196842 -0.474865 -0.182476 -2.02514 -0.279925 0.341586 -0.18765 1.21856 -5.19668
1301 -0.0115656 0.144668 -0.389126 -0.168576 -2.02444 -0.301344 0.393753 -0.220174 1.25342 -5.0967
1594 -0.0420384 0.197743 -0.429177 -0.181837 -2.00072 -0.255318 0.389814 -0.199619 1.12013 -4.97742
851 0.0933158 0.102129 -0.45078 -0.182089 -1.97865 -0.200206 0.328732 -0.181486 1.19629 -4.87641
1375 0.0120815 0.153452 -0.488135 -0.185808 -2.07772 -0.306689 0.312977 -0.165445 1.24339 -5.25563
627 -0.0486443 0.226714 -0.313355 -0.19553 -1.7265 -0.308257 0.407146 -0.233762 0.968748 -4.23906
4244 -0.0104554 0.218966 -0.475239 -0.183101 -1.991 -0.295992 0.422065 -0.202609 1.28078 -5.17367
1601 -0.0108986 0.210236 -0.463284 -0.144553 -1.94867 -0.288307 0.454573 -0.184078 1.20539 -5.16178
1615 -0.0263666 0.247431 -0.468336 -0.171749 -2.05597 -0.31001 0.355336 -0.190071 1.23821 -5.31694
2693 0.014999 0.256017 -0.491089 -0.177721 -1.8693 -0.317411 0.388233 -0.200637 1.17972 -4.90782
1582 -0.021079 0.183952 -0.480239 -0.15639 -2.07048 -0.237866 0.419312 -0.22475 1.21467 -5.26053
1589 0.0203106 0.24838 -0.44948 -0.195903 -2.05656 -0.324227 0.420088 -0.229714 1.22407 -5.23525
1566 -0.0961816 0.208977 -0.42601 -0.165987 -2.0076 -0.389766 0.335839 -0.183661 1.24555 -5.12225
770 0.265041 -0.0212994 -0.214747 -0.15289 -1.65374 -0.160342 0.71543 -0.317921 0.624531 -4.26366
603 -0.0245374 -0.152559 0.0242909 -0.110875 -1.61221 -0.217824 0.973262 -0.326141 0.943144 -4.368
780 0.0298622 0.173793 -0.406797 -0.167311 -1.91442 -0.22305 0.493868 -0.259381 1.12152 -5.01151
1617 0.0341663 0.210476 -0.455193 -0.172407 -2.038 -0.296379 0.376806 -0.185074 1.29196 -5.26993
1549 -0.12455 0.196334 -0.414373 -0.175215 -1.96629 -0.295418 0.365355 -0.15413 1.23624 -5.22534
1382 -0.109291 0.0338053 -0.436671 -0.10718 -1.77538 -0.0937526 0.477218 -0.174306 1.37377 -4.77255
1483 -0.0743209 0.0485296 -0.196402 -0.161815 -1.86077 -0.250606 0.519759 -0.241895 1.33285 -4.85241
1608 -0.0510817 0.234177 -0.530254 -0.232628 -2.09487 -0.258728 0.36824 -0.22092 1.28193 -5.26981
1074 -0.0136337 0.178412 -0.464761 -0.142185 -1.99762 -0.281179 0.440468 -0.20251 1.30319 -5.16845
1609 -0.00454751 0.17433 -0.461443 -0.197455 -2.01746 -0.302876 0.363466 -0.184102 1.26635 -5.16747
295 0.144715 0.112089 -0.424828 -0.188515 -1.71139 -0.166316 0.245785 -0.15686 0.885229 -4.13373
1572 -0.0444631 0.222902 -0.410355 -0.177832 -2.01462 -0.350702 0.420394 -0.216986 1.31747 -5.25091
1332 0.0361132 0.144222 -0.484484 -0.190712 -2.07192 -0.16308 0.340998 -0.205079 1.17153 -5.11386
1557 -0.00244965 0.172156 -0.467749 -0.215841 -2.08577 -0.272375 0.366549 -0.191682 1.34158 -5.34432
1544 -0.0375827 0.183025 -0.443158 -0.225345 -2.05801 -0.281022 0.337999 -0.183276 1.26534 -5.26737
1602 -0.0202505 0.215517 -0.441646 -0.223414 -1.96714 -0.350118 0.377687 -0.191245 1.21223 -5.24031
3579 -0.00424424 0.22773 -0.462047 -0.174157 -2.01761 -0.347465 0.384836 -0.198485 1.27276 -5.20047
1641 0.0224573 0.225 -0.355788 -0.232681 -2.02382 -0.399615 0.291307 -0.203604 1.31003 -5.1748
849 -0.0302479 0.232832 -0.470157 -0.168553 -1.96761 -0.32232 0.376508 -0.199377 1.22301 -5.15731
1457 -0.0992795 0.186418 -0.224045 -0.240949 -2.00181 -0.219781 0.537489 -0.306912 1.01891 -4.8728
1539 0.0528122 0.0315125 -0.350928 -0.063709 -1.36646 -0.304046 0.257602 -0.0677107 0.935423 -3.78506
4433 0.179017 0.0206841 -0.274473 -0.187832 -1.58331 -0.386267 0.211225 -0.165289 0.898824 -3.46747
381 -0.0263383 -0.122876 -0.620132 -0.205585 -1.74568 -0.0841234 0.330123 -0.328199 1.22322 -3.60005
853 0.0534252 -0.151237 -0.246416 -0.342514 -2.02531 -0.0605937 0.326646 -0.399758 0.562771 -4.00335
2615 0.0209149 -0.169444 -0.305957 -0.228377 -1.7953 -0.140445 0.326014 -0.282854 0.463016 -3.74572
343 -0.124278 -0.163818 -0.274664 -0.217336 -1.66491 -0.411661 0.2651 -0.235548 0.760868 -3.87395
4257 -0.352278 0.0326831 0.155089 -0.314041 -1.53875 -0.583621 0.241696 -0.25655 0.621128 -3.15105
613 -0.532682 -0.11393 -0.387943 -0.402822 -2.22928 -0.181373 0.168992 -0.433932 0.766287 -4.38622
3443 -0.230617 -0.316911 -0.509095 -0.479944 -2.16366 -0.11237 0.0269438 -0.536111 0.918295 -4.25471
2057 -0.118054 -0.170258 -0.603643 -0.398019 -1.92727 -0.362083 -0.0315248 -0.440816 0.880962 -3.89946
4744 -0.0148216 -0.167269 -0.479603 -0.570016 -1.98436 -0.475426 -0.226859 -0.531394 0.829169 -3.82656
3881 -0.124334 -0.194919 -0.641714 -0.445674 -2.01232 -0.185923 -0.144125 -0.420666 0.834618 -3.99732
3440 -0.154216 -0.229786 -0.675511 -0.448633 -2.14761 -0.201485 -0.0453247 -0.51907 0.976119 -4.16294
6 -0.0932287 -0.109179 -0.50486 -0.110641 -1.4851 -0.3276 0.476945 -0.326457 1.13664 -3.62092
256 0.231564 0.0228627 -1.07339 -0.0697098 -1.75398 -0.804315 0.196872 -0.307368 1.18905 -4.52239
259 0.249769 0.0977683 -1.49728 -0.0461914 -2.00732 -0.526545 0.276843 -0.304299 1.20458 -5.32796
254 0.249657 0.1586 -1.33614 -0.000515472 -1.95569 -0.699223 0.233724 -0.297688 1.19391 -5.22902
531 0.074512 0.313574 -0.29604 -0.203416 -1.66531 -1.11608 0.636016 -0.520641 0.639807 -4.41042
1439 -0.104199 0.132137 -0.375309 -0.206784 -1.5917 -0.8882 0.595967 -0.497847 0.702251 -4.00806
2152 -0.100068 0.0579882 -0.501332 -0.260578 -1.84764 -0.635647 0.317065 -0.428659 0.842278 -3.94709
53 -0.0238918 -0.0593421 -0.270173 -0.250665 -1.53839 -0.539933 0.0800617 -0.151861 0.568627 -3.63976
936 0.0375033 0.15319 -0.44768 -0.175148 -1.93334 -0.256065 0.321357 -0.182046 1.16688 -4.79974
3904 0.481347 -0.0140115 -0.173728 -0.275161 -2.1218 -0.619966 0.466848 -0.41551 1.3571 -4.56374
1610 -0.0159952 0.256347 -0.421662 -0.192174 -2.04496 -0.319636 0.456956 -0.220051 1.24834 -5.31874
1595 0.0142155 0.21137 -0.458552 -0.171525 -2.04207 -0.335356 0.468651 -0.230454 1.28646 -5.24424
1647 -0.0521765 0.242649 -0.399431 -0.209585 -2.02638 -0.361755 0.348213 -0.220096 1.27774 -5.2194
1493 -0.0900747 0.0472815 -0.51225 -0.0999667 -1.85752 -0.101676 0.56234 -0.190709 1.31199 -4.79364
1597 0.0907499 0.198329 -0.438352 -0.177328 -2.04413 -0.280258 0.416259 -0.213134 1.24759 -5.20308
1553 0.0169649 0.198301 -0.478917 -0.171448 -2.00114 -0.32199 0.385194 -0.211634 1.24163 -5.2367
1558 -0.021645 0.1881 -0.499851 -0.173105 -2.05061 -0.310165 0.409563 -0.194169 1.28273 -5.34582
1555 -0.0773976 0.255078 -0.537945 -0.218164 -2.02585 -0.260857 0.297952 -0.254127 1.28223 -4.88058
1559 -0.0966222 0.201187 -0.432557 -0.165604 -1.99976 -0.281308 0.300535 -0.210801 1.17637 -4.99974
1561 -0.00683907 0.185321 -0.492033 -0.172498 -2.11982 -0.281682 0.366965 -0.214912 1.28654 -5.29452
4700 0.0309183 0.210401 -0.49352 -0.183219 -2.02861 -0.281997 0.376628 -0.184032 1.22548 -5.23413
1603 -0.0517462 0.18981 -0.432087 -0.176564 -1.96772 -0.264441 0.339628 -0.21188 1.15398 -4.99804
1626 0.0260081 0.219629 -0.450848 -0.155135 -2.06885 -0.291184 0.370129 -0.188566 1.21688 -5.21905
1586 0.0246079 0.235476 -0.369047 -0.183505 -1.99471 -0.352952 0.408569 -0.22738 1.25411 -5.07224
4267 -0.00356785 0.187872 -0.424927 -0.197252 -2.04149 -0.299982 0.425331 -0.194493 1.30352 -5.32104
1599 -0.0432998 0.23224 -0.435109 -0.18345 -2.02914 -0.408828 0.352783 -0.258784 1.3033 -5.26074
1562 -0.00687206 0.204216 -0.459599 -0.162925 -2.05083 -0.27872 0.408567 -0.211217 1.2503 -5.1593
424 -0.0159462 0.141089 -0.266449 -0.239753 -1.98828 -0.255949 0.556666 -0.292501 1.11932 -4.91583
1623 -0.0138183 0.232569 -0.448296 -0.16871 -2.05635 -0.35497 0.381147 -0.205937 1.28808 -5.29847
1636 0.0319346 0.202667 -0.466005 -0.212084 -2.07513 -0.332117 0.370471 -0.193399 1.22994 -5.24645
1108 -0.047808 0.117017 -0.364192 -0.171843 -1.97757 -0.206553 0.459823 -0.204677 1.38454 -4.99506
1588 -0.0198853 0.171935 -0.455023 -0.189208 -2.05686 -0.263957 0.455339 -0.227804 1.28899 -5.31169
1331 0.0562536 0.141061 -0.54955 -0.164346 -2.06531 -0.202995 0.295303 -0.18821 1.17887 -5.02836
1635 -0.00685154 0.213698 -0.43242 -0.192989 -1.98533 -0.367758 0.404907 -0.211361 1.33688 -5.22884
439 -0.0677475 0.146463 -0.69962 -0.182117 -2.02835 0.0778894 0.386067 -0.228303 0.484357 -5.14279
1233 -0.0692046 -0.014818 -0.750509 -0.308157 -2.05282 -0.00225372 0.18263 -0.36893 -0.00774028 -4.55277
1236 0.0763187 -0.0325559 -0.763085 -0.293172 -2.12197 0.0895456 0.187888 -0.342963 0.0815046 -4.65532
1242 -0.021903 -0.000774169 -0.786456 -0.2359 -2.14976 0.0298028 0.344673 -0.408251 -0.0555315 -4.93404
1246 -0.0351306 0.0114712 -0.809886 -0.289483 -2.20606 0.0223046 0.273791 -0.293253 -0.172312 -5.18269
1244 0.0701103 -0.0616998 -0.700892 -0.313533 -2.01717 0.0540408 0.271039 -0.425817 0.0689979 -4.61193
1229 -0.0583594 0.00359026 -0.81854 -0.21474 -2.06001 0.00950522 0.508278 -0.36417 0.00538332 -5.23296
1241 -0.0745582 0.00582499 -0.729807 -0.259972 -2.02433 0.0370703 0.297722 -0.323921 -0.0970671 -4.76615
1227 0.0142349 0.0103708 -0.771858 -0.356503 -2.18044 0.0623941 0.139051 -0.344004 -0.0336897 -5.00019
1226 -0.00641617 0.106821 -0.731836 -0.251393 -2.1224 -0.0595142 0.120514 -0.27869 0.00711406 -4.58971
1287 0.0890747 -0.209913 -0.687981 -0.141837 -1.78623 -0.0418278 0.566796 -0.430254 0.327598 -4.2658
1967 0.0105776 -0.137096 -0.429608 -0.242771 -1.60598 -0.178985 0.294955 -0.305947 0.399957 -3.46831
3588 0.0670191 0.0356059 -0.427712 -0.00933386 -1.38583 -0.21107 0.739472 -0.258546 0.668895 -3.6231
3591 -0.0902432 -0.0647516 -0.311073 -0.0680985 -1.42148 -0.17528 0.79334 -0.283408 0.55529 -3.56838
57 -0.0429448 0.0400257 -0.344115 -0.136357 -1.5063 -0.525639 0.362153 -0.283944 0.635613 -3.59361
2533 0.112071 -0.111898 -0.438762 -0.101558 -1.59721 -0.00290718 0.61609 -0.299028 0.504808 -4.00403
383 0.0388662 -0.0976213 -0.722379 -0.200885 -1.86006 0.133567 0.40708 -0.339115 0.407981 -4.2482
622 0.0169488 -0.213078 -0.661857 -0.140224 -1.71973 0.135199 0.384901 -0.37013 0.659565 -3.86226
912 0.10971 -0.0524335 -0.281355 -0.235117 -1.76638 -0.154862 0.586096 -0.388174 0.618244 -3.95548
15 -0.00190249 0.00304041 -0.553804 -0.129619 -1.70201 -0.417146 0.327434 -0.259987 0.847502 -3.75759
4537 -0.25067 0.0494537 -0.404512 -0.222459 -1.56809 -0.358518 0.256943 -0.248676 0.96465 -2.86318
1266 -0.151699 0.173186 -0.695102 -0.271012 -2.22276 -0.770106 0.212592 -0.370579 1.55742 -4.37467
832 -0.0359646 0.0336796 -0.868959 -0.0848969 -1.77919 -0.599999 0.401424 -0.323402 1.03618 -4.16926
2069 -0.207129 0.0214579 -0.814025 -0.0246902 -1.55816 -0.336242 0.512331 -0.322073 0.854771 -3.57127
2058 -0.136621 -0.0279578 -0.711818 -0.134051 -1.66445 -0.318372 0.256234 -0.330146 0.787558 -3.44105
3334 -0.170657 -0.0903092 -0.682716 -0.286015 -1.97151 -0.0907964 0.208494 -0.319166 0.475943 -3.93127
3235 -0.110603 -0.0656803 -0.87999 -0.224472 -2.0412 -0.0729585 0.224601 -0.374318 0.467808 -4.01305
3831 -0.102108 -0.0173946 -0.61853 -0.204993 -1.8464 -0.111507 0.270964 -0.276107 0.343424 -3.60932
1834 -0.0709947 0.0117974 -0.620537 -0.266211 -1.86156 -0.374823 0.227867 -0.433283 0.614992 -3.67941
641 0.0333903 -0.167976 -0.395377 -0.281647 -1.76917 -0.289377 0.230573 -0.364936 0.694242 -3.61885
4813 -0.153566 -0.121569 -0.520571 -0.206047 -1.57207 -0.233499 0.216136 -0.296251 1.26665 -3.29584
5237 0.0794362 -0.0903256 -0.256614 -0.264502 -1.86531 -0.216532 0.211097 -0.253359 0.408648 -3.72461
855 0.0319108 0.0909023 -0.293842 -0.221952 -1.82403 -0.126107 0.280065 -0.19667 0.729697 -4.27663
5203 -0.128327 -0.216623 -0.16452 -0.110762 -1.36498 -0.342001 0.500664 -0.166616 0.83749 -3.49355
3095 -0.108627 -0.0222237 -0.406502 -0.267155 -1.72842 -0.431769 0.377701 -0.382806 0.84163 -3.4022
1515 -0.0141506 -0.0781761 -0.322146 -0.424404 -1.92237 -0.760981 0.297955 -0.593246 1.0862 -3.96352
1225 -0.0200431 -0.0764008 -0.282418 -0.399189 -1.70906 -0.52208 0.136066 -0.445872 0.906986 -3.25843
1200 -0.0362603 -0.0674501 -0.43387 -0.386448 -1.88376 -0.669968 0.328671 -0.614263 1.09094 -3.88808
740 -0.147851 -0.0641611 -0.550071 -0.359399 -1.92435 -0.669524 0.244885 -0.558068 1.16926 -3.96512
42 -0.0561247 -0.237792 -0.382368 -0.360755 -1.6233 -0.465915 0.351667 -0.523332 1.15595 -3.61281
3280 0.0118567 -0.17507 -0.229859 -0.469725 -1.44827 -0.185774 0.196888 -0.522625 0.971915 -2.99214
3768 -0.000276625 -0.137875 -0.12681 -0.408879 -1.21523 -0.228276 0.19479 -0.445468 0.850886 -2.4853
41 0.0313523 -0.0204849 -0.127568 -0.360198 -1.54349 -0.404175 0.33347 -0.496796 1.03531 -3.33077
516 0.0321358 -0.0561612 -0.487308 -0.151135 -1.38076 -0.317668 0.377798 -0.307214 0.767756 -3.05834
2 0.030537 0.0755192 -0.465496 -0.185517 -1.77683 -0.514343 0.411482 -0.403417 0.746876 -3.84665
4950 -0.15119 0.121003 -0.393641 -0.175347 -1.62317 -0.363149 0.542387 -0.359886 0.473232 -3.44754
3823 -0.0351679 0.254206 -0.311937 -0.195454 -1.65872 -0.851548 0.711146 -0.435508 0.623059 -4.00472
2712 0.028243 0.468603 -0.228882 -0.236165 -2.05375 -1.36395 0.819512 -0.55287 0.66439 -5.48551
2512 -0.0507996 0.409181 -0.166468 -0.228663 -1.79484 -1.30749 0.828504 -0.561172 0.732304 -4.90615
2038 0.0651673 0.484177 -0.162144 -0.254416 -1.98834 -1.43681 0.814507 -0.559075 0.658401 -5.61633
3261 0.113007 0.492615 -0.219353 -0.262692 -2.05441 -1.38452 0.803726 -0.581642 0.670011 -5.55665
3429 -0.00806946 0.497642 -0.211441 -0.224628 -1.92135 -1.34828 0.819422 -0.552674 0.573153 -5.45686
31 0.0521002 0.483594 -0.236319 -0.181878 -1.92835 -1.32008 0.811801 -0.54325 0.616642 -5.43869
28 0.148076 0.318718 -0.641224 -0.0645569 -1.54631 -0.904227 0.445579 -0.322976 0.396064 -4.27005
233 0.0931825 0.468334 -0.242361 -0.223632 -2.07745 -1.38841 0.899228 -0.597639 0.643074 -5.74645
3254 0.0538433 0.503171 -0.228712 -0.220749 -2.07806 -1.3973 0.815194 -0.534646 0.673159 -5.61205
3621 0.0987977 0.509247 -0.262699 -0.225725 -1.99 -1.40563 0.784652 -0.515593 0.675872 -5.56295
3265 0.00548551 0.456305 -0.168989 -0.227623 -1.87466 -1.30432 0.816818 -0.569104 0.604481 -5.19453
3256 0.0308256 0.54607 -0.275171 -0.235531 -2.1134 -1.46257 0.792304 -0.557976 0.69998 -5.69302
3262 0.0187876 0.495162 -0.200088 -0.210217 -1.98276 -1.46249 0.91662 -0.554373 0.75094 -5.78323
509 0.0611784 0.266679 -0.376064 -0.291176 -1.86032 -0.928732 0.740537 -0.619395 0.613965 -4.43706
454 0.0330552 0.235932 -0.242676 -0.21921 -1.80146 -0.980068 0.69136 -0.537476 0.657088 -4.37843
450 0.0419837 0.13487 -0.421301 -0.280823 -2.01886 -0.599067 0.462613 -0.475776 0.868473 -3.93543
4787 -0.172062 -0.00381592 -0.301303 -0.199103 -1.49733 -0.278196 0.240095 -0.17469 0.504224 -3.10135
2908 -0.175772 0.0579346 -0.546768 -0.18692 -1.55533 -0.469426 0.503889 -0.364411 0.508721 -3.63932
628 -0.0624714 -0.0226819 -0.466276 -0.0606897 -1.35492 -0.438204 0.489923 -0.251663 0.932473 -3.5284
1634 0.00298007 0.246204 -0.468124 -0.180584 -2.02502 -0.318453 0.426273 -0.21663 1.28416 -5.32376
775 -0.0533554 0.0489739 -0.133998 -0.16012 -1.7341 -0.225433 0.642679 -0.222365 1.07181 -4.69944
1580 -0.0929942 0.17622 -0.514556 -0.184572 -2.01885 -0.222833 0.37902 -0.224157 1.21388 -5.12895
1593 -0.0424188 0.24048 -0.465767 -0.225048 -1.97193 -0.32467 0.380026 -0.219141 1.20659 -5.16781
1550 -0.0501567 0.18637 -0.568167 -0.170534 -2.00724 -0.204413 0.337549 -0.17606 1.28497 -5.13407
1616 -0.00949129 0.233345 -0.444739 -0.182648 -2.05655 -0.322109 0.371009 -0.223767 1.27198 -5.2436
3848 -0.0623482 0.194315 -0.515658 -0.139617 -2.02741 -0.233971 0.361898 -0.182459 1.21014 -5.19398
393 -0.0115987 0.183591 -0.602196 -0.198652 -2.05066 -0.259841 0.203557 -0.203713 1.50885 -4.99956
1554 -0.0381552 0.195067 -0.496887 -0.150801 -2.01569 -0.252901 0.381004 -0.212785 1.23249 -5.27916
1552 0.0937819 0.227984 -0.406077 -0.23936 -2.05715 -0.329749 0.335576 -0.21688 1.23075 -5.17101
1333 -0.000944874 0.14312 -0.491347 -0.197278 -1.97977 -0.174909 0.323864 -0.19366 1.12008 -4.96065
1628 -0.0257699 0.217822 -0.469935 -0.202331 -2.03997 -0.291936 0.378199 -0.256276 1.28214 -5.21603
1629 -0.0886656 0.180656 -0.443994 -0.183807 -1.8969 -0.246356 0.45547 -0.235992 1.23151 -4.97849
1632 0.0357709 0.218125 -0.433731 -0.214367 -2.11282 -0.32235 0.315738 -0.185996 1.24606 -5.321
1624 -0.0762273 0.198357 -0.425945 -0.188769 -2.02442 -0.324898 0.375925 -0.19144 1.26129 -5.09392
5147 -0.0572765 0.215882 -0.491662 -0.225523 -2.01026 -0.301566 0.363379 -0.180234 1.32068 -5.16173
1583 -0.0255103 0.186557 -0.432149 -0.19907 -2.07128 -0.261231 0.471735 -0.191533 1.2358 -5.31208
1643 0.000181605 0.179919 -0.394797 -0.176769 -1.94641 -0.333205 0.34045 -0.170207 1.20214 -5.11472
1631 0.0216895 0.207387 -0.50503 -0.185387 -2.01823 -0.311825 0.422453 -0.227457 1.28125 -5.30385
1574 -0.0348489 0.164799 -0.239519 -0.167039 -1.90905 -0.265023 0.722272 -0.294373 1.12951 -5.11972
1551 0.0565322 0.241668 -0.470905 -0.211847 -2.10822 -0.320787 0.382554 -0.191154 1.27563 -5.30788
1637 -0.00709583 0.204133 -0.429651 -0.195272 -2.05785 -0.330795 0.447926 -0.210685 1.30599 -5.29657
1590 -0.0820961 0.255844 -0.493936 -0.186524 -2.11004 -0.353355 0.416565 -0.236228 1.33213 -5.33197
1822 -0.125751 0.0143776 -0.380593 -0.165687 -1.59848 -0.274025 0.54117 -0.330839 0.793813 -3.49792
625 -0.300878 0.0186296 -0.554865 -0.0881409 -1.58661 -0.615585 0.54875 -0.378526 1.52276 -4.10394
2754 -0.330228 -0.0373521 -0.417441 -0.192528 -1.29003 -0.292048 0.507067 -0.324084 0.973348 -2.93328
1984 -0.116782 -0.025133 -0.662751 -0.0239117 -1.41623 -0.193235 0.421759 -0.214243 0.769409 -3.30772
1264 -0.233648 0.140337 -0.702396 -0.0742765 -1.59356 -0.571259 0.715402 -0.394857 1.32222 -3.98525
4279 -0.227397 0.0742959 -0.469443 -0.0408232 -1.28346 -0.53677 0.823279 -0.34427 1.40646 -3.51876
3040 -0.390046 0.103664 -0.587886 -0.0892278 -1.62721 -0.773312 0.821175 -0.471102 1.59487 -4.33672
2018 -0.171716 0.0150386 -0.84579 -0.121314 -1.90467 -0.475246 0.417872 -0.390291 0.94433 -4.27961
569 -0.0978743 -0.0168867 -0.822318 -0.289068 -2.09051 -0.145087 0.272273 -0.375271 0.652643 -4.04171
1197 -0.175834 0.0210452 -0.801693 -0.0378231 -1.61984 -0.622107 0.604435 -0.376123 0.842332 -4.15853
1975 -0.0953451 -0.0399529 -0.850222 -0.102356 -1.69854 -0.459293 0.433404 -0.306359 0.92891 -4.05303
1278 -0.166603 0.0783009 -0.625243 -0.0968119 -1.6553 -0.637899 0.709544 -0.416997 1.39602 -3.98074
1996 -0.236638 -0.139426 -0.790332 0.00119121 -1.49602 -0.0859972 0.622452 -0.288157 0.921409 -3.51685
180 -0.10412 0.0506043 -0.600572 -0.0903968 -1.57022 -0.578066 0.391832 -0.290352 0.752955 -3.77105
51 0.0220756 0.00407177 -0.751095 0.0658609 -1.60127 -0.56628 0.716959 -0.272037 0.965871 -4.24129
2078 -0.099662 0.0861358 -0.760865 -0.169066 -1.7601 -0.585398 0.423562 -0.367371 0.800408 -3.98708
792 -0.00134723 -0.152203 -1.0974 -0.223091 -2.39471 -0.107902 -0.119652 -0.196877 1.39764 -4.64146
447 0.0670384 0.0852831 -0.467612 -0.0520429 -1.41106 -0.804552 0.550764 -0.372981 0.970492 -3.83221
462 0.0604966 0.148517 -0.252805 -0.215281 -1.81648 -0.912485 0.692827 -0.54384 0.78095 -4.24154
397 0.128273 -0.161614 -0.31565 -0.289242 -1.8403 -0.070422 0.250312 -0.277243 0.498306 -3.82882
3431 0.111977 -0.136943 -0.55546 -0.248773 -2.05501 -0.040126 -0.017257 -0.273024 0.945701 -3.91789
1901 0.0829891 -0.0938662 -0.36565 -0.213827 -1.80541 -0.186293 0.139416 -0.263733 0.568001 -3.59172
3296 0.0883414 -0.0777781 -0.400531 -0.232865 -1.96727 -0.247875 0.296758 -0.317319 1.0952 -3.74456
2503 0.0701857 0.0136269 -0.687025 -0.253971 -2.09032 -0.21844 0.221051 -0.352944 0.990116 -3.9407
567 0.0195438 -0.0365733 -0.632332 -0.295973 -2.07788 -0.287334 0.271935 -0.335515 0.771372 -3.99565
582 -0.0464749 0.0117977 -0.684032 -0.278605 -2.11718 -0.15297 0.385593 -0.366035 0.497364 -3.99761
572 -0.0662402 0.00932833 -0.732812 -0.22832 -1.93158 -0.169623 0.322752 -0.342679 0.59287 -3.9039
2993 -0.00514115 0.0353453 -0.454925 -0.195042 -1.47544 -0.032584 0.232199 -0.165581 0.371304 -3.21104
176 -0.0540009 0.0449597 -0.761653 -0.242006 -2.07977 -0.273407 0.333061 -0.348484 0.540517 -4.1352
1387 0.0863681 0.0753529 -0.449001 -0.329693 -1.97768 -0.423765 0.276435 -0.392926 0.887792 -3.76671
643 0.0373256 0.043454 -0.446084 -0.282789 -1.56366 -0.4753 0.334479 -0.346329 0.930096 -3.37578
881 0.209001 -0.0398853 -0.690558 -0.116106 -1.8051 -1.05803 0.436017 -0.366952 1.55874 -4.37679
872 0.141226 0.0093451 -0.747516 -0.177762 -1.82507 -0.971412 0.353884 -0.385757 1.2229 -4.34194
1688 -0.0409643 -0.00787679 -0.606304 -0.131604 -1.66961 -0.583844 0.488325 -0.313047 0.7014 -4.05685
1953 -0.122979 0.00979054 -0.700501 -0.072471 -1.5824 -0.551122 0.530017 -0.349428 0.882618 -3.71581
310 -0.0498478 0.0289189 -0.845473 0.00604579 -1.73159 -0.505341 0.631651 -0.418223 0.984734 -4.12746
27 -0.033093 0.026614 -0.645236 -0.125848 -1.65808 -0.644998 0.586706 -0.369649 0.903813 -3.99148
300 0.150796 -0.00776484 -0.659449 0.157878 -1.47375 -0.74808 0.991008 -0.269367 1.09725 -4.54048
2109 0.21022 0.029828 -0.647417 0.204991 -1.52661 -0.839564 1.09889 -0.25158 1.16524 -4.90115
2111 0.161538 -0.0406644 -0.657753 0.175639 -1.5477 -0.799053 1.07811 -0.248853 1.0697 -4.90848
1514 0.103719 -0.0470392 -0.628223 0.0545954 -1.46283 -0.742727 0.88989 -0.297093 0.948323 -4.37872
1500 0.150623 -0.127369 -0.547996 0.117917 -1.27883 -0.641725 0.698896 -0.165351 1.02699 -4.09634
730 0.191843 -0.205548 -0.548276 -0.0248752 -1.54077 -0.493634 0.331647 -0.103518 0.99261 -4.10753
3163 0.024778 -0.0624652 -0.580092 -0.0964747 -1.54513 -0.395056 0.369321 -0.2456 0.668371 -3.61212
92 -0.0485544 0.146282 -0.529716 -0.222455 -1.68185 -0.701346 0.4652 -0.432106 0.666818 -3.88098
2658 -0.0507473 0.0962158 -0.538485 -0.145754 -1.6306 -0.525684 0.672645 -0.44563 0.695254 -3.8887
232 -0.035494 0.121901 -0.620858 -0.0824279 -1.7422 -0.577738 0.553658 -0.40195 0.621606 -4.04264
315 -0.207602 0.116655 -0.627479 -0.118863 -1.72985 -0.70304 0.162644 -0.142078 0.332984 -4.32325
317 -0.481626 0.16309 -0.559569 -0.0858996 -1.837 -0.791568 0.263574 -0.0463595 0.348739 -5.05428
314 -0.336546 0.0903593 -0.436646 -0.200754 -1.7529 -0.580574 0.152248 -0.147733 0.351229 -4.11575
810 -0.279228 -0.0287511 -0.362353 -0.107049 -1.6241 -0.759811 0.199746 -0.0455763 0.597031 -4.56843
798 -0.451776 0.217167 -0.464988 -0.177016 -1.91438 -0.825258 0.369913 -0.0965118 0.292923 -5.04655
807 -0.464424 0.25066 -0.421084 -0.187398 -1.92294 -0.890211 0.353468 -0.123224 0.29505 -4.99087
793 -0.444889 0.182961 -0.459734 -0.0963921 -1.85299 -0.805079 0.32438 -0.041479 0.259104 -4.96363
813 -0.492561 0.19824 -0.387474 -0.162894 -1.86872 -0.801019 0.33344 -0.12548 0.339344 -4.99191
1195 -0.416345 0.164007 -0.445028 -0.0950571 -1.73153 -0.802697 0.340086 -0.0594737 0.307088 -4.77533
170 -0.24238 0.141615 -0.340828 -0.168666 -1.67738 -0.651045 0.270656 -0.064136 0.306781 -4.18173
235 0.468128 0.0193911 -0.209557 -0.291834 -2.05758 -0.693629 0.377079 -0.373485 1.38734 -4.37278
2021 0.466424 -0.0389798 -0.139838 -0.318019 -2.16467 -0.652919 0.488304 -0.389315 1.45105 -4.71289
1916 0.489732 0.0149804 -0.106527 -0.28443 -2.15239 -0.647858 0.478814 -0.406787 1.41666 -4.71366
3203 0.330833 0.015081 -0.261181 -0.230192 -1.99501 -0.690973 0.539933 -0.390911 1.19658 -4.19713
1291 0.447501 0.0323214 -0.137303 -0.302074 -2.147 -0.49432 0.420976 -0.389865 1.22543 -4.5531
463 0.432621 0.0966968 -0.140527 -0.289889 -1.92243 -0.779194 0.638441 -0.511707 1.15263 -4.28415
138 0.125123 0.0580361 -0.481234 -0.190212 -1.61706 -0.72703 0.479508 -0.40203 0.898167 -3.81473
4910 0.15605 -0.0298197 -0.525906 -0.0114012 -1.30656 -0.594053 0.333759 -0.242595 1.11138 -3.33633
3934 -0.21389 -0.0746845 -0.386299 -0.205527 -1.71872 -0.644681 0.106924 -0.0924923 0.839429 -4.37914
2196 -0.208739 -0.152383 -0.308342 -0.169512 -1.71325 -0.743408 0.178379 -0.190452 0.987223 -4.48751
372 -0.353426 0.0555033 0.267892 -0.472967 -2.10708 -1.03452 0.457176 -0.562089 1.51667 -4.52226
366 -0.320032 0.023202 0.242755 -0.502743 -2.09682 -1.00749 0.533076 -0.596272 1.45857 -4.57429
362 -0.345184 0.115145 0.419449 -0.538578 -2.2483 -1.11674 0.589303 -0.570924 1.41778 -4.82448
363 -0.375539 0.0841096 0.341312 -0.464301 -2.04977 -1.06687 0.483001 -0.512055 1.48376 -4.60651
344 -0.282143 0.0126601 0.286558 -0.464443 -2.13288 -0.939982 0.540235 -0.564457 1.40453 -4.56014
1809 -0.220404 0.140619 -0.415009 -0.123018 -1.42698 -0.489371 0.651223 -0.35702 1.08596 -3.43972
1806 -0.306606 0.0438548 -0.360148 -0.117312 -1.32683 -0.497173 0.625366 -0.315947 1.04948 -3.46747
588 -0.22152 0.0121313 -0.385937 -0.105034 -1.44673 -0.63308 0.56908 -0.304456 1.17921 -3.79186
2454 -0.315918 -0.168553 -0.322839 -0.0925866 -1.35242 -0.30328 0.49067 -0.257936 1.23663 -3.41879
1773 -0.381214 0.189261 -0.504737 -0.0953152 -1.66592 -0.926626 0.875751 -0.439171 1.8833 -4.71074
2450 -0.478006 0.260476 -0.580276 -0.0797663 -1.72836 -1.00812 0.902672 -0.4866 2.04116 -4.98987
2436 -0.314723 0.233914 -0.484002 -0.094239 -1.62005 -1.04872 0.920928 -0.519387 1.98887 -4.72959
951 -0.333389 0.190009 -0.562345 -0.130453 -1.68076 -1.01772 0.843664 -0.498126 1.94782 -4.65139
3436 -0.26013 0.115181 -0.714162 -0.10766 -1.62755 -0.667387 0.786259 -0.439064 1.38132 -4.12068
301 -0.113836 0.0530961 -0.781093 -0.0285915 -1.57202 -0.549267 0.619491 -0.359398 1.4921 -3.95246
1980 -0.0472055 0.0125935 -0.827765 0.046386 -1.53403 -0.42785 0.600729 -0.341775 1.14941 -3.74014
1971 -0.0700616 0.0442388 -0.733746 0.00393521 -1.6145 -0.460497 0.652924 -0.273358 0.917164 -3.98109
695 -0.138149 0.00792786 -0.594947 -0.0365642 -1.5468 -0.336498 0.530803 -0.272927 0.829907 -3.77434
30 -0.121583 -0.0614216 -0.334165 -0.190677 -1.64037 -0.354059 0.250148 -0.256616 0.678227 -3.68992
223 0.0287054 -0.176369 -0.309382 -0.2884 -1.78515 -0.0782158 0.302825 -0.288802 0.545056 -3.76868
568 -0.014356 0.00884579 -0.483175 -0.216893 -1.82234 -0.226525 0.240797 -0.306531 0.631025 -3.64287
342 -0.254861 -0.0317003 0.106818 -0.350782 -1.85522 -0.828854 0.419956 -0.380654 1.0274 -4.20393
4354 -0.338276 0.0621163 0.362146 -0.50469 -2.18272 -1.08667 0.528957 -0.581965 1.46932 -4.68541
3769 -0.226196 -0.243346 -0.2426 -0.11903 -1.49633 -0.220767 0.475576 -0.240369 0.933144 -3.70443
3502 -0.227258 -0.166833 -0.362218 -0.138845 -1.42265 -0.298522 0.363139 -0.134406 0.715559 -3.45514
188 -0.169226 -0.156154 -0.522288 -0.115622 -1.46711 -0.360722 0.302045 -0.188276 0.924291 -3.77061
2010 -0.574803 -0.225719 -0.541853 -0.346734 -2.25016 -0.0645531 0.124278 -0.349639 0.85911 -4.51131
1448 -0.0678816 -0.000527744 -0.0581806 -0.284709 -1.82049 -0.221468 0.623894 -0.407303 0.640358 -3.87214
175 0.022351 -0.174778 -0.547781 -0.127401 -1.74848 -0.10838 0.255526 -0.260167 0.522705 -3.79332
752 0.210992 -0.0850363 -0.318332 -0.233788 -2.01351 -0.134831 0.111627 -0.198083 0.479703 -4.09227
847 0.253544 -0.204541 -0.449253 -0.253654 -1.98047 -0.0419706 0.292953 -0.275358 0.602167 -4.18844
3289 0.496828 -0.179417 -0.647381 -0.208425 -2.17604 -0.0377039 0.287968 -0.25505 0.974124 -4.76839
2352 0.287157 -0.0146589 -0.351625 -0.240024 -1.89515 -0.286095 0.437197 -0.312509 0.853409 -3.86794
696 -0.107125 0.00232108 -0.550873 -0.164364 -1.66414 -0.542144 0.460631 -0.3079 0.816038 -3.7675
13 -0.199416 -0.00262914 -0.786671 -0.145818 -1.91003 -0.546487 0.3384 -0.372242 0.957767 -4.16395
2847 0.11056 -0.026138 -0.301398 -0.159349 -1.68226 -0.371796 0.436072 -0.296753 1.07584 -3.6404
3 -0.0588517 -0.0920516 -0.454414 -0.225402 -1.54646 -0.494111 0.269886 -0.342461 0.749182 -3.64477
592 -0.0530326 -0.326874 -0.352692 -0.0902068 -1.59368 -0.0130656 0.628771 -0.236163 1.02713 -3.965
536 0.0430134 0.190519 -0.286139 -0.23695 -1.65956 -0.806746 0.555675 -0.477424 0.58028 -3.80178
655 0.139051 0.174505 -0.245379 -0.211375 -1.82055 -0.824279 0.647606 -0.535783 0.68625 -4.09747
535 0.0618591 0.125149 -0.440822 -0.206672 -1.73683 -0.553786 0.637194 -0.500067 0.51712 -3.96478
91 -0.0995953 0.0454227 -1.01314 -0.0465173 -1.80657 -0.220902 0.734773 -0.489016 0.760471 -4.40812
1842 -0.136097 -0.0841807 -0.886804 -0.0674947 -1.61716 -0.275157 0.597626 -0.347438 0.523635 -4.08424
1109 -0.0317668 0.0634471 -0.910189 -0.0798453 -1.60814 -0.691079 0.30913 -0.277281 0.871077 -4.08497
3234 0.101829 -0.00440306 -1.09302 0.0417406 -1.64622 -0.326808 0.349466 -0.137992 0.855998 -4.20904
4313 0.299059 0.181211 -1.42312 -0.059564 -2.01009 -0.551516 0.239042 -0.27159 1.22141 -5.41028
502 0.189545 0.0418003 -1.27063 -0.0884651 -2.01703 -0.501388 0.270257 -0.249408 0.951652 -4.9231
4086 0.0788211 0.0180986 -0.967676 -0.0233066 -1.63344 -0.373255 0.219216 -0.160893 0.786461 -3.92372
4087 0.0984771 0.0547219 -0.816181 -0.127689 -1.65459 -0.401808 0.285592 -0.259159 0.78307 -3.67678
2913 0.158011 0.110259 -1.23863 -0.0465897 -1.83322 -0.489109 0.254756 -0.274813 0.939089 -4.69954
970 0.136858 0.0847792 -1.05378 0.0116752 -1.58146 -0.37107 0.142708 -0.1123 0.805488 -4.08772
3983 0.120311 0.0576905 -1.07819 -0.0368886 -1.65967 -0.405134 0.203295 -0.169382 0.900316 -4.30357
3536 0.00542787 0.124114 -0.825068 -0.119503 -1.42105 -0.469874 0.455864 -0.346878 0.698341 -3.68591
81 -0.191947 0.0730308 -0.755942 -0.150764 -1.70758 -0.659952 0.568747 -0.39763 1.02914 -4.18206
9 -0.0918738 0.0601295 -0.359641 -0.0975037 -1.50355 -0.564221 0.599422 -0.315462 0.433141 -3.73437
1503 -0.0540419 0.0217403 -0.308678 -0.303596 -1.1428 -0.252137 0.304246 -0.281242 0.369967 -2.31852
1249 -0.0338664 0.238868 -0.277692 -0.155183 -1.65042 -0.876706 0.604917 -0.425873 0.675894 -3.94627
1067 -0.0428706 -0.222644 -0.53109 -0.0126918 -1.52858 -0.477774 0.273151 -0.00326408 1.22354 -4.21869
4506 0.154517 -0.0689484 -0.191954 -0.342208 -1.74839 -0.591864 -0.146549 -0.161493 0.52974 -3.76004
4508 0.213107 -0.176069 -0.276255 -0.28053 -1.72782 -0.313947 0.0949624 -0.141566 0.593489 -3.666
1147 -0.122511 -0.245792 -0.547173 -0.350308 -2.32148 0.0202407 0.140951 -0.249691 1.48118 -4.27814
700 -0.152897 -0.163066 -0.768987 -0.260949 -2.12002 -0.0511223 0.116222 -0.291038 1.23771 -3.9727
104 -0.250062 -0.105078 -0.99959 -0.0959305 -1.85841 -0.227271 0.366193 -0.307008 0.898713 -4.09762
99 -0.34583 -0.0369085 -1.1556 -0.0642678 -1.84797 -0.187787 0.389494 -0.354381 0.915998 -4.24856
101 -0.332088 0.0187434 -1.03517 -0.10508 -1.9079 -0.338096 0.352605 -0.378323 0.977591 -4.30352
3025 -0.338887 0.0625914 -0.884824 -0.128775 -1.6103 -0.182445 0.264257 -0.345321 0.690303 -3.44101
1119 -0.112294 -0.00670249 -0.685087 -0.057658 -1.56981 -0.426176 0.487486 -0.304587 0.752589 -3.58439
2948 0.00372575 -0.0633135 -0.509645 -0.204931 -1.96163 -0.221446 0.396931 -0.274248 0.621363 -4.24132
3507 -0.0523586 -0.111819 -0.531436 -0.208982 -1.99579 -0.145444 0.397357 -0.289952 0.634521 -4.25713
1696 0.104546 -0.150348 -0.435567 -0.176473 -1.85677 -0.106528 0.344251 -0.27207 0.47784 -4.0349
854 0.0737519 -0.167938 -0.295812 -0.288921 -1.90748 -0.134511 0.283405 -0.305767 0.596303 -3.90536
2893 -0.00747905 -0.154102 -0.447824 -0.413621 -2.12074 -0.0467786 0.437651 -0.652139 0.634059 -4.50081
3544 -0.0811473 -0.119578 -0.21419 -0.264277 -1.81074 -0.130814 0.387866 -0.294082 0.622707 -3.74255
4853 -0.0709146 -0.177716 -0.256673 -0.0870362 -1.20464 -0.194728 0.215901 -0.225906 0.669479 -2.8379
4632 -0.140865 -0.000251608 -0.569082 -0.0467756 -1.45258 -0.280157 0.398901 -0.39565 0.727016 -3.29753
2839 -0.00831026 0.24088 -0.274224 -0.25187 -1.59999 -0.903084 0.611029 -0.540639 0.597333 -4.03489
1816 0.0351086 0.112628 -0.279114 -0.299547 -1.53847 -0.793089 0.320728 -0.468972 0.539533 -3.64518
2276 0.129043 0.0219263 -0.403946 -0.269815 -1.6299 -0.914011 0.375635 -0.454951 0.762225 -4.02953
116 -0.188253 0.065627 -0.701592 -0.102255 -1.71917 -0.629246 0.496764 -0.38408 0.808076 -4.05331
3414 -0.0736047 0.08491 -0.504197 -0.210978 -1.77437 -0.570558 0.0161175 -0.173221 0.707036 -3.58474
2755 -0.205114 0.0485271 -0.547416 -0.104253 -1.54553 -0.408039 0.187168 -0.13761 0.714356 -3.31929
3106 -0.25984 0.0691575 -0.80653 -0.0359911 -1.47815 -0.339285 0.472891 -0.316051 0.779492 -3.58246
4073 -0.224502 0.0144147 -0.877127 -0.0421478 -1.67757 -0.528881 0.613254 -0.394423 0.833445 -4.21617
714 -0.13523 -0.0155152 -0.767399 -0.266049 -1.88057 -0.407776 0.166656 -0.359858 0.876452 -3.80401
1159 -0.0187404 0.0284871 -0.500013 -0.222356 -1.6659 -0.858793 0.338299 -0.398002 0.827322 -3.86721
461 0.102574 0.156788 -0.276647 -0.230146 -1.80659 -0.972996 0.699888 -0.542462 0.82106 -4.2341
105 0.00952154 0.160278 -0.251271 -0.203108 -1.73331 -0.882305 0.583022 -0.379655 0.400489 -4.17858
534 -0.162978 -0.0693673 -0.613076 -0.159488 -1.67745 -0.602271 0.149846 -0.218705 0.709409 -4.06731
614 -0.397161 -0.227936 -0.375025 -0.281102 -1.97966 0.0255703 0.471966 -0.384435 0.723189 -4.07289
610 -0.452494 -0.184549 -0.374999 -0.345462 -2.00157 -0.0243495 0.299224 -0.394239 0.664728 -4.0078
611 -0.360682 -0.20996 -0.323892 -0.403613 -2.0465 -0.123299 0.263199 -0.483793 0.788303 -4.0197
2005 -0.584293 -0.143843 -0.47562 -0.333402 -2.16235 -0.081669 0.234153 -0.36945 0.80118 -4.31585
2209 -0.0992422 -0.185345 -0.436989 -0.163469 -1.69042 -0.668821 0.134673 -0.147321 0.852905 -4.41416
1038 0.0281008 -0.194226 -0.454915 -0.0396252 -1.53221 -0.613568 0.268564 -0.0642486 1.08615 -4.23079
2206 -0.1247 -0.163201 -0.452022 -0.13673 -1.69625 -0.664401 0.150026 -0.0843122 0.834411 -4.51237
2182 -0.168777 -0.151856 -0.38799 -0.113429 -1.71093 -0.629189 0.166041 -0.0578488 0.846356 -4.57683
1091 -0.144389 -0.13758 -0.376244 -0.154698 -1.72789 -0.71401 0.156503 -0.0489787 0.879008 -4.62223
2204 -0.00705572 -0.0622625 -0.313546 -0.270726 -1.83345 -0.884207 -0.0308374 -0.112306 0.846114 -4.51567
2174 -0.107883 -0.154582 -0.409721 -0.125461 -1.66093 -0.661875 0.180025 -0.129365 0.831771 -4.5337
2162 -0.121811 -0.155564 -0.365283 -0.195633 -1.7511 -0.654904 0.132254 -0.128001 0.8797 -4.2849
2144 -0.162033 -0.144257 -0.368001 -0.187574 -1.73277 -0.710667 0.144235 -0.207902 0.832685 -4.39521
2190 -0.147073 -0.144544 -0.4469 -0.0842832 -1.67324 -0.690604 0.201771 -0.0447623 0.858614 -4.56808
207 -0.211258 -0.207057 -0.657532 -0.0894322 -1.62807 -0.380396 0.0856858 -0.127199 0.88395 -4.14872
202 0.0110469 -0.299432 -0.850008 -0.174813 -1.85068 0.0880736 0.102331 -0.206683 1.265 -3.94832
2383 0.0153493 -0.262367 -0.679369 -0.0694533 -1.32717 0.20747 0.441706 -0.289668 1.20628 -3.12142
998 -0.233321 -0.298312 -0.642521 -0.0311153 -1.61571 0.0439975 0.770728 -0.437988 1.64077 -4.20558
20 0.0476927 -0.195109 -0.837556 -0.164863 -1.86522 0.0272935 0.220033 -0.273606 1.27126 -3.89958
3759 0.144636 -0.268334 -0.504726 -0.162052 -1.60473 0.175279 0.211139 -0.180643 0.696963 -3.53069
546 0.436052 -0.274312 -0.711765 -0.180563 -2.13622 0.0775877 0.312536 -0.214857 0.825562 -4.91573
2552 0.428951 -0.277654 -0.712996 -0.174959 -2.11677 0.0113078 0.277534 -0.268895 0.994748 -4.60589
994 -0.138959 -0.306298 -0.517913 -0.132707 -1.54293 -0.0476296 0.553837 -0.412426 1.24093 -3.866
1003 -0.147044 -0.316742 -0.569427 0.0467371 -1.43954 -0.25533 0.607902 -0.16813 1.43313 -4.29241
962 -0.134932 -0.317197 -0.623899 -0.000295703 -1.28433 -0.132469 0.684304 -0.300074 1.28318 -3.87042
415 0.108467 -0.0661488 -0.779861 -0.120446 -1.65666 -0.872016 0.394509 -0.312852 1.27311 -4.14241
179 -0.173903 0.0502766 -0.537003 -0.202062 -1.65838 -0.473587 0.315079 -0.276504 0.601639 -3.55079
4 -0.122936 -0.106071 -0.399071 -0.177736 -1.61443 -0.454488 0.193554 -0.147092 0.567337 -3.80818
2694 -0.168263 -0.0500363 0.150911 -0.299302 -1.61234 -0.445963 0.227423 -0.297955 0.691997 -3.14963
349 -0.222642 0.0406732 0.426838 -0.432053 -2.00015 -0.905109 0.571106 -0.475016 1.41676 -4.47188
351 -0.27925 0.00318417 0.134298 -0.478687 -2.00487 -0.911954 0.449625 -0.567801 1.36501 -4.1999
211 -0.329123 -0.0487637 0.220523 -0.44981 -2.05567 -0.769507 0.637394 -0.634489 1.49282 -4.37091
358 -0.255923 0.029854 0.221063 -0.460899 -2.04678 -0.954054 0.490307 -0.524938 1.4063 -4.36901
348 -0.305482 0.0980969 0.311 -0.521693 -2.06185 -1.09985 0.409932 -0.495321 1.17269 -4.4852
870 -0.197242 0.011796 0.000794727 -0.388675 -1.69245 -0.891997 0.2815 -0.368764 0.862635 -3.90728
865 -0.263366 0.133224 0.152564 -0.482546 -1.85288 -1.02533 0.155714 -0.342184 0.874417 -3.9744
868 -0.222725 0.092644 0.217936 -0.519065 -1.91186 -1.05793 0.0668942 -0.415081 1.01146 -4.08468
1334 -0.0182216 -0.112692 -0.567664 -0.140167 -1.63308 -0.0718576 0.260079 -0.308257 0.751697 -3.22776
618 0.149781 -0.0578815 -0.445424 -0.269644 -1.99313 -0.142343 0.19944 -0.286043 0.756594 -3.92789
753 0.192562 -0.101046 -0.303458 -0.282585 -1.93408 -0.129996 0.255671 -0.198954 0.531053 -4.08733
3321 -0.214897 -0.0975882 -0.79156 -0.0808329 -1.91525 -0.0208563 0.654977 -0.363663 0.101537 -4.67625
3327 -0.152524 -0.123761 -0.872101 -0.189722 -2.17393 -0.133103 0.783467 -0.474613 0.195656 -5.62454
1234 -0.0174255 -0.0957005 -0.782827 -0.19774 -1.87973 -0.0154866 0.319007 -0.288124 -0.0238242 -4.50384
316 -0.274674 0.0151102 -0.547319 -0.112202 -1.66498 -0.647292 0.333586 -0.245088 0.475286 -4.08052
802 -0.515047 0.249567 -0.517159 -0.152403 -1.85431 -0.770661 0.358465 -0.128192 0.299717 -4.90746
95 -0.174358 0.0359044 -1.02141 -0.061569 -1.836 -0.446496 0.42854 -0.334434 0.889633 -4.33524
4772 -0.140048 -0.129179 -0.305938 -0.160753 -1.64166 -0.596128 0.0555501 -0.0722285 0.843654 -3.91694
869 -0.086697 0.031922 0.149667 -0.458179 -1.86778 -1.04227 0.0823813 -0.272894 0.961393 -4.16849
354 -0.245892 0.0457689 0.164873 -0.518713 -1.87348 -0.917418 0.151623 -0.429963 0.902782 -4.00629
2331 -0.0260442 0.0786232 0.0909226 -0.562019 -2.13567 -1.15222 -0.180417 -0.301041 0.894975 -4.58282
871 -0.204457 0.0437281 0.248932 -0.495017 -1.8685 -0.90336 0.184894 -0.379905 0.856495 -3.987
2191 -0.0969723 -0.247107 -0.475036 -0.24382 -1.83343 -0.471806 -0.0111767 -0.0918286 0.807976 -4.52634
1055 -0.146003 -0.226619 -0.473377 -0.0732232 -1.50631 -0.572986 0.309988 -0.105088 1.24781 -4.32854
985 -0.308327 -0.337877 -0.769553 -0.0147013 -1.56469 -0.0395503 0.884142 -0.433938 1.45308 -4.41063
987 -0.199722 -0.307978 -0.782418 -0.0425501 -1.63778 -0.0993145 0.865234 -0.469696 1.75066 -4.41253
4298 -0.247367 -0.307282 -0.737855 -0.0779662 -1.45956 0.00414354 0.65466 -0.462216 1.42178 -3.75491
1678 -0.391216 -0.146021 -0.758238 -0.119081 -1.64948 -0.174429 0.672139 -0.529434 1.19457 -3.95119
630 -0.312719 0.0450042 -0.55568 -0.107953 -1.5789 -0.69296 0.82693 -0.494128 1.71134 -4.43199
2435 -0.317241 0.0311184 -0.656541 -0.0473613 -1.45503 -0.502733 0.724304 -0.485968 1.3636 -3.81311
1715 -0.184862 0.0172277 -0.464247 -0.193215 -1.53 -0.384717 0.354843 -0.317705 0.745321 -3.44593
2715 -0.0297431 0.0547796 -0.183808 -0.365971 -1.48084 -0.723478 0.153263 -0.415338 0.496153 -3.07433
3114 -0.266854 -0.110393 -0.586285 -0.0962839 -1.49976 -0.31868 0.458635 -0.359181 0.875944 -3.46249
2137 0.101414 -0.0886589 -0.357387 -0.206395 -1.80703 -0.180574 0.459136 -0.378569 0.633931 -3.65987
3852 0.233217 -0.0322038 -0.154071 -0.253376 -1.65084 -0.378525 0.288547 -0.257321 0.815319 -3.28715
1753 -0.179759 -0.0273376 -0.671573 -0.24961 -1.80037 -0.500384 0.3102 -0.505279 0.850113 -3.80362
1089 -0.12091 -0.134704 -0.42365 -0.316103 -1.69585 -0.790282 0.202712 -0.33656 0.929736 -4.06436
1122 0.0374435 -0.0263993 -0.487382 -0.164725 -1.58935 -0.668912 0.314062 -0.3404 0.86325 -3.67579
1148 -0.0700775 -0.200107 -0.759273 -0.283553 -2.14308 -0.110633 0.0399876 -0.252208 1.47756 -4.07573
174 -0.0833737 -0.152624 -0.390505 -0.181545 -1.62367 -0.33485 0.242607 -0.223146 0.619428 -3.78977
3267 0.162925 -0.120042 -0.286246 -0.133417 -1.66075 -0.0684033 0.746299 -0.400758 0.445751 -4.05817
3992 0.0538925 -0.103143 -0.251727 -0.207706 -1.65262 -0.255064 0.436087 -0.274768 0.680958 -3.62439
938 0.27199 -0.158549 -0.343448 -0.173431 -1.64895 -0.394532 0.346192 -0.200335 0.980859 -3.82458
1104 -0.0868047 -0.194198 0.0459453 -0.143124 -1.78737 -0.242095 0.800271 -0.338846 1.22887 -4.44737
1356 -0.0632914 0.206635 -0.458933 -0.226072 -2.01076 -0.259583 0.331037 -0.225704 1.15373 -4.99008
1627 0.000322194 0.183155 -0.471325 -0.186289 -2.00131 -0.268824 0.407261 -0.213247 1.2801 -5.13335
200 0.0176393 -0.217736 -0.766202 -0.18128 -1.76799 0.0731885 0.061322 -0.209225 1.00458 -3.74251
201 0.0235621 -0.223585 -0.804884 -0.107977 -1.71065 0.0899584 0.110524 -0.251464 1.19365 -3.75347
1424 -0.0248247 -0.247992 -0.386995 -0.395735 -1.78754 -0.532744 0.319746 -0.526663 1.18447 -3.84395
43 0.026704 -0.0412025 -0.429493 -0.312403 -1.73992 -0.773677 0.445717 -0.515241 0.89817 -3.84118
4939 -0.139412 -0.133346 -0.240323 -0.457631 -1.88915 -0.75497 0.300481 -0.621365 1.25352 -3.98053
368 -0.293644 -0.0310439 0.201757 -0.334612 -1.85753 -0.926879 0.523551 -0.418397 1.34692 -4.254
1090 -0.275988 0.00441896 -0.234875 -0.139472 -1.49483 -0.602852 0.324211 -0.220977 0.999694 -3.57123
1092 -0.224392 -0.040006 -0.38309 -0.152858 -1.53816 -0.394383 0.294185 -0.129108 0.704181 -3.66042
1084 -0.122773 -0.116234 -0.486226 -0.144319 -1.59953 -0.626583 0.227027 -0.15608 0.805298 -4.091
1173 -0.125653 0.100554 -0.577895 -0.197205 -1.83077 -0.769038 0.196583 -0.262994 0.965314 -3.89349
3726 -0.321579 -0.0815268 -0.320032 -0.18622 -1.51893 -0.411765 0.235121 -0.187721 0.729582 -3.82382
2172 -0.362376 -0.108653 -0.273146 -0.154633 -1.54363 -0.343377 0.319537 -0.210041 0.475975 -3.80195
268 0.233382 0.124788 -1.51321 0.00309304 -2.0365 -0.60875 0.221276 -0.252314 1.12776 -5.4934
262 0.299229 0.174918 -1.44084 0.013345 -2.13279 -0.60299 0.293358 -0.263036 1.12164 -5.60792
267 0.232213 0.137394 -1.40718 -0.0087868 -2.06785 -0.699281 0.306909 -0.323473 1.07164 -5.39857
243 0.233101 0.0256954 -1.40953 0.011774 -1.96284 -0.521532 0.264862 -0.223218 1.0128 -5.28582
270 0.281513 0.0992389 -1.47409 -0.0193241 -2.08489 -0.579058 0.227761 -0.284154 1.08688 -5.55318
285 0.20998 0.160988 -1.45276 0.00790216 -2.06874 -0.602359 0.25685 -0.225968 1.15069 -5.46005
277 0.187589 0.148612 -1.374 0.0047066 -1.95708 -0.623047 0.341864 -0.319693 1.03295 -5.15491
3245 0.252424 0.151259 -1.4811 -0.00855985 -2.10978 -0.584144 0.254053 -0.296217 1.15541 -5.47682
260 0.243191 0.12251 -1.47518 -0.0197456 -2.01297 -0.530752 0.250439 -0.244528 1.23568 -5.3968
294 0.254881 0.129649 -1.41442 -0.0396343 -2.09829 -0.597577 0.172962 -0.219073 0.950006 -5.3875
283 0.283276 0.0668795 -1.49117 -0.0385117 -2.11983 -0.498475 0.335195 -0.312188 1.13813 -5.57408
289 0.270705 0.129038 -1.42087 -0.0467597 -2.03668 -0.641356 0.243575 -0.290967 1.13674 -5.3791
266 0.256356 0.108905 -1.42838 -0.0435459 -2.02707 -0.582286 0.288802 -0.27225 1.04605 -5.41331
234 0.257007 0.169249 -1.46376 0.0150988 -2.07666 -0.59277 0.22005 -0.260839 1.1237 -5.39205
253 0.27725 0.166768 -1.34045 -0.0700734 -2.0452 -0.67459 0.250502 -0.281776 0.977468 -5.36942
288 0.254433 0.102441 -1.4484 -0.0398223 -1.96011 -0.585821 0.253744 -0.255675 1.09139 -5.27884
246 0.203373 0.134039 -1.47178 0.0168995 -2.03854 -0.584647 0.26849 -0.199948 1.14499 -5.43718
264 0.308479 0.196687 -1.44383 -0.0542641 -2.1351 -0.663172 0.265407 -0.293914 1.21756 -5.51235
249 0.218938 0.0496581 -1.41459 0.0366891 -1.95218 -0.582395 0.319542 -0.264971 1.13274 -5.19887
251 0.268092 0.171152 -1.46775 -0.0246998 -2.11048 -0.681555 0.241968 -0.288788 1.22466 -5.60323
2419 0.279085 0.0835445 -1.42861 -0.0252303 -2.04478 -0.482068 0.366059 -0.309315 1.08644 -5.33652
4117 0.0993675 0.0739077 -1.0163 -0.0665993 -1.53144 -0.353161 0.180494 -0.129689 0.767859 -3.84086
1072 -0.0593415 -0.248026 -0.412944 -0.120953 -1.56443 -0.477537 0.287182 -0.129644 1.3073 -4.09496
429 0.0827335 -0.0160945 0.0488419 -0.318756 -1.84346 -0.374498 0.51905 -0.457752 0.748635 -3.91255
5228 0.0157222 0.0508816 0.125313 -0.268145 -1.75046 -0.311071 0.819633 -0.44279 0.87054 -4.21193
423 0.00946923 -0.0430269 -0.0102044 -0.280904 -1.84857 -0.296009 0.66658 -0.444657 0.799494 -3.96261
772 0.321991 -0.0266749 0.0412048 -0.163057 -1.85085 -0.469234 0.723669 -0.3693 1.21045 -4.43891
1212 0.449934 -0.00804458 -0.164123 -0.296233 -2.15785 -0.648374 0.516949 -0.377857 1.32638 -4.71263
1911 0.478353 0.0155952 -0.151427 -0.316201 -2.1314 -0.623051 0.453917 -0.429217 1.46651 -4.57491
669 0.426661 0.0288583 -0.158829 -0.227914 -2.01269 -0.666836 0.481594 -0.40818 1.15848 -4.36271
1912 0.461109 0.0523058 -0.12911 -0.289135 -2.06964 -0.676269 0.377165 -0.350887 1.2796 -4.44135
4927 0.471643 -0.0331812 -0.113443 -0.333057 -2.20691 -0.608507 0.434345 -0.416236 1.43712 -4.66789
299 0.256051 -0.0584807 -0.391864 -0.217976 -1.90735 -0.356356 0.311997 -0.340972 1.05221 -3.95427
3387 0.432111 -0.196894 -0.537317 -0.204404 -1.99158 -0.00104925 0.298687 -0.212452 0.867811 -4.46109
1581 0.00412371 0.138081 -0.462947 -0.191548 -2.04391 -0.245118 0.38901 -0.229331 1.25032 -5.25687
3346 0.0334649 0.199541 -0.428954 -0.185768 -1.97687 -0.33175 0.421206 -0.21084 1.28078 -5.16554
4826 -0.00956566 0.235739 -0.45037 -0.210149 -2.00236 -0.367251 0.327532 -0.247499 1.27681 -5.23105
1605 -0.0270076 0.23845 -0.487773 -0.170511 -2.03148 -0.342646 0.38628 -0.217915 1.23375 -5.27325
767 0.0298611 0.142683 -0.360587 -0.238805 -1.92918 -0.218537 0.289786 -0.235463 0.920573 -4.73541
432 0.000452814 0.193514 -0.34946 -0.261746 -2.09552 -0.265711 0.520411 -0.280398 1.15741 -5.07283
1606 0.0200695 0.203568 -0.455851 -0.209811 -2.02756 -0.319001 0.370475 -0.222849 1.30259 -5.25904
3952 0.000674867 0.20051 -0.469075 -0.177533 -2.0324 -0.361492 0.337779 -0.217176 1.26965 -5.1805
2992 0.0687154 -0.0173516 -0.499612 -0.151351 -1.67899 -0.015441 0.27115 -0.173636 0.658387 -3.66482
1573 0.00650419 0.24853 -0.44469 -0.196915 -2.00978 -0.335894 0.392372 -0.210036 1.23549 -5.27432
1569 0.0173544 0.193583 -0.495153 -0.193031 -2.06842 -0.27499 0.346121 -0.197669 1.29685 -5.25172
1325 -0.400126 -0.176729 -0.624786 -0.0770382 -1.35169 -0.061675 0.616046 -0.394085 1.17603 -3.88237
1324 -0.410355 -0.214186 -0.60418 -0.114016 -1.41409 -0.0792742 0.635414 -0.409028 1.20641 -4.049
1323 -0.487891 -0.204017 -0.715556 -0.101168 -1.58414 -0.139612 0.712349 -0.450957 1.36367 -4.52716
5208 -0.309692 -0.233312 -0.453083 -0.149435 -1.46266 -0.265604 0.500573 -0.362995 1.08069 -4.00926
1082 -0.0334685 -0.082203 -0.422658 -0.385905 -1.94748 -0.675185 0.32118 -0.574872 1.07042 -3.89382
1446 -0.205869 0.00484368 -0.00615205 -0.244261 -1.57838 -0.542123 0.449819 -0.279753 0.847452 -3.47681
3023 -0.229678 0.0147795 -0.238131 -0.131415 -1.13291 -0.417685 0.66322 -0.274697 0.878313 -2.8978
1153 -0.134992 0.0127974 -0.633703 -0.13032 -1.56797 -0.559927 0.447577 -0.30296 0.888985 -3.83389
58 -0.0982054 0.00554768 -0.890129 -0.125527 -1.94314 -0.545907 0.420423 -0.352157 1.07745 -4.35313
3089 0.0279788 -0.0852594 -0.406674 -0.224996 -1.78997 -0.23359 0.296861 -0.250041 0.483751 -3.67893
1527 0.0271204 -0.0995848 -0.235594 -0.200673 -1.45054 -0.403299 0.265248 -0.235282 1.05337 -3.33881
593 -0.0309017 -0.16765 -0.115196 -0.117165 -1.62843 -0.145212 0.687857 -0.276149 1.02657 -4.0951
4094 -0.0790431 0.0781858 -0.430154 -0.12177 -1.81802 -0.0787218 0.586924 -0.271772 1.37642 -4.73398
605 -0.122589 -0.26625 -0.346017 -0.0384602 -1.56931 0.0150343 0.790702 -0.272381 1.27117 -4.17366
1492 -0.176093 -0.205412 0.0880498 -0.154681 -1.71209 -0.262783 0.791431 -0.265195 1.05869 -4.30271
1642 -0.00550518 0.150382 -0.475588 -0.171662 -2.05404 -0.190081 0.401058 -0.20299 1.23575 -5.17609
1545 -0.0782134 0.202106 -0.382486 -0.161755 -1.87418 -0.28146 0.353754 -0.153298 1.11347 -4.83258
236 -0.00499217 0.202715 -0.372751 -0.177523 -1.85188 -0.359465 0.236667 -0.0956409 1.04716 -4.85653
394 -0.0229345 -0.1168 -0.877977 -0.256271 -2.35841 -0.0252457 -0.0939535 -0.23177 1.59351 -4.49281
878 0.164006 -0.0961443 -0.58696 -0.204212 -1.76791 -0.953307 0.164571 -0.376062 1.19006 -4.18605
2142 -0.0256763 -0.08875 -0.493544 -0.246215 -1.91493 -0.616261 0.0445415 -0.267835 0.597029 -4.09005
2197 -0.104566 -0.173842 -0.417525 -0.15698 -1.6353 -0.677218 0.160417 -0.121889 0.835553 -4.37565
5201 -0.181332 -0.155504 -0.393206 -0.21488 -1.7048 -0.675811 0.138557 -0.12547 0.796384 -4.40623
2202 -0.162105 -0.173896 -0.433267 -0.155976 -1.73302 -0.670496 0.155799 -0.101393 0.889864 -4.54379
2194 -0.097354 -0.16487 -0.38859 -0.1519 -1.68556 -0.644866 0.137357 -0.121557 0.864152 -4.47773
1292 -0.170359 -0.140958 -0.185682 -0.20786 -1.54686 -0.601321 0.278969 -0.147668 0.862124 -4.15632
1035 -0.0976405 -0.191617 -0.476562 -0.10347 -1.64987 -0.612652 0.21776 -0.0836488 1.11271 -4.44208
1068 -0.0912458 -0.272012 -0.40849 -0.00724764 -1.47027 -0.362196 0.468397 -0.126688 1.43853 -4.31623
1027 -0.0658717 -0.231667 -0.503817 -0.00671455 -1.39585 -0.465208 0.292137 -0.0532998 1.2215 -4.03406
239 0.0365123 0.00624648 -0.528693 -0.33325 -2.08111 -0.331117 0.141212 -0.320137 0.966 -3.80792
673 0.0168958 0.0674066 -0.570087 -0.246717 -2.07278 -0.448728 0.281426 -0.375204 0.970807 -3.91859
4476 -0.125439 -0.0998009 -0.286898 -0.182565 -1.4496 -0.258992 0.419035 -0.216117 0.72013 -3.10076
3749 -0.17138 -0.261126 -0.695198 -0.418178 -2.0527 -0.15694 -0.134484 -0.402745 0.897887 -4.04845
2361 -0.0654514 0.00510156 -0.477705 -0.177381 -1.58559 -0.244373 0.355532 -0.333689 0.710399 -3.4319
1564 0.0823425 0.092368 -0.373827 -0.214226 -1.96324 -0.0477379 0.364284 -0.241856 0.86508 -4.59482
1761 0.201906 -0.139091 -0.378369 -0.203077 -1.91064 -0.228578 0.299605 -0.264948 0.603038 -3.93583
5260 -0.213246 -0.195562 -0.203551 -0.213035 -1.45842 -0.154959 0.427902 -0.207197 0.793261 -3.65073
1016 -0.0845822 -0.253544 -0.396355 -0.0604449 -1.45821 -0.0705906 0.557734 -0.202067 1.04916 -3.77065
2841 -0.0267102 0.268271 -0.347273 -0.182196 -1.60052 -0.790147 0.598457 -0.416114 0.506507 -3.90137
2990 0.0152433 0.463107 -0.202908 -0.198051 -1.86169 -1.32017 0.729865 -0.540927 0.604258 -5.15841
1751 -0.0589263 -0.051423 -0.87923 -0.0368044 -1.71773 -0.15803 0.405874 -0.25695 1.55599 -3.76878
83 -0.0106731 0.0356866 -1.144 -0.0910163 -1.87141 -0.171091 0.510398 -0.327643 1.75852 -4.30044
1369 -0.0304307 -0.0357866 -0.914873 -0.00248272 -1.76488 -0.348127 0.319662 -0.206362 2.02235 -4.17935
21 -0.133367 -0.00211725 -0.927012 -0.0800202 -1.88855 -0.232664 0.332803 -0.30305 1.56806 -4.0411
1587 0.0127216 0.191931 -0.514156 -0.216147 -1.93956 -0.255091 0.370341 -0.183307 1.25322 -5.13332
1613 0.00557932 0.179381 -0.499809 -0.185153 -1.98386 -0.195668 0.414091 -0.218785 1.0778 -5.00496
1384 -0.0177601 -0.276368 -0.512936 -0.057188 -1.6026 0.123826 0.751611 -0.246737 1.19291 -4.06586
1381 -0.0809612 -0.266252 -0.436229 -0.0484796 -1.5702 0.0845492 0.722846 -0.250928 1.21211 -4.01161
1645 0.0482568 0.184255 -0.437071 -0.194165 -1.99942 -0.348534 0.359466 -0.148277 1.23344 -5.32509
935 -0.0397273 0.17086 -0.485768 -0.192576 -1.9975 -0.250607 0.390216 -0.203655 1.1607 -5.173
760 0.0970192 0.135957 -0.40107 -0.218906 -2.05098 -0.200462 0.301628 -0.196666 0.979241 -4.9327
1618 -0.0382596 0.181715 -0.4676 -0.21664 -2.06908 -0.255208 0.385947 -0.230029 1.31487 -5.28826
1596 -0.00673417 0.220579 -0.515046 -0.172353 -1.96541 -0.23374 0.34968 -0.201517 1.21675 -5.1669
1591 0.0485648 0.211406 -0.311552 -0.135531 -1.77281 -0.399109 0.300336 -0.131873 1.15649 -4.79295
1619 0.00785654 0.215303 -0.445546 -0.220846 -2.05081 -0.386908 0.311944 -0.180299 1.3164 -5.12686
1547 -0.0210177 0.215182 -0.429332 -0.167901 -1.99197 -0.287493 0.412507 -0.229706 1.13598 -5.0002
1560 -0.0697057 0.210592 -0.502231 -0.18069 -2.08088 -0.314635 0.378054 -0.202171 1.33613 -5.26591
1592 -0.00952223 0.17999 -0.403784 -0.142439 -1.95221 -0.304984 0.361023 -0.204901 1.32461 -4.94154
3663 -0.0222561 0.24311 -0.453511 -0.193583 -1.97187 -0.367861 0.398532 -0.227211 1.34646 -5.13879
1295 0.0259016 0.215202 -0.414229 -0.218951 -2.04912 -0.292182 0.403466 -0.235906 1.22936 -5.14377
1919 0.51483 0.0288234 -0.232968 -0.28746 -2.27794 -0.737824 0.506864 -0.43759 1.50435 -4.84467
5124 0.475771 -0.0198946 -0.109205 -0.310369 -2.15733 -0.697717 0.429552 -0.356897 1.33819 -4.62534
1905 0.45774 -0.0571231 -0.247234 -0.276708 -2.1124 -0.607078 0.443188 -0.383872 1.47449 -4.51372
4925 0.459367 0.0281934 -0.13434 -0.303771 -2.11877 -0.616039 0.437984 -0.376116 1.35601 -4.52924
1910 0.50097 0.0221143 -0.126565 -0.322233 -2.20299 -0.692817 0.501734 -0.398024 1.53444 -4.81273
4439 0.454915 -0.0280318 -0.158843 -0.274533 -2.11577 -0.593275 0.522185 -0.406799 1.46703 -4.63924
384 0.400421 -0.0791859 -0.333472 -0.271329 -2.08939 -0.42432 0.397567 -0.379545 1.3235 -4.3062
5262 0.466069 -0.000312828 -0.182879 -0.291832 -2.11878 -0.59922 0.440498 -0.41518 1.40259 -4.51699
774 -0.0145379 0.193111 -0.358763 -0.180553 -1.97091 -0.283244 0.490573 -0.252717 1.07909 -5.00927
1644 -0.0590754 0.211263 -0.469369 -0.197315 -2.07043 -0.261879 0.401676 -0.235448 1.22309 -5.3548
1563 -0.0289142 0.0712328 -0.69459 -0.214331 -2.21911 -0.0291624 0.0871699 -0.16388 1.53575 -5.03303
5212 -0.143973 0.0486344 -0.264998 -0.197761 -1.29195 -0.292224 0.0484905 -0.185578 0.893563 -2.34735
796 -0.0802816 0.092895 -0.58766 -0.216465 -1.98319 -0.541655 0.126874 -0.283518 1.2586 -3.84673
826 0.0820567 -0.175369 -0.466608 -0.458539 -1.91347 -0.61467 0.216609 -0.630166 1.03288 -4.04079
662 -0.0671753 -0.161439 -0.486559 -0.42913 -1.9332 -0.657747 0.272116 -0.576584 1.24263 -3.97391
357 -0.192022 -0.0642761 0.0208655 -0.501251 -1.99156 -0.865348 0.457653 -0.632779 1.27898 -4.17435
4446 -0.130137 -0.112447 -0.636233 -0.235514 -1.70607 -0.330243 0.226773 -0.260146 0.659657 -3.6951
663 -0.13992 0.0552223 -0.647918 -0.202401 -1.95956 -0.473064 0.239981 -0.260962 0.630934 -4.11689
3933 -0.166429 0.0700093 -0.532471 -0.19479 -1.80149 -0.514195 0.327065 -0.238546 0.414783 -4.06116
4869 -0.250765 0.0639599 -0.45666 -0.194857 -1.68705 -0.482022 0.242109 -0.207061 0.404406 -3.79251
4290 -0.207591 -0.000383112 -0.463012 -0.283328 -1.86137 -0.35936 0.260981 -0.30948 0.515325 -3.76195
222 0.174451 -0.165747 -0.5908 -0.164341 -1.90327 -0.00641599 0.341267 -0.233987 0.727817 -4.08786
706 -0.226698 -0.0715215 -0.862694 -0.107146 -1.8127 -0.309132 0.324111 -0.350812 0.968227 -3.96639
710 -0.151601 0.0412295 -0.740943 -0.160324 -1.84406 -0.622821 0.336259 -0.37493 0.925736 -4.09693
972 -0.0381285 -0.183035 -0.854888 -0.235455 -1.83612 -0.274301 -0.0659157 -0.205715 0.936118 -3.73038
5221 0.113089 -0.0154566 -0.380885 0.00786082 -1.34156 -0.318093 0.424985 -0.187206 0.548797 -3.48873
639 0.180587 -0.141439 -0.519715 -0.0197267 -1.44883 -0.455194 0.318595 -0.0865433 0.841289 -3.85298
3561 -0.237345 -0.020506 -0.267033 -0.135448 -1.50962 -0.408543 0.348319 -0.201728 0.416119 -3.65853
287 0.301401 0.125996 -1.38025 -0.0160297 -2.01374 -0.587544 0.290578 -0.311381 1.04373 -5.39111
1433 -0.16891 0.101636 -0.774541 -0.171367 -1.79345 -0.687698 0.438888 -0.349753 0.94304 -4.14857
133 -0.198626 0.0729826 -0.680209 -0.199569 -1.90163 -0.569766 0.188978 -0.286167 0.994033 -3.87944
1698 -0.149502 0.0406517 -0.686988 -0.305248 -2.0112 -0.506577 -0.0352847 -0.246648 0.791499 -3.92651
703 -0.221198 0.0206165 -0.66423 -0.347228 -2.05928 -0.414504 -0.0518824 -0.228793 0.767763 -3.94766
475 -0.119061 -0.0542397 -0.619372 -0.23473 -1.8067 -0.638407 0.0254484 -0.177938 0.885715 -4.02616
1697 -0.144916 0.0783141 -0.7095 -0.129515 -1.68991 -0.535192 0.341915 -0.350753 0.638098 -3.97128
727 -0.152326 0.0328296 -0.647635 -0.218698 -1.79144 -0.485996 0.171853 -0.286682 0.707744 -3.68115
33 -0.155217 0.0288545 -0.748902 -0.224341 -2.00963 -0.489188 0.206498 -0.36135 0.90093 -4.14396
1196 -0.0815374 0.0654881 -0.80254 -0.376642 -2.22024 -0.525502 -0.0389285 -0.331762 0.930658 -4.22812
1207 -0.0975278 0.0772687 -0.713573 -0.350942 -2.2045 -0.35893 0.0390202 -0.395813 0.933335 -3.95638
1154 -0.115098 -0.0249194 -0.738429 -0.240749 -1.95367 -0.313513 0.267342 -0.39522 0.883682 -3.85931
2187 0.0135769 -0.0816438 -0.304531 -0.282093 -1.83847 -0.958461 -0.105963 -0.13344 0.837913 -4.57088
2203 -0.209267 -0.16424 -0.387081 -0.168483 -1.6407 -0.688975 0.212525 -0.141153 0.918551 -4.49504
1931 -0.161679 -0.141151 -0.41113 -0.179196 -1.63935 -0.630155 0.182035 -0.178283 0.786152 -4.2841
2180 -0.144615 -0.178592 -0.429349 -0.166626 -1.70678 -0.664168 0.172342 -0.134178 0.839787 -4.4459
419 -0.0148061 -0.114809 -0.52666 -0.135027 -1.49804 -0.85612 0.241735 -0.227664 1.06053 -4.1091
5095 -0.158098 -0.138349 -0.443713 -0.168266 -1.70313 -0.656404 0.117706 -0.0975874 0.715956 -4.43809
2179 -0.15636 -0.158973 -0.379888 -0.135747 -1.67205 -0.614621 0.208323 -0.11146 0.859535 -4.4644
3970 -0.0328335 -0.354936 -0.747409 -0.0419134 -1.48415 -0.107474 0.674586 -0.437456 1.49068 -3.96763
858 -0.336072 -0.165324 -0.731086 -0.0898752 -1.55496 0.018512 0.689141 -0.44073 1.41358 -4.11852
35 -0.353966 -0.186445 -0.768961 -0.0835492 -1.66989 -0.139381 0.851151 -0.557456 1.50105 -4.39004
859 -0.2106 -0.217668 -0.679788 -0.0208473 -1.51217 -0.0299677 0.820959 -0.441321 1.4836 -4.23321
2541 -0.258594 -0.190431 -0.475705 -0.0747866 -1.32772 0.00895356 0.744356 -0.341425 1.24616 -3.46851
982 -0.361985 -0.211342 -0.797824 -0.0349189 -1.63913 -0.0478433 0.903004 -0.4414 1.62024 -4.56683
4197 -0.186552 -0.211834 -0.546809 0.024476 -1.17993 0.0288703 0.787271 -0.406362 1.26697 -3.38921
600 -0.163163 -0.325696 -0.404143 -0.0735059 -1.47973 -0.0835378 0.801837 -0.364791 1.29491 -4.00759
604 -0.0788567 -0.19193 -0.148957 -0.107258 -1.49483 -0.109862 0.722592 -0.229978 1.17779 -4.14698
32 -0.321166 -0.0560423 -0.676346 -0.115609 -1.55377 -0.177666 0.542774 -0.397223 0.995892 -3.84465
860 -0.303263 -0.0312831 -0.54635 -0.0929628 -1.28241 -0.130637 0.533194 -0.270795 1.01156 -3.19968
34 -0.27105 -0.0675677 -0.826404 -0.0668 -1.71695 -0.348615 0.500319 -0.363736 1.06062 -4.1402
5014 -0.26767 -0.0667718 -0.553501 -0.167149 -1.28167 -0.197492 0.176108 -0.176789 0.533253 -3.01214
2752 -0.123562 -0.00711461 -0.670981 -0.392159 -2.06811 -0.491936 -0.0196011 -0.281821 0.883624 -3.99511
713 -0.0676925 -0.0485537 -0.617536 -0.265087 -1.87273 -0.482164 0.156194 -0.295383 0.834963 -3.84934
529 -0.117857 0.377266 -0.758701 -0.437106 -2.71225 -1.20676 -0.274024 -0.290376 1.59512 -5.31885
1875 -0.142248 0.348375 -0.524233 -0.343527 -2.38384 -0.948566 -0.093569 -0.33894 1.4867 -4.56455
2127 -0.39749 0.13047 -0.345738 -0.0940739 -1.37096 -0.656919 0.745601 -0.323239 1.41258 -3.61685
3481 -0.400075 0.106538 -0.32532 -0.131379 -1.3585 -0.382028 0.611307 -0.287239 0.948752 -3.50416
4529 -0.0014488 -0.0559204 -0.482199 -0.195978 -1.61828 -0.0565681 0.0494679 -0.134061 1.18919 -3.31604
392 0.221943 -0.0509152 -0.464186 -0.223833 -1.92616 -0.29936 0.238659 -0.255605 1.61888 -3.89731
5091 -0.159241 -0.221628 -0.574298 -0.184747 -1.60869 -0.149295 0.160175 -0.213079 0.832262 -3.6062
1005 -0.1594 -0.216852 -0.384768 -0.114717 -1.58947 -0.421438 0.377418 -0.210856 1.04818 -4.00276
111 -0.0525197 -0.120045 -0.770979 -0.144248 -1.67314 -0.238182 0.408004 -0.297593 0.90484 -3.86986
1693 -0.146017 0.0742596 -0.660286 -0.264128 -1.82749 -0.733941 0.35633 -0.38442 0.758951 -4.09658
562 -0.18413 0.0725052 -0.649035 -0.113159 -1.718 -0.580121 0.391761 -0.296438 0.598972 -4.0316
2568 -0.0935568 -0.0035676 -0.527237 -0.184186 -1.78125 -0.455063 0.335037 -0.335299 0.550511 -3.88369
1316 0.0229615 -0.00319176 -0.538741 -0.239733 -1.97307 -0.46463 0.303786 -0.293601 0.730679 -3.96419
1765 -0.175989 -0.0132195 -0.498931 -0.0991454 -1.38471 -0.160373 0.423391 -0.188746 0.484903 -3.08132
1299 -0.177414 0.0338638 -0.805786 -0.0971382 -1.66357 -0.273019 0.363864 -0.320899 0.71157 -3.60573
149 -0.142412 0.110263 -0.826723 -0.0439518 -1.75562 -0.454346 0.576653 -0.300595 0.893336 -4.07934
121 -0.0756345 0.152314 -0.764934 -0.19404 -1.94321 -0.588065 0.393155 -0.405802 0.996866 -4.15514
3093 -0.141522 0.0762415 -0.51457 -0.200663 -1.75039 -0.449324 0.313919 -0.28285 0.670698 -3.46553
5046 -0.0361243 0.259309 -0.307848 -0.208954 -1.65656 -0.701149 0.590975 -0.421256 0.477504 -3.73365
326 -0.123849 0.149384 -0.19851 -0.150061 -1.58925 -0.774012 0.773139 -0.466708 0.485585 -4.14257
3723 -0.117462 0.148779 -0.274675 -0.233265 -1.71453 -0.508544 0.825466 -0.486123 0.439908 -4.10405
328 -0.102182 0.0605668 -0.681414 -0.157503 -1.81453 -0.375018 0.775331 -0.451054 0.576328 -4.08666
325 0.0277804 0.108416 -0.486539 -0.213258 -1.87429 -0.515552 0.703197 -0.545662 0.526659 -4.21976
1340 0.440558 -0.184737 -0.657307 -0.225439 -2.25453 0.035317 0.304541 -0.30179 0.897653 -4.73561
2534 0.19526 -0.0778642 -0.434501 -0.157179 -1.70122 -0.0818692 0.309738 -0.210815 0.544411 -3.96426
1367 -0.085804 0.153061 -0.599789 -0.108246 -1.83978 -0.219886 0.302809 -0.17609 1.57147 -4.66752
1758 0.0945817 -0.0673735 -0.21795 -0.344523 -2.01296 -0.0581801 0.10957 -0.235326 0.680026 -3.97832
850 0.319105 -0.0385378 -0.0773312 -0.334636 -2.0728 -0.381594 0.308859 -0.335404 0.931935 -4.26698
1575 -0.00492738 0.192386 -0.45689 -0.189187 -2.02422 -0.31871 0.394863 -0.244605 1.31134 -5.15035
1585 -0.0218388 0.202951 -0.437987 -0.20349 -2.04504 -0.300897 0.367922 -0.189966 1.19337 -5.26492
428 -0.0904315 0.0607939 0.125195 -0.317765 -1.82343 -0.343781 0.747223 -0.469556 0.748184 -4.11258
431 -0.0283951 0.00830029 0.148533 -0.289533 -1.75682 -0.303061 0.59382 -0.414871 0.777847 -3.97989
2284 0.357375 -0.269133 -0.522699 -0.0138231 -1.46268 -0.356925 0.35811 -0.0478332 0.693195 -4.37496
1062 -0.0280951 -0.183235 -0.451137 -0.0512231 -1.52605 -0.599593 0.204015 -0.0693738 0.964138 -4.295
2146 -0.128615 -0.181824 -0.423385 -0.219617 -1.7812 -0.724816 0.145641 -0.166748 0.865707 -4.41916
2205 -0.17448 -0.164459 -0.429871 -0.194243 -1.6553 -0.673722 0.148256 -0.111097 0.919204 -4.45037
2737 -0.192072 -0.125349 -0.406771 -0.176272 -1.69167 -0.617677 0.0944747 -0.138645 0.755492 -4.3153
2200 -0.174857 -0.190408 -0.461281 -0.146929 -1.70394 -0.63257 0.137753 -0.115668 0.877155 -4.51971
2213 -0.198381 -0.0660147 -0.212679 -0.115452 -1.04125 -0.170483 0.153606 -0.0566315 0.229759 -2.31401
2201 -0.142516 -0.205524 -0.40058 -0.141267 -1.69825 -0.67265 0.153579 -0.116461 0.810176 -4.55782
2143 -0.135085 -0.144323 -0.328227 -0.220231 -1.73591 -0.661687 0.184582 -0.211221 0.73493 -4.32412
2185 -0.163705 -0.137754 -0.396944 -0.201024 -1.70379 -0.686159 0.150976 -0.135223 0.833279 -4.45725
2181 -0.240574 -0.110941 -0.379625 -0.197475 -1.67881 -0.689593 0.188543 -0.116458 0.776092 -4.36236
2169 -0.0537236 -0.163471 -0.347018 -0.160332 -1.67594 -0.678942 0.116981 -0.128234 0.803313 -4.31041
2147 -0.179002 -0.108626 -0.360853 -0.160591 -1.68058 -0.745503 0.112803 -0.137996 0.808373 -4.40336
1056 -0.124031 -0.226009 -0.443832 -0.119397 -1.59435 -0.566285 0.232683 -0.0985917 1.07137 -4.30976
1011 0.0297339 -0.209349 -0.392567 -0.0991638 -1.51777 -0.529267 0.247011 -0.0722167 0.997247 -4.20685
590 0.13971 -0.271261 -0.384198 -0.0499881 -1.39607 -0.290987 0.513974 -0.16898 1.00812 -3.96043
790 0.0818238 -0.107538 -0.190797 -0.067992 -1.46869 -0.142161 0.815419 -0.289229 0.515239 -3.98645
789 0.0906058 -0.0367287 -0.191955 -0.104903 -1.61379 -0.212078 0.97232 -0.383885 0.585234 -4.12425
771 0.12801 -0.0658645 -0.0959411 -0.0793875 -1.64146 -0.194421 0.918441 -0.332773 0.691573 -4.4131
191 0.210884 -0.0925355 -0.414663 -0.0702238 -1.64359 -0.0212088 0.773767 -0.315099 0.649465 -4.16457
216 0.126811 -0.180337 -1.04019 -0.194014 -2.11918 -0.102665 0.751898 -0.58364 0.738008 -5.14907
255 0.281479 0.159295 -1.43583 0.0362916 -2.04112 -0.639127 0.324952 -0.27626 1.21949 -5.43652
2560 -0.0550561 0.0589726 -0.92964 0.0344684 -1.69394 -0.322907 0.966138 -0.439012 0.926156 -4.41105
5248 -0.134282 0.048906 -1.12344 0.0170303 -1.8712 -0.15684 0.941448 -0.511939 0.744335 -4.62196
14 -0.106821 -0.00954976 -0.959168 -0.0896225 -1.83991 -0.420207 0.522681 -0.401055 0.777501 -4.34405
3932 -0.265534 0.00236753 -0.483446 -0.300873 -1.8667 -0.393446 0.158651 -0.261747 0.54523 -3.65539
1663 -0.18626 0.0844985 -0.749897 -0.0572716 -1.79057 -0.546267 0.460499 -0.266493 0.752166 -3.97976
836 -0.0170626 -0.0486523 -0.953805 -0.0983453 -1.77187 -0.509446 0.377505 -0.332159 0.910874 -4.25129
148 -0.250149 0.076326 -0.747552 -0.0770837 -1.65306 -0.573544 0.646334 -0.410208 0.720059 -4.12651
147 -0.0591855 0.100478 -0.767767 -0.0665423 -1.82326 -0.608236 0.61457 -0.392811 0.790836 -4.22348
177 -0.105379 0.269404 -0.357756 -0.247813 -1.75985 -0.864557 0.41236 -0.390932 0.560761 -3.96468
5239 -0.131865 0.011051 -0.167778 -0.21813 -1.2077 -0.304451 0.149859 -0.293176 0.491831 -2.43821
1203 -0.190379 -0.0814125 -0.699196 -0.108178 -1.70307 -0.249886 0.4392 -0.433229 0.599371 -3.84269
48 -0.0375337 -0.0234157 -0.687062 -0.15421 -1.68159 -0.672732 0.501548 -0.420224 0.962036 -3.93762
418 -0.140476 -0.146888 -0.60061 0.0299221 -1.29736 -0.373151 0.386413 -0.110039 1.12238 -3.78066
67 -0.0899008 0.0225502 -0.913662 -0.0885813 -1.78084 -0.523977 0.418292 -0.324644 0.85234 -4.12631
97 -0.1956 -0.00330289 -0.871241 -0.127785 -1.85697 -0.409162 0.301661 -0.377908 0.899551 -4.04617
1188 -0.21171 -0.070739 -1.08227 -0.134464 -1.88554 -0.177448 0.53908 -0.475817 0.897108 -4.1984
1633 0.0108359 0.147518 -0.565321 -0.191604 -2.02206 -0.146516 0.300094 -0.202453 1.31083 -4.98534
1571 -0.0415982 0.174124 -0.476791 -0.217817 -2.02154 -0.254121 0.378376 -0.212071 1.34734 -5.09224
1638 -0.0489509 0.241881 -0.467404 -0.178975 -2.05283 -0.331021 0.377851 -0.240822 1.31493 -5.25476
2420 -0.189711 0.0881293 -0.398393 -0.150654 -1.60457 -0.517166 0.214228 -0.0827863 0.302199 -3.74039
422 0.0302548 -0.0275247 -0.466438 -0.178933 -1.84808 -0.145541 0.359804 -0.286782 0.776173 -3.72133
1059 -0.03775 -0.228294 -0.585501 0.0491229 -1.46084 -0.497332 0.390823 -0.0994135 1.22687 -4.25133
1045 -0.0809567 -0.215931 -0.415227 -0.102042 -1.61798 -0.617168 0.24253 -0.0558077 1.13223 -4.47187
3960 -0.265373 -0.112857 -0.0949356 -0.298537 -1.84292 -0.391315 0.355451 -0.300125 0.842803 -4.05257
4303 -0.0807908 -0.189875 -0.248222 -0.230138 -1.37227 -0.222515 0.249333 -0.226442 0.811988 -3.14634
2016 -0.527477 -0.126241 -0.432613 -0.283113 -1.94457 -0.21333 0.350448 -0.372624 0.993085 -4.07439
823 -0.540708 -0.123471 -0.474048 -0.362356 -2.07106 -0.143875 0.19078 -0.384472 0.676935 -4.14021
2009 -0.601936 -0.135569 -0.518841 -0.334818 -2.24095 -0.0881833 0.189922 -0.363705 0.905686 -4.51028
597 -0.398308 -0.195847 -0.306805 -0.363901 -2.01886 -0.133028 0.27367 -0.373872 0.786615 -4.23453
1844 -0.0166484 -0.00482274 -0.780215 -0.0561293 -1.63593 -0.519398 0.25072 -0.214885 0.715121 -3.99795
3918 0.109676 0.102806 -0.498942 -0.0732508 -1.5765 -0.622802 0.434485 -0.300248 0.522713 -3.81601
2517 0.0190399 0.106912 -0.324414 -0.19946 -1.59552 -0.736119 0.531869 -0.330488 0.476937 -3.83172
474 -0.123841 0.0946251 -0.605498 -0.17611 -1.70494 -0.778402 0.487327 -0.334559 0.599879 -4.10978
472 -0.0704311 0.107736 -0.518034 -0.144784 -1.63941 -0.803756 0.612139 -0.378034 0.71469 -4.02658
333 -0.15142 0.01659 -0.693728 -0.176635 -1.7313 -0.758329 0.463404 -0.361684 0.791823 -4.08188
36 -0.181669 0.0800961 -0.758639 -0.12288 -1.80857 -0.630906 0.327317 -0.325919 0.921861 -4.10953
1095 -0.171889 -0.0137859 -0.894719 -0.0730392 -1.63628 -0.526972 0.528087 -0.367049 0.949968 -4.05919
1314 -0.359683 -0.00265421 -0.722957 -0.0705043 -1.49059 -0.4022 0.450632 -0.277073 0.860884 -3.63217
1157 -0.175581 0.0390671 -0.728557 -0.148997 -1.73923 -0.643151 0.365993 -0.291742 0.820434 -3.94734
1526 -0.0410868 -0.0991092 -0.276776 -0.487997 -1.94809 -0.79514 0.275866 -0.636825 1.10436 -3.9772
864 -0.0447616 -0.179749 -0.404722 -0.452183 -1.96695 -0.744705 0.297259 -0.640144 1.30779 -4.1544
1536 -0.0784856 -0.174136 -0.413568 -0.454653 -1.87846 -0.597305 0.324692 -0.608057 1.23147 -3.89045
1522 -0.193104 -0.0691751 -0.333127 -0.293899 -1.57867 -0.697544 0.467975 -0.479516 1.0406 -3.80822
956 -0.264365 0.0677644 -0.415166 -0.278313 -1.65751 -0.781332 0.688849 -0.611497 1.73835 -4.08453
944 -0.508495 0.0981938 -0.441228 -0.136871 -1.56592 -0.871844 0.785499 -0.426119 1.78666 -4.48718
3746 0.0384705 -0.0528843 -0.49294 -0.0925717 -1.48228 -0.59083 0.377103 -0.30392 1.0504 -3.31125
3434 0.184445 0.0558243 -0.694862 -0.0258995 -1.33619 -0.800684 0.472005 -0.299044 1.41686 -3.59227
4377 -0.293946 0.0331624 -0.844072 -0.0459828 -1.53802 -0.442401 0.568484 -0.280847 0.94276 -3.85432
78 -0.19562 -0.045986 -0.248798 -0.110157 -1.46653 -0.342486 0.771754 -0.371046 0.812967 -3.71906
356 -0.140204 -0.0201434 -0.0986705 -0.264767 -1.70049 -0.602069 0.360184 -0.241649 0.543944 -3.97601
2176 -0.16788 -0.159925 -0.436443 -0.144205 -1.69584 -0.689281 0.142089 -0.0799708 0.872625 -4.55509
1041 -0.10291 -0.177928 -0.437166 -0.0468802 -1.55807 -0.566441 0.284922 -0.0315616 1.12097 -4.39983
4854 -0.0807073 -0.121925 -0.403133 -0.225597 -1.70916 -0.239139 0.204376 -0.212182 0.600837 -3.47761
692 0.193523 0.0639312 -0.142674 -0.165402 -1.40927 -0.547635 0.318624 -0.169825 0.591892 -3.54126
690 0.134255 0.0384868 -0.166776 -0.222465 -1.61085 -0.528864 0.485337 -0.322664 0.655022 -3.61328
684 0.3016 0.045683 -0.257906 -0.2106 -1.54017 -0.680356 0.419455 -0.310779 0.892711 -3.64748
500 0.420335 0.0192892 -0.325558 -0.241243 -1.80331 -0.777057 0.374727 -0.355731 1.28287 -3.93768
2151 0.0767327 -0.102115 -0.336666 -0.270219 -1.7982 -0.3573 0.0836778 -0.238537 0.556941 -3.75265
2155 -0.0763526 -0.151295 -0.43439 -0.192373 -1.7276 -0.667506 0.0528156 -0.131352 0.802776 -4.44086
1039 -0.0216399 -0.204201 -0.424063 -0.091481 -1.5473 -0.586771 0.235112 -0.13121 1.0107 -4.24362
1415 -0.140123 -0.16679 -0.552838 -0.146178 -1.48667 -0.397581 0.444195 -0.320215 1.03749 -3.57257
47 0.172438 -0.211925 -0.334908 -0.202926 -1.51563 -0.576333 0.304884 -0.28564 1.09331 -3.86996
2293 0.15896 -0.250281 -0.419156 -0.0275423 -1.4101 -0.49508 0.375419 -0.0964588 0.974584 -4.09829
2192 -0.151613 -0.198659 -0.417508 -0.184556 -1.6755 -0.679654 0.164057 -0.134734 0.838373 -4.58573
1047 0.00918203 -0.239012 -0.484231 -0.0881021 -1.50686 -0.558391 0.245556 -0.0582035 1.04697 -4.31107
2208 -0.0409023 -0.0763873 -0.306644 -0.222193 -1.7523 -0.867992 -0.0253104 -0.125299 0.935926 -4.50158
2384 -0.259801 -0.201239 -0.553044 -0.102732 -1.44357 -0.272018 0.291349 -0.26024 1.19975 -3.42592
4779 -0.113403 -0.129119 -0.74276 -0.119247 -1.78106 -0.20561 0.153424 -0.151867 1.57123 -3.92617
971 -0.140383 -0.115478 -0.741108 -0.105693 -1.67575 -0.0262194 0.251852 -0.100717 1.34425 -3.48092
414 -0.0102418 -0.151969 -0.748866 -0.0391954 -1.44352 -0.406225 0.184266 -0.171569 0.976739 -3.69582
4814 0.136974 -0.161652 -0.367597 -0.173251 -1.35345 -0.458022 0.250713 -0.294345 1.09665 -3.29228
1417 0.208338 -0.221749 -0.388506 -0.156327 -1.47498 -0.589597 0.280767 -0.244422 1.03782 -3.93379
1206 -0.288144 -0.10976 -0.434531 -0.146414 -1.54983 -0.26667 0.431565 -0.245625 0.99275 -3.68931
999 -0.169597 -0.246019 -0.542387 -0.0453535 -1.52777 0.154745 0.773111 -0.337295 1.35621 -4.10599
2720 0.220873 -0.0869635 -0.294387 -0.0997443 -1.50626 -0.245102 0.467779 -0.186406 1.14413 -3.59983
1342 -0.0441711 -0.0314392 -0.842629 -0.113206 -1.67639 -0.154036 0.566296 -0.417968 0.826061 -3.84202
77 0.115704 -0.185259 -0.808643 -0.118132 -1.80224 -0.0213496 0.303782 -0.324429 1.26351 -3.81614
3471 0.474577 -0.219111 -0.634199 -0.190101 -2.25584 0.00886425 0.281567 -0.205317 1.01331 -4.91699
2312 0.433354 -0.198292 -0.705674 -0.252548 -2.27905 0.063838 0.249711 -0.357788 0.906275 -4.806
1906 0.531973 -0.123665 -0.396437 -0.324701 -2.19868 -0.321651 0.327405 -0.345529 1.21423 -4.70337
1913 0.419537 -0.00679067 -0.107163 -0.294075 -2.01266 -0.665376 0.427925 -0.369276 1.20811 -4.34809
1128 0.297238 -0.136144 -0.200599 -0.23279 -1.58741 -0.345143 0.254399 -0.219576 0.841529 -3.50593
517 0.0755704 0.0184356 -0.368717 -0.201111 -1.74504 -0.18398 0.276713 -0.299801 0.649763 -3.66257
1294 0.0339099 0.0459258 -0.26479 -0.156648 -1.68765 -0.317461 0.33787 -0.209708 0.712749 -3.82336
1302 0.180397 0.0560367 -0.356631 -0.25976 -1.84453 -0.160875 0.135137 -0.188469 0.649683 -3.95628
1570 -0.00612453 0.187555 -0.454269 -0.143127 -1.93987 -0.293544 0.426933 -0.210956 1.1559 -4.99111
1565 -0.0608003 0.21572 -0.404998 -0.169142 -1.88143 -0.306739 0.39124 -0.208248 1.19853 -4.91496
1579 -0.0444904 0.237976 -0.489316 -0.192768 -2.09056 -0.291322 0.400241 -0.212124 1.35455 -5.265
1548 0.0475148 0.147083 -0.441029 -0.202819 -2.04973 -0.229374 0.394694 -0.209823 1.16242 -5.15956
3920 -0.0816256 0.209361 -0.490692 -0.202967 -2.11483 -0.258604 0.397639 -0.236337 1.26058 -5.26869
1607 -0.042841 0.227902 -0.520455 -0.167635 -2.01998 -0.29098 0.409164 -0.231474 1.23668 -5.27363
1584 -0.0218251 0.184638 -0.459361 -0.152854 -2.01949 -0.236474 0.411481 -0.207334 1.25636 -5.21921
1685 -0.0346042 -0.0386291 -0.0240206 -0.117203 -1.73611 -0.228479 1.14387 -0.406509 0.976785 -4.63059
3906 0.408921 -0.00579093 -0.171996 -0.308199 -2.08471 -0.596415 0.498654 -0.439086 1.20163 -4.4699
1917 0.525123 0.00226407 -0.174261 -0.347736 -2.2422 -0.693672 0.519475 -0.46636 1.49915 -4.81449
2946 0.44385 -0.0133532 -0.102786 -0.351874 -2.10584 -0.654542 0.49078 -0.481164 1.28585 -4.47747
3813 0.488062 -0.0306136 -0.196125 -0.268738 -2.12326 -0.60649 0.392642 -0.366654 1.35464 -4.51958
1921 0.532902 0.00701322 -0.180495 -0.275786 -2.1391 -0.686003 0.500486 -0.378464 1.3724 -4.78045
3467 0.478885 -0.170299 -0.653725 -0.195316 -2.23236 -0.061612 0.211441 -0.198055 1.04568 -4.80847
3392 0.489486 -0.197779 -0.579801 -0.246036 -2.1539 -0.0383643 0.407973 -0.291198 0.874557 -4.8031
1909 0.488788 -0.0491693 -0.293958 -0.272988 -2.09518 -0.422675 0.44794 -0.360431 1.07554 -4.60774
1915 0.51884 -0.00756236 -0.218058 -0.292841 -2.23441 -0.634824 0.448406 -0.405554 1.45632 -4.80857
433 0.381222 0.0380295 -0.0329331 -0.282839 -2.05773 -0.536189 0.562125 -0.492157 1.32364 -4.50745
1453 -0.178106 -0.0447201 0.0298367 -0.288013 -1.83927 -0.200972 0.838249 -0.474212 0.722958 -4.05209
4586 -0.135227 -0.017304 0.161808 -0.295995 -1.84709 -0.173261 0.779676 -0.452465 0.667557 -4.0976
1451 -0.0679279 -0.0411682 0.0457053 -0.286673 -1.83861 -0.246527 0.634252 -0.430434 0.596249 -3.9167
437 -0.0898125 -0.0341671 0.0356363 -0.284621 -1.86912 -0.271606 0.743252 -0.464293 0.740625 -4.13099
1598 0.0967589 0.164427 -0.442899 -0.175934 -2.08121 -0.243957 0.373162 -0.20366 1.23329 -5.13158
4763 -0.0309763 0.00908617 -0.787056 -0.0293475 -1.44888 -0.359909 0.292072 -0.247946 0.621055 -3.43193
286 0.234659 0.076212 -1.23119 -0.0913824 -1.83221 -0.655032 0.223863 -0.385516 1.0132 -4.73471
252 0.234587 0.0943592 -1.44996 0.00290406 -2.03383 -0.624719 0.28361 -0.263921 1.14468 -5.42546
278 0.230548 0.123108 -1.50934 -0.0357695 -2.10903 -0.574278 0.302688 -0.306627 1.14271 -5.5369
250 0.251638 0.101545 -1.47841 -0.0159679 -2.02361 -0.675511 0.187834 -0.2532 1.20339 -5.47997
247 0.222018 0.05886 -1.5219 -0.0221369 -2.03166 -0.479186 0.26442 -0.28594 1.06294 -5.40523
282 0.245473 0.134822 -1.40354 -0.024814 -2.10638 -0.681693 0.239466 -0.279272 1.0716 -5.4486
499 0.255019 0.0987817 -1.46744 -0.0402432 -2.04187 -0.602877 0.329474 -0.3274 1.13801 -5.47298
221 -0.0156198 -0.0900749 -1.2481 -0.00919756 -1.95682 0.0733313 0.29353 -0.267931 0.242355 -4.73463
242 0.103599 0.0468556 -1.25832 0.0214378 -1.9005 -0.493068 0.396298 -0.310544 1.08534 -4.74135
642 -0.13514 0.00131735 -0.7495 -0.0905164 -1.62611 -0.587764 0.49606 -0.336487 0.88483 -4.00432
2842 -0.0126461 0.126607 -0.30645 -0.123504 -1.53654 -0.629286 0.519817 -0.371892 0.555456 -3.65341
2927 -0.109324 0.112946 -0.269149 -0.243546 -1.62768 -0.677099 0.449459 -0.358897 0.567758 -3.71261
4085 -0.0760215 0.0220163 -0.596369 -0.0913456 -1.45879 -0.304731 0.475715 -0.256465 0.841893 -3.31417
145 -0.173132 0.13826 -0.945792 -0.080178 -1.9643 -0.68326 0.43311 -0.35829 1.03521 -4.54126
152 -0.247071 0.0933705 -0.830709 -0.10297 -1.88403 -0.576406 0.431447 -0.320126 0.801451 -4.20186
533 -0.131031 0.111196 -0.442724 -0.129484 -1.64335 -0.591127 0.371566 -0.292286 0.568885 -3.92907
1169 -0.18083 -0.0598168 -0.751029 -0.146547 -1.81888 -0.309848 0.293055 -0.226236 0.845011 -3.88025
1166 -0.249197 0.110099 -0.678813 -0.132212 -1.77784 -0.528209 0.329874 -0.168175 0.825012 -3.97375
1163 -0.139617 0.120089 -0.650082 -0.247805 -1.99841 -0.620177 0.267879 -0.281403 0.917695 -4.06569
3522 -0.014911 0.20199 -0.332563 -0.186323 -1.64452 -0.745284 0.532724 -0.418424 0.629838 -3.72116
2932 -0.097959 -0.234537 -0.444054 -0.546118 -2.17898 -0.190612 0.00272047 -0.553078 0.65328 -4.13384
3381 -0.0723339 -0.271466 -0.470284 -0.436759 -2.07996 -0.254914 -0.0790438 -0.372508 0.780411 -4.04784
3442 -0.0579539 -0.269781 -0.501254 -0.470282 -2.04728 -0.191737 -0.0896519 -0.444774 0.949535 -3.94749
3213 -0.161227 -0.263936 -0.68226 -0.394254 -2.05995 -0.221117 -0.0388318 -0.352406 0.931537 -4.09167
4601 -0.125807 -0.00829382 -0.522457 -0.146404 -1.65137 -0.326447 0.434486 -0.398901 0.508724 -3.7664
2904 -0.150044 0.053516 -0.621169 -0.171601 -1.82331 -0.582809 0.479068 -0.404672 0.629272 -4.12188
65 -0.0509706 0.0595701 -0.625752 -0.156714 -1.83022 -0.751288 0.606333 -0.395315 0.904523 -4.26573
157 -0.201144 0.108733 -0.652745 -0.123095 -1.55903 -0.517884 0.498031 -0.314583 0.76534 -3.5807
4454 -0.259294 -0.0457226 -0.336782 -0.115797 -1.46104 -0.593256 0.255124 -0.183506 0.825638 -3.64654
3708 0.0374382 -0.151978 -0.647207 -0.218399 -1.65651 -0.515048 0.129128 -0.31402 1.10182 -3.57248
3294 -0.100926 -0.164922 -0.422023 -0.159523 -1.77629 -0.677437 0.198511 -0.133004 0.75566 -4.47751
3690 0.480812 -0.202096 -0.688949 -0.191652 -2.23725 -0.0147288 0.319089 -0.314842 0.942118 -4.75131
3475 0.505066 -0.218462 -0.631892 -0.20983 -2.20707 -0.000111345 0.250558 -0.262498 0.973138 -4.85181
3468 0.46154 -0.271029 -0.665889 -0.20711 -2.30854 0.0377266 0.183435 -0.211588 1.01308 -5.00125
3476 0.503361 -0.278085 -0.722716 -0.25278 -2.26531 0.00706907 0.218772 -0.320656 0.998156 -4.91178
2353 0.482193 -0.244555 -0.649205 -0.233597 -2.17538 -0.00936964 0.342294 -0.307757 0.828714 -4.8023
1914 0.497206 0.0163145 -0.111114 -0.288975 -2.29344 -0.753467 0.437079 -0.404076 1.4453 -4.85074
1379 0.460801 -0.0467731 -0.36825 -0.330696 -2.20285 -0.486118 0.344242 -0.426565 1.51326 -4.5941
783 0.0817098 -0.0909689 -0.105208 -0.125206 -1.61918 -0.19918 0.855477 -0.291064 0.50124 -4.17983
782 0.151493 -0.0666713 -0.165086 -0.0827101 -1.54947 -0.152223 0.899912 -0.276227 0.645619 -4.33191
776 0.441297 -0.0438821 -0.117141 -0.270056 -2.08266 -0.519112 0.604438 -0.425271 1.29942 -4.62537
1907 0.413617 -0.0482314 -0.208701 -0.311271 -2.09361 -0.556408 0.335211 -0.369194 1.12818 -4.21664
4067 -0.0535337 -0.0287546 -0.275939 -0.221005 -1.65681 -0.266639 0.38854 -0.286977 0.681327 -3.38567
747 0.174372 -0.111015 -0.437377 -0.233573 -1.91642 0.0506011 0.447544 -0.296881 0.821695 -4.15705
773 0.151224 -0.148369 -0.413339 -0.121379 -1.63647 0.0096624 0.768458 -0.318367 0.523664 -4.14213
4046 0.39103 -0.270937 -0.577243 -0.0902126 -1.81368 0.0117379 0.433184 -0.182695 0.584418 -4.66516
2641 0.380111 -0.257368 -0.511134 -0.184189 -1.87281 0.0375387 0.552945 -0.204136 0.417701 -4.76572
3733 -0.104117 -0.069815 -0.510282 -0.143355 -1.5561 -0.0807622 0.52518 -0.271394 0.455878 -3.52378
2261 -0.130484 -0.0620387 -0.48481 -0.170137 -1.77128 -0.209676 0.41048 -0.366646 0.603465 -3.79385
3897 0.470688 0.048728 -0.166725 -0.269684 -2.13514 -0.63756 0.40239 -0.408111 1.43415 -4.59032
3910 0.475529 -0.0314096 -0.238279 -0.314987 -2.1475 -0.504047 0.392318 -0.384301 1.1235 -4.56262
1312 0.35579 -0.137401 -0.449236 -0.195222 -1.96458 -0.177078 0.160005 -0.17226 0.552398 -4.29478
633 -0.164323 -0.174021 -0.447205 -0.144845 -1.4406 -0.32769 0.528734 -0.382517 0.83483 -3.46299
446 0.0432268 0.0706264 -0.408703 -0.153723 -1.58944 -0.676981 0.476283 -0.378839 0.719582 -3.78155
2591 -0.0865111 0.463243 -0.682103 -0.387445 -2.7132 -1.31087 -0.126286 -0.308132 1.91334 -5.5259
2602 0.0991942 0.440289 -0.694394 -0.429067 -2.74687 -1.29708 -0.25978 -0.307077 1.76781 -5.38366
2582 -0.0729295 0.477931 -0.752699 -0.447899 -2.81601 -1.33365 -0.232373 -0.304098 1.86002 -5.63366
2585 -0.0611828 0.453149 -0.77472 -0.375801 -2.74717 -1.29085 -0.271189 -0.275024 1.82923 -5.62127
2601 -0.0119235 0.429065 -0.761177 -0.415046 -2.78756 -1.21881 -0.294266 -0.324483 1.68904 -5.45982
2599 -0.0563962 0.401877 -0.663669 -0.390481 -2.71071 -1.31379 -0.161502 -0.351683 1.7803 -5.40237
2590 -0.0864808 0.439451 -0.616567 -0.39054 -2.73696 -1.33926 -0.245562 -0.262982 1.80112 -5.50128
2586 -0.105108 0.409529 -0.794763 -0.396805 -2.76905 -1.16863 -0.186778 -0.335825 1.6785 -5.40153
708 -0.0744116 0.347812 -0.749102 -0.304464 -2.37133 -0.871063 -0.113598 -0.26177 1.606 -4.65563
1874 -0.188874 0.265777 -0.71391 -0.250332 -2.22931 -0.743641 0.167361 -0.396385 1.48819 -4.29785
1876 -0.158822 0.309694 -0.634232 -0.311115 -2.33373 -0.864553 0.0248938 -0.291669 1.51166 -4.50551
334 -0.0763314 0.31819 -0.80964 -0.359943 -2.61114 -1.07124 -0.300981 -0.265339 1.67065 -5.12014
3300 -0.0558169 0.44324 -0.699871 -0.443326 -2.76172 -1.18572 -0.271029 -0.297478 1.7555 -5.37875
2593 -0.0684986 0.466359 -0.679231 -0.453534 -2.75448 -1.32758 -0.170162 -0.346091 1.80165 -5.51408
2581 -0.00456332 0.431312 -0.780157 -0.429303 -2.79187 -1.31268 -0.263135 -0.315235 1.75786 -5.56488
2824 -0.0627449 0.413743 -0.66288 -0.435954 -2.71793 -1.23465 -0.269747 -0.267082 1.726 -5.39176
2594 -0.0688402 0.466033 -0.626202 -0.410471 -2.7825 -1.38623 -0.236361 -0.263798 1.90657 -5.62265
4512 -0.0269684 0.442438 -0.744336 -0.427162 -2.77931 -1.28358 -0.210006 -0.308078 1.7219 -5.50598
382 -0.0687071 0.353091 -0.781495 -0.337131 -2.48527 -1.03729 -0.105121 -0.357437 1.67968 -4.84414
2583 -0.0355637 0.47772 -0.732017 -0.426102 -2.88187 -1.33999 -0.200111 -0.327955 1.85002 -5.6336
129 -0.0698929 0.250281 -0.768029 -0.252043 -2.289 -0.909725 -0.0673144 -0.265189 1.63835 -4.5172
403 -0.0130978 -0.0205914 -0.953385 -0.344221 -2.45004 -0.285035 -0.355757 -0.14983 1.90062 -4.69293
402 -0.0542468 -0.11768 -0.88061 -0.148505 -1.89769 -0.161115 0.19392 -0.302607 1.92551 -4.1157
1370 0.0361185 0.0131777 -0.795093 -0.138662 -1.77879 -0.351878 0.359455 -0.308384 1.81707 -3.99186
889 0.276693 0.0319928 -0.487704 -0.319614 -1.93325 -1.22307 -0.0569847 -0.292715 1.15414 -4.38366
2317 0.0936637 0.086177 -0.13382 -0.495095 -2.1097 -1.09929 -0.225394 -0.271044 0.733155 -4.48805
2322 0.0811005 0.0424661 -0.160776 -0.485783 -2.10998 -1.10984 -0.295208 -0.258382 0.768798 -4.4977
2301 0.264778 0.0920621 -0.0864337 -0.347921 -1.75544 -1.06086 -0.281031 -0.0477758 0.845942 -4.26946
2026 0.0724565 -0.237647 -0.489254 -0.268603 -1.87728 -0.0697014 0.165931 -0.253921 0.644602 -3.70992
848 0.16252 -0.197678 -0.398195 -0.00841225 -1.51692 -0.310946 0.704328 -0.277899 0.611781 -3.88815
2540 -0.122415 -0.0686154 -0.320913 -0.144466 -1.56178 -0.239992 0.412322 -0.272905 0.686015 -3.50745
2539 -0.0830257 -0.0822162 -0.440292 -0.181578 -1.64175 -0.128949 0.456857 -0.356043 0.64135 -3.52414
3702 0.0740848 0.0936294 -0.290351 -0.194708 -1.57965 -0.316151 0.499618 -0.271823 0.55059 -3.73547
3700 0.180525 0.0808623 -0.216631 -0.106587 -1.7072 -0.330841 0.394782 -0.0707762 0.795691 -4.05501
1577 0.0138115 0.159049 -0.440499 -0.194771 -2.05927 -0.264974 0.356986 -0.229138 1.24785 -5.24854
1648 -0.0673798 0.207056 -0.438948 -0.216032 -2.06505 -0.319174 0.414399 -0.222759 1.21384 -5.24973
3953 -0.0447327 0.195125 -0.476832 -0.138258 -2.0325 -0.243439 0.416602 -0.185246 1.23845 -5.26952
1903 0.459096 0.0117769 -0.145185 -0.317348 -2.12895 -0.710889 0.433035 -0.354109 1.32223 -4.55857
763 0.396827 -0.163826 -0.577409 -0.220064 -2.15106 0.0148397 0.19975 -0.180383 0.714969 -4.61158
757 0.258046 -0.111787 -0.310092 -0.205661 -1.91032 -0.221873 0.253002 -0.242122 0.487489 -4.00326
751 0.189135 -9.46794e-05 -0.352288 -0.251644 -1.9865 -0.189367 0.19861 -0.187546 0.509919 -4.03823
484 0.0916628 -0.166564 -0.3622 -0.294645 -1.84661 -0.135798 0.26226 -0.384179 0.492717 -3.84991
1208 0.0409239 -0.0956239 -0.290938 -0.270866 -1.86638 -0.162968 0.211965 -0.266578 0.390716 -3.85338
583 0.179157 -0.16251 -0.545918 -0.128168 -1.67574 -0.322412 0.238145 -0.157281 0.929705 -3.83611
1604 0.0303727 0.185374 -0.495433 -0.191247 -2.00509 -0.264132 0.345326 -0.214332 1.31722 -5.12819
667 -0.116082 0.0803835 -0.620278 -0.0751493 -1.60813 -0.628283 0.279194 -0.212246 0.959008 -3.73146
124 -0.107615 0.279342 -0.748919 -0.28853 -2.31603 -0.912977 -0.0395587 -0.30129 1.50786 -4.59136
2580 -0.0936683 0.449653 -0.723631 -0.418889 -2.65635 -1.25636 -0.176437 -0.360045 1.71984 -5.28638
296 -0.159673 0.0914686 -0.822125 -0.125617 -1.827 -0.542703 0.587138 -0.387934 0.933499 -4.23754
245 0.224021 0.120114 -1.47696 -0.031729 -2.09493 -0.635036 0.27882 -0.339782 1.15266 -5.41936
3838 -0.122617 0.160664 -0.419909 -0.210303 -1.50954 -0.469399 0.180861 -0.250572 0.819875 -2.9469
1872 -0.126641 0.220404 -0.540116 -0.215404 -1.78669 -0.774345 0.114255 -0.250639 1.12423 -3.7026
1870 -0.0614949 0.221068 -0.557384 -0.219881 -2.10533 -0.808802 0.0521003 -0.313269 1.06187 -4.12777
3403 -0.0719221 0.0639173 -0.588425 -0.295754 -1.85868 -0.464028 0.0824202 -0.282626 0.67714 -3.70171
702 -0.076793 0.0312677 -0.787576 -0.329715 -2.20355 -0.567945 -0.125305 -0.247455 1.04176 -4.23727
54 -0.112469 -0.105519 -0.584497 -0.117138 -1.60259 -0.685443 0.265401 -0.228198 0.743173 -4.0904
1881 -0.195558 0.273645 -0.683573 -0.30955 -2.30067 -0.846408 0.144849 -0.394911 1.57719 -4.41651
1882 -0.131222 0.263745 -0.690602 -0.300532 -2.35975 -0.862552 0.0948426 -0.358612 1.6456 -4.47567
1267 -0.19436 0.153064 -0.741792 -0.210751 -2.07487 -0.773541 0.108731 -0.261495 1.26374 -4.23227
1871 -0.0793474 0.134276 -0.700108 -0.308284 -2.38394 -0.635568 0.141083 -0.349221 1.75316 -4.37293
822 -0.0840252 0.039737 -0.500062 -0.259758 -1.87051 -0.375028 0.392786 -0.376941 0.644664 -3.9197
1426 -0.0376509 -0.0919644 -0.310194 -0.47755 -1.9387 -0.780718 0.344559 -0.644592 1.21095 -4.10056
1416 -0.10768 -0.0954047 -0.40332 -0.449251 -2.019 -0.634317 0.304711 -0.661898 1.3464 -4.02974
1422 -0.0534425 -0.180039 -0.368964 -0.456577 -1.87943 -0.779792 0.336254 -0.646768 1.23634 -4.09162
44 -0.0681779 -0.123797 -0.223387 -0.489699 -1.8711 -0.83043 0.181366 -0.564955 1.16059 -3.93766
1419 0.0525082 -0.173975 -0.370553 -0.400999 -1.9327 -0.636091 0.179859 -0.505092 1.22779 -3.83867
361 -0.298371 0.0901445 0.34961 -0.498578 -2.15167 -0.998275 0.524848 -0.605194 1.54971 -4.51849
4464 -0.263321 0.0376694 0.290249 -0.461737 -2.0263 -0.985848 0.528393 -0.53526 1.44195 -4.40703
369 -0.320552 0.0939339 0.343911 -0.563689 -2.18831 -1.06226 0.532622 -0.628203 1.37357 -4.61805
3238 -0.177656 -0.0352431 -0.725942 -0.197238 -1.87992 -0.311206 0.200776 -0.313356 0.61057 -3.93396
5133 -0.0389955 -0.202342 -0.464621 -0.17772 -1.38149 0.090112 0.297218 -0.277529 0.608605 -2.87568
3385 -0.13221 -0.126793 -0.355393 -0.0731378 -1.03503 -0.00424753 0.27393 -0.225543 0.793779 -2.44117
3655 0.00187701 -0.227398 -0.420676 -0.129612 -1.51146 -0.339562 0.324182 -0.297681 1.12276 -3.51103
3739 -0.123798 -0.00517195 -0.249625 -0.219903 -1.63725 -0.469137 0.291778 -0.269363 0.531764 -3.57039
3635 -0.240119 -0.0576442 -0.0435831 -0.305227 -1.412 -0.510387 0.515509 -0.295424 0.723896 -3.45818
427 -0.0232268 0.05356 -0.081293 -0.212081 -1.66401 -0.188311 0.767215 -0.420361 0.629295 -4.06457
1741 0.0795256 -0.106918 -0.943103 -0.312737 -2.44707 -0.0136325 -0.330433 -0.199727 1.52641 -4.53789
2472 0.0331344 -0.129405 -1.09461 -0.362034 -2.62108 -0.0661225 -0.427327 -0.201923 1.76184 -4.96295
1144 -0.0404269 -0.209359 -0.959572 -0.310084 -2.47549 -0.0215235 -0.144665 -0.223767 1.86939 -4.74002
1138 -0.0913832 -0.22858 -0.664666 -0.329884 -2.23639 -0.0364271 0.103299 -0.293186 1.34944 -4.07508
1149 -0.101962 -0.211449 -0.642856 -0.325176 -2.4222 -0.113097 0.00363265 -0.284417 1.86587 -4.46201
1151 0.00306878 -0.260378 -0.633117 -0.297173 -2.2459 -0.0418571 -0.0145999 -0.193902 1.70437 -4.28469
1105 -0.0685219 -0.218292 -0.37419 -0.277206 -2.25641 -0.114467 0.228601 -0.302316 1.81532 -4.40426
1140 -0.0783185 -0.258148 -0.538982 -0.163754 -1.95168 0.0725333 0.386994 -0.28467 1.42626 -4.0478
1007 -0.182477 -0.206997 -0.495021 -0.0217755 -1.51404 0.112919 0.860956 -0.342553 1.38264 -4.05512
608 -0.0207024 -0.251055 -0.181879 -0.0555239 -1.60568 -0.134807 0.784749 -0.248172 1.3585 -4.26613
609 -0.0602613 -0.357483 -0.259122 -0.100062 -1.47442 -0.133117 0.69313 -0.291993 1.18192 -4.00992
612 -0.0762438 -0.289193 -0.380418 -0.0149266 -1.47715 -0.0219434 0.752413 -0.247142 1.34015 -4.14744
1002 -0.220491 -0.268538 -0.551237 -0.0490537 -1.58231 0.0839932 0.910076 -0.390456 1.38038 -4.1519
1010 -0.14285 -0.286217 -0.535771 -0.0454663 -1.44003 0.0159565 0.818676 -0.34837 1.41833 -4.00838
5065 -0.147726 0.290989 -0.132607 -0.158566 -1.28227 -0.848522 0.691496 -0.327637 0.504379 -3.39473
830 0.176006 0.126893 -0.24737 -0.141416 -1.51338 -0.632721 0.426046 -0.350054 0.61517 -3.55833
722 0.021238 -0.0723186 -0.633366 -0.119854 -1.66295 -0.300924 0.151677 -0.198534 0.761787 -3.49456
620 0.361009 -0.23355 -0.625347 -0.159413 -1.87518 -0.10764 0.208843 -0.193605 0.841346 -4.04317
691 0.142039 0.0460046 -0.20777 -0.262817 -1.63241 -0.331273 0.419367 -0.307193 0.520456 -3.63762
2575 -0.157173 -0.166084 -0.387676 -0.171741 -1.69996 -0.640416 0.109175 -0.125653 0.829501 -4.4963
2767 0.0327944 0.13963 -0.670391 -0.221851 -2.19491 -0.538402 0.264753 -0.40122 1.62391 -4.15141
2761 -0.0712144 0.206313 -0.756215 -0.221935 -2.2134 -0.720259 0.22037 -0.41853 1.82146 -4.31829
1878 -0.0781577 0.212046 -0.716873 -0.261046 -2.36658 -0.764805 0.205387 -0.337858 1.80197 -4.52734
4509 -0.165516 0.165745 -0.680897 -0.256089 -2.24778 -0.590358 0.169504 -0.319732 1.74233 -4.2734
1274 -0.104041 0.15307 -0.649137 -0.261974 -2.2375 -0.681259 0.249537 -0.35451 1.81356 -4.2834
298 -0.154268 0.164479 -0.68379 -0.246832 -2.04596 -0.679222 0.280855 -0.356381 1.79405 -4.2181
284 0.139471 0.0637201 -1.13954 0.0053022 -1.70974 -0.606874 0.290207 -0.269167 1.16771 -4.32019
86 -0.125419 0.0365335 -0.950168 -0.0699977 -1.72444 -0.402059 0.258481 -0.242557 0.698684 -4.00618
87 -0.0326704 0.0955779 -0.701758 -0.126783 -1.71106 -0.674219 0.39199 -0.348847 0.72643 -3.98988
2394 -0.132077 0.0561014 -0.594799 -0.150682 -1.70089 -0.362066 0.37194 -0.259914 0.488165 -3.7601
699 -0.208312 0.016876 -0.767862 -0.170022 -1.81126 -0.521779 0.335897 -0.358442 0.788415 -4.05203
3009 -0.158305 -0.0882676 -0.497486 -0.176644 -1.6898 -0.231699 0.319402 -0.280378 0.500339 -3.65744
1923 0.233127 -0.13862 -0.34977 -0.0842911 -1.61482 -0.345125 0.240886 -0.0703182 0.737024 -3.58816
4583 -0.0193979 -0.0777573 -0.345135 -0.291735 -1.81433 -0.228214 0.0494256 -0.172789 0.628859 -3.49913
2134 0.023057 -0.119198 -0.340744 -0.179957 -1.69227 -0.158309 0.39458 -0.245729 0.556549 -3.6728
617 -0.107668 -0.291315 -0.324475 -0.0514744 -1.54734 0.100527 0.791515 -0.303425 1.32596 -4.2023
2692 -0.0206693 -0.0169196 -0.6285 -0.156397 -1.7539 -0.788626 0.478704 -0.419385 1.0498 -4.01435
448 0.0158174 0.142947 -0.305629 -0.20008 -1.76889 -0.842409 0.663795 -0.543818 0.807828 -4.09463
464 0.129481 0.184714 -0.257798 -0.222165 -1.82204 -0.860878 0.764148 -0.581286 0.816744 -4.16652
476 0.100551 0.489387 -0.177778 -0.292998 -2.01443 -1.45366 0.820167 -0.588896 0.653013 -5.64099
3622 0.0414899 0.516676 -0.256891 -0.217784 -2.03316 -1.46245 0.760726 -0.528097 0.670111 -5.64098
4802 0.0963517 0.585991 -0.180463 -0.256698 -2.06818 -1.57449 0.862424 -0.557886 0.70665 -5.95162
3615 0.135734 0.536674 -0.23968 -0.189127 -1.94188 -1.44182 0.76362 -0.540687 0.7043 -5.49222
575 0.0637145 0.126738 -0.547494 -0.0697037 -1.6274 -0.642315 0.542191 -0.366345 0.586418 -3.92779
150 -0.113463 -0.00713635 -0.804776 -0.189341 -1.96569 -0.43674 0.269507 -0.318299 0.785599 -4.16987
707 -0.156063 0.0145276 -0.815355 -0.304564 -2.02274 -0.374061 0.0255505 -0.260178 0.786589 -3.9778
723 -0.176634 -0.0178488 -0.846179 -0.262939 -1.94054 -0.363738 0.139066 -0.303318 0.818498 -4.02021
1012 -0.168342 -0.116075 -0.721283 -0.0954836 -1.67949 -0.162708 0.455705 -0.434293 0.946874 -3.64481
636 -0.264074 -0.215242 -0.615687 -0.0388259 -1.51248 -0.17303 0.801231 -0.417598 1.4122 -3.99003
996 -0.240553 -0.280304 -0.630165 -0.0358561 -1.46206 -0.0197265 0.865439 -0.403649 1.49974 -4.13326
3991 -0.439623 0.142034 -0.486809 -0.0767572 -1.28894 -0.758673 0.789145 -0.383241 1.6367 -3.93691
1796 -0.428922 0.180592 -0.485929 -0.0783319 -1.69712 -0.991127 0.920661 -0.468856 1.90056 -4.89364
946 -0.408739 0.185075 -0.526127 -0.115966 -1.67916 -0.884978 0.838123 -0.436777 1.92624 -4.61338
955 -0.395666 0.18615 -0.535267 -0.131834 -1.6566 -0.940339 0.825476 -0.525946 1.79942 -4.53917
965 -0.0311405 -0.00415874 -0.739423 -0.0558341 -1.52915 -0.818897 0.528316 -0.335473 1.41805 -4.02813
125 -0.219376 0.080343 -0.683597 -0.0116952 -1.4776 -0.720229 0.609497 -0.303878 1.67607 -3.97403
376 0.0857805 -0.0146637 -0.955531 -0.0122719 -1.4702 -0.504468 0.374092 -0.25693 1.43306 -3.84248
1365 0.0900071 0.014563 -0.897051 -0.180489 -1.69975 -0.191408 0.182772 -0.346654 1.60888 -3.68525
1371 -0.0147615 -0.00690087 -0.913291 -0.096002 -1.8924 -0.323361 0.373001 -0.298349 1.87876 -4.17129
4638 -0.150962 -0.0703391 -0.679232 -0.180025 -1.64026 -0.158671 0.254935 -0.33495 1.3013 -3.16323
1420 -0.0385661 -0.149581 -0.350746 -0.47469 -1.94865 -0.699924 0.284961 -0.633788 1.18453 -3.89776
1833 -0.181918 -0.0238917 -0.81791 -0.161538 -2.01616 -0.196437 0.225018 -0.342479 0.544141 -4.04828
3330 0.0108585 -0.0250513 -0.527019 -0.262527 -1.84792 -0.182142 0.0881615 -0.299055 0.481361 -3.66441
2650 -0.00314847 0.245478 -0.734059 -0.187251 -1.76835 -0.629091 0.0394136 -0.301941 1.06694 -3.57588
132 -0.147956 0.190089 -0.745272 -0.285796 -2.27305 -0.719601 0.0750135 -0.302207 1.48333 -4.33896
4616 -0.0568061 0.175181 -0.415171 -0.271793 -1.91092 -0.638973 -0.12557 -0.126457 0.891754 -3.55032
3735 -0.242823 -0.0725028 -0.279636 -0.184091 -1.5456 -0.576097 0.17245 -0.215851 0.852331 -3.71277
2577 -0.172142 -0.0597292 -0.172636 -0.20668 -1.55603 -0.632843 0.138422 -0.227319 0.911975 -3.69449
2168 -0.250099 -0.150458 -0.45062 -0.110089 -1.67744 -0.601681 0.180844 -0.106967 0.899396 -4.4819
2400 -0.123018 0.0766011 -0.734299 -0.115907 -1.76939 -0.280505 0.40376 -0.3125 0.587887 -3.70002
1496 0.0596663 -0.0935398 -0.581502 -0.074651 -1.62656 -0.293641 0.733711 -0.330271 0.443928 -4.11795
2464 0.170613 -0.298358 -0.689328 -0.0812406 -1.5208 -0.0604578 0.769919 -0.398098 0.564769 -4.29549
2404 0.129037 -0.24498 -0.702013 -0.0344155 -1.42619 0.0631948 0.769835 -0.338206 0.456584 -4.13042
545 0.190171 -0.212735 -0.835171 -0.127918 -1.88187 -0.0726105 0.852194 -0.498948 0.676772 -4.83662
80 0.23297 -0.134898 -1.15293 -0.130728 -2.15746 -0.0649292 0.770898 -0.523061 0.903448 -5.19729
1479 0.0901348 -0.15657 -0.949256 -0.102434 -1.88475 0.172747 0.688926 -0.441507 0.939931 -4.2992
929 0.0711828 -0.223972 -0.744445 -0.191742 -1.90632 0.125782 0.474037 -0.344826 0.794618 -4.0203
1383 -0.0763938 0.00344705 -0.498608 -0.10718 -1.79691 -0.00728165 0.553243 -0.20418 1.35225 -4.73225
1620 -0.0113818 0.193085 -0.431207 -0.171072 -2.02803 -0.310281 0.401865 -0.211991 1.2979 -5.2133
3034 -0.305372 0.0629673 -0.691908 -0.133368 -1.703 -0.386914 0.576889 -0.333608 0.724141 -3.78271
4413 0.0378376 -0.0420659 -1.1204 0.0354874 -1.47781 -0.286709 0.383631 -0.118237 1.0025 -4.07738
273 0.23907 0.0985724 -1.36505 0.00103854 -2.01617 -0.515052 0.261353 -0.254546 0.944995 -5.1978
291 0.259717 0.112314 -1.52293 0.000129732 -2.07751 -0.576962 0.286969 -0.239575 1.22037 -5.54584
240 0.213409 0.0982659 -1.43004 -0.00851558 -2.04918 -0.595743 0.301634 -0.273077 1.07245 -5.32978
248 0.242608 0.082444 -1.33658 -0.052043 -1.95755 -0.540064 0.23277 -0.300419 1.11953 -5.00653
241 0.205263 0.0779976 -1.47465 0.0187456 -2.02666 -0.459837 0.298265 -0.319685 0.963962 -5.2976
272 0.228546 0.138752 -1.43116 -0.0292997 -2.02704 -0.616224 0.280817 -0.284966 1.1098 -5.35941
1315 -0.110643 0.0180158 -0.72569 -0.112275 -1.71046 -0.567712 0.48006 -0.370489 0.784089 -4.01979
1817 -0.260943 -0.0340093 -0.740799 -0.111598 -1.60285 -0.433216 0.422462 -0.369504 0.842887 -3.75554
2726 -0.0456146 0.0116569 -0.575103 -0.146975 -1.71221 -0.168365 0.314211 -0.274518 0.509923 -3.39009
3096 -0.0473964 -0.207692 -0.317264 -0.233696 -1.73441 -0.0443967 0.526324 -0.392296 0.669632 -3.70393
5185 -0.0961173 0.214355 -0.291156 -0.138723 -1.48968 -0.510857 0.59942 -0.343093 0.304107 -3.66634
470 -0.0171373 0.180892 -0.336702 -0.182977 -1.70226 -0.951736 0.59069 -0.473734 0.649055 -4.18086
2998 0.0247685 0.0714258 -0.626108 -0.112915 -1.75231 -0.46558 0.488352 -0.354384 0.527801 -4.00385
2970 -0.158077 0.0613928 -0.461819 -0.0865749 -1.47641 -0.484115 0.458445 -0.22197 0.463458 -3.5372
2806 -0.295088 0.00527209 -0.715993 -0.114399 -1.636 -0.40999 0.547046 -0.291671 0.569853 -3.93202
4288 0.0416707 -0.0518177 -0.124471 -0.187111 -1.53754 -0.307565 0.57686 -0.227931 0.695492 -3.61243
778 0.111036 -0.026636 -0.156805 -0.117631 -1.63159 -0.171117 0.807231 -0.236847 0.635719 -4.18389
2603 -0.0976146 0.433915 -0.693377 -0.352995 -2.56021 -1.15318 -0.21335 -0.267182 1.57195 -5.09252
1869 -0.0637781 0.42323 -0.698063 -0.380409 -2.67173 -1.17738 -0.219232 -0.320722 1.70581 -5.23004
4453 -0.053817 0.440528 -0.646335 -0.442664 -2.62813 -1.20067 -0.215426 -0.330478 1.66991 -5.1443
2589 -0.0470473 0.454051 -0.722612 -0.351428 -2.72619 -1.30801 -0.173551 -0.296601 1.82513 -5.49166
2598 -0.0805971 0.505529 -0.717143 -0.446992 -2.83245 -1.37019 -0.163849 -0.322284 1.90764 -5.65761
4162 -0.157738 0.25122 -0.482865 -0.201379 -1.57416 -0.649629 0.026257 -0.182789 0.921361 -3.19631
3391 0.174698 -0.0423311 -0.14548 -0.131329 -1.47 -0.328351 0.534685 -0.28006 0.632146 -3.56602
1902 0.453546 -0.00576157 -0.212122 -0.286693 -2.13144 -0.546555 0.428825 -0.422376 1.45312 -4.5544
1918 0.503839 -0.0129066 -0.173337 -0.309385 -2.25829 -0.664728 0.546993 -0.453348 1.58722 -4.85155
5013 0.50684 0.0138617 -0.204596 -0.248373 -2.08424 -0.502639 0.524795 -0.423947 1.28605 -4.62531
2550 0.30906 -0.163255 -0.426249 -0.283041 -1.93027 -0.0506537 0.132632 -0.166558 0.641078 -4.04757
766 0.282412 -0.102184 -0.458779 -0.270789 -2.01798 -0.147688 0.0807656 -0.157527 0.475141 -4.23825
1745 0.108351 -0.0883048 -0.363307 -0.232569 -1.96092 -0.0347955 0.240955 -0.18218 0.587222 -4.07018
2226 0.429212 -0.214543 -0.721788 -0.239126 -2.29092 0.0411886 0.116542 -0.224441 1.03702 -4.70984
2486 0.115602 -0.117845 -1.11466 -0.29851 -2.6282 -0.0783592 -0.356737 -0.159997 1.78751 -4.99499
396 0.0431315 -0.0738554 -0.823115 -0.331834 -2.36859 -0.259023 -0.17623 -0.236039 1.63936 -4.28207
1924 -0.201738 0.0931032 -0.821174 -0.117377 -1.70758 -0.315323 0.480622 -0.410133 0.740069 -3.64689
