5271 30
293 -0.286402 -0.0364156 0.0589363 0.0632604 -0.336907 0.297841 0.0533968 -0.0112933 0.360019 0.103957 0.236713 0.834688 2.39732 -1.7477 -0.435394 -1.39446 -0.220561 0.379735 -1.01038 -0.174174 -1.41333 -2.18978 -0.0402488 0.516411 -1.53686 -0.0927869 1.24517 0.748134 -1.76178 1.4274
244 -0.215131 -0.0272887 -0.209487 0.0294229 -0.469433 0.0594825 0.0436359 0.18199 0.266718 0.0653761 0.142843 0.831154 2.44922 -1.88945 -0.464912 -1.40949 -0.193851 0.26063 -1.043 -0.0205608 -1.44412 -2.27474 -0.135343 0.447714 -1.63555 -0.0733752 1.26388 0.840974 -1.88029 1.59066
249 -0.183927 -0.0783249 -0.0400402 0.00405628 -0.276607 -0.0420099 0.0657678 0.230677 0.21198 0.052048 0.210938 0.869654 2.26259 -1.812 -0.379043 -1.5157 -0.162539 0.396624 -1.00541 -0.207324 -1.26229 -2.17435 -0.0395815 0.38902 -1.54534 -0.19494 1.10566 0.770395 -1.88571 1.39072
285 -0.325735 -0.00656536 -0.100699 0.102127 -0.376208 0.200365 0.0586785 0.193257 0.326362 0.0881082 0.228441 0.797752 2.41083 -1.81957 -0.341314 -1.44056 -0.136895 0.247914 -1.07905 -0.071224 -1.24549 -2.26807 -0.0766723 0.382845 -1.56589 -0.103911 1.3361 0.757416 -1.99376 1.5586
270 -0.327477 -0.0782096 -0.00935964 0.0823754 -0.435721 0.309127 -0.0610932 0.0376722 0.342057 0.20402 0.258985 0.774106 2.47142 -1.88963 -0.383791 -1.42053 -0.167305 0.172501 -1.09813 -0.190716 -1.47425 -2.27434 -0.202144 0.37861 -1.50717 -0.0873719 1.43732 0.732664 -1.8913 1.59986
218 -0.174431 -0.0217298 -0.13691 0.0907488 -0.502512 0.266149 0.0501542 0.288896 0.145486 0.0969962 0.161639 0.926889 2.35522 -1.84226 -0.510746 -1.387 -0.254358 0.225943 -0.969114 -0.253405 -1.38333 -2.31364 -0.208237 0.302098 -1.66658 -0.0909807 1.12226 0.809128 -1.77657 1.59541
241 -0.269284 -0.0289153 -0.0407039 0.0727444 -0.407285 0.176206 0.0826485 0.208587 0.123633 0.181377 0.14943 0.881386 2.33554 -1.88525 -0.529866 -1.30955 -0.24733 0.244535 -0.927506 -0.193718 -1.20324 -2.24357 -0.031704 0.162933 -1.57922 -0.144611 1.35541 0.726725 -1.79134 1.66426
243 -0.110881 -0.0603644 -0.0937198 0.0498961 -0.387056 0.0615084 0.0152587 0.117001 0.212415 0.172246 0.384847 0.909265 2.2377 -1.7763 -0.550464 -1.39702 -0.150725 0.25369 -0.934795 0.0836346 -1.31734 -2.26919 0.0631158 0.329766 -1.46287 -0.242264 1.23279 0.566828 -1.77097 1.46662
15 -0.144762 -0.0247312 -0.0137923 -0.0351086 -0.290919 0.0343676 0.131201 0.0681818 0.348948 0.189884 0.0784124 0.414602 1.77373 -1.25145 -0.581872 -0.844466 -0.318756 0.0234665 -0.812784 -0.349478 -1.03297 -1.76599 0.00556998 0.165913 -0.937007 -0.18956 0.73504 0.761698 -1.3511 0.875828
3742 0.0461025 -0.174383 0.122912 0.203434 0.0811225 -0.260559 0.0909816 0.177698 0.536633 0.340896 0.148435 0.252442 1.58204 -1.58424 -0.502847 -0.841931 -0.0421948 -0.458788 -0.957923 -0.116606 -1.58295 -1.75862 -0.331397 0.172599 -0.876987 -0.243501 1.06697 0.754202 -1.65739 0.540222
4954 0.152096 -0.15295 0.169927 0.0975651 0.0276421 -0.196434 0.0334747 0.102075 0.498751 0.25259 0.207961 0.183553 1.51332 -1.45512 -0.341389 -0.826014 -0.149921 -0.198639 -0.852217 -0.102458 -1.40142 -1.56113 -0.547849 0.176591 -0.778768 -0.284471 0.990037 0.798896 -1.50092 0.457371
2835 0.105462 -0.118016 0.413006 0.229514 0.304126 -0.117044 0.181975 0.0971735 0.415479 0.32687 0.162099 0.117761 1.87223 -1.50194 -0.350015 -1.08993 -0.337431 -0.328705 -0.960918 -0.294624 -1.35173 -1.78128 -0.274535 0.426731 -0.970503 -0.723894 0.899355 0.935983 -1.5899 0.687173
2329 0.0657195 -0.17324 0.178324 0.242783 0.393833 0.0856722 0.239337 0.370299 0.767892 0.582932 0.162352 0.494101 2.0545 -1.46635 -0.397488 -0.96703 -0.106825 -0.4648 -0.797586 -0.254147 -1.12189 -2.03969 -0.545535 0.373998 -0.816522 -0.748443 0.763902 1.0652 -1.4811 1.74127
2334 0.0341152 -0.248249 0.0191446 0.195325 0.479562 -0.0906864 0.251171 0.326813 0.848394 0.579001 0.201379 0.554861 2.18331 -1.39437 -0.548368 -0.977379 -0.244377 -0.618088 -0.760875 -0.135963 -1.09755 -2.07808 -0.494669 0.305948 -0.958827 -0.653184 0.690493 0.895917 -1.51861 1.80856
2317 0.0308032 -0.231273 0.0873415 0.265316 0.407296 -0.170408 0.259746 0.403654 0.680538 0.670707 0.16026 0.626932 2.18533 -1.32559 -0.448647 -0.939686 -0.193421 -0.482862 -0.74718 -0.146541 -1.08685 -1.99351 -0.59204 0.359357 -0.919162 -0.70241 0.644862 0.968644 -1.52198 1.743
2336 0.0125032 -0.257978 0.0853854 0.190401 0.451111 0.0579338 0.187853 0.292265 0.738786 0.704901 0.235798 0.647781 2.20843 -1.44799 -0.370209 -1.06938 -0.23017 -0.425752 -0.68329 -0.126675 -1.07291 -2.10179 -0.567949 0.232167 -0.908438 -0.669624 0.853746 0.98034 -1.51512 1.82338
867 -0.129502 -0.251626 0.0813135 0.0417675 0.477694 -0.0152927 0.302484 0.260842 0.834862 0.406722 0.155361 0.805728 2.14984 -1.52588 -0.582105 -0.924106 -0.286078 -0.48152 -0.782096 -0.297497 -1.36658 -2.03257 -0.491456 0.312498 -0.8576 -0.585438 0.561191 1.19675 -1.64313 1.65262
1922 -0.26133 -0.0723165 -0.0735358 0.168421 0.0302617 0.0665195 0.33429 -0.125888 0.115983 0.268425 0.25355 0.378526 1.42161 -1.46111 -0.648027 -0.802804 -0.368795 0.164493 -0.527518 -0.125061 -1.03806 -2.04254 -0.178079 0.299613 -0.910457 -0.267217 0.620089 0.656129 -1.0474 0.474629
464 -0.105311 -0.171582 0.213938 0.361559 0.0438693 -0.116545 0.547297 0.256382 0.126131 0.486216 0.318232 0.10587 2.16147 -1.52084 -0.539739 -0.67377 -0.268735 0.448188 -0.630985 0.237171 -1.18579 -1.84613 -0.555886 0.899075 -1.24308 -0.16196 0.636382 0.98203 -1.52144 0.836346
4593 -0.419953 0.116835 0.14178 -0.0127454 -0.468645 0.139463 0.126147 -0.221749 0.459875 -0.0878834 0.0558286 0.43046 1.97693 -1.5137 -0.855483 -0.760148 -0.696839 -0.0690594 -0.97722 0.156425 -0.564942 -2.34157 -0.0632696 0.170185 -1.19067 0.0967111 1.14885 1.11945 -1.50821 0.361606
520 -0.341718 0.0914532 0.168003 0.148997 -0.453106 0.183397 0.159328 -0.103762 0.30895 0.130699 0.215784 0.49061 2.16295 -1.45031 -0.743884 -0.958694 -0.507713 -0.250561 -0.83371 0.0359421 -0.646497 -2.54333 -0.152544 0.145933 -1.22076 0.162104 1.13788 1.26738 -1.70374 0.417687
2151 -0.0710782 -0.174891 0.328846 0.387341 -0.0758666 -0.157806 0.412105 0.0671827 0.439248 0.0564729 0.00653741 0.522116 1.73211 -1.45988 -0.981549 -0.805712 -0.340489 0.0654707 -0.720316 -0.277755 -0.692149 -2.17726 0.171514 -0.144851 -1.12494 -0.0370948 0.798463 0.898427 -1.38122 1.01748
589 -0.232007 -0.157275 -0.0460665 0.157577 -0.171381 0.165208 0.0994058 0.0530058 0.535587 -0.153831 0.146386 0.440393 2.12401 -0.892382 -0.856449 -0.768479 -0.47878 -0.245903 -0.928973 -0.311578 -0.616173 -1.78589 -0.134598 -0.0295178 -1.17214 -0.537609 0.506481 0.449267 -1.47915 1.13761
1401 -0.240408 -0.192341 -0.170847 0.0490934 -0.0609436 -0.324198 0.180665 0.009777 0.693306 -0.566986 0.187162 0.662642 2.11172 -1.15304 -1.19868 -0.745595 -0.509578 0.138191 -0.805017 -0.218863 -0.917023 -1.95878 -0.169509 0.0639655 -1.21037 -0.562521 0.542625 0.532624 -1.45479 1.07171
515 -0.00716013 -0.107777 -0.422809 0.134085 -0.245023 -0.703514 0.150582 0.232044 0.365059 -0.061074 0.0938954 0.290808 2.11916 -1.23889 -0.851683 -0.841109 -0.777828 0.125347 -0.725963 -0.162418 -1.01898 -1.92773 -0.228726 0.293208 -1.17317 -0.314548 0.415904 0.816562 -1.31032 1.01205
1419 -0.0472814 -0.122188 -0.0797002 0.170729 -0.103798 -0.192101 0.0729825 0.218108 0.628899 -0.242242 0.431107 0.0219331 2.09999 -1.16643 -0.839978 -0.631565 -0.533196 -0.114624 -0.655637 0.0996866 -1.07829 -1.54432 -0.164905 0.334874 -1.11515 -0.424371 0.551879 1.23285 -1.3374 1.47065
4939 -0.0481337 -0.138694 -0.047175 0.0623621 -0.128739 -0.0625298 0.330191 0.0388989 0.437809 -0.125213 0.406388 0.235583 1.89558 -1.40369 -0.661994 -0.593788 -0.223912 -0.155699 -0.596414 -0.0438241 -1.00162 -1.52052 0.019838 0.375296 -1.10476 -0.385172 0.724753 1.46613 -1.55508 1.32959
3 -0.08474 0.0579704 -0.0747534 -0.00917501 -0.0681493 0.14752 0.288416 -0.0303115 0.20802 0.0476897 0.261225 0.264501 1.81065 -1.15769 -0.67065 -0.724823 -0.110567 0.0697767 -0.540666 -0.374336 -0.980481 -1.4328 -0.0630737 0.166264 -1.1488 -0.153092 0.792542 0.743416 -1.33201 0.860776
3330 -0.0752405 -0.0863376 0.0833859 0.387244 0.116425 -0.102097 0.242256 0.276157 0.00240885 0.519731 0.0347789 0.388948 1.77258 -1.07317 -0.784252 -0.84562 -0.282318 -0.191916 -0.444886 -0.370426 -0.843942 -2.08001 0.0031219 0.176078 -0.949784 -0.539859 0.881792 0.693532 -1.14273 0.955611
295 -0.0714171 -0.123597 -0.0305659 0.309413 0.0551513 -0.232178 -0.0841963 0.119388 0.352928 0.206904 0.379109 0.567426 1.9705 -1.28924 -0.772324 -0.933391 -0.27842 0.187297 -0.654485 -0.308369 -1.0478 -2.01434 -0.0947297 0.152711 -1.05382 -0.126465 0.781456 0.623313 -1.78821 0.919977
1604 -0.0296057 0.00796463 -0.27481 0.258352 -0.185521 -0.0463277 -0.0576952 0.148544 0.38092 0.253967 0.334144 0.640416 2.44037 -1.75939 -0.800633 -1.03746 -0.291582 0.252277 -0.874353 -0.433428 -1.09737 -2.44905 -0.315354 0.522003 -1.331 -0.0128286 1.06894 0.960038 -2.21365 1.30333
1333 0.0699705 -0.086318 -0.255014 0.211857 -0.218236 -0.0273891 0.0777622 0.0568261 0.25902 0.326569 0.345404 0.759706 2.19165 -1.72008 -0.936027 -0.851547 -0.343234 0.307516 -0.754041 -0.368115 -1.1512 -2.31612 -0.190733 0.43599 -1.13047 -0.0143572 0.972511 0.899452 -2.01486 1.40106
1631 0.0147115 -0.0776026 -0.224066 0.265302 -0.237169 0.0237237 0.0222838 0.0733191 0.297987 0.281014 0.254174 0.63281 2.36584 -1.7681 -0.799107 -0.98605 -0.257903 0.368403 -0.895105 -0.422019 -1.08596 -2.45694 -0.237841 0.479677 -1.31708 0.0528179 1.02305 1.00681 -2.19516 1.2453
1629 -0.0778518 -0.108111 -0.207868 0.173053 -0.154546 0.0725389 -0.00312605 -0.122191 0.296261 0.329406 0.274061 0.603767 2.24303 -1.75179 -0.754473 -1.0082 -0.281373 0.253861 -0.791854 -0.508167 -1.01415 -2.2471 -0.205005 0.486852 -1.24839 -0.0219762 0.974618 1.00964 -2.04262 1.21506
432 -0.0701215 -0.0213602 -0.202349 0.119658 -0.108071 0.0284551 0.170426 -0.167722 0.267363 -0.0372199 0.289112 0.596894 2.29985 -1.7 -0.792631 -0.888189 -0.319752 0.483182 -1.01894 -0.359415 -0.989033 -2.28817 -0.234909 0.420554 -1.34125 0.154232 1.2195 0.895187 -2.16413 1.03909
1628 0.0343338 -0.101133 -0.232183 0.212359 -0.128948 0.155559 -0.0278626 0.0171873 0.415495 0.283562 0.223452 0.716092 2.39113 -1.83177 -0.821654 -0.995558 -0.339118 0.286655 -0.84277 -0.37067 -1.13543 -2.43249 -0.237915 0.442664 -1.32004 -0.00613235 1.02907 1.07095 -2.18004 1.30667
1584 -0.0788125 -0.0121854 -0.264598 0.252222 -0.202486 0.0620901 -0.0961539 0.139558 0.337506 0.313055 0.254133 0.619026 2.41782 -1.71898 -0.796676 -1.02726 -0.272786 0.320639 -0.86671 -0.444645 -1.04123 -2.39744 -0.339886 0.334333 -1.38941 0.0253574 1.10522 0.962589 -2.22685 1.23467
780 0.0249138 -0.04192 0.0707658 0.391789 0.000131482 -0.0479058 0.00486229 0.236359 0.315536 0.389901 0.290413 0.549266 2.1341 -1.90708 -0.729231 -1.00608 -0.3563 0.127319 -1.01509 -0.22034 -1.07784 -2.36302 -0.290109 0.322863 -1.22999 0.0697141 0.903066 1.11335 -2.0901 1.1821
1573 0.0654562 -0.094688 -0.155221 0.224986 -0.160259 0.0803646 -0.018374 0.077537 0.364755 0.200507 0.35875 0.599858 2.32832 -1.76934 -0.790606 -1.05149 -0.361644 0.265076 -0.86769 -0.363468 -1.03407 -2.46124 -0.230423 0.346955 -1.33459 -0.00915786 1.09201 1.01824 -2.15987 1.18538
1601 0.0266255 -0.0724676 -0.240776 0.130485 -0.151689 0.0678094 -0.011841 0.0310784 0.215084 0.24077 0.296965 0.696945 2.23959 -1.78501 -0.83505 -0.925606 -0.352143 0.20511 -0.887433 -0.358846 -1.05073 -2.36843 -0.235836 0.358957 -1.32032 -0.0620376 1.11304 0.976226 -2.10141 1.13233
1639 -0.0211312 -0.0464799 -0.213762 0.211966 -0.0977498 0.0851276 0.00346223 0.0839021 0.343266 0.149396 0.292109 0.649425 2.36494 -1.75322 -0.839185 -0.949317 -0.377005 0.172784 -0.918691 -0.328515 -1.14073 -2.34803 -0.267625 0.439749 -1.36447 0.0374031 0.94392 1.01202 -2.17599 1.2355
1483 -0.0921626 -0.0233322 -0.205571 0.0864519 -0.34878 0.0649023 0.0763025 0.109872 0.431617 0.141 0.344398 0.698529 2.31635 -1.60082 -0.675266 -0.941522 -0.375084 -0.0422552 -0.75588 -0.415739 -0.808884 -2.46727 -0.307264 0.519079 -1.24174 -0.0656957 1.03734 1.22795 -2.14053 0.920233
1624 -0.00568422 -0.0803714 -0.159142 0.329054 -0.101496 0.0979702 0.0742385 0.080321 0.37647 0.313685 0.208449 0.586513 2.27008 -1.76989 -0.821744 -0.948932 -0.381261 0.332083 -0.815666 -0.378223 -1.0948 -2.27802 -0.251857 0.430003 -1.27068 -0.0296985 1.01987 0.998422 -2.17863 1.19198
1591 0.028617 -0.205716 -0.0906674 0.222881 0.119072 -0.0525965 0.000782493 -0.0219011 0.286185 0.405472 0.440694 0.580763 2.13818 -1.58772 -0.594709 -1.06582 -0.398102 0.00868051 -0.913268 -0.198781 -0.945473 -2.27791 -0.322461 0.285922 -1.14759 -0.142072 0.911537 0.839301 -2.00351 1.17716
1332 0.0929213 -0.0608558 -0.271079 0.201245 -0.20734 -0.193344 0.0540707 0.0829277 0.162859 0.247368 0.268101 0.757732 2.24415 -1.6878 -0.872121 -0.906834 -0.371093 0.346983 -0.811692 -0.392502 -1.09398 -2.37047 -0.247116 0.406311 -1.24962 0.0708308 0.928841 0.969306 -2.02067 1.35519
4244 0.059895 -0.107038 -0.159708 0.13947 -0.188704 0.0812071 -0.0443547 0.0830492 0.223273 0.224247 0.269121 0.640233 2.40364 -1.7597 -0.828647 -1.01145 -0.284527 0.314221 -0.966756 -0.394581 -1.05349 -2.39871 -0.318816 0.457869 -1.36174 0.0367913 1.1059 1.04417 -2.16284 1.20782
1618 0.018328 -0.0694288 -0.161329 0.268753 -0.187512 0.163811 0.0325908 0.087474 0.310737 0.216027 0.218688 0.663151 2.41684 -1.73758 -0.780597 -0.993108 -0.325051 0.280802 -0.922241 -0.435479 -1.0685 -2.43976 -0.32418 0.479669 -1.3851 7.69564e-05 1.00543 1.05373 -2.19 1.25838
1543 -0.133952 0.0645176 -0.0907569 0.310643 -0.340757 0.178022 0.0324653 -0.0505216 0.313936 0.529228 0.26707 0.532942 2.29552 -1.56195 -0.797378 -0.825555 -0.393603 0.361972 -0.85206 -0.414853 -1.07576 -2.22838 -0.235777 0.461868 -1.0434 0.155803 1.00366 0.935154 -2.11687 1.3298
1549 0.0850939 -0.126951 -0.187892 0.208473 -0.189911 0.0785048 0.00555881 0.0592715 0.306259 0.213798 0.255235 0.701395 2.33813 -1.69879 -0.76047 -1.04053 -0.315095 0.310581 -0.831759 -0.374238 -1.10692 -2.41212 -0.291009 0.348327 -1.31028 -0.000906238 0.9889 1.01998 -2.12522 1.2046
1544 0.0954133 -0.0834394 -0.163108 0.20076 -0.148508 0.0260654 0.0387518 0.160011 0.388246 0.246589 0.331532 0.613637 2.35804 -1.79237 -0.82275 -0.979971 -0.335158 0.253145 -0.932871 -0.339133 -0.954884 -2.42022 -0.388016 0.372397 -1.30835 0.0251444 1.13592 0.945261 -2.14828 1.25437
1636 -0.00440118 -0.0977013 -0.198451 0.239983 -0.210725 0.0841308 -0.00914799 0.0416524 0.358449 0.389759 0.292607 0.637822 2.30181 -1.85159 -0.808506 -1.01553 -0.346633 0.218555 -0.840899 -0.438234 -1.08693 -2.39236 -0.222564 0.399884 -1.31758 0.0375326 1.04967 1.03636 -2.18721 1.23801
851 -0.132891 -0.152594 -0.286315 0.151984 -0.00254086 -0.00519912 -0.0203782 0.173568 0.435557 0.21339 0.3141 0.576973 2.09902 -1.6874 -0.802156 -0.947625 -0.137595 0.241521 -0.815769 -0.454723 -1.24721 -2.20436 -0.126282 0.209472 -1.20944 0.153102 0.95324 1.00615 -2.14003 0.994437
3955 0.000523626 -0.0490421 -0.120396 0.192645 -0.130604 0.0954979 -0.0728001 0.038362 0.335902 0.256187 0.272305 0.503789 2.24959 -1.74432 -0.783992 -0.97106 -0.393743 0.234149 -0.815127 -0.488245 -1.05731 -2.32937 -0.35339 0.418299 -1.25099 0.0658963 1.04519 0.959456 -1.9333 1.21217
1608 -0.0237077 -0.120303 -0.206418 0.20273 -0.167275 -0.0477677 -0.0311883 0.117454 0.311321 0.277308 0.271972 0.595302 2.35973 -1.65518 -0.831215 -1.01155 -0.259104 0.385736 -0.892619 -0.399198 -1.096 -2.46294 -0.181247 0.520999 -1.27012 -0.103308 1.08617 1.00038 -2.12305 1.13656
1594 -0.00308708 -0.0743938 -0.0925856 0.251394 -0.123145 0.0249352 -0.0344321 0.121556 0.272763 0.31494 0.272168 0.621662 2.21317 -1.82595 -0.81349 -1.0492 -0.374676 0.274776 -0.901098 -0.314245 -1.09462 -2.40605 -0.302111 0.385718 -1.30773 0.0198612 0.941394 1.03402 -2.09589 1.14846
1566 0.008417 -0.130439 -0.255418 0.161349 -0.147239 0.0969564 -0.0572502 0.107004 0.343481 0.374371 0.29783 0.513665 2.31176 -1.83635 -0.867877 -1.02761 -0.348109 0.287444 -0.839425 -0.492851 -1.10328 -2.33021 -0.253591 0.366739 -1.30583 0.0739764 0.980548 1.02955 -2.09246 1.17778
1590 0.01092 -0.0567758 -0.22873 0.253768 -0.109381 0.0959204 -0.00712425 0.0865843 0.401505 0.215651 0.361982 0.617985 2.41733 -1.85558 -0.772904 -1.02655 -0.386659 0.252461 -0.896981 -0.322539 -1.04904 -2.47744 -0.332948 0.388573 -1.37768 0.0390068 1.06602 1.04998 -2.20752 1.27051
1637 -0.0519784 0.000986984 -0.197253 0.238001 -0.123701 0.113815 -0.0331752 0.0828537 0.440159 0.262255 0.281076 0.66777 2.40056 -1.79457 -0.831807 -1.02322 -0.351355 0.269066 -0.917158 -0.372771 -1.13482 -2.46939 -0.308119 0.439033 -1.33631 0.0362112 1.13994 1.03883 -2.21674 1.20116
1672 0.0978382 -0.0439183 -0.0237343 0.18213 -0.341312 -0.380695 -0.122709 -0.128722 0.380063 0.384786 0.502161 0.481082 1.931 -1.63695 -0.70377 -0.993058 -0.427202 0.375234 -0.611789 -0.439236 -1.11795 -2.10911 0.132737 0.61846 -0.849784 -0.011514 0.945297 0.905057 -1.74222 1.24787
1565 -0.0443308 -0.121941 -0.216072 0.260358 -0.147432 0.0740815 0.118388 -0.00416827 0.489529 0.169737 0.289828 0.54895 2.07007 -1.84599 -0.780341 -1.01862 -0.370337 0.266349 -0.658734 -0.48016 -0.991449 -2.29779 -0.0329145 0.453539 -1.25125 -0.0558014 0.972648 0.850941 -2.04662 1.06673
1585 -0.0611724 0.0260138 -0.191588 0.185152 -0.079583 0.073664 0.00498617 0.0995836 0.361016 0.242172 0.298458 0.598491 2.34584 -1.78918 -0.832072 -0.953121 -0.27293 0.327178 -0.918184 -0.354041 -1.0366 -2.40828 -0.254716 0.435722 -1.30912 0.0296269 1.02767 1.08524 -2.17833 1.15808
1559 0.0696196 -0.122882 -0.18234 0.187609 -0.0897229 0.0879518 0.0110072 0.08816 0.34872 0.391858 0.242201 0.528021 2.2573 -1.699 -0.799908 -0.930117 -0.31742 0.207679 -0.81056 -0.543072 -1.12561 -2.31361 -0.243606 0.384704 -1.24127 -0.00293621 1.00415 0.957635 -2.0969 1.09817
1611 -0.0359857 -0.0861555 -0.230488 0.153026 -0.280963 0.0643834 -0.0589259 0.119311 0.397078 0.196865 0.276387 0.715821 2.45359 -1.72001 -0.847176 -1.00284 -0.285222 0.332606 -0.933451 -0.379616 -1.07946 -2.44113 -0.201056 0.433672 -1.3289 0.0379301 1.09988 1.05648 -2.27687 1.2413
935 0.0501739 -0.0242046 -0.127151 0.255609 -0.0709885 -0.00047089 0.0326674 0.221776 0.403499 0.166126 0.267898 0.663391 2.35951 -1.80076 -0.896409 -0.986025 -0.242812 0.293214 -0.920682 -0.383763 -1.0411 -2.47053 -0.273535 0.400369 -1.33905 0.0362491 0.948528 0.990407 -2.1361 1.25787
1557 0.0324457 -0.10446 -0.205676 0.186869 -0.0810467 0.0767906 0.00786208 0.105971 0.29625 0.239951 0.244347 0.683171 2.37253 -1.86607 -0.834266 -0.980681 -0.393273 0.316825 -0.876563 -0.396024 -1.10211 -2.43385 -0.29684 0.423991 -1.34121 -0.0218372 1.07324 1.08404 -2.20325 1.22953
1576 0.0428608 0.000544645 -0.186022 0.244161 -0.195443 0.0744615 0.0277965 0.113023 0.370567 0.230683 0.243925 0.63616 2.32803 -1.82684 -0.813476 -0.988507 -0.348873 0.196316 -0.918923 -0.365989 -1.06776 -2.40388 -0.332454 0.391504 -1.34154 0.131198 1.03571 1.09134 -2.20182 1.25831
1548 0.0397464 -0.0161757 -0.177791 0.2705 -0.130777 0.0606943 -0.0556288 0.205066 0.338273 0.360825 0.317257 0.540697 2.37752 -1.78895 -0.868089 -1.00138 -0.299736 0.299489 -0.941196 -0.330581 -1.16811 -2.42702 -0.292696 0.389377 -1.34029 0.116903 1.01995 0.982827 -2.25367 1.28126
1626 -0.00159724 -0.0905889 -0.219961 0.25877 -0.213987 0.0163523 0.0126435 0.0890718 0.3687 0.28544 0.255128 0.667052 2.41318 -1.80556 -0.863005 -1.01004 -0.329523 0.296401 -0.835465 -0.426649 -1.13365 -2.45449 -0.292659 0.451403 -1.34173 0.00839689 1.13643 0.96208 -2.27142 1.22962
1367 0.17844 -0.224781 -0.133537 0.340672 -0.21969 -0.145865 0.182648 0.0125969 0.473548 0.169926 0.40464 0.23503 2.18789 -1.72543 -0.550927 -1.14154 -0.491665 0.0877017 -0.519905 -0.709096 -0.985987 -2.24536 -0.251811 0.523184 -1.26674 0.150382 0.960717 0.958289 -1.89426 1.1882
4700 0.037797 -0.115305 -0.171339 0.228951 -0.232032 0.119965 -0.00207863 0.100191 0.364847 0.24965 0.202893 0.676976 2.43887 -1.73964 -0.841928 -1.03658 -0.374199 0.19763 -0.962555 -0.389056 -1.02594 -2.42698 -0.264673 0.531434 -1.39932 0.106705 0.997751 1.00133 -2.13021 1.28926
1570 0.144436 -0.0682649 -0.171026 0.334751 -0.172837 -0.00435878 0.158349 0.287213 0.325679 0.185678 0.280882 0.679061 2.22909 -1.71924 -0.76389 -0.94557 -0.349293 0.206965 -0.876451 -0.42419 -1.18083 -2.36127 -0.330309 0.554595 -1.25891 0.034208 0.706223 1.0443 -2.15766 1.17421
1182 0.0122568 0.0240109 -0.226668 0.06224 -0.280678 -0.100189 -0.0506042 0.294002 0.143749 0.14491 0.106097 0.26936 2.20674 -1.09638 -0.314654 -1.10836 -0.14201 0.114379 -0.688864 -0.560578 -1.71601 -1.59088 -0.437337 0.265378 -1.21336 -0.114274 1.00168 0.827765 -1.63084 0.692325
2635 0.000432715 -0.341378 0.143675 0.251879 0.336594 0.360962 0.116032 -0.217218 0.689949 0.310558 0.278865 0.338687 2.54592 -1.40533 -0.538259 -1.1576 0.100752 0.420581 -0.210948 -0.424593 -1.74195 -1.47159 -0.289913 0.241696 -1.46024 -0.378576 1.50315 0.573295 -2.02005 0.494871
2626 0.0347361 -0.389043 0.235785 0.214432 0.030982 0.507335 -0.0164651 -0.369366 0.536357 0.406162 0.357383 0.214709 2.64576 -1.27874 -0.818519 -1.0211 -0.0800101 0.303675 -0.384168 -0.234695 -1.77201 -1.57151 -0.383753 0.194203 -1.49815 -0.332613 1.65369 0.645149 -1.93251 0.602871
1949 -0.0876215 -0.145023 -0.0875419 0.126451 -0.132879 -0.0210186 0.17985 -0.24986 0.273551 0.725296 0.16136 0.23592 1.94613 -1.45656 -0.664817 -0.794443 -0.431448 0.302183 -0.353469 0.13121 -1.10338 -1.6624 -0.442297 0.381956 -1.0222 -0.463666 1.12934 0.588208 -1.38819 0.511883
1122 0.102859 0.0094632 0.155383 0.139072 -0.156682 -0.0012579 0.321445 -0.00673767 0.3258 0.522444 0.320093 0.210618 1.86574 -1.36195 -0.56464 -0.718875 -0.505934 0.414058 -0.434522 -0.0868503 -0.968915 -1.77102 -0.389236 0.44215 -0.694191 -0.625785 0.997719 0.780786 -1.27761 0.793803
1315 0.0310056 0.318397 0.0314134 0.0710922 -0.272769 0.00256392 0.151187 0.0905603 0.30204 0.540413 0.0960351 0.290717 1.63109 -1.70533 -0.686843 -0.865479 -0.538952 0.257799 -0.822854 0.0997421 -0.976259 -1.60581 -0.0622745 0.237113 -0.972976 -0.315199 0.795786 0.581266 -1.35477 0.845148
1829 0.00703756 0.298626 0.000364828 -0.017936 -0.272678 -0.132824 -0.0897655 -0.00445149 0.143374 0.669237 0.00354336 0.196204 1.71929 -1.66793 -0.572336 -0.92772 -0.468777 0.0241896 -0.929192 -0.0662115 -0.892125 -1.65402 0.0208868 0.0015183 -1.03712 -0.240398 1.34531 0.717284 -1.418 0.788913
67 -0.213404 0.0972607 -0.263064 -0.0790334 -0.251802 0.193652 0.118667 0.292835 0.318527 0.291576 0.17313 0.366495 1.82123 -1.5211 -0.519616 -0.910398 -0.336257 0.234458 -0.783228 -0.153752 -1.05247 -1.6739 -0.139863 0.256739 -1.05654 -0.360053 0.990658 0.552531 -1.44989 0.907923
1193 -0.0766447 0.226324 -0.0784082 -0.121675 -0.0600993 -0.0464477 0.146202 0.106485 0.314801 0.204854 0.0751431 0.345816 1.58908 -1.70853 -0.479746 -0.85228 -0.178994 0.163276 -0.695942 -0.404662 -0.97097 -1.67895 -0.426743 0.0827487 -0.95703 -0.591104 1.1934 0.610399 -1.25509 0.815763
670 -0.273516 0.142153 -0.219327 -0.00137747 -0.304974 0.111644 0.216607 0.074374 0.0481717 0.691337 -0.0473221 0.503252 1.85237 -1.45884 -0.683528 -0.69972 -0.355449 0.110334 -0.804334 -0.447041 -1.165 -1.74735 -0.326377 0.0736243 -0.936459 -0.359436 0.893647 0.551845 -1.52643 0.876475
671 -0.0143635 0.182325 0.0315683 0.260939 -0.166889 -0.00937609 0.448434 0.157539 0.114238 0.45739 -0.0954091 0.453889 1.7374 -1.81104 -0.647701 -0.596899 -0.392237 0.601245 -0.490611 0.0805396 -1.1106 -1.62432 -0.53752 0.614785 -1.02537 -0.200831 0.817247 0.688168 -1.4564 0.686921
2 -0.223584 -0.0718931 -0.130055 0.0816851 -0.27198 0.0833809 0.214178 0.269599 0.194632 0.278263 0.160948 0.499494 1.83228 -1.4006 -0.651792 -0.75683 -0.337682 0.0595353 -0.687895 -0.127237 -1.12222 -1.74239 -0.203306 0.130876 -1.08295 -0.145881 0.660151 0.748503 -1.50046 0.796987
3622 -0.509476 -0.349679 -0.409643 0.172144 -0.379921 0.543655 0.134616 0.262196 0.565321 0.487077 0.117102 0.810689 2.68593 -2.17077 -0.828148 -0.971636 -0.226463 0.174107 -1.00006 0.31913 -1.38828 -2.3629 -0.874073 0.659249 -1.65903 -0.513959 0.711962 0.984577 -2.34404 0.989561
3252 -0.366821 -0.427153 -0.497052 0.133604 -0.534953 0.478824 0.164743 0.24792 0.360821 0.425591 0.15781 0.951328 2.77368 -2.1702 -0.954602 -0.916539 -0.261911 0.295217 -0.913494 0.316202 -1.52307 -2.29673 -0.97264 0.625248 -1.74072 -0.473897 0.749039 1.01553 -2.3703 1.14587
3659 -0.34471 -0.334694 -0.456491 0.185997 -0.430618 0.578657 0.138391 0.265172 0.447888 0.442224 0.241501 0.696025 2.6406 -2.05643 -0.704325 -0.977961 -0.161835 0.114854 -0.80503 0.149084 -1.38254 -2.25234 -0.966536 0.665999 -1.67038 -0.366428 0.642734 0.849105 -2.19909 1.03355
657 -0.223111 -0.255206 -0.114479 0.13442 -0.292158 0.312864 0.371817 -0.0249149 0.231542 0.375472 0.0700187 0.550136 2.27775 -1.76307 -0.774411 -0.777894 -0.168607 0.370065 -0.851975 0.183398 -1.33951 -1.84713 -0.575284 0.585553 -1.50922 -0.283834 0.772508 0.66092 -1.85556 0.712792
4607 -0.387993 -0.328101 -0.218595 0.0283976 -0.166352 0.145571 0.325116 0.00461512 0.239369 0.377036 0.180468 0.479567 1.86881 -1.47515 -0.559046 -0.682484 -0.286328 0.276749 -0.633924 0.144148 -0.959416 -1.66245 -0.659799 0.629718 -0.990169 -0.126049 0.409849 0.61353 -1.43061 0.576715
277 -0.29474 -0.00838486 -0.187999 0.134752 -0.444037 0.230464 -0.0303999 0.170266 0.258835 0.288623 0.182728 0.692265 2.35753 -1.79586 -0.359098 -1.31031 -0.118549 0.196228 -1.03447 -0.106488 -1.44056 -2.16118 -0.141901 0.481097 -1.496 0.00447493 1.2087 0.69305 -1.78519 1.48582
499 -0.274039 -0.010189 -0.158439 0.0957356 -0.447605 0.105732 0.0372502 0.132543 0.317452 0.0461328 0.0978484 0.844023 2.4668 -1.79841 -0.532 -1.44199 -0.276429 0.426945 -1.0503 -0.00622968 -1.46045 -2.31131 -0.173465 0.490703 -1.62963 0.01964 1.2512 0.739907 -1.80457 1.60972
253 -0.206159 -0.13543 -0.134676 0.066014 -0.332783 0.143439 0.0563638 0.180242 0.289494 0.00044422 0.238581 0.844563 2.41753 -1.8287 -0.40233 -1.37359 -0.247215 0.424349 -0.89588 -0.047103 -1.53858 -2.1555 -0.242084 0.500722 -1.60354 0.00374547 1.20358 0.790724 -1.7107 1.4841
2419 -0.281133 0.0177372 -0.0219051 0.0886889 -0.26765 0.277966 -0.101219 0.194781 0.38937 0.0680683 0.208315 0.702703 2.45816 -1.88319 -0.459706 -1.43966 -0.201185 0.406699 -0.985793 -0.14464 -1.42194 -2.34319 -0.196349 0.41994 -1.64985 -0.00302815 1.27972 0.761504 -1.69575 1.6402
656 0.137185 -0.122434 -0.187138 -0.0465653 -0.102785 0.0166842 0.509553 -0.273541 0.272114 0.355129 0.348483 0.334731 1.89654 -1.38408 -0.66403 -0.806229 -0.482809 0.101272 -0.322858 -0.0649208 -1.18286 -1.58889 -0.209165 0.47869 -1.11987 -0.301365 1.07925 0.500208 -1.44582 0.496506
1273 0.0632772 0.151195 -0.131445 -0.173804 -0.28166 -0.0865144 0.380973 -0.268982 0.473396 0.326039 0.197738 0.253793 1.65493 -1.87309 -0.610182 -0.924765 -0.582217 0.445268 -0.798085 -0.126103 -0.847356 -1.69987 -0.122228 0.233241 -1.12574 0.248771 0.745786 0.476046 -1.20782 0.763975
1285 -0.0384441 0.0758297 -0.220392 0.00493654 -0.173037 -0.0261471 0.311264 -0.10426 0.507778 0.302914 0.079005 0.600676 1.92497 -1.59634 -0.566091 -0.954706 0.0511824 0.0254596 -0.706169 -0.272697 -0.949357 -2.02608 -0.344405 0.142347 -1.21994 -0.133804 0.77095 0.908703 -1.48118 1.02669
2183 -0.0613503 0.187825 -0.268607 0.083747 -0.237741 -0.0426499 0.261063 -0.15557 0.530143 0.308193 0.138055 0.534211 2.05321 -1.53476 -0.6837 -0.947994 0.0334186 0.119832 -0.691237 -0.182185 -1.00306 -2.03 -0.318368 0.205803 -1.28454 -0.19134 0.804796 0.987463 -1.61142 1.07628
1046 0.0816334 0.0505541 -0.114703 -0.0468582 -0.208745 0.11771 0.200963 -0.075668 0.503533 0.111735 0.393909 0.57245 1.93676 -1.56388 -0.468975 -0.988451 -0.109851 0.262562 -0.679322 -0.261929 -1.16215 -1.92399 -0.528578 0.0741106 -1.05193 -0.256048 0.711501 1.11677 -1.65261 1.11565
2192 0.119154 0.111424 -0.147583 0.045625 -0.212205 0.0400088 0.308939 -0.054284 0.51162 0.275915 0.12398 0.599075 2.11921 -1.44306 -0.604377 -1.0099 -0.0403772 0.147984 -0.796555 -0.180048 -1.0002 -2.03365 -0.365576 0.0813273 -1.20807 -0.157657 0.800103 0.93941 -1.65041 1.075
2162 -0.0200894 0.0823244 0.0121682 0.175713 -0.132107 -0.0242221 0.308065 -0.0811487 0.595349 0.109473 0.045505 0.464284 1.93324 -1.51861 -0.780226 -0.876338 -0.013151 0.172729 -0.793181 -0.163242 -0.961466 -1.93888 -0.117395 0.154477 -1.19755 -0.158631 0.599994 1.02093 -1.49016 1.08061
2188 0.0158613 0.0554774 -0.269282 0.0612209 -0.242906 0.0114794 0.337226 -0.157274 0.464558 0.291556 0.0120751 0.633896 2.09368 -1.43911 -0.683444 -1.01934 -0.0732352 0.100359 -0.732791 -0.256543 -0.986944 -2.01515 -0.319639 0.128241 -1.2514 -0.207693 0.696477 0.913219 -1.59954 1.14111
2205 0.0835885 0.148779 -0.141647 0.00441982 -0.18104 -0.0135429 0.314079 -0.106396 0.460247 0.231717 0.161712 0.439647 2.11867 -1.47854 -0.665823 -0.895617 0.0295207 0.0536206 -0.725958 -0.196611 -0.958594 -1.89 -0.254797 0.222967 -1.27787 -0.16749 0.775005 1.01612 -1.61947 1.15188
1417 0.137246 -0.221425 -0.0641899 0.158616 -0.0710581 0.0803523 0.20535 -0.059414 0.368711 0.0507965 0.440158 0.237725 2.079 -0.945576 -0.570655 -0.878048 -0.267743 0.246088 -0.926822 0.112252 -0.948011 -1.59122 0.0207058 -0.128719 -1.04828 -0.33145 0.758846 0.832087 -1.8079 1.05083
2290 0.233781 -0.203943 0.041002 0.333999 -0.328331 0.126763 0.434245 -0.0113891 0.083338 0.281053 0.295599 0.703168 2.07697 -0.97382 -0.516936 -1.04578 -0.461484 0.27239 -0.749456 0.020732 -1.00218 -1.80568 -0.00147135 -0.237057 -1.03309 -0.220763 0.653429 0.771184 -1.90551 0.871999
2289 0.21521 -0.241672 -0.0838719 0.193664 -0.0293827 -0.0564621 0.0638699 -0.0521134 0.350983 0.265916 0.441058 0.565535 1.9699 -0.956645 -0.512819 -1.04071 -0.404347 0.218119 -0.961658 0.201069 -0.996293 -1.82546 -0.100005 -0.158963 -0.831332 -0.403812 0.732193 0.689954 -1.78596 0.911902
5267 0.132038 -0.235937 -0.233188 -0.0712469 -0.0296591 0.208867 0.350858 -0.193467 0.197378 0.267826 0.501155 0.131783 1.80942 -0.778004 -0.608297 -0.724509 -0.202123 0.0843408 -1.21938 0.028145 -0.986747 -1.60399 -0.171843 -0.0499797 -0.763086 -0.155561 0.761556 0.577672 -1.50944 0.921588
5034 -0.10782 -0.0470107 -0.0927923 0.0263977 -0.150103 0.0450922 0.219392 -0.240985 0.208056 0.302428 0.148477 0.125937 1.41916 -1.39175 -0.862859 -0.6273 -0.412202 0.247651 -0.683416 -0.116873 -0.972816 -1.62245 -0.11764 0.150001 -0.870878 -0.399945 0.998388 0.42303 -1.06371 0.496668
57 -0.0107498 -0.146901 -0.156596 0.0590224 -0.325175 0.107609 0.287128 -0.0289317 0.0364774 0.361767 0.222925 0.471027 1.61436 -1.31699 -0.649974 -0.671867 -0.266673 0.122333 -0.543851 -0.111631 -0.850126 -1.66884 -0.19601 0.275039 -1.05929 -0.128022 0.620638 0.722212 -1.28271 0.722374
2185 0.0532697 0.150667 -0.263926 0.0112534 -0.132126 -0.110713 0.237979 -0.173032 0.493198 0.319061 0.118043 0.559727 2.02181 -1.43316 -0.622396 -0.923288 0.0183887 0.0880339 -0.723649 -0.24171 -0.965758 -1.92457 -0.304425 0.245654 -1.18188 -0.24064 0.854844 0.877604 -1.60922 0.958459
174 -0.0376132 0.308335 -0.106093 -0.0680486 0.0787158 -0.15952 0.207982 0.0580922 0.133741 0.35163 0.274604 0.502311 1.77453 -1.30252 -0.703427 -0.872384 -0.116104 -0.022243 -0.528967 -0.417734 -0.933787 -1.73043 -0.0852193 0.184765 -1.10919 -0.152739 0.52925 0.807742 -1.42559 0.671745
176 -0.289696 0.332529 -0.366488 -0.207237 -0.126116 -0.429183 -0.142317 0.295165 0.116731 0.411287 0.0395358 0.62691 1.93211 -1.52676 -0.8192 -0.713801 -0.587521 0.306004 -1.05646 -0.234368 -0.939548 -1.67896 -0.611885 0.0772206 -1.03565 -0.549574 0.522214 0.706507 -1.42857 1.28964
573 -0.248875 0.397064 -0.309753 -0.18738 -0.251768 -0.380972 -0.169278 0.354699 0.0302389 0.430243 0.108486 0.567772 1.99524 -1.52766 -0.777571 -0.735071 -0.753464 0.322133 -1.06592 -0.384128 -1.12847 -1.79648 -0.600768 0.0657212 -0.996622 -0.409681 0.484048 0.734019 -1.48089 1.26362
579 -0.254062 0.258268 -0.356312 -0.0186621 -0.199998 -0.559305 -0.299075 0.362618 0.280302 0.447592 -0.0142536 0.571551 2.04334 -1.32328 -0.708203 -0.817613 -0.704727 0.0567921 -0.807541 -0.307508 -0.969488 -1.69406 -0.526518 0.0959779 -1.05877 -0.626123 0.579029 0.741895 -1.43796 1.13516
567 -0.072562 -0.0332277 -0.257889 0.0238995 -0.24037 -0.690265 -0.00750028 0.268616 0.202179 0.262154 0.143514 0.465387 2.11255 -1.20731 -0.775735 -0.865318 -0.743422 0.142189 -0.77982 -0.193083 -1.01516 -1.84258 -0.340628 0.314964 -1.06322 -0.29779 0.333288 0.740401 -1.28525 1.29568
49 -0.0388746 -0.0330147 -0.186489 -0.0120932 -0.107374 -0.0793711 0.135085 0.299379 0.009551 0.157046 0.333766 0.368347 2.04208 -1.10751 -0.823824 -0.84985 -0.391342 0.215644 -0.558359 -0.17902 -0.942424 -1.68746 -0.0947707 0.485929 -1.30079 -0.423151 0.385451 0.60232 -1.33362 0.776534
325 0.132108 0.0260891 -0.305013 -0.102346 -0.371835 0.0479978 0.135884 0.243228 0.0769809 0.412831 0.628219 0.332356 1.69141 -1.93574 -1.18123 -0.714712 -0.126417 -0.0534548 -0.714088 0.174179 -1.32096 -1.84769 0.0367588 0.622647 -1.43517 -0.259191 0.46881 0.610783 -1.5354 0.767626
332 0.126425 0.0346182 -0.237169 -0.0308212 -0.603724 0.216094 0.13368 -0.0572644 0.22157 0.324916 0.550891 0.327246 1.83753 -1.88208 -1.20351 -0.759859 -0.367816 0.157857 -0.667886 0.306567 -1.35984 -1.88749 -0.0486243 0.665744 -1.40281 -0.116452 0.590463 0.646883 -1.46985 0.612981
462 0.0130996 -0.180909 0.186464 0.406375 -0.253041 0.166653 0.486097 -0.0326872 0.0923094 0.572244 0.279745 0.139646 2.14107 -1.58373 -0.688397 -0.826488 -0.32813 0.284817 -0.559993 0.238623 -1.32941 -1.86939 -0.419373 0.87763 -1.32153 -0.152681 0.869179 0.817661 -1.60527 0.488101
1428 -0.0714876 -0.339652 0.287558 0.317299 0.0067142 0.280429 0.0792951 -0.319741 0.325371 0.396179 0.272768 0.110367 2.37696 -1.15595 -0.438407 -1.06437 -0.0807865 0.304531 -0.412251 -0.190499 -1.47319 -1.5133 -0.254328 0.141042 -1.30504 -0.250051 1.52254 0.76728 -1.87993 0.349197
1158 -0.0823251 -0.252462 0.274709 0.181347 0.173728 0.156581 0.126964 -0.263839 0.438682 0.131024 0.147839 0.317773 2.24178 -1.26694 -0.609263 -0.902159 -0.0967985 0.32333 -0.192831 -0.264403 -1.43124 -1.41644 -0.529355 0.153612 -1.36997 -0.39636 1.34677 0.720456 -1.61911 0.510841
30 -0.10262 0.0402855 0.147311 0.135416 -0.0327449 -0.00873035 0.224614 -0.0251153 0.295607 0.268623 0.0578268 0.421009 1.72875 -1.28673 -0.778002 -0.771927 -0.173182 0.209657 -0.527796 -0.292967 -0.792863 -1.8014 -0.101971 0.10648 -0.999314 -0.273793 0.78643 0.751238 -1.32542 0.663688
885 0.10658 0.126997 0.237062 -0.0961308 -0.119937 0.032492 0.234818 0.115944 0.541351 0.290668 0.358675 0.415618 1.84771 -1.58392 -0.720051 -0.867611 -0.691723 0.408922 -0.698412 -0.00488933 -1.17906 -1.6159 -0.270488 0.256308 -0.800898 -0.197128 0.983282 0.603937 -1.1996 1.27221
418 0.107245 -0.0127277 -0.0244689 -0.0676102 -0.270926 0.00224036 0.0718547 0.0231899 0.385763 0.219253 0.576753 0.35362 1.52994 -1.44052 -0.43878 -0.881466 -0.232209 0.570812 -0.55856 -0.237432 -1.05265 -1.73277 -0.419422 0.146651 -0.649409 -0.424367 0.796648 0.783048 -1.4301 0.80632
1053 0.132054 -0.0153157 -0.0259242 -0.0328158 -0.193163 0.221696 0.0153465 0.0438132 0.521687 0.166925 0.617962 0.407328 1.99058 -1.50273 -0.408967 -1.17147 -0.219628 0.26317 -0.662599 -0.195642 -1.17981 -2.01345 -0.625846 -0.0494248 -0.994468 -0.441728 0.777468 1.00352 -1.6753 1.11576
208 0.028776 0.00100632 -0.00156889 -0.0579307 -0.165871 -0.0546888 0.0170868 -0.142077 0.291646 0.32198 0.635281 0.386538 1.72883 -1.44105 -0.385236 -0.988775 -0.266626 0.448453 -0.58604 -0.291339 -1.24489 -1.69041 -0.472799 0.0887636 -0.79593 -0.461438 0.699938 0.974474 -1.52048 0.923484
1040 0.149722 0.0101047 -0.0702259 -0.0970967 -0.143937 0.115426 0.0622309 0.114314 0.490245 0.0665042 0.551774 0.493475 1.99255 -1.54527 -0.340526 -1.18069 -0.200554 0.395346 -0.697189 -0.18302 -1.16762 -2.02946 -0.59555 -0.0205784 -0.931048 -0.423215 0.795806 1.11039 -1.70306 1.02468
1042 0.0565198 0.0772591 -0.133543 -0.0287935 -0.208845 0.190321 0.138672 -0.00638745 0.534939 0.181124 0.431789 0.460773 2.04763 -1.5167 -0.559099 -1.07694 -0.0633285 0.28382 -0.620845 -0.286593 -1.07302 -2.0083 -0.50256 -0.00676324 -1.07294 -0.352449 0.754897 1.00665 -1.62038 1.07833
1058 0.138587 -0.0293495 -0.0146893 -0.00853684 -0.204172 0.176818 0.098859 0.0206049 0.388282 0.129787 0.797024 0.322382 1.91936 -1.54815 -0.443923 -1.15884 -0.205724 0.271119 -0.585996 -0.213381 -1.16028 -2.01141 -0.50128 0.083026 -0.981294 -0.544035 0.714046 1.00907 -1.58892 1.0198
1047 0.0902884 0.00425644 -0.0834714 0.0583498 -0.103443 0.0198189 0.262691 -0.0910612 0.325244 0.142591 0.317678 0.572887 2.00402 -1.24187 -0.491226 -1.01594 -0.160868 0.342481 -0.760551 -0.0152546 -0.990227 -1.91785 -0.262913 0.00948307 -1.03886 -0.181039 0.783685 0.923227 -1.64929 0.927738
2209 0.0770387 0.219261 -0.178719 -0.0257296 -0.235416 0.0459697 0.291053 -0.0604317 0.560461 0.314501 0.16524 0.603377 2.13746 -1.40779 -0.811949 -0.846077 0.0557781 0.0984792 -0.788677 -0.230442 -1.10456 -1.96079 -0.365658 0.213408 -1.22729 -0.0866826 0.771747 0.843939 -1.61581 1.16147
1035 0.0216789 0.0542895 -0.191127 0.0672558 -0.237382 0.116076 0.18934 -0.118785 0.553164 0.163217 0.38518 0.454439 2.02524 -1.5241 -0.568245 -1.03462 -0.106325 0.209229 -0.671713 -0.220037 -1.09331 -2.00717 -0.52138 -0.0427653 -1.09676 -0.347582 0.757688 0.970315 -1.60741 1.05511
1050 0.10729 -3.31605e-05 0.123619 0.0286369 -0.37976 0.115434 0.0129471 -0.00995635 0.397688 0.0525012 0.538246 0.490423 1.97601 -1.51835 -0.401828 -1.11136 -0.170006 0.314185 -0.797658 -0.185552 -1.20054 -1.93138 -0.546858 -0.0650121 -1.00758 -0.404294 0.726809 1.03419 -1.78106 0.935761
1044 0.0921303 -0.0141532 -0.106246 0.0967461 -0.156606 0.0144866 0.252342 -0.0899988 0.406348 0.221024 0.338529 0.526872 1.98346 -1.23022 -0.499721 -0.997464 -0.148004 0.2809 -0.763634 0.000795656 -1.04879 -1.87815 -0.296564 -0.00126347 -0.979836 -0.404071 0.755329 0.875675 -1.66753 0.908939
592 -0.293695 0.197337 -0.0640807 0.0339083 -0.292585 0.133781 0.0551588 0.100482 0.339966 0.166301 0.608569 0.502749 1.8976 -1.2288 -0.523072 -0.954016 -0.36474 0.0978204 -0.444934 -0.251787 -0.984126 -2.03942 -0.142881 0.255506 -0.915953 -0.0642811 0.701578 1.06885 -1.68763 0.593828
999 -0.350092 0.14105 -0.199513 0.27582 -0.659135 0.339523 0.197001 0.183884 0.484027 0.35664 0.426778 0.4118 2.03014 -1.27699 -0.33015 -0.968584 -0.565478 0.450415 -0.643365 -0.370458 -1.11899 -2.19458 -0.354852 0.2906 -0.640859 0.0541672 0.693801 1.23336 -1.90529 0.947679
150 -0.0283075 -0.00116341 -0.365289 0.0270212 -0.178124 -0.219774 0.0702905 0.328559 0.4234 0.384927 0.0475503 0.567878 1.91056 -1.45128 -0.718362 -0.800046 -0.358443 0.265363 -0.370078 -0.0931658 -1.20638 -1.79924 -0.131401 0.218618 -0.956883 -0.713765 1.06405 0.774444 -1.41712 0.939572
490 -0.263887 0.283 -0.113193 0.0202386 -0.375777 -0.12991 -0.262771 0.298676 0.253138 0.501367 0.0926483 0.546075 2.14827 -1.46007 -0.748684 -0.829936 -0.74039 0.38491 -0.99106 -0.358102 -1.18512 -1.651 -0.730642 0.0221658 -1.01144 -0.476739 0.546488 0.540544 -1.56015 1.31648
822 -0.290712 -0.0204517 -0.202389 -0.0805996 -0.12883 -0.453707 -0.121039 0.264074 0.386215 0.275541 0.24094 0.57048 1.78973 -1.49153 -0.647701 -0.688803 -0.488049 0.0995948 -0.778627 -0.409423 -1.26811 -1.48544 -0.725978 0.0857032 -0.903177 -0.178733 0.452596 0.632568 -1.42685 1.30921
177 -0.195513 -0.209853 -0.161107 -0.146259 -0.310963 -0.148072 0.107196 0.120191 0.122412 0.635298 0.302435 0.35274 2.07032 -1.67377 -0.774288 -0.786457 -0.499061 0.226181 -0.713492 -0.107252 -1.06459 -1.69844 -0.673637 0.323054 -1.19604 -0.377855 0.433265 0.707218 -1.51548 0.808831
3203 -0.153191 0.0449033 0.163808 -0.00227569 -0.34423 -0.230698 0.384163 0.526164 0.34748 0.320028 0.493908 0.473618 2.08865 -1.546 -0.950818 -0.548815 -0.0959221 0.0207085 -1.04088 -0.224425 -1.16763 -2.08104 -0.454175 0.290411 -0.953224 -0.169263 1.12804 0.525349 -1.82078 1.01646
1378 -0.142633 -0.0983905 0.183534 0.046649 -0.333007 -0.356212 0.331052 0.250547 0.486599 0.136423 0.648567 0.316923 2.28103 -1.54934 -0.901138 -0.766132 -0.10259 -0.0125933 -0.89683 -0.329582 -1.09114 -2.25917 -0.369026 0.244573 -1.22265 0.176143 1.10652 0.743833 -1.95081 0.893596
5155 -0.0728519 0.00590157 -0.446845 0.049833 0.0683506 -0.35576 0.141871 0.262044 0.381229 0.414837 0.0856723 0.280851 2.04538 -0.837594 -0.587469 -0.795066 -0.445665 0.436533 -0.347757 -0.306037 -1.05486 -1.69083 -0.234524 0.298428 -0.732663 -0.367058 0.856933 0.561864 -1.18386 0.851729
33 0.0133319 -0.00312909 -0.390802 -0.0372798 -0.0208864 -0.204717 0.240156 0.327776 0.416781 0.340459 0.00368238 0.501037 2.00973 -1.31793 -0.651427 -0.810317 -0.385004 0.359222 -0.349938 -0.292628 -1.33914 -1.74835 -0.279824 0.196608 -0.91909 -0.47822 1.15257 0.744681 -1.34789 1.03915
1196 -0.146674 0.0324644 -0.874924 -0.0580359 -0.152272 -0.30944 0.198292 0.132556 0.355195 0.234859 0.0009662 0.556999 2.36361 -1.0549 -0.777673 -0.825194 -0.420871 0.628884 -0.505967 -0.076559 -1.40647 -2.01874 -0.305218 0.227196 -1.00151 -0.106395 1.32825 0.816286 -1.45419 1.02417
705 -0.0571143 -0.0609046 -0.611553 0.0446395 0.198649 -0.247192 0.229816 0.1812 0.0778232 0.331578 0.152402 0.463323 2.21581 -0.748149 -0.745453 -0.719143 -0.256406 0.894766 -0.640042 -0.0667862 -1.37766 -1.91759 -0.127428 0.13319 -0.790462 -0.284989 0.909638 0.879182 -1.3333 1.06906
397 -0.135925 0.171927 -0.185448 -0.0137094 0.236287 -0.111562 0.191766 0.338728 0.0890569 0.213912 0.592108 0.453979 2.02618 -1.05947 -0.876193 -0.862461 -0.112413 0.251385 -0.375258 -0.448399 -1.05107 -1.81693 -0.0341611 0.421215 -1.16572 -0.297201 0.344621 0.676494 -1.50698 0.836783
1061 0.0468687 0.217579 -0.0465238 -0.0410089 -0.0155485 -0.000920968 0.121969 0.0964386 0.371923 0.150248 0.471982 0.48464 1.93088 -1.4733 -0.629128 -0.984207 0.00508357 0.372446 -0.61164 -0.269048 -1.02583 -1.93203 -0.369409 0.0672758 -1.11403 -0.403594 0.637909 0.983653 -1.55874 1.01258
1041 0.0775474 0.0587864 -0.108123 -0.070532 -0.205216 0.0720069 0.175906 0.00792446 0.489279 0.149424 0.346339 0.464084 1.91475 -1.51459 -0.544434 -1.01542 -0.0346842 0.308538 -0.69799 -0.212303 -1.08794 -1.95919 -0.453379 0.0218272 -0.984056 -0.273445 0.776194 1.0697 -1.62634 0.933628
597 -0.400827 -0.0628796 0.263906 0.0844872 -0.176178 0.318659 0.33036 -0.428029 0.554176 -0.0833742 0.146406 0.499929 2.27686 -1.15645 -0.870473 -0.78301 -0.50404 0.338445 -0.882508 -0.605544 -0.719777 -1.99929 -0.450198 0.0977304 -1.11542 -0.697104 0.866697 0.599474 -1.43539 1.24863
122 -0.0276354 0.0795839 0.0965056 0.0997952 -0.388691 -0.121136 -0.0810084 -0.0758411 0.404206 0.447958 -0.076935 0.332378 1.809 -1.83983 -0.719108 -0.86964 -0.397162 0.435495 -0.610791 -0.241077 -1.18841 -1.65191 -0.398401 0.0197182 -1.0935 -0.327712 1.14739 0.774798 -1.40911 0.824755
664 -0.176253 0.0523185 0.0980836 -0.0736065 -0.0056164 0.095543 0.0880989 -0.121847 0.352217 0.555286 0.2232 0.284628 1.76135 -1.63792 -0.715264 -0.77228 -0.236906 0.504322 -0.277959 -0.29349 -1.09002 -1.65639 -0.416494 0.140466 -0.917233 -0.54035 1.33123 0.583063 -1.30317 0.515378
1314 -0.154192 0.0539639 -0.276815 0.117589 -0.0732415 -0.0683374 0.138981 0.20997 0.461793 0.262733 0.233157 0.0979363 1.51858 -1.80543 -0.293236 -1.01655 -0.621054 0.131364 -0.545739 -0.264857 -0.846831 -1.69685 -0.241635 0.11952 -0.912563 -0.880157 0.994962 0.587751 -1.49252 0.677502
1688 0.140247 0.019912 0.227782 0.223053 0.0816564 -0.18982 0.210107 0.0252236 0.324108 0.314778 0.171683 0.252718 1.79062 -1.56752 -0.52907 -1.09721 -0.418751 0.0802383 -0.694738 0.0358427 -1.05429 -1.79245 -0.199044 0.54879 -1.10883 -0.585872 0.804099 0.559652 -1.37171 0.498013
475 -0.00929186 0.00696787 -0.413902 0.0455659 -0.0462091 -0.0993024 0.14308 -0.0209594 0.470494 0.357823 -0.137505 0.289586 2.1503 -1.12392 -0.633143 -0.841014 -0.0918745 0.421881 -0.636744 -0.0536764 -1.00736 -1.77643 -0.306723 0.14571 -1.05396 -0.270207 1.15603 0.836989 -1.35894 0.82963
1521 0.217722 0.188148 -0.375365 0.0854969 -0.329881 -0.149139 0.0987434 0.00585636 0.370952 0.136985 0.466548 -0.405872 1.91547 -1.42469 -0.760348 -0.694889 -0.314084 -0.0524396 -0.583165 -0.0105444 -0.715431 -1.49019 0.023614 0.492857 -1.34871 -0.494725 0.875909 0.709544 -1.23405 1.01502
1425 -0.0933547 0.204372 -0.0744485 0.137622 -0.0729584 -0.0169912 0.0257575 0.116603 0.263664 0.168885 0.274067 0.0886407 1.84599 -1.41884 -0.6697 -0.711441 -0.257292 0.0160253 -0.523545 -0.0785847 -1.00106 -1.45067 -0.0828246 0.313587 -1.11197 -0.452818 0.878346 1.12817 -1.33142 1.24353
1990 0.205811 0.253414 -0.373915 -0.151271 -0.45584 -0.0390912 0.182153 0.197143 -0.0413418 0.409663 0.496633 -0.0492466 1.56034 -1.77142 -0.736173 -0.78287 -0.336374 -0.260329 -0.798937 -0.145148 -1.02853 -1.59581 0.115815 0.275742 -1.27049 -0.12117 0.699132 0.894961 -1.39156 0.937445
101 0.143294 0.0790026 -0.0374697 0.140813 -0.430734 0.175882 -0.0237726 0.121505 0.238253 0.710289 0.126692 0.105279 2.03667 -1.55505 -0.573114 -1.0398 -0.448835 -0.193332 -0.503237 -0.704092 -1.52769 -1.61133 -0.213128 0.158228 -1.25964 0.07035 0.865816 0.899385 -1.47738 0.878192
104 0.111599 0.36907 -0.269161 0.202596 -0.413563 -0.142559 -0.0502477 0.227 0.19314 0.522755 -0.143698 0.363983 1.92775 -1.26108 -0.53256 -0.941335 -0.455296 0.0486088 -0.378852 -0.321178 -1.43861 -1.77971 -0.069108 0.408292 -1.03862 0.0940107 0.998984 1.01933 -1.22232 0.957367
2018 0.0238048 0.141413 -0.144327 -0.076846 -0.260637 -0.0376646 0.0516436 0.29024 0.36613 0.441821 0.164959 0.236155 1.8931 -1.55007 -0.496459 -1.03048 -0.538273 -0.00343367 -0.794258 -0.370962 -1.28599 -1.64105 -0.153311 0.20346 -1.06636 -0.182582 0.82677 0.777973 -1.47576 0.905791
3091 0.218933 0.261565 -0.0410277 -0.119612 0.0443626 -0.111691 0.0131682 -0.0402015 0.192067 0.369876 -0.0756217 0.197763 1.39496 -1.18014 -0.331417 -0.848954 -0.233249 -0.167211 -0.701702 -0.314387 -0.753797 -1.2895 -0.153392 0.224475 -0.746119 -0.0208377 0.710309 0.532829 -0.916082 0.759863
940 -0.0135778 -0.0400206 -0.121101 -0.282745 -0.299093 -0.194844 0.257843 0.205375 0.829636 -0.0310585 0.221108 0.476487 1.66144 -2.06465 -0.485795 -0.965458 -0.485623 0.128029 -1.14648 -0.515194 -1.2737 -1.75132 -0.227659 0.319924 -0.974368 -0.302863 0.674314 0.600276 -1.73143 0.903402
3041 -0.144042 0.251993 -0.0348213 -0.149016 -0.00983898 -0.231039 0.114527 -0.00143123 0.0899271 0.426662 0.196027 0.146063 1.72669 -1.36977 -0.546992 -0.758546 -0.431355 0.0777384 -0.56195 -0.394549 -0.903206 -1.48375 -0.216199 0.189737 -0.928728 -0.28607 1.00777 0.953351 -1.17157 0.901465
1499 -0.174272 -0.103512 -0.190449 -0.0146432 0.0434832 -0.217564 0.0524992 0.283222 0.457161 0.42406 0.145898 0.277383 1.82669 -1.53204 -0.647845 -0.863987 -0.278353 0.196958 -0.389487 -0.123466 -1.10898 -1.66291 -0.291643 -0.137006 -1.03767 -0.331045 0.956215 0.970997 -1.21467 1.06492
663 -0.109548 0.244128 -0.0212884 0.324116 -0.219424 -0.227722 -0.334916 0.164872 0.414684 0.360918 -0.0789099 0.303312 1.85585 -1.70804 -1.01278 -0.800753 -0.292559 0.464222 -0.620025 0.0752119 -1.29318 -1.68373 -0.287629 -0.0283478 -1.19344 -0.431774 0.786594 0.828119 -1.44478 0.74896
3557 -0.109366 0.201234 -0.0360119 -0.117172 0.248799 -0.152927 0.123493 0.144689 -0.00473558 0.361423 0.561765 0.373449 1.84263 -1.26776 -0.858952 -0.983873 -0.01893 0.241735 -0.558959 -0.469079 -1.04198 -1.8094 -0.00787294 0.326383 -1.15852 -0.416997 0.442739 0.629247 -1.41517 0.626961
320 -0.174458 -0.0879512 0.0676428 0.355065 -0.160573 -0.210615 0.27883 0.297189 -0.247453 0.399926 0.153334 0.871737 1.69422 -1.66597 -0.760342 -1.04152 -0.387384 0.0249029 -0.677702 -0.15692 -0.981796 -2.12135 0.122965 -0.277661 -1.31987 -0.140259 0.597974 0.872087 -1.66195 1.1723
319 -0.175423 -0.139201 -0.147399 0.590741 -0.249041 0.0154723 0.527733 0.288602 -0.29574 0.40678 -0.00349769 0.989035 2.06544 -1.64243 -0.866902 -0.877896 -0.355666 0.186534 -0.558223 -0.480249 -0.947053 -2.13676 0.000696717 -0.247534 -1.42459 -0.0541501 0.886689 0.782137 -2.07492 1.54328
568 -0.46049 -0.0333139 -0.145026 0.0103376 0.044337 -0.0322624 0.0475468 0.309764 0.0083765 0.377024 0.189084 0.425498 1.86542 -1.19302 -0.646823 -0.847593 -0.242758 0.240763 -0.691545 -0.344094 -0.848079 -1.69219 -0.146156 0.134053 -1.00562 -0.36084 0.394002 0.810261 -1.50876 0.787792
856 -0.325332 0.200792 -0.0230642 0.176875 -0.104272 0.045214 -0.247442 0.25068 0.112381 0.16668 -0.0891352 0.421459 1.94944 -1.21089 -0.693043 -0.740667 -0.563131 0.371625 -0.873314 -0.254478 -1.17412 -1.63895 -0.691764 -0.0173449 -1.04551 -0.495912 0.563504 0.566808 -1.42707 0.841316
3827 -0.441893 -0.00985197 0.0178207 0.105017 -0.027555 -0.0745832 0.0206632 -0.0756029 0.131505 0.267804 0.179018 0.286394 1.6645 -1.04931 -0.592445 -0.84505 -0.334914 0.262928 -1.03113 -0.137717 -0.927972 -1.82426 -0.175116 0.100058 -0.759349 -0.129106 0.445285 0.630625 -1.17014 0.713233
612 -0.316548 0.209504 -0.222319 0.146951 -0.463213 0.498596 0.0605141 0.129439 0.340961 0.16376 0.628573 0.467587 1.99283 -1.30889 -0.580271 -0.848993 -0.769113 0.103814 -0.533129 -0.207371 -0.888711 -2.23008 -0.582932 -5.136e-05 -0.90254 -0.200486 0.65136 1.12511 -1.73291 0.94128
1386 -0.373812 0.13406 -0.293333 0.243131 -0.398591 0.302069 0.192642 0.163911 0.273683 0.281109 0.668118 0.388026 1.93837 -1.28082 -0.37052 -0.925536 -0.64796 0.255991 -0.365107 -0.340879 -1.01997 -2.25723 -0.547846 0.273516 -0.742005 -0.0911505 0.655016 1.1315 -1.74173 0.914461
1350 -0.22992 0.0647787 0.00336893 0.273395 -0.820003 0.284142 0.0853844 0.123436 0.0834482 0.390818 0.407977 0.490069 1.93122 -1.18926 -0.447424 -0.845183 -0.495216 0.472656 -0.539492 -0.450277 -1.00573 -2.28343 -0.349264 0.126852 -0.649382 -0.0994636 0.974557 1.15678 -1.69467 0.99277
1007 -0.472451 0.113119 -0.0963008 0.355968 -0.432605 0.35649 0.223104 0.251831 0.562155 0.115518 0.341478 0.411785 1.96816 -1.35103 -0.240539 -0.943292 -0.54923 0.29391 -0.529176 -0.460684 -1.06966 -2.06231 -0.411956 0.159994 -0.753054 -0.0531566 0.632402 1.19296 -1.91265 0.899065
1002 -0.461862 0.145862 -0.14495 0.33656 -0.444603 0.398264 0.148758 0.204709 0.473246 0.367446 0.431248 0.443316 2.05721 -1.19663 -0.254068 -0.944372 -0.426004 0.382262 -0.583415 -0.33845 -1.12645 -2.10021 -0.593275 0.192577 -0.671134 -0.00895093 0.739614 1.18185 -1.90049 0.910609
996 -0.314723 0.0224567 -0.0742002 0.354916 -0.452751 0.398579 0.210901 0.203935 0.926836 0.249882 0.245402 0.327211 2.07642 -1.48589 -0.213791 -1.07267 -0.327317 0.60189 -0.621055 -0.497287 -1.43711 -1.95283 -0.307302 0.203162 -0.664803 -0.0266585 0.698184 1.32835 -2.11333 0.883917
636 -0.327748 -0.0122686 -0.046898 0.311698 -0.273571 0.249003 0.276916 -0.0304082 0.769247 0.414432 0.224846 0.232179 1.82268 -1.53843 -0.187139 -1.01699 -0.468443 0.387444 -0.588728 -0.342537 -1.27836 -1.73771 -0.126693 0.0378494 -0.649332 -0.0389332 0.832957 1.17636 -1.90875 0.850391
998 -0.311026 0.0534385 0.0108462 0.370924 -0.447971 0.223482 0.299443 0.28314 0.658113 0.336048 0.26915 0.43883 2.01311 -1.40616 -0.215767 -0.996617 -0.119599 0.627614 -0.733341 -0.509302 -1.55402 -2.05736 -0.0983149 0.379619 -0.561399 0.0237764 0.659603 1.53945 -2.13395 0.989609
994 -0.263208 0.0771915 -0.0292395 0.307879 -0.378194 -0.0080645 0.207397 0.119173 0.651467 0.199748 0.225806 0.381945 1.87525 -1.30321 -0.331173 -0.833633 -0.181381 0.481993 -0.505854 -0.476205 -1.33861 -1.72802 -0.195034 0.334405 -0.707315 -0.015153 0.520863 1.27607 -1.76978 0.941112
2384 -0.0557844 -0.0266877 -0.110424 0.138859 -0.245665 0.0639401 0.296383 -0.433831 0.389279 0.0716239 0.574521 0.0547423 1.82333 -1.03095 -0.332294 -0.788918 -0.385513 0.181796 -0.325089 -0.710584 -1.22523 -1.568 -0.331096 0.345439 -1.00087 0.198249 0.701587 0.850538 -1.22294 1.0279
4779 0.0273698 -0.194096 0.212338 0.149836 -0.393302 -0.147722 0.262949 -0.315891 0.436712 -0.0426914 0.575346 0.109606 2.21926 -1.31958 -0.465844 -1.19211 -0.62373 0.0676224 -0.30971 -0.978614 -0.771131 -2.15264 -0.497234 0.459994 -1.35556 -0.0388789 0.769618 0.702961 -1.15769 1.23685
1853 -0.0809433 0.0565474 -0.0391013 0.170857 -0.498945 0.162323 0.303037 0.119566 0.604442 0.281843 0.723062 0.24346 1.93014 -1.53107 -0.299637 -1.38254 -0.999288 0.26693 -0.146175 -0.559387 -0.713217 -2.22642 -0.116358 0.258691 -1.00381 0.0741123 0.560475 0.735339 -1.40864 1.11254
617 -0.379545 0.101609 -0.233333 0.0870901 -0.582681 0.435611 0.0632866 0.171142 0.452237 0.199535 0.672599 0.454295 1.99863 -1.29915 -0.430538 -1.016 -0.58041 0.162262 -0.566027 -0.318396 -0.753694 -2.33237 -0.484388 0.00267185 -0.790056 -0.232028 0.792529 1.10398 -1.80554 1.00243
45 -0.365198 0.150323 -0.199271 -0.0291953 -0.444098 0.265915 0.0744568 0.063404 0.262064 0.0816654 0.613082 0.632204 2.04808 -1.1034 -0.31976 -0.908764 -0.567945 0.222184 -0.389858 -0.412533 -1.07663 -2.18619 -0.651443 0.211864 -0.723377 0.0799619 0.924933 1.22747 -1.56975 1.08216
1068 -0.156547 0.0986939 -0.0546242 0.0125625 -0.403793 0.339327 -0.0812172 -0.0325433 0.434925 0.109854 0.651977 0.455786 1.94876 -1.45605 -0.451472 -1.0665 -0.353499 0.197057 -0.759827 -0.160676 -0.954206 -2.16534 -0.475366 -0.116795 -0.973601 -0.504153 0.681305 1.15078 -1.72683 0.892325
1004 0.0147354 -0.00186027 -0.0121021 -0.152583 -0.315881 0.143406 0.0504688 -0.188055 0.55425 0.0777297 0.499684 0.526265 1.92452 -1.37709 -0.434075 -1.09932 -0.285642 0.314996 -0.671408 -0.454723 -1.3425 -1.88881 -0.324831 -0.0244298 -0.861376 -0.204808 0.754039 0.97971 -1.63239 0.897941
3769 -0.242012 0.0318581 0.0380325 -0.201474 -0.252267 0.146498 0.309993 -0.612402 0.391193 0.161816 0.499857 0.573207 2.10913 -1.03506 -0.592889 -0.855239 -0.654867 0.310208 -0.546027 -0.721243 -1.14314 -1.90949 -0.348668 0.271936 -0.871229 0.19643 0.620247 0.854806 -1.29593 1.05272
2248 -0.13628 0.171865 -0.0551775 0.0494044 -0.412627 0.109343 0.271969 -0.178101 0.679289 0.241505 0.103711 0.649507 2.09469 -1.06471 -0.905916 -0.73248 -0.242404 0.0860287 -0.602932 -0.726354 -1.28973 -1.79637 -0.0604821 0.428563 -1.03984 0.16286 0.372286 0.59836 -1.478 1.11924
2249 0.119624 0.425335 0.174688 -0.199755 -0.299009 0.223018 0.125102 -0.168127 0.557565 0.449415 0.274234 0.587904 2.30851 -1.08365 -1.03177 -0.61713 0.0317255 0.0119076 -0.803903 -0.447231 -1.24468 -1.74739 -0.339173 0.623054 -1.16012 0.032512 0.735654 0.50722 -1.34816 1.21032
188 -0.0745378 0.0703068 0.103303 0.0216605 -0.355946 0.0808118 0.199684 -0.259767 0.258436 0.220049 0.303268 0.477932 1.81277 -1.17807 -0.494052 -0.781146 -0.275217 0.183188 -0.539576 -0.406897 -0.800561 -1.73492 -0.429521 0.170892 -0.810082 -0.390405 0.822062 0.781497 -1.37725 0.98415
2180 0.0491506 0.16424 -0.218526 -0.0034994 -0.182984 0.0536212 0.309834 -0.0993939 0.475725 0.331216 0.203408 0.575085 2.09914 -1.41926 -0.793687 -0.841997 0.0280921 0.151894 -0.688439 -0.230812 -1.06284 -1.8631 -0.368608 0.208085 -1.23041 -0.162849 0.715632 0.750429 -1.61034 1.10095
2193 0.0246132 -0.0419582 -0.0722149 0.0800061 0.189421 -0.0474232 0.291019 0.0125028 0.66527 0.436989 0.0781425 0.628443 2.08947 -1.39736 -0.528729 -0.988397 0.00580024 -0.149753 -0.762428 -0.185972 -1.00309 -2.00143 -0.430728 0.17615 -1.0886 -0.340039 0.808986 0.97496 -1.54857 1.38616
1218 -0.14389 -0.0629733 -0.0581816 0.130355 0.0404894 0.184805 0.335852 -0.174046 0.663082 0.29977 0.00653579 0.570246 2.21938 -1.31153 -0.60273 -0.954396 -0.16944 -0.0176448 -0.779437 -0.3695 -0.723468 -2.06409 -0.483995 0.104628 -1.06473 -0.633083 0.787097 0.795509 -1.45137 1.48523
3737 -0.138766 -0.256709 -0.0329001 0.195006 0.183546 -0.0205661 0.609179 -0.349912 0.00777833 0.340264 0.269484 0.385455 1.82411 -1.52094 -0.486003 -0.897466 -0.461344 0.386451 -0.271854 -0.0415613 -1.07884 -1.72079 -0.375517 0.626124 -1.22007 -0.210468 0.851043 0.653016 -1.31963 0.492915
3736 0.0710768 -0.337586 0.140852 0.276394 0.188546 0.0294082 0.495841 -0.316423 -0.0309421 0.467012 0.284852 0.352959 1.82531 -1.39092 -0.641458 -0.741238 -0.320756 0.396884 -0.406031 0.0509889 -1.21779 -1.63296 -0.385326 0.658547 -1.18791 -0.110708 0.719132 0.561758 -1.32194 0.545354
2841 -0.0557618 -0.321822 -0.0445914 0.180467 -0.0985061 0.179253 0.350032 -0.0560099 0.174761 0.315103 0.207719 0.530565 1.76229 -1.39771 -0.660288 -0.622875 -0.41504 0.207821 -0.52787 0.0371356 -1.36853 -1.69935 -0.619134 0.391079 -1.13143 -0.227129 0.58294 0.589827 -1.47508 0.442847
2370 -0.0726299 -0.327338 -0.0543695 0.30567 -0.293537 0.0134143 0.336837 0.0577028 0.132161 0.428354 0.0426658 0.652911 1.83545 -1.58746 -0.730723 -0.618822 -0.419704 0.274818 -0.544355 0.0717878 -1.27874 -1.68798 -0.504814 0.46761 -1.16329 -0.271319 0.433998 0.698045 -1.52652 0.565072
8 -0.191413 -0.18634 -0.0101903 0.370126 -0.199437 0.0190879 0.479769 0.231571 0.209455 0.421086 0.153644 0.327489 2.27678 -1.59928 -0.461612 -0.945825 -0.352108 0.358185 -0.693522 0.349158 -1.21825 -1.89499 -0.522414 0.809927 -1.40728 -0.0611841 0.669019 0.869927 -1.74841 0.791473
457 -0.0610574 -0.218052 0.170443 0.273613 0.0826705 -0.0852745 0.624806 0.30182 -0.0441563 0.546212 0.371361 0.0078193 2.19043 -1.61517 -0.542217 -0.752471 -0.34252 0.426505 -0.653849 0.327419 -1.16295 -1.90706 -0.576972 0.953319 -1.25006 -0.0312561 0.749809 1.01763 -1.48943 0.776784
43 -0.016977 -0.0592741 -0.0679081 0.179329 -0.11746 0.0440757 0.474734 0.208181 0.27651 0.0259448 0.313774 0.0803641 2.0047 -1.37501 -0.49027 -0.732127 -0.334038 -0.0290926 -0.605532 0.121143 -0.990562 -1.59315 -0.241111 0.66118 -1.27774 -0.232246 0.712993 1.11448 -1.35943 1.12328
1951 0.0658706 -0.0392974 -0.122089 -0.221391 -0.0492152 0.119038 0.348005 0.282264 0.0636205 0.303598 0.329842 0.135321 1.89982 -1.59402 -0.366634 -0.938225 -0.745678 -0.00545817 -0.82471 -0.306759 -0.903619 -1.67001 -0.275887 0.435856 -1.0929 -0.441692 0.835774 0.810138 -1.36548 0.895308
58 -0.110534 0.133129 -0.0916003 -0.0590278 -0.310781 0.110251 0.129076 0.214916 0.332529 0.362596 0.140219 0.261298 1.89388 -1.66135 -0.519761 -0.946168 -0.467215 0.181297 -0.874743 -0.331745 -1.09966 -1.8556 -0.18892 0.1414 -1.07513 -0.246269 0.9678 0.774321 -1.45324 1.07036
3111 -0.112129 0.0273983 0.300064 -0.018557 0.0420809 -0.403523 0.175976 0.0365597 0.155095 0.164776 0.00814353 0.422836 1.58502 -1.29576 -0.499666 -0.816884 -0.370914 0.0780746 -0.77315 -0.444096 -0.965715 -1.53419 -0.444178 -0.0529688 -0.851086 -0.312862 0.840486 0.642365 -1.23607 0.836007
4 -0.0678028 0.0976439 0.106032 -0.00796544 -0.0447555 -0.257833 0.208982 0.0197821 0.206291 0.0253863 0.0026937 0.511165 1.80352 -1.33827 -0.624536 -0.833916 -0.214838 0.220587 -0.529519 -0.665491 -0.911835 -1.64033 -0.436467 0.156477 -1.16047 -0.282539 0.632676 0.690986 -1.37831 0.753034
124 -0.098568 -0.423813 -0.379653 0.0359381 -0.475105 0.00974864 0.291013 0.128252 0.408326 0.443368 0.133294 0.129187 2.18401 -1.73569 -0.819657 -1.0263 -0.449598 0.314282 -0.850148 -0.524831 -1.20347 -2.07413 -0.114904 -0.104981 -1.37937 0.0531287 0.858425 0.909516 -1.56742 1.1727
1881 -0.0104093 -0.464804 -0.417068 -0.0467503 -0.472239 -0.12277 0.227717 0.122027 0.418631 0.676007 0.305538 0.0990987 2.05822 -1.85658 -0.699118 -1.15535 -0.535658 -0.136211 -1.15302 -0.506024 -1.05796 -2.16869 -0.183918 -0.124689 -1.21206 -0.199786 0.543045 0.796659 -1.65524 1.17577
1875 -0.167956 -0.436062 -0.34303 -0.0185958 -0.302383 0.06303 0.129822 0.0659833 0.406185 0.396568 0.0621801 0.202162 2.11358 -1.72387 -0.996468 -0.925238 -0.402677 0.347195 -0.923236 -0.514745 -1.06895 -2.3342 -0.173961 -0.214607 -1.21233 -0.0071933 0.837818 1.09946 -1.47984 1.24962
2581 -0.244989 -0.487245 -0.411539 -0.069204 -0.309249 0.181604 0.107423 0.356222 0.475606 0.413146 -0.00203945 0.282439 2.73736 -1.92827 -1.00569 -1.03908 -0.182596 0.637144 -1.12239 -0.57258 -1.41549 -2.61375 -0.233875 -0.0640391 -1.56168 0.0165419 1.25733 1.46764 -1.76251 1.44114
2536 -0.0685838 0.121531 -0.452668 -0.148156 -0.00338878 0.021551 0.315503 -0.0515575 0.351645 0.319824 0.175403 0.121535 1.71702 -1.26718 -0.504382 -0.614484 -0.167427 0.185164 -0.804369 -0.277121 -1.10349 -1.70924 -0.185978 0.140741 -0.713292 -0.427223 1.45211 0.659787 -1.34138 0.742637
116 0.0167229 0.020934 -0.14093 -0.266843 -0.101501 0.104069 0.478873 0.0823065 0.024119 0.30405 0.215707 0.324973 1.81163 -1.65832 -0.494528 -0.757643 -0.329327 0.417132 -0.651387 -0.37937 -1.23944 -1.8288 -0.511649 0.438986 -0.989962 -0.316691 1.26433 0.77004 -1.21917 0.847508
145 -0.0291157 0.0652968 -0.347063 -0.142125 -0.182089 0.0444208 0.342965 0.476848 0.272309 0.16532 0.0539114 0.490848 2.04614 -1.60416 -0.559311 -0.81598 -0.404418 0.589698 -0.916966 -0.432999 -1.19472 -1.81841 -0.425448 0.300567 -0.969797 -0.471201 1.12612 0.562596 -1.45004 1.26366
2402 -0.0371017 0.108943 -0.85912 -0.112761 -0.208715 -0.220928 0.439714 0.354514 0.4922 0.0319593 0.00516033 0.515979 1.85436 -1.38142 -0.603116 -0.515394 -0.280032 0.710322 -0.6903 -0.124428 -1.15965 -1.81136 -0.145252 0.214397 -0.676532 -0.637224 1.41872 0.675441 -1.67084 0.99405
1694 -0.14095 0.0430801 -0.61678 -0.242072 0.0171037 -0.310663 0.136057 0.1538 0.561051 0.428556 0.0946085 0.382752 1.97242 -1.4801 -0.673201 -0.764038 -0.32004 0.391908 -0.455482 -0.208174 -1.06873 -1.86097 -0.264786 0.106383 -0.788067 -0.494843 1.4783 0.721824 -1.39325 0.846761
704 -0.130816 0.0443692 -0.373922 0.0119238 -0.0207086 -0.261528 0.247798 -0.0297696 0.586489 0.187213 0.047277 0.62844 1.75845 -1.36243 -0.588301 -0.766618 -0.279612 0.524581 -0.439759 -0.165064 -1.4649 -1.74396 -0.14174 0.118135 -0.61774 -0.362882 1.2841 0.8656 -1.47706 0.805173
1012 -0.308564 -0.0225786 -0.315425 0.291159 0.0213781 -0.493842 0.309112 -0.0233252 0.426141 0.235122 0.0719944 0.465638 1.63463 -1.34268 -0.362811 -0.755099 -0.433287 0.48608 -0.324672 -0.381306 -1.3894 -1.57052 -0.32728 0.0645245 -0.582213 -0.412821 0.825434 1.06991 -1.64631 0.744988
4151 -0.231275 -0.0177573 -0.166473 0.0834902 0.0233558 0.127308 0.229957 -0.229816 0.0418301 0.394284 0.224615 0.382688 1.24483 -1.08115 -0.529815 -0.544142 -0.13119 0.00448994 -0.563858 -0.147014 -0.906862 -1.76225 -0.0870066 0.387458 -0.802119 -0.253244 0.530002 0.50916 -0.765774 0.664734
3017 0.125553 -0.220262 -0.310203 -0.0762762 -0.0790203 -0.0317892 0.290233 -0.0235781 0.17924 0.285266 0.302213 0.449346 1.3862 -1.21141 -0.980952 -0.383429 -0.116418 -0.171873 -0.78185 -0.226229 -1.23271 -1.89178 0.117392 0.385573 -0.686479 -0.408395 0.753874 0.579183 -1.14441 0.785642
2072 0.152482 0.0768276 0.0109639 -0.315026 -0.0688165 0.00465163 0.206567 0.075047 0.0573918 0.250479 0.179801 0.2888 1.5866 -1.27494 -0.267025 -0.727005 -0.483371 -0.104146 -0.904318 -0.424443 -0.839542 -1.53024 -0.213192 0.332442 -0.878373 -0.495602 0.991947 0.612574 -1.22309 0.671917
3144 -0.102269 0.105505 0.0268488 -0.0835116 -0.255998 -0.159451 0.130651 0.0798165 0.21573 0.528682 0.511075 0.186753 1.34931 -1.40761 -0.410705 -0.69035 -0.401658 -0.0512479 -0.894207 -0.368281 -1.00291 -1.60935 -0.00274326 0.242363 -0.706861 -0.357901 0.785579 0.468807 -1.0888 0.907987
3038 0.0647325 0.194689 -0.305672 0.0666073 -0.118465 0.090749 0.278941 0.187715 0.439248 0.233544 -0.136353 0.3723 1.8722 -1.24938 -0.497319 -0.896478 -0.69587 0.0515698 -0.960717 -0.259651 -1.4983 -1.83723 -0.189794 0.322301 -0.830013 0.324747 0.775932 0.761578 -1.13825 1.27841
2080 0.0546807 0.0515876 -0.384464 -0.126096 -0.199245 -0.0434721 0.0521324 0.227056 0.375678 0.190235 0.241635 0.148187 1.81925 -1.46761 -0.42134 -0.897037 -0.59566 -0.0774694 -0.916069 -0.223625 -1.21652 -1.74222 -0.234733 0.220261 -0.987991 0.222919 0.774162 0.641616 -1.14213 1.0872
3851 -0.236207 0.232728 -0.393481 -0.166744 -0.159875 -0.00351768 0.208345 -0.0514324 0.529645 0.211648 0.223695 0.106611 1.66223 -1.4218 -0.385608 -0.693786 -0.472455 0.0204907 -0.918105 -0.378403 -0.985981 -1.57042 -0.250544 0.301679 -0.721753 -0.012372 0.771561 0.524849 -1.27777 0.757918
3849 -0.0223752 0.304696 -0.218912 0.0897305 0.0231879 0.0227921 0.0805732 0.126008 0.246089 0.234777 0.0214697 0.202006 1.31677 -1.01386 -0.40652 -0.737172 -0.532865 0.127463 -0.606269 -0.338565 -1.04143 -1.45468 -0.204227 0.222765 -0.682486 0.115884 0.446908 0.453112 -0.804665 0.596694
3092 -0.0293003 0.253512 -0.2545 -0.194154 -0.443279 0.0516965 0.128746 0.120011 0.266493 0.372612 0.330685 0.152066 1.3244 -1.73595 -0.681465 -0.647124 -0.212089 -0.0878089 -1.10693 -0.101676 -0.866347 -1.54762 -0.0156761 0.168854 -0.990166 -0.171961 0.768235 0.57824 -1.28047 1.04121
3886 -0.0706698 0.0459615 0.0991595 -0.00599876 -0.223297 0.104291 0.279416 -0.182396 0.0516237 0.663733 0.474109 0.284855 1.60443 -1.70187 -0.622296 -0.939005 -0.448714 0.26145 -0.452725 -0.0217896 -1.10286 -2.00885 -0.166989 0.378571 -0.921788 0.0819274 0.875985 0.799936 -1.13517 0.896083
1939 0.0381564 -0.0404212 -0.161004 0.251864 -0.480035 0.0707964 0.12093 0.113786 0.117555 0.230719 0.603201 0.661211 1.44073 -1.31508 -0.657145 -0.860386 -0.222109 -0.0877272 -0.25675 -0.0758204 -1.36708 -1.91905 -0.0173968 0.0281958 -0.83624 0.0319467 0.416764 1.00818 -1.45956 0.69671
1932 0.106745 -0.0745701 -0.392363 0.28119 -0.310378 -0.260129 0.0687547 0.486121 0.497774 0.244162 0.439138 0.889108 1.9423 -1.38312 -1.00936 -0.866416 0.189615 -0.0644393 -0.636977 -0.11689 -1.89266 -2.16121 0.142339 0.00943665 -1.03591 0.261971 0.809263 0.680541 -2.14576 0.743657
3288 -0.184396 0.00867509 0.155688 0.383109 -0.311874 -0.341534 0.00296627 0.255984 0.499262 0.215321 0.246016 0.405527 1.67376 -1.45517 -0.906819 -0.557592 -0.190099 -0.147224 -0.702404 -0.0157313 -1.35504 -1.87369 -0.374467 0.238221 -0.95401 0.118004 0.575526 0.621569 -1.40576 1.03872
781 -0.261807 0.0104507 0.505582 0.458952 0.197529 -0.407809 0.140921 0.282428 0.232841 0.435378 0.294018 0.29754 1.69557 -1.8117 -0.726783 -0.836288 -0.312335 0.000310832 -0.904148 0.101231 -0.887103 -1.98091 -0.182682 0.104691 -1.06872 0.0492343 0.440333 1.12791 -1.66669 0.847023
175 -0.093727 0.238783 0.0656709 0.144264 0.0187069 -0.0829566 0.185931 0.26341 -0.180263 0.515443 0.280783 0.60436 1.78952 -1.29606 -0.70194 -0.880947 -0.19325 0.168116 -0.383969 -0.536741 -0.917993 -1.72059 0.0768773 0.0750721 -1.13213 -0.44654 0.766196 0.614672 -1.53903 0.800883
18 -0.176826 0.149875 0.0424822 0.442616 0.402248 -0.0189117 0.372163 0.460061 0.0115201 0.154818 0.129169 0.535508 1.66442 -1.40963 -0.581135 -0.85046 -0.479719 0.215937 -0.531195 -0.116591 -1.3541 -1.74182 -0.199083 0.343293 -1.07219 -0.0374512 0.329023 0.942224 -1.32205 0.992961
1700 -0.0188103 -0.0995181 -0.509079 0.0928644 0.0881621 -0.488457 0.235555 0.284778 0.393705 0.304497 0.020033 0.659021 1.83803 -1.04587 -0.727965 -0.623765 -0.538008 0.120258 -0.400089 -0.137204 -1.38355 -1.79873 -0.24576 0.260822 -0.758096 -0.42637 0.846791 0.607258 -1.19534 1.05488
1716 -0.0718858 0.215591 -0.523631 0.137305 -0.0222459 -0.174849 0.27533 0.162892 0.388593 0.232056 -0.0240323 0.37214 1.66883 -1.28128 -0.456073 -0.701374 -0.397488 0.468794 -0.527378 -0.0436469 -1.33142 -1.6933 -0.268668 0.213969 -0.610087 -0.301069 1.21013 0.708318 -1.35247 0.870677
34 -0.0462729 0.0778249 -0.207044 0.198804 -0.283873 0.0878197 0.273152 0.156723 0.5697 0.382814 0.198236 0.0548002 1.83138 -1.63638 -0.504054 -0.907324 -0.188421 0.601165 -0.826344 -0.17507 -1.22734 -1.76381 -0.0511213 0.199304 -0.877073 -0.411297 1.12561 0.761229 -1.69938 0.884024
1437 -0.0986048 0.00245277 -0.10335 -0.0928783 -0.0600375 0.0218359 0.300922 -0.12345 0.10818 0.48305 0.268391 0.284924 1.56397 -1.54584 -0.371132 -0.851061 -0.459811 0.344722 -0.737756 -0.232915 -1.2643 -1.53084 -0.292187 0.147061 -0.776123 -0.10887 1.0103 0.613238 -1.45195 0.653879
2390 -0.181674 0.113468 -0.370892 0.00603859 0.110202 -0.234499 0.104693 0.264113 0.186762 0.449178 0.0258842 0.478798 1.55892 -1.66508 -0.393444 -0.782299 -0.234446 0.455889 -0.588565 -0.106554 -1.07603 -1.53372 -0.445294 0.0684865 -0.885636 -0.726695 1.26202 0.578981 -1.47986 0.706847
1844 -0.160578 0.00876113 -0.0849118 -0.0347666 0.0672285 -0.327722 0.214077 -0.119944 0.13569 0.499784 0.193488 0.678537 1.80471 -1.52939 -0.43738 -1.08756 -0.313388 0.650103 -0.447175 -0.0362396 -1.21609 -1.73996 -0.320629 0.431221 -0.934488 -0.238821 0.957025 0.492574 -1.22506 0.918997
674 -0.135902 -0.18559 0.0371763 0.224744 0.027352 -0.229824 0.430752 -0.135785 -0.00300082 0.410799 0.222203 0.433712 1.82957 -1.6882 -0.41077 -0.902289 -0.432644 0.42493 -0.326913 0.0380429 -1.32495 -1.78358 -0.581522 0.881079 -1.21641 -0.136523 0.622292 0.670193 -1.08854 0.77585
452 -0.0840056 -0.0888438 0.200839 0.202468 -0.342232 0.0646225 0.357817 0.390504 0.0522156 0.598658 0.341961 0.248403 2.25143 -1.71746 -0.631094 -0.793993 -0.397884 0.539805 -0.749886 0.137482 -1.19786 -1.91951 -0.902888 0.772245 -1.24145 -0.123415 0.629746 0.839741 -1.59169 0.98178
3261 -0.321119 -0.350255 -0.465559 0.0462494 -0.497949 0.367221 0.181615 0.176103 0.316848 0.495841 0.247187 0.797438 2.71447 -1.97115 -0.834069 -0.997535 -0.313741 0.296506 -0.83569 0.130202 -1.42814 -2.2904 -0.808498 0.661156 -1.69053 -0.612816 0.660822 0.964572 -2.23669 0.855966
31 -0.285187 -0.429303 -0.465366 0.158395 -0.584172 0.672816 0.108895 0.19259 0.382973 0.455944 0.229457 0.751615 2.62489 -2.14036 -0.699229 -1.14827 -0.229923 0.134996 -0.758734 0.215785 -1.46861 -2.29821 -0.85757 0.594037 -1.75626 -0.410246 0.715544 1.00341 -2.21035 0.9895
3408 -0.455946 -0.398394 -0.422719 0.140122 -0.424729 0.47957 0.194006 0.266727 0.470528 0.541562 0.212803 0.777548 2.74444 -2.22179 -0.791718 -1.00991 -0.192569 0.334444 -0.875784 0.180614 -1.48118 -2.36283 -1.00324 0.655179 -1.74418 -0.369755 0.712247 0.986886 -2.32452 1.08712
3757 -0.283085 -0.44611 -0.345294 0.179964 -0.520586 0.538979 0.307124 0.22832 0.392475 0.30841 0.0723058 0.851794 2.61693 -2.08651 -0.667373 -0.919076 -0.299669 0.225493 -1.05329 0.239117 -1.32944 -2.36323 -0.972631 0.680032 -1.64818 -0.433501 0.641416 0.930191 -2.24877 1.02081
566 -0.395851 -0.138595 -0.383374 0.0954375 -0.58503 0.424981 0.182335 0.0834312 0.182831 0.560681 0.0746249 0.835178 2.56966 -1.89244 -0.787569 -0.859684 -0.223207 0.304668 -1.05828 0.105293 -1.51658 -2.12346 -0.929117 0.652923 -1.51168 -0.455379 0.720014 0.903139 -2.16243 0.926952
4605 -0.322889 -0.443334 -0.625799 0.1653 -0.558736 0.46876 0.223142 0.264415 0.448335 0.433418 0.113077 0.899719 2.77034 -1.87346 -0.818645 -1.00532 -0.404852 0.335813 -0.898246 0.284729 -1.40012 -2.2788 -0.890627 0.615358 -1.62262 -0.456696 0.606812 0.876803 -2.24816 1.06725
4803 -0.4219 -0.36333 -0.383054 0.128683 -0.475431 0.658392 0.177219 0.335843 0.52081 0.532212 0.114987 0.910962 2.91925 -2.15302 -0.845546 -1.0364 -0.236938 0.166242 -0.970164 0.0445957 -1.42894 -2.48908 -1.04435 0.686229 -1.79438 -0.55962 0.771854 0.977726 -2.32652 1.10519
4621 -0.492108 -0.254547 -0.389396 0.219922 -0.323345 0.557706 0.17092 0.233546 0.271056 0.460511 0.180178 0.87626 2.56 -2.03674 -0.845907 -0.974943 -0.322356 0.292839 -0.921181 0.19326 -1.2745 -2.19851 -0.914032 0.461166 -1.59946 -0.638273 0.592237 0.795691 -2.22887 1.05402
3620 -0.368245 -0.392221 -0.466349 0.189595 -0.450618 0.482483 0.120014 0.259276 0.411765 0.510551 0.233764 0.754147 2.83184 -2.13193 -0.768967 -1.05418 -0.233018 0.326199 -0.927718 0.298741 -1.43304 -2.27856 -0.97168 0.667364 -1.76294 -0.420699 0.671362 0.946344 -2.30307 1.08913
3617 -0.358365 -0.349411 -0.387442 0.169407 -0.471996 0.64038 0.171118 0.35047 0.430188 0.549055 0.10957 0.822202 2.79432 -2.18144 -0.795053 -1.00086 -0.263302 0.318356 -0.945364 0.243792 -1.33376 -2.39416 -0.998572 0.684215 -1.71803 -0.499615 0.805355 1.02023 -2.21297 1.11186
3621 -0.39256 -0.422055 -0.436773 0.108799 -0.482054 0.54038 0.0943312 0.386153 0.510378 0.396168 0.234615 0.744209 2.71937 -2.11269 -0.763205 -0.966611 -0.159648 0.215662 -1.05348 0.17075 -1.47026 -2.36316 -1.07475 0.59241 -1.75179 -0.53707 0.704141 0.953657 -2.2036 1.14462
4802 -0.389445 -0.397193 -0.357912 0.169179 -0.47972 0.608893 0.23304 0.281558 0.416806 0.468316 0.179501 0.840857 2.75769 -2.16244 -0.860072 -0.957393 -0.287266 0.269234 -1.03018 0.229943 -1.42421 -2.39343 -1.02294 0.567739 -1.66617 -0.482553 0.757635 0.953326 -2.3734 1.02904
3262 -0.306385 -0.413282 -0.491501 0.0782506 -0.597705 0.604718 0.165942 0.265151 0.478141 0.46771 0.138953 0.947985 2.80862 -2.11259 -0.931674 -0.995503 -0.307573 0.271244 -0.855631 0.171795 -1.49022 -2.35596 -0.940407 0.554573 -1.78976 -0.316726 0.709513 0.973694 -2.31696 1.00706
3256 -0.309741 -0.354672 -0.418246 0.194334 -0.624075 0.579213 0.193242 0.285857 0.394805 0.3878 0.132329 0.885009 2.70484 -2.14539 -0.909836 -0.946734 -0.184776 0.335905 -0.95006 0.234033 -1.54529 -2.3685 -0.937523 0.625599 -1.76257 -0.495026 0.662982 0.957493 -2.37229 0.964636
3253 -0.451757 -0.346086 -0.349077 0.137614 -0.488105 0.615624 0.105357 0.123054 0.420839 0.514498 0.147127 0.872607 2.77785 -2.02453 -0.850179 -0.963436 -0.287893 0.28934 -0.964387 0.204601 -1.5384 -2.23907 -0.945355 0.498562 -1.6358 -0.506448 0.818497 0.945024 -2.35588 0.968841
4272 -0.411003 -0.0197407 -0.0689902 0.0284111 -0.172621 -0.0528226 0.0168659 -0.0581573 0.0594174 0.376901 0.182606 0.490723 1.41597 -1.38843 -0.619336 -0.681531 -0.29905 0.0956688 -0.918714 -0.332452 -0.869138 -1.83978 -0.236661 0.133747 -0.81676 -0.216683 0.368846 0.687764 -1.25243 0.811802
575 -0.419837 -0.00938904 -0.158858 -0.0496387 -0.313372 0.133767 -0.113512 0.114596 0.131788 0.532834 0.223113 0.835857 1.92982 -1.45666 -0.400884 -0.905089 -0.616445 0.481223 -0.71338 0.137507 -1.17628 -1.78667 -0.605074 0.439038 -0.819091 -0.55134 0.511986 0.876825 -1.46059 1.10769
3254 -0.323895 -0.404918 -0.367606 0.105776 -0.492549 0.462771 0.077993 0.364639 0.423545 0.507889 0.267103 0.870991 2.70772 -2.1052 -0.970907 -0.976745 -0.213032 0.290729 -0.883055 0.203909 -1.51485 -2.31071 -0.873123 0.711298 -1.68168 -0.633848 0.610713 0.891061 -2.28263 1.08005
3260 -0.296311 -0.450378 -0.497881 0.0629441 -0.582215 0.59528 0.096008 0.241189 0.481299 0.429098 0.274486 0.860233 2.83784 -2.05955 -0.829184 -1.0239 -0.224004 0.27716 -0.974272 0.334895 -1.50648 -2.37204 -0.864584 0.641106 -1.74556 -0.581577 0.831786 0.987082 -2.40609 1.03278
3259 -0.367791 -0.376726 -0.574126 0.150779 -0.42255 0.272051 0.168329 0.255605 0.404959 0.469484 0.133656 0.814029 2.48511 -1.95242 -0.736726 -0.953484 -0.259697 0.274852 -0.707807 0.328036 -1.40036 -2.17952 -0.745353 0.529428 -1.48508 -0.589445 0.686102 0.953382 -2.09481 0.879812
5207 -0.268468 -0.450492 -0.378921 -0.0774962 -0.417627 0.507438 0.0129574 0.13671 0.339287 0.405006 0.326088 0.869078 2.59016 -1.89704 -0.944857 -1.014 -0.253739 0.221004 -0.756903 0.159492 -1.52427 -2.18231 -0.649458 0.603713 -1.70746 -0.517511 0.706196 0.886546 -2.16966 0.709188
2512 -0.217739 -0.316628 -0.365455 -0.125144 -0.57401 0.433545 0.267051 -0.039722 0.14452 0.327583 0.300685 0.95962 2.29288 -1.87886 -0.889373 -0.763654 -0.415099 0.339399 -0.712589 0.164404 -1.57635 -1.87959 -0.570317 0.633224 -1.41908 -0.402036 0.709309 0.923361 -2.07201 0.730811
3618 -0.39991 -0.346527 -0.527687 0.11212 -0.459953 0.650904 0.0896425 0.368278 0.56274 0.479505 0.196939 0.872948 2.85778 -2.18872 -0.78405 -1.04571 -0.269696 0.271142 -0.917446 0.175085 -1.47482 -2.41242 -0.983283 0.686977 -1.74035 -0.654704 0.665891 1.01492 -2.30635 1.14229
3229 -0.320266 -0.348935 -0.351074 0.0587522 -0.536253 0.582528 0.168295 0.174111 0.430527 0.479589 0.209438 0.741403 2.76427 -2.13048 -0.916003 -0.978855 -0.242781 0.270077 -0.856447 0.190126 -1.4334 -2.24101 -0.790341 0.606423 -1.76467 -0.477788 0.851005 0.867719 -2.26317 0.842461
3623 -0.408085 -0.44329 -0.319722 0.183748 -0.360533 0.604798 0.147836 0.289071 0.522602 0.514491 0.115442 0.794874 2.73269 -2.14253 -0.821707 -1.05875 -0.152488 0.213784 -1.08575 0.238386 -1.52433 -2.37763 -0.829732 0.679767 -1.71672 -0.375332 0.70128 0.956278 -2.25066 1.02241
2712 -0.249934 -0.368858 -0.352356 0.157677 -0.524494 0.591531 0.193612 0.173268 0.326147 0.458521 0.0282253 0.830647 2.67293 -1.9749 -0.80766 -0.966885 -0.321629 0.111584 -0.858624 0.129055 -1.50979 -2.14487 -0.940856 0.59432 -1.6443 -0.380516 0.752843 0.946761 -2.21049 1.00777
451 -0.312131 -0.306958 -0.0764679 0.167278 -0.270402 0.113168 0.349635 0.385873 0.223451 0.44735 0.18025 0.461016 2.4319 -1.8099 -0.730508 -0.778026 -0.223255 0.321155 -0.869863 0.170837 -1.29602 -1.98428 -0.734049 0.701565 -1.48479 -0.18448 0.597272 0.894206 -1.83527 0.930618
2456 -0.273099 -0.105994 -0.121624 0.0988111 -0.0687544 0.00321843 0.135069 0.101704 0.300206 0.355031 0.0442587 0.416995 2.03944 -1.42217 -0.501164 -0.902917 -0.372119 0.353852 -0.667323 -0.130523 -1.30835 -1.83733 -0.779274 0.807544 -1.18205 0.0900798 0.318312 0.8489 -1.29829 0.593661
525 -0.177304 -0.156958 -0.285322 0.0737688 -0.228817 0.0913393 0.211366 0.19192 0.134273 0.262963 0.0587343 0.389032 2.27637 -1.33594 -0.713359 -0.736558 -0.379407 0.211122 -0.821872 0.0261583 -1.29576 -1.8586 -0.627397 0.637782 -1.25123 -0.354474 0.646929 0.823249 -1.55316 0.772878
453 -0.158434 -0.17576 0.0544064 0.289067 -0.0839203 0.0381102 0.538308 0.169345 -0.0182529 0.703863 0.358633 0.233192 2.13342 -1.61264 -0.588712 -0.754088 -0.325451 0.373018 -0.554771 0.198716 -1.18526 -1.79983 -0.635883 0.784189 -1.25281 -0.12261 0.691787 0.823122 -1.53441 0.878426
679 -0.209791 -0.0280745 -0.142188 0.161004 -0.283645 0.30671 0.350658 0.168701 0.119754 0.55471 0.166894 0.487676 2.14662 -1.42524 -0.624087 -0.75584 -0.345702 0.423396 -0.682121 0.145301 -1.41917 -1.7901 -0.585835 0.756901 -1.12759 -0.0339594 0.692758 0.608891 -1.55835 0.660953
4595 -0.184406 0.027922 -0.226587 0.141366 -0.119471 0.322808 0.194424 0.0457154 0.330843 0.341112 0.154463 0.414491 2.06063 -1.46707 -0.763874 -0.519728 -0.595005 0.229958 -0.533278 0.151884 -1.40116 -1.51037 -0.966144 0.500467 -1.276 -0.0151342 0.614056 0.599701 -1.46967 0.717312
473 -0.214755 0.169569 -0.243755 0.192695 -0.475506 0.145302 0.12722 -0.0368176 0.389504 0.50589 -0.0495101 0.589428 1.99924 -1.63841 -0.809506 -0.631327 -0.437075 0.356327 -0.538671 0.423999 -1.47702 -1.72698 -0.368042 0.631638 -1.08288 0.0291225 1.06582 0.581938 -1.46456 0.876415
471 -0.070522 0.0949429 -0.187154 0.24107 -0.352158 0.0172552 0.198994 -0.145792 0.254064 0.463708 -0.0565847 0.52024 1.77715 -1.58487 -0.919134 -0.569702 -0.431714 0.461378 -0.507937 0.457343 -1.20058 -1.65576 -0.330961 0.516877 -0.971417 -0.259744 0.922162 0.61316 -1.29784 0.615205
4322 -0.112521 0.125623 -0.0293154 0.231091 -0.483953 0.12831 0.323956 -0.350012 0.306275 0.335028 0.330613 0.442713 1.91766 -1.0859 -0.404728 -0.805857 -0.235879 0.133488 -0.463087 -0.287192 -0.982882 -1.77001 -0.500373 0.00416598 -0.967689 0.312859 0.922322 0.87251 -1.46476 1.06929
1360 -0.323088 0.0764161 -0.134738 0.310086 -0.184574 -0.0179046 0.294805 0.0202799 -0.282109 0.251021 0.202142 0.885419 1.50904 -1.55633 -0.659272 -0.878833 -0.403894 -0.0283478 -0.417821 -0.389314 -1.08097 -1.92019 -0.115786 0.0901585 -1.28278 -0.124644 0.604376 0.677073 -1.28455 1.10727
698 -0.00978173 0.0478571 0.148108 0.310677 -0.165727 0.448407 0.353933 0.146608 -0.195585 0.564684 0.10054 0.733828 1.87066 -1.6674 -0.716239 -1.01351 -0.805799 -0.0359711 -0.467918 -0.545063 -1.02705 -2.02173 0.0078607 -0.250448 -1.24607 -0.387386 1.06165 0.703263 -1.67409 1.06579
3202 0.148835 0.230818 -0.119095 0.0682963 -0.399511 0.033257 -0.048436 0.0300118 0.44498 0.464167 0.0557008 0.116092 1.58794 -1.64109 -0.519746 -0.830261 -0.380902 0.203224 -0.784709 -0.0902275 -1.11181 -1.56143 -0.227967 0.162239 -0.911586 -0.356069 0.941381 0.58762 -1.36395 0.478352
3090 -0.136855 0.118897 -0.190381 0.0892934 -0.0985197 -0.091322 0.251266 -0.152307 0.317886 0.343264 0.20334 0.030071 1.36004 -1.39436 -0.521985 -0.618636 -0.288642 0.247905 -0.923057 -0.209215 -1.19828 -1.64921 -0.176146 -0.0107701 -0.656659 -0.114792 0.863672 0.497632 -1.21655 0.647968
1407 0.004808 0.215602 -0.189941 -0.121152 -0.410215 -0.286655 0.275263 0.0560802 0.245348 0.420738 0.514579 0.232898 1.73356 -1.62391 -0.252168 -1.09365 -0.725138 -0.140817 -0.793735 -0.56269 -1.14146 -2.11223 -0.300556 0.274975 -0.761558 0.029863 1.02226 0.848981 -1.26701 1.15541
1414 -0.171681 0.0588435 -0.163628 -0.136687 -0.312283 -0.307788 0.225988 -0.0768816 0.402306 0.273234 0.519647 0.142533 1.59338 -1.37842 -0.241725 -0.951647 -0.61926 -0.152003 -0.763943 -0.652384 -1.03177 -2.1385 -0.336746 0.287142 -0.562597 -0.0380981 1.08858 0.745802 -1.15126 0.917065
3047 -0.127018 0.00652185 -0.00537417 0.0248262 -0.107038 0.0764015 0.212545 -0.191982 0.221941 0.428006 0.108697 0.247662 1.37775 -1.40722 -0.567093 -0.621285 -0.507958 -0.157017 -0.767373 -0.356957 -0.940674 -1.72609 -0.147062 0.130633 -0.791115 -0.233095 0.679488 0.481721 -0.977093 0.849609
1277 -0.285422 0.1965 -0.331986 0.0188776 0.0972574 0.0646175 0.286994 -0.00611326 0.654 0.208433 0.125777 -0.0989536 1.56167 -1.68294 -0.459849 -0.655801 -0.443986 0.029104 -1.01835 -0.0851582 -0.902573 -1.30508 -0.0110626 0.111055 -0.954497 -0.10243 0.59613 0.82485 -1.59195 0.803112
2075 -0.0401573 0.09575 -0.297335 -0.0207149 -0.157564 0.104425 0.267968 0.177402 0.534889 0.300079 0.490962 0.454832 1.66281 -1.66467 -0.728319 -0.939505 -0.767154 -0.293834 -0.601634 -0.119738 -0.980862 -1.76481 0.154296 0.29594 -1.05541 -0.442094 0.622017 0.310655 -1.59795 0.760176
686 -0.113055 0.0382449 -0.338207 0.149585 0.0517449 -0.0790241 0.371329 0.0945958 0.196124 0.394679 0.303598 0.201339 1.77436 -1.31079 -0.599121 -0.811628 -0.401261 0.181141 -0.719623 0.107244 -1.09769 -1.84972 -0.0351989 0.627031 -1.03019 -0.540883 0.641854 0.643961 -1.24609 0.61574
2804 -0.0878144 -0.0475888 0.259861 0.128585 0.104316 0.0291654 0.275925 -0.223022 -0.0443281 0.544633 0.477582 0.193779 1.83417 -1.39973 -0.723131 -0.628767 -0.392955 0.432346 -0.508757 0.0594688 -1.09903 -1.68783 -0.350591 0.742832 -0.954629 -0.60819 0.812215 0.68672 -1.25694 0.514474
437 -0.386009 0.051506 -0.152248 -0.100578 -0.199929 -0.196744 0.358188 -0.641033 0.0224996 -0.299165 0.400075 0.331727 1.74943 -1.43899 -0.712873 -0.731322 -0.234506 0.284229 -1.02776 -0.309399 -0.933214 -1.9348 -0.184875 0.112032 -1.24055 0.461825 1.15611 0.66812 -1.61262 0.427026
426 -0.315309 0.0112982 -0.0368446 0.0277375 0.170458 -0.118748 0.441825 -0.369068 0.24757 -0.435297 0.311445 0.237445 2.05965 -1.33773 -0.745796 -0.752996 -0.127438 0.423877 -1.20031 -0.252963 -1.06632 -2.09803 0.033631 0.14696 -1.28356 0.51578 1.34271 0.734001 -1.79541 0.557656
424 -0.137604 0.00794624 -0.174238 0.126213 -0.0432196 -0.190504 0.195575 -0.31507 0.0307788 0.11999 0.300395 0.431335 2.22171 -1.67385 -0.787419 -0.87754 -0.334341 0.41301 -0.961554 -0.410845 -1.0046 -2.26563 -0.321687 0.329007 -1.41321 0.330158 1.2418 0.913068 -2.02815 0.802465
427 -0.248026 0.0497926 0.0442635 0.0110729 0.258064 0.141568 0.509055 -0.341548 0.149446 -0.101339 0.278446 0.383304 1.81553 -1.30017 -0.798833 -0.739361 -0.254373 0.564537 -1.14394 -0.144697 -1.12233 -1.90374 0.0358429 0.129053 -1.02187 0.382458 0.996754 0.60003 -1.67893 0.315679
51 0.099778 0.051503 -0.0465748 -0.0754867 -0.0937312 0.0715144 0.467725 0.316293 0.0750436 0.297424 0.186186 0.391191 2.00354 -1.3501 -0.417476 -0.9563 -0.498834 0.590581 -0.899096 -0.289215 -1.10682 -1.77338 -0.106288 0.4609 -0.9353 -0.289726 0.917365 0.520405 -1.57896 0.775094
151 -0.154672 0.106769 -0.136254 -0.341756 -0.14566 0.0455669 0.245455 0.257426 0.262516 0.26367 0.0234199 0.484412 1.7246 -1.54723 -0.369133 -0.7209 -0.314105 0.38268 -1.13784 -0.275036 -1.18505 -1.73608 -0.20832 0.546328 -0.672039 -0.451667 1.0399 0.74313 -1.58842 0.799655
651 -0.0769206 0.044494 -0.191046 -0.00329927 -0.203647 -0.0353974 0.187662 -0.0142321 0.331696 0.206029 0.125892 0.258673 1.76879 -1.46076 -0.422538 -0.954485 -0.202284 0.0950929 -0.679351 -0.0215136 -1.20193 -1.81149 0.0185916 0.403767 -0.992661 -0.253844 1.42045 0.702867 -1.35527 0.792008
351 -0.103072 -0.143995 0.117053 -0.245637 -0.270353 -0.0755441 0.25561 0.0104954 0.517418 -0.124297 0.23289 0.553399 2.06357 -1.30112 -0.493598 -0.764676 -0.21286 -0.362417 -1.03775 -0.657076 -1.31472 -1.61442 0.167882 0.574274 -0.95226 -0.304786 0.573696 1.40737 -1.90397 0.975546
359 -0.175475 -0.248552 0.156222 -0.221229 -0.197298 -0.103867 0.492712 -0.0149526 0.458914 -0.295951 0.219012 0.935537 2.07388 -1.36374 -0.590355 -0.74194 -0.295782 -0.184576 -0.869947 -0.739568 -1.49983 -1.79075 0.0833546 0.604466 -0.958459 -0.346402 0.556441 1.51552 -1.9671 1.13399
365 -0.110903 -0.329634 0.0332916 -0.280493 -0.377188 -0.112175 0.473618 -0.164858 0.488333 -0.23623 0.382501 0.906529 2.14672 -1.45038 -0.625219 -0.756437 -0.296745 -0.198235 -0.872186 -0.640603 -1.63183 -1.89439 0.0662274 0.64982 -1.03528 -0.2143 0.578156 1.51689 -1.89788 1.08355
358 -0.198858 -0.175212 0.0456898 -0.227637 -0.137801 -0.130394 0.272042 0.0311931 0.46381 -0.165081 0.371003 0.774822 2.03041 -1.56729 -0.596364 -0.882112 -0.191144 -0.281415 -0.82774 -0.516021 -1.40327 -1.8645 0.0705682 0.52917 -1.03392 -0.52064 0.534199 1.64315 -1.92393 1.06431
368 -0.0285678 -0.315944 -0.123002 -0.338204 -0.235101 -0.0690887 0.261977 -0.0978698 0.659728 -0.332081 0.504074 0.95841 1.71418 -1.48189 -0.622548 -0.935102 -0.242529 -0.0831437 -0.705655 -0.479788 -1.53708 -1.80912 0.163706 0.326021 -0.812752 -0.475922 0.458899 1.34023 -1.90655 0.746907
211 -0.302901 -0.159095 0.0418732 -0.0911904 -0.367459 -0.0512687 0.423933 0.112399 0.47053 -0.102364 0.398057 0.76833 2.02957 -1.44562 -0.407645 -0.753602 -0.188346 -0.183521 -0.898896 -0.776756 -1.57162 -1.85371 0.00112109 0.526048 -0.83681 -0.161101 0.499641 1.5833 -2.16011 1.16541
2934 -0.146514 -0.0759531 0.1416 -0.267889 0.132801 -0.152191 0.331514 0.177139 0.31496 0.0177919 0.471833 0.73045 1.96982 -1.35788 -0.892124 -0.729449 -0.125099 -0.00830511 -0.680775 -0.683343 -1.43608 -1.733 0.28778 0.617789 -1.02041 -0.299401 0.341956 1.28586 -1.83816 0.860078
1296 -0.0555566 0.252944 0.1572 -0.130667 -0.0774276 0.0858346 -0.184049 0.0369793 0.429489 0.395425 0.930534 0.405466 1.80292 -1.4895 -1.07208 -0.682934 -0.562891 0.204324 -0.540146 -0.315653 -1.18735 -1.83064 -0.460931 0.502666 -0.892242 -0.0945563 0.540712 0.359834 -1.33431 0.996949
517 0.0051124 0.128818 0.130841 -0.232264 0.0281483 -0.0207693 0.065614 -0.0358772 0.00239235 0.449989 0.876943 0.385455 1.67259 -1.31672 -0.969572 -0.557012 -0.450621 0.184097 -0.573479 -0.594287 -1.3218 -1.77339 -0.31816 0.312605 -0.732467 -0.110357 0.669457 0.588694 -1.35343 0.898405
111 -0.00549472 0.157806 -0.0233229 0.0625256 -0.331357 -0.0565181 0.0279432 -0.026422 0.040698 0.430166 0.329623 0.484091 1.68066 -1.32192 -0.530424 -0.890763 -0.486892 0.105657 -0.342385 -0.474303 -1.17867 -1.64409 -0.14474 0.147244 -0.893971 -0.206748 0.752599 0.789356 -1.29137 1.03924
2941 -0.265754 -0.209865 -0.123756 -0.0905541 0.162439 0.0352161 0.130726 -0.0804845 0.162135 0.635744 0.27106 0.723844 1.53476 -1.27482 -0.295385 -0.816333 -0.539869 -0.398792 -0.610973 -0.23224 -1.3996 -1.68202 -0.645737 0.112385 -0.583573 -0.253304 0.630466 0.779266 -1.20669 1.09192
3138 -0.0863375 0.0230671 0.0695857 0.103763 -0.055605 -0.215855 0.222673 0.0596175 0.257068 0.0511594 -0.0142534 0.203069 1.43603 -1.42047 -0.313297 -0.829246 -0.304766 -0.056413 -0.974873 -0.423235 -1.00468 -1.74193 -0.498558 -0.00575553 -0.862346 -0.203064 0.933305 0.49021 -1.07873 0.631023
1060 0.120146 0.0618976 0.0461988 0.0391993 -0.301258 0.144659 0.102526 0.0107499 0.337617 0.072057 0.628299 0.509989 1.93118 -1.49854 -0.474545 -1.03877 -0.180999 0.501566 -0.723315 -0.254833 -1.27519 -2.03768 -0.559215 -0.126866 -0.982741 -0.320893 0.681994 1.0093 -1.72264 1.07235
1062 0.134984 -0.00787821 -0.109239 0.0551667 -0.205345 0.00129916 0.21241 -0.0387378 0.37651 0.197463 0.28022 0.590167 1.99423 -1.24076 -0.490365 -1.02592 -0.140428 0.247078 -0.792204 -0.00798614 -1.01777 -1.91043 -0.313039 0.0224766 -1.02066 -0.310146 0.742315 0.929233 -1.72181 0.950639
1030 0.0904464 -0.0558853 -0.0429424 -0.104209 -0.276688 0.150447 0.0584329 0.0141202 0.463549 0.030447 0.709919 0.529752 1.90746 -1.5173 -0.484759 -1.06436 -0.122311 0.295634 -0.84617 -0.185109 -1.20778 -2.01028 -0.552764 -0.11687 -0.935971 -0.375244 0.665623 1.05494 -1.71167 1.14809
1014 -0.291895 0.263919 -0.0207025 -0.00771851 -0.595902 0.0151142 0.203421 -0.189333 0.0186941 0.139703 0.457999 0.370386 1.83101 -1.38336 -0.522746 -0.780448 -0.373165 0.356858 -0.689621 -0.298323 -0.821823 -2.05946 -0.283229 0.105459 -0.975139 0.404806 0.865142 1.24613 -1.55509 0.66868
69 0.185707 0.0323501 0.0205849 0.149656 -0.309112 -0.13355 0.525339 0.0888167 0.178325 0.23183 0.573003 0.236945 1.46103 -1.56752 -0.369023 -0.887223 -0.106399 1.00859 -0.730838 -0.354599 -1.25244 -1.95478 0.0506744 0.631557 -0.496282 -0.544772 0.903422 0.535902 -1.48109 0.757948
1396 -0.00639277 -0.00466981 0.0700086 0.252774 -0.191671 0.00384741 0.485375 0.0355584 0.369482 0.21745 0.472002 0.0529329 1.62073 -1.67355 -0.623227 -0.898658 -0.0682404 1.21123 -0.683125 -0.36281 -1.05016 -1.90257 0.157476 0.525997 -0.692086 -0.520606 0.801139 0.524714 -1.49806 0.767714
1397 -0.00642365 0.0922641 0.13012 0.228546 -0.406632 -0.1943 0.307429 0.108712 0.357521 0.491148 0.654354 0.118566 1.66366 -1.69125 -0.556778 -0.816949 0.0144855 0.902445 -0.571255 -0.386538 -1.10815 -1.7635 0.244902 0.801321 -0.67875 -0.674052 0.662546 0.760497 -1.67984 0.827945
2919 0.348972 -0.294557 0.00817967 0.227022 -0.560326 0.23697 0.40884 -0.22138 0.147088 0.65583 0.196133 0.415277 2.01951 -1.63725 -0.886724 -0.80668 -0.431545 0.495424 -0.489105 0.0342593 -1.48253 -1.81537 -0.41119 0.375278 -1.17156 -0.128409 0.794826 0.611471 -1.62078 0.514711
4742 0.0251279 -0.414999 -0.0699355 0.138466 -0.423337 0.57795 0.211549 -0.216435 0.148237 0.704496 0.191835 0.771798 1.91268 -1.71463 -0.957908 -0.66163 -0.457434 0.508524 -0.403019 0.191496 -1.35792 -1.82321 -0.603624 0.400953 -1.0297 -0.485379 0.541513 0.736246 -1.6204 0.725692
2708 0.13531 -0.309393 0.0269553 0.219532 -0.632439 0.335443 0.343385 -0.155971 0.265801 0.677358 0.353048 0.574113 1.97965 -1.64899 -0.94584 -0.746774 -0.367495 0.555666 -0.295664 0.216104 -1.341 -1.83962 -0.417037 0.664166 -1.02973 -0.301696 0.780615 0.614894 -1.56381 0.759695
531 -0.0699169 -0.455447 -0.301072 -0.0282346 -0.672559 0.245461 0.266347 -0.146547 0.126751 0.384562 0.411868 0.640903 2.2484 -1.6202 -0.86295 -0.828876 -0.282302 0.221971 -0.725033 0.188291 -1.44127 -1.78874 -0.444499 0.415636 -1.49412 -0.286417 0.659059 0.664103 -1.84333 0.753245
1439 -0.12018 -0.114091 0.0744528 0.0107425 -0.137845 0.24208 0.140743 -0.11775 0.351515 0.359512 0.352877 0.398964 1.94492 -1.63648 -0.727846 -0.829991 -0.355471 0.439873 -0.245234 -0.187883 -1.40033 -1.53465 -0.387467 0.372736 -1.16904 -0.543147 1.00753 0.628771 -1.63052 0.407235
3265 -0.239973 -0.429682 -0.382508 -0.0226214 -0.529529 0.525337 0.0747104 0.0584695 0.374371 0.368936 0.229211 0.906752 2.62268 -1.94398 -1.04397 -0.826293 -0.338268 0.402043 -0.662334 0.161702 -1.61866 -2.15844 -0.782202 0.591929 -1.56829 -0.553667 0.735578 1.0409 -2.05978 0.862113
2515 -0.0905973 -0.501998 -0.166192 0.171237 -0.573422 0.440407 0.122651 -0.019213 0.242802 0.631485 0.132699 0.867589 2.35895 -2.01084 -0.906836 -0.852625 -0.273694 0.354527 -0.707698 0.191983 -1.53825 -1.99283 -0.693191 0.585021 -1.45922 -0.435115 0.655466 0.856786 -2.07395 0.870052
695 0.0355764 0.124294 -0.0143118 -0.0659063 -0.276478 0.108872 0.073558 0.0528508 0.176623 0.0807579 0.475138 0.124426 1.7125 -1.59728 -0.378057 -1.07152 -0.672153 0.106564 -0.593388 -0.379684 -0.919384 -1.80499 -0.356595 0.427733 -1.081 -0.533776 0.696268 0.723554 -1.22725 0.580599
3058 0.0530506 0.0969967 0.068349 -0.288665 -0.225238 -0.0717184 0.0214271 0.0980905 0.142801 0.387729 0.327262 0.171249 1.66447 -1.56828 -0.425512 -0.939906 -0.569719 -0.242739 -0.950428 -0.516699 -1.03663 -1.72818 -0.376186 0.281819 -0.946165 -0.40798 0.767308 0.677749 -1.23835 0.729
836 -0.122433 0.0702803 -0.128634 -0.125944 -0.288376 -0.0853703 -0.0192266 0.260916 0.263266 0.293424 0.233273 0.448945 1.78502 -1.70246 -0.446657 -1.09405 -0.455855 0.310425 -0.802802 -0.2541 -1.00503 -1.72567 -0.167448 0.22169 -1.04556 -0.493041 0.907004 0.689426 -1.44773 1.06656
156 0.00956186 0.0223848 -0.0733675 -0.276183 -0.181879 -0.00869229 0.534544 0.300679 0.423347 0.0247744 0.217335 0.471065 1.85714 -1.65211 -0.560539 -0.535536 -0.527451 0.689737 -1.06081 -0.0148685 -1.17772 -1.69629 -0.271829 0.535809 -0.728252 -0.476979 1.02185 0.856625 -1.51609 1.18467
60 -0.0401682 0.13515 -0.430642 -0.325844 -0.242108 0.0470335 0.41064 0.296988 0.29258 0.221568 0.289406 0.393862 1.60991 -1.70889 -0.548381 -0.556283 -0.390113 0.377498 -1.12145 -0.142198 -1.12561 -1.77615 -0.20672 0.531818 -0.763368 -0.402686 0.874478 0.717219 -1.36399 1.12324
27 0.194648 0.0502843 -0.169848 -0.172799 0.0182094 -0.152157 0.353136 0.0862431 0.142135 0.326955 0.27574 0.310407 1.75334 -1.51615 -0.637299 -0.774763 -0.502682 0.362553 -0.851618 -0.140124 -1.03046 -1.60463 -0.172995 0.379674 -1.02614 -0.395851 0.859421 0.459847 -1.34507 0.769824
3858 0.278375 -0.148375 -0.118772 -0.0716932 -0.357717 -0.102184 0.150836 0.34728 0.080114 0.573471 0.241957 0.124317 1.57802 -1.68045 -0.512227 -0.963741 -0.380298 -0.235302 -1.04978 -0.404627 -1.27158 -1.76782 -0.0514169 0.0983204 -0.918643 -0.130044 0.519356 0.888583 -1.38033 0.788921
2629 0.0186124 -0.262507 0.0809644 0.0188411 0.121058 0.497676 0.17532 -0.320527 0.429547 0.322496 0.482309 0.211713 2.55778 -1.27836 -0.631077 -0.972506 0.0351312 0.293283 -0.39648 -0.367335 -1.62885 -1.54412 -0.42035 0.215093 -1.34122 -0.31141 1.6975 0.580622 -1.93729 0.580234
2636 -0.107754 -0.207272 0.173937 0.226091 0.106941 0.610274 0.0931283 -0.215612 0.52957 0.227968 0.362664 0.142414 2.69213 -1.25849 -0.80972 -0.938559 0.157806 0.196929 -0.312357 -0.315391 -1.52466 -1.65386 -0.363353 0.203474 -1.53808 -0.482895 1.75457 0.736245 -1.88248 0.705218
897 0.0724617 -0.294038 0.322946 0.19192 0.0287514 0.571793 0.147449 -0.262474 0.484486 0.247944 0.27192 0.29795 2.45034 -1.2936 -0.726077 -0.995239 -0.048521 0.12912 -0.415335 -0.375123 -1.61079 -1.57361 -0.284721 0.167963 -1.43731 -0.360609 1.62373 0.601556 -1.85758 0.741347
2628 -0.0701967 -0.261645 0.30976 0.203947 0.139953 0.549816 0.0124644 -0.195713 0.46706 0.333319 0.31673 0.301601 2.62021 -1.36736 -0.717078 -0.987656 0.227152 0.406307 -0.433812 -0.336065 -1.66434 -1.68407 -0.350666 0.333836 -1.41669 -0.496651 1.85739 0.684998 -2.03046 0.571741
3228 -0.261727 0.0722132 0.00837195 0.083198 -0.1252 -0.0766494 0.223125 -0.415946 0.290347 0.254381 0.305506 0.31463 1.63358 -1.30078 -0.695386 -0.56009 -0.426784 0.292955 -0.631577 -0.365709 -1.04387 -1.65356 -0.190902 0.338225 -0.853575 -0.175784 0.675545 0.745527 -1.19893 0.939868
3372 -0.270275 -0.00064153 -0.209633 0.0231231 -0.0497214 0.156375 0.407746 -0.190846 0.211488 0.0270881 0.54356 -0.0723153 1.65022 -1.29295 -0.64357 -0.542583 -0.330536 0.0624509 -0.447362 -0.102535 -0.570009 -1.28408 0.0673473 0.0785904 -1.15327 -0.0622332 0.88526 1.03324 -1.33011 1.20055
1416 -0.0574923 -0.051358 -0.115654 0.311811 -0.140302 0.140958 0.223425 0.125022 0.47231 -0.0960148 0.47192 -0.0407712 2.10143 -1.44621 -0.695594 -0.758708 -0.258098 -0.0541223 -0.578684 -0.139408 -1.13264 -1.4757 0.0386864 0.324506 -1.35996 -0.406794 0.697887 1.25894 -1.64254 1.43757
357 -0.0869133 -0.102615 0.149857 -0.00431167 -0.117075 0.00775503 0.279629 0.178554 0.479261 -0.284916 0.357698 0.463747 2.01397 -1.35865 -0.659928 -0.666018 -0.323964 -0.191497 -0.708473 -0.285234 -1.37789 -1.55527 0.166722 0.441302 -1.02746 -0.30244 0.613461 1.57049 -1.73351 1.21538
1089 0.0863954 0.101438 -0.0893024 0.0391929 -0.241308 0.0348162 0.137859 0.019603 0.534156 0.0796624 0.130984 0.131528 1.95475 -1.39637 -0.650835 -0.740018 0.0196532 0.0607583 -0.631811 -0.0405728 -1.05006 -1.50305 -0.229604 0.201018 -1.19392 -0.361323 0.95864 1.07777 -1.47386 0.997602
2200 -0.00195448 0.173847 -0.207054 0.0810427 -0.199593 0.0508545 0.346914 -0.116239 0.450608 0.233225 0.157152 0.496461 2.05751 -1.52193 -0.549138 -0.995804 0.0674319 0.166764 -0.752065 -0.205737 -0.977505 -2.00363 -0.364075 0.120999 -1.27954 -0.139796 0.851968 0.90244 -1.6386 1.06902
810 0.12646 0.0470687 0.0380637 0.143097 -0.256318 -0.174673 0.271107 0.0125901 0.498277 -0.0613659 -0.193297 0.696043 2.09835 -1.56262 -0.584226 -0.932639 0.137464 0.142047 -0.710343 -0.411159 -1.0242 -1.89055 -0.601782 0.155874 -1.38487 -0.201196 0.762632 0.999602 -1.62627 1.00402
4997 0.0416342 0.204523 -0.196613 0.138415 -0.200218 -0.0639507 0.329077 -0.160171 0.518613 0.210352 0.0344265 0.630624 2.06109 -1.39161 -0.650656 -0.911409 -0.0607227 0.051567 -0.667039 -0.176948 -0.978436 -1.95522 -0.370165 0.286292 -1.26113 -0.157649 0.808532 0.851726 -1.57936 1.04392
803 0.116778 0.0213295 0.00758373 0.121806 -0.165132 -0.140101 0.334104 -0.0248754 0.572232 -0.0719746 -0.140387 0.650932 2.13973 -1.54348 -0.556507 -1.03064 -0.0221684 0.108472 -0.773684 -0.465817 -1.06268 -1.87736 -0.523809 0.132391 -1.39328 -0.201029 0.717788 0.846662 -1.67595 0.966025
2155 0.000455869 0.0576895 0.00234211 0.0953862 -0.0771106 0.0496607 0.331608 -0.0637871 0.553949 0.1748 -0.018921 0.4902 2.01596 -1.57664 -0.729077 -0.890016 0.0403902 0.25686 -0.845942 -0.114769 -1.05436 -2.08635 -0.207063 0.127419 -1.16983 -0.159505 0.763375 1.10543 -1.48958 1.13085
343 -0.273134 0.14137 0.0712779 -0.0823962 -0.120341 0.0438264 0.16192 -0.18647 0.43369 0.376113 0.24798 0.620547 2.01792 -1.18563 -0.777226 -0.799968 -0.204617 0.163664 -0.621647 -0.495948 -0.981048 -1.77471 -0.224986 0.343971 -0.991903 -0.27614 0.530766 0.644328 -1.49136 0.900724
4676 -0.0762147 0.158931 -0.0970813 -0.152798 0.0487834 0.000795137 0.263453 -0.521652 0.381317 0.463305 0.2247 0.52547 1.89777 -1.16448 -0.695793 -0.762125 -0.159501 0.159995 -0.679958 -0.391229 -0.883387 -1.66422 -0.27648 0.42108 -0.992905 -0.109235 0.622182 0.495619 -1.34705 0.849763
5250 -0.214546 0.0325832 -0.0543779 -0.154034 -0.0633171 -0.0499623 0.170906 -0.446183 0.327145 0.420156 0.233874 0.63308 1.64241 -0.958245 -0.653482 -0.734833 -0.246199 0.0155681 -0.72636 -0.400551 -1.04293 -1.72628 -0.241634 0.336706 -0.724526 -0.285937 0.447416 0.399916 -1.18827 0.620971
1194 0.0456272 0.121952 0.0557963 -0.0778862 -0.246525 -0.206632 0.15033 -0.0252791 0.120934 0.0738178 -0.154705 0.431428 1.5791 -1.57896 -0.378528 -0.851869 -0.415657 -0.00486164 -0.979877 -0.609732 -1.39829 -1.50078 -0.422769 0.305128 -0.995498 0.000891926 0.6865 0.781242 -1.26982 0.739754
50 0.037285 0.0666004 0.0574766 0.0161482 -0.24325 -0.0290158 0.235833 0.341028 0.177401 -0.099452 0.0156789 0.546611 1.7279 -1.49934 -0.397037 -0.921155 -0.296176 0.195686 -0.756316 -0.378331 -1.28025 -1.66527 -0.355395 0.115941 -1.07897 -0.188655 0.929701 0.733478 -1.55716 0.601572
300 0.365843 0.0907485 -0.109628 -0.221631 0.102165 0.262227 0.834078 0.486713 0.106367 0.149804 0.325312 0.452562 2.29178 -1.21397 -0.446274 -1.02109 -0.408504 0.544951 -1.07626 -0.35534 -1.17381 -2.02742 0.10307 0.776557 -1.08081 -0.144932 0.920193 0.79018 -1.75004 0.99642
121 0.011213 -0.09211 -0.471144 -0.148151 -0.296759 -0.0932551 0.372653 0.296339 0.169937 0.136687 0.242946 0.304008 1.86549 -1.61392 -0.802001 -0.752211 -0.403251 0.455215 -0.861493 -0.314559 -1.23402 -1.79738 -0.106937 0.420877 -1.20867 -0.12648 0.733344 0.630533 -1.26826 1.06326
2961 -0.163953 -0.245414 -0.261709 0.0195019 -0.525293 -0.214784 0.186293 0.0781743 -0.0565993 0.677517 0.272863 0.20297 1.84354 -1.68895 -0.824853 -0.936059 -0.414932 0.659985 -0.84388 -0.36744 -1.2638 -1.98608 -0.0237516 0.192486 -1.04095 -0.0221376 0.422857 1.01362 -1.34052 0.997889
4132 0.14199 -0.355223 -0.086346 -0.0162194 -0.484508 -0.064815 0.179823 -0.181373 0.165918 0.597625 0.14478 0.265675 1.68543 -1.68097 -1.06279 -0.621688 -0.53711 0.290213 -0.572079 -0.238421 -1.28071 -1.69709 -0.0809577 0.0667696 -1.02187 0.00981082 0.763816 0.680511 -1.26637 0.5503
3708 -0.031086 0.00962064 0.338224 0.13494 -0.384761 -0.112144 0.36827 -0.0621745 0.460083 0.266932 0.38386 0.253663 1.56452 -1.30706 -0.693731 -0.537269 -0.0382654 0.527678 -0.725752 -0.124248 -1.09139 -1.51776 0.265039 0.577263 -0.552201 -0.237073 0.814015 0.810791 -1.27595 1.55155
740 -0.109151 0.0269943 -0.175198 0.0638965 -0.163628 -0.0419884 0.108982 0.191458 0.552575 0.173796 0.159033 0.00519311 1.87913 -1.48817 -0.695778 -0.671647 -0.418416 0.161706 -0.550459 0.0469915 -0.885909 -1.49646 -0.0445129 0.152558 -1.04842 -0.511147 1.0054 1.16517 -1.36901 1.14549
