10312 10
1504 -0.172989 0.315103 0.065137 0.447052 0.176677 0.732258 -0.0141209 0.164501 2.08725 -1.38873
233 -0.0559849 0.155507 0.0170556 0.301913 0.065884 0.434914 -0.199308 0.0525862 2.574 -1.49403
3914 -0.0327836 0.42114 0.0435755 -0.0213184 0.248512 0.502393 0.0635702 0.176322 2.34822 -1.53743
4407 -0.0592227 0.273239 0.00272155 -0.071776 -0.189853 0.202571 -0.166764 0.150451 2.52992 -1.52639
1391 0.37222 -0.0899652 0.00708729 0.120831 -0.242221 0.108213 -0.0532112 0.234203 2.60372 -1.33451
5784 0.396118 -0.436917 -0.0245061 -0.374459 -0.0544895 0.877631 -0.104664 0.0207932 2.62331 -1.69523
3650 0.319551 -0.243611 -0.0272845 -0.493938 0.142357 0.834811 -0.296798 -0.083786 2.6313 -1.77631
5537 0.616856 -0.323693 -0.0381495 -0.524642 0.147974 0.954909 0.00398755 0.138219 2.70995 -1.79007
4795 0.606359 -0.314982 -0.0609148 -0.47759 -0.0959208 1.02301 0.050997 0.0988933 2.21796 -1.65221
4805 0.0615388 0.0604436 -0.00255945 0.0136168 -0.486537 0.344726 -0.059742 0.208714 2.62274 -1.43505
2785 0.16582 0.50542 0.0203084 0.195656 -0.861853 0.562306 -0.371152 -0.0454634 2.52835 -1.63643
176 0.0759136 -0.0246653 0.0295348 0.19292 -0.111312 0.264033 -0.0907507 0.186254 2.52922 -1.56257
7129 0.190548 -0.0727073 0.00378452 0.170998 -0.152499 0.0549194 -0.0236056 0.281236 2.45545 -1.5832
5220 -0.0709878 -0.101483 -0.0171442 0.103864 0.214698 0.122455 0.192423 0.350734 2.28348 -1.78629
6094 -0.152073 0.0525557 -0.0236269 0.167242 -0.230995 0.193429 0.151239 0.366895 2.45271 -1.37964
3249 -0.00694082 0.0187494 -0.000165798 -0.107486 -0.041053 0.352815 0.138746 0.352774 2.6494 -1.26333
8683 0.274377 -0.154178 0.0594625 0.56509 -0.0991975 0.320959 0.0942419 0.261406 2.40807 -1.45326
2369 -0.00134106 0.00344435 0.0493667 0.0995461 -0.219673 0.268292 -0.0722413 0.174683 2.47548 -1.55432
2638 -0.10032 -0.12916 0.0186477 0.219893 -0.0218198 0.13977 -0.0271843 0.236937 2.43611 -1.51013
1009 -0.117977 -0.156203 0.00192319 0.203405 -0.279853 0.284153 -0.083464 0.18246 2.41637 -1.67388
6813 0.139085 -0.105854 0.0022432 0.159809 0.0423646 -0.0618314 0.0340312 0.343268 2.50074 -1.43973
3230 0.362422 -0.182533 0.0112243 0.454001 -0.257463 0.267113 -0.133635 0.283486 2.37526 -1.75647
7526 0.217832 0.133934 0.0421095 0.162004 0.277287 -0.177401 0.212553 0.551355 2.49914 -1.71179
8118 -0.125578 -0.152209 0.0584383 0.200543 -0.148598 0.199081 0.254016 0.431143 2.41432 -1.55826
5142 -0.127234 -0.0017454 0.00555007 -0.0488061 0.0932978 0.114226 0.101143 0.334996 2.45114 -1.47926
6128 -0.173377 -0.308505 0.114907 0.408868 -0.0416907 0.554946 -0.0647968 0.300126 2.43822 -1.54373
3561 -0.145648 0.0190706 -0.0172467 0.17023 -0.083956 0.453894 -0.148738 0.11195 2.51666 -1.62719
1172 -0.210023 0.0732072 0.00624446 -0.143904 0.0639872 0.215393 -0.110752 0.180225 2.41152 -1.74493
5466 -0.282773 0.0182534 0.0037617 0.0249474 0.0890151 0.0423079 -0.250533 0.0878432 2.53944 -1.33927
5204 -0.157001 -0.0192143 0.00364264 -0.0102188 -0.00611902 0.282335 -0.293001 -0.00958484 2.55027 -1.32068
5172 -0.0413965 -0.0816094 0.035879 -0.128464 0.124522 -0.0660235 -0.00986187 0.314352 2.45323 -1.58546
4265 -0.144016 0.152464 -0.0121427 -0.21188 0.224209 0.104767 -0.297144 0.0274832 2.50111 -1.52216
4043 -0.162676 -0.0778065 0.0262653 -0.143153 0.0564985 0.379602 -0.343328 -0.056243 2.48993 -1.49065
533 0.0539806 0.244922 -0.015743 -0.209336 0.0609886 0.402935 -0.239295 -0.0120826 2.56596 -1.50221
479 0.149532 0.216987 0.0128713 0.15085 -0.181872 0.562946 0.322105 0.489848 2.84388 -1.05835
3526 -0.0720586 0.109533 0.0222069 -0.0440688 -0.035493 0.215523 -0.0346983 0.223229 2.49475 -1.55239
5694 -0.183287 -0.14273 0.0247926 0.289241 0.0528438 0.677442 -0.0686048 0.189689 2.31819 -1.48162
3160 -0.191552 0.102396 -0.00442616 0.118938 0.0894931 0.397813 -0.121124 0.143007 2.48032 -1.45694
15 0.038522 0.0013138 -0.00216175 0.197442 0.103386 0.229023 -0.169592 0.148452 2.32966 -1.65472
3334 -0.0314767 0.304313 0.0176371 0.0224349 0.300769 0.362085 -0.276419 0.00704015 2.64612 -1.31231
4490 -0.108802 0.206874 0.0182753 -0.191315 -0.0321267 0.200326 -0.190096 0.0676607 2.40245 -1.71865
4733 0.0390393 -0.0260709 0.0393233 -0.0876759 0.12797 -0.0485536 0.0676481 0.3919 2.4191 -1.74467
7730 0.245048 0.0670788 0.0478774 0.253377 -0.256044 0.0568268 -0.114032 0.244885 2.51734 -1.46913
2628 -0.0154782 0.111119 0.026964 0.183589 -0.446869 0.236316 -0.0287096 0.257944 2.52003 -1.40505
4597 -0.126417 -0.00834213 0.0584272 -0.277776 0.00840367 0.330051 -0.241416 0.089665 2.40515 -1.61254
6917 -0.146504 0.0644551 0.0409626 -0.0764068 -0.0255802 0.348483 0.0216737 0.2089 2.53032 -1.41502
1888 0.0488681 -0.00604908 0.00277803 0.514057 0.0459878 0.57483 0.0123434 0.213685 2.50262 -1.32385
2999 -0.0414092 0.177377 0.0183859 -0.118123 0.0156652 0.351748 -0.194127 0.0263732 2.51968 -1.59798
5370 -0.226017 0.0191557 -0.0130647 -0.0806358 0.0492285 0.0700187 -0.108428 0.161506 2.49533 -1.38729
4995 -0.171907 0.102017 0.0758305 -0.341041 -0.0571128 0.214338 -0.220894 0.190124 2.5625 -1.50924
5030 -0.0521877 0.262588 -0.0107197 -0.340965 -0.0607718 0.184724 -0.293581 0.0161781 2.5715 -1.50875
3240 0.0489503 -0.0458763 0.0148916 -0.0867771 -0.251591 0.223597 -0.322472 0.0477966 2.51854 -1.47654
5068 -0.019517 0.0370733 -0.0149875 -0.181827 -0.240757 0.214173 -0.106955 0.169391 2.6092 -1.33729
6927 0.0660094 -0.26752 0.0219445 0.136541 -0.243799 0.136484 -0.18163 0.214528 2.6913 -1.20241
3198 -0.0964586 0.148314 0.0261691 0.0481339 -0.165701 0.305693 -0.184561 0.12531 2.588 -1.42764
6121 -0.414396 0.0371795 0.0250512 0.124738 -0.123517 0.191412 -0.325491 0.0466223 2.62158 -1.23215
1876 -0.0895081 0.177623 -0.00252024 0.182204 0.0403326 0.374435 -0.160544 0.0752578 2.49834 -1.49706
1971 0.0642474 0.0264159 0.00698919 -0.142226 0.187699 0.0352634 -0.000159988 0.247392 2.51696 -1.38518
229 -0.0622897 0.209837 0.0377147 0.222026 0.181838 0.378457 -0.098204 0.137607 2.47084 -1.50322
5731 -0.319386 0.0689723 0.0193261 0.0376693 -0.0243422 0.0640676 -0.147922 0.152645 2.45556 -1.42143
4902 -0.052148 -0.00415697 -0.00983544 -0.214119 -0.237777 0.4712 -0.263934 0.0485708 2.64322 -1.34251
895 0.0297509 0.200287 0.00261867 0.00784337 0.040573 0.456051 -0.292035 -0.0444669 2.49534 -1.45976
2524 -0.0251907 0.175065 -0.00139275 0.0261759 -0.0414095 0.56247 -0.391419 -0.0976228 2.56482 -1.49626
6725 -0.0270247 -0.233925 0.0326605 0.354798 -0.313722 0.516033 -0.220249 0.16025 2.65337 -1.18915
5984 -0.123599 0.0618679 0.0282168 0.094849 -0.656979 0.265486 -0.192782 0.116492 2.57527 -1.28578
1932 0.147287 -0.200093 -0.0164095 0.337728 -0.442313 0.538208 -0.128868 0.124628 3.07157 -0.933861
4146 0.0988851 -0.0258517 -0.0142136 0.112034 -0.162059 0.835657 -0.147092 0.0449934 2.64035 -1.11497
3386 0.0378089 0.0152971 -0.0288394 -0.0416024 -0.0218557 0.233679 -0.328687 -0.0154502 2.59505 -1.35854
5596 -0.246968 -0.153336 -0.0182605 -0.121849 0.0755579 0.0724801 -0.119752 0.2045 2.59019 -1.17253
8531 0.0545587 -0.0197198 0.0454181 0.206737 -0.388984 0.0929323 0.163822 0.466964 2.33335 -1.73219
7766 -0.202154 -0.379704 -0.0353446 0.113167 -0.234868 0.311239 0.142466 0.226709 2.54601 -1.18976
5490 -0.268741 -0.277042 0.0123091 -0.0265559 0.00817686 0.193508 0.0232184 0.225282 2.34819 -1.64326
93 -0.191134 -0.203344 0.00475367 -0.19121 0.248683 0.173598 -0.0715629 0.190404 2.61191 -1.26327
3323 -0.0995572 -0.008513 0.0293791 0.0765243 -0.0954673 0.0804503 -0.0134545 0.298038 2.43615 -1.64991
5933 -0.0865964 -0.469302 0.000530207 -0.065489 -0.146651 0.454374 -0.0497122 0.221934 2.50003 -1.43043
5028 0.478367 -0.102705 0.0345493 0.603958 -0.770502 0.51078 -0.159557 0.0670295 2.79294 -0.543509
7663 0.204523 -0.110696 0.0254675 0.503409 -0.489331 0.174991 -0.257319 0.141774 2.62627 -1.30613
9423 0.315365 -0.0746542 0.0579721 0.4014 -0.740055 0.498453 -0.262925 0.078052 3.16495 -0.898552
6047 -0.137504 -0.248416 0.00274418 0.270392 -0.334152 0.16092 -0.296873 0.171755 2.6275 -1.29992
6873 -0.127184 -0.0131819 0.0256803 0.0424808 -0.0232525 0.228478 -0.0821648 0.178034 2.52017 -1.41767
4210 -0.0732365 0.110562 0.00899057 -0.436059 0.288521 0.154095 -0.032565 0.173878 2.39424 -1.48028
3783 0.0471569 0.225232 0.00752097 -0.190918 0.365339 0.374601 -0.0987628 0.122527 2.58719 -1.43221
3190 -0.291459 -0.0261349 0.0383809 -0.0901779 0.274916 0.309234 -0.288027 0.0813124 2.45932 -1.54666
3586 -0.0328471 0.00364326 0.0580076 -0.0914465 -0.100083 0.612968 -0.362366 -0.0278661 2.53131 -1.39325
2187 0.176005 0.217746 -0.0488866 0.357178 0.261419 0.921903 -0.288319 -0.0921697 2.58149 -1.35906
2547 0.13496 -0.179962 -0.0145091 0.0475132 0.284972 0.516217 -0.280148 -0.000488269 2.32119 -1.79522
9791 0.834246 -0.216967 -0.0313384 -0.521912 -0.0340208 0.635615 -0.10891 0.114203 2.67453 -1.95157
647 0.0925715 -0.0290527 0.0305651 0.238504 0.131823 -0.0429104 -0.0778737 0.277444 2.63042 -1.18328
705 -0.00579238 0.0934154 -8.87354e-05 0.349402 0.376839 0.475577 0.00201752 0.190959 2.51518 -1.42823
7121 0.350838 0.0118538 -0.0125249 0.120689 0.186519 0.0328882 0.0148271 0.294684 2.47716 -1.69857
3858 0.00205961 0.28157 -0.0100958 -0.128121 0.022094 0.4135 -0.219223 0.00389955 2.46143 -1.68728
3879 -0.0454525 0.227968 0.0233529 -0.255369 -0.0654726 0.293624 -0.396612 -0.0946772 2.51534 -1.58564
476 -0.0553818 -0.0406901 0.0112619 -0.21151 -0.0706444 0.143511 -0.356146 0.0356995 2.49375 -1.52158
7715 0.327871 -0.13982 0.0130375 0.412115 -0.386427 0.261594 -0.0899259 0.272165 2.75834 -1.17836
5918 0.102152 0.0797502 0.0558679 -0.0245611 0.231955 -0.0846616 0.208118 0.465153 2.48318 -1.58534
5768 -0.289038 -0.22416 0.0169773 -0.137726 0.168031 0.0885292 -0.109608 0.191315 2.50633 -1.55969
6391 -0.276588 0.0291462 0.0128909 -0.061593 0.245631 0.220854 -0.171381 0.108628 2.53502 -1.45491
2774 0.0769328 0.0263326 0.0329687 -0.084028 0.0132458 0.269138 -0.311252 0.0530429 2.4607 -1.54648
2617 0.239419 0.228835 0.0182886 0.194316 0.349269 0.349646 -0.313832 0.0220002 2.48013 -1.54154
3186 0.0971715 0.245913 0.0353991 0.155861 0.171928 0.677812 -0.259445 0.0367015 2.47103 -1.51953
2092 0.0733812 0.32009 -0.0259108 0.108775 0.297794 0.512827 -0.236891 -0.00166401 2.65672 -1.59177
501 -0.0650609 0.0563347 0.0359447 0.15412 0.390399 0.177897 -0.0914483 0.19096 2.53814 -1.37886
5209 -0.49037 -0.324648 0.0406589 0.0364512 -0.142623 0.352233 -0.210465 0.121849 2.52918 -1.36572
3658 -0.0769139 0.0310877 -0.0105929 -0.201938 -0.205565 0.0576511 -0.357753 -0.0095276 2.52879 -1.46535
917 0.0415478 0.275755 -0.0291871 0.213318 -0.178499 0.618005 -0.256374 -0.0606374 2.64077 -1.20056
645 -0.0333067 0.248792 0.0144865 0.18805 0.0902037 0.500424 -0.113236 0.0779354 2.54659 -1.56861
7078 -0.126931 -0.391959 0.0390353 0.297427 0.0382953 0.493291 -0.133615 0.147938 2.39871 -1.4243
8157 -0.0224032 -0.103915 0.00420094 0.198273 -0.155683 0.250404 -0.0719737 0.206609 2.48895 -1.63243
8620 0.089875 -0.294452 0.0124855 0.356842 0.120998 0.200087 -0.147822 0.133262 2.40293 -1.56881
4374 0.187384 -0.034443 0.00471426 0.194255 -0.0377549 0.183897 -0.0314482 0.245282 2.52805 -1.56428
595 -0.0665096 -0.156042 -0.00443329 0.329902 0.441664 0.462197 -0.291646 -0.120312 2.23173 -1.32167
2241 -0.099981 -0.0151963 0.0334327 0.22272 0.110563 0.125363 -0.348202 0.00166617 2.56758 -1.34052
1394 -0.0118106 0.13102 0.00533302 0.146828 0.168978 0.391138 -0.132304 0.143795 2.50832 -1.36894
4997 -0.0671509 0.185209 -0.00766448 -0.0249442 -0.00755966 0.405392 -0.176413 0.0511719 2.58519 -1.50328
5627 -0.243931 -0.167463 0.0237886 0.329975 0.325538 0.0409845 -0.49765 -0.121476 2.61637 -1.28711
2327 -0.0888399 0.195581 0.00855535 0.0439799 0.0275547 0.354562 -0.286839 -0.0463353 2.43138 -1.64392
4287 0.0752368 0.0151465 0.0561471 0.00494296 -0.0135208 0.0762637 -0.167616 0.187285 2.28335 -1.79786
1572 -0.00145897 0.0338879 -0.0212697 0.150862 -0.0393011 0.1807 -0.159617 0.0966351 2.55193 -1.2896
4335 0.104252 -0.127103 0.00306908 0.00590439 -0.0184709 0.1228 -0.34045 0.0922465 2.34625 -1.78495
667 -0.191413 0.0742605 0.00706871 0.176089 0.00650392 0.470909 -0.0949938 0.136324 2.47182 -1.65301
3174 -0.0819804 0.0322314 -0.0658351 0.092333 0.0851275 0.533583 -0.108859 0.0749538 2.41136 -1.42203
1789 -0.0996765 0.17782 -0.0332537 0.545341 0.242777 0.881936 -0.0951115 0.0335975 2.44339 -1.43383
446 0.115945 0.0994466 0.0303625 0.432591 0.123704 0.18859 -0.189712 0.127564 2.52311 -1.52518
877 -0.105046 0.0587976 0.00318772 0.118382 0.325299 0.525902 0.0390096 0.206229 2.48314 -1.39992
6317 -0.170964 -0.11087 -0.0151438 0.104674 -0.150533 0.228956 0.0330108 0.262072 2.47206 -1.55386
5937 -0.142088 -0.300834 0.0259634 0.0754826 -0.388996 0.204382 -0.181232 0.136405 2.66454 -1.09151
4931 -0.0881192 -0.125943 0.0285699 0.0667862 -0.192582 0.0905189 -0.0386908 0.25971 2.40892 -1.63272
4807 -0.0520308 -0.0512458 0.00720198 -0.0290903 0.101653 0.362959 -0.162054 0.130022 2.43876 -1.52077
4512 -0.202739 -0.175335 0.0199643 -0.113503 -0.0890333 0.113471 -0.0704341 0.257511 2.39624 -1.65701
128 -0.022467 0.0163292 0.0138333 0.0373281 0.0460771 0.197823 -0.142879 0.124558 2.46987 -1.48348
5781 -0.179093 -0.0596572 0.0306166 -0.138364 0.069842 0.211656 -0.00797146 0.261715 2.29589 -1.71059
8888 0.112014 -0.0480391 0.00616517 0.174838 0.228321 -0.0269614 -0.0680889 0.256189 2.49051 -1.53063
393 -0.0726003 -0.135191 0.0287578 0.0317743 0.156386 0.0833404 -0.0799532 0.240358 2.63902 -1.23817
6566 -0.0465092 -0.0090791 0.0211108 0.169015 -0.287758 0.190802 -0.12706 0.17887 2.45585 -1.57623
6430 -0.0566034 -0.0368913 -0.00483895 0.0402743 0.292973 0.223152 -0.0295774 0.17433 2.50982 -1.36409
9358 0.206375 0.0602851 0.0242211 0.116994 0.0180135 0.101982 -0.0365512 0.242704 2.45442 -1.6608
5571 -0.0588988 -0.0855986 0.0835718 0.284784 -0.0325477 0.293023 -0.157311 0.152671 2.34073 -1.14599
9607 0.314021 0.160626 0.0445473 0.20842 0.131702 -0.247544 -0.0426535 0.312819 2.59128 -1.47038
10247 0.500689 0.11937 0.0540612 0.188438 0.0323456 0.0769193 -0.0813796 0.235897 2.45112 -1.43759
10225 0.180085 -0.0382507 0.0432097 0.00554809 0.346227 -0.159965 0.150682 0.476587 2.61492 -1.55429
10104 0.598182 -0.104668 0.0579925 0.0897812 0.161389 -0.233835 -0.300321 0.18103 2.61909 -1.66359
10271 0.507565 0.125732 0.0222373 0.129169 -0.0781481 -0.184956 -0.150337 0.231484 2.57739 -1.63987
3407 0.0594377 0.0561311 0.0208875 0.179492 -0.0664389 0.125721 -0.127491 0.212195 2.51812 -1.50401
4024 -0.15543 -0.123353 0.0541107 0.0433112 -0.438181 0.132409 -0.406495 0.0674132 2.31224 -1.75559
6986 -0.211568 -0.139608 0.00946907 0.14443 -0.249133 0.130818 -0.12035 0.207607 2.39288 -1.62262
7161 -0.207883 -0.314678 0.0537766 0.384294 -0.0461425 0.244804 0.102688 0.390795 2.34429 -1.58167
2409 0.035032 0.343528 0.0141065 0.0339987 0.118837 0.574237 0.330774 0.467486 2.56635 -1.34435
739 0.0409293 0.16148 0.00591562 0.0865507 -0.0421733 0.344158 -0.174421 0.101329 2.43612 -1.74179
1522 -0.0221417 0.294577 0.00813363 0.148246 0.172997 0.598955 0.335973 0.409069 2.45863 -1.31192
3762 0.3539 0.0246952 0.0299112 0.0126037 0.394418 0.473787 -0.0158125 0.25868 2.41949 -1.5423
7418 0.0113734 -0.281871 -0.023562 0.250793 0.164158 0.457113 0.144314 0.271632 2.4135 -1.37843
8647 0.0405068 -0.0245568 0.00825296 0.407397 0.329118 -0.313486 -0.340888 0.119006 2.67228 -1.40615
4038 -0.0407534 0.0151512 0.0198098 -0.245235 0.373553 0.285854 -0.63434 -0.301083 2.55473 -1.43416
7851 0.193487 -0.0210031 0.031472 0.29542 -0.0618673 -0.0076754 0.0586959 0.396298 2.52472 -1.50445
9449 0.190164 -0.144774 0.0173017 0.235321 0.320784 -0.140822 0.18808 0.326478 2.32183 -1.56105
8919 0.246313 0.057481 0.0816665 0.325412 0.263418 0.0134826 0.148636 0.435452 2.48575 -1.60413
8721 0.262299 0.0819897 0.0142811 -0.101699 0.317451 -0.0907877 0.316015 0.598432 2.4999 -1.6751
5110 -0.166541 -0.121104 0.0285144 -0.178442 0.307213 0.0727967 0.239229 0.518779 2.53024 -1.62994
2781 -0.0220571 -0.181788 0.0432504 0.0507943 0.236373 0.076401 0.215966 0.477037 2.35727 -1.66511
5906 -0.0964901 0.0815994 0.0153335 0.149662 -0.220509 0.240429 -0.0709308 0.213683 2.67438 -1.18194
769 -0.116248 0.215357 -0.0162604 0.289105 0.244607 0.524175 -0.0172521 0.17634 2.5516 -1.39621
7495 -0.0625846 -0.0411374 0.0112517 0.174061 0.0798497 0.14245 -0.088645 0.204318 2.41672 -1.49246
1956 -0.127528 -0.227268 -0.00519689 0.309941 -0.0662889 0.272177 -0.0661685 0.18716 2.33414 -1.62273
8054 0.0206811 -0.224605 0.0179243 0.393213 -0.0481671 0.021145 -0.235274 0.139757 2.37579 -1.61607
3830 -0.0574315 -0.0362919 0.0381026 -0.0452772 -0.000163862 0.118808 -0.363615 0.0142537 2.54459 -1.46372
1530 0.100014 -0.114586 -0.0132742 0.258934 0.169996 0.296109 -0.415049 -0.0135668 2.51576 -1.26181
4940 -0.195558 0.135304 -0.0696298 0.0558841 0.180926 0.644868 -0.288517 0.0254925 2.31198 -1.5552
5198 -0.365532 0.0391543 0.104226 0.0101445 0.11909 0.574127 -0.2581 0.21063 2.37522 -1.5345
5754 0.253851 -0.0950715 0.0313568 0.314759 0.367629 0.166461 0.218317 0.483673 2.27162 -1.53615
9692 0.295305 0.0548945 -0.0185499 0.342602 -0.11315 0.0396776 -0.0898197 0.19858 2.21174 -1.93309
9188 0.264571 -0.0311373 0.0351706 0.235406 -0.0941654 -0.00119851 -0.0222842 0.318973 2.55088 -1.6267
10044 0.57531 0.0449348 -0.0121502 0.210681 0.0556556 -0.00209523 0.0422996 0.393118 2.2894 -2.03496
2953 -0.114735 0.10283 0.00745886 -0.150381 0.0147336 0.269136 -0.150799 0.186647 2.34318 -1.78284
4472 -0.101187 0.0331314 0.0331105 -0.0952337 -0.333539 0.162236 -0.161602 0.193732 2.51118 -1.40962
3434 0.0475837 -0.197737 -0.00338421 0.0688611 0.359657 0.437102 -0.0452418 0.227671 2.39377 -1.63416
6219 -0.0622985 -0.0988531 0.0149364 0.182073 -0.345868 0.362597 -0.254493 0.125704 2.40979 -1.61817
9844 0.281571 0.0944446 0.0284977 0.165589 0.0216896 -0.167139 -0.0936659 0.268081 2.56442 -1.50766
9898 0.327523 0.126431 0.00998307 0.247693 0.206165 -0.229521 0.223682 0.532536 2.79148 -1.13121
9848 0.368319 0.098583 0.0147545 0.161712 0.0595711 0.0279696 0.150864 0.388807 2.45807 -1.59372
9153 0.410253 0.0460277 0.0442349 0.109903 0.149264 0.0632416 0.176717 0.423512 2.61699 -1.45232
926 0.0517516 0.278956 0.0134684 0.428455 0.277345 0.535605 0.543046 0.565796 2.54811 -1.27421
2003 -0.00857253 0.242199 0.0236786 -0.115555 -0.393173 0.318669 0.0501978 0.286695 2.58011 -1.35335
6950 0.202641 -0.0240723 0.0338621 0.0945811 0.0510747 0.154987 -0.053029 0.240806 2.43021 -1.5939
615 0.00954933 0.14599 0.0178779 0.0341386 0.0568732 0.100859 0.290751 0.539509 2.64113 -1.29247
2313 0.049953 0.417839 0.0106892 0.133691 0.33624 0.343516 -0.0092092 0.193547 2.43664 -1.6693
3397 -0.0645607 0.114718 0.000320987 -0.193283 -0.0448272 0.270987 -0.293354 -0.00303968 2.50091 -1.59365
5871 -0.289687 -0.285037 0.044605 0.0384847 -0.10926 0.0322643 -0.236201 0.1589 2.34703 -1.78759
7501 -0.278652 -0.183793 0.0465887 0.199049 0.158577 0.157587 -0.258335 0.0825557 2.21728 -1.74362
6488 -0.107184 -0.27183 0.0641456 0.26929 0.0866056 -0.0507348 -0.134459 0.243796 2.35493 -1.65387
5320 -0.305535 -0.0440998 -0.0158862 0.0511701 0.0545779 0.212071 -0.218061 0.0904952 2.58679 -1.2799
5818 -0.117734 -0.153377 0.025786 0.216343 -0.220741 0.0517225 -0.159777 0.221181 2.25679 -1.8842
8483 -0.20158 -0.0482282 -0.00162429 0.134618 0.0526009 0.140387 0.158108 0.400527 2.46918 -1.4762
2759 0.0388764 0.06456 0.022123 0.0611408 0.204855 0.375829 -0.285442 -0.00587441 2.43405 -1.514
2368 0.137603 0.0528199 0.00125477 0.209158 0.316452 0.276111 0.0531471 0.235508 2.33701 -1.68215
9919 -0.00114499 0.0150408 0.0336479 0.25813 -0.0467163 0.351182 -0.0507391 0.201514 2.52121 -1.52583
7549 0.044043 -0.233646 0.0676534 0.316788 -0.200017 0.0862448 -0.235417 0.177138 2.25918 -1.82516
1226 -0.0294799 0.00399364 0.0147492 0.110803 -0.115756 0.213461 -0.112767 0.190846 2.4459 -1.69079
7600 -0.278038 -0.21052 0.0175778 0.404865 -0.00870853 0.438766 0.168409 0.349227 2.24265 -1.64437
6881 -0.18721 0.101377 -0.0029877 0.117048 0.0911021 0.30356 0.105715 0.296212 2.61688 -1.26513
2807 0.224865 -0.0852946 0.0259028 0.00938947 0.117052 0.0243815 -0.346611 0.0484576 2.65213 -1.17045
4065 -0.112251 0.146671 -0.0117904 -0.0986831 0.202202 0.187376 -0.358274 -0.00194478 2.57696 -1.40531
684 0.0381822 0.0929092 0.0580739 0.293221 0.183653 0.567162 -0.33322 0.0574697 2.60154 -1.34135
2404 -0.0937296 0.552986 -0.0421723 0.41776 0.303589 0.470357 0.25568 0.328594 2.66666 -1.17138
2771 0.0713225 0.430691 -0.0107873 0.438033 0.206866 0.680521 -0.0707498 0.0362421 2.54561 -1.42939
1992 -0.133893 0.475909 -0.00501306 0.528952 0.288527 0.521922 -0.0665259 0.153677 2.4754 -1.60427
5429 -0.0980272 -0.228496 0.00323086 0.232857 0.235988 -0.146581 -0.364097 0.0987365 2.65368 -1.25557
3940 -0.268646 -0.0726656 0.0234655 -0.108599 0.0749198 0.109402 -0.184044 0.0968086 2.44988 -1.50674
488 -0.133321 0.18294 0.00210381 0.197716 0.160402 0.587762 -0.200131 0.0564734 2.50733 -1.5105
3500 -0.0917238 0.170409 0.0381704 0.06055 -0.09068 0.342362 0.482685 0.613097 2.68026 -1.27019
3954 0.0437903 0.127283 -0.0154031 0.0967824 -0.331673 0.517617 0.0594372 0.313048 2.33675 -1.17375
4436 -0.148055 0.0671682 0.0187701 -0.188344 -0.0744617 0.221155 -0.33976 -0.00974502 2.44304 -1.67457
1894 0.120297 0.513817 0.0175127 0.0378837 -0.570386 0.408884 -0.314213 0.0629621 2.4818 -1.72396
3509 0.0462457 0.322621 0.0165152 0.112383 0.100031 0.329468 -0.200969 0.0370734 2.53468 -1.38096
6 -0.0888754 0.0335392 -0.00175376 -0.0873194 0.279411 0.0340404 0.0855092 0.353379 2.56746 -1.33383
5108 -0.160259 -0.12237 -0.0223945 0.200819 0.0276383 0.0831303 -0.0353834 0.287892 2.55399 -1.32665
399 -0.142981 -0.357617 -0.00636708 -0.127643 -0.0797502 0.20233 -0.0718217 0.189922 2.48965 -1.46558
7421 0.162655 -0.257398 0.0434934 0.240011 -0.149981 0.105822 -0.0450099 0.354116 2.44555 -1.73161
394 -0.0315878 -0.107281 0.0047446 0.0682591 -0.102882 0.207707 -0.159445 0.139947 2.52219 -1.4608
8104 0.289919 -0.177271 0.0362449 0.184115 -0.164322 0.200702 0.0124339 0.374974 2.20028 -1.04535
9653 0.346181 0.0290482 0.0217051 0.213724 -0.04147 -0.104792 0.0573191 0.338076 2.75112 -1.15348
9815 0.422082 -0.0302265 0.0233171 0.382299 0.230857 -0.285006 -0.477823 0.0118168 2.61005 -1.49955
4154 -0.0473359 -0.0524591 -0.0277513 -0.136096 -0.0523014 0.236566 -0.047355 0.194633 2.49643 -1.435
6327 -0.108773 0.00113682 0.0305707 0.228656 -0.377263 0.329996 -0.272145 0.094039 2.43933 -1.19135
6551 -0.10692 0.0342266 0.0154676 0.139602 0.0140724 -0.0477559 0.112787 0.39931 2.41978 -1.50007
1386 0.0570307 0.255244 -0.0370866 0.280042 0.278068 0.558504 -0.0484485 0.0963157 2.53596 -1.46207
1489 -0.0277952 0.23368 0.0134547 0.0413881 0.365194 0.432442 0.12291 0.285023 2.61299 -1.31616
4599 -0.0878627 0.133325 -0.0123941 -0.250762 0.0810383 0.279129 -0.321628 -0.0291415 2.45911 -1.75654
4716 -0.0713919 -0.218487 0.0514369 0.353613 0.0184826 0.320113 -0.321279 0.119092 2.22767 -1.7321
2052 0.458276 -0.166854 -0.0340628 -0.275015 0.399234 0.994365 -0.338848 -0.168189 2.58558 -1.79772
5775 0.19365 -0.486569 -0.00851253 -0.347221 0.0260786 0.707007 -0.423146 -0.16217 2.61951 -1.57051
4723 -0.0900388 -0.0770031 -0.000937368 0.317244 -0.0662523 0.229357 -0.0166709 0.212177 2.46387 -1.43231
8557 0.173328 -0.0466657 0.0445838 0.330461 -0.434357 0.15707 -0.111328 0.168969 2.44115 -1.46828
5681 -0.094194 0.0022719 0.0484222 0.107488 -0.0272583 0.0618065 -0.0872698 0.206276 2.46783 -1.53709
5539 -0.0988118 -0.0375908 -0.00727054 -0.280244 -0.0867956 0.128949 -0.297729 0.0318923 2.61004 -1.30943
5092 -0.140217 0.140734 0.0166869 -0.0836425 0.0111181 0.190492 -0.0490726 0.243838 2.60093 -1.24192
6660 -0.274993 0.00909493 0.0253597 0.0140428 0.179384 0.0434433 -0.219427 0.143205 2.50184 -1.36813
5136 -0.144469 -0.175993 0.0386589 0.209535 0.201073 0.130444 -0.395936 0.0196168 2.6464 -1.36586
1320 -0.148409 0.0734399 0.0344399 0.338908 0.146025 0.317953 -0.193859 0.0760323 2.57807 -1.3099
7241 -0.0580884 0.114758 0.0374738 0.240274 -0.245767 0.256533 0.00318833 0.219778 2.46416 -1.41347
4652 -0.0343958 -0.124034 0.00904162 0.19524 -0.110356 0.216488 0.00563668 0.263498 2.47486 -1.68017
8407 0.172166 -0.252489 0.0328964 0.24204 -0.0310664 0.469871 -0.107513 0.111814 1.88227 -1.41125
4839 -0.0698632 0.00616496 -0.00325258 0.0833035 -0.123183 0.34637 -0.0505184 0.186009 2.5409 -1.46417
5272 -0.230667 0.00512736 -0.00769908 -0.149433 -0.30302 0.150946 -0.248633 0.0999295 2.50666 -1.44048
1201 -0.0494483 0.148668 -0.0335878 0.0348637 0.0346089 0.42921 -0.248978 0.0280577 2.29939 -1.64159
5326 -0.21383 0.223448 0.0461685 -0.00237678 -0.0132711 0.118242 0.03494 0.315732 2.51597 -1.45017
8498 0.152769 0.169239 0.00552224 0.32849 -0.308485 0.142927 0.0457098 0.318187 2.50976 -1.46265
6218 -0.280898 0.00331791 0.0473959 0.140576 -0.643333 0.210047 -0.360847 0.122368 2.46268 -1.44988
2622 -0.231158 -0.0613717 0.0295625 0.000527675 -0.163354 0.161929 -0.0770991 0.210273 2.42756 -1.62267
6150 -0.353233 -0.418949 -0.00220825 0.381994 0.147757 0.259876 -0.159825 0.181112 2.30972 -1.62763
3661 -0.0819475 -0.110284 0.00588906 0.308748 -0.0349778 0.228237 -0.0252199 0.170369 2.47293 -1.3626
9105 0.126638 -0.0947612 0.0336349 0.195929 -0.15652 0.0558579 -0.187556 0.183915 2.51924 -1.42951
6631 0.0150766 -0.582207 0.0563877 0.378467 -0.0169493 0.410737 -0.509874 -0.0893464 2.55427 -1.2357
7558 -0.00957251 -0.261825 -0.0155243 0.271288 0.128959 0.56597 -0.0388456 0.106853 2.0804 -1.43169
6959 -0.117716 -0.197523 0.018781 0.304715 -0.169793 0.294753 -0.00658615 0.272852 2.47436 -1.70001
7356 0.0843431 -0.260971 -0.00427025 0.129331 0.127649 0.12512 0.256629 0.470659 2.60034 -1.37398
2666 -0.0796157 -0.00425918 -0.0157819 0.00863674 0.0375353 0.278913 0.264727 0.436041 2.47813 -1.42191
6578 -0.13881 -0.0761599 0.0248217 0.299141 -0.241896 0.228614 0.0343759 0.317882 2.45068 -1.46801
6243 -0.252423 -0.0352028 0.013812 -0.251926 -0.109048 0.136663 0.0244912 0.259117 2.54756 -1.4732
3266 -0.0978499 -0.086561 -0.00707597 0.0573614 -0.106942 0.206704 -0.202634 0.104116 2.49253 -1.52359
629 -0.126833 0.101794 0.00225104 0.527178 0.502453 0.92274 -0.185376 -0.0474527 2.66771 -1.3125
1812 -0.153702 -0.429714 -0.0487541 0.207937 0.163729 0.759553 -0.501689 -0.21759 2.5648 -1.37863
5278 0.0133448 -0.413026 0.00356173 -0.0407016 0.0772853 0.532316 -0.580244 -0.240223 2.63879 -1.30578
6886 -0.233188 -0.12944 0.019224 0.11596 -0.226614 0.0403617 -0.0632948 0.240375 2.29303 -1.78522
3193 0.587265 -0.0785695 0.0763448 0.145515 0.148217 0.186625 -0.113169 0.330226 2.70392 -1.29389
8941 0.31986 0.0859465 0.0511434 0.444135 0.429985 -0.374935 -0.364468 0.058865 2.60277 -1.49298
4124 0.176752 0.19288 0.00626558 0.318661 0.279603 0.424823 -0.216029 0.0648285 2.38707 -1.46519
5354 0.203359 -0.297051 -0.00515359 0.605354 -0.0219634 0.207661 -0.300429 -0.0330912 2.4015 -1.49603
3037 0.0483172 0.0128956 -0.0373707 0.0921743 -0.118107 0.256213 -0.252728 0.0284064 2.45139 -1.40239
2340 -0.0296809 0.387785 -0.00667607 -0.0960143 -0.444992 0.249425 0.0433311 0.260974 2.59233 -1.34719
2044 -0.0490331 0.187968 0.0224715 -0.260938 -0.103322 0.292038 -0.393615 -0.10094 2.51367 -1.60524
376 0.0216187 0.200305 -0.0267756 -0.254222 0.0540297 0.644481 -0.43326 -0.182659 2.53239 -1.3583
8911 0.135723 0.0866171 0.0101579 -0.118758 0.0745748 0.347515 -0.198557 0.0689969 2.51688 -1.72063
2699 -0.0618197 0.226346 0.0292719 0.283852 0.258197 0.532307 -0.160965 -0.0627725 2.61851 -0.980791
2633 -0.0908056 0.330877 -0.0175764 0.00755493 0.330049 0.214978 0.241897 0.391582 2.50913 -1.46219
4925 -0.269251 -0.0339855 0.00552765 -0.297183 0.159876 0.107726 0.0703757 0.380423 2.54761 -1.50448
6373 -0.192258 -0.0521261 0.0113494 0.0550046 -0.0338633 0.0599342 0.0239338 0.283468 2.47362 -1.48632
5227 -0.411025 -0.0559187 -0.0124668 -0.178837 0.173689 0.0293154 -0.00558843 0.318267 2.35846 -1.79522
7196 -0.0517435 -0.135785 0.00232148 0.179823 -0.187186 0.172692 0.0703264 0.336542 2.44689 -1.59622
7798 -0.0428551 -0.0335684 0.00236459 0.140703 0.148563 0.0569626 0.251046 0.496292 2.30077 -1.70541
805 0.485141 0.643274 -0.0548933 0.349937 -0.481567 0.684857 -0.291677 -0.0858356 2.67155 -1.32237
1417 0.108594 0.165396 -0.0178019 0.25265 0.0302233 0.268924 -0.2537 0.0435673 2.55556 -1.33653
2733 0.129712 0.237074 0.019985 0.157498 -0.371082 0.0418739 -0.287309 0.152126 2.41037 -1.61644
6832 0.194518 -0.139405 0.0281035 0.12766 0.174166 -0.0283588 0.0524706 0.3509 2.49833 -1.51241
9220 0.465538 -0.094201 0.0265287 0.211243 0.158639 -0.238454 -0.207968 0.210499 2.6739 -1.40436
4884 0.318941 0.0945089 0.0160126 0.163146 0.244083 -0.307082 0.387636 0.673366 2.62852 -1.51524
8452 0.0309566 -0.24626 -0.0350764 0.079408 0.361025 0.0167964 0.346381 0.536123 2.50848 -1.53224
534 0.178889 -0.194846 0.0153322 0.193473 0.383706 -0.0760468 0.0681287 0.352423 2.56298 -1.45749
3504 0.108845 -0.158948 0.0503392 0.34759 0.1636 0.021499 0.0389793 0.356271 2.36133 -1.6597
4820 0.122086 -0.248077 -0.00304979 0.126709 0.0431817 0.129698 -0.12892 0.165392 2.58981 -1.32784
6889 -0.260473 -0.491959 0.0115908 0.382453 -0.359453 0.29078 -0.235345 0.103774 2.70002 -1.1753
7358 0.131385 -0.240402 0.038509 0.502231 -0.332181 0.233423 -0.152436 0.210723 2.61389 -1.34164
7010 -0.33279 -0.120687 0.0295923 0.166823 -0.0377713 0.203024 -0.22834 0.0854681 2.45063 -1.64513
14 0.0909432 -0.120144 -0.02586 0.323078 0.492843 0.512524 -0.307491 -0.0665977 2.51487 -1.40567
4211 -0.0451301 0.290383 -0.013124 -0.0351465 0.147904 0.364647 -0.242779 -0.0434849 2.51276 -1.58602
3868 -0.131554 0.11994 0.00181353 0.198229 0.127619 0.102718 -0.343918 0.0324316 2.57814 -1.29701
1924 -0.0982999 -0.136855 -0.013214 0.247017 0.153544 0.534154 -0.455434 -0.0795011 2.39434 -1.44756
4497 -0.0570381 -0.107271 0.0166461 0.244185 0.139657 -0.181179 -0.57009 -0.049533 2.51111 -1.48675
1889 -0.090101 0.110077 -0.0243121 0.245714 0.112992 0.286799 -0.20326 0.0653634 2.38817 -1.53566
2521 -0.0396126 0.219593 0.0224012 -0.0282549 -0.00841177 0.406697 -0.181329 0.0472325 2.56947 -1.56576
6872 -0.0977345 -0.299305 0.00770871 0.0583147 0.116566 0.228386 0.0827835 0.324532 2.59036 -1.23703
8581 0.23766 -0.124824 -0.0107773 0.219259 0.210708 0.240991 0.0132785 0.180152 2.32147 -1.58238
8302 0.112766 -0.0213104 0.0160626 0.244431 -0.203202 0.0799685 -0.119973 0.211776 2.35856 -1.83814
8015 0.120013 -0.163306 0.0303395 0.451153 -0.0161103 0.239326 -0.0850549 0.244336 2.23638 -1.82178
7806 0.281886 0.00845488 0.0364436 0.16661 -0.0932198 0.0532937 -0.0950856 0.205903 2.58224 -1.57277
5972 -0.0657593 -0.210594 0.0836093 0.258265 -0.0388234 0.373408 -0.265838 0.26639 2.29178 -1.39663
7369 -0.381164 -0.260219 0.00925849 0.168015 -0.282136 0.505567 0.201522 0.361502 2.45585 -1.32244
7457 -0.0785831 -0.221462 0.0107419 0.351905 -0.0302794 0.0938947 -0.120444 0.288578 2.28401 -1.76585
5924 -0.245885 -0.385651 0.00883518 0.110653 0.290105 0.0240686 -0.320465 0.0781374 2.65561 -1.18466
37 0.122598 0.182626 0.0441437 0.15594 0.231062 0.356344 -0.0930507 0.0945316 2.47772 -1.44373
8999 0.256252 -0.116424 0.0315719 0.366859 0.0395658 0.114215 0.250613 0.533162 2.55626 -1.37218
9440 0.343309 -0.164598 0.0636728 0.338753 0.23859 0.0290218 0.0567731 0.407795 2.39992 -1.74081
6964 0.312726 0.292315 0.0233062 0.279149 -0.0730494 0.178567 0.0416729 0.27444 2.25965 -1.92966
9794 0.411718 -0.134631 0.0723488 0.346381 -0.0370813 -0.108517 -0.348154 0.141086 2.57374 -1.60005
8484 0.395345 0.056499 0.0746681 0.165887 -0.0639304 -0.0222963 0.0740569 0.359313 2.39081 -1.61815
8859 0.295365 -0.027407 0.0288902 0.169316 -0.05389 0.0227866 -0.115722 0.231399 2.58398 -1.57335
9176 0.697786 -0.175447 0.104786 0.645222 0.137283 0.269198 -0.106568 0.340388 2.42021 -1.60909
7533 0.0933134 -0.0874115 0.0447678 0.279177 -0.161335 0.0325255 -0.0228638 0.304776 2.36192 -1.79661
7989 0.151538 0.0498077 -0.00418781 0.115571 0.0342802 0.0118021 0.106139 0.38498 2.54868 -1.51265
5901 -0.142792 -0.257898 0.0135417 0.0374321 0.0777993 0.234274 -0.137108 0.194818 2.57014 -1.25228
6907 -0.141221 -0.135308 0.00783417 0.14361 -0.0635107 0.089726 -0.0117525 0.306434 2.4708 -1.45347
7132 0.139341 -0.00846695 0.0175897 0.252475 -0.097026 -0.026249 -0.0540028 0.280849 2.4017 -1.78927
5779 0.12112 -0.185184 -0.0188962 0.420072 0.146228 0.306261 0.0132453 0.245491 2.2014 -1.73732
6553 0.423151 -0.081155 -0.0270237 0.384035 0.146989 0.185945 -0.187414 0.131074 2.24942 -1.67739
7829 -0.232193 -0.316118 0.000551812 0.104256 0.451058 0.0216695 0.405733 0.699671 2.34457 -1.84346
676 -0.0353794 -0.353421 -0.000102414 0.391713 -0.162095 0.109011 -0.100983 0.263381 2.27772 -1.79165
3904 0.0176441 0.104504 0.0541578 0.311951 0.178547 0.548592 -0.101237 0.146256 2.47647 -1.23688
5705 -0.156669 0.0592707 0.0121685 -0.098304 -0.119094 0.171396 -0.165191 0.143654 2.47011 -1.54008
4802 0.0111008 -0.0805052 0.0396878 0.0580092 0.0743403 0.23997 -0.305185 0.0335069 2.29952 -1.73601
4669 -0.122507 -6.89315e-05 0.0157782 -0.123861 -0.165322 0.184962 -0.209506 0.120551 2.52554 -1.49952
4584 -0.20448 -0.13193 0.0249313 -0.127217 -0.115004 0.0652873 -0.230805 0.118947 2.68825 -1.17658
4420 -0.0890442 -0.247264 0.0458702 0.101477 0.210982 -0.0799876 -0.434675 -0.00585522 2.52856 -1.37766
5945 -0.231034 -0.344382 0.0267433 0.360322 0.139463 0.0216339 -0.215765 0.170282 2.50339 -1.3525
3628 -0.0533316 -0.193926 0.0683877 0.343806 0.204255 0.427036 0.368401 0.536886 2.41048 -1.47118
9674 0.25099 0.0320105 0.0213667 0.319309 0.0955372 0.0896738 -0.0146308 0.276408 2.51724 -1.53047
646 -0.043758 0.371235 0.0231889 0.511252 0.246187 0.674017 -0.00100214 0.0797241 2.27469 -1.81583
7941 -0.13986 -0.240015 -0.0158768 0.353405 -0.173933 0.293764 0.165557 0.431194 2.46483 -1.45799
2218 0.0570897 0.307445 0.0294042 0.416897 0.471164 0.592189 -0.182278 0.00935323 2.47065 -1.53847
1512 -0.0444619 0.150687 0.00162813 0.280949 0.111095 0.355425 -0.34596 -0.0474823 2.51304 -1.36185
1442 0.0392572 0.30995 0.0067978 0.634763 0.283482 0.836235 -0.0850867 0.123924 2.56136 -1.42003
886 0.0487116 0.580088 0.0138968 0.454205 -0.0445624 0.703843 0.338382 0.43402 2.66985 -1.28485
22 0.240555 -0.232017 0.0152947 0.226349 -0.0365327 0.29654 -0.0741892 0.226077 2.46572 -1.31844
2577 0.025263 0.0382049 -0.00349067 0.0431508 0.086056 0.499664 -0.132934 0.105775 2.44762 -1.57374
2214 0.473346 -0.0166204 -0.072498 -0.305356 0.260371 1.03032 -0.154239 -0.0360736 2.36901 -1.61016
1783 0.478049 -0.195231 -0.0174993 -0.46077 0.428052 1.0447 0.000262963 0.0402811 2.68874 -1.74274
2935 0.484247 -0.219348 -0.0481576 -0.393793 0.311328 1.05447 0.0286855 0.149586 2.40475 -1.74151
4054 0.386395 -0.266202 -0.0283515 -0.538773 0.304625 0.919453 -0.23423 -0.0391073 2.59049 -1.93378
7772 0.30775 0.134672 -0.0139741 0.240615 0.0806173 0.182917 -0.0115113 0.385582 1.95327 -1.31755
6122 0.0912175 0.215077 0.0343409 0.22497 -0.223278 0.331116 0.183361 0.398839 2.38936 -1.81233
570 -0.143052 -0.0191245 0.0193215 -0.0576038 0.243565 0.0939073 0.416663 0.601062 2.49912 -1.49124
1857 -0.109073 0.0220879 -0.0197913 0.00887603 0.628128 0.330867 -0.07897 0.119905 2.59399 -1.31925
279 0.000244468 0.266386 -0.026811 0.451191 0.223927 0.659453 -0.0956195 -0.0194783 2.44972 -1.41079
7215 0.191528 -0.277122 0.00651977 0.132436 0.259524 0.361047 0.0979327 0.299152 2.56381 -1.33771
8768 0.0479438 -0.00888096 0.0441961 0.374096 -0.180571 0.0531977 -0.0421029 0.292933 2.40249 -1.58619
9118 0.33889 -0.313992 0.031244 0.419052 0.176112 0.00312785 -0.131652 0.228278 2.35725 -1.82935
8701 0.190201 -0.096947 0.0224772 0.258127 -0.0361924 0.113392 -0.119846 0.248995 2.0751 -1.5204
4288 0.0334879 -0.135518 0.0029696 0.313831 -0.0273903 -0.175146 -0.039936 0.305964 2.44258 -1.54639
10045 0.379997 -0.0184488 0.0407868 0.169184 0.0714293 -0.0805245 -0.0583134 0.317919 2.64568 -1.49626
10124 0.280504 -0.227242 0.0495932 0.50076 0.447071 -0.42286 -0.662697 -0.0258539 2.82972 -1.32706
1389 -0.0654726 0.148439 -0.0517993 0.307777 0.114898 0.890264 0.132224 0.206966 2.57128 -1.21689
2517 -0.179632 0.0356108 0.0177212 0.218562 -0.0762277 0.782998 -0.0182974 0.186853 2.32007 -1.75923
2358 -0.0587732 0.193163 -0.0033181 0.128241 -0.115295 0.404242 -0.216126 0.0446485 2.42123 -1.68531
4758 -0.197443 -0.173386 0.0109245 -0.168368 0.0477903 0.356404 -0.451015 -0.0659378 2.46712 -1.60344
4329 -0.166815 0.114399 0.0239191 -0.309597 0.016882 0.0754587 -0.254667 0.0916573 2.5122 -1.52199
6728 -0.180179 -0.115983 0.00821799 0.0504457 -0.133731 0.171544 0.106482 0.367948 2.43029 -1.59809
6416 0.043556 -0.149147 0.0358805 0.31366 -0.220156 0.232719 0.240861 0.523956 2.53352 -1.36083
9434 0.283057 0.0200683 0.0701846 0.307341 0.0507857 0.0407954 0.282082 0.53503 2.6237 -1.46234
9803 0.303086 -0.102365 0.00568792 0.198446 -0.0188738 -0.116831 0.0546461 0.395625 2.69385 -1.22137
9324 0.171837 0.0113248 0.0846973 0.177472 0.237622 -0.452063 0.144587 0.497267 2.46705 -1.40295
9452 0.258818 0.13912 0.0690176 0.0434448 0.357453 -0.400884 0.293118 0.688543 2.56729 -1.69966
6860 -0.246136 -0.0672691 0.00774186 0.0567548 0.025677 0.148715 -0.235535 0.0924922 2.51259 -1.38716
1109 -0.0671231 0.108538 0.0170797 0.0985711 0.60824 0.32438 -0.0077818 0.224524 2.55389 -1.46203
2062 -0.0179003 0.242069 -0.0162522 0.101947 0.434866 0.441695 -0.0641346 0.107617 2.54169 -1.42882
5851 -0.306662 -0.0731888 -0.0231171 -0.19472 0.162558 0.144158 -0.202101 0.0640094 2.46639 -1.40442
1986 -0.147735 0.234461 -0.00310414 0.0809735 0.145221 0.236421 -0.308571 0.0028788 2.51735 -1.39811
7345 -0.0463038 -0.0921593 -0.053446 -0.0823247 2.69166e-05 0.290726 0.160836 0.302709 2.53759 -1.28506
9526 0.128056 0.0425821 0.0205828 0.266704 -0.0998788 0.10384 -0.0698103 0.238433 2.50797 -1.49727
8084 0.00787441 -0.260248 -0.00038784 0.220833 0.00903728 0.00913669 -0.0228831 0.275 2.5583 -1.37776
6175 -0.128839 -0.147338 0.01877 0.276593 -0.102379 0.127036 -0.116328 0.210683 2.54372 -1.41553
771 -0.124746 0.068154 0.0234648 0.144863 0.309121 0.338191 -0.231887 0.0596108 2.55731 -1.38616
4109 -0.00488047 -0.147755 0.00264376 -0.0723027 0.23569 0.197977 -0.0605685 0.187057 2.51764 -1.39958
8390 0.210899 -0.292003 0.0203164 0.62295 0.126767 -0.131302 -0.267654 0.14889 2.49583 -1.57227
9311 0.275026 0.0344062 0.0106109 0.273028 -0.46682 0.00253517 -0.0778909 0.300604 2.59879 -1.55164
5259 -0.0898275 -0.0190467 0.0133897 0.0308616 -0.0636525 0.189649 -0.103648 0.166601 2.48861 -1.45632
5826 -0.175593 -0.340731 0.00992983 0.231467 -0.067213 0.349735 -0.382326 0.0136228 2.48745 -1.4385
5450 -0.122006 0.182484 0.00556852 -0.0258874 0.0116379 0.386207 -0.137161 0.141714 2.55141 -1.59392
2805 0.00314304 0.322659 0.0370132 0.17386 0.162991 0.736245 -0.322819 0.0324869 2.19029 -1.49814
4297 0.364835 -0.432091 0.0086639 -0.377464 0.249286 0.628339 -0.249138 -0.0629287 2.41296 -1.80893
9321 0.741934 -0.509268 0.00429363 -0.275407 0.112961 0.507133 -0.264055 0.0143227 2.45772 -2.01565
9420 0.36666 0.00967656 0.0164519 0.187845 -0.226567 0.0657138 -0.142546 0.216712 2.37314 -1.86337
8228 0.0177064 -0.0744515 0.0645094 0.194017 0.00948559 0.0288446 0.0915169 0.369609 2.23348 -1.78067
8457 0.213983 -0.069049 0.0571813 0.314938 -0.18286 -0.01052 -0.154004 0.226358 2.32023 -1.98883
5555 -0.0905765 -0.263355 0.0420238 0.310335 0.0984523 0.306235 0.0851188 0.322557 2.36871 -1.65876
1149 -0.0632796 0.20428 -0.00647758 0.369283 0.338983 0.502271 -0.179278 0.057144 2.36959 -1.6708
3056 -0.0381132 0.155585 -0.000596256 -0.110792 0.0933417 -0.00383588 -0.0083366 0.283815 2.48571 -1.48918
2726 0.078876 0.246959 -0.00963674 0.0899615 -0.386748 0.549508 -0.20358 0.120971 2.34932 -1.77775
858 0.152001 0.0419794 0.0174914 -0.0223171 -0.131349 0.0416524 -0.144283 0.220221 2.35073 -1.82278
6080 -0.174004 -0.301385 -0.0391053 0.244698 -0.182457 0.163487 0.210967 0.427955 2.34406 -1.77763
6375 -0.257396 -0.426127 0.0135931 0.419488 -0.0586654 0.277791 -0.15616 0.0990635 2.24844 -1.69379
7373 0.201103 -0.044997 0.0308031 0.198978 -0.0817903 0.0676492 -0.15479 0.195951 2.48913 -1.61451
5925 -0.161896 -0.550006 -0.00324683 0.1817 0.208064 0.190263 -0.493613 -0.0809992 2.7605 -1.23345
8423 0.0487214 0.0655729 0.035831 0.125496 0.114448 0.165947 0.185871 0.418771 2.35342 -1.60765
2366 -0.187478 -0.26168 0.0175794 0.351463 0.231931 0.560059 -0.131308 0.0417042 2.24887 -1.48986
8751 0.305911 -0.053864 0.0161179 0.196622 0.18853 -0.142457 0.0616258 0.357859 2.57583 -1.41841
1131 0.0837291 -0.0116589 -0.0689217 0.297368 0.241643 0.554864 -0.0651922 0.102164 2.28603 -1.62079
4651 0.0848209 -0.233407 0.040427 0.624488 0.270317 0.236672 -0.0695705 0.272781 2.28623 -1.86653
3406 0.192075 -0.0703553 -0.0208287 0.152623 0.0791268 0.361493 -0.0520838 0.206585 2.45476 -1.54049
9141 0.390952 -0.269398 -0.000515441 0.342736 0.179969 0.202061 -0.0218122 0.338367 2.42414 -1.58291
8868 0.101026 -0.050778 0.0218724 0.414438 0.111196 -0.0463321 -0.292348 0.118683 2.60702 -1.41255
454 0.173465 0.0538969 -0.0108225 -0.323889 -0.0799049 0.519462 -0.175036 0.0894789 2.60459 -1.32221
8849 0.163735 -0.147411 0.0312176 0.257656 0.135793 0.245222 -0.178353 0.262589 2.08792 -1.49082
6955 0.145418 -0.269317 0.0183625 0.369007 -0.0585359 0.0390299 -0.0918621 0.169401 2.4933 -1.35595
7320 -0.353578 -0.448023 -0.0202618 0.215154 -0.279034 0.630013 0.135166 0.354254 2.53022 -1.45366
7376 -0.205658 -0.151644 0.0268048 0.185038 -0.0944406 0.306862 -0.0500082 0.225484 2.39876 -1.5701
2100 0.0899383 0.159907 0.0190071 0.00387804 0.351627 0.280007 0.163544 0.312876 2.43914 -1.5761
9481 0.11815 0.0453856 0.0375913 0.021333 0.163257 -0.172241 0.325746 0.572079 2.4654 -1.72183
9439 0.309824 -0.320274 0.0195611 0.31394 0.18684 0.116512 0.121563 0.49377 2.34655 -1.87506
6360 0.0658348 -0.200607 0.00566293 0.307565 -0.163771 0.134854 0.000522062 0.298462 2.42228 -1.67149
3490 0.036936 -0.0585348 0.0119267 0.17034 0.165826 -0.0662989 -0.439723 0.0392099 2.6847 -1.18168
981 -0.208915 0.0481852 0.0134035 0.558041 0.488327 0.181576 -0.617448 -0.150194 2.64321 -1.25095
1919 -0.127141 0.280234 0.0670564 0.414201 0.356756 0.532399 -0.393319 -0.14791 2.44231 -1.51107
288 0.0616192 0.119882 0.0139644 -0.141653 0.417892 0.00150453 0.0565655 0.337674 2.55799 -1.45013
3590 -0.0697012 0.0436442 0.0149693 -0.166907 0.253224 0.262333 -0.057119 0.183602 2.56556 -1.28691
4262 -0.0505961 0.341218 0.0111101 -0.258893 -0.32855 0.227433 -0.576437 -0.10934 2.33272 -1.80368
4256 -0.0904607 0.134919 0.00210114 -0.332428 -0.0667637 0.162266 -0.193396 0.0820392 2.53812 -1.47115
3675 0.0977939 -0.0520751 -0.0432838 -0.271551 -0.0135832 0.401883 -0.244021 0.0202148 2.62248 -1.29601
5819 0.0206076 -0.0985772 0.0121081 -0.0355597 -0.479499 0.214377 -0.351331 0.0439278 2.69806 -1.12335
2585 0.0450023 0.257513 -0.0252384 0.167983 0.357916 0.565842 -0.25877 -0.0338431 2.6988 -1.2716
2862 -0.0328377 0.370639 -0.0159029 0.160194 0.551615 0.384965 -0.189978 -0.0104525 2.58627 -1.39448
725 -0.255292 0.0572118 0.0139936 0.149715 -0.0479991 0.154576 -0.195305 0.0990921 2.47477 -1.47212
2216 0.0884884 0.10341 0.0607124 0.341037 -0.45815 0.447498 -0.103417 0.222068 2.75128 -1.17469
2474 0.139808 0.0451054 -0.00472297 0.0483655 -0.345533 0.52929 0.00696319 0.21026 2.67507 -1.0901
2430 -0.00231285 0.0202737 0.0093601 0.0911025 0.0104944 0.483599 0.0287558 0.257054 2.44726 -1.4922
214 0.151141 -0.0297289 0.0883846 0.223513 0.176637 0.23088 -0.0334315 0.264868 2.38105 -1.61591
4622 -0.0509911 -0.0508881 0.0191762 0.00052873 -0.0389887 0.127476 -0.0889415 0.205307 2.36587 -1.70665
2606 -0.0594046 0.0357559 0.000398425 0.0046013 0.403601 0.14967 -0.236632 0.138151 2.66023 -1.18655
2832 -0.176211 0.176269 -0.0144847 -0.126533 0.115447 0.173443 -0.140951 0.137391 2.5484 -1.41162
1742 -0.0949733 -0.0106391 0.00861292 0.201694 0.324445 0.27023 -0.116301 0.124702 2.4413 -1.45587
8967 -0.0917135 -0.0191673 0.0267885 0.581078 -0.0258289 -0.0782994 -0.0401531 0.316268 2.52844 -1.3687
3855 0.251399 -0.146306 0.0468839 0.158544 -0.468533 0.176416 -0.000507222 0.352462 2.46975 -1.48947
10219 0.377438 0.0359346 0.0164582 0.140981 -0.107956 -0.0785063 -0.333223 0.130852 2.40656 -1.78381
472 -0.0409635 0.0454449 0.0227539 0.335858 -0.135953 0.272895 0.360403 0.545155 2.48187 -1.39059
8103 0.0301985 -0.122991 0.0463662 0.413383 0.0693235 0.114149 0.108056 0.344711 2.32589 -1.70771
5722 -0.240694 -0.458476 0.0101018 0.520413 0.222382 0.0469022 -0.322941 0.0653923 2.43483 -1.51566
5021 -0.290054 -0.162856 0.00616464 -0.0224726 -0.107952 0.104487 -0.269354 0.0923839 2.29211 -1.79212
6393 -0.172511 -0.313738 -0.0228948 0.275239 -0.135622 0.629993 0.00376116 0.113609 2.21517 -1.32211
5215 -0.304982 -0.351132 0.0118255 0.291043 -0.110927 0.241421 -0.239939 0.135726 2.48622 -1.49756
7537 0.059241 -0.357049 0.0197534 0.205393 -0.0418143 0.330247 0.162059 0.407248 2.5687 -1.45321
6721 0.172388 -0.45787 -0.0076048 0.221245 -0.00140988 0.244853 -0.196652 0.116819 2.42798 -1.48163
3711 0.0645857 -0.347736 0.00266695 0.00498409 0.265135 0.184386 -0.248762 0.112889 2.59336 -1.37459
8979 0.413387 0.253498 0.0115485 0.150678 -0.422665 -0.0165924 -0.178086 0.215952 2.61905 -1.54896
9493 0.512048 -0.0709751 0.0301513 0.41268 -0.0476778 -0.176772 -0.119154 0.290199 2.49639 -1.37644
4332 -0.0845957 -0.0876937 -0.0218121 -0.302739 0.0367186 0.302546 0.248833 0.439621 2.54984 -1.14374
4999 0.00108211 -0.188914 0.00800215 0.0625551 -0.0414403 0.195607 0.158775 0.451705 2.55694 -1.37038
7159 0.271698 -0.556561 0.019515 -0.101453 -0.195037 0.693622 0.0578514 0.171407 2.30799 -1.63045
2084 -0.0990835 0.523404 0.0092067 0.171399 0.172059 0.351267 0.458229 0.498189 2.69804 -1.18677
3117 -0.0960502 -0.132419 0.0126758 -0.0217267 -0.122536 0.259782 -0.106386 0.201805 2.6915 -1.06905
2347 0.174386 -0.199749 0.0409596 0.0220235 0.404465 0.504633 -0.496671 -0.147759 2.45753 -1.66075
5866 -0.194032 -0.37213 0.0446895 0.252583 -0.0368687 0.283146 -0.174855 0.203048 2.49094 -1.45056
5163 -0.00554513 -0.155962 0.0131862 -0.0854463 -0.165339 0.310147 0.103139 0.29643 2.68324 -1.17588
3717 -0.152801 -0.131629 0.00432765 0.0115112 -0.119363 0.426189 -0.0217065 0.15348 2.60965 -1.22958
9533 0.103404 -0.230855 0.0199358 0.0414436 -0.0718676 0.0605856 0.0500568 0.298451 2.44296 -1.44253
3644 0.0415999 -0.13267 0.0176542 0.067391 0.116407 0.0673192 -0.0157271 0.331679 2.32413 -1.56994
7076 0.270205 0.0258609 0.0330421 0.0665993 0.28506 -0.10723 0.277164 0.580822 2.51261 -1.72386
7651 0.541735 -0.0218648 0.029029 0.256834 0.156701 0.321529 0.0766866 0.400226 2.45677 -1.52649
9465 0.219802 -0.000107547 0.0386013 0.268709 0.064006 0.0709827 -0.0613266 0.242894 2.41614 -1.75659
9635 0.518543 -0.0791649 0.0193232 0.15616 0.284854 -0.142447 0.196983 0.479323 2.60278 -1.48853
308 0.0178625 0.13069 0.00402046 0.207193 0.155841 0.618853 -0.0561605 0.0629574 2.20685 -1.6654
4496 -0.0553448 0.188053 -0.000990011 -0.19625 -0.122651 0.136747 -0.39526 -0.0399122 2.57579 -1.49771
3155 0.0320209 0.143192 -0.0213318 -0.126372 -0.0221058 0.450843 -0.221328 0.0112674 2.69272 -1.25102
4980 0.193771 -0.517696 -0.00860533 -0.903117 0.00729302 0.716136 -0.322924 -0.0631154 2.77388 -1.55827
88 -0.0124184 0.00698846 -0.00382412 -0.00715738 0.327615 0.139588 0.0670097 0.288779 2.53972 -1.42737
5116 -0.192634 -0.109814 0.00303601 -0.0642187 0.0180927 0.146938 0.482002 0.601939 2.4335 -1.62513
7305 0.0202523 -0.140425 0.0311966 0.118402 -0.220435 0.039593 0.0597216 0.341817 2.53776 -1.41517
1999 -0.069929 -0.182776 0.0310115 0.237648 -0.194267 0.31032 -0.0805492 0.262076 2.49684 -1.32236
6141 -0.298288 -0.20042 0.00932321 0.110449 -0.218073 0.341811 -0.211736 0.103295 2.61754 -1.51034
3632 0.0299012 0.143295 -0.00357098 -0.234637 0.224184 0.378272 -0.281893 -0.0153122 2.53831 -1.54972
234 0.0104754 0.111929 -0.022846 0.0618024 0.301547 0.503013 -0.132316 0.062505 2.60283 -1.25621
6853 -0.0760471 -0.301767 0.0239528 0.0833193 -0.0557831 0.300634 -0.043923 0.223064 2.45206 -1.33469
946 0.120398 -0.14542 0.0194908 0.147723 0.128702 0.604988 -0.159801 0.0821992 2.60452 -1.24612
8700 0.291623 -0.0916443 0.0603006 0.386513 0.0945658 0.226848 -0.0604888 0.242083 2.32606 -1.31878
8618 0.249166 -0.297167 -0.0651684 0.314777 -0.304854 0.437557 0.0335886 0.211457 2.215 -0.817801
5810 0.0518714 -0.140829 0.0224632 0.0672955 0.133868 0.261658 -0.151006 0.142235 1.96274 -1.3401
4389 -0.198239 -0.27831 0.0128768 0.100456 -0.00307526 0.554674 -0.235522 0.0967375 2.42401 -1.76617
7474 -0.118012 -0.00984383 0.0172879 0.0143165 -0.592623 0.242141 -0.121476 0.126124 2.43136 -1.4363
2955 0.0355736 0.274293 0.0129658 0.0271971 0.102454 0.169922 -0.225753 0.0620999 2.39999 -1.61023
6550 -0.0838209 -0.177452 -0.0289659 0.137065 -0.240326 0.250755 -0.10962 0.360133 2.29111 -1.67126
9387 0.312747 -0.0365011 -0.00483762 0.332506 0.033344 -0.0360575 0.0155549 0.306152 2.38268 -1.78378
8438 0.497123 -0.073244 0.00834041 0.402078 0.13721 -0.0834192 -0.00342983 0.335999 2.47463 -1.63065
8150 0.337819 -0.0820579 -0.0368143 0.456384 -0.305129 -0.00257846 -0.24338 0.133013 2.37437 -1.74962
7702 0.113518 -0.157056 0.00230502 0.233649 0.0661721 -0.0248953 0.0296556 0.26226 2.61656 -1.26953
465 -0.0377654 -0.340523 0.0151148 0.436638 -0.0365584 0.0388751 -0.23544 0.188695 2.48286 -1.49446
7293 0.00747573 -0.214608 0.020933 0.271419 0.302544 -0.0566947 0.152394 0.43341 2.57627 -1.35598
3204 -0.061593 0.28878 0.06206 -0.275198 -0.00945374 0.227872 -0.238466 0.0634296 2.62497 -1.38189
1327 -0.0352841 0.297172 0.0119322 0.173074 0.23882 0.306812 0.0206724 0.239255 2.48134 -1.52092
1636 -0.00520296 0.0995789 -0.00320482 0.212444 0.318512 0.452702 0.0539351 0.220744 2.47867 -1.44543
1270 -0.253722 -0.109242 0.0408512 0.705716 0.222701 0.651008 -0.152247 0.110288 2.25987 -1.7891
5625 -0.0614916 0.038314 0.0341777 0.103189 -0.202254 0.141664 -0.201771 0.153935 2.47516 -1.52145
1110 -0.0465065 0.0320879 0.00992279 0.0947981 0.291708 0.286272 0.032949 0.248821 2.58177 -1.30431
7950 0.125493 -0.0682344 0.00842432 0.425087 -0.411563 0.0827021 -0.326825 0.107172 2.48389 -1.40352
8451 0.0328625 -0.225915 -0.0278496 0.768059 0.372534 -0.278621 -0.700752 -0.190243 2.79236 -1.25763
10276 0.23172 -0.1013 0.0635696 0.63706 0.406203 -0.541063 -0.660257 -0.0716555 2.93586 -1.19005
4828 0.0127553 -0.146758 -0.0278126 -0.169163 0.234896 0.204335 -0.115568 0.148845 2.67833 -1.22736
3765 0.0077937 -0.138033 0.0179306 0.280818 0.0847336 0.143505 0.175713 0.459054 2.54169 -1.38099
8354 0.116464 -0.185769 0.0124034 0.185172 0.240178 -0.0568623 0.436235 0.621205 2.49384 -1.50715
8486 0.0913323 -0.0100001 0.0476339 0.230703 0.289224 -0.00897423 0.255211 0.520185 2.45536 -1.59098
8739 0.0421936 0.0103824 -0.00911821 0.296856 0.0957334 0.0727978 0.012905 0.284693 2.12043 -2.03852
1206 -0.0607676 0.0805114 0.0139722 0.0772421 -0.00999572 0.280098 -0.295343 0.0166424 2.55072 -1.35214
4161 -0.237554 -0.486915 0.00412984 0.0618674 0.0408621 0.51731 -0.047132 0.264941 2.52481 -1.57251
3107 0.125844 -0.078186 -0.0451187 0.0286433 0.1792 1.12376 -0.0663304 0.0770997 2.4592 -1.7232
3262 -0.0708466 0.163437 -0.00481779 -0.12501 -0.0475641 0.338217 -0.255529 0.00512035 2.5473 -1.53378
1156 -0.30518 0.145207 0.00753939 0.191247 0.207136 0.361205 -0.254694 -0.00678932 2.40488 -1.51805
5546 -0.302907 -0.098967 0.0365199 -0.0132383 -0.032156 0.0716914 -0.313915 0.0237519 2.58691 -1.32248
10096 0.689681 0.0511228 0.0167187 0.0615093 0.341973 -0.101796 -0.246751 0.15276 2.82675 -1.20335
4984 -0.000689461 -0.00811805 0.0200859 0.0666611 -0.0443527 0.193567 -0.0616736 0.239937 2.52823 -1.50984
1531 0.339929 -0.136555 -0.0608835 -0.162734 0.296092 0.914712 0.0156024 0.0924396 2.47669 -1.57112
2083 0.578512 -0.260297 0.00360556 -0.115572 0.0320915 0.886918 -0.111062 0.0316625 1.93476 -1.61086
5443 0.349025 -0.47899 -0.0458123 -0.618709 0.215315 0.875748 -0.0393903 0.0759591 2.70203 -1.79943
4708 0.0777174 0.0108361 -0.00150533 0.134364 -0.0589208 0.151491 0.0763068 0.312081 2.47884 -1.50371
2790 -0.0675431 -0.0322749 0.0341726 -0.154159 0.417191 0.148811 -0.0374542 0.287603 2.51685 -1.46824
4851 -0.0116891 0.292386 -0.0347382 -0.288061 0.154312 0.219763 -0.218821 0.0391717 2.65093 -1.42904
3545 0.102629 0.29115 0.00613814 -0.117254 -0.300228 0.386587 -0.270137 0.0514884 2.48415 -1.52809
2598 0.0673215 -0.0436407 0.0381867 0.0567268 -0.477248 0.330662 -0.173462 0.179974 2.70684 -1.1284
9098 0.183574 -0.0224821 0.0663594 0.267479 -0.1173 0.052377 -0.032513 0.295163 2.47672 -1.53182
8422 0.194031 -0.203329 -0.00257403 0.519362 0.151234 -0.22157 -0.373981 0.104323 2.61228 -1.36766
7895 0.0658224 -0.0999309 0.02827 0.172707 0.0747993 0.207888 -0.101209 0.158699 2.62751 -1.359
1915 -0.0572019 -0.191946 0.0400221 0.11058 0.108767 0.340954 -0.164142 0.2216 2.07834 -1.19374
1798 0.00521239 -0.46103 0.0292375 -0.0956794 0.284182 0.549194 -0.502406 -0.194164 2.56357 -1.59934
6469 -0.147273 -0.386777 -0.0185714 0.386398 -0.0891653 0.457007 -0.227413 0.0560755 2.51071 -1.46353
9136 0.281319 -0.323194 0.0446723 0.484128 0.070989 0.246329 -0.347774 0.068546 2.27982 -1.84051
1047 -0.0222978 -0.004625 0.0203296 0.127229 0.24303 0.161899 -0.148959 0.163134 2.51704 -1.42536
987 -0.171293 0.0200816 0.0307295 0.31956 0.22834 0.464003 -0.0679769 0.115545 2.19879 -1.78886
1460 -0.174899 0.248209 -0.00631756 0.512687 0.0448891 0.845724 -0.161801 -0.0412851 2.33773 -1.58937
1357 -0.127218 0.121283 0.00442126 0.114197 -0.0741744 0.187742 -0.221765 0.137613 2.34888 -1.62686
6794 -0.318135 -0.0785264 0.0123761 0.234746 -0.227986 0.153421 -0.144085 0.136177 2.31354 -1.73349
1895 -0.107488 0.166591 0.05497 0.124776 0.156102 0.407788 -0.287004 0.0986526 2.35066 -1.86683
4480 -0.229847 -0.0283256 0.00920785 0.0760606 -0.288938 0.16536 -0.219745 0.113348 2.2942 -1.77166
3899 0.289319 -0.213622 -0.0128037 -0.627026 0.0227068 0.582884 -0.089904 0.0726253 2.62823 -1.48688
5570 -0.255821 -0.17803 -0.0129294 -0.177631 -0.361573 0.411272 -0.156773 0.132252 2.63605 -1.27
5974 -0.178631 -0.1904 0.0442858 0.00938749 -0.129435 0.0280249 -0.27085 0.107651 2.53084 -1.32056
3823 0.107829 0.217718 0.0163598 0.0416202 -0.518762 0.116353 -0.391488 0.00814446 2.61534 -1.34108
6199 -0.0479743 -0.230743 0.0170418 0.231662 0.00917611 0.199543 0.189572 0.454459 2.53851 -1.36604
5393 -0.154763 0.0414809 0.00765525 -0.190725 -0.0797781 0.130216 -0.292244 0.0484767 2.53926 -1.39914
3339 -0.0398838 0.256229 0.00538193 0.120792 0.0742379 0.461995 -0.209304 0.0480178 2.53811 -1.53044
213 0.133437 0.235341 0.0532101 0.264598 -0.26202 0.610877 0.153167 0.372155 2.61072 -1.37951
2830 -0.106806 0.0388064 0.0165347 -0.0118368 -0.308244 0.123022 -0.226389 0.114697 2.49313 -1.39602
5608 0.0358552 0.158424 0.0203985 0.300326 -0.803048 0.193967 -0.285201 0.134322 2.49405 -1.48871
4932 -0.0390043 0.121743 -0.00309438 -0.235161 -0.10495 0.338754 -0.201103 0.0761287 2.64322 -1.33113
33 -0.0816289 -0.0767255 0.00168892 -0.299144 0.049148 0.227237 -0.269324 0.0774982 2.55893 -1.43476
1288 0.015325 0.0285219 0.0190767 0.345576 0.0686791 0.601922 -0.117662 0.0597458 2.16102 -1.39306
1627 -0.104483 0.342422 0.0179585 0.158078 0.386985 0.351356 -0.0697121 0.144089 2.64766 -1.28051
1241 0.112274 0.32194 -0.000522505 0.298724 0.1377 0.324753 -0.101166 0.15486 2.32084 -1.77335
2786 -0.0717032 0.135827 -0.00634915 -0.108022 -0.00424892 0.268615 -0.27691 0.0107984 2.52626 -1.47919
3637 -0.389353 -0.0783087 0.0330629 -0.240543 0.0557563 0.243158 -0.275426 0.0707551 2.28476 -1.57259
5815 -0.00883972 -0.3211 0.0304512 0.322084 0.0654239 0.371949 -0.0160404 0.29969 2.32224 -1.60615
9575 0.223531 -0.0950868 0.0187068 0.450911 0.378165 -0.544195 -0.488199 0.0750088 2.7626 -1.35361
458 -0.204217 -0.204023 0.0111022 0.309659 0.0731301 -0.145717 -0.373474 0.0868827 2.54823 -1.40625
7717 0.0748467 -0.00584036 0.0411878 0.277809 0.17125 0.0445782 -0.0394442 0.252016 2.61054 -1.00005
1740 -0.0198219 0.14247 -0.00705163 0.142453 0.231257 0.0748092 0.147893 0.379632 2.39649 -1.61787
5180 -0.0274156 -0.181749 0.0252819 0.142206 0.128054 0.0738681 0.170039 0.363882 2.34983 -1.67981
4951 -0.14634 0.148673 0.0757807 -0.0174676 0.0145136 0.385569 -0.121634 0.282267 2.36926 -1.20705
1413 -0.0381828 0.0245932 0.0153689 -0.148563 0.237029 0.212352 -0.211654 0.12043 2.65167 -1.232
5245 -0.189558 -0.190239 -0.000508366 0.211953 0.0675409 -0.149205 -0.421723 0.0153541 2.57786 -1.29948
315 -0.131425 -0.0624607 0.00872454 0.208981 0.103683 -0.104951 -0.553052 -0.056327 2.52271 -1.44955
4342 -0.17148 0.0849911 0.0271413 -0.300452 0.322237 0.115229 -0.228807 0.0928937 2.52658 -1.46329
226 0.000602669 0.0777253 -0.00211054 0.117043 0.10463 0.326357 -0.114879 0.154503 2.40542 -1.58274
8476 0.075408 -0.0487875 -0.000978278 0.269612 -0.133408 0.0545753 -0.138297 0.194021 2.48405 -1.53656
9462 0.152011 -0.320166 0.012096 0.293269 0.240354 0.231692 -0.340706 -0.0908792 2.46229 -1.4054
9562 0.412562 -0.13877 0.0700917 0.512352 0.23611 -0.194485 -0.559964 0.0236052 2.6647 -1.41918
7428 0.130755 -0.160836 0.0668384 0.812714 0.423919 -0.483305 -0.74218 -0.0993745 2.72975 -1.36335
2278 0.0030403 0.263639 0.0455035 0.296428 0.387079 0.87216 -0.208533 -0.0355948 2.34543 -1.33013
1887 0.0356106 0.235398 0.0140977 0.0270833 0.17349 0.367926 -0.275875 -0.000185538 2.61146 -1.48009
3315 0.0799507 0.128835 0.0614637 -0.377172 0.42003 0.455965 -0.215427 0.0278384 2.50307 -1.55905
1648 -0.190615 0.295672 -0.00904308 0.0707314 -0.0458235 0.401411 -0.103594 0.0847695 2.47387 -1.52347
8896 0.0410256 -0.151588 0.125658 0.55871 0.134836 -0.217464 -0.561639 0.116524 2.50253 -1.48675
10063 0.264156 0.0755397 0.0153562 0.173015 0.00570937 -0.309172 -0.172012 0.236682 2.5121 -1.49423
8525 0.144579 -0.05851 0.0292698 0.22945 -0.0841513 0.00938665 -0.0268364 0.289628 2.4106 -1.70174
9933 0.507487 -0.139871 0.0958883 0.376344 0.0792024 0.278009 0.0209579 0.307056 2.36721 -1.55691
7227 0.0327742 -0.341833 0.0158136 0.286785 -0.151455 0.408886 -0.049564 0.352854 2.30268 -1.35064
7112 -0.123582 -0.16355 0.0298871 0.272444 -0.171028 -0.00417256 -0.249351 0.150939 2.68819 -1.26352
6897 -0.149783 -0.257913 0.0145698 0.369929 -0.402936 0.319588 -0.239065 0.118826 2.31113 -1.71343
8775 0.26702 0.0676597 0.0130113 0.199784 -0.259669 -0.0763625 -0.288443 0.151482 2.59016 -1.55139
5628 0.38709 -0.103353 0.0413574 0.254424 0.0640019 -0.0206061 -0.363771 0.0496088 2.47784 -1.51902
4168 -0.0519177 -0.108488 -0.024234 0.149544 0.000246447 0.481124 -0.202462 0.120055 2.29807 -1.77125
9729 0.481851 0.013225 0.0262037 0.169711 -0.106975 0.296041 -0.327951 0.0799971 2.28422 -1.33003
7999 -0.0896388 -0.212397 -0.000351214 0.223643 -0.323204 0.393627 -0.132332 0.141739 2.60501 -1.46893
6426 -0.112861 -0.225869 0.0034221 0.223719 -0.310329 0.206861 -0.0319136 0.304998 2.6021 -1.2702
9012 0.517976 -0.0610789 -0.00257029 0.0866874 0.329409 0.0454418 0.202763 0.495957 2.41181 -1.63969
9680 0.479829 -0.0886297 -0.000998987 0.17214 -0.0206024 0.0754968 -0.147206 0.270454 2.58114 -1.67061
7203 0.159724 -0.0334934 0.0062422 0.124639 -0.161194 -0.0135603 0.15699 0.38999 2.37581 -1.78231
6055 0.226522 -0.206604 0.0244114 -0.0833989 -0.194842 0.244055 -0.0663274 0.212114 2.18372 -2.07118
8582 0.36911 0.0454224 0.0106291 0.0624645 0.304146 -0.194289 0.342366 0.587598 2.39891 -1.73537
9997 0.233103 0.0443515 0.0311998 0.160274 -0.032777 -0.103741 -0.0973224 0.246491 2.54356 -1.49978
7614 0.0705788 -0.113156 0.0101025 0.357511 0.0482677 0.038777 -0.0118282 0.324112 2.49506 -1.49101
8925 0.0407711 -0.151716 0.0375527 0.499394 0.0506394 -0.106339 -0.243923 0.181346 2.50482 -1.28
9541 0.0729924 -0.297892 0.069238 0.816453 0.416194 -0.227985 -0.661115 -0.111976 2.76776 -1.33424
9092 0.247201 -0.0409207 0.0578222 0.437661 0.0409063 -0.367831 -0.557651 0.0425769 2.50639 -1.67828
544 -0.0536895 -0.102726 -0.00364899 0.0443861 -0.343222 0.236382 -0.152444 0.138539 2.44705 -1.54046
8139 -0.0611426 -0.234335 -0.0235062 0.528623 -0.254617 0.0736005 -0.151942 0.122975 2.14667 -1.74075
7363 -0.00639002 -0.387974 0.0163487 0.245172 -0.0338359 0.227959 -0.138865 0.215689 2.32255 -1.77866
7623 -0.121951 -0.509053 0.0360979 0.247371 0.0859711 0.369178 -0.371039 -0.0282371 2.53802 -1.52236
6419 0.185068 -0.684482 0.0344409 -0.279253 -0.113851 0.64189 -0.0627035 0.0784411 2.39883 -1.4539
6692 -0.114605 -0.43116 0.0230399 0.132592 -0.0855784 0.295085 -0.289974 0.0820316 2.65852 -1.15208
8471 0.118406 -0.0534222 0.0223488 0.255819 -0.179448 0.0121169 -0.0543007 0.243929 2.36158 -1.71787
8877 0.0243076 0.0234513 0.00217 0.271898 0.095363 0.15168 0.28445 0.48277 2.21432 -1.83413
8819 0.268342 -0.357631 0.0272099 -0.000707445 0.287513 0.172924 0.219192 0.449504 2.38643 -1.83188
8042 0.0802536 -0.0663102 0.0454025 0.0768599 0.188942 -0.357833 0.180189 0.507277 2.47961 -1.49549
724 0.0491594 0.393095 -0.0218248 0.187934 0.19399 0.257393 0.658861 0.665055 2.68474 -1.16618
7569 -0.0892565 0.103814 0.0197062 0.153002 -0.0492583 0.308033 0.524362 0.663843 2.7055 -1.19706
5402 -0.174666 -0.00214182 -0.0135589 0.0160475 -0.0760302 0.0783597 0.116676 0.369914 2.54466 -1.36747
3502 0.500716 -0.440412 0.00053585 -0.646859 0.0777218 1.2519 0.0431242 0.0778395 2.67657 -1.59074
2126 0.507325 -0.112089 -0.0335893 -0.251629 0.312432 0.989652 -0.201682 -0.0929013 2.5931 -1.77781
265 0.018012 -0.219741 0.0608676 -0.0167658 0.235323 0.337184 -0.00273672 0.257622 2.48811 -1.61512
5919 0.357807 0.0248735 -0.0690784 0.146632 -0.195546 0.576684 -0.203057 0.00179146 2.54852 -1.19241
129 0.141711 0.0249101 0.0220047 0.119161 -0.118985 0.156283 -0.300136 0.0742568 2.46124 -1.51555
3222 0.317733 -0.0748449 0.00622125 0.316532 -0.0632855 0.0896934 -0.0939507 0.256634 2.50856 -1.55499
6155 0.118079 -0.392987 -0.0136814 0.223083 -0.296843 0.343226 0.0474482 0.145731 2.58286 -1.18709
991 0.0194435 0.02909 0.00599798 0.321809 -0.115703 0.455719 -0.135443 0.150006 2.55249 -1.37297
3489 -0.00607105 0.341688 0.0121798 0.12086 0.24561 0.417508 -0.246306 -0.000498879 2.6162 -1.47286
2737 -0.119244 -0.00250678 0.000224016 0.135337 -0.113273 0.270862 -0.363583 0.0262513 2.46071 -1.55433
4082 0.119211 0.359644 0.0374297 -0.111468 -0.392688 0.120381 -0.320663 0.00813025 2.60548 -1.29817
5505 -0.311459 -0.0478098 0.0653359 -0.0654491 -0.348944 0.355323 -0.0709509 0.162904 2.35233 -1.66803
3974 0.102468 0.000222721 0.047465 0.140859 -0.222206 0.112671 -0.184715 0.216104 2.4132 -1.65831
8810 -0.0559635 -0.071938 0.0191694 0.22746 -0.218119 0.2084 -0.121054 0.178673 2.36468 -1.66698
4371 -0.187657 -0.0372233 0.0413604 -0.0338444 -0.205992 0.445596 -0.378484 -0.00762115 2.27788 -1.77093
969 -0.0286777 0.298865 -0.000695604 0.0969405 0.122725 0.217883 -0.228366 0.0514001 2.51087 -1.42445
1948 -0.0153707 0.439946 0.0170713 0.155515 0.0171321 0.329103 -0.238334 0.0467419 2.47102 -1.50894
7333 0.0562378 0.0445376 0.00104799 0.483353 -0.537721 0.118694 -0.217975 0.16711 2.32618 -1.7587
71 -0.224328 -0.300876 0.0458409 -0.261405 0.123841 0.343507 -0.181431 0.134838 2.57141 -1.38022
1991 0.0693907 0.195473 -0.0438606 0.529431 0.0697999 0.891926 -0.225744 -0.0972332 2.46072 -1.23777
5454 0.325725 -0.0635798 0.0751554 0.22738 0.170031 0.253836 0.0565645 0.351935 2.2341 -1.66055
5874 -0.00639651 -0.245843 0.0340191 0.256658 -0.192112 0.277727 -0.291536 0.162793 2.42578 -1.39803
1543 -0.200111 0.112028 0.00245127 0.068253 0.0423375 0.446516 -0.378862 -0.0176147 2.5423 -1.4699
6139 -0.162265 0.16365 0.0899362 -0.133559 -0.0728907 0.0475951 -0.141546 0.276279 2.37528 -1.58623
3469 -0.16498 -0.21554 -0.00643672 0.285976 -0.532627 0.8103 0.168131 0.365148 2.40938 -1.32987
6894 0.0545341 -0.283254 -0.00504883 0.505471 -0.0371095 0.201023 -0.091167 0.259863 2.58321 -1.43806
9276 0.357133 -0.0575136 0.0531213 0.246908 -0.338897 -0.040142 0.116823 0.463799 2.51406 -1.42637
6770 0.124495 -0.228777 -0.0210393 0.313379 -0.246966 0.192455 -0.060762 0.219743 2.78332 -1.04797
8823 0.224954 -0.107282 0.03971 0.428356 0.13439 -0.0121794 0.279905 0.573008 2.53604 -1.49311
2749 0.0975042 0.251239 0.00239268 0.174682 0.222441 0.797708 -0.304314 -0.0509552 2.33788 -1.65637
9460 0.185823 -0.120646 0.0304161 0.227148 0.276182 0.0373866 0.387311 0.597478 2.36852 -1.81276
6978 -0.115581 -0.0556719 -0.000913701 0.0839663 0.104035 0.234082 0.48819 0.569432 2.41495 -1.55579
286 -0.0393415 0.238477 0.00188145 0.179171 0.0150662 0.468766 -0.25057 0.047077 2.33699 -1.80857
1273 -0.0363866 0.0820655 -0.00179052 0.159345 0.202319 0.415477 -0.153887 0.0698461 2.55215 -1.36263
5122 -0.315688 -0.0156873 0.0695193 -0.169069 0.123825 -0.00374299 -0.114789 0.210535 2.52043 -1.42059
8234 -0.0934396 -0.111718 -0.00367403 0.199625 -0.0752821 0.174306 0.0272162 0.261676 2.4586 -1.508
2941 0.0965599 0.00977334 0.00282125 0.0294498 0.0364566 0.285418 -0.127228 0.131748 2.53309 -1.32615
638 -0.0482151 0.276876 0.0110007 -0.0543796 -0.106876 0.454758 0.237141 0.424901 2.68033 -1.27778
4213 -0.278498 0.0773594 0.0113055 -0.517197 0.17204 0.000586591 -0.18974 0.133157 2.39355 -1.66833
4774 0.02209 0.212411 -0.0236736 -0.246236 0.265554 0.0363488 -0.104969 0.160475 2.48607 -1.52913
3702 -0.00642065 0.167691 -0.019793 -0.304582 0.00160498 0.332197 -0.24126 0.0224987 2.45681 -1.69432
4311 -0.138722 0.0692806 0.00609408 -0.497429 0.406842 0.222927 -0.103783 0.159602 2.53919 -1.59605
3607 0.0396561 0.226269 0.00376847 0.0205884 0.0749124 0.427497 -0.119675 0.0958687 2.4404 -1.69397
9172 0.00372211 0.0553569 0.0406341 0.11828 0.18086 -0.000813253 0.0690822 0.328317 2.50239 -1.52433
9753 0.568735 -0.0769291 0.0254238 0.105741 0.103901 0.289093 -0.130715 0.249915 2.32353 -1.47107
9421 0.594309 0.014674 0.0741523 0.412734 -0.0900372 0.236185 0.0349395 0.441303 2.40135 -1.59653
521 -0.0753455 -0.101574 -0.00817131 0.387214 0.135222 0.359274 0.0505548 0.272815 2.04909 -1.99133
8396 -0.173645 0.0124253 0.0148446 0.0133388 0.200808 -0.0551581 0.385111 0.566794 2.51727 -1.44796
9418 0.141279 0.14548 0.0262129 -0.0407384 0.27122 -0.0177316 0.412731 0.679735 2.42669 -1.7007
3304 -0.0415433 -0.023442 -0.0020173 -0.0259185 0.818896 0.251111 0.0126488 0.205425 2.62198 -1.32411
6270 -0.394957 -0.164044 0.0702391 0.180251 -0.219509 0.349109 -0.196633 0.215881 2.41503 -1.41943
8130 -0.15055 -0.374988 -0.0177937 0.316282 0.00942585 0.258575 -0.080308 0.19292 1.98151 -1.26473
8535 -0.126279 -0.161199 0.0040985 0.523539 0.164314 -0.128511 0.0857647 0.418712 2.5636 -1.28587
1492 -0.0645888 0.0370254 -0.0224057 0.106868 0.481333 0.220161 0.150901 0.366461 2.58203 -1.31991
8208 0.092674 -0.422175 -0.0180827 0.320829 0.057546 -0.0109504 -0.0916745 0.231145 2.58169 -1.29351
3834 -0.0583033 0.151677 -0.00777316 -0.0519319 0.368714 -0.0440204 0.179972 0.416354 2.65767 -1.20973
7997 -0.0336387 -0.131753 0.0252845 0.232514 -0.032264 0.242461 0.35945 0.505695 2.50157 -1.39045
3660 -0.0465131 -0.0947492 0.0478989 0.0467765 -0.140672 0.63661 -0.237052 0.0543345 2.32186 -1.63595
3259 -0.205115 0.10792 -0.00594023 -0.170335 0.122081 0.150765 -0.354199 -0.00982481 2.44477 -1.68267
3520 -0.209034 -0.0137109 -0.0168761 0.0269574 -0.0703371 0.329791 -0.122994 0.178713 2.36669 -1.79732
4863 -0.116755 0.200057 0.0596851 -0.0729681 0.224033 0.293481 -0.293464 0.115002 2.4665 -1.51759
3391 -0.00131205 0.373585 0.010712 -0.168162 -0.318978 0.366553 -0.277666 -0.019223 2.64024 -1.38165
161 -0.191775 0.118157 -0.0110817 0.0546908 0.46773 0.200332 0.177723 0.370013 2.5043 -1.42072
1397 -0.102529 0.438721 -0.0110662 0.507565 0.325862 0.583605 -0.128141 0.019091 2.52528 -1.40573
1577 -0.037417 0.328225 0.0425773 0.622238 0.321356 0.818615 -0.0857471 0.0974496 2.61424 -1.41401
7983 0.181016 -0.218212 -0.0255565 0.406419 0.10766 0.19096 0.0386946 0.320818 2.35536 -1.71673
3541 0.0612923 -0.130622 0.0188233 0.140175 0.293448 0.13425 0.136343 0.292405 2.34522 -1.50333
8194 -0.238682 -0.248661 0.0302282 0.523837 0.245257 -0.11592 -0.261212 0.0968076 2.51808 -1.34404
5613 -0.203407 -0.0235465 0.0125099 0.0415006 0.000863703 0.0355383 -0.211039 0.178124 2.48287 -1.37429
9225 0.323682 -0.269597 0.0483345 0.21896 0.0183757 0.121885 -0.08827 0.250393 2.36229 -1.63718
1918 -0.0262283 0.0759793 0.0414774 0.149744 0.017548 0.538088 -0.126947 0.0911025 2.32575 -1.69737
6877 0.364503 -0.175174 -0.0178671 0.261139 -0.441775 0.0308091 -0.276511 0.132571 2.4381 -1.67004
2453 -0.150337 0.0969173 0.0391999 0.270505 -0.181408 0.0832061 0.272659 0.50922 2.69422 -1.13842
6671 -0.3303 -0.319923 0.0341446 0.133138 0.174004 0.231605 0.140578 0.322684 2.49067 -1.21638
6091 -0.153312 -0.266263 0.0318697 0.101635 -0.16146 0.337221 -0.145561 0.182172 2.46254 -1.49833
4611 0.0225735 -0.314851 0.0265395 0.324544 -0.39979 0.30231 0.268321 0.435549 2.5032 -1.37146
6901 -0.0358522 -0.366955 -0.060565 0.149257 -0.492132 0.46613 0.0459127 0.20272 2.42496 -1.37167
3015 -0.0995659 -0.0302555 0.0237371 0.331009 0.158434 0.151223 -0.586006 -0.131756 2.5053 -1.27362
7065 -0.112883 -0.0909521 0.0267733 0.201344 -0.415671 0.305988 -0.0181257 0.240556 2.48768 -1.38491
2820 -0.279183 -0.136971 -0.0392494 0.425562 0.108253 0.389949 -0.0676303 0.149148 2.43363 -1.37523
2928 -0.0488065 0.158276 -0.00633255 -0.0977095 -0.0238272 0.274299 -0.202159 0.0776954 2.43096 -1.70068
4890 0.123217 0.0834982 0.0512532 0.110089 0.130465 -0.0917809 0.282139 0.555842 2.39606 -1.73442
3801 -0.040119 0.112192 0.023182 -0.034934 0.273906 0.0284846 -0.0637681 0.306904 2.50813 -1.4837
8027 0.166858 -0.262941 0.0224321 0.184327 0.429954 0.100169 0.293843 0.464745 2.33131 -1.62219
3690 0.00778711 0.00148961 0.0388795 0.124245 0.318003 0.102086 0.234093 0.475371 2.47653 -1.54917
2919 -0.163585 -0.0659221 -0.0155132 -0.0224192 0.199285 0.282619 -0.282048 0.0277356 2.33225 -1.86264
4698 -0.208029 0.0490845 0.0529716 -0.184581 -0.138423 0.332084 -0.340068 0.100631 2.40619 -1.77206
2809 0.207444 0.145681 0.0284801 0.0894892 -0.175523 0.52914 -0.205484 0.0296882 2.6129 -1.09332
3404 0.149872 0.121961 0.033418 -0.0620834 -0.0400237 0.231793 -0.239401 0.115074 2.54605 -1.38706
10013 0.415002 0.202575 0.00909916 0.138569 0.136433 -0.0712092 0.0911036 0.374417 2.71035 -1.38016
8099 0.340655 -0.0177803 0.0212815 0.194369 0.16372 -0.0435641 0.0173753 0.32258 2.59173 -1.47456
9872 0.341753 0.0666675 0.0270957 0.163239 0.0841692 -0.0316092 0.054386 0.313896 2.47565 -1.58519
9480 0.2249 -0.0426782 0.0183922 0.138435 -0.0150114 -0.00428512 -0.0735702 0.230691 2.46817 -1.62163
4201 0.116298 -0.0192345 0.0234189 0.284275 -0.267686 0.0959006 -0.177883 0.118953 2.45994 -1.41249
6682 0.0354981 -0.0583383 0.0172391 0.109011 0.0197129 0.308602 0.127298 0.36867 2.52111 -1.4542
389 -0.02626 -0.103406 0.012837 -0.0648816 -0.239222 0.523403 0.0433845 0.247182 2.4497 -1.50568
2196 -0.16041 0.110012 0.0110199 0.013857 -0.00944541 0.261801 -0.249047 0.0535427 2.32463 -1.72158
199 0.206317 -0.0142686 0.0342041 0.158612 0.148103 0.400342 -0.336592 0.00841987 2.23598 -1.94549
2967 -0.0632586 -0.0879067 0.0106148 0.0426841 0.118164 0.232957 -0.40299 -0.0341698 2.58586 -1.34757
2479 -0.00334346 0.0509828 -0.0135066 0.0802901 -0.193144 0.201989 -0.285509 0.0866738 2.38417 -1.71537
6607 -0.0809976 -0.172041 -0.00545217 0.0714327 -0.158583 0.227103 -0.0164196 0.285232 2.55713 -1.33097
1752 0.186648 -0.220194 0.012096 0.336005 0.270383 0.532442 -0.326881 -0.0226661 2.24872 -1.921
3519 0.184677 -0.47755 0.0421588 0.434934 0.260588 0.48293 -0.414955 -0.0332432 2.30731 -1.82713
8969 0.00335862 -0.235184 0.0295686 0.31413 0.305176 0.0418761 -0.255818 0.142754 2.53888 -1.31589
6547 -0.203681 -0.0940584 0.0382996 0.101695 -0.415313 -0.018384 -0.100348 0.277102 2.24052 -1.92855
7812 0.0873925 -0.337399 0.0101135 0.640874 -0.220622 0.721477 -0.044432 0.226985 2.46886 -1.09714
7417 -0.248227 -0.147132 0.0191484 0.197445 -0.244226 0.119348 -0.109079 0.166938 2.39878 -1.58837
4360 0.0781176 0.0746697 0.00715632 -0.313411 -0.119629 0.17012 -0.0691299 0.243956 2.631 -1.35371
4085 0.214356 -0.224541 -0.0174834 -0.48992 0.0500278 0.586034 -0.297952 -0.0868241 2.56152 -1.62447
2835 0.0533494 0.432827 -0.0121126 0.0357322 0.200269 0.425206 0.400057 0.526634 2.65573 -1.30127
557 -0.0630843 0.00497941 0.0530562 0.186265 0.0999883 0.677824 -0.129052 0.242428 2.47467 -1.5454
4187 0.0560556 0.30099 0.00208404 -0.237531 0.0502117 0.284463 -0.368061 -0.0658302 2.60465 -1.496
637 0.106966 -0.100626 -0.0347412 -0.00314327 0.0859343 0.396961 -0.269999 0.0678147 2.77853 -1.05652
1338 0.0454526 0.0952843 -0.0353278 0.312387 0.462933 0.769788 0.126949 0.123037 2.27143 -1.49159
370 -0.0872407 0.115638 0.002384 0.127482 0.301509 0.415685 -0.141175 0.123862 2.61352 -1.30819
4507 -0.106963 0.234412 0.0117164 -0.17026 -0.0229334 0.181224 -0.171826 0.105119 2.48934 -1.54699
8412 0.304346 -0.182081 -0.0046918 -0.144006 0.303545 0.146666 0.205476 0.459908 2.28848 -2.07609
8673 0.163025 -0.00435532 0.047481 0.272126 0.125621 -0.0557312 0.0359882 0.439522 2.27249 -1.78211
9162 0.276599 -0.155331 0.0448531 0.198724 0.375654 -0.163767 0.104383 0.449341 2.43946 -1.62625
9345 0.228434 -0.259736 0.0359296 0.304596 0.412431 0.00304883 -0.144537 0.180481 2.47503 -1.55705
6749 0.00814288 -0.0129795 -0.00316641 0.101794 0.0771836 -0.0123184 0.172738 0.398409 2.35047 -1.7724
9227 0.0301544 -0.290131 0.0164441 0.29695 0.376486 -0.216795 0.0335692 0.404816 2.55191 -1.34995
9232 0.367266 -0.0253033 0.0632999 0.351696 0.25075 0.0133704 -0.079904 0.321 2.36723 -1.46498
10077 0.481837 -0.111289 0.0575577 0.369727 0.119541 -0.221864 -0.420606 0.10987 2.41918 -1.54943
838 0.432999 0.000464525 0.0301084 0.115303 0.121674 -0.0210822 -0.106303 0.227291 2.54252 -1.38934
6533 0.518454 -0.175108 0.0642731 -0.143072 0.300865 -0.0404407 -0.105124 0.21087 2.5252 -1.41142
6030 0.326767 0.00313952 0.0411481 0.245574 -0.0833887 -0.0404782 -0.144003 0.224664 2.65207 -1.44479
10084 0.407803 -0.187974 -0.00327882 0.0395742 0.103182 0.147393 -0.0511822 0.23091 2.56898 -1.28008
430 -0.0881583 0.292989 0.00839763 0.0119765 0.0746582 0.387339 0.14973 0.289218 2.60189 -1.27319
2977 -0.00438101 0.296285 0.00025906 -0.105601 0.116677 0.430533 -0.213016 0.0234927 2.5664 -1.56131
10155 0.329166 -0.137976 -0.0262241 0.208242 -0.0361933 0.336051 -0.0729865 0.147039 2.21772 -1.7091
10215 0.593239 -0.0169424 -0.00922407 0.22379 0.205801 0.295132 -0.13943 0.110468 2.69213 -1.39869
6602 -0.10123 -0.359363 0.013724 0.295415 0.166222 0.457695 -0.187866 0.0259093 2.44853 -1.47386
2344 -0.0375206 0.126512 -0.00378473 0.098644 0.356397 0.260907 -0.463454 -0.112702 2.62139 -1.28755
281 -0.0185179 -0.151712 0.0759716 0.168143 -0.0112753 0.482221 -0.155208 0.21157 2.42388 -1.33127
2591 0.0427416 -0.0140588 0.0277173 0.183343 -0.151886 0.394186 -0.218714 0.1964 2.37955 -1.45444
3515 -0.120455 0.356399 0.0172696 -0.050951 -0.350459 0.376449 -0.315718 0.0220632 2.46013 -1.61999
3511 0.0884377 -0.00123849 0.0518157 0.159185 -0.128338 0.630805 -0.0528905 0.31303 2.06547 -1.23527
5690 -0.152496 -0.480659 0.0491285 0.0842399 -0.381737 0.618207 0.134538 0.438427 2.69995 -1.18236
8559 0.360198 -0.0641725 -0.0135853 0.262976 0.104565 0.420364 0.0197783 0.281478 2.5053 -1.49928
4833 -0.246134 -0.16442 -0.0276356 -0.310691 -0.022244 0.309244 -0.156783 0.131866 2.46479 -1.55576
5159 -0.282014 0.0282857 -0.00782389 -0.286765 -0.209824 0.0780734 -0.571371 -0.184804 2.4671 -1.6102
4451 -0.196148 0.045864 0.00970635 -0.177945 -0.0532831 0.188841 -0.487857 -0.0609825 2.58858 -1.41522
3453 0.0719888 0.186344 0.015128 -0.0539229 -0.251042 0.21674 -0.378971 0.00385018 2.4829 -1.55165
762 -0.161737 0.326073 -0.0456933 0.0449645 -0.0147839 0.524816 -0.140051 0.032782 2.48358 -1.49312
1403 -0.0221415 0.342005 6.22026e-05 0.487127 0.123579 0.603831 -0.194807 0.00141109 2.38968 -1.33592
1644 -0.0454509 0.24081 0.00242929 0.297982 0.32235 0.369236 -0.148298 0.0963402 2.60609 -1.28518
1675 -0.133051 0.0595214 0.00834227 0.308686 0.188834 0.670598 -0.224573 -0.00479464 2.23888 -1.46233
3885 -0.0616309 -0.122792 0.0405019 -0.162449 -0.0431618 0.36528 -0.295649 -0.0121096 2.57523 -1.22402
4794 -0.0150305 -0.181115 0.0403218 0.0626524 -0.192758 0.324841 -0.258006 0.164287 2.38788 -1.37574
3569 -0.116858 -0.0219289 -0.00161486 -0.112385 -0.025669 0.147191 -0.310046 0.0284171 2.42417 -1.54376
7205 0.0395434 -0.197321 0.00564803 0.144941 -0.0158772 -0.0571287 0.0268186 0.314132 2.41888 -1.5607
7098 0.197436 -0.00443801 0.0341025 0.208582 -0.109128 0.0872626 -0.0921527 0.223457 2.54645 -1.52343
9272 0.360059 -0.157443 0.0228811 0.261597 0.376618 0.0339352 -0.204893 0.152512 2.44569 -1.41203
1787 0.075632 0.0432942 0.0198422 0.0724963 0.211454 0.226716 -0.258075 0.0806798 2.60874 -1.33006
3948 0.112263 -0.0354051 -0.000757811 0.20981 -0.0504676 0.0502993 0.0349171 0.315131 2.51651 -1.4032
4398 0.00945554 -0.208296 0.00844416 0.0246455 0.142491 0.292065 0.301629 0.408364 2.43682 -1.47938
7665 0.0519328 0.0902131 0.0247652 0.215679 -0.0769175 0.271381 0.669159 0.710155 2.6866 -1.21825
4385 -0.0577693 0.0432722 0.0177434 0.0178866 -0.319411 0.29597 0.322379 0.482812 2.69599 -1.20175
6499 -0.389555 -0.234195 0.023686 0.122619 -0.0561605 0.243029 -0.157773 0.153274 2.53592 -1.22626
4087 0.255162 -0.0474614 0.0592879 0.144687 0.147388 0.0789812 0.0569107 0.320912 2.52147 -1.46072
1011 0.0119868 0.274927 -0.0349513 0.592082 0.307206 0.662629 -0.153203 0.0289528 2.55311 -1.23129
1136 -0.113695 0.371275 0.00549016 0.386003 0.275602 0.567319 -0.00970441 0.186319 2.60638 -1.42591
449 -0.00953515 0.178084 0.0107594 0.184715 0.0607399 0.446036 -0.102281 0.15218 2.52817 -1.59988
1105 -0.138864 -0.0748357 0.00666103 0.088609 0.388975 0.108592 -0.315818 0.0484875 2.63288 -1.20419
8160 -0.135344 -0.566744 0.0496172 0.428674 0.0761821 0.18883 -0.0692942 0.217741 2.1838 -1.64279
6549 0.0421349 -0.0777579 0.0227793 0.127447 0.285898 0.0635326 0.183254 0.400179 2.48971 -1.39923
5544 0.0295293 -0.0747303 0.0522781 -0.219208 0.27305 -0.138625 0.0825012 0.44745 2.4985 -1.54214
8264 -0.165893 -0.215581 -0.00737888 0.150957 0.273297 0.059356 0.276347 0.535425 2.49998 -1.41898
7561 0.124276 -0.223547 -0.0110487 0.236797 0.251732 0.0154094 0.039546 0.374838 2.56154 -1.4414
8816 0.0988549 -0.192825 -0.00674702 0.181272 0.0399451 0.0819283 -0.00521479 0.254422 2.39585 -1.5801
2333 0.0371045 0.00839648 0.0525826 0.241384 -0.116346 0.45461 0.134435 0.312257 2.23808 -1.71618
8561 0.214545 -0.183218 0.0374046 0.216671 0.120083 -0.162564 0.0609705 0.381517 2.46562 -1.70123
5952 -0.139895 -0.162467 0.01722 0.335735 -0.258848 0.293504 0.346901 0.423171 2.24959 -1.67779
7524 -0.0103618 -0.173949 0.0108648 0.259708 -0.507973 0.318223 0.146669 0.36474 2.48246 -1.48888
1843 0.0370055 -0.063378 0.0166355 0.300937 -0.477906 0.514394 -9.77935e-05 0.236829 2.48736 -1.45902
9281 0.245887 -0.219645 0.011267 0.506786 -0.139337 0.305292 -0.130376 0.232259 2.51541 -1.40589
8004 0.289628 0.0464504 0.0555956 0.630066 -0.565646 0.416038 -0.210105 0.1182 2.49454 -1.51037
5201 -0.0986372 -0.274648 0.0141768 0.147146 0.160625 0.227918 -0.208509 0.145157 2.46272 -1.50185
6848 -0.260552 -0.266143 0.0184126 -0.0181055 -0.0544302 0.124066 -0.0823636 0.229259 2.41289 -1.50863
16 -0.0916777 -0.176797 -0.0632176 0.077288 0.0878145 0.354824 0.121589 0.325872 2.65895 -1.22192
5563 -0.24726 -0.136304 0.0296079 -0.133922 0.181366 -0.00411471 -0.29021 0.0985298 2.68205 -1.21872
5710 -0.207439 -0.340918 -0.0057613 0.435907 0.136356 0.0584122 -0.413687 -0.0450424 2.33561 -1.27496
8089 0.267621 -0.18293 0.00642399 0.336161 0.236961 -0.112398 -0.00637926 0.388675 2.5689 -1.49019
5256 0.198435 0.0115827 0.0511844 0.16737 -0.0350951 -0.101206 -0.219022 0.23262 2.48522 -1.59709
1074 0.505555 -0.334076 -0.0179646 0.369507 0.0280512 0.383443 -0.00667116 0.250032 2.26074 -1.79241
2834 0.00388062 0.239008 -0.00142054 0.110614 -0.445266 0.181622 -0.280623 0.0972938 2.38898 -1.63705
6004 0.0204311 0.0239491 0.0337191 0.221518 -0.915985 0.271569 -0.243658 0.136963 2.45317 -1.62781
6069 0.149616 -0.0796426 0.0414179 0.523919 -0.529486 0.397659 -0.259621 0.111834 2.33271 -1.66735
3751 0.336886 -0.354055 -0.0547246 -0.562493 0.0624231 0.737709 -0.161964 -0.000628393 2.48507 -1.81589
7008 0.128238 -0.595988 -0.0249615 -0.192396 -0.145896 0.695247 0.0164346 0.183335 2.4045 -1.78285
2019 0.0404155 0.0563276 -0.0370999 0.115231 0.213871 0.535821 -0.0402581 0.119749 2.40425 -1.60882
1283 -0.0400558 0.210736 0.0112801 0.06544 0.179975 0.384054 0.120647 0.25876 2.43726 -1.56272
463 -0.0363737 -0.0156402 0.0192727 -0.0202256 0.245291 0.47846 0.118943 0.30031 2.62452 -1.25873
9483 0.0776389 -0.0286998 0.0450839 0.0347044 0.270608 -0.0686792 0.211271 0.490191 2.52493 -1.46486
4003 -0.0931387 0.00839213 -0.00658855 -0.241007 0.060168 0.309729 -0.408102 -0.0957912 2.40997 -1.66207
721 -0.311437 -0.0423131 0.0245012 0.522314 0.262746 0.55035 -0.320386 -0.0879992 2.31832 -1.64132
2752 0.064787 0.25283 0.0359884 0.269145 0.398332 0.620895 -0.40388 -0.0918512 2.52106 -1.50625
3258 0.0243106 0.485341 -0.0261703 0.270633 0.159623 0.564568 -0.122786 0.0426948 2.60354 -1.50736
3078 0.0113869 -0.0740551 0.00380184 0.177117 -0.0716504 0.255632 -0.310985 0.00504906 2.33095 -1.76587
2522 -0.128684 0.339712 -0.0303111 0.346069 0.494552 0.704048 -0.0502639 0.124035 2.56757 -1.60386
2934 -0.0555338 0.154765 0.0718819 0.0447842 0.167307 0.518269 -0.265825 -0.0201934 2.08854 -1.26689
3153 0.00737315 0.255202 -0.0641884 -0.0257822 0.419702 0.605007 -0.366221 -0.118809 2.50793 -1.69645
1701 0.0898347 0.25118 0.0144579 0.283878 0.160916 0.467767 -0.195825 0.111137 2.49389 -1.5015
4755 -0.1201 -0.120688 -0.0173485 -0.0587235 -0.139853 0.359713 -0.338408 0.0151364 2.36084 -1.49771
9445 0.335861 -0.00542915 0.0536301 0.249466 0.191636 -0.135306 0.00782576 0.343602 2.36969 -1.89088
9476 0.215928 0.0983622 0.0519922 0.0471753 0.0625763 -0.104749 0.206457 0.473759 2.57609 -1.38364
3106 -0.124402 -0.0739627 0.0164476 0.026482 0.200249 0.539039 -0.101247 0.069837 2.35504 -1.57712
2599 0.00307278 0.0228823 0.00397833 -0.0234415 0.257181 0.331721 -0.0302627 0.187062 2.49553 -1.43643
1363 -0.236046 -0.0289773 -0.0433844 0.492807 0.569895 0.573786 0.082118 0.13942 2.56723 -1.11369
1464 0.0261951 0.198452 0.0116338 0.45847 0.323775 0.741985 -0.118824 0.0166398 2.62225 -1.54203
1624 -0.0466403 0.350306 -0.0301614 0.541505 0.279012 0.898347 -0.0878307 0.0713314 2.1819 -1.24196
1544 -0.123544 0.377022 -0.00585117 0.357994 0.49909 0.614369 0.143962 0.235646 2.56655 -1.378
2861 0.0320784 0.336767 0.0227862 0.29763 0.238345 0.5951 -0.109308 0.0839724 2.58985 -1.52227
1117 -0.028299 0.076156 -0.0535269 -0.0458646 0.279166 0.487098 -0.0979426 0.039047 2.54475 -1.32643
6661 -0.0250212 -0.174617 0.039744 0.0448907 -0.333014 0.411778 0.0926894 0.316536 2.37851 -1.60994
7156 0.288822 -0.336971 -0.0263231 0.297747 -0.0862828 0.339502 -0.0901667 0.248898 2.45276 -1.58222
5920 0.370854 0.0129826 0.0293826 0.123743 0.325178 -0.135723 0.073332 0.453543 2.61174 -1.49004
6062 -0.213802 -0.393677 -0.0357924 0.223793 0.164995 0.318792 -0.207491 0.070632 2.37373 -1.58918
5152 -0.141048 0.118407 0.00682411 -0.203495 -0.0794097 0.173655 -0.0672101 0.141881 2.51147 -1.44799
3073 0.0795143 -0.00480261 0.0193124 -0.0444141 0.173632 0.405022 -0.112915 0.0988126 2.53856 -1.24005
908 0.0464265 -0.0527429 -0.0126675 0.264343 0.327555 0.380283 -0.0819571 0.118649 2.37198 -1.50989
5572 -0.479462 -0.196833 0.00373767 -0.0446375 -0.0563997 0.256111 -0.203711 0.121842 2.61676 -1.2507
5189 -0.409793 -0.0988157 -0.026147 -0.269511 0.02362 0.136008 -0.276492 0.0655418 2.33473 -1.71766
65 0.0212856 -0.0233549 0.00223191 0.00761847 0.433424 0.405324 -0.0285898 0.203178 2.60636 -1.3439
1290 0.098615 -0.0121398 0.00145795 -0.288927 0.124723 0.352 -0.366075 -0.069047 2.76969 -1.19066
3975 -0.0889574 -0.0196034 0.0500637 -0.448367 0.101323 0.289552 -0.385226 -0.029491 2.44003 -1.67264
867 -0.0789014 0.331585 0.0128295 0.487347 0.250965 0.651645 -0.00766978 0.116181 2.59324 -1.48499
1526 -0.0451321 0.401618 -0.0638322 0.4821 0.456568 0.927738 -0.0778139 -0.0937436 2.37425 -1.2523
2412 -0.0334761 0.145119 -0.0124624 -0.380909 -0.0351904 0.420058 -0.178671 0.0732327 2.62432 -1.34234
1347 -0.0426819 0.206263 0.0228416 -0.127569 -0.207397 0.25134 -0.224072 0.106407 2.44945 -1.55225
5038 -0.298546 -0.0184938 0.0459156 -0.214343 0.466989 0.0270632 0.0980067 0.448788 2.44141 -1.61227
4401 0.062009 0.0521976 0.0598358 -0.368447 0.135925 0.262517 -0.0233679 0.320753 2.59472 -1.39309
4217 -0.320142 -0.126535 0.0524557 -0.0115442 0.00835293 0.267322 -0.0485518 0.170763 2.22309 -1.58059
219 0.0551806 0.221569 -0.00730188 0.19927 -0.18184 0.287799 -0.104711 0.166957 2.49147 -1.38493
1950 -0.0306571 0.274629 0.00428681 -0.0861264 0.19327 0.424877 -0.284101 0.0220645 2.46131 -1.57086
2085 -0.102689 0.107957 0.0142149 -0.0187947 -0.156907 0.145592 -0.199625 0.114724 2.37229 -1.64893
2761 0.114244 0.140563 0.0585594 -0.169222 0.216021 0.534014 -0.276141 -0.0309507 2.56872 -1.37888
2846 -0.102342 0.166572 0.0360748 0.462754 0.340965 0.851096 -0.326803 -0.0239536 2.2769 -1.53828
809 -0.115784 -0.0530944 -0.0322881 0.237145 -0.0250184 0.542756 -0.15332 0.0291685 2.4356 -1.48979
6200 0.0249514 -0.268962 0.0333663 0.238167 -0.244785 0.379994 -0.0772744 0.277147 2.53657 -1.3514
6071 0.22609 -0.0898312 0.0110278 0.244724 0.0780431 0.0437803 -0.0585433 0.254848 2.52371 -1.36849
6807 0.0258807 -0.221459 0.038431 0.520437 0.33168 -0.342313 -0.573282 0.0186599 2.71595 -1.25469
6405 -0.205343 -0.267775 0.0900297 0.452817 0.241444 -0.31413 -0.705998 -0.064361 2.62326 -1.34162
6563 -0.44537 -0.387751 0.0280459 0.426146 0.263861 -0.00172805 -0.561125 -0.063013 2.6591 -1.18794
1042 -0.0461616 -0.307029 0.024147 -0.0829195 -0.0641734 0.261045 -0.170245 0.173692 2.60793 -1.30587
5793 0.11528 -0.343461 0.00502317 -0.239579 -0.213038 0.38861 -0.0814822 0.145005 2.63303 -1.21913
2017 -0.116373 -0.0221795 0.0586901 -0.0926477 0.0156262 0.573012 -0.109211 0.0805661 2.41947 -1.21525
3085 0.0543252 0.118246 -0.046556 -0.103368 -0.0415833 0.489869 -0.0329386 0.157365 2.57578 -1.32042
4216 -0.086082 -0.177131 -0.058094 -0.332534 -0.0280116 0.477822 -0.0922071 0.0729837 2.58906 -1.32251
4404 0.0403853 0.328901 0.0113432 -0.209919 0.0728974 0.250665 -0.12096 0.103533 2.54698 -1.47897
377 -0.119867 0.265259 -0.0267946 0.0472591 0.330929 0.255116 0.355076 0.527163 2.72231 -1.22062
1863 0.358108 0.146853 -0.0342165 0.159536 0.0187117 0.304002 0.277681 0.47033 2.30598 -1.57157
404 -0.066715 0.148588 -0.000716863 0.196779 -0.166254 0.479018 -0.0383174 0.19342 2.17302 -2.13085
6240 -0.343969 -0.297364 0.00197151 0.28111 -0.113456 0.671957 -0.0106028 0.159014 2.03994 -1.75452
7922 -0.208798 0.0119552 0.0094207 0.0914401 -0.18353 0.256339 -0.101311 0.16313 2.52322 -1.47422
4219 -0.17545 -0.00655567 0.0211533 -0.125269 0.308107 -0.0232987 0.0328324 0.295697 2.37167 -1.72791
586 -0.101683 -0.0431025 0.022094 -0.0290599 0.280353 0.431097 0.13861 0.385845 2.46465 -1.57039
4020 -0.0968485 0.158368 0.0282519 -0.385746 0.236179 0.191381 -0.0375266 0.228916 2.54964 -1.56831
5674 -0.0392306 0.136263 0.0365625 0.0948901 -0.357977 0.386267 0.637801 0.736111 2.70148 -1.27288
8873 0.211943 -0.0636192 0.0110376 0.344188 -0.00455538 0.0690581 0.0311839 0.339899 2.13927 -2.01238
8736 0.19077 0.0448409 0.0454174 0.251948 -0.146348 0.0107227 -0.0703832 0.314713 2.32642 -1.94155
8968 0.242651 -0.11276 0.000864878 0.189968 -0.161975 0.246292 -0.131084 0.231191 2.38418 -1.46496
6435 -0.0389463 -0.126409 0.0433295 0.143907 -0.280728 0.205887 0.172193 0.427601 2.54743 -1.44102
5275 -0.275047 -0.0273934 0.062817 0.00790774 -0.70686 0.5748 0.0731086 0.348032 2.57159 -1.42794
2678 -0.0646991 0.19031 0.0257782 -0.222303 0.000368908 0.240658 -0.435299 -0.0593102 2.48348 -1.6423
384 0.0409125 0.11022 0.00519068 0.0345072 0.100399 0.273438 -0.342823 0.000269844 2.42015 -1.59269
673 -0.110858 0.108593 -0.00696249 0.52467 0.44282 0.476436 -0.307438 -0.0472201 2.56407 -1.32846
2942 -0.0641951 0.24566 0.0471011 0.323203 0.386791 0.452471 -0.479897 -0.169705 2.5434 -1.48175
2651 0.166258 0.415185 0.0266129 0.178637 0.0616583 0.380563 -0.277256 0.0159579 2.50073 -1.72737
2673 -0.131167 0.262105 -0.0185847 0.326968 0.238221 0.760919 -0.171966 -0.023114 2.30502 -1.613
4431 -0.119702 -0.13317 0.0140846 -0.0516486 0.0380469 -0.0109325 -0.43811 -0.00898983 2.48815 -1.43913
5736 -0.1517 -0.367356 0.0580282 0.112627 0.240132 0.056567 -0.42581 0.0336726 2.51188 -1.31306
3710 0.00778756 0.231262 0.0264962 0.0612566 -0.0282736 0.471992 -0.186136 0.0401554 2.21949 -1.40992
887 -0.010717 0.142279 0.00579927 0.0134031 -0.132344 0.31909 -0.224203 0.0452148 2.50195 -1.48681
5014 0.216285 0.446078 0.00109131 -0.10326 -0.804345 0.114 -0.443197 -0.00203069 2.55128 -1.54495
2443 0.0268885 0.248814 -0.0244143 -0.0131529 -0.100125 0.226915 -0.324941 -0.014372 2.56502 -1.3604
2634 0.0241972 0.201259 0.00889608 -0.037802 -0.427919 0.536906 -0.356851 -0.0113841 2.36976 -1.70538
1933 0.0290567 0.108074 -0.0232083 0.366519 -0.253673 0.462716 -0.0617633 0.121704 2.43748 -1.48201
6930 -0.338894 -0.432562 0.00674021 0.0757656 0.193755 0.335811 0.0869083 0.244623 2.45036 -1.32498
4922 -0.163453 -0.103451 0.0145372 0.1537 0.167514 0.183328 0.224886 0.377396 2.51576 -1.32579
8249 -0.155825 -0.31696 0.0167323 0.331041 0.0940318 0.14359 0.0445041 0.264244 2.29037 -1.47924
8628 0.168033 -0.177543 0.0418358 0.309404 0.0681996 0.15569 0.0231877 0.30184 2.26039 -1.84333
839 0.100753 -0.249066 -0.0152398 0.450442 -0.341725 0.398407 -0.110804 0.185249 2.74443 -0.980398
8102 0.21283 -0.132205 0.0460596 0.206201 -0.236565 0.361302 -0.0572002 0.162145 2.05452 -0.600126
5789 -0.353915 -0.301156 0.0214056 -0.0181155 -0.199753 0.181565 -0.245218 0.143918 2.54291 -1.44948
6324 -0.270069 -0.311478 0.0248416 -0.121819 -0.0338991 0.0793364 -0.176027 0.189145 2.4267 -1.62411
8671 0.104505 -0.19874 0.0018945 0.420954 0.0267816 0.193374 -0.143135 0.224975 2.16492 -1.86742
9006 0.00488741 -0.143158 0.0373012 0.575707 -0.00542027 0.196678 0.0496687 0.278934 2.45471 -1.42457
8924 0.06331 -0.11028 0.0242935 0.0713049 0.140818 0.118174 0.106004 0.337068 2.36493 -1.66441
2266 -0.119972 -0.140061 0.00364395 0.560186 0.305474 0.70143 -0.236626 -0.0842018 2.32315 -1.64911
9305 0.599789 -0.13828 0.0254734 0.370101 0.0267009 0.213592 -0.0321188 0.338159 2.26793 -1.82346
5241 0.225232 0.0356542 0.0380611 0.215539 -0.145809 0.0342149 -0.095679 0.242402 2.38267 -1.88248
6614 -0.00450877 -0.158325 0.0352547 0.131229 -0.207459 0.0569742 -0.0146631 0.33905 2.39573 -1.61734
43 -0.143266 0.0461382 -0.0261028 -0.3117 0.13621 0.291302 0.0319508 0.23348 2.57748 -1.393
531 -0.145331 -0.0876964 -0.0285271 -0.314195 0.182126 0.35011 -0.136012 0.199817 2.42554 -1.62436
7060 0.090959 -0.151218 0.0102378 0.195583 0.0671831 -0.0837907 0.214519 0.511443 2.43619 -1.6862
932 0.160808 -0.141312 -0.00480856 0.10626 0.32148 0.0884536 0.3154 0.466609 2.39994 -1.57029
7820 0.00743984 -0.163464 0.064694 0.409328 -0.0133838 0.265746 -0.00487327 0.292209 2.2491 -1.69501
1681 0.0185375 0.32181 -0.0344702 0.318979 0.15944 0.498482 -0.0993849 0.0579864 2.50956 -1.55236
1249 0.00834541 0.0861514 -0.0155685 0.36635 0.0204506 0.442325 -0.101318 0.162692 2.47323 -1.44661
8976 0.27162 0.000286533 0.0131068 0.169676 0.0967484 -0.0642888 0.144378 0.479708 2.4879 -1.60223
8812 0.312255 -0.104219 0.0524375 0.127693 0.0913161 -0.170204 0.14002 0.438915 2.4033 -1.65854
1811 -0.0362831 0.149584 -0.000190133 0.222244 0.13654 0.454436 -0.235276 0.00249933 2.62944 -1.27088
10269 0.309142 0.0232126 0.0165877 0.238401 -0.178595 -0.0137303 -0.194419 0.155701 2.41513 -1.75946
9639 0.474454 -0.169344 0.0442303 0.315193 0.243342 -0.0369516 -0.223333 0.211204 2.49612 -1.36703
5322 -0.305201 -0.0157944 0.00894148 -0.220212 -0.100822 0.0700354 -0.442851 -0.0350139 2.6353 -1.39118
5019 -0.234859 -0.0887326 0.0886069 -0.103273 -0.133144 0.385421 -0.177783 0.166846 2.31584 -1.72051
7402 -0.1165 -0.258443 0.0180926 0.164799 -0.177918 0.159164 0.203287 0.447383 2.37942 -1.65513
9694 0.09246 -0.081383 -0.0169775 0.203312 -0.134511 0.329834 0.380291 0.545106 2.69426 -1.24578
4231 -0.0136757 -0.0841832 0.0364889 -0.0761803 0.1901 0.0677975 -0.0488485 0.250437 2.56165 -1.27823
127 0.0318919 -0.144834 0.0159286 0.0493415 -0.0377169 0.281532 0.162207 0.412534 2.79096 -0.934344
8377 0.0149609 0.0377836 -0.0065712 0.102445 0.0617478 0.0726946 0.385959 0.61328 2.61594 -1.32662
7490 0.293289 -0.201705 -0.0234203 0.0858607 0.190295 0.0701109 0.284132 0.490149 2.6049 -1.3432
3820 0.0930725 -0.0357465 0.0674952 0.341773 0.261248 -0.0790022 -0.0715142 0.292567 2.50159 -1.50594
5343 -0.256082 -0.133604 0.0277459 0.13178 -0.0476574 0.323827 0.0279935 0.295504 2.34116 -1.71917
7331 0.112127 -0.239047 0.0548992 0.532898 0.133313 0.0524811 -0.244353 0.188961 2.40413 -1.32093
6371 -0.152867 -0.155981 -0.00518672 0.300859 -0.265492 0.175722 -0.29631 0.0550934 2.46542 -1.47406
3256 -0.15612 -0.096505 -0.00932397 0.352 -0.297256 0.613607 -0.257357 0.0967382 2.32962 -1.42332
835 0.0191143 -0.0153091 0.00721525 0.322364 -0.332368 0.554393 -0.103894 0.215291 2.5847 -1.3195
2118 0.0572629 0.108999 0.0097714 0.06769 0.150619 0.397367 -0.0831226 0.134052 2.44844 -1.50451
5629 0.0283643 -0.380868 0.00261096 0.165246 0.0494008 0.117403 0.04855 0.333312 2.56867 -1.36242
2042 0.0813116 0.205266 -0.01138 0.497396 0.379747 0.788552 -0.21782 0.0242967 2.39537 -1.26829
1774 -0.128392 0.22366 -0.0027497 0.242531 0.322886 0.370543 -0.182213 0.103719 2.52138 -1.44425
2512 0.168209 0.153894 0.0192715 0.150842 0.173823 0.234908 -0.622037 -0.207399 2.5903 -1.35746
4415 0.0502139 0.208051 0.0211851 -0.21462 0.092345 0.253468 -0.302528 -0.000607777 2.46997 -1.54545
9401 0.358066 -0.176196 0.118501 0.206296 0.0726286 0.148487 -0.241369 0.187036 2.3492 -1.53008
5696 0.317179 -0.114073 0.0376137 0.474283 0.343361 -0.11187 -0.13371 0.162381 2.53748 -1.41486
2172 0.0809417 0.427274 0.110579 0.159894 0.250787 0.550578 -0.17472 0.137514 2.27664 -1.60962
1578 -0.0660816 0.0543845 0.0419311 0.423759 0.305214 0.398045 -0.347404 0.0154783 2.42298 -1.5562
8915 0.532705 0.0742351 0.0174993 0.100048 -0.086407 0.155748 -0.0590011 0.262241 2.5267 -1.35223
4010 0.333299 -0.113695 0.00304211 -0.305906 0.125257 0.267765 -0.0308101 0.225733 2.53395 -1.53946
9027 0.522043 -0.130994 -0.00168806 0.172551 0.0667061 0.159857 -0.25321 0.138582 2.72985 -1.175
9517 0.435484 -0.168669 0.0167461 0.321983 0.0676014 -0.106691 -0.331166 0.0629404 2.80346 -1.16341
1936 -0.0884888 -0.113091 0.00084407 0.0509484 0.147318 0.228798 0.00769049 0.272486 2.50235 -1.42106
6729 -0.226863 -0.306985 0.0324603 0.184214 -0.181645 0.489252 -0.018619 0.234385 2.42569 -1.35677
6568 -0.291627 -0.0814771 0.0076972 0.0505705 -0.13868 0.159024 0.30746 0.538761 2.60009 -1.18407
6816 -0.0984974 -0.23751 0.0358207 0.0681686 -0.0424275 0.181548 0.182765 0.433952 2.51 -1.45424
7726 0.113237 -0.433023 0.0128871 0.46616 0.0628786 0.176829 -0.186315 0.0910055 2.60158 -1.22843
5667 0.0160625 -0.409563 -0.00310271 0.408134 0.172885 -0.0622377 -0.252522 0.166576 2.72045 -1.15353
3653 0.0905277 -0.0498023 -0.0147033 -0.00332259 0.0238056 0.374379 -0.292216 -0.0518007 2.39767 -1.57881
4573 0.160936 -0.215616 0.0223888 -0.185942 -0.109172 0.27135 -0.239689 0.0863382 2.6997 -1.15848
7894 -0.233421 -0.0454756 0.059395 0.195706 -0.079095 0.129414 0.239717 0.478502 2.38819 -1.40972
8530 0.200927 -0.0169706 0.00513486 0.304422 0.0714419 0.0281317 0.129617 0.410509 2.44726 -1.60725
3671 -0.18923 0.00705644 0.00975072 0.0746895 -0.30086 0.193217 -0.0387775 0.210479 2.42249 -1.6045
549 -0.0290478 0.235933 0.00320583 -0.0258222 -0.338917 0.37187 0.132134 0.315449 2.40103 -1.57052
1856 0.0481541 0.422285 0.0336125 0.232834 -0.137404 0.632979 -0.0392161 0.159779 2.53744 -1.311
1832 -0.0836274 0.502995 -0.0215048 0.57466 0.0349761 0.749024 0.335773 0.372095 2.76049 -1.39397
2108 -0.0634019 0.271576 -0.00379409 0.252429 -0.0440964 0.930847 0.632001 0.591183 2.36775 -1.17012
5738 -0.0786853 0.175814 -0.010491 0.0690869 -0.329146 0.371934 0.642308 0.687016 2.72658 -1.2414
8383 0.0482574 -0.000991105 0.0149594 0.084025 -0.0957969 0.345595 0.234192 0.415449 2.42529 -1.2692
9091 0.545763 0.102147 0.0443878 0.256635 0.0472545 0.0202758 0.0598044 0.413174 2.43982 -1.82802
5488 -0.0911002 -0.117454 0.0341275 -0.175042 0.142698 0.225673 -0.486435 -0.0989434 2.61697 -1.39378
4519 -0.0697782 -0.0884151 0.0414795 -0.0317482 -0.183149 0.118892 -0.0388117 0.303042 2.46207 -1.54291
4482 0.138842 0.0275727 0.0228583 0.0471288 0.123016 0.255266 0.0538163 0.234554 2.40704 -1.48704
7714 0.0813423 -0.0945211 0.00194572 0.164104 0.0228487 0.165905 0.084736 0.339104 2.40408 -1.55868
6641 -0.248623 -0.17405 -0.00105764 0.0384845 0.123709 0.0506438 0.224001 0.446189 2.34726 -1.74086
6267 -0.208686 -0.194509 -0.00381363 0.469969 -0.043478 0.421515 0.525396 0.585023 2.44574 -1.40985
7908 -0.00951991 -0.0789902 0.0208525 0.246536 0.0389476 -0.0637724 0.208409 0.503563 2.45657 -1.52582
3603 0.05046 0.0247314 0.0434892 -0.220784 0.194232 0.0766409 0.105305 0.385789 2.3936 -1.6443
9068 0.251719 -0.0869274 0.0521001 0.106196 0.28763 -0.033925 0.315889 0.534366 2.40443 -1.73198
9050 0.17568 -0.057806 0.028323 0.222468 0.058174 -0.0870387 0.060664 0.381965 2.36627 -1.79708
3932 -0.099213 -0.0949884 0.0246703 -0.038625 0.0118502 0.0549745 0.0253637 0.370952 2.44971 -1.57826
695 0.119451 0.0792592 -0.026901 -0.0412498 0.260023 0.718184 -0.211145 -0.0984456 2.51743 -1.48188
10101 0.624812 -0.347376 0.0440446 0.426093 -0.111404 0.258728 -0.0987282 0.208941 2.39495 -1.31109
6686 0.1649 -0.267638 0.00686419 0.17034 -0.146234 0.191533 -0.0728554 0.240883 2.72322 -1.17088
9558 0.572866 -0.25928 0.0422514 0.36738 7.7635e-05 0.149263 -0.202598 0.233925 2.5386 -1.33553
5622 0.148 -0.192266 0.0226665 -0.0541149 -0.0495389 0.372263 0.231163 0.401457 2.64282 -1.23374
7557 0.041273 -0.0675347 0.0129516 0.179206 -0.0402721 0.0477302 0.229702 0.496268 2.53252 -1.52326
6066 -0.10369 -0.00850699 -0.0141308 0.261875 -0.117418 0.273236 -0.0335619 0.185769 2.53892 -1.3772
8401 0.160329 -0.257984 0.0211135 0.25496 0.176576 0.053549 0.0116448 0.396651 2.29773 -1.80791
5707 -0.261676 -0.025632 0.0304206 -0.0388566 -0.445199 0.202042 -0.22682 0.108503 2.45084 -1.47977
6714 -0.000506134 -0.173092 0.0352143 0.348129 -0.439689 0.198658 -0.237347 0.142064 2.26116 -1.84205
5284 -0.262866 -0.141665 0.0220018 -0.300256 0.281633 -0.00556348 0.0302138 0.363287 2.58137 -1.35332
9151 0.400443 -0.236898 0.0479841 0.229677 0.0545516 0.0167455 -0.112887 0.239014 2.52486 -1.51435
4515 0.0681123 -0.127598 0.0100104 0.364582 -0.28932 -0.0906631 -0.191399 0.250332 2.51055 -1.44826
9546 0.319651 -0.167562 -0.00370689 0.530088 0.0300322 -0.146134 -0.34845 0.0767088 2.37602 -1.83507
5900 0.303564 -0.0457806 0.00373163 0.198643 0.224702 -0.0189974 0.142493 0.436558 2.41882 -1.41924
4648 0.250413 0.00148622 0.0329244 0.295203 -0.0516999 0.168031 0.00676434 0.292186 2.49468 -1.54756
8425 0.232025 0.00370479 0.0256268 0.268484 -0.501559 -0.00497732 -0.143935 0.231494 2.4795 -1.62453
9089 0.312765 -0.274716 0.0281891 0.528171 -0.0820019 0.254624 -0.24898 0.227587 2.408 -1.71834
7267 -0.0995097 -0.457334 0.0257531 0.495925 -0.0291418 0.300119 -0.0367049 0.290352 2.1636 -2.08668
7357 -0.0433693 -0.241987 0.0349806 0.451463 -0.00866092 0.170938 0.0317266 0.370733 2.22714 -2.04386
922 -0.221861 0.0516031 -0.0247343 0.0742947 0.608777 0.255316 0.244995 0.388079 2.55005 -1.43147
671 -0.155104 0.00447634 0.0547587 -0.0395159 0.0208612 0.121079 -0.14768 0.250024 2.56274 -1.31598
1032 0.0490642 -0.0166085 0.0358834 0.10934 -0.231927 0.662077 -0.169131 0.0885702 2.80533 -0.820782
4194 -0.0124328 0.0692924 0.039229 0.250564 -0.576425 0.623708 -0.126575 0.0929533 2.92992 -0.88388
952 0.0837955 0.396406 0.0410252 0.412879 -0.0480586 0.82072 -0.147994 0.0600229 2.38066 -1.44187
770 0.000532282 0.107307 0.00350355 0.449005 -0.0437777 0.73688 -0.104722 0.0877783 2.40108 -1.46043
1824 0.0157152 0.377407 0.0128607 0.405684 0.320401 0.813158 -0.079177 0.0763505 2.65207 -1.62019
726 0.175846 -0.0478864 0.0204085 0.125061 0.133825 0.710104 0.0356686 0.206004 2.37165 -1.49698
4787 -0.0458578 -0.0632282 0.0225412 0.237873 0.0169971 0.280522 -0.37067 0.0233674 2.46825 -1.55575
4446 -0.353452 -0.0943016 0.0349225 -0.104832 0.185097 0.00795039 -0.3467 0.0334194 2.63161 -1.25351
3524 0.0678854 -0.0699456 -0.0473327 -0.369628 0.250858 0.486712 -0.373321 -0.0523914 2.62471 -1.31458
7162 -0.230838 -0.56392 0.0281612 0.271512 -0.0411449 0.580924 -0.0742164 0.200493 2.2824 -1.52168
