10312 10
7568 0.0690678 0.258036 -0.383868 -0.0323313 -0.570696 -0.108984 0.246223 -0.814576 -2.75127 -3.07198
9898 -0.0608027 0.130462 -0.518529 0.139913 -0.305821 -0.0497197 0.346639 -0.772296 -2.95019 -3.22477
8486 0.0809462 0.213074 -0.560339 0.233888 -0.552793 0.135715 0.0804612 -0.830864 -2.7936 -3.50826
4219 0.189923 -0.0199199 -0.514146 0.267579 -0.744796 0.144678 -0.405187 -0.564147 -2.9423 -3.27419
9844 -0.0433622 0.220866 -0.496795 -0.0031769 -0.19258 0.0423749 -0.103651 -0.65936 -3.12966 -3.56141
8424 0.237162 0.569116 -0.457954 -0.306879 -0.372344 -0.0354523 -0.405874 -0.618992 -2.6934 -2.87188
6950 -0.128731 0.322653 -0.250406 -0.130814 -0.301358 -0.118093 -0.183822 -0.65944 -3.1054 -3.46664
9345 -0.20237 0.269441 -0.426616 -0.0506193 -0.430106 -0.0632566 -0.283632 -0.523017 -2.94514 -3.33034
4780 0.337124 0.225824 -0.426864 -0.158235 -0.131199 0.0826467 -0.399443 -0.647284 -2.41189 -3.18376
9517 0.0839879 0.230441 -0.418417 -0.172681 0.197757 0.0615903 0.034981 -0.718975 -3.14717 -3.59606
4669 0.122813 -0.091089 -0.230391 -0.158258 -0.389055 0.0667772 -0.38338 -0.581372 -3.08349 -3.42279
4751 0.521419 0.236911 -0.423321 0.011474 -0.771639 -0.0165743 -0.31967 -0.668424 -2.79682 -2.8287
446 0.0173091 0.185966 -0.38315 -0.153595 -0.25472 -0.21973 -0.266166 -0.591179 -2.90635 -3.7263
1883 0.614215 0.319639 -0.331379 -0.174023 -0.334734 -0.542889 -0.292932 -0.647424 -2.28646 -3.16411
4997 0.212628 -0.069605 -0.255061 -0.151493 -0.335931 -0.227498 -0.294984 -0.636503 -3.12233 -3.57388
2033 0.283422 0.0945661 -0.262129 -0.168983 -0.212871 -0.178938 -0.19471 -0.619394 -2.88206 -3.35797
2035 0.256766 -0.112458 -0.312078 -0.0142567 -0.411972 -0.13426 -0.273908 -0.573998 -2.74407 -3.42438
1031 0.657069 -0.0847164 -0.507279 -0.385584 -0.112795 -0.0703319 -0.39315 -0.454292 -2.64433 -3.23111
5705 0.0270293 -0.120106 -0.182405 -0.171549 -0.468882 0.0225137 -0.405086 -0.53525 -3.0372 -3.46861
5629 0.21297 0.174495 -0.342854 -0.153432 -0.574987 0.265577 -0.202461 -0.698577 -2.83266 -3.26523
5377 0.136923 -0.178669 -0.205216 -0.158794 -0.493332 0.151204 -0.396224 -0.5932 -3.00344 -3.38628
3963 0.328531 0.110565 -0.295908 -0.12942 -0.227022 0.120317 -0.22054 -0.702387 -3.04886 -3.15849
1887 0.145751 -0.0517047 -0.233412 -0.0514473 -0.342387 -0.366663 -0.332343 -0.66199 -3.04566 -3.60044
7717 0.202633 0.0134125 -0.331137 -0.221767 -0.100984 0.0594183 0.114225 -0.725963 -2.68643 -2.94132
4374 0.00967392 0.244336 -0.376792 -0.158381 -0.335772 -0.0366876 -0.171425 -0.667956 -3.17304 -3.55654
6054 0.163037 -0.0778686 -0.336378 -0.102121 -0.52319 0.349598 -0.429225 -0.52439 -2.80631 -3.17084
585 0.203617 -0.224953 -0.233414 -0.0200981 -0.38422 -0.166457 -0.274643 -0.627702 -2.86714 -3.39966
6468 0.0648541 0.21749 -0.348473 0.120439 -0.778907 0.17544 -0.255741 -0.676201 -2.83249 -3.27247
8765 0.028338 0.299797 -0.419231 0.179951 -0.677643 0.151907 -0.0596035 -0.721384 -2.78067 -3.0982
8969 -0.00596783 0.157707 -0.298998 -0.20339 -0.203875 -0.060903 -0.0116754 -0.738173 -2.66592 -3.44714
1273 0.117795 0.0629341 -0.237971 -0.0635808 -0.366277 -0.19267 -0.234105 -0.634945 -2.81309 -3.54065
2406 0.609583 0.265952 -0.324445 -0.479002 -0.19744 -0.0194462 -0.271767 -0.643084 -2.81138 -3.143
6332 0.128039 -0.175926 -0.0900401 -0.299227 -0.330615 0.148088 -0.496085 -0.514292 -2.97746 -3.42554
5675 0.479848 -0.0890325 -0.10712 -0.390513 -0.437399 0.186746 -0.345139 -0.643249 -2.38255 -2.65383
6764 0.224364 0.0228903 -0.275088 -0.373679 -0.239496 0.209388 -0.282826 -0.588359 -2.88245 -3.48918
6416 0.24693 0.188683 -0.465481 -0.272824 -0.575716 0.281902 -0.0261871 -0.705862 -2.61332 -3.21456
6141 0.186874 -0.00801387 -0.250478 -0.432795 -0.651079 0.0840609 -0.439349 -0.550218 -3.01107 -3.62693
343 0.288644 -0.0335035 -0.250402 -0.265322 -0.351498 -0.230852 -0.12599 -0.618089 -2.77606 -3.44874
2786 0.128203 -0.146831 -0.20328 -0.167613 -0.282248 -0.126849 -0.377525 -0.579984 -3.15127 -3.43814
1413 0.150024 0.00702971 -0.219824 -0.0602081 -0.353652 -0.0757391 -0.197915 -0.696541 -3.09858 -3.29345
9919 0.104159 0.147612 -0.316613 -0.300146 -0.460036 -0.0884107 -0.248144 -0.634377 -2.97874 -3.64801
5553 0.434854 0.0752548 -0.334785 -0.37149 -0.280167 0.268727 -0.375403 -0.572754 -2.82691 -3.05808
3262 0.226251 -0.0669409 -0.242012 -0.134106 -0.320572 -0.208923 -0.382746 -0.595752 -3.11456 -3.53976
4561 0.133845 -0.325402 -0.281965 0.0635013 -0.556421 -0.0092224 -0.144577 -0.619564 -3.08259 -3.33226
3872 0.545602 0.141629 -0.490001 0.146453 -0.705115 0.0547001 -0.521157 -0.617041 -2.87656 -2.69175
2747 0.551751 0.288187 -0.398429 -0.279911 -0.367308 0.0495604 -0.433989 -0.623531 -2.6788 -3.23461
1009 0.0921862 0.20365 -0.182989 -0.350257 -0.467684 0.0657911 -0.463326 -0.612589 -2.9447 -3.59772
7326 0.431677 0.319088 -0.346825 -0.33341 -0.505531 0.155095 -0.486262 -0.570479 -2.36327 -2.97626
8157 0.0885729 0.197576 -0.323632 -0.274339 -0.508468 0.0389847 -0.419081 -0.612076 -3.05051 -3.59783
5516 0.496875 0.339384 -0.225918 -0.257908 -0.796364 0.208097 -0.660327 -0.629775 -2.66086 -2.82884
2150 0.203159 -0.163739 -0.224816 -0.136076 -0.34759 -0.0849024 -0.214282 -0.639971 -3.13389 -3.26637
5625 0.100775 0.0545016 -0.267861 -0.183418 -0.368166 0.108981 -0.376005 -0.560085 -2.94291 -3.50448
1714 0.134323 0.0145416 -0.231045 -0.0271871 -0.30374 -0.375329 -0.234389 -0.68883 -2.75778 -3.45868
195 0.586038 -0.0967638 -0.424974 -0.522586 0.0681104 -0.321052 -0.108151 -0.596268 -2.91641 -3.48129
2421 0.288329 0.109949 -0.315682 -0.0744182 -0.194437 -0.616853 -0.255101 -0.587782 -2.82986 -3.56059
387 0.428247 0.189728 -0.18147 0.0558475 -0.352808 -0.560131 -0.330814 -0.615193 -2.43069 -3.26673
1437 0.452661 0.306956 -0.34797 -0.143304 -0.350463 -0.55622 -0.310069 -0.686236 -2.42907 -3.21352
986 0.255486 0.154577 -0.264136 -0.127809 -0.0462048 -0.13202 -0.327185 -0.60239 -2.6607 -3.49897
1889 0.213984 0.0646689 -0.342043 -0.00461478 -0.367663 -0.170859 -0.406739 -0.556473 -2.70205 -3.53376
1811 0.194992 -0.0367061 -0.197974 -0.2968 -0.270321 -0.398459 -0.170928 -0.647553 -2.96496 -3.46981
2681 0.543611 0.322703 -0.411489 -0.227909 -0.499661 0.134025 -0.278977 -0.539185 -2.39789 -2.59653
4501 0.194235 -0.184152 -0.295163 0.0158777 -0.24108 -0.105314 -0.334587 -0.598291 -3.11103 -3.25464
5086 0.0724446 0.20301 -0.12538 -0.353262 -0.613155 -0.125013 -0.626123 -0.503517 -3.38035 -2.92631
645 0.213883 0.107154 -0.246966 -0.152841 -0.42086 -0.348673 -0.258471 -0.663337 -3.02982 -3.68588
5092 0.161881 -0.276717 -0.267573 -0.100802 -0.498011 0.0231518 -0.157074 -0.65081 -2.93015 -3.34631
6074 0.0567942 -0.115131 -0.242221 -0.267997 -0.492211 0.0271478 -0.51046 -0.44005 -2.97999 -3.48196
1986 0.214394 -0.112128 -0.279105 -0.088188 -0.276466 -0.141034 -0.309593 -0.627342 -2.88717 -3.45597
9884 0.0438486 0.170679 -0.584891 0.100197 -0.293372 -0.0257926 0.063268 -0.698481 -2.99258 -3.15296
5770 0.423991 0.126768 -0.378833 -0.28861 -0.366514 0.322418 -0.50889 -0.576991 -2.42761 -3.35023
1206 0.25064 -0.0228137 -0.258172 -0.193835 -0.242191 -0.027038 -0.306304 -0.624798 -2.80298 -3.4964
5911 0.286736 -0.053398 -0.258891 -0.474098 -0.371541 0.349455 -0.231111 -0.597237 -2.76458 -3.23143
6536 0.349768 -0.03232 -0.277476 -0.532289 -0.55784 0.275594 -0.0407553 -0.643601 -2.66035 -3.26265
4125 0.371084 0.174818 -0.278001 -0.409185 -0.447589 0.241832 -0.285902 -0.581143 -2.83086 -3.19963
5539 0.089412 -0.211719 -0.186796 -0.281349 -0.34168 0.0958519 -0.422138 -0.530135 -3.18062 -3.29193
1248 0.269694 0.0422782 -0.396801 -0.104865 -0.916345 -0.252054 0.0639564 -0.756155 -2.49599 -3.471
1978 0.175126 -0.165766 -0.354769 -0.0646922 -0.638285 0.201764 0.05164 -0.753114 -2.75204 -3.53986
570 -0.116458 -0.0132352 -0.291412 -0.0826757 -1.02796 -0.0835618 -0.097668 -0.651385 -2.9006 -3.2072
2746 0.538488 0.0491369 -0.371712 -0.120631 -0.360789 -0.0532806 -0.70441 -0.486177 -2.31483 -3.14142
2241 0.0283698 -0.00781155 -0.228965 -0.0912096 -0.173246 -0.0347257 -0.368682 -0.609899 -2.86709 -3.71576
8230 0.188513 0.148985 -0.251796 -0.434864 -0.451397 0.165359 0.242846 -0.855428 -2.55016 -3.37323
8627 0.104325 0.117031 -0.43835 -0.0664248 -0.55758 0.0560347 0.0704039 -0.758128 -2.45817 -3.4905
4583 0.268021 0.123345 -0.513531 0.0479783 -0.070283 0.100718 -0.179142 -0.678539 -2.5004 -3.34721
9957 0.364686 0.21477 -0.768149 -0.0689986 0.049993 0.00884135 -0.109041 -0.416725 -2.22701 -3.09089
10257 0.433218 0.441586 -0.888554 0.0103466 -0.310228 0.00407265 -0.143072 -0.534591 -2.71548 -2.84667
10058 0.00113019 0.253865 -0.530824 -0.0628017 0.00028958 0.0786744 -0.191382 -0.580224 -3.10459 -3.32091
9467 0.105998 0.364994 -0.515927 0.0735929 -0.182831 0.108498 -0.0608733 -0.69953 -2.83776 -3.35269
5426 -0.0607372 0.24831 -0.259259 -0.110989 -0.444654 0.0352182 0.0420577 -0.797759 -2.98167 -3.42575
739 0.223207 0.133142 -0.324478 -0.0595545 -0.359383 -0.197131 -0.405311 -0.596219 -3.08081 -3.54162
2154 0.450401 0.243558 -0.271587 -0.088327 -0.472468 -0.585131 -0.284252 -0.573569 -1.97681 -2.65585
1681 0.0830294 0.0509348 -0.210859 -0.159708 -0.329143 -0.532821 -0.193414 -0.616924 -2.86878 -3.73118
6881 0.0996272 0.0437749 -0.208006 -0.169285 -0.532207 -0.113075 -0.0439876 -0.707521 -2.73063 -3.4655
7129 0.0130214 0.238322 -0.348226 -0.196844 -0.359069 0.0574245 -0.0319198 -0.651423 -3.00085 -3.44484
7327 0.392113 -0.0525176 -0.600702 -0.0443336 -0.735099 0.342596 0.368937 -0.831509 -2.10316 -3.47314
5420 0.372207 -0.194864 -0.474193 -0.132747 -0.779149 0.184606 0.414742 -0.904119 -2.59146 -3.73716
2633 0.120414 -0.030503 -0.324042 0.0864549 -0.677051 -0.299278 -0.0042349 -0.7541 -2.95794 -3.38229
5259 -0.0014148 -0.0362931 -0.130987 -0.313204 -0.447199 0.0495599 -0.294435 -0.596532 -3.01688 -3.48407
8525 -0.064465 0.284818 -0.408894 -0.0433862 -0.349621 0.0348735 -0.197797 -0.644007 -3.05584 -3.53175
10045 0.0962439 0.216389 -0.491614 -0.0334038 -0.198369 0.0845979 -0.00465681 -0.680777 -3.15937 -3.38795
27 0.170719 0.0219028 -0.80832 -0.113024 -0.041423 0.0201479 0.13445 -0.393213 -2.14922 -2.54123
10227 0.0959089 0.0638101 -0.572875 -0.00129203 0.228501 0.13266 -0.16246 -0.546113 -2.50611 -3.87081
8868 0.0201053 0.116072 -0.45362 -0.141275 -0.0646817 0.107274 -0.181144 -0.657166 -2.91941 -3.69922
7393 -0.124631 0.409173 -0.435256 0.010617 -0.290749 0.0623226 -0.357861 -0.560111 -3.01985 -3.49413
7293 -0.129928 0.174037 -0.256048 -0.153007 -0.454724 0.162935 0.0502786 -0.717846 -2.92122 -3.46576
9307 0.189379 0.297626 -0.386309 -0.237778 0.11363 0.215142 -0.0116185 -0.647188 -2.6929 -3.21161
3137 0.54062 0.194223 -0.570361 -0.146656 -0.345819 -0.0873645 -0.310744 -0.51382 -2.71193 -3.02636
3198 0.236896 -0.100901 -0.231489 -0.23312 -0.320335 -0.0478955 -0.273079 -0.609512 -3.05649 -3.57876
4519 0.284304 0.145613 -0.409298 0.00157448 -0.614694 0.21755 -0.296805 -0.643049 -2.86906 -3.23077
1645 -0.0374997 0.0492285 -0.307692 0.0651711 -0.845966 0.0469454 -0.471125 -0.536226 -2.82819 -3.43337
5215 0.387074 0.0714805 -0.280536 -0.180456 -0.601779 0.340433 -0.607955 -0.532182 -2.58204 -3.24567
3561 0.171502 0.0531658 -0.207172 -0.314653 -0.547424 -0.157073 -0.410205 -0.574068 -2.9612 -3.68093
5498 0.301955 0.354688 -0.169929 -0.0994442 -0.383363 -0.160995 -0.63364 -0.551357 -2.55784 -2.92961
7915 0.0551963 0.684716 -0.0978732 -0.595888 -0.449718 -0.0742862 -0.718727 -0.511939 -2.61352 -2.86477
13 0.164761 0.307728 -0.269478 -0.263019 -0.313045 -0.337407 -0.529786 -0.540306 -2.76658 -3.42115
6873 0.0607956 -0.0439954 -0.17635 -0.184659 -0.441139 0.00952149 -0.288446 -0.623945 -2.93772 -3.5573
9122 -0.101177 0.626669 -0.251997 -0.506384 -0.448461 -0.350233 -0.442693 -0.533619 -3.48501 -2.87125
2099 0.211911 0.274165 -0.391982 -0.089847 -0.255709 0.0152014 -0.0690319 -0.678356 -2.71616 -3.35488
6946 0.114291 0.416302 -0.511085 0.0238427 -0.283836 0.22186 -0.160944 -0.713702 -2.87634 -3.41332
7324 0.156214 0.349935 -0.347138 -0.200566 -0.361838 0.0739354 -0.174755 -0.621586 -2.87885 -3.44207
7787 0.323953 0.502674 -0.610048 -0.146628 -0.527186 0.171048 -0.419067 -0.463706 -2.77661 -2.95917
1620 0.376396 0.363132 -0.57723 -0.0373068 -0.321889 -0.1185 -0.247523 -0.63049 -2.79121 -3.02274
4257 0.520303 -0.0806413 -0.198724 -0.00927673 -0.20173 -0.0123198 -0.470598 -0.59364 -3.07508 -3.0232
2722 0.532485 0.0310165 -0.302808 -0.0239358 -0.422164 -0.0810985 -0.384573 -0.656142 -2.82767 -3.14534
5771 0.427105 0.149711 -0.213795 -0.11252 -0.73138 0.131395 -0.494891 -0.75071 -2.35991 -2.93841
5326 0.394444 -0.160989 -0.474954 0.236948 -0.606211 0.140467 -0.189955 -0.71978 -2.66833 -3.54052
3008 0.450841 -0.0148629 -0.13656 0.00461457 -0.490178 0.068998 -0.35865 -0.544703 -1.75225 -2.29963
549 0.31993 0.156207 -0.181819 -0.110901 -0.438879 -0.0114651 -0.0727481 -0.757037 -2.83478 -3.15434
4711 0.375436 0.0974998 -0.452532 -0.15629 -0.630116 0.138069 -0.305886 -0.622365 -2.78258 -3.14366
6917 0.040251 -0.143768 -0.119948 -0.253657 -0.624227 -0.0701033 -0.197937 -0.648325 -3.06289 -3.4218
3335 0.277503 0.224784 -0.369477 -0.165536 -0.45156 0.0233457 -0.282042 -0.671095 -2.79785 -3.28531
6794 0.0428003 0.0576634 -0.199284 -0.340051 -0.573372 0.0828613 -0.601561 -0.485484 -2.84671 -3.58719
6682 0.0999759 0.188158 -0.266543 -0.189151 -0.45033 0.0460975 -0.0490492 -0.716941 -2.73085 -3.34887
1110 0.034837 -0.0210901 -0.217519 -0.0587542 -0.444677 -0.12553 -0.087877 -0.695691 -2.87708 -3.39908
4496 0.247887 -0.173776 -0.215785 -0.150976 -0.234364 6.75411e-05 -0.342956 -0.625476 -3.14947 -3.37838
4497 0.0720581 0.057351 -0.366433 -0.0739172 -0.0177256 0.0860063 -0.391018 -0.518749 -2.82986 -3.59163
1983 0.263237 0.137404 -0.310281 -0.110326 -0.263608 -0.37283 -0.100365 -0.662668 -2.54537 -3.42518
5239 0.164133 0.165935 -0.632229 0.333989 -0.634844 0.174601 -0.00127883 -0.764949 -2.7997 -3.11919
6832 -0.0982864 0.275614 -0.419423 0.00771732 -0.439657 -0.0634585 -0.115194 -0.65951 -3.0691 -3.41271
8933 0.147513 0.437401 -0.496622 0.0399247 -0.189335 0.0671602 -0.25699 -0.619344 -2.55206 -3.26406
2733 0.33226 0.074149 -0.41765 -0.199259 -0.146751 0.107022 -0.298091 -0.532638 -2.80705 -3.41258
1644 0.094835 -0.0589148 -0.191865 -0.179324 -0.252116 -0.433658 -0.147445 -0.629872 -2.88165 -3.63071
1774 0.216236 0.0361109 -0.286268 -0.114434 -0.472713 -0.349554 -0.276711 -0.593418 -2.65293 -3.45859
6753 0.196018 0.162018 -0.445424 -0.0165897 -0.617332 -0.0499296 -0.282017 -0.626863 -2.97866 -3.41058
8154 0.0773091 0.340077 -0.218998 -0.133249 -0.598659 0.0617494 -0.189763 -0.697352 -2.63055 -3.38469
1357 0.256453 0.00709502 -0.328739 -0.0972956 -0.307657 -0.0746975 -0.305732 -0.61808 -2.75572 -3.4836
8234 -0.054839 0.124105 -0.196619 -0.22326 -0.527827 -0.0124456 -0.197134 -0.67469 -2.94444 -3.53732
419 0.194349 0.112189 -0.399886 0.257424 -0.749444 -0.261035 -0.0433454 -0.752025 -2.81841 -3.26609
1523 0.5954 0.0456739 -0.41833 0.116437 -0.385777 -0.0986454 -0.351496 -0.686221 -2.49923 -2.72892
476 0.277144 -0.0802467 -0.26859 -0.094443 -0.315731 0.176711 -0.456828 -0.584656 -2.93021 -3.28596
4278 0.306655 0.103274 -0.298461 0.00899966 -0.433167 0.175828 -0.344063 -0.676262 -2.85737 -3.13625
1327 0.0502344 -0.0276164 -0.283968 0.0312174 -0.501194 -0.377022 -0.153271 -0.652879 -2.91841 -3.56636
5038 0.0966671 -0.246256 -0.456064 0.364744 -0.887763 -0.0263631 -0.192422 -0.539917 -2.78605 -3.00464
501 0.0707517 -0.0168113 -0.311448 -0.023157 -0.498859 -0.171644 -0.14551 -0.648835 -2.81469 -3.48378
2718 0.00120997 -0.0912632 -0.17583 -0.0587133 -0.423718 -0.626055 -0.195356 -0.623849 -2.81811 -3.59081
2188 -0.0234476 -0.0499872 -0.321368 0.0788877 -0.655457 0.106158 -0.157688 -0.626594 -2.94738 -3.41629
6959 0.0694296 0.298375 -0.221149 -0.348714 -0.609902 0.0605399 -0.385904 -0.636462 -3.01356 -3.60739
5035 0.388134 0.0966695 -0.373142 -0.170366 -0.213056 0.239936 -0.400351 -0.607568 -2.58483 -3.3154
5990 0.426708 -0.027465 -0.41979 -0.104881 -0.770546 0.159723 -0.303472 -0.603187 -2.38725 -3.4519
7923 0.219536 0.294332 -0.239932 -0.273347 -0.540971 0.0631133 -0.206138 -0.666908 -2.57282 -3.1091
4839 0.126064 0.0624239 -0.20355 -0.281265 -0.457123 -0.0683833 -0.293968 -0.625763 -3.04709 -3.57863
6991 0.136085 0.355687 -0.398136 -0.222799 -0.590526 0.0350177 -0.154036 -0.698659 -2.5009 -3.24909
9969 0.138306 0.265748 -0.654871 0.157493 -0.492036 0.0687825 -0.135 -0.627705 -2.97888 -3.16151
7714 -0.115356 0.274301 -0.183466 -0.192402 -0.505386 0.0200417 -0.134454 -0.699877 -2.95084 -3.41796
4151 0.254873 -0.12875 -0.259812 -0.00169925 -0.536276 0.15439 -0.27418 -0.694756 -3.0719 -3.20308
4417 0.245511 0.301038 -0.501559 0.132203 -0.421839 0.136168 -0.30527 -0.6451 -2.81298 -3.23808
4569 0.654587 -0.0892256 -0.498766 -0.0949998 -0.35922 0.000928469 -0.58054 -0.48632 -2.52296 -2.47106
1452 0.211874 0.127954 -0.203488 -0.404373 -0.174764 -0.153431 -0.163164 -0.61386 -3.07355 -3.31491
532 0.372408 0.0879942 -0.387717 -0.0215778 -0.464746 -0.0908395 -0.493616 -0.563844 -2.69895 -3.34049
3123 0.654833 0.198054 -0.488456 -0.0526533 -0.56713 -0.193088 -0.641391 -0.519984 -2.44583 -3.08882
5712 0.379815 0.203479 -0.36167 -0.139524 -0.659957 0.242519 -0.471733 -0.606133 -2.31339 -3.39193
3806 0.0381263 0.00455158 -0.267678 -0.116856 -0.360327 0.109742 -0.430971 -0.521984 -2.79338 -3.60096
336 0.452719 0.093544 -0.313284 0.0156257 -0.440143 -0.317994 -0.410612 -0.610981 -2.47042 -3.23237
776 0.367847 0.0777821 -0.373898 -0.1413 -0.361551 -0.444935 -0.245229 -0.657866 -2.44278 -3.41519
484 0.463656 0.335977 -0.616379 -0.0791279 -0.346591 -0.148948 -0.370429 -0.594584 -2.47797 -3.2848
8457 -0.0794376 0.452078 -0.457045 -0.0984224 -0.35644 0.0424078 -0.413744 -0.501442 -2.99732 -3.56249
5696 0.056112 0.302554 -0.466308 0.110621 -0.0407683 0.0925116 -0.0263517 -0.744001 -2.83252 -3.50479
1731 0.0510503 -0.019098 -0.318575 0.00210948 -0.460471 -0.2759 -0.208477 -0.641318 -3.12224 -3.32992
3078 0.336441 0.211929 -0.437267 -0.0484882 -0.251965 0.0319505 -0.490718 -0.587907 -2.80326 -3.27288
4490 0.238834 -0.088229 -0.329485 0.0375846 -0.352816 -0.116742 -0.506171 -0.504448 -3.13366 -3.41094
2092 0.290818 -0.0361558 -0.234111 -0.140024 -0.182278 -0.466001 -0.18418 -0.713772 -3.09463 -3.5939
2672 0.325821 0.124132 -0.204706 -0.263963 -0.292552 -0.20414 0.00285382 -0.763418 -2.96801 -3.18705
2448 0.351908 0.166288 -0.261703 -0.160961 -0.33362 -0.592891 -0.0618006 -0.726252 -2.58312 -3.13847
2775 0.101874 0.352996 -0.213227 -0.284168 -0.519355 -0.343626 -0.642553 -0.545269 -3.3321 -3.15161
6183 0.294038 0.338493 -0.349359 -0.582646 -0.742189 -0.00997148 -0.435302 -0.594912 -2.85973 -2.82957
375 0.345159 0.0806044 -0.644248 0.28317 -0.679004 0.144867 0.212566 -0.845958 -2.80418 -3.38073
8750 0.119164 0.296847 -0.512099 0.141036 -0.454806 0.155757 -0.178203 -0.612961 -2.43701 -3.36238
815 0.275067 0.296805 -0.314193 -0.00936455 -0.456315 -0.306001 -0.394282 -0.612185 -2.49435 -3.18101
1001 0.119412 0.212275 -0.28545 -0.149088 -0.409547 -0.251345 -0.136898 -0.67795 -2.85777 -3.4271
2051 0.380257 0.121032 -0.209487 0.0921476 -0.510424 -0.342698 -0.252838 -0.633212 -2.35515 -2.95221
2862 0.201475 0.00971052 -0.232682 0.204204 -0.267803 -0.522608 -0.272727 -0.684352 -2.76822 -3.4901
8859 0.0684081 0.266514 -0.449473 -0.169378 -0.234014 -0.0187712 -0.163213 -0.641999 -3.20828 -3.56529
7214 0.469537 0.209958 -0.10383 -0.804394 -0.137881 0.123469 0.129996 -0.810976 -3.00381 -3.40779
283 0.00542221 0.0833314 -0.167703 -0.2925 -0.361839 -0.178626 -0.0769539 -0.724842 -3.00807 -3.4398
2156 0.141408 0.105059 -0.233262 -0.130556 -0.131403 -0.0365993 -0.193997 -0.670297 -2.85024 -3.46225
2327 0.186878 -0.0440627 -0.290445 -0.03821 -0.262803 -0.263959 -0.429136 -0.564279 -3.05957 -3.47351
2453 0.240002 -0.106577 -0.332123 -0.19852 -0.622578 0.208281 0.189635 -0.813521 -2.63475 -3.62149
1801 0.219173 0.0756356 -0.406747 0.114004 -0.539181 -0.36927 -0.108434 -0.686902 -2.89138 -3.34514
2908 0.177997 0.252665 -0.377421 -0.0532227 -0.616703 -0.0777139 -0.0482277 -0.680088 -2.82265 -3.18279
9653 0.126948 0.0846261 -0.458925 -0.220973 -0.160527 0.0643303 0.259467 -0.72452 -3.1365 -3.45172
1636 0.160106 0.147298 -0.268637 -0.111861 -0.612516 -0.309692 -0.159309 -0.699534 -2.72276 -3.45421
860 0.125972 0.048427 -0.0660534 -0.408299 -0.598664 0.0181597 -0.411136 -0.54841 -2.56944 -3.38556
7370 -0.023682 0.0287761 -0.0895118 -0.249856 -0.906777 0.11877 -0.34589 -0.618994 -2.62528 -3.38463
6689 0.0955459 -0.0800321 -0.175444 -0.183458 -0.612116 0.117836 -0.442311 -0.572372 -2.85758 -3.32553
3155 0.297311 -0.081898 -0.190907 -0.255021 -0.277077 -0.195723 -0.128967 -0.666615 -3.04285 -3.31712
5974 0.0762193 0.00126148 -0.131112 -0.379706 -0.332416 0.270142 -0.384292 -0.585344 -2.7969 -3.53675
1416 0.425725 0.27222 -0.416317 -0.11495 -0.585496 -0.379197 -0.352466 -0.537505 -2.53978 -3.28704
2651 0.26215 0.101409 -0.388184 -0.10134 -0.22409 -0.370101 -0.386687 -0.500373 -2.96902 -3.49985
5959 0.263984 -0.155595 -0.245385 -0.227652 -0.547428 0.17001 -0.560375 -0.520666 -2.91905 -3.36233
3932 0.0311694 0.0978562 -0.311612 -0.0427551 -0.579931 0.116891 -0.205061 -0.663694 -2.97343 -3.32543
10140 -0.127894 -0.01081 -0.379343 -0.0704764 -0.631512 -0.0333713 0.243089 -0.784685 -3.12509 -3.39749
269 0.105111 0.0750175 -0.285724 -0.119845 -0.388577 -0.124511 0.0255934 -0.738683 -2.94197 -3.44244
6728 -0.0432187 0.130608 -0.16026 -0.259388 -0.665434 0.0831867 -0.256285 -0.647405 -2.94331 -3.51314
5370 0.146907 -0.161854 -0.309469 0.0357806 -0.48402 0.201998 -0.323171 -0.608459 -2.80975 -3.2527
4157 0.176839 -0.0420697 -0.22191 -0.19951 -0.255611 0.0595243 -0.180806 -0.676237 -3.17596 -3.14485
1055 0.162192 0.0517772 -0.260547 -0.0885702 -0.281096 -0.428176 -0.170641 -0.599502 -2.79022 -3.38229
3056 0.0819345 -0.0957277 -0.380006 0.0471632 -0.482732 -0.00154104 -0.126872 -0.681247 -3.06985 -3.36761
10269 0.0437871 0.324466 -0.517314 -0.140691 -0.126958 0.014401 -0.280444 -0.548356 -3.16452 -3.47872
669 0.327444 0.18874 -0.501268 0.00368932 -0.609657 0.197275 -0.190067 -0.641041 -2.67092 -2.66
9648 0.123759 0.233422 -0.259256 -0.124642 -0.158608 0.106834 -0.0623085 -0.465733 -1.30439 -1.4683
4648 0.155372 0.289472 -0.390821 -0.190501 -0.27136 0.0318506 -0.00199182 -0.727611 -2.94228 -3.39781
394 -0.0143109 0.117283 -0.153394 -0.311769 -0.35523 0.0165812 -0.273232 -0.623458 -3.02362 -3.51902
6641 0.0655415 0.186135 -0.399697 -0.0282384 -0.803696 0.107475 -0.272393 -0.677899 -2.76695 -3.34331
6612 0.0611474 0.379543 -0.48362 0.0269508 -0.752528 0.164254 -0.306667 -0.561245 -2.85534 -3.12267
2100 0.182768 0.15587 -0.420865 0.257136 -0.674428 -0.293671 -0.05254 -0.804051 -2.79239 -3.30933
8285 -0.0755484 0.299067 -0.477572 0.114316 -0.459991 0.113031 -0.198818 -0.63696 -3.01156 -3.45301
4708 0.00611288 0.133666 -0.249188 -0.223749 -0.530793 -0.00478183 -0.139875 -0.685045 -3.01846 -3.49101
8396 -0.124279 0.00250382 -0.245392 0.0951032 -0.856916 0.107658 -0.0272082 -0.758023 -2.90546 -3.3715
9172 0.0493525 0.0755444 -0.404534 0.12638 -0.451043 0.0706416 -0.100505 -0.672136 -2.92686 -3.51733
8891 0.0059138 0.415421 -0.466078 0.32599 -0.676643 0.105709 -0.0768798 -0.839226 -2.5527 -3.3459
9697 0.0660607 0.207701 -0.604131 0.0912153 -0.20674 -0.00463109 -0.0710328 -0.593534 -3.19585 -3.12933
10011 0.384472 0.295362 -0.56455 -0.0194068 -0.136275 0.069145 -0.0793103 -0.702058 -2.76825 -2.90269
4984 0.0280137 0.0739557 -0.253626 -0.177954 -0.434481 -0.020856 -0.224693 -0.654279 -3.05381 -3.51528
4815 0.106396 -0.0388304 -0.251887 -0.0632266 -0.549491 0.283856 -0.728366 -0.449789 -2.69991 -3.44449
6073 0.148067 0.0501246 -0.308017 -0.223747 -0.672737 0.136652 -0.509134 -0.557089 -2.98871 -3.55445
679 0.279635 0.12018 -0.244847 -0.134835 -0.645149 -0.232579 -0.229265 -0.678062 -2.68616 -3.45933
1213 0.238401 0.176591 -0.33699 -0.00173701 -0.344308 -0.510676 -0.115164 -0.613009 -2.63771 -3.37731
3250 0.131486 0.0153225 -0.319469 0.0868057 -0.434523 -0.0587607 -0.161597 -0.716325 -2.6294 -3.26459
5563 0.213374 -0.242916 -0.253025 -0.00976825 -0.241113 0.201821 -0.39651 -0.554063 -2.93935 -3.32698
1412 0.295899 0.323296 -0.317104 -0.275237 -0.470323 -0.215707 -0.125261 -0.648596 -2.46225 -3.24906
4999 0.0377509 0.249718 -0.162675 -0.388479 -0.544492 0.102171 0.0704462 -0.776565 -2.77603 -3.3426
7215 -0.0838643 0.352288 -0.162268 -0.184212 -0.47492 -0.185391 -0.0933598 -0.737486 -3.05142 -3.25363
3323 0.0332995 0.129491 -0.315534 -0.163532 -0.490849 0.08393 -0.368545 -0.566295 -2.94794 -3.49009
2019 0.374876 0.240293 -0.312554 -0.159294 -0.591861 -0.405487 -0.290072 -0.650295 -2.82174 -3.14428
4566 0.0249365 -0.014298 -0.334132 0.0806904 -0.500524 -0.0979891 -0.220253 -0.628558 -3.00516 -3.35468
5200 0.337372 0.104984 -0.340106 -0.0830148 -0.215557 0.140874 -0.497632 -0.685765 -2.33581 -3.16785
593 0.523213 0.376162 -0.257586 -0.215431 -0.724501 0.212304 -0.562539 -0.656258 -2.30307 -2.99526
3284 0.36433 -0.0390094 -0.335 -0.310826 -0.129685 0.0941322 -0.24083 -0.603148 -3.01897 -3.28767
2598 0.592173 0.0788744 -0.280383 -0.465178 -0.147291 0.307584 0.0244977 -0.77261 -3.05675 -3.23478
176 0.120189 0.183181 -0.305808 -0.240159 -0.444512 -0.0399535 -0.242194 -0.627593 -3.09049 -3.5573
2064 0.617622 0.256285 -0.467218 0.109092 -0.551122 -0.211276 -0.266849 -0.633571 -2.28091 -2.85628
5926 0.654561 0.081717 -0.298325 -0.22866 -0.510194 0.108856 -0.28474 -0.56085 -1.98124 -2.45913
1226 0.103766 0.19522 -0.309419 -0.136612 -0.377108 0.00880079 -0.362805 -0.635027 -3.04776 -3.54355
7526 -0.0594238 0.195308 -0.553019 0.344267 -0.59323 0.0753573 0.0851784 -0.754582 -3.01605 -3.42994
5920 -0.019694 0.248359 -0.621404 0.14584 -0.475925 -0.011631 0.0781802 -0.726355 -3.16232 -3.26874
8099 -0.0579311 0.222369 -0.453258 -0.030039 -0.238682 -0.0423932 0.0294987 -0.671866 -3.12722 -3.40178
1705 -0.0307515 0.138377 -0.13343 -0.324422 -0.381012 -0.298971 -0.101325 -0.688398 -3.05341 -3.38905
6729 0.502584 0.232268 -0.155848 -0.36478 -0.58716 0.324339 -0.318174 -0.673988 -2.40683 -3.1304
2796 0.216318 0.209377 -0.276947 -0.163466 -0.439132 0.122219 -0.26877 -0.695305 -2.96401 -3.34286
10146 -0.0622598 0.101715 -0.527823 0.0928731 -0.438473 -0.0174303 0.123963 -0.68312 -2.98866 -3.34396
374 0.325755 0.205669 -0.505837 0.0458802 -0.351001 -0.197849 -0.167121 -0.614712 -2.72954 -3.25964
3741 0.379351 0.0224868 -0.292221 -0.215942 -0.350469 0.153695 -0.577289 -0.561679 -2.9337 -3.20891
1995 0.408294 -0.022808 -0.195092 -0.26158 -0.226154 -0.277566 -0.234531 -0.581418 -2.70747 -3.26546
4407 0.383294 -0.0902973 -0.325378 -0.0626466 -0.355767 0.0140186 -0.148277 -0.676548 -3.11405 -3.35974
4298 0.584329 -0.157114 -0.468399 0.120295 -0.333631 0.238014 -0.39045 -0.584071 -2.94412 -3.10283
4187 0.307807 -0.116589 -0.265497 -0.0467921 -0.0961928 -0.260709 -0.341556 -0.650733 -3.22329 -3.39455
4061 0.537899 -0.00712588 -0.507397 0.144957 -0.251513 0.177531 -0.399684 -0.563381 -2.89225 -3.13148
8736 0.0273727 0.380126 -0.469787 0.0135276 -0.363475 0.0112136 -0.303291 -0.586819 -3.04886 -3.47254
911 0.233589 0.140079 -0.276762 -0.0942915 -0.135982 0.0312989 -0.249839 -0.691313 -2.76565 -3.46374
6035 -0.0266274 0.158093 -0.305059 -0.112559 -0.333531 0.116289 -0.178388 -0.627317 -2.94751 -3.53298
460 0.388769 0.135702 -0.334834 -0.0560894 -0.346438 -0.0831609 -0.210043 -0.680181 -2.78117 -3.36858
8903 0.5056 0.354637 -0.736348 -0.00243454 -0.267978 0.165425 -0.0683398 -0.553222 -2.56213 -2.90597
4663 0.42248 0.321188 -0.316659 -0.0119224 -0.469725 0.0826164 -0.361804 -0.620112 -2.63755 -3.00499
7495 0.0438496 0.0682797 -0.289754 -0.158434 -0.409537 0.0835516 -0.31472 -0.587539 -2.71118 -3.45345
10013 -0.0446642 0.123976 -0.561786 -0.00394335 -0.366882 -0.124136 0.202918 -0.743273 -3.19228 -3.46344
1556 0.282578 -0.234451 -0.305861 -0.0116371 -0.757498 -0.287946 0.198885 -0.75692 -2.71378 -3.37265
4415 0.19779 -0.111854 -0.272929 0.0022285 -0.301609 -0.187101 -0.322911 -0.57287 -3.04523 -3.27861
2599 0.0898461 -0.00224717 -0.242201 -0.0291475 -0.494643 -0.15042 -0.14965 -0.674538 -2.96941 -3.34997
3765 -0.0569931 0.228638 -0.309373 -0.023463 -0.5337 -0.0332951 -0.00554053 -0.749174 -2.80539 -3.41414
3690 -0.109776 0.135251 -0.308792 0.165515 -0.590976 -0.0600486 -0.0605414 -0.737707 -2.98069 -3.37007
5050 0.259857 0.300904 -0.655416 0.199303 -0.49108 0.0523583 -0.145747 -0.678445 -2.78343 -3.35286
6066 0.0221349 0.124382 -0.148908 -0.323468 -0.321827 -0.0343991 -0.160005 -0.676325 -2.87065 -3.60759
3240 0.211161 0.0412997 -0.165329 -0.335055 -0.111046 0.0622323 -0.353375 -0.597047 -3.12009 -3.38087
1042 0.203246 0.129667 -0.164346 -0.293177 -0.407654 0.0851899 -0.245263 -0.66545 -2.95551 -3.32179
5246 0.222401 0.127445 -0.494176 0.098769 -0.295805 0.269109 -0.254416 -0.608355 -2.95737 -3.11741
3823 0.376972 -0.147993 -0.329496 -0.403597 -0.0471038 0.125596 -0.174206 -0.568688 -3.08817 -3.42703
6459 0.0895998 -0.210964 -0.16386 -0.180033 -0.245014 0.235636 -0.51602 -0.541502 -2.80245 -3.41806
5555 0.371382 0.435889 -0.428962 -0.079521 -0.712101 0.167164 -0.415849 -0.619803 -2.60251 -3.15178
6624 0.183232 0.324729 -0.219479 -0.279257 -0.754792 0.0423959 -0.416238 -0.541497 -2.74558 -3.2036
9801 0.109241 0.406537 -0.393143 -0.138701 -0.430246 0.0823598 0.174753 -0.781322 -2.90836 -2.99238
9650 0.133029 0.279676 -0.579265 0.0603252 -0.422796 0.0383183 0.240227 -0.710449 -2.92294 -3.10271
6034 0.0834022 0.178486 -0.45279 -0.140687 -0.408484 0.121699 0.0124147 -0.65047 -3.04205 -3.25536
3509 0.282927 -0.0762643 -0.215136 -0.148395 -0.232654 -0.366293 -0.0908094 -0.700664 -2.94323 -3.40687
1196 0.082953 0.0272243 -0.295162 -0.0715743 -0.341727 -0.0519658 -0.075188 -0.706285 -2.99176 -3.35561
1877 0.173882 -0.0083546 -0.252244 -0.192227 -0.323322 -0.444715 0.0313842 -0.753052 -2.91868 -3.47882
1235 0.289694 -0.12543 -0.3552 0.122451 -0.344529 -0.293648 -0.197841 -0.671071 -3.07361 -3.14247
2946 0.446919 0.0399831 -0.307252 0.0117375 -0.448706 -0.284711 -0.254084 -0.759345 -2.88303 -3.00331
4700 0.364208 0.0118779 -0.433397 0.14951 -0.573699 0.0770762 -0.483884 -0.60476 -2.89237 -3.1098
4211 0.226386 -0.143931 -0.284471 0.0667315 -0.197774 -0.316401 -0.345849 -0.61086 -2.97686 -3.50333
2443 0.245718 -0.0329464 -0.202824 -0.250806 -0.105467 -0.161637 -0.219888 -0.63866 -3.10314 -3.45103
3122 0.120342 -0.0886306 -0.196099 -0.149099 -0.257101 0.0040492 -0.295174 -0.62029 -2.88224 -3.60268
7339 0.34487 0.295217 -0.409171 -0.0891999 -0.67898 0.0326848 0.154191 -0.797321 -2.57487 -2.92885
638 0.655143 -0.157087 -0.358168 -0.0421664 -0.747994 0.0420028 0.0398248 -0.783181 -2.65422 -3.09539
2857 0.288325 -0.217226 -0.288506 0.060154 -0.338043 -0.141504 -0.106611 -0.730114 -2.7166 -3.56746
4254 0.583602 0.00822465 -0.44016 0.134604 -0.272966 -0.00317606 -0.511729 -0.541226 -2.8107 -3.01186
3526 0.165879 0.0149293 -0.347927 -0.0965754 -0.554296 -0.0175786 -0.310725 -0.649794 -3.1164 -3.42844
5544 0.10168 -0.0121744 -0.527946 0.25686 -0.624256 0.115292 -0.120595 -0.694041 -3.05435 -3.22046
7048 0.0856735 0.231485 -0.148148 -0.485934 -0.840052 0.121386 -0.274094 -0.639682 -2.73458 -3.01893
8385 -0.107242 0.440477 -0.258362 -0.350309 -0.54727 -0.0720522 0.204373 -0.837276 -3.12321 -3.28809
792 0.0509974 0.0359182 -0.201212 -0.20282 -0.607129 -0.00269286 -0.247254 -0.642725 -3.02937 -3.41357
7899 0.389629 0.195696 -0.352838 -0.425839 -0.811246 0.2595 -0.0334125 -0.807051 -2.33887 -3.31124
5722 0.130639 0.271886 -0.396848 -0.16165 -0.276038 0.168587 -0.376462 -0.600621 -2.45085 -3.61071
7791 0.184035 0.216803 -0.389371 -0.257376 -0.170287 0.122571 0.0616891 -0.718079 -2.64277 -3.42669
6566 0.196369 0.186997 -0.254453 -0.258949 -0.33958 0.0713866 -0.264013 -0.63367 -2.85786 -3.53638
3224 0.325818 0.0286677 -0.462001 -0.056881 -0.0972231 0.0236142 -0.172498 -0.606644 -3.11172 -3.2928
831 0.239172 0.260672 -0.146468 -0.273544 -0.385107 -0.370943 -0.185754 -0.676689 -2.60989 -3.21877
2941 0.300338 0.144659 -0.278292 -0.0148728 -0.235654 0.0560791 -0.274447 -0.69624 -2.8203 -3.28909
1793 0.248593 -0.00863685 -0.208121 -0.0690111 -0.43585 -0.520014 -0.0400521 -0.744879 -2.87757 -3.27102
3168 0.122907 -0.239446 -0.285943 0.145771 -0.52474 -0.191464 -0.0305889 -0.674299 -2.83248 -3.2556
1041 0.136106 0.0717703 -0.322919 0.124444 -0.482078 -0.51412 -0.132245 -0.657348 -2.75283 -3.46172
3259 0.252986 -0.0677099 -0.314579 -0.00317581 -0.241119 -0.100367 -0.48387 -0.575231 -2.88377 -3.40582
2118 0.251032 0.25319 -0.326171 0.0166504 -0.37091 -0.144389 -0.319365 -0.70556 -2.7712 -3.25771
6634 0.418488 0.0575166 -0.447637 0.0157078 -0.579653 -0.0820443 -0.539829 -0.518593 -2.77566 -3.37788
1749 0.456024 0.260136 -0.473465 -0.160682 -0.410726 -0.531572 -0.312334 -0.588625 -2.33616 -3.30877
547 0.303573 -0.0190055 -0.307183 -0.0416303 -0.186865 -0.331127 -0.31069 -0.617544 -2.6077 -3.52324
6806 0.419124 0.136035 -0.463673 -0.146449 -0.561847 0.0136267 -0.497863 -0.530287 -2.41063 -3.09278
6144 0.408828 0.380168 -0.280277 -0.117847 -0.621563 0.127912 -0.347957 -0.705519 -2.33848 -3.1207
8360 -0.134909 0.467387 -0.0443844 -0.320557 -0.589793 0.0255244 -0.141081 -0.760788 -2.91168 -2.9682
6025 0.106595 0.162662 -0.367318 0.0444532 -0.0892092 0.148494 -0.224861 -0.634136 -2.57483 -3.54681
535 0.626347 0.355752 -0.51202 -0.0952783 -0.53841 -0.0598873 -0.66753 -0.568557 -2.58282 -3.06237
1160 -0.000692419 0.0864367 -0.284222 -0.0174914 -0.448862 -0.214517 -0.44963 -0.52924 -3.0066 -3.29583
7444 0.245077 0.268785 -0.448396 -0.18757 -0.357574 0.151556 -0.0815428 -0.681035 -2.79509 -3.29976
1598 0.487754 0.290562 -0.436897 -0.0681265 -0.467016 -0.37513 -0.474801 -0.599364 -2.73417 -3.25708
3608 0.21455 -0.150066 -0.242873 -0.0249294 -0.343899 -0.244412 -0.356771 -0.59853 -3.13129 -3.53592
1869 0.217446 -0.127324 -0.309698 0.0955745 -0.629882 -0.310297 -0.161762 -0.658344 -2.75269 -3.3297
2354 0.094763 0.24139 -0.152877 -0.208085 -0.611837 -0.765289 -0.0930273 -0.714707 -2.99164 -3.08363
3500 0.278977 -0.150104 -0.31742 -0.117792 -0.78628 0.122935 0.187533 -0.82331 -2.89366 -3.50453
649 0.314606 0.144356 -0.440018 0.0760672 -0.505978 -0.306502 -0.224188 -0.704925 -2.58347 -3.43149
182 0.182048 0.00505086 -0.291356 0.0350859 -0.411516 -0.427921 -0.150066 -0.626321 -2.70694 -3.31692
5681 0.0918098 0.0134818 -0.319576 -0.150704 -0.43225 0.0308138 -0.282671 -0.567817 -2.89395 -3.57126
8378 0.103539 0.255886 -0.550258 0.183799 -0.447008 0.0995453 0.0305692 -0.760109 -2.90413 -3.32139
6593 0.241837 0.338066 -0.12223 -0.646751 -0.328197 -0.0301666 -0.0542995 -0.700164 -2.77574 -3.19168
7520 0.171123 0.277342 -0.179336 -0.290662 -0.555382 0.344796 0.0265983 -0.655911 -2.07248 -2.41965
6435 0.0973846 0.106711 -0.234518 -0.356864 -0.57781 0.236863 -0.0525231 -0.709548 -2.80948 -3.55094
5316 0.501036 -0.0943965 -0.333692 -0.0615961 -0.0810002 0.298843 -0.397688 -0.65093 -2.75854 -3.12756
5543 0.339453 -0.202932 -0.284532 0.100106 -0.210599 0.36814 -0.551854 -0.581622 -2.45031 -3.04941
4288 -0.009047 0.3086 -0.373406 -0.0200273 -0.285765 0.140469 -0.202441 -0.653678 -2.8694 -3.55692
2336 0.145518 0.349928 -0.557871 0.183908 -0.452289 0.00143703 0.00259028 -0.731451 -2.99019 -3.27121
7892 0.113538 0.406774 -0.497991 -0.0973186 -0.271061 0.107392 -0.112077 -0.615502 -2.69446 -3.1431
9420 0.00607345 0.456444 -0.408086 -0.225961 -0.272714 -0.0467856 -0.398726 -0.586707 -3.23041 -3.49638
3827 0.240264 0.249872 -0.461376 -0.0470141 -0.427079 0.260118 -0.302685 -0.594858 -2.84352 -3.04204
7948 0.239689 0.16322 -0.425602 0.00290184 -0.675329 0.178382 -0.173746 -0.734815 -2.47365 -3.05739
7557 0.0198921 0.120538 -0.391534 -0.166933 -0.578491 0.251089 -0.0524538 -0.677551 -2.84265 -3.46031
1046 0.373128 0.269159 -0.0109486 -0.793596 -0.270667 -0.292654 -0.0228234 -0.833794 -3.04602 -3.14527
2692 0.752502 0.201916 -0.12171 -0.661503 -0.252243 -0.274043 0.110072 -0.833915 -2.40416 -2.67382
3295 0.725048 0.337398 -0.464041 0.0209319 -0.441177 -0.288274 -0.352051 -0.525086 -2.07504 -2.59815
4471 0.3642 0.114342 -0.345999 -0.16865 -0.501091 0.138201 -0.27882 -0.600618 -2.57968 -3.13728
4594 0.131663 0.205682 -0.400524 0.0727935 -0.746911 0.0954593 -0.329726 -0.586023 -2.95301 -3.17161
9710 0.0149434 0.330512 -0.665103 0.350477 -0.304542 0.0444341 0.0579656 -0.683383 -3.11853 -3.21124
8302 -0.00374936 0.365146 -0.382224 -0.12351 -0.418798 0.0850004 -0.33185 -0.63606 -3.01606 -3.57257
7004 0.114601 0.314806 -0.376279 -0.159105 -0.499708 0.0974468 -0.172925 -0.672645 -2.7691 -3.31834
7192 0.0982838 0.0208002 -0.11197 -0.110026 -0.585425 -0.054544 -0.201856 -0.705048 -2.9364 -3.28808
6681 0.485666 0.150903 -0.305101 -0.0627962 -0.748738 0.182946 -0.456266 -0.630195 -2.5304 -3.02421
671 0.410562 0.0776101 -0.453947 0.134945 -0.411955 0.194722 -0.320991 -0.70098 -2.68089 -3.20794
1443 0.257059 -0.0789988 -0.204438 -0.213712 -0.351898 -0.256987 -0.272713 -0.669452 -3.06935 -3.54362
5655 0.211818 0.310348 -0.134377 -0.29848 -0.563252 0.0370458 -0.773793 -0.39252 -2.68834 -2.70991
5784 -0.0989919 0.336781 -0.0364032 -0.55166 -0.486173 -0.353827 -0.540238 -0.573688 -3.51252 -3.23067
233 0.177627 0.00880853 -0.247686 -0.19568 -0.285187 -0.31366 -0.317172 -0.613889 -2.9308 -3.79969
366 0.50485 0.323241 -0.384898 -0.0475849 -0.50608 -0.0696702 -0.457008 -0.516388 -2.08432 -2.56457
449 0.180627 0.0863943 -0.275191 -0.194427 -0.410214 -0.293554 -0.241266 -0.681052 -2.96382 -3.64842
7633 -0.11784 0.20859 -0.370222 -0.0552589 -0.590796 0.0596833 -0.0661679 -0.677799 -3.12643 -3.42952
5114 0.336936 0.658392 -0.508289 -0.245487 -0.650981 0.0444807 -0.381782 -0.555913 -2.32104 -2.72064
8068 0.372261 0.349297 -0.293165 -0.29588 -0.270542 0.145409 -0.237408 -0.698817 -2.3187 -3.30041
493 0.246657 0.324447 -0.307098 -0.0950932 -0.636364 0.208929 -0.195904 -0.813506 -2.28713 -3.15737
8466 -0.0187424 0.268048 -0.253288 -0.131106 -0.167065 0.293172 -0.135943 -0.744309 -2.58688 -3.41624
1471 0.237005 0.00440728 -0.261852 -0.0372582 -0.366852 -0.235597 -0.139034 -0.744762 -2.78381 -3.49012
5320 0.0458254 -0.236775 -0.141961 -0.191398 -0.501465 -0.0167406 -0.342964 -0.536788 -2.83972 -3.45953
657 0.465331 -0.215388 -0.471012 -0.0926866 -0.970707 -0.130481 0.377268 -0.944714 -2.51963 -3.37976
1876 0.0859398 -0.0211986 -0.17662 -0.23242 -0.392627 -0.255838 -0.332069 -0.570504 -2.86469 -3.6068
1496 0.43624 0.249944 -0.281854 -0.11402 -0.587931 -0.547454 -0.277976 -0.573625 -2.25591 -3.19386
1340 0.0981794 -0.0278242 -0.185844 -0.142138 -0.302701 -0.607694 -0.0773372 -0.725342 -2.71656 -3.75207
1337 0.37 0.255858 -0.318065 -0.191322 -0.427716 -0.614938 -0.229225 -0.617671 -2.26444 -3.55226
1647 0.27954 0.0985106 -0.19091 -0.261673 -0.477579 -0.59553 -0.137363 -0.604345 -2.39179 -3.29665
5537 0.0138548 0.483301 -0.065282 -0.479121 -0.589952 -0.469273 -0.382161 -0.711476 -3.63541 -3.08256
5251 0.0217025 0.751414 -0.0254293 -0.281881 -0.573133 -0.385604 -0.716275 -0.428883 -2.7007 -2.02088
6208 -0.0238188 0.422531 -0.167852 -0.389021 -0.500526 -0.256732 -0.607881 -0.542656 -3.38216 -3.09733
4632 0.358296 0.272547 -0.338087 -0.227218 -0.547529 0.0947104 -0.129486 -0.735095 -2.84771 -3.00487
7648 0.00811176 -0.0120616 -0.201919 -0.202219 -0.619819 -0.00592018 -0.224825 -0.659635 -2.88826 -3.3946
6986 0.0313942 0.0994341 -0.199352 -0.310201 -0.472498 0.0830679 -0.406115 -0.531356 -2.84084 -3.57519
2860 0.516813 0.328987 -0.292377 -0.0852216 -0.188041 -0.41803 -0.361438 -0.689921 -2.34171 -3.14105
2405 0.0706939 0.092544 -0.126956 -0.298996 -0.262211 -0.698555 -0.358329 -0.567617 -3.21325 -3.49925
7806 0.0552517 0.251466 -0.440524 -0.188708 -0.270128 0.00654441 -0.0888187 -0.651187 -3.17202 -3.55474
9652 0.45044 0.447208 -0.736432 -0.204047 -0.341462 0.181158 -0.032947 -0.356204 -2.21311 -2.42975
5904 0.608785 0.367361 -0.408433 -0.355255 -0.509135 0.0870653 -0.0761258 -0.609978 -2.13891 -2.55799
1075 0.252981 0.0372686 -0.184572 -0.327797 -0.135568 -0.335941 -0.111395 -0.66908 -3.01176 -3.4029
6300 0.273825 0.235751 -0.258261 -0.414275 -0.136335 0.072752 0.000836521 -0.741995 -2.76226 -3.42917
1290 0.318167 -0.00624874 -0.24385 -0.195403 -0.0754453 -0.00957704 -0.135608 -0.703794 -3.07371 -3.22879
4404 0.209856 -0.167806 -0.273801 -0.029464 -0.499506 -0.256334 -0.207903 -0.654036 -3.2035 -3.35425
3376 0.374567 0.686809 -0.230785 -0.207852 -0.267304 -0.530862 -0.619631 -0.554883 -2.99655 -2.23001
2780 0.666549 0.368167 -0.424692 -0.241919 -0.537994 -0.0571897 -0.410154 -0.622606 -2.54197 -2.95708
991 0.174573 0.140338 -0.109519 -0.474397 -0.382981 -0.264475 -0.0829755 -0.729103 -2.95012 -3.46863
1871 0.545396 -0.0544017 -0.480387 -0.10679 -0.0488765 -0.155576 -0.153291 -0.589853 -2.75039 -3.32046
602 0.256532 0.107734 -0.345729 0.0544055 -0.417045 -0.233217 -0.211837 -0.650195 -2.36169 -3.22178
6638 0.0147018 0.163897 -0.24787 -0.23057 -0.653526 0.099597 -0.071158 -0.716774 -3.01911 -3.25406
399 0.0188048 0.0166057 -0.0609993 -0.426164 -0.596003 0.12661 -0.384718 -0.59044 -3.04787 -3.34801
878 0.0977167 0.0603447 -0.295632 -0.0415931 -0.605151 -0.114539 0.0971891 -0.785465 -3.06155 -3.25041
3701 0.197997 0.328614 -0.43685 0.0622912 -0.555307 0.189299 -0.555288 -0.563028 -2.82191 -3.28621
8441 -0.018987 0.357773 -0.472609 -0.100544 -0.291966 0.120767 -0.424573 -0.494357 -3.08654 -3.52088
2997 0.350604 0.141732 -0.478479 0.227415 -0.792022 0.0390286 -0.433582 -0.606206 -2.99425 -3.03965
7305 -0.083353 0.137249 -0.161049 -0.308778 -0.452174 0.174462 -0.0605487 -0.697684 -3.00493 -3.53651
7720 -0.0693848 0.251441 -0.162967 -0.270665 -0.465896 0.140373 -0.245721 -0.632294 -2.91661 -3.48808
7008 -0.08437 0.557147 -0.0856126 -0.377537 -0.601658 -0.0625317 -0.611368 -0.513947 -3.0484 -3.06937
8095 -0.0814923 0.571282 -0.121767 -0.37498 -0.625391 -0.421979 -0.635699 -0.628176 -3.67381 -3.36655
3916 0.406804 0.35367 -0.142538 -0.0430714 -0.385929 -0.351372 -0.404012 -0.660968 -1.98589 -2.0994
2521 0.18664 -0.00101326 -0.266364 -0.160197 -0.31412 -0.299375 -0.313634 -0.658399 -3.1013 -3.58553
1634 0.482118 0.354278 -0.284815 -0.261288 -0.398556 -0.59016 -0.487316 -0.60598 -2.1326 -3.45381
1824 0.209497 0.143472 -0.145041 -0.361422 -0.470484 -0.679659 -0.169619 -0.756053 -3.0309 -3.78173
2235 0.392387 0.131558 -0.246879 -0.155041 -0.134521 -0.482839 -0.281327 -0.664756 -2.48478 -3.36423
1417 0.138384 0.0636041 -0.226862 -0.319744 -0.0223043 -0.252607 -0.0440609 -0.620999 -2.90311 -3.60262
584 0.289129 0.128616 -0.274769 -0.252353 -0.467818 -0.00303079 -0.290348 -0.636672 -2.61897 -3.40714
6860 0.108416 -0.0725435 -0.219483 -0.325515 -0.465493 0.0472896 -0.375619 -0.523285 -2.87284 -3.37797
667 0.0711413 0.0716913 -0.179958 -0.300214 -0.544263 -0.239745 -0.440777 -0.562684 -2.91265 -3.68933
161 -0.0132366 0.0328454 -0.296223 0.0297449 -0.645605 -0.335124 -0.0427878 -0.663136 -2.81753 -3.5241
3729 0.543893 -0.0181939 -0.334448 0.0749492 -0.63066 0.0660622 -0.0721958 -0.799532 -2.76374 -3.02833
2999 0.222274 -0.0577585 -0.238712 -0.0971697 -0.317441 -0.200277 -0.374803 -0.588687 -3.07544 -3.55645
2624 0.159182 0.0444749 -0.229959 -0.155747 -0.295237 -0.577784 -0.231026 -0.617602 -2.97745 -3.6754
2713 0.725169 0.327195 -0.48379 -0.213873 -0.581607 -0.351362 -0.32692 -0.504519 -1.98542 -2.54584
4652 0.110641 0.232284 -0.374956 -0.167475 -0.571966 0.030099 -0.338989 -0.622907 -3.04545 -3.56164
1007 0.390956 0.13625 -0.49641 0.0503387 -0.708197 -0.385072 -0.247676 -0.580732 -2.53403 -3.26063
1572 0.214762 0.0318126 -0.282812 -0.140822 -0.187315 0.0779306 -0.167944 -0.651451 -2.81511 -3.46318
4345 0.371843 -0.0911557 -0.0679321 -0.0500378 -0.427024 0.217373 -0.214307 -0.652528 -2.75848 -3.00837
7262 -0.0214869 0.195272 -0.25679 -0.115816 -0.695969 0.0306332 -0.395759 -0.599593 -2.97211 -3.45782
4010 0.24361 0.273023 -0.456831 -0.00359555 -0.629981 -0.0171466 -0.359966 -0.612745 -3.17746 -2.96053
4102 0.243094 0.653618 -0.692108 0.341243 -0.636824 0.0194056 -0.18006 -0.646751 -2.79977 -2.90664
9188 0.0232405 0.230545 -0.430945 -0.14963 -0.269588 0.00512984 -0.160664 -0.629429 -3.09017 -3.56271
9164 0.399277 0.38233 -0.240423 -0.620357 -0.237417 0.136451 0.141949 -0.739131 -2.91194 -3.11878
9355 0.147298 0.400602 -0.333231 -0.29501 -0.149483 0.0301594 -0.0255909 -0.7481 -2.89401 -3.43046
1511 0.146023 -0.0292389 -0.289551 -0.0115217 -0.315341 0.0146458 -0.279446 -0.596499 -2.92486 -3.45974
4043 0.476488 0.0102921 -0.381945 0.00240586 -0.372936 0.0778847 -0.573983 -0.610226 -2.61965 -3.24973
4209 0.529124 0.120814 -0.53663 -0.0864496 -0.152994 -0.118478 -0.342177 -0.504967 -2.03651 -2.87415
6202 0.36534 -0.123643 -0.151597 -0.76362 -0.645082 -0.0128516 0.661046 -0.998095 -3.01581 -3.40932
7637 0.144184 -0.00415896 -0.136786 -0.324117 -0.413099 0.0727212 -0.369147 -0.578872 -2.77131 -3.47525
7065 0.22901 0.151845 -0.241216 -0.365239 -0.463564 0.203821 -0.24483 -0.664471 -2.69493 -3.40073
9047 0.310539 0.569232 -0.555072 0.0871836 -0.190743 0.116241 -0.173868 -0.628448 -2.73295 -3.25326
2369 0.155132 0.169176 -0.203768 -0.282696 -0.355353 -0.0374809 -0.271349 -0.632239 -2.98814 -3.5257
1019 0.500691 0.202154 -0.332414 -0.284619 -0.20987 -0.363504 -0.360603 -0.661996 -1.91759 -3.19216
3249 0.404584 -0.0463736 -0.360981 -0.103932 -0.570385 0.183902 -0.0665681 -0.746554 -2.74962 -3.13505
3222 0.071823 0.404995 -0.346232 -0.117745 -0.128377 0.0080724 -0.108784 -0.675285 -2.95765 -3.44974
2967 0.197469 0.043142 -0.190265 -0.181076 -0.0817575 0.0667488 -0.269912 -0.674805 -2.96193 -3.47429
3821 0.502504 0.147533 -0.36317 0.086454 -0.186679 -0.126821 -0.472569 -0.604045 -2.58033 -3.03014
4189 0.208828 -0.0380897 -0.370911 0.0949916 -0.675759 0.217164 -0.461499 -0.552829 -2.9167 -3.16704
5450 0.240106 -0.010029 -0.271171 -0.185107 -0.438046 -0.256869 -0.377741 -0.588411 -3.11483 -3.52029
1198 0.654031 0.151468 -0.365631 -0.292711 -0.574088 -0.530407 -0.0948066 -0.593095 -2.10569 -3.04718
3339 0.160665 -0.0169294 -0.247214 -0.163854 -0.402099 -0.255512 -0.369834 -0.609167 -3.01869 -3.64243
1818 0.596387 0.260268 -0.455098 -0.278978 -0.461875 -0.404015 -0.443719 -0.534066 -1.90221 -2.77453
9746 0.247523 0.475708 -0.642102 0.141411 -0.195376 -0.0136806 -0.176768 -0.593612 -2.76283 -3.0193
7357 0.303939 0.60742 -0.468126 -0.0834574 -0.638285 0.123584 -0.517808 -0.604899 -2.65575 -3.32065
6547 0.0978701 0.248446 -0.275544 -0.136693 -0.447966 0.237093 -0.545215 -0.492985 -2.84501 -3.52368
1348 0.318386 0.261017 -0.303579 -0.0828814 -0.43612 -0.234151 -0.326104 -0.586084 -2.45167 -3.29426
2771 0.115667 -0.0288584 -0.114237 -0.296864 -0.36973 -0.70863 -0.0596899 -0.698361 -2.94203 -3.71139
72 0.222329 0.0460562 -0.307059 0.0610641 -0.492167 -0.275143 -0.129791 -0.759454 -2.82029 -3.22582
4215 0.334622 0.0257165 -0.228146 -0.24934 -0.456785 0.0878675 -0.431002 -0.527848 -2.77558 -3.1113
5673 -0.0354388 -0.076792 -0.320508 0.0539725 -0.916078 0.0340433 0.0165613 -0.760457 -2.93807 -3.4314
6161 0.212062 0.353354 -0.617724 -0.159914 -0.334815 0.0945958 -0.100134 -0.397681 -1.87287 -2.01298
3407 0.116287 0.134719 -0.351384 -0.168325 -0.304215 -0.0120981 -0.223187 -0.651476 -3.01516 -3.53618
4659 0.478399 0.083941 -0.316772 -0.207201 -0.417853 0.17089 -0.342822 -0.651379 -3.01784 -2.95921
6212 0.380292 -0.0180254 -0.226286 -0.251585 -0.40471 0.422238 -0.265709 -0.658477 -2.67839 -3.3209
5102 0.558542 0.40694 -0.302123 -0.524463 -0.277018 0.170676 -0.467051 -0.589998 -2.493 -2.95435
7373 0.00295226 0.331514 -0.381985 -0.142351 -0.223781 -0.0149084 -0.245958 -0.665549 -3.07694 -3.56394
2535 0.153124 0.0385794 -0.301091 0.0556696 -0.381109 -0.367177 -0.152721 -0.711058 -2.88959 -3.31113
1386 0.105586 0.139194 -0.153168 -0.317259 -0.35694 -0.546637 -0.0359028 -0.668524 -2.91681 -3.52154
2383 0.314002 0.0804378 -0.301599 -0.158954 -0.28137 -0.264638 -0.159167 -0.597263 -2.74382 -3.48563
1271 0.321407 0.141937 -0.205799 -0.311837 -0.489901 -0.405984 -0.147021 -0.678107 -2.41279 -3.42974
1217 0.462716 0.088671 -0.391407 -0.0155125 -0.109469 0.235156 -0.411216 -0.588282 -2.39882 -3.54312
5440 0.0812215 -0.203955 -0.363502 -0.223765 -0.107383 0.343207 -0.609968 -0.33663 -2.35639 -3.58066
5672 0.558232 0.134772 -0.290621 -0.426468 -0.63821 0.148817 -0.353314 -0.636347 -2.27801 -2.93282
7922 0.0835222 -0.0229363 -0.184276 -0.221722 -0.448871 -0.0033433 -0.320295 -0.612601 -2.91121 -3.52477
395 -0.0368334 0.259618 -0.305723 -0.0517164 -0.440776 0.157902 -0.0645753 -0.714673 -2.9234 -3.44126
381 0.281769 0.445573 -0.594208 0.109703 -0.637566 -0.384768 -0.191292 -0.571999 -2.66805 -3.1125
5241 0.049037 0.325412 -0.459008 -0.0812627 -0.367939 0.0678325 -0.27955 -0.573626 -3.12202 -3.53452
7123 0.343915 0.454235 -0.580648 0.00753331 -0.351291 0.0980002 -0.183532 -0.666587 -2.69301 -3.12306
5945 0.0613908 0.0766581 -0.198508 -0.238166 -0.320542 0.194121 -0.33779 -0.545588 -2.58665 -3.54116
9358 0.012156 0.218056 -0.421228 -0.0300751 -0.334925 -0.0840386 -0.107209 -0.687873 -3.10223 -3.49867
2877 0.285169 0.342062 -0.104184 -0.321337 -0.253371 -0.396894 -0.543855 -0.654182 -3.31865 -3.00361
3387 -0.0598113 0.308715 -0.205241 -0.330346 -0.207797 -0.0879852 -0.357887 -0.546271 -2.84973 -3.47641
8976 0.120235 0.396782 -0.529171 0.148969 -0.369411 0.0284101 0.106561 -0.769934 -2.97404 -3.32324
7144 0.0560783 0.435442 -0.491346 0.136526 -0.364071 0.0761337 0.107442 -0.80037 -3.08803 -3.207
9132 0.0746173 0.10093 -0.143681 -0.0476918 -0.449764 0.0794117 -0.0452604 -0.72619 -2.79116 -2.49922
9674 0.068301 0.341816 -0.369572 -0.00581782 -0.266959 -0.0155749 -0.009972 -0.800062 -2.94726 -3.50531
9807 0.379026 0.351962 -0.407081 -0.151853 -0.206934 0.107552 0.00275457 -0.77816 -2.64759 -2.86703
3704 0.071776 0.191298 -0.38481 -0.121462 -0.659831 0.182251 -0.434494 -0.527729 -2.7949 -3.42937
5916 0.138779 0.549979 -0.289922 -0.281389 -0.397954 0.0185004 -0.623787 -0.568654 -2.73236 -3.28496
7149 0.0454795 0.180559 -0.270227 -0.172579 -0.351641 0.0886138 -0.168013 -0.627106 -2.76883 -3.52574
6176 0.127944 0.467011 -0.386867 -0.104081 -0.555454 0.152217 -0.46014 -0.561741 -2.76109 -3.25632
8315 0.097469 0.121232 -0.301856 -0.123289 -0.386688 0.160644 0.0354151 -0.739581 -2.63036 -3.58813
7113 0.477985 0.366751 -0.292021 -0.323459 -0.58336 0.132481 -0.399703 -0.71737 -2.32333 -2.96072
1675 0.550183 0.284547 -0.484419 -0.23526 -0.401386 -0.333509 -0.432546 -0.477726 -2.06929 -2.908
2419 0.151895 -0.023749 -0.465595 -0.020366 0.199816 0.00599117 -0.430951 -0.533744 -2.5313 -3.74767
4265 0.239817 -0.154475 -0.337788 0.155247 -0.333148 -0.0745271 -0.407486 -0.604702 -3.00355 -3.41064
1151 0.218342 0.121048 -0.374736 -0.0365045 -0.13232 -0.0765387 -0.439866 -0.547493 -2.34437 -3.61724
2622 0.0342177 0.0190168 -0.224152 -0.203464 -0.581299 0.127731 -0.473054 -0.543038 -2.9921 -3.47644
5293 0.216644 0.412091 -0.63403 0.0807522 -0.263318 0.140461 -0.19057 -0.621483 -2.79869 -3.39132
7820 0.235502 0.496958 -0.452048 -0.0244867 -0.664962 0.0525066 -0.233749 -0.708348 -2.42405 -3.09757
7800 0.141874 0.351339 -0.352083 -0.11785 -0.704715 0.0718035 -0.245712 -0.67405 -2.6783 -3.20267
4231 0.105445 -0.0248623 -0.31312 -0.151761 -0.457101 -0.00468983 -0.179389 -0.666033 -2.90896 -3.31219
7218 0.107512 0.332736 -0.349438 -0.000969469 -0.55842 -0.0710216 -0.123397 -0.76817 -2.72095 -3.36978
486 0.444343 0.0849147 -0.0440837 -0.199525 -0.29643 -0.135811 -0.208249 -0.700989 -2.60818 -2.68678
5747 0.152833 -0.18074 -0.237326 -0.0833891 -0.415493 -0.00891609 -0.373324 -0.549765 -3.04083 -3.36571
5789 0.215101 -0.0589008 -0.239465 -0.339548 -0.474977 0.267677 -0.444517 -0.535965 -2.79229 -3.35517
4247 0.209618 -0.272266 -0.298672 -0.0576016 -0.58694 0.167663 -0.275797 -0.61193 -2.96998 -3.26264
5296 0.340752 -0.0196726 -0.334312 -0.0494436 -0.358084 0.283914 -0.54442 -0.4872 -2.92225 -3.35388
6807 -0.0143153 0.128308 -0.481338 -0.0691121 0.111974 0.235835 -0.319193 -0.569452 -2.70546 -3.63314
7638 0.501354 0.251468 -0.44237 -0.141181 -0.584678 0.130531 -0.205192 -0.553779 -2.26978 -2.63591
758 0.485312 0.259153 -0.265313 -0.232715 -0.405617 -0.119601 -0.22846 -0.635311 -2.29715 -2.92967
2126 0.0229357 0.444784 -0.0864152 -0.482432 -0.478334 -0.662084 -0.582325 -0.55638 -3.42161 -3.15963
4041 0.604948 0.234747 -0.210627 -0.327523 -0.47338 0.00449204 -0.20976 -0.790017 -2.75235 -2.8153
2159 0.29573 0.20609 -0.292926 0.0352213 -0.772532 -0.24352 -0.323161 -0.627408 -2.30532 -2.87913
1740 0.104281 0.148173 -0.44336 0.184263 -0.581304 -0.148937 -0.206007 -0.643411 -2.88872 -3.42205
3607 0.349351 0.00954222 -0.442407 0.013848 -0.404473 -0.256943 -0.344695 -0.616804 -2.9991 -3.39531
9031 0.219435 0.485065 -0.313849 -0.122089 -0.226768 -0.0498676 0.0949 -0.661139 -2.62419 -2.75157
9153 -0.037918 0.242178 -0.420808 -0.0696739 -0.393175 -0.0442192 0.0978024 -0.750639 -3.22214 -3.30344
2781 0.175539 0.200833 -0.569342 0.0933125 -0.727124 0.192945 -0.164963 -0.699998 -2.81226 -3.15269
6943 0.0166088 0.214622 -0.318356 -0.0597835 -0.69376 0.106407 -0.0543181 -0.730647 -2.93493 -3.42419
6488 -0.0288123 0.330768 -0.225171 -0.0561776 -0.38634 0.228988 -0.374633 -0.593402 -2.74947 -3.5007
5997 0.0890237 0.0731383 -0.224294 -0.27911 -0.727818 0.172228 -0.0453982 -0.695004 -2.82439 -3.1812
5616 0.40713 0.151862 -0.483664 -0.16171 -0.595336 0.231147 0.308224 -0.704042 -2.52376 -3.13262
1229 0.419799 -0.0290195 -0.404917 -0.340065 -0.238003 -0.241736 -0.0484984 -0.605433 -2.76275 -3.33336
2668 0.357569 -0.0302104 -0.447679 -0.0026476 -0.479861 -0.0694772 -0.324742 -0.675493 -2.60634 -2.97611
2606 0.17126 -0.0405394 -0.277581 -0.0516702 -0.252187 -0.0624174 -0.217442 -0.639543 -2.78003 -3.51318
3204 0.227772 -0.240034 -0.356522 0.005362 -0.283734 -0.14664 -0.261648 -0.59687 -3.07809 -3.28986
3128 0.00705224 0.314659 -0.224532 -0.0767451 -0.565548 0.0258856 -0.26143 -0.676367 -2.92051 -3.27745
755 0.142345 0.0354805 -0.333595 -0.0203916 -0.466976 0.155142 -0.405186 -0.580134 -2.90119 -3.34309
5330 0.277504 0.246197 -0.322157 -0.174859 -0.642493 0.233641 -0.609437 -0.477738 -2.59921 -3.12101
5548 0.285093 -0.130155 -0.319651 0.0793004 -0.325213 0.169764 -0.665899 -0.447337 -2.94573 -3.27965
5702 0.21746 0.504105 -0.526252 -0.0737591 -0.451179 0.30882 -0.5324 -0.484961 -2.77317 -3.31978
6102 0.139334 0.269249 -0.35204 -0.300869 -1.01142 0.0589726 -0.20854 -0.733307 -2.65128 -2.97469
5033 0.732965 0.173312 -0.26753 -0.160133 -0.496244 0.15984 -0.508728 -0.652016 -2.17233 -2.76579
4316 0.473127 -0.116967 -0.378222 -0.2614 -0.397802 0.143923 -0.32962 -0.560138 -2.87958 -3.24211
4522 0.0959227 0.162442 -0.30836 -0.0787495 -0.517898 0.0918106 -0.0671683 -0.794477 -2.78865 -3.25822
6513 0.00257484 0.0514332 -0.276718 -0.142625 -0.577391 0.216429 -0.172492 -0.682654 -2.71479 -3.44166
5992 0.100593 -0.00798136 -0.269548 -0.140508 -0.658328 0.0618023 -0.213498 -0.701985 -2.67851 -3.48829
4931 -0.0148656 0.0848184 -0.257608 -0.211748 -0.547365 0.127462 -0.327432 -0.607518 -3.02022 -3.47867
1503 0.526644 -0.224255 -0.389938 -0.544934 -0.0590975 -0.103338 -0.0594693 -0.574015 -3.05757 -3.46603
5906 0.105823 -0.0411388 -0.225342 -0.385758 -0.393372 0.0600815 -0.106804 -0.671481 -2.96456 -3.48413
3785 0.149107 -0.0119523 -0.164485 -0.302315 -0.488022 -0.0222687 -0.14164 -0.676841 -3.04472 -3.27225
6770 0.231042 0.230911 -0.244741 -0.522283 -0.287172 0.113128 0.176035 -0.827223 -2.95614 -3.38747
6667 0.47069 0.353728 -0.265146 -0.666862 -0.425895 0.0658625 -0.0739201 -0.666175 -2.91079 -3.03262
8743 0.597448 -0.01246 -0.419972 -0.725598 -0.303348 0.102768 0.144064 -0.607475 -2.56207 -2.76637
4649 0.177347 0.156577 -0.734693 -0.121289 -0.0789633 -0.0316514 -0.205184 -0.441155 -1.54237 -2.11744
517 0.204704 0.0351659 -0.248796 -0.0557865 -0.15013 -0.615893 -0.283915 -0.61739 -2.33947 -3.63988
807 0.155471 0.161311 -0.380131 -0.118272 -0.215838 -0.327668 -0.271374 -0.627607 -2.57495 -3.5979
3266 0.210806 0.0642077 -0.170339 -0.246436 -0.362371 0.0673216 -0.378839 -0.588961 -2.86521 -3.39766
3841 0.13588 0.0780402 -0.102161 -0.431147 -0.184561 0.0723516 -0.108209 -0.708273 -3.19862 -3.2121
8615 0.0870637 0.414017 -0.483701 -0.0568233 -0.230826 0.120651 -0.250908 -0.670011 -2.97942 -3.52468
5030 0.227087 -0.248097 -0.257733 -0.0818222 -0.28859 -0.1034 -0.298199 -0.60097 -3.2111 -3.36272
4849 0.227577 -0.136116 -0.27492 -0.0316274 -0.298751 0.167865 -0.234318 -0.64754 -2.91289 -3.33767
7702 -0.0432309 0.187841 -0.205254 -0.213264 -0.263503 0.131977 0.00444356 -0.716103 -2.9728 -3.49179
2887 0.274755 0.182594 -0.241748 -0.141734 -0.393284 -0.00472707 -0.311864 -0.644061 -2.72935 -3.21492
7347 0.304667 0.578009 -0.499442 0.0275376 -0.281441 0.069169 -0.212334 -0.673553 -2.48962 -3.24553
9526 0.0225976 0.206495 -0.372602 -0.172009 -0.263966 -0.0233424 -0.172446 -0.657331 -2.99202 -3.60764
7939 0.185688 0.479831 -0.284927 -0.37235 -0.502743 -0.0396502 -0.21653 -0.690467 -2.43765 -3.16083
3462 0.277932 -0.202471 -0.265224 -0.0226605 -0.296783 0.10488 -0.235919 -0.641646 -3.10976 -3.21847
5700 0.198015 -0.250423 -0.27745 -0.0863039 -0.307567 -0.0422962 -0.439835 -0.521657 -3.08797 -3.41437
2748 0.601747 -0.0869452 -0.628909 -0.336854 0.000691945 -0.0356054 -0.440522 -0.391595 -2.78996 -3.18747
1303 0.440529 0.149 -0.140163 -0.614744 -0.351915 -0.490868 -0.115659 -0.664329 -2.65303 -3.28617
4507 0.190781 -0.185429 -0.321605 0.0191526 -0.371156 -0.0343107 -0.40278 -0.563188 -3.09582 -3.34594
8814 0.015222 0.244347 -0.33428 -0.0201213 -0.326865 0.0766385 0.16394 -0.785722 -2.97806 -3.26708
5707 0.302606 -0.122871 -0.246974 -0.387952 -0.523733 0.170232 -0.43312 -0.466793 -2.83086 -3.12957
5142 -0.0969905 -0.00204573 -0.201808 -0.028546 -0.506264 0.0319679 -0.196744 -0.68399 -3.0135 -3.42682
8483 -0.148382 0.169774 -0.182549 -0.0487133 -0.677868 -0.00373085 -0.13588 -0.723558 -2.80679 -3.42865
134 0.495399 0.68925 -0.501315 -0.287803 -0.666685 0.0661396 -0.293631 -0.623472 -2.48829 -2.94445
10231 0.557001 0.307995 -0.567721 -0.316845 -0.666569 -0.0941969 -0.15399 -0.620562 -2.31831 -2.87222
7607 0.464268 0.161174 -0.339432 -0.53625 -0.616552 0.172226 0.0540331 -0.817978 -2.62025 -3.49255
8707 0.441014 0.262152 -0.293101 -0.69521 -0.311809 0.149807 0.167848 -0.813341 -2.57787 -3.41814
6609 0.479839 0.33919 -0.248971 -0.579572 -0.211484 0.179763 0.245387 -0.818797 -2.49749 -2.90875
2197 0.51392 0.337067 -0.403925 -0.306458 -0.674325 -0.141716 -0.434688 -0.569178 -2.42627 -3.00204
1315 0.160431 0.00495147 -0.291089 -0.0278464 -0.81781 -0.494376 -0.203916 -0.639289 -2.1862 -3.32287
952 0.726533 0.252219 -0.572209 -0.301614 -0.327446 -0.415056 -0.376114 -0.607671 -2.29585 -3.28094
4287 0.341985 0.237878 -0.560086 0.211842 -0.420275 0.141882 -0.497705 -0.575895 -2.87833 -3.25677
2928 0.188328 0.0077459 -0.324803 0.0130589 -0.34538 -0.118905 -0.511532 -0.543621 -3.13669 -3.37566
4597 0.567032 -0.0954537 -0.433469 0.0516609 -0.427971 0.1183 -0.427304 -0.608697 -2.75212 -3.10028
2712 0.328215 0.106415 -0.393952 -0.158388 -0.386146 -0.00107552 -0.510197 -0.414777 -2.35464 -3.39889
2803 0.277052 -0.0256719 -0.349476 0.0261183 -0.289417 -0.426494 -0.358519 -0.639718 -2.86343 -3.88983
4123 0.630549 0.196318 -0.334096 0.0661088 -0.30172 -0.0323558 -0.499659 -0.66335 -2.38488 -2.94469
1278 0.513649 -0.233855 -0.597793 0.15969 -0.732935 0.143563 0.0734625 -0.78423 -2.58266 -3.25429
1297 0.284929 0.251208 -0.355036 -0.0308688 -0.743479 -0.153528 -0.385887 -0.591984 -2.46315 -3.15983
867 0.0716875 0.0755763 -0.235921 -0.228121 -0.481234 -0.644618 -0.163417 -0.640799 -2.94059 -3.78354
870 0.585272 0.217619 -0.337539 -0.24775 -0.217298 -0.195647 -0.212926 -0.563868 -2.56165 -2.91541
9997 0.0651343 0.183996 -0.469989 -0.053074 -0.240567 0.0512366 -0.00636498 -0.685089 -3.1096 -3.49953
1542 0.226637 -0.0564832 -0.31352 -0.0140202 -0.574096 -0.337278 -0.0293161 -0.747555 -2.82057 -3.27925
3103 0.256427 -0.0410238 -0.276813 -0.0524394 -0.466145 -0.170483 -0.267953 -0.617597 -3.11014 -3.0926
4550 0.405341 -0.234751 -0.424982 0.060577 -0.483168 -0.02991 -0.16547 -0.68418 -2.5667 -3.20859
4243 0.534793 0.180787 -0.603416 -0.0181144 -0.570194 -0.0316296 -0.593933 -0.468523 -2.48207 -3.1023
6099 0.129491 0.270111 -0.460375 -0.0277294 -0.587616 0.0610584 -0.213522 -0.554828 -2.78908 -3.2347
5927 0.0534036 0.118093 -0.38419 -0.109444 -0.41284 0.284843 -0.644861 -0.459605 -2.84938 -3.51067
5615 0.0791555 0.353399 -0.429825 0.139344 -0.717525 0.0587622 -0.463981 -0.552873 -2.73922 -3.25312
7515 -0.0424293 0.275167 -0.434893 0.138529 -0.734659 0.166391 -0.143471 -0.708767 -2.89564 -3.4382
6156 0.153728 0.186289 -0.22382 -0.17834 -0.522173 0.248774 -0.524773 -0.535906 -2.83349 -3.45739
7091 0.315176 0.365961 -0.392064 -0.294768 -0.227011 0.188775 -0.245182 -0.604289 -2.66583 -3.13126
5393 0.333795 -0.222675 -0.31805 -0.0818515 -0.324547 0.131444 -0.399755 -0.555874 -3.11059 -3.23818
295 0.116765 -0.051762 -0.300802 -0.0447216 -0.413463 0.290844 -0.546212 -0.479481 -2.88309 -3.36823
1272 0.467721 0.0397589 -0.311946 -0.0632355 -0.317632 -0.19266 -0.154918 -0.726614 -2.66171 -3.13963
4020 0.128174 -0.165588 -0.331536 0.160105 -0.626453 -0.106889 -0.361814 -0.595727 -3.1061 -3.18531
2268 0.425494 0.137123 -0.332198 -0.0076962 -0.652609 -0.396274 -0.292056 -0.66506 -2.6016 -3.21994
1284 0.0697396 -0.0269623 -0.269318 0.0313733 -0.458704 -0.317641 -0.206218 -0.650531 -3.02294 -3.39988
2338 0.152691 -0.0135333 -0.233559 -0.0460414 -0.346109 -0.527662 -0.264565 -0.64532 -2.95791 -3.50944
556 0.0956876 1.1844e-05 -0.347266 -0.00815206 -0.154476 0.0385793 -0.262147 -0.597764 -2.7958 -3.56624
4599 0.284104 -0.0102799 -0.327777 0.0935146 -0.308937 -0.15024 -0.52176 -0.54879 -3.12673 -3.3317
6797 0.156687 0.0903032 -0.221307 0.0213205 -0.779313 0.107975 0.0582857 -0.699638 -2.66961 -2.88752
10180 0.463034 0.535373 -0.655484 -0.0385363 -0.280204 0.0448945 -0.251633 -0.584574 -2.7625 -2.95516
10039 0.412556 0.355588 -0.752691 0.091396 -0.235937 0.0615873 -0.0610084 -0.553219 -2.75489 -2.87588
8979 0.172215 0.103609 -0.458927 -0.292051 0.00191343 0.0104404 0.0205645 -0.594083 -3.2369 -3.41759
9755 0.245828 0.433631 -0.443143 -0.334576 0.131125 0.122392 0.0981158 -0.713002 -2.98192 -3.23924
3700 0.441347 0.0249953 -0.330791 0.105175 -0.348637 0.0619989 -0.5919 -0.578915 -2.97106 -3.07777
8513 -0.0885516 0.404846 -0.374814 -0.0378342 -0.490218 -0.0618137 -0.363729 -0.597508 -2.83898 -3.44459
6237 0.349944 0.369607 -0.202172 -0.197074 -0.675226 0.207783 -0.628801 -0.59 -2.59066 -3.2667
6372 0.183636 0.0778921 -0.363981 -0.128205 -0.778452 0.0670767 -0.459889 -0.594775 -2.77646 -3.32956
586 0.382398 0.112516 -0.46045 0.0839652 -0.704253 -0.00593817 -0.23906 -0.765874 -2.78079 -3.09813
6159 0.222556 0.128683 -0.412214 0.0197499 -0.592269 0.231215 -0.625672 -0.448026 -2.56184 -3.37593
7098 0.074474 0.232418 -0.37966 -0.190034 -0.2893 0.0756186 -0.142021 -0.624118 -3.14804 -3.5345
8973 0.270795 0.304797 -0.445945 -0.0974533 -0.410237 -0.130977 -0.146789 -0.669687 -2.74056 -3.29896
996 0.149057 -0.0526278 -0.242812 -0.0254844 -0.333472 -0.115148 -0.229476 -0.663321 -2.87641 -3.42534
6961 0.40277 0.243149 -0.145464 -0.772116 -0.306688 0.158953 0.00167957 -0.798807 -2.9427 -3.35453
7869 0.168876 0.347348 -0.237356 -0.334795 -0.648879 0.214147 -0.472447 -0.513684 -2.16968 -3.06934
2665 0.0729476 0.051336 -0.2245 -0.201072 -0.433823 0.119708 -0.100216 -0.715622 -2.96006 -3.37494
2790 0.322837 -0.0370091 -0.425548 0.252241 -0.620268 0.132157 -0.328931 -0.683801 -2.86359 -3.15511
5340 0.186129 -0.208891 -0.328525 0.0981451 -0.417681 0.0981218 -0.424686 -0.603857 -3.05572 -3.21949
9141 0.0874511 0.459179 -0.52102 -0.132451 -0.355441 0.016985 -0.251202 -0.62736 -2.67663 -3.15599
9324 0.0100895 0.178479 -0.600612 0.243773 -0.299503 -0.00657097 0.166412 -0.661586 -2.67207 -3.09142
9162 0.111619 0.431407 -0.540288 0.248626 -0.339235 0.0532658 -0.0379379 -0.696106 -2.87958 -3.1998
1257 0.365469 0.255122 -0.39194 0.0154763 -0.525841 -0.140666 -0.386686 -0.617268 -2.74892 -3.27424
377 0.173631 -0.204757 -0.338842 0.0358442 -0.71822 -0.208029 0.157437 -0.813853 -2.73114 -3.45817
6969 0.0625033 0.265178 -0.49583 0.0956671 -0.7339 0.142959 -0.0138367 -0.75144 -2.79052 -3.3356
3560 0.360688 -0.0614414 -0.350924 0.00920104 -0.217861 -0.198847 -0.42202 -0.60096 -3.18989 -3.37535
458 0.147421 0.0815456 -0.342202 -0.100889 -0.165534 0.307412 -0.277281 -0.616665 -2.68904 -3.61073
6062 0.397681 0.244986 -0.308333 -0.132145 -0.513329 0.0740136 -0.512807 -0.58999 -2.54669 -3.17168
2504 0.417609 0.213371 -0.241638 -0.0695547 -0.196044 -0.263818 -0.407993 -0.650064 -2.42912 -3.02715
3894 0.409759 -0.0407088 -0.304858 0.216652 -0.396807 0.0296449 -0.39955 -0.716209 -2.89762 -3.16477
1165 0.144114 0.0100886 -0.259848 0.000351196 -0.254009 -0.0359954 -0.291339 -0.636541 -2.88374 -3.47514
1783 0.00217211 0.382613 -0.0928576 -0.322035 -0.599942 -0.641167 -0.455332 -0.614538 -3.64737 -3.14979
4862 0.0150883 0.250613 -0.100069 -0.468946 -0.411548 -0.275342 -0.760206 -0.475607 -3.53325 -3.1184
5443 -0.056891 0.291333 -0.0841032 -0.286232 -0.739571 -0.290867 -0.613481 -0.609538 -3.6723 -3.10966
7110 0.273237 0.432625 -0.15022 -0.419425 -0.682793 -0.14364 -0.664272 -0.4622 -2.57005 -2.68923
670 0.408691 0.479183 -0.340359 -0.373231 -0.491983 0.236634 -0.546592 -0.525726 -2.77377 -2.96156
6189 0.540907 0.385196 -0.217574 -0.32525 -0.779863 0.251938 -0.313966 -0.682679 -2.35037 -2.78559
2830 0.147766 -0.0579425 -0.214258 -0.310826 -0.257673 0.153155 -0.315541 -0.542173 -2.92802 -3.46208
830 0.268909 -0.0216801 -0.301037 -0.108554 -0.547716 -0.406823 -0.0443932 -0.748399 -2.70851 -3.35513
711 0.420679 0.112622 -0.197451 -0.197121 -0.48126 -0.271117 -0.163456 -0.72537 -2.45307 -3.22545
8387 0.0280116 0.267162 -0.355773 -0.189159 -0.286945 0.040366 -0.176491 -0.676732 -2.95687 -3.46175
4360 0.368025 -0.117127 -0.360687 -0.114602 -0.439474 0.152128 -0.16145 -0.684957 -3.11289 -3.1863
9607 0.0353281 0.181441 -0.595291 0.182927 -0.317688 0.143004 0.011417 -0.679552 -3.10301 -3.41483
6886 -0.104386 0.146633 -0.187317 -0.191593 -0.584357 0.208314 -0.481489 -0.532821 -2.86893 -3.53483
7079 0.111702 0.363752 -0.31513 -0.163798 -0.654871 0.165617 -0.282807 -0.713955 -2.61171 -3.28751
306 0.0320375 0.0868505 -0.101439 -0.328508 -0.563817 0.235066 -0.439212 -0.561744 -2.73697 -3.35484
2085 0.115285 -0.0127712 -0.285197 -0.107 -0.348044 -0.051381 -0.376491 -0.561579 -2.98091 -3.38653
4802 0.28979 0.19435 -0.354636 0.0672871 -0.21289 0.0564506 -0.640932 -0.468951 -2.81052 -3.18359
4431 0.344729 -0.011271 -0.377796 -0.00625311 -0.294439 0.206584 -0.417019 -0.58683 -2.76403 -3.29149
3681 0.209035 -0.117742 -0.404514 0.127405 -0.409784 -0.030727 -0.268249 -0.587233 -3.01018 -3.2454
4047 0.107656 0.219652 -0.165381 -0.320195 -0.408713 -0.0131781 -0.397005 -0.621314 -3.3008 -3.00459
2847 0.19836 0.230587 -0.524597 0.271223 -0.633072 -0.250404 -0.279174 -0.59399 -2.6544 -3.06299
7735 0.0323589 0.10783 -0.373905 -0.17246 0.12036 0.182261 -0.112584 -0.610826 -2.68089 -3.83634
3223 0.3549 0.384426 -0.292464 -0.159937 -0.637055 0.31479 -0.511513 -0.579355 -2.63983 -3.2801
7132 -0.0788959 0.312637 -0.419132 -0.0199329 -0.318955 0.0421252 -0.228624 -0.590527 -3.02192 -3.53992
1321 0.514288 0.223592 -0.270052 -0.296956 -0.380374 0.0352005 0.00933885 -0.887734 -2.69839 -3.20664
4928 0.0590727 -0.167713 -0.434328 0.125393 -0.427952 0.14467 -0.253125 -0.609951 -2.93984 -3.31468
8262 0.121764 0.240598 -0.238543 -0.338895 -0.502002 0.146635 0.0691386 -0.795468 -2.7416 -3.37475
3582 0.290637 0.0893113 -0.0197021 -0.772753 -0.190838 0.0936099 0.349894 -0.931251 -3.14283 -3.44632
4433 0.214677 0.172112 -0.427098 0.0802723 -0.245629 0.223976 -0.32904 -0.643427 -2.78001 -3.4137
8647 -0.120379 0.0923124 -0.539356 0.133175 -0.0671168 0.102726 -0.167792 -0.570039 -2.79908 -3.62889
9799 0.118799 0.25332 -0.640186 0.0270802 -0.113304 0.0206873 0.00855834 -0.520497 -1.74618 -1.91183
173 0.316551 0.105216 -0.671915 -0.148243 -0.697828 0.0652737 0.305088 -0.745126 -2.63014 -3.14731
8233 0.196067 0.296786 -0.415927 -0.0858841 -0.519656 0.121697 -0.35736 -0.584518 -2.45738 -3.19189
1746 0.483941 0.199574 -0.142421 -0.666437 -0.437112 -0.251515 0.134485 -0.826862 -2.81361 -3.28667
2933 0.661847 0.0568706 -0.50799 0.147429 -0.537333 -0.0458538 -0.557584 -0.533395 -2.90791 -2.9455
4660 0.421015 -0.0611478 -0.431607 0.0740102 -0.697334 0.10227 -0.332388 -0.651154 -2.83921 -3.14296
3397 0.323759 -0.0739965 -0.273212 -0.0141419 -0.304919 0.0121168 -0.479156 -0.584409 -3.10113 -3.26106
5684 0.167714 0.225979 -0.470987 -0.118543 -0.348061 0.313008 -0.479427 -0.481892 -2.90345 -3.35005
8625 0.498818 0.483365 -0.484873 -0.234335 -0.3871 0.0662303 0.0118877 -0.779006 -2.15388 -2.57769
8237 -0.0439016 0.301425 -0.243477 -0.0285906 -0.452981 0.242068 -0.253701 -0.696947 -2.6588 -3.4481
8810 0.073945 0.210498 -0.332702 -0.212118 -0.399126 0.0579381 -0.359808 -0.575007 -2.74327 -3.53807
4168 0.606278 0.247682 -0.470197 -0.00504008 -0.605475 0.153963 -0.597995 -0.547007 -2.62286 -3.09975
5256 0.0885579 0.166705 -0.447272 -0.0870106 -0.219213 0.19467 -0.200142 -0.58869 -3.06374 -3.45546
6963 0.207585 0.283459 -0.469644 -0.291524 -0.106858 0.131194 -0.306042 -0.53768 -2.91545 -3.36929
8547 0.24831 0.550208 -0.51639 -0.0966611 -0.44648 0.048288 -0.36892 -0.573965 -3.0933 -2.92378
1387 0.443999 0.193969 -0.451544 -0.0501071 -0.475911 -0.26299 -0.425962 -0.570916 -2.62096 -3.31544
453 0.450528 0.240081 -0.245025 -0.139671 -0.215839 -0.498143 -0.174659 -0.605699 -2.21306 -3.01867
4069 0.529161 -0.0484729 -0.307613 -0.196834 -0.139973 -0.0431428 -0.322898 -0.624194 -2.95102 -3.33441
459 0.281808 0.199302 -0.388486 0.0912087 -0.542599 -0.289364 -0.176566 -0.685568 -2.77438 -3.27546
3027 0.369617 0.0302274 -0.287771 0.0636707 -0.0358659 -0.15558 -0.44755 -0.606005 -2.77895 -3.39599
3316 0.345512 0.250639 -0.37917 -0.130984 -0.364566 -0.0248104 -0.340398 -0.615809 -2.76639 -3.08912
5682 0.313022 0.472794 -0.0684055 -0.433992 -0.553147 0.0808138 -0.572618 -0.518115 -2.59131 -2.98139
2785 0.742723 -0.0462875 -0.52389 -0.639465 -0.0407866 -0.116944 -0.384112 -0.424128 -2.81511 -3.24271
1125 0.626959 -0.194021 -0.497506 -0.553249 -0.00193383 -0.321089 -0.172003 -0.454007 -2.76083 -3.43557
9211 -0.0217781 0.162744 -0.534804 0.242245 -0.675188 0.0117143 0.0435449 -0.690878 -2.90399 -3.00387
6621 0.450958 0.378262 -0.54853 0.0215098 -0.427342 0.194851 -0.0969629 -0.781319 -2.33667 -2.5685
10021 0.314554 0.430019 -0.605879 0.0503436 -0.347315 0.124221 -0.125032 -0.726984 -2.77869 -3.01864
3294 0.377713 0.499912 -0.45861 -0.0153734 -0.574661 0.0311364 -0.601701 -0.569113 -2.67404 -3.17855
2638 -0.0175594 0.0978736 -0.223247 -0.181215 -0.49144 0.0449704 -0.238214 -0.666198 -2.92279 -3.51197
3830 0.130012 -0.0212662 -0.303276 -0.167774 -0.274918 0.0498256 -0.367846 -0.569414 -3.0396 -3.52534
2062 0.060121 -0.0104721 -0.154097 -0.0159882 -0.49336 -0.510618 -0.133961 -0.669064 -2.97018 -3.40738
231 0.319353 0.105214 -0.190191 -0.23064 -0.403127 -0.348151 -0.246158 -0.643451 -2.91324 -3.27171
1725 0.0823299 0.0568715 -0.220422 -0.221228 -0.372221 -0.367361 -0.0972086 -0.673394 -2.67792 -3.71419
400 0.1972 0.135098 -0.298715 -0.0301851 -0.30072 -0.343143 -0.131136 -0.649869 -2.41032 -3.58894
794 0.184755 0.125959 -0.280537 -0.0969903 -0.357969 -0.16081 -0.161133 -0.641937 -2.71084 -3.3305
4908 0.207743 -0.145093 -0.330317 0.131269 -0.558978 -0.0135282 -0.302408 -0.63288 -3.02809 -3.28922
5846 0.435565 0.200322 -0.365721 -0.16321 -0.905586 0.27407 -0.395334 -0.699308 -2.68676 -3.02991
9123 -0.0900605 0.288419 -0.211271 -0.136295 -0.404489 -0.120927 -0.138518 -0.719488 -2.96576 -3.30439
2210 0.291296 0.174456 -0.365092 -0.0737078 -0.436863 -0.113333 -0.39843 -0.55836 -2.7091 -3.47024
1362 0.294339 0.111672 -0.337676 0.0242002 -0.490963 -0.159966 -0.206729 -0.727797 -2.82905 -3.21954
3858 0.254902 -0.0396834 -0.22964 -0.0371262 -0.34645 -0.250293 -0.382602 -0.609261 -3.1718 -3.43451
3296 0.310693 0.0503266 -0.356396 -0.021771 -0.531653 0.177392 -0.469714 -0.610105 -2.86911 -3.30901
3000 0.274159 -0.117834 -0.39092 0.0277112 -0.310461 -0.357091 -0.186548 -0.599046 -2.74276 -3.43338
697 0.520002 -0.079562 -0.416148 -0.160534 -0.464706 -0.155378 -0.0600128 -0.78198 -2.39767 -3.36442
3011 0.524946 0.217022 -0.165084 -0.407889 -0.432408 -0.288442 -0.165304 -0.444816 -1.90607 -2.32942
1597 0.147164 0.100693 -0.241823 -0.0894387 -0.627593 0.0361866 -0.357653 -0.657068 -2.77839 -3.36718
8476 -0.00574678 0.224091 -0.310703 -0.181873 -0.252894 0.109671 -0.19582 -0.624872 -2.93542 -3.60873
4920 0.585885 -0.0361193 -0.281415 0.0647244 -0.351766 0.304584 -0.430489 -0.677384 -2.71137 -3.07598
3451 0.228284 0.117713 -0.440502 0.156367 -0.643169 0.091698 -0.38292 -0.645461 -2.73953 -3.19516
1856 0.526688 0.0832753 -0.232144 -0.19387 -0.478579 -0.193478 -0.0859636 -0.668862 -2.42371 -3.12688
2084 0.185633 -0.241995 -0.308848 -0.0580287 -0.774343 -0.30427 0.414817 -0.915493 -2.74912 -3.62155
2457 0.0872846 0.0978482 -0.158415 -0.0926216 -0.337389 -0.696785 -0.0989301 -0.628782 -2.66937 -3.28889
2655 0.598823 0.0814044 -0.260355 -0.17421 -0.351393 -0.339033 -0.304329 -0.64835 -2.66569 -3.0571
1652 0.111699 0.0537758 -0.320411 -0.0538865 -0.607277 -0.73249 -0.150408 -0.629834 -2.70209 -3.41484
1627 0.289327 -0.0677278 -0.344119 0.129547 -0.50052 -0.33709 -0.045899 -0.709949 -2.63133 -3.51482
1653 0.209196 -0.0736684 -0.339378 0.158818 -0.544005 -0.423996 -0.126534 -0.718618 -2.72818 -3.42232
1464 0.143244 0.230745 -0.224729 -0.311231 -0.491945 -0.732947 -0.217811 -0.733603 -2.90521 -3.92779
910 0.627139 -0.0695857 -0.478857 -0.597683 -0.102924 -0.305899 -0.136613 -0.42992 -2.563 -3.24324
7762 0.241106 0.449056 -0.401844 -0.0180373 -0.770825 0.122354 -0.334738 -0.633128 -2.62327 -3.311
8504 0.0707518 0.525314 -0.421084 -0.0757651 -0.328911 -0.000596435 -0.197523 -0.656772 -2.71288 -3.08711
9194 0.180723 0.528946 -0.593184 0.165324 -0.352506 0.117725 -0.305862 -0.578031 -2.86155 -3.13964
8775 0.136072 0.142613 -0.521503 -0.19412 0.000845892 0.16607 -0.110658 -0.60141 -3.13565 -3.60609
8820 0.140743 0.592096 -0.60823 -0.0777853 -0.239396 0.112606 -0.515021 -0.467394 -2.74803 -3.27628
4335 0.376718 0.260037 -0.498157 0.106025 -0.284508 0.111292 -0.564006 -0.577462 -2.74459 -3.30761
9077 -0.0240717 0.525881 -0.47292 0.0235611 -0.333545 0.0703065 -0.515177 -0.54877 -3.03866 -3.44497
2919 0.436701 0.220841 -0.482432 0.188738 -0.473509 0.128983 -0.633291 -0.583606 -2.60966 -3.20958
8760 0.14284 0.366518 -0.636007 0.169394 -0.4197 -0.0649872 0.17603 -0.823542 -2.78877 -2.94399
9373 -0.112757 0.346094 -0.447808 0.175862 -0.660911 0.0203836 -0.0625683 -0.777758 -2.94339 -3.40231
1189 0.286465 0.185311 -0.302456 -0.0584367 -0.342062 -0.434214 -0.027539 -0.722886 -2.75097 -3.1628
1172 0.264405 -0.0480264 -0.39047 0.0707318 -0.552263 -0.0588505 -0.455008 -0.553921 -3.05412 -3.24176
8367 -0.037952 0.201188 -0.2041 -0.165563 -0.564644 -0.0090257 -0.142596 -0.665011 -2.82971 -3.46037
6754 0.141812 0.00609436 -0.345009 -0.148317 -0.779223 0.128272 0.0625555 -0.819916 -2.80353 -3.33716
534 -0.0954108 0.244343 -0.366319 0.058362 -0.296016 0.12842 0.0664052 -0.776643 -3.0615 -3.44953
6970 0.291664 0.137527 -0.00167054 -0.951572 -0.32786 0.239344 0.136963 -0.80413 -2.91399 -3.25079
8270 0.115272 0.0181258 -0.204992 -0.29985 -0.518779 0.054826 -0.174122 -0.681094 -2.95168 -3.62883
2776 0.270209 0.0495943 -0.253499 -0.00610641 -0.252705 -0.151319 -0.143344 -0.677953 -2.85149 -3.41001
7614 0.148442 0.26127 -0.398076 -0.0287386 -0.359863 0.185938 0.0184814 -0.737543 -2.64416 -3.48025
2792 0.162956 0.0317229 -0.239631 -0.0912508 -0.32913 -0.587203 -0.187914 -0.63241 -2.79008 -3.52592
128 0.144726 0.0597736 -0.254814 -0.170809 -0.370139 -0.0621173 -0.254718 -0.636366 -2.93892 -3.46117
5685 0.139113 -0.214283 -0.297037 -0.0371355 -0.364194 0.0567523 -0.593422 -0.505796 -2.89736 -3.45878
2482 0.520856 0.393213 -0.410325 -0.0766123 -0.447641 -0.00606973 -0.271682 -0.753219 -2.44431 -3.18442
4882 0.218465 -0.125359 -0.222227 -0.113695 -0.379846 0.277883 -0.322983 -0.611244 -2.77081 -3.25125
9105 0.0760396 0.256342 -0.272835 -0.278551 -0.127443 0.19271 -0.146407 -0.675097 -2.9088 -3.56659
6004 0.308044 0.043677 -0.3707 -0.614154 -0.326241 0.352751 -0.402286 -0.440382 -2.90097 -3.23907
4750 0.493768 -0.239719 -0.458107 -0.622859 -0.163664 0.112289 -0.260748 -0.418322 -3.07275 -3.27215
8660 0.338187 -0.0536768 -0.436836 -0.654208 0.0502269 0.00923561 -0.0816096 -0.459325 -2.99429 -3.26653
1352 0.436239 -0.197643 -0.3512 -0.419415 -0.0986704 -0.187843 -0.0631503 -0.564036 -2.82383 -3.48259
6763 0.406939 0.311729 -0.170473 -0.407978 -0.712205 0.168185 -0.231625 -0.654462 -2.43659 -2.99993
6173 0.176345 0.418171 -0.563726 0.125764 -0.682844 0.108478 -0.330301 -0.609813 -2.82316 -3.14566
4820 0.106676 0.185919 -0.273304 -0.259005 -0.22413 0.120012 -0.163434 -0.612927 -3.04025 -3.34373
5793 0.148625 0.148452 -0.0759206 -0.500818 -0.349437 0.108785 -0.163793 -0.697889 -3.08806 -3.16721
3799 0.391582 0.168875 -0.401915 -0.0741284 -0.292855 0.0293006 -0.377222 -0.546932 -2.77657 -3.18369
5020 0.668028 -0.076086 -0.394967 0.0877283 -0.521936 0.131511 -0.447701 -0.7603 -2.88301 -2.86511
7982 0.195853 0.334001 -0.366627 -0.025492 -0.682842 0.257923 -0.0725257 -0.713975 -2.53177 -2.83326
7176 -0.0852162 0.162577 -0.295679 0.0140114 -1.09171 0.102766 -0.257999 -0.643609 -2.8331 -3.31375
9050 -0.0703698 0.339706 -0.423969 0.0567904 -0.417926 0.0872241 -0.148378 -0.671405 -2.9788 -3.29743
3661 0.0582885 0.162165 -0.235806 -0.139888 -0.351431 0.128593 -0.270049 -0.68402 -2.74955 -3.57105
4115 0.243814 0.253034 -0.279856 -0.0891605 -0.680312 0.153409 -0.350094 -0.6656 -2.70406 -3.13733
2666 -0.0110748 0.0674024 -0.172998 -0.195423 -0.70012 -0.0494648 -0.0598401 -0.725457 -2.9787 -3.27392
5842 0.297973 -0.0271797 -0.513706 -0.0507553 -0.903317 0.366941 -0.134287 -0.674973 -2.44618 -3.20716
8990 0.0521696 0.332157 -0.388481 -0.329265 -0.434503 -0.0476088 0.325388 -0.828069 -2.79277 -3.27391
5985 0.17976 0.23712 -0.271549 -0.330821 -0.344245 0.0887465 -0.0257595 -0.674369 -2.97983 -3.2103
9465 0.187429 0.363382 -0.457867 -0.00863454 -0.298261 0.0598926 -0.226766 -0.655217 -3.01454 -3.43244
7917 0.287504 0.32259 -0.500894 -0.169237 -0.17559 0.118424 -0.142261 -0.603172 -2.72543 -3.1756
2190 0.266855 0.0934274 -0.26112 -0.0319745 -0.219369 -0.106228 -0.325979 -0.619244 -2.8573 -3.32254
5460 0.245183 -0.0442928 -0.185197 -0.468717 -0.425882 0.206839 -0.223058 -0.686952 -2.79192 -3.36014
4864 0.357367 -0.0139526 -0.438608 0.0418493 -0.797817 0.28788 -0.341383 -0.611142 -2.78917 -2.91005
5 0.502136 0.0915114 -0.227448 -0.237909 -0.39332 -0.122666 -0.262851 -0.668481 -2.68793 -3.28292
4389 0.506581 0.22691 -0.405578 -0.252777 -0.48686 0.340707 -0.690794 -0.436975 -2.40087 -3.25172
625 0.366619 0.376607 -0.354996 -0.346302 -0.472756 0.255516 -0.380767 -0.658416 -1.99348 -2.67984
1894 0.521098 -0.161074 -0.371899 -0.363188 -0.233304 -0.135796 -0.249688 -0.515066 -2.92759 -3.27428
3883 0.020859 0.34982 -0.08125 -0.507685 -0.544132 -0.119859 -0.332259 -0.654471 -3.22707 -3.14715
7237 0.222111 0.413332 -0.394227 -0.0522156 -0.672473 0.160699 -0.274291 -0.736834 -2.56352 -3.48667
5664 0.157053 0.166373 -0.314557 -0.327507 -0.218316 0.127439 0.00817564 -0.642106 -3.12241 -3.03672
88 0.0580263 0.105802 -0.323034 0.0264928 -0.479999 -0.120816 -0.113731 -0.62313 -2.91618 -3.29998
3621 0.704989 0.184457 -0.210758 -0.563294 -0.344244 0.0314735 -0.159457 -0.743412 -2.96333 -3.0784
5654 0.475378 0.313978 -0.305446 -0.532627 -0.301304 0.177778 -0.393057 -0.542099 -2.72137 -3.10773
3988 0.485018 0.448636 -0.65989 0.0284136 -0.496092 -0.0619448 -0.265028 -0.59281 -2.65301 -2.91572
8451 0.102989 0.0694733 -0.602046 -0.0603452 0.285196 0.188531 -0.228213 -0.492673 -2.51542 -3.76059
9542 0.328104 0.272682 -0.728203 0.000332349 0.174344 0.147723 0.00785038 -0.642994 -2.7105 -3.31866
9860 0.167213 0.428995 -0.674385 -0.0362298 -0.11307 0.0187696 -0.106704 -0.625652 -3.09278 -2.88992
8005 0.446586 0.518946 -0.535283 -0.00977905 -0.448624 0.154402 -0.447952 -0.537329 -2.19248 -2.97918
7794 0.248946 0.272015 -0.423562 -0.0502026 -0.563595 0.0698411 -0.125687 -0.672481 -2.75611 -3.24614
3527 0.20246 0.146778 -0.55818 -0.0619792 0.352631 0.211127 -0.412263 -0.522342 -2.72784 -3.69129
6834 0.154078 0.215552 -0.561568 -0.0651579 -0.437938 0.0285149 -0.0926214 -0.614628 -2.62538 -3.13579
5429 -0.0204742 0.0278537 -0.362908 -0.116651 -0.0831916 0.269863 -0.331748 -0.545841 -2.8371 -3.66277
3900 0.0735093 0.206013 -0.267761 -0.138332 -0.291077 0.0561823 -0.253763 -0.609503 -2.8177 -3.42154
2992 0.532329 0.140803 -0.468493 0.0532589 -0.292481 0.143334 -0.379441 -0.657703 -2.44272 -3.26109
7895 0.0219368 0.159366 -0.21496 -0.26878 -0.273317 -0.000441805 -0.174246 -0.66206 -3.03939 -3.50703
1328 0.428356 0.438992 -0.417865 -0.263654 -0.34924 0.119154 -0.292193 -0.667525 -2.65017 -3.04538
10 0.0854528 0.266182 -0.307789 -0.166742 -0.423515 0.135648 -0.151838 -0.68774 -2.91314 -3.41844
2187 0.1226 0.16013 -0.0619967 -0.423938 -0.34475 -0.675609 -0.18149 -0.668565 -2.79832 -3.42625
6979 0.413656 0.48674 -0.413687 -0.147395 -0.672584 0.22142 -0.378658 -0.556015 -2.24408 -2.86596
1456 0.120991 0.479267 -0.286487 -0.294878 -0.384974 -0.58476 -0.626907 -0.508684 -3.35657 -3.17835
5360 0.507705 0.0677713 -0.288221 -0.191311 -0.706055 0.22068 -0.750251 -0.449288 -2.30891 -3.08606
3012 0.635304 0.23907 -0.217072 0.0492796 -0.376789 -0.170122 -0.41874 -0.67943 -2.32764 -2.73417
5952 0.161288 0.27282 -0.278979 -0.198002 -0.716717 0.167268 -0.141792 -0.704732 -2.49369 -3.26051
8638 0.054592 0.271989 -0.395249 -0.0289999 -0.485609 0.17481 -0.180489 -0.683327 -2.57488 -3.26355
452 0.288013 -0.0895056 -0.166372 -0.230373 -0.471561 0.284846 -0.146735 -0.675972 -2.83514 -2.96169
5768 0.117162 -0.081351 -0.299299 0.0517215 -0.576653 0.194659 -0.411354 -0.647991 -2.89669 -3.30524
3981 0.0891554 0.442309 -0.3515 -0.148327 -0.792335 0.142306 -0.192642 -0.708537 -2.68274 -3.11209
8768 0.00420851 0.297237 -0.287355 -0.220024 -0.184729 0.119777 -0.172145 -0.639363 -2.81042 -3.5906
9002 0.088563 0.525717 -0.554059 0.204051 -0.496069 -0.11918 -0.170775 -0.682072 -2.90553 -2.8454
5155 0.400927 0.0992886 -0.175457 -0.283171 -0.354438 0.205672 -0.414444 -0.650876 -2.71629 -3.07553
8318 0.269211 0.327339 -0.566674 -0.0739264 -0.188998 0.20128 -0.209935 -0.617339 -2.6245 -3.35926
1888 0.356747 0.313098 -0.226902 -0.180958 -0.454348 -0.240075 -0.0489646 -0.76138 -2.48796 -3.28488
2685 0.31218 0.186838 -0.469389 0.0332674 -0.245325 0.166508 -0.262692 -0.624494 -2.97333 -3.13217
5634 0.203073 -0.0708025 -0.379385 -0.111335 -0.175033 0.268718 -0.678884 -0.440278 -2.77872 -3.38999
7739 0.166742 0.343009 -0.327272 -0.170571 -0.450645 0.237864 -0.366353 -0.605238 -2.22727 -2.81125
315 0.181148 -0.033096 -0.411191 0.119283 0.0208832 0.151035 -0.466432 -0.506753 -2.74265 -3.61294
4733 0.0560348 0.156323 -0.53935 0.210707 -0.618968 0.183053 -0.239627 -0.65696 -3.01445 -3.28144
8042 -0.091693 0.138161 -0.476399 0.24252 -0.584092 0.130031 0.160934 -0.724269 -2.87691 -3.15277
5582 0.0893915 0.142627 -0.322072 0.0316282 -0.722365 0.17672 -0.241275 -0.669901 -2.92261 -3.27847
3811 0.297551 0.268843 -0.218716 -0.0574445 -0.683385 0.0616083 -0.462238 -0.600862 -2.76627 -2.9688
6199 0.148087 0.149399 -0.218614 -0.28268 -0.576914 0.366411 -0.134774 -0.728364 -2.87661 -3.22759
10135 0.425173 0.223795 -0.564321 -0.211149 -0.349787 0.148405 0.289027 -0.529291 -2.36431 -2.49885
9905 -0.0560547 0.0914295 -0.433536 0.0601943 -0.186458 0.0546006 0.0184364 -0.662283 -3.21963 -3.37507
9662 0.425675 -0.0250536 -0.695552 -0.510021 0.13324 0.0935137 -0.107821 -0.386269 -2.80142 -3.08319
10167 0.44028 -0.107789 -0.577296 -0.72155 -0.00306101 0.030379 -0.27662 -0.30379 -3.32806 -3.43774
5366 0.421431 0.225153 -0.250236 -0.365028 -0.401241 0.0562863 -0.553252 -0.594493 -2.4735 -3.15527
7646 0.262604 0.412516 -0.385609 -0.189361 -0.435989 0.0533671 -0.223637 -0.656293 -2.49757 -3.08337
97 0.52798 0.288226 -0.659898 -0.415623 -0.527602 -0.00216028 0.227611 -0.647271 -2.59678 -2.80218
8081 0.159884 0.507187 -0.219875 -0.29216 -0.589406 -0.00548153 -0.329785 -0.665145 -2.57319 -3.18076
7196 -0.0419931 0.16196 -0.198983 -0.234728 -0.600623 0.0747241 -0.154652 -0.691319 -2.89946 -3.51388
7594 0.498091 0.361276 -0.410454 -0.245386 -0.778955 0.185998 -0.226084 -0.655926 -2.29503 -2.57075
8043 -0.00320846 0.222733 -0.218513 -0.263871 -0.483852 0.176554 -0.216155 -0.705247 -2.94752 -3.40725
3590 0.407392 -0.119793 -0.298036 -0.0486876 -0.452061 -0.0556375 -0.194756 -0.755092 -2.85202 -3.18221
4995 0.277243 -0.187512 -0.270484 0.0950664 -0.467102 0.00994068 -0.375839 -0.631376 -3.13002 -3.12307
9790 0.219885 0.47879 -0.559387 0.187435 -0.176398 0.184889 0.018843 -0.642041 -2.85926 -2.85109
9992 0.0838982 0.188327 -0.563617 0.0682902 -0.396092 0.0380273 0.0306117 -0.673816 -3.01901 -3.01698
6664 -0.00888472 0.303293 -0.218158 -0.220678 -0.325785 -0.107285 -0.0375077 -0.730733 -3.08696 -3.27054
9794 0.244809 0.376518 -0.579014 -0.0432803 0.00841111 0.0781863 -0.147156 -0.635174 -3.03107 -3.48547
7291 0.0445181 0.182641 -0.493065 -0.229016 -0.214418 0.0951722 -0.0792691 -0.607942 -2.58577 -3.40989
8663 0.209255 0.343964 -0.335763 -0.0582221 -0.209801 0.296342 -0.0330714 -0.867368 -2.35356 -3.42326
7814 0.22606 0.612349 -0.529326 0.000226681 -0.305215 0.10718 -0.442567 -0.55409 -2.64981 -3.1974
6713 0.206376 0.268565 -0.692375 -0.258475 0.180151 0.190138 -0.349479 -0.370798 -2.79116 -3.4486
4805 0.32808 0.0633547 -0.232697 -0.486388 -0.313022 0.109519 -0.132652 -0.704757 -2.98022 -3.50134
6792 0.0852295 0.234375 -0.193721 -0.609351 -0.687018 0.0885911 -0.130461 -0.555077 -2.62709 -3.1829
6956 -0.000755138 0.108846 -0.318387 -0.117189 -0.7371 0.194185 -0.29894 -0.604297 -2.66279 -3.42065
6639 0.0500634 0.217128 -0.234931 -0.287294 -0.608758 0.116766 -0.291253 -0.60684 -2.81897 -3.5165
6526 0.11315 0.33079 -0.307941 -0.15126 -0.770738 0.205547 -0.147319 -0.740115 -2.77535 -3.20253
6662 0.531656 0.470781 -0.393004 -0.317277 -0.550778 0.0792357 -0.317234 -0.65496 -2.28601 -3.07063
6392 0.120343 0.305114 -0.743395 0.273243 -0.440056 -0.0773484 -0.0747886 -0.614555 -2.87189 -3.05538
8818 0.147438 0.156085 -0.662787 -0.131729 -0.298161 0.0678114 0.179802 -0.590507 -3.00638 -3.07471
5515 0.285078 -0.21221 -0.304618 0.0049958 -0.290674 0.327767 -0.623158 -0.43313 -2.87384 -3.37799
1163 0.0281913 0.0614139 -0.229289 -0.111028 -0.491896 -0.590905 -0.154648 -0.589556 -2.66975 -3.61507
3084 0.227359 0.149096 -0.274816 0.038976 -0.460651 -0.238802 -0.0267598 -0.813641 -2.46954 -3.47697
1274 0.134797 -0.0157962 -0.216988 0.00651575 -0.425723 -0.35152 -0.151194 -0.711844 -2.92044 -3.32116
9810 0.0897584 0.311132 -0.477209 -0.0619187 0.0747133 -0.0242341 0.00545323 -0.680688 -2.89264 -3.32725
8730 -0.00691858 0.262153 -0.582916 0.0989747 -0.230447 0.0705165 -0.0383166 -0.646947 -3.184 -3.34952
6325 0.404027 0.337834 -0.625277 -0.236815 -0.726764 0.233372 -0.208639 -0.605188 -2.6552 -3.10812
9850 0.275252 0.386733 -0.790678 -0.0664566 -0.312195 -0.00553995 -0.0701109 -0.550178 -2.58017 -2.77445
2769 0.416778 0.542336 -0.227811 -0.359673 -0.216957 -0.414183 -0.280431 -0.695776 -2.97091 -2.82407
9769 0.339862 0.295692 -0.476611 -0.147125 -0.176169 0.0560428 -0.168598 -0.482894 -2.38708 -2.38395
4674 0.179477 0.702367 -0.287564 -0.350715 -0.524736 -0.244742 -0.532554 -0.540008 -3.03665 -3.14327
2046 0.446694 0.53768 -0.512989 -0.180031 -0.350831 -0.274011 -0.331067 -0.492373 -2.18733 -2.55174
1832 0.396344 -0.119964 -0.44372 -0.17042 -0.722547 -0.387686 0.21527 -0.798382 -2.54238 -3.74188
8432 -0.0706926 0.320553 -0.13393 -0.184604 -0.475473 0.0792876 -0.200249 -0.674474 -2.76113 -3.31515
4782 0.178006 0.525255 -0.200248 -0.371287 -0.597768 -0.0612494 -0.625981 -0.564374 -3.11631 -3.00933
159 0.238374 0.00403482 -0.27979 0.0593683 -0.439654 0.130259 -0.282965 -0.702651 -2.73172 -3.12709
2577 0.261681 0.288126 -0.252762 -0.157026 -0.498367 -0.22834 -0.410183 -0.577802 -2.90214 -3.1602
1792 0.319174 0.126765 -0.163356 -0.298247 -0.67291 0.282003 -0.473057 -0.566625 -2.52543 -2.97603
9088 0.539428 0.390089 -0.438508 -0.247411 -0.325247 0.0586249 -0.167389 -0.504363 -2.03482 -2.24917
5277 0.235119 0.00780739 -0.208201 -0.146106 -0.449783 0.0806779 -0.488021 -0.571412 -2.78209 -3.42217
2617 0.398977 0.088982 -0.45593 0.0286848 -0.118184 -0.244325 -0.110995 -0.715828 -2.80788 -3.29331
3978 0.409293 0.0644131 -0.387225 -0.00799839 -0.555445 0.0768137 -0.312445 -0.686464 -2.97604 -3.05869
1418 0.480751 -0.197866 -0.324491 -0.00289605 -0.321396 -0.0538987 -0.327206 -0.620332 -2.65887 -3.42222
2358 0.143112 0.0636974 -0.208965 -0.18138 -0.363953 -0.268927 -0.382695 -0.628561 -2.99297 -3.53692
1394 0.316319 0.0910643 -0.351511 -0.0361712 -0.315289 -0.148449 -0.175599 -0.627854 -2.70408 -3.36346
2814 0.752209 0.370693 -0.489134 -0.096134 -0.538374 -0.235456 -0.197616 -0.610117 -1.76506 -2.50562
2079 0.24991 -0.167751 -0.358385 -0.0565424 -0.804155 -0.201315 0.281795 -0.848288 -2.69651 -3.41639
2218 0.121933 0.0934452 -0.280636 -0.102196 -0.318638 -0.655074 -0.209506 -0.637021 -2.63199 -3.50394
1543 0.375473 0.0387929 -0.306946 -0.125549 -0.237991 -0.0908669 -0.342039 -0.57605 -2.66623 -3.47233
2528 0.698979 -0.0289292 -0.525979 -0.027955 -0.639439 0.225592 0.163773 -0.905737 -2.39765 -3.10511
7417 0.0157948 0.0818773 -0.181254 -0.328841 -0.499172 0.182513 -0.454423 -0.527983 -2.88494 -3.57105
7445 0.148065 0.315719 -0.323101 -0.559054 -0.567694 0.0160505 -0.0120882 -0.702167 -2.94442 -3.16617
7507 0.458866 -0.164345 -0.377592 -0.840774 -0.218568 0.205515 -0.252161 -0.329322 -2.50982 -2.94661
285 0.293977 0.236103 -0.163365 -0.394286 -0.232336 -0.313649 -0.277068 -0.633898 -2.72543 -3.26082
7287 0.249696 0.245949 -0.259555 -0.425251 -0.379027 0.130676 -0.306922 -0.583914 -2.72775 -3.07931
6 0.0846022 -0.0132828 -0.356743 0.0843109 -0.64081 -0.0165446 -0.117114 -0.695104 -2.95438 -3.24136
3949 0.213735 -0.18589 -0.362408 0.275856 -0.386225 -0.317284 -0.0955004 -0.666647 -2.9251 -3.22328
6067 0.307297 -0.192604 -0.280158 -0.163682 -0.418187 0.294671 -0.552856 -0.544368 -2.5177 -3.4389
6238 0.208588 0.191624 -0.576412 -0.0168939 -0.0216998 0.271647 -0.188731 -0.615708 -2.57086 -3.63347
10219 0.0825148 0.425736 -0.507306 -0.142156 -0.0573882 -0.00962735 -0.17463 -0.605773 -3.01153 -3.25649
10004 -0.0996255 0.159795 -0.615984 0.334743 -0.499673 0.043661 -0.0526282 -0.651118 -2.91561 -3.14656
9424 -0.0473602 0.254247 -0.547246 0.328613 -0.490443 0.0849633 -0.152772 -0.696235 -3.03623 -3.39702
9578 0.169168 0.520219 -0.492651 0.178434 -0.198278 -0.0547654 0.0313038 -0.739514 -2.81195 -2.97367
7966 -0.0265224 0.231102 -0.37913 0.114404 -0.525234 0.0472337 -0.0484937 -0.703636 -3.00441 -3.32329
7166 0.283551 0.272133 -0.284581 -0.390053 -0.392902 0.133545 -0.129868 -0.665563 -2.61608 -3.33279
9448 0.392268 -0.126668 -0.556554 -0.593136 -0.0466893 0.144083 -0.166795 -0.41688 -3.11503 -3.47968
6317 0.012518 0.109607 -0.12966 -0.250181 -0.595813 0.100918 -0.298369 -0.633722 -2.9649 -3.4661
6786 0.15472 0.310785 -0.11607 -0.320863 -0.492298 0.153546 -0.182254 -0.70226 -2.55689 -3.17134
5643 0.400955 0.0761925 -0.0326802 -0.905854 -0.351657 0.304117 0.0168865 -0.804638 -2.80817 -3.29474
86 0.371554 0.149084 -0.166475 -0.256641 -0.354524 -0.123873 -0.234396 -0.71236 -3.13423 -3.03745
1921 0.0458237 -0.088532 -0.0430567 -0.307818 -0.34949 -0.525899 0.0849471 -0.745297 -2.94127 -3.56731
917 0.323624 0.061193 -0.25368 -0.431629 -0.281964 -0.334164 -0.188099 -0.626951 -2.85057 -3.35176
5275 0.468252 -0.0576429 -0.31711 -0.454016 -0.619057 0.338221 -0.129742 -0.671221 -2.60695 -3.33347
2216 0.460575 0.157812 -0.338253 -0.56265 -0.246071 0.128833 0.0228759 -0.731481 -2.8899 -3.34696
1742 0.0878284 0.143691 -0.302474 -0.00669809 -0.415613 -0.184164 -0.246606 -0.624355 -2.75833 -3.50685
3269 0.175959 -0.151211 -0.261026 0.113579 -0.281214 -0.169716 -0.286311 -0.636145 -3.05975 -3.41141
1593 0.0972311 -0.0240325 -0.292777 0.0200363 -0.446537 -0.557823 -0.0847185 -0.682969 -2.92481 -3.47981
2308 0.397135 0.230172 -0.18851 -0.228141 -0.712912 -0.0303817 -0.188107 -0.67414 -2.50367 -3.26947
7854 0.251637 0.492512 -0.556882 0.176599 -0.770176 -0.0186991 -0.275765 -0.654181 -2.5225 -2.94975
36 0.0318257 0.0402949 -0.127028 -0.146899 -0.331388 -0.440235 -0.0723856 -0.722141 -2.95501 -3.37874
6030 0.0465655 0.304716 -0.420382 -0.14992 -0.119353 0.0660924 -0.0941804 -0.665504 -3.11514 -3.558
9209 0.222432 0.516372 -0.670014 0.0285241 -0.269678 0.032858 -0.161062 -0.584035 -2.13727 -2.2536
4900 0.387848 0.107838 -0.147506 -0.699477 -0.482828 -0.026333 0.0816127 -0.799864 -3.13198 -3.09104
4788 0.380001 -0.0887695 0.0306009 -0.817193 -0.324048 0.0515906 -0.0077158 -0.727967 -3.06601 -3.17654
4499 0.481215 -0.0752735 -0.0769391 -0.39029 -0.167511 -0.0409145 -0.0773691 -0.713937 -3.21736 -3.0654
4667 0.126141 -0.0039412 -0.1712 -0.167811 -0.405305 -0.0525785 -0.212017 -0.657468 -3.10949 -3.30059
2704 0.19045 -0.0427141 -0.283975 0.141174 -0.287229 -0.513945 -0.222337 -0.681695 -2.79734 -3.16432
2223 0.661713 -0.165906 -0.522051 -0.277936 0.0182446 0.0538012 -0.290776 -0.49292 -2.87513 -3.1042
7663 0.181457 0.248555 -0.293498 -0.561829 -0.125282 0.129585 -0.00811113 -0.717075 -3.0013 -3.47579
10294 0.0946329 0.247745 -0.318933 -0.467322 0.189117 0.232553 -0.309916 -0.388482 -2.61393 -3.24544
8872 0.08222 0.184483 -0.498229 0.00394823 0.123766 0.190577 -0.173054 -0.632053 -2.34527 -3.65798
9040 -0.0120401 0.18154 -0.532715 -0.10006 0.342031 0.287905 -0.213914 -0.534862 -2.65568 -4.00175
9764 -0.0141516 0.119544 -0.77632 -0.0954339 0.178581 -0.0317265 -0.301717 -0.494244 -2.38532 -3.28832
9124 0.353614 0.342927 -0.546882 -0.0647032 -0.296828 0.183749 0.178173 -0.848835 -2.96841 -3.03444
9479 -0.184745 0.0244912 -0.511762 0.227058 -0.0266894 0.114272 -0.153792 -0.601018 -2.79418 -3.70391
9592 0.12314 0.358362 -0.497423 0.264354 -0.379936 0.0661358 -0.184303 -0.514993 -2.19657 -2.7115
9590 -0.0722943 0.264461 -0.597241 0.167232 -0.502865 0.0651706 -0.242515 -0.512721 -2.91242 -3.23078
9773 0.196426 0.606593 -0.568214 -0.154625 -0.543619 -0.0100636 -0.299415 -0.568534 -2.82059 -3.05592
5677 0.189058 0.406854 -0.377395 -0.274473 -0.495658 0.0215158 -0.318047 -0.553591 -2.64991 -3.08987
9007 0.204689 0.276493 -0.524377 -0.088062 -0.511227 0.0910968 -0.0779603 -0.668451 -2.65712 -3.04229
3628 -0.0667804 0.271314 -0.242712 -0.0172633 -0.821058 -0.012601 -0.149952 -0.74109 -2.53929 -3.2389
8306 -0.0423157 0.222745 -0.364206 -0.0084907 -0.816644 0.194493 -0.31692 -0.608847 -2.81802 -3.3847
4318 0.682895 0.101769 -0.214207 -0.0150618 -0.265846 0.261359 -0.335543 -0.65325 -1.96794 -2.38808
1117 0.403319 0.00410424 -0.327622 -0.0386989 -0.605378 -0.156063 -0.218143 -0.724912 -2.6838 -2.98634
1109 0.132947 -0.0438709 -0.363529 0.209433 -0.476647 -0.346635 -0.116891 -0.728228 -2.89174 -3.34464
5204 0.143391 -0.189041 -0.116229 -0.245512 -0.362419 0.0511141 -0.408024 -0.579419 -2.94482 -3.46442
5607 0.1201 0.0539387 -0.335115 -0.0980298 -0.369906 0.333984 -0.637058 -0.486374 -2.7903 -3.51473
7799 0.466609 0.499581 -0.542145 -0.0791925 -0.0123876 0.225891 -0.161796 -0.681883 -2.78773 -3.00237
7228 0.0675042 0.193491 -0.336261 -0.182344 0.0394812 0.142491 -0.128708 -0.642291 -2.93989 -3.50611
3711 0.316453 0.0903825 -0.26385 -0.0951289 -0.334553 0.0616955 -0.354545 -0.661521 -2.8325 -3.22591
7850 0.261217 0.432604 -0.664737 0.0650362 0.126831 -8.96531e-05 -0.174228 -0.663972 -2.67509 -3.40111
4590 0.519871 -0.124207 -0.408741 0.153406 -0.591874 0.098905 -0.471303 -0.574893 -2.75605 -2.94113
5339 0.245474 0.113189 -0.285874 -0.201507 -0.405531 -0.0496687 -0.631657 -0.506113 -2.53288 -3.01071
4723 -0.014122 0.201147 -0.180965 -0.193703 -0.446414 -0.00395301 -0.214528 -0.658888 -2.6544 -3.62287
169 0.497807 0.33048 -0.226498 -0.335407 -0.431199 -0.126876 -0.393076 -0.608663 -2.23882 -2.82488
2996 0.467383 0.170179 -0.380347 0.0140167 -0.505851 -0.131584 -0.18161 -0.731494 -2.16689 -2.74829
229 0.222454 0.165873 -0.314923 -0.043383 -0.419862 -0.282904 -0.132145 -0.70261 -2.7324 -3.55269
9179 0.280998 0.409961 -0.676717 0.0785895 -0.290021 -0.0190051 -0.138322 -0.609851 -2.66885 -2.8348
8281 0.377142 0.456823 -0.599062 -0.118956 -0.243942 0.113623 -0.160895 -0.547314 -2.7028 -2.89234
563 0.4525 0.372586 -0.524858 -0.250773 -0.83438 0.0616233 -0.725625 -0.495338 -2.47722 -3.08421
8911 0.339618 0.202309 -0.280283 0.00788791 -0.3972 -0.221818 -0.330699 -0.735048 -3.3098 -3.3699
2782 -0.0495669 0.227309 -0.460074 -0.0834112 0.10565 0.0947143 -0.275177 -0.509387 -2.64177 -3.77539
4369 0.224436 0.335307 -0.57157 -0.216519 -0.426322 0.0654561 -0.045133 -0.396204 -1.98772 -2.29321
3433 0.625356 0.184152 -0.455007 -0.0791048 -0.44078 0.0752834 -0.507877 -0.627172 -2.75494 -3.0559
144 0.478384 0.267735 -0.38138 -0.346739 -0.43066 0.0433397 -0.270441 -0.695343 -2.2138 -3.12309
3424 0.13823 0.0212606 -0.230247 -0.104276 -0.349969 0.0566304 -0.260469 -0.676401 -2.80338 -3.34991
8471 0.00583296 0.269716 -0.353696 -0.143119 -0.254016 0.095158 -0.239787 -0.61679 -2.90903 -3.59416
8632 0.390773 0.242253 -0.538856 -0.4494 -0.424761 -0.077748 -0.132866 -0.49934 -2.73112 -3.10191
124 0.335647 -0.117965 -0.352237 -0.440018 -0.21222 -0.333661 -0.036635 -0.565991 -2.89431 -3.5195
8261 0.49757 0.50219 -0.28968 -0.26863 -0.85231 0.0595763 -0.256362 -0.753906 -2.16613 -2.71901
5805 0.468338 0.223145 -0.218912 -0.20226 -0.334517 0.434439 -0.276639 -0.621353 -2.30842 -2.8184
2937 0.136847 -0.0479861 -0.156151 -0.0790004 -0.32815 -0.270735 -0.127871 -0.670244 -2.71568 -3.3553
2612 0.338268 0.168153 -0.307046 -0.0705184 -0.141493 -0.218822 -0.364404 -0.674083 -2.60854 -3.27366
4079 0.0826363 -0.198289 -0.273377 0.107889 0.091123 -0.484173 -0.237048 -0.613339 -2.44658 -3.72381
208 0.0533618 -0.050533 -0.29196 -0.0220923 -0.791248 0.123129 -0.144265 -0.695485 -2.9322 -3.17138
5851 0.216823 -0.168141 -0.211499 -0.0579988 -0.38503 0.150166 -0.521771 -0.579254 -2.62533 -3.25933
4456 0.342788 -0.0498933 -0.441434 0.139485 -0.884061 0.111409 -0.367037 -0.676746 -3.01913 -2.96281
5122 0.149689 -0.211137 -0.32826 -0.0797981 -0.554581 0.0276612 -0.396569 -0.56488 -2.9214 -3.3856
5116 -0.176108 0.137353 -0.307657 -0.0333443 -0.863548 0.115749 -0.170828 -0.655642 -2.8733 -3.36067
4584 0.188964 -0.199332 -0.18807 -0.221579 -0.220142 0.260084 -0.176701 -0.63363 -2.9181 -3.38634
7726 0.154877 0.410859 -0.192496 -0.402321 -0.0224162 0.19345 -0.135091 -0.790401 -2.6696 -3.50583
6260 0.237354 0.258809 -0.296036 -0.352791 -0.24472 0.157586 -0.260683 -0.579745 -2.72994 -3.37043
1798 0.00770446 0.198291 -0.194078 -0.389051 -0.327951 -0.204036 -0.680584 -0.45186 -3.14162 -3.38625
184 0.102114 0.363431 -0.272537 -0.273295 -0.383232 -0.249193 -0.68464 -0.501196 -2.96825 -3.22817
2751 0.286037 0.442834 -0.225712 -0.356485 -0.446803 -0.0633515 -0.835086 -0.495851 -2.83274 -2.98489
1843 0.359701 0.13836 -0.316645 -0.588797 -0.452326 0.15153 -0.169071 -0.635506 -2.69312 -3.48843
9463 0.438687 0.376926 -0.541663 -0.423921 -0.234494 0.134618 0.0613799 -0.716511 -2.86792 -3.21937
5717 0.266671 0.0579451 -0.548258 -0.0828477 -0.151531 0.242301 -0.366508 -0.520771 -2.61818 -3.39175
2260 0.38364 0.269017 -0.312789 0.0976809 -0.439558 -0.487904 -0.346599 -0.637007 -2.1915 -3.11872
560 0.414978 -0.0605793 -0.277978 -0.135475 -0.419955 -0.0615633 -0.431075 -0.612727 -2.91267 -3.20748
5850 0.223166 -0.203794 -0.216151 -0.255474 -0.423608 0.183542 -0.388271 -0.561128 -2.9808 -3.40476
1906 0.633501 0.327097 -0.460317 0.0747807 -0.548754 -0.401018 -0.450392 -0.637162 -2.33828 -3.02966
3960 0.358738 -0.117626 -0.375566 0.0527469 -0.282157 0.0931771 -0.357154 -0.587681 -2.82078 -3.01124
5877 0.317798 0.140644 -0.222234 -0.287138 -0.258267 0.166152 -0.147631 -0.702999 -2.67237 -3.0963
1408 0.152183 0.0363883 -0.200166 -0.250273 -0.47331 -0.219277 -0.0290804 -0.731716 -2.84465 -3.42867
6254 0.471757 0.294011 -0.268192 -0.473981 0.0764162 0.153187 0.122396 -0.755086 -2.98393 -3.1392
7730 0.201453 0.236319 -0.384544 -0.227339 -0.147262 -0.00300977 0.104126 -0.712281 -3.05844 -3.38451
10124 0.00423317 0.0461351 -0.609421 0.117245 0.291296 0.183372 -0.0824435 -0.578031 -2.71222 -3.62143
4488 0.204919 0.183605 -0.518681 -0.0152094 -0.248009 0.180115 -0.268265 -0.559255 -2.91705 -3.34581
7 0.201737 0.0246157 -0.310749 0.0523126 -0.459891 0.0500962 -0.161466 -0.682502 -2.66848 -3.27685
