917 30
338 0.31851 0.261653 -0.122132 0.224679 0.397822 0.225041 -0.0332943 -0.0300982 -0.408046 0.156243 0.00102075 -0.670562 -0.438051 0.212365 -0.159973 -0.681128 0.263977 -0.463171 -0.0143022 0.196031 0.656464 -0.0205608 -0.334712 0.0590294 -0.146255 -0.219143 -0.692374 -0.125961 2.66858 0.684695
9 0.166959 0.0616234 -0.321592 0.162016 0.165633 0.528219 -0.135217 0.147679 -0.525431 0.254336 0.124062 -0.64097 -0.61005 0.239584 0.055303 -0.891467 0.288393 -0.53636 -0.0307438 0.0417252 0.871828 0.0163119 -0.460035 -0.0606186 -0.337732 -0.255324 -0.842785 -0.212628 3.07915 1.02934
18 0.154431 0.0659487 0.043197 -0.00697821 0.443368 0.20728 -0.0200896 -0.113262 -0.0900468 0.294906 0.0293425 -0.479425 -0.645927 0.244829 -0.143451 -0.588075 0.114204 -0.368028 0.205324 0.034768 0.777062 0.125021 -0.586888 -0.00649324 0.145315 0.0687999 -0.537139 -0.526011 2.71098 0.786264
915 0.791798 0.279649 0.106249 0.0161482 0.878288 0.551863 0.0314001 -0.322837 -0.055962 0.59381 -0.0609304 -0.683238 -0.819255 0.226355 -0.251678 -0.508244 -0.221737 -0.720035 0.660726 0.127304 1.50858 -0.0604629 -1.08724 -0.344535 0.151534 -0.00352438 -0.770331 -0.655305 4.02565 1.10641
908 0.74857 0.356017 0.0533541 -0.0359906 0.896425 0.452777 -0.0295157 -0.429291 0.0808192 0.605551 -0.124317 -0.678284 -0.734086 0.293457 -0.249144 -0.543863 -0.16431 -0.665209 0.700713 0.161856 1.37754 0.0350556 -1.17878 -0.259206 0.144092 0.101848 -0.898193 -0.68835 4.15961 1.1754
916 0.759822 0.321565 0.0727992 0.00101672 1.00735 0.493513 0.0582203 -0.448947 -0.0268058 0.707793 -0.123113 -0.635908 -0.812133 0.356653 -0.360426 -0.605907 -0.212381 -0.711037 0.463353 0.209836 1.32043 -0.0171547 -1.21717 -0.346679 0.106059 0.137824 -0.693581 -0.605648 4.09772 1.10532
903 0.806154 0.162407 0.109609 -0.110382 0.978869 0.531224 -0.0483466 -0.424213 0.0454835 0.71384 -0.0832125 -0.665112 -0.789049 0.298245 -0.326363 -0.526028 -0.28581 -0.776195 0.659378 0.280646 1.42659 -0.0420439 -1.19262 -0.393675 0.243784 0.108677 -0.766608 -0.745651 4.21967 1.10078
899 0.6508 0.279607 0.0897814 0.0604973 0.903642 0.442316 -0.126517 -0.233226 0.0701083 0.567811 0.00350723 -0.650525 -0.67391 0.258403 -0.295837 -0.50659 -0.305022 -0.739988 0.628068 0.106772 1.46085 0.0866754 -0.882806 -0.345928 0.27413 0.148593 -0.87782 -0.738657 3.98231 1.10378
907 0.438262 0.167623 -0.0707736 0.153152 0.857837 0.333919 -0.0663175 -0.108961 0.00551358 0.447136 0.0381399 -0.562885 -0.661624 0.319321 -0.24575 -0.466301 -0.0306086 -0.526536 0.44566 0.264563 1.23729 0.00629321 -0.911205 -0.204465 0.261264 0.151565 -0.764035 -0.56154 3.52684 0.858267
900 0.560327 0.230074 -0.0505859 0.0657558 0.86673 0.41838 -0.210858 -0.341707 -0.0366347 0.515043 -0.0547013 -0.520071 -0.74568 0.298086 -0.296863 -0.388855 -0.362579 -0.697797 0.485198 0.129912 1.34319 -0.0243951 -1.12242 -0.274054 0.223583 0.201409 -0.700098 -0.702173 3.82564 0.982197
902 0.574698 0.296832 0.0206185 0.076016 0.875697 0.330682 -0.05542 -0.280552 -0.0422604 0.46646 0.0291442 -0.581131 -0.787711 0.323182 -0.351328 -0.548502 -0.30008 -0.641527 0.607441 0.189045 1.31804 0.189223 -0.926173 -0.264054 0.161277 0.104243 -0.901412 -0.577355 3.75057 1.10145
912 0.671984 0.299354 0.163116 -0.0245843 0.857436 0.466312 0.0190505 -0.470645 0.000148042 0.602643 -0.138977 -0.681584 -0.915021 0.208199 -0.312512 -0.569721 -0.296689 -0.778305 0.614829 0.103321 1.31174 -0.0151684 -1.05723 -0.23386 0.167354 0.102352 -0.839953 -0.675456 4.10809 1.1042
897 0.728392 0.255538 0.00644665 -0.103307 0.992319 0.579537 -0.00427263 -0.401203 -0.0907404 0.670855 -0.0959453 -0.551292 -0.708565 0.320431 -0.347879 -0.41234 -0.217695 -0.654841 0.644354 0.255229 1.39757 -0.00454953 -1.23776 -0.384067 0.23276 -0.00462022 -0.692458 -0.711471 3.94735 1.1097
914 0.757101 0.185151 0.0459753 -0.0800481 0.988343 0.572241 0.143551 -0.364376 -0.0675768 0.621927 -0.175334 -0.66247 -0.834593 0.220283 -0.356561 -0.486528 -0.231296 -0.774301 0.614222 0.228088 1.32644 -0.00400932 -1.12891 -0.30652 0.25083 0.0798685 -0.695819 -0.727257 4.00109 1.14063
918 0.650881 0.329407 0.0434912 -0.0671302 1.00324 0.542012 -0.0616594 -0.418381 -0.0426105 0.74427 -0.121961 -0.58323 -0.750059 0.343498 -0.263181 -0.466922 -0.194827 -0.658403 0.681601 0.189929 1.40066 -0.0113261 -1.21623 -0.227433 0.213614 0.133898 -0.702189 -0.648046 4.1282 1.09123
1004 -0.139623 -0.0541609 -0.0083824 -0.133316 0.633953 0.436432 -0.551977 0.083643 -0.538227 0.0277481 0.0932699 -0.490683 -0.235413 0.371181 -0.317882 -0.607766 -0.00501322 -0.334125 0.0925193 0.215445 0.436351 0.227256 -0.327545 0.0146126 0.198464 -0.315791 -0.628431 -0.30656 3.02624 0.991775
919 0.354797 -0.226167 -0.210537 0.0922456 0.417269 0.33879 0.146598 -0.0654465 0.130702 0.39522 0.0227453 -0.808918 -0.19501 0.45714 -0.318612 -0.453512 0.140589 -0.0994772 0.19724 -0.105562 0.940851 -0.402505 -0.654514 -0.172949 0.19155 -0.130551 -0.722163 -0.632528 3.2149 0.893975
7 0.0423311 -0.00824121 -0.104036 -0.0384903 0.802298 0.552912 -0.229904 0.273326 -0.264343 -0.0791634 0.0986864 -0.674387 -0.219302 0.286168 -0.128117 -0.703434 0.0319861 -0.248407 -0.0221146 -0.130658 0.604687 0.0320901 -0.351874 0.0610678 -0.00212562 -0.0852325 -0.493833 -0.472406 3.06156 0.908538
102 -0.124299 -0.0167604 -0.156566 -0.217527 0.470493 0.328663 -0.388278 -0.0514663 -0.0596283 0.324096 0.282644 -0.276596 -0.471732 0.254009 -0.148666 -0.626085 -0.00705079 -0.495679 0.138023 0.192572 0.673517 0.448856 -0.62137 -0.210714 0.250306 -0.0591268 -0.202326 -0.486543 2.66797 1.01969
200 0.0933448 -0.0263591 -0.328893 -0.355747 0.217652 0.259273 -0.0686643 0.066229 0.147944 0.631659 0.00118639 -0.402911 -0.371264 0.373946 -0.158672 -0.770645 0.127986 -0.462245 -0.154822 -0.048833 0.713649 0.249994 -0.559303 -0.0288675 0.348786 0.301372 -0.261311 -0.337796 2.60256 1.10875
1070 0.212664 0.0493232 -0.256077 0.0771465 0.386538 0.293669 0.221631 -0.150943 0.0590137 0.851364 -0.133528 -0.510349 -0.436695 0.550381 -0.494589 -0.67072 0.206137 -0.276884 0.00474711 0.212694 0.798368 0.0574319 -0.619313 -0.402443 0.271976 0.397136 -0.282339 -0.630049 2.91341 0.953866
205 0.170944 0.10316 -0.184326 -0.366059 0.446986 0.118588 0.0303225 -0.300171 -0.487737 0.205787 0.0817407 -0.43178 -0.0392009 0.619769 -0.112218 -0.877058 0.0380568 -0.380808 0.19735 -0.144916 0.725004 0.575573 -0.58856 -0.157008 0.364532 0.373658 -0.213504 -0.164133 2.86836 1.12585
19 0.291898 -0.0720204 -0.224325 -0.172009 0.433104 0.194759 0.122281 0.177903 -0.19624 0.167682 -0.135161 -0.424484 -0.19183 0.45546 -0.245145 -0.834662 0.069108 -0.375984 0.201282 -0.259086 0.569486 0.410145 -0.328429 -0.121156 0.259006 0.0444739 -0.332201 -0.638445 2.86585 1.14563
30 0.103289 -0.106958 -0.507459 -0.0416026 0.290965 0.37478 -0.0647811 0.324403 -0.0531987 0.156692 -0.260385 -0.297007 -0.654294 0.297571 0.190795 -0.630564 -0.190271 -0.423017 0.509678 -0.0935426 0.562079 0.214076 -0.355838 -0.124561 0.125983 0.278955 -0.309618 -0.765061 2.67409 1.32997
179 0.0758269 -0.0871144 -0.289238 0.0461623 0.419993 0.148355 0.126246 0.201786 -0.087938 0.148534 -0.0280446 -0.5309 -0.0520677 0.241245 -0.182881 -0.563867 -0.00262803 -0.0510777 0.326805 0.100129 0.830472 0.258504 -0.481685 0.283807 0.384697 0.0133271 -0.73258 -0.448577 2.69255 0.914046
370 -0.0220472 -0.2176 -0.110032 -0.101807 0.344625 0.0941481 -0.244224 -0.0659133 -0.538405 0.28254 -0.076205 -0.495495 -0.310179 0.391343 -0.412188 -0.371598 0.103013 -0.35042 0.166166 0.0912598 0.759514 0.314827 -0.660116 0.254936 0.2998 -0.00552083 -0.618229 -0.295995 2.88953 0.919203
148 0.01919 -0.127159 -0.0542707 -0.202461 0.387811 0.224771 -0.452828 0.258847 -0.430802 0.328573 0.00282101 -0.492148 -0.511802 0.265038 -0.435247 -0.347463 0.0101703 -0.0855052 0.294127 0.0190559 0.741953 0.086567 -0.515745 0.212349 0.343654 0.11736 -0.629494 -0.389897 2.93368 1.23842
163 0.0205431 -0.130432 -0.018638 -0.305803 0.380009 0.236395 -0.275386 0.0201897 -0.527938 0.288923 -0.251135 -0.522415 -0.725781 0.0912938 -0.579067 -0.380451 0.047713 -0.158487 0.485871 -0.0486644 0.803787 -0.033177 -0.466132 0.284724 0.243344 0.258211 -0.480316 -0.413502 2.92319 1.22842
145 0.027941 -0.104129 -0.144076 -0.358031 0.317561 0.203419 -0.273 0.0156318 -0.451573 0.278711 -0.285807 -0.436647 -0.720647 0.127462 -0.502812 -0.348821 0.0893561 -0.146094 0.410759 0.0636519 0.796742 -0.0223665 -0.492407 0.340107 0.217396 0.135973 -0.462565 -0.523472 2.97318 1.21919
146 -0.0137627 0.0178608 -0.118819 -0.0635406 0.227803 0.418268 -0.507581 -0.0667761 -0.228814 0.40566 0.17376 -0.36346 -0.470946 0.199638 -0.346729 -0.605707 -0.0537844 -0.190864 0.402581 0.272272 0.630524 -0.0522196 -0.319704 0.0513357 0.466569 0.0133667 -0.777595 -0.572654 3.01317 0.961149
948 -0.0450058 -0.0180441 -0.0599219 -0.102318 0.379716 -0.0800993 -0.293951 0.205843 -0.475707 0.211806 0.0561442 -0.530594 -0.259496 0.316634 -0.453755 -0.293692 0.11213 -0.172078 0.303838 0.117801 0.603236 0.473662 -0.535843 0.278593 0.309412 -0.0928916 -0.786308 -0.318004 2.8731 0.912289
137 -0.141686 -0.16635 0.0824048 -0.17569 0.261647 0.312129 -0.0865132 -0.143671 -0.18175 0.437922 0.0567561 -0.712609 -0.434137 0.126403 -0.271593 -0.573749 0.182374 -0.257364 0.493011 -0.0372495 0.548596 0.277122 -0.532868 0.0503761 0.0832487 -0.10471 -0.319497 -0.302279 2.85291 1.11274
66 0.0112169 -0.164476 -0.11339 -0.452881 0.46894 0.169905 -0.161843 0.396824 -0.512619 0.628972 0.0418218 -0.514405 -0.588187 0.283286 -0.256893 -0.45286 0.0957064 -0.0713518 0.298846 -0.309075 0.581254 0.0207067 -0.537252 -0.0656872 0.25656 0.297196 -0.266168 -0.38524 2.92881 1.10846
119 0.202349 0.215497 -0.112881 -0.299323 0.099894 0.16624 -0.378309 0.093075 0.0491138 0.32481 -0.175057 -0.477462 -0.408419 0.315168 -0.0490844 -0.502554 0.190248 -0.257607 0.22548 -0.0194139 0.646309 0.282995 -0.548717 0.239464 0.120039 -0.144846 -0.390142 -0.487125 2.77256 1.13659
825 0.415181 0.263163 -0.256291 -0.490663 0.54925 0.180313 -0.900669 0.324373 -0.320219 0.663423 -0.276073 -0.680647 -0.128683 0.486331 0.000304008 -0.172517 0.127204 -0.385678 0.197457 0.351931 0.532672 0.763624 -0.892575 0.258746 0.0726508 -0.508616 -0.730053 -0.905389 4.12 1.48198
818 0.426622 0.208366 -0.263202 -0.519623 0.521525 0.116025 -1.0182 0.304165 -0.319852 0.544465 -0.322975 -0.737904 -0.074325 0.425236 0.106698 -0.377742 0.0877781 -0.379128 0.282153 0.480044 0.583669 0.652995 -0.917164 0.391039 0.176716 -0.39826 -0.659901 -0.760041 4.08376 1.43774
822 0.390058 0.267524 -0.166517 -0.44024 0.575515 0.140542 -0.967941 0.24819 -0.384665 0.618258 -0.24268 -0.756608 0.000529397 0.56813 0.0525833 -0.273677 0.234198 -0.284638 0.351996 0.397794 0.547838 0.613805 -0.847741 0.217835 0.0606997 -0.461441 -0.722518 -0.804143 4.11939 1.61816
823 0.350113 0.281488 -0.244223 -0.39221 0.488287 0.19758 -0.963216 0.22443 -0.440489 0.592878 -0.316136 -0.791726 -0.155207 0.475974 0.154562 -0.28303 0.129609 -0.22743 0.297882 0.523112 0.547832 0.724532 -0.883677 0.359847 0.031103 -0.474644 -0.68112 -0.814506 4.08294 1.46468
817 0.405668 0.184847 -0.2705 -0.404796 0.568303 0.163881 -1.03429 0.296329 -0.402418 0.613472 -0.216008 -0.734589 -0.040828 0.637376 0.00635174 -0.30609 0.283244 -0.251376 0.230934 0.4809 0.574479 0.715721 -0.934398 0.284674 0.0735767 -0.344119 -0.670471 -0.781997 4.09889 1.52677
819 0.395503 0.302509 -0.205577 -0.485167 0.544531 0.0977875 -0.942448 0.124677 -0.293563 0.686934 -0.296539 -0.727724 -0.076407 0.463278 0.000286345 -0.350028 0.225892 -0.473004 0.222158 0.542703 0.573906 0.644996 -0.927753 0.305535 -0.0584763 -0.474341 -0.718254 -0.74561 4.14261 1.51462
815 0.397388 0.225475 -0.144817 -0.506144 0.57861 0.152151 -0.841535 0.270074 -0.412056 0.650704 -0.306936 -0.704814 -0.103682 0.49797 0.0759097 -0.43958 0.179937 -0.372026 0.270482 0.429898 0.60389 0.737694 -0.893734 0.355951 0.0546715 -0.462741 -0.639288 -0.748331 4.12541 1.49083
824 0.399022 0.200783 -0.219372 -0.432195 0.463958 0.0519429 -0.956861 0.215245 -0.391916 0.653089 -0.282 -0.711088 -0.0128778 0.481298 0.0248992 -0.239683 0.102729 -0.462998 0.324708 0.432738 0.589241 0.75874 -0.909291 0.297383 0.0555025 -0.458424 -0.658526 -0.94427 4.04215 1.48654
821 0.2741 0.252994 -0.311535 -0.424701 0.652649 0.208508 -0.894129 0.22613 -0.269234 0.581973 -0.308138 -0.706053 -0.213376 0.581838 0.110191 -0.31541 0.244279 -0.331508 0.287397 0.387078 0.543084 0.833579 -0.980918 0.239598 0.0816136 -0.534378 -0.695566 -0.848656 4.18525 1.47378
222 0.173299 0.0995994 -0.436849 -0.0381894 0.347867 0.00628741 -0.0232929 0.0725713 0.0481279 0.22749 0.0196021 -0.492401 -0.252916 0.262913 -0.468597 -0.690208 0.0380877 -0.357802 0.324833 0.11132 0.870066 0.401003 -0.343969 0.0705085 0.523217 -0.117823 -0.614273 -0.43996 2.84789 1.06991
426 -0.0848043 -0.153286 -0.0200526 0.0568627 0.567539 0.583413 -0.452541 -0.198769 0.0629663 -0.138313 0.397697 -0.853546 -0.159629 0.286938 -0.156934 -0.363064 0.0535692 -0.298304 0.395694 -0.149999 0.612125 0.0549721 -0.537249 -0.249034 -0.132356 0.209802 -0.743883 -0.429509 3.17581 0.983914
363 -0.0609221 -0.181379 0.104328 -0.267915 0.541703 0.438779 -0.185775 0.0151173 -0.0420001 -0.0196296 0.256211 -0.652935 -0.132183 0.0975064 -0.30808 -0.27738 0.0253896 -0.342962 0.281426 0.142081 1.04737 0.106977 -0.805867 -0.492312 -0.0853183 0.299872 -0.442535 -0.467808 3.05615 0.637203
174 -0.116163 -0.118204 -0.169155 0.0410411 0.172648 0.276477 -0.370173 -0.069871 0.0321636 0.0637196 -0.0168821 -0.445841 -0.258196 0.377627 -0.258321 -0.348734 -0.0985583 -0.185865 0.196101 -0.0941604 0.715959 0.164321 -0.51299 -0.0775352 0.502016 0.232268 -1.11121 -0.489222 2.73093 0.813124
782 0.0799811 -0.0426636 0.0128481 0.0417063 0.427585 0.338134 -0.163478 -0.2158 0.176762 0.0487905 -0.0196859 -0.670151 -0.189332 0.330151 -0.201405 -0.287328 -0.070827 -0.318066 0.360621 -0.0925541 0.731527 0.263882 -0.663295 0.0345997 0.120981 0.171689 -0.720047 -0.562555 2.70486 0.537917
98 -0.0724623 0.0875914 0.00188716 -0.0893812 0.338505 -0.162754 -0.153144 -0.27912 -0.355708 0.192245 -0.340626 -0.805117 -0.171371 0.404492 0.0723338 -0.629969 0.0268953 -0.211688 0.173917 -0.258016 0.983436 0.399984 -0.799438 -0.167353 0.221356 0.433078 -0.414981 -0.530177 2.90434 0.958397
99 -0.122743 0.106788 -0.0213507 -0.167902 -0.0533183 -0.0280781 0.0175638 -0.408458 -0.628193 0.560844 -0.678513 -0.799639 0.0201525 0.587603 -0.0976888 -0.484924 -0.00563912 -0.0104071 0.349648 -0.267062 0.899407 0.313497 -0.736276 -0.21254 0.227394 0.253553 -0.470047 -0.764733 3.05254 1.16719
93 -0.108383 -0.00113537 0.101301 -0.355693 -0.135835 0.15808 0.0581 -0.394539 -0.50436 0.564932 -0.48004 -0.685827 -0.281226 0.376406 0.205029 -0.615464 0.0960623 -0.282747 0.19361 0.0814273 0.984969 0.34903 -0.780832 0.068264 0.140484 0.126249 -0.42162 -0.700964 3.04316 1.26013
415 -0.0872763 -0.000602034 0.238919 -0.528217 -0.172325 0.196203 -0.200111 -0.239849 -0.177368 0.591661 -0.321625 -0.650244 -0.270876 0.355993 0.398175 -0.490314 0.0999111 -0.335689 0.238863 0.098795 1.10044 0.367471 -0.976768 0.36231 0.0533915 -0.102649 -0.614586 -0.429404 3.10595 1.26087
506 0.250007 0.0544132 -0.574465 -0.103697 0.146536 0.130261 0.000880774 0.243759 0.109806 0.205052 -0.00360857 -0.3836 -0.480893 0.325342 -0.30639 -0.554517 0.0127919 -0.394619 0.158955 -0.0446229 0.74094 0.485393 -0.46156 0.0161282 0.463731 0.253008 -0.565346 -0.657858 2.76177 1.01069
211 0.167375 0.0692826 -0.373184 -0.0591571 0.255866 0.0626883 -0.164484 0.0961261 0.104431 0.298502 0.117562 -0.490272 -0.324235 0.303281 -0.262425 -0.742192 -0.0309742 -0.388986 0.102617 0.0866678 0.915255 0.633558 -0.509036 0.0121889 0.534648 0.122631 -0.445858 -0.480437 2.82444 0.994053
1036 -0.139696 -0.0973877 -0.142777 -0.339471 0.223833 0.725067 -0.590108 -0.167958 -0.303051 0.288796 -0.264034 -0.670897 -0.396041 0.103074 -0.327488 -0.64228 -0.336447 -0.220464 0.290856 0.0142544 1.02383 0.23202 -0.403261 -0.245982 0.570221 0.233401 -0.799616 -0.540114 3.67496 0.744815
1025 -0.15597 -0.0828849 -0.230242 -0.261087 0.248275 0.713883 -0.59635 -0.25763 -0.391464 0.420732 -0.345985 -0.714309 -0.307136 0.134176 -0.292254 -0.64538 -0.367379 -0.225463 0.281407 0.0524589 0.983159 0.141165 -0.361057 -0.223996 0.57842 0.17436 -0.832649 -0.637074 3.7234 0.784325
1029 -0.127727 -0.214396 -0.193899 -0.314011 0.244202 0.752826 -0.622178 -0.140595 -0.331187 0.249255 -0.357086 -0.596937 -0.419234 0.0912374 -0.21223 -0.677986 -0.313885 -0.318921 0.178845 0.0194025 1.03447 0.185147 -0.410859 -0.303868 0.50383 0.207726 -0.871573 -0.75929 3.68934 0.728281
1040 -0.0381095 -0.177246 -0.280152 -0.248926 0.305332 0.820323 -0.524076 -0.200875 -0.316569 0.417113 -0.270193 -0.683488 -0.393461 0.0352873 -0.328913 -0.705978 -0.305873 -0.156241 0.2472 -0.0284015 1.02237 0.315436 -0.424718 -0.340739 0.500999 0.339255 -0.803022 -0.649249 3.67989 0.751682
606 0.0326954 -0.245428 -0.74797 -0.163921 0.484092 0.7282 -0.455068 0.146179 -0.390904 0.754738 0.132692 -0.947457 -0.356926 0.091656 0.252377 -0.384244 0.116784 0.245632 0.371168 0.183151 1.31426 -0.0851533 -0.793716 -0.369672 0.113069 0.217918 -0.492816 -1.03544 4.13667 0.891437
608 0.028683 -0.198924 -0.662784 -0.372869 0.61192 0.820092 -0.461576 0.071788 -0.452557 0.891365 0.171632 -1.01319 -0.474389 0.0578001 0.229511 -0.533024 0.00799944 0.0739656 0.398342 0.101753 1.41078 -0.00574776 -0.791486 -0.411031 0.150929 0.291969 -0.603448 -0.976012 4.51205 1.16439
609 0.0979256 -0.100852 -0.676013 -0.436425 0.58075 0.754311 -0.434179 0.0562843 -0.374845 0.87214 0.0873949 -0.957938 -0.542551 0.0936726 0.211013 -0.523769 -0.0632273 -0.0704274 0.460211 0.0534288 1.47704 -0.107849 -0.857714 -0.32662 0.125003 0.306055 -0.664091 -0.882364 4.55141 1.20309
614 0.0540209 -0.0789695 -0.589788 -0.471509 0.621879 0.767699 -0.325253 0.078201 -0.355995 0.843155 0.17528 -0.980356 -0.506651 0.0490787 0.168134 -0.577505 -0.00546963 0.00261248 0.415285 0.196022 1.40068 -0.0221036 -0.774465 -0.387592 0.156859 0.330718 -0.566492 -0.880398 4.42317 1.24813
617 0.0434429 -0.22273 -0.628014 -0.328556 0.522985 0.821353 -0.415511 0.0950636 -0.32783 0.878267 0.265718 -0.934963 -0.501357 0.0515757 0.236571 -0.482677 -0.0730567 0.229183 0.377842 0.231899 1.57759 0.00827011 -0.892177 -0.468249 0.142888 0.403629 -0.53687 -0.953108 4.38848 0.999409
610 0.144166 -0.13862 -0.637077 -0.378755 0.576905 0.7995 -0.375712 0.113803 -0.389258 0.796519 0.0894432 -0.920457 -0.519717 0.0724848 0.183889 -0.550722 -0.0406259 -0.0419846 0.341255 0.143798 1.38815 -0.00884084 -0.796968 -0.451959 0.199735 0.385569 -0.635395 -0.894244 4.39539 1.17716
615 -0.0197827 -0.172938 -0.653288 -0.241016 0.617817 0.638002 -0.422978 0.17907 -0.310466 0.746713 0.240777 -1.01107 -0.466231 0.080138 0.241085 -0.349171 0.0942841 0.192192 0.326412 0.22351 1.47064 -0.0819692 -0.931404 -0.454242 0.113002 0.40368 -0.485552 -1.08485 4.36197 1.08183
278 -0.0256829 -0.298508 -0.379833 0.0812127 0.510273 0.300544 -0.170219 0.307087 -0.282387 0.471418 0.169981 -0.633568 -0.179459 0.353319 -0.0574523 -0.318023 0.133749 0.227527 0.23397 0.314829 0.972341 -0.0366318 -0.680972 -0.51662 0.106344 0.384566 -0.541682 -0.746558 3.07903 0.838415
191 0.130688 -0.0735216 -0.200621 -0.461015 0.303899 0.156229 -0.131796 -0.186761 -0.182483 0.203829 0.153645 -0.415641 -0.144519 0.325822 -0.279984 -0.790424 0.125592 -0.179214 0.226719 0.169859 0.971109 0.428302 -0.584414 -0.319433 0.558463 -0.0834627 -0.612047 -0.323077 2.98584 1.37956
676 0.0779946 -0.222923 -0.443331 -0.522733 0.381975 0.341451 -0.355358 -0.287627 -0.420727 0.355578 0.0163673 -0.700073 -0.301543 0.116472 -0.186004 -0.917839 -0.177832 -0.306677 0.287538 0.27241 1.23596 0.161772 -0.727361 -0.619294 0.467827 -0.0735946 -0.933 -0.229298 3.80405 1.65173
690 0.0652229 -0.237114 -0.411032 -0.590695 0.350341 0.243879 -0.417373 -0.108032 -0.369497 0.407122 -0.0454748 -0.792485 -0.184984 0.0928464 -0.204451 -0.899189 -0.183163 -0.279982 0.372088 0.144186 1.26076 0.170261 -0.605853 -0.565119 0.493031 -0.141954 -0.852539 -0.304881 3.76355 1.64629
688 0.102113 -0.339871 -0.475643 -0.479465 0.410525 0.359971 -0.371116 -0.164555 -0.135073 0.457333 -0.0401273 -0.792124 -0.205584 0.0814169 -0.256596 -1.01749 -0.1547 -0.400418 0.319364 0.118627 1.30862 0.174 -0.688416 -0.654299 0.538107 -0.0414202 -0.835126 -0.415273 3.84261 1.74839
6 0.044581 -0.186478 -0.225522 -0.417684 0.214234 0.584955 -0.472086 -0.193763 -0.25469 0.120103 -0.284929 -0.668579 -0.567442 -0.074889 -0.113981 -0.877006 -0.372076 -0.287106 0.267383 -0.0359639 1.15195 0.341839 -0.564525 -0.524266 0.642197 -0.25096 -0.644638 -0.370586 3.47276 0.856129
1034 0.0192868 -0.00820933 -0.0746702 -0.269166 0.188982 0.70306 -0.606561 -0.239177 -0.279807 0.341742 -0.300598 -0.655242 -0.316304 0.0867611 -0.165063 -0.665189 -0.352599 -0.169962 0.435164 0.0482739 0.901813 0.234296 -0.399413 -0.192457 0.56957 0.176892 -0.815725 -0.684889 3.68888 0.691047
1030 -0.0104443 -0.109109 -0.0803971 -0.210959 0.190531 0.754423 -0.587829 -0.155251 -0.370269 0.350275 -0.278147 -0.711172 -0.255469 -0.00715211 -0.28103 -0.560461 -0.300628 -0.175061 0.339793 0.0744078 0.963786 0.263306 -0.3683 -0.311998 0.390092 0.253701 -0.869988 -0.71942 3.6589 0.73945
1028 -0.0737532 -0.222828 -0.161712 -0.258238 0.292106 0.768134 -0.606776 -0.269985 -0.357739 0.485213 -0.382583 -0.741324 -0.329933 0.137354 -0.222391 -0.657279 -0.322718 -0.209414 0.335758 -0.026791 0.97858 0.317957 -0.368024 -0.275047 0.459891 0.158889 -0.882585 -0.693856 3.7727 0.735041
1023 -0.102473 -0.133769 -0.183056 -0.230674 0.241232 0.719252 -0.593357 -0.253817 -0.279784 0.331464 -0.168298 -0.708499 -0.401265 0.0434631 -0.16687 -0.732889 -0.252832 -0.130299 0.377379 0.070666 0.974373 0.258892 -0.402297 -0.251651 0.519224 0.228865 -0.82074 -0.604056 3.73644 0.633073
503 -0.0133434 0.0082323 -0.444553 0.115689 0.425465 0.28428 0.160195 0.0295508 0.165163 0.101357 -0.0630983 -0.684047 -0.320712 0.0498381 -0.396667 -0.503103 -0.117813 -0.400065 0.305249 0.0407242 1.00631 0.452045 -0.59194 0.369178 0.259674 0.118865 -0.965363 -0.485612 2.96908 0.885167
199 0.108457 -0.164804 -0.395231 -0.0911712 0.360774 0.0956944 0.062029 0.0754361 0.0696183 0.223609 -0.06363 -0.493793 -0.28448 0.279386 -0.171687 -0.66512 0.0280647 -0.35856 0.151736 0.105979 0.81741 0.263674 -0.493434 0.142494 0.410458 0.0199174 -0.642753 -0.560802 2.81873 0.797769
193 -0.0117962 0.250259 -0.522843 -0.185287 0.289022 0.0800306 0.102492 0.0425633 -0.298375 0.311299 0.0801544 -0.441885 -0.396474 0.193857 -0.234621 -0.599055 -0.213469 -0.391589 0.062365 0.00658882 0.882493 0.611879 -0.652541 0.133202 0.55849 0.0451714 -0.601992 -0.4111 2.81763 0.899038
1065 -0.0886059 -0.137026 -0.440899 -0.254675 0.229929 0.418769 -0.421775 -0.489128 -0.116864 -0.112532 -0.00954375 -0.707498 -0.523807 0.258761 0.00396157 -0.618293 -0.198685 -0.425063 0.127645 -0.368471 0.868128 0.347599 -0.757818 -0.273307 0.183584 0.107323 -0.820914 -0.510672 3.44663 0.995821
1063 0.142926 -0.0206774 -0.439802 -0.172122 0.111112 0.51487 -0.363237 -0.455553 -0.0837758 0.089437 0.119839 -0.68052 -0.349534 0.297743 -0.0780456 -0.558803 -0.306951 -0.415179 0.165212 -0.337677 0.881355 0.404472 -0.711567 -0.384739 0.242137 0.200097 -0.975929 -0.597639 3.543 0.895826
680 0.112485 -0.276149 -0.472535 -0.496201 0.343245 0.307859 -0.254096 -0.190517 -0.398909 0.32203 -0.17909 -0.705158 -0.307024 0.130479 -0.284427 -0.890591 -0.130184 -0.274068 0.370066 0.265977 1.19752 0.336654 -0.657239 -0.628665 0.567278 -0.00821047 -0.895394 -0.363042 3.76407 1.5581
699 0.16978 -0.186812 -0.35749 -0.570523 0.207177 0.156046 -0.240079 -0.160974 -0.386397 0.359876 -0.0237485 -0.76958 -0.351684 0.0965821 -0.362599 -0.883388 -0.242348 -0.352384 0.383477 0.131649 1.21475 0.336619 -0.693523 -0.562905 0.561369 0.0150559 -0.784274 -0.359387 3.77515 1.64912
682 0.153154 -0.278493 -0.370162 -0.684526 0.300565 0.0857243 -0.301038 -0.111349 -0.348087 0.269883 -0.0687799 -0.753674 -0.236732 0.112415 -0.321851 -0.903285 -0.0544155 -0.275982 0.342513 0.195832 1.25308 0.228607 -0.731302 -0.50241 0.529031 0.0421143 -0.762322 -0.243812 3.69779 1.6638
700 0.0933602 -0.265484 -0.592139 -0.413554 0.337063 0.107244 -0.361703 -0.171725 -0.320455 0.326456 -0.0881007 -0.806719 -0.338288 0.102732 -0.310689 -0.890422 -0.183292 -0.370352 0.31302 0.17958 1.22413 0.13099 -0.621953 -0.473541 0.534442 -0.0454798 -0.870907 -0.295414 3.80319 1.56765
674 0.202252 -0.233352 -0.374859 -0.482118 0.392992 0.458054 -0.338334 -0.218044 -0.311652 0.290958 -0.0661361 -0.846573 -0.281115 0.0129858 -0.281741 -1.00177 -0.331894 -0.256819 0.344996 0.236971 1.41777 0.215063 -0.699564 -0.629107 0.492788 -0.186094 -0.929189 -0.323019 3.97508 1.65097
695 0.122206 -0.243073 -0.494692 -0.506893 0.327628 0.329739 -0.392782 -0.164681 -0.411969 0.423736 0.0172732 -0.684054 -0.121219 0.199215 -0.327806 -0.927131 -0.134668 -0.230521 0.291792 0.304649 1.23651 0.200023 -0.621507 -0.571628 0.470325 -0.0511554 -0.886809 -0.260315 3.8026 1.65087
678 0.0868131 -0.310737 -0.417113 -0.527135 0.275222 0.315918 -0.40382 -0.225083 -0.238244 0.360833 -0.0870108 -0.768363 -0.237568 0.0636926 -0.274709 -0.962943 -0.0893937 -0.262298 0.402779 0.196972 1.33292 0.155932 -0.648912 -0.594405 0.549294 -0.0575686 -0.898592 -0.387579 3.88245 1.73874
685 0.263333 -0.213432 -0.476403 -0.530793 0.369066 0.355492 -0.373935 -0.274206 -0.389074 0.344512 -0.108726 -0.799673 -0.386116 0.0932997 -0.118535 -0.967367 -0.1263 -0.38311 0.321278 0.244413 1.22888 0.0475897 -0.610107 -0.528468 0.521779 -0.160604 -0.826573 -0.319578 3.89172 1.59635
689 0.278215 -0.164994 -0.424628 -0.438757 0.297131 0.324503 -0.407173 -0.28223 -0.429478 0.342126 0.00662167 -0.813003 -0.384846 0.00936574 -0.210068 -0.901208 -0.321122 -0.398064 0.38074 0.214984 1.29778 0.160084 -0.652242 -0.583959 0.478187 -0.155692 -0.894326 -0.461036 4.03537 1.66746
677 0.223452 -0.253635 -0.408404 -0.591324 0.420672 0.378747 -0.352 -0.291526 -0.301118 0.340484 -0.081035 -0.788979 -0.276349 0.0932593 -0.250523 -1.00427 -0.18741 -0.320167 0.32188 0.227041 1.32411 0.212695 -0.686205 -0.681715 0.432102 -0.154405 -0.830558 -0.397264 3.93073 1.58518
691 0.119354 -0.261845 -0.463764 -0.385889 0.344313 0.183837 -0.295252 -0.288788 -0.359126 0.380046 -0.11297 -0.833891 -0.229079 0.1121 -0.342636 -0.97955 -0.109264 -0.311913 0.228345 0.281428 1.26509 0.264661 -0.628154 -0.747352 0.474052 0.014898 -0.91221 -0.392427 3.78871 1.55452
696 0.149104 -0.217408 -0.41429 -0.547798 0.392019 0.28421 -0.438427 -0.172807 -0.377905 0.300405 -0.154198 -0.911799 -0.278685 0.107499 -0.264503 -0.918018 -0.281332 -0.280273 0.325774 0.333177 1.26225 0.206662 -0.658892 -0.716861 0.572359 -0.152175 -0.908364 -0.347486 4.00736 1.69833
692 0.136078 -0.196528 -0.541552 -0.498519 0.471318 0.336824 -0.45292 -0.260718 -0.422003 0.267173 -0.0402777 -0.735795 -0.208806 0.200553 -0.343253 -0.925665 -0.159939 -0.246363 0.369055 0.309278 1.35333 0.177551 -0.698635 -0.590693 0.5099 -0.0969222 -0.840088 -0.2757 3.91119 1.68601
681 0.157899 -0.168371 -0.488299 -0.488344 0.258116 0.23297 -0.191282 -0.221639 -0.356303 0.36637 -0.0615436 -0.802414 -0.221794 0.186394 -0.346242 -0.893052 -0.153187 -0.287336 0.31172 0.115173 1.22972 0.235297 -0.685059 -0.461151 0.521533 -0.00851713 -0.870025 -0.19233 3.67697 1.66548
175 0.147545 -0.151578 -0.347434 -0.270392 0.25837 0.129288 0.02594 0.0545758 0.0102111 0.10138 -0.00307778 -0.442979 -0.208741 0.208494 -0.316689 -0.727721 -0.0136131 -0.205083 0.31827 -0.0281021 0.905982 0.101632 -0.398836 -0.208584 0.457701 -0.0461982 -0.563732 -0.351961 2.72066 1.16619
694 0.255545 -0.2011 -0.520288 -0.533488 0.345671 0.0529928 -0.262689 -0.0917007 -0.428797 0.330554 -0.055955 -0.801272 -0.248477 0.201269 -0.312329 -0.946017 -0.191857 -0.296873 0.267434 0.257717 1.21046 0.108488 -0.570459 -0.606324 0.556769 -0.0245193 -0.765535 -0.319151 3.79196 1.66772
204 0.04766 -0.0397144 -0.339283 -0.206568 0.208827 0.0968094 -0.0136394 0.180672 -0.0116057 0.237656 0.16679 -0.473326 -0.133105 0.251286 -0.29336 -0.584325 0.0134874 -0.287105 0.349706 0.272155 0.949613 0.345645 -0.648233 -0.094427 0.499234 -0.054227 -0.779434 -0.0408285 2.6345 1.17776
1120 0.163534 -0.0566707 0.140853 -0.0643678 -0.186147 0.564628 -0.0266152 -0.167122 0.0101976 0.691823 -0.135289 -0.557631 -0.381787 0.624051 -0.0914456 -0.459921 0.366163 -0.208009 0.5545 0.157569 0.608034 0.530702 -0.824989 0.0433185 0.0568156 -0.0937506 -1.00269 -0.17638 3.09587 1.28519
771 0.0483844 0.0658563 0.184074 -0.0941526 -0.0619411 0.284827 -0.180579 -0.259466 -0.0210958 0.593984 -0.0404384 -0.503102 -0.402805 0.493839 0.0598309 -0.626152 0.370843 -0.311543 0.339242 0.208678 0.837154 0.284931 -0.726732 -0.0595388 0.0714752 -0.253669 -0.912765 -0.382016 3.05882 1.28693
1119 0.257931 -0.047955 0.155548 -0.00538847 -0.223829 0.427887 -0.180168 -0.0681999 -0.106144 0.568116 -0.154588 -0.465965 -0.49325 0.663872 -0.00298563 -0.451994 0.290544 -0.353595 0.670064 0.111207 0.729239 0.513744 -0.793374 0.127488 -0.0101231 -0.0542721 -0.940664 -0.278768 3.15214 1.3353
28 -0.0558526 -0.090537 -0.106597 -0.41556 0.176015 0.210847 0.0977161 0.215302 -0.214656 0.192146 -0.130207 -0.533042 -0.348998 0.137418 -0.052209 -0.84044 0.114802 -0.419604 0.202366 0.0771687 0.865892 0.141715 -0.475212 -0.363293 0.0821708 -0.106415 -0.289533 -0.502823 2.94831 0.796938
432 0.34452 0.17553 -0.133566 -0.422957 0.25745 0.445195 0.00944288 0.276585 -0.348603 0.338963 0.0759299 -0.506403 -0.0296784 0.403811 -0.0905275 -0.58623 0.15149 -0.560811 0.575095 -0.0460488 0.905105 -0.0260344 -0.673698 0.10266 0.0352535 0.182162 -0.304702 -0.0769325 2.90135 1.00326
101 0.0794636 -0.192892 -0.197896 -0.41968 0.514227 0.080733 0.179065 -0.0141974 -0.214562 0.0560139 -0.197942 -0.471125 -0.513165 0.547554 -0.172856 -0.380745 0.17819 -0.119038 0.000721466 -0.126096 0.914025 -0.217184 -0.913264 -0.188682 0.367228 0.109544 -0.624697 -0.487181 3.01546 0.884619
76 0.0587253 0.0199139 -0.0068423 -0.12069 0.247739 0.461949 -0.0322428 -0.104929 0.0213255 0.413584 -0.220314 -0.521229 -0.213302 0.626318 -0.0993775 -0.443929 -0.00888674 -0.457842 0.385539 0.192112 0.829405 0.0523618 -0.731597 0.113476 0.187333 -0.147489 -0.619735 -0.241832 2.7375 0.91874
46 -0.0597414 0.173859 -0.0781753 -0.176927 0.413498 0.524133 -0.124269 -0.0828489 -0.495669 0.162663 -0.392727 -0.621004 0.0437209 0.465111 -0.402282 -0.459003 0.104601 -0.215282 0.295234 0.0063656 0.80463 0.409931 -0.624054 -0.488303 -0.129754 -0.0814896 -0.481557 -0.394192 3.03782 0.82259
430 0.0996053 0.211339 -0.120535 -0.0469721 0.280653 0.440409 -0.166205 0.0837523 -0.10408 0.0153461 -0.438658 -0.566605 -0.373716 0.413517 -0.324823 -0.67193 0.12289 -0.503346 0.356364 -0.0592845 0.957788 0.104658 -0.485533 -0.531177 -0.0507766 0.0839577 -0.574938 -0.374605 3.15567 1.00722
538 0.0262437 0.227088 0.0706505 -0.309955 0.324445 0.477309 -0.043315 0.08363 -0.398393 0.00311127 -0.402796 -0.521676 -0.340604 0.320895 -0.532123 -0.323606 0.111974 -0.209739 0.598346 0.0879804 0.856847 0.178238 -0.597997 -0.434645 -0.130648 0.331048 -0.570338 -0.303117 3.10948 0.972048
536 0.0595639 0.0936395 0.0916462 -0.378304 0.380525 0.483692 -0.0830569 0.0396905 -0.194996 0.0629925 -0.0222473 -0.576518 -0.141719 0.270742 -0.551429 -0.223879 -0.0667593 -0.684414 0.469636 0.164872 0.947321 -0.151519 -0.521113 -0.333904 -0.189467 0.394143 -0.61223 -0.569225 3.19619 0.837302
130 0.0443012 0.171966 -0.147705 -0.312662 0.174019 0.548394 0.113699 0.0676523 -0.319362 0.263039 -0.0940239 -0.569991 -0.132452 0.387638 -0.378299 -0.437203 -0.0567401 -0.663682 0.146329 0.409476 0.862448 0.000312265 -0.548906 -0.274828 -0.0619805 0.17231 -0.484721 -0.59427 3.18499 0.784478
64 -0.143408 -0.103317 0.154505 -0.867441 0.209957 0.255799 0.0147931 0.390121 -0.341483 0.015169 0.0600275 -0.432046 -0.321328 0.130767 -0.243673 -0.633035 -0.243005 -0.956858 0.156042 0.241163 1.0871 0.284582 -0.734957 -0.337628 -0.211387 -0.0240474 -0.503914 -0.631907 3.24067 1.19544
192 0.210574 0.063829 -0.158509 -0.41786 0.497573 0.249264 -0.0411435 0.0652108 -0.401961 0.684918 0.171079 -0.506823 -0.161249 0.514062 -0.00692101 -0.917191 0.0879699 -0.679321 0.337141 0.0336047 1.11178 0.29497 -0.777764 -0.0861565 0.271159 0.703776 -0.453683 -0.0263999 3.3173 0.948587
208 0.185918 0.0204067 -0.172841 -0.612451 0.650713 0.422418 -0.239977 0.0887188 -0.339896 0.941041 0.0417926 -0.607439 -0.0403094 0.694363 -0.000494167 -1.12737 -0.0637524 -0.533378 0.451912 -0.180723 1.18136 0.509665 -0.793082 -0.161749 0.455146 0.916976 -0.752426 -0.157591 4.11042 1.21913
207 0.247725 0.0344089 -0.0687149 -0.74379 0.804133 0.342194 -0.095235 0.0137869 -0.492775 0.764303 0.0876194 -0.610416 0.0697508 0.693551 0.0842692 -1.30036 -0.107205 -0.647471 0.433398 -0.113937 1.24524 0.390173 -0.721629 -0.117913 0.377783 0.751929 -0.783001 -0.173097 4.25196 1.2955
203 0.254768 0.0889064 -0.0474479 -0.761077 0.755189 0.362129 -0.191952 0.100851 -0.425372 0.876864 0.0982352 -0.579549 -0.0177522 0.612499 0.0245703 -1.25523 -0.0993824 -0.587367 0.513585 -0.113175 1.23001 0.495734 -0.73435 -0.210037 0.371163 0.801126 -0.758187 -0.197232 4.23082 1.34347
206 0.193717 0.0698329 -0.0403897 -0.690112 0.751092 0.21649 -0.16403 -0.0347204 -0.435045 0.872568 0.0851241 -0.660562 -0.0172363 0.625429 0.0709497 -1.23437 -0.0260078 -0.591 0.432821 -0.229814 1.12972 0.464332 -0.783103 -0.136521 0.450591 0.806147 -0.734968 -0.2461 4.07771 1.33618
215 0.240968 0.158031 -0.172933 -0.688163 0.754182 0.398428 -0.201868 -0.00535537 -0.368059 0.895876 0.0257866 -0.670972 0.0100833 0.640214 -0.0458423 -1.18689 -0.0238506 -0.653151 0.523981 -0.195444 1.22733 0.48816 -0.765283 -0.0869333 0.391079 0.791862 -0.76971 -0.215939 4.26956 1.37311
217 0.180519 0.0801761 -0.0669925 -0.780867 0.866272 0.376699 -0.2147 0.0592356 -0.341298 0.807255 0.131084 -0.607932 -0.117631 0.588385 0.12311 -1.27079 -0.000453834 -0.576951 0.421662 -0.18714 1.2115 0.430583 -0.792931 -0.180598 0.332568 0.735725 -0.827255 -0.160608 4.23381 1.22191
198 0.167504 0.0855973 -0.14422 -0.509307 0.658024 0.370631 0.0492817 0.0320088 -0.219996 0.556125 0.077604 -0.555165 0.192303 0.441742 -0.164914 -1.23715 0.128084 -0.233266 0.241237 -0.164311 1.1011 0.428836 -0.352531 0.10005 0.346826 0.533542 -0.707055 -0.447712 3.47199 1.09317
781 0.243493 0.00822706 -0.32518 -0.161115 0.622314 0.528416 0.0495426 0.339473 0.054622 0.260444 0.268868 -0.56206 0.349175 0.393931 -0.253176 -1.09017 0.155819 -0.252475 0.446179 -0.173007 0.869857 0.182118 -0.0164178 0.0774633 0.113786 0.178372 -0.878962 -0.511061 3.34276 0.939468
197 0.111088 0.0487785 -0.172509 -0.702046 0.645937 0.266597 -0.082559 -0.0133893 -0.493256 0.766825 0.0980411 -0.649589 0.0995472 0.622923 -0.0152962 -1.13897 -0.00906826 -0.65595 0.54385 -0.11023 1.18457 0.505444 -0.766653 -0.140265 0.367483 0.769229 -0.634547 -0.161354 4.02153 1.24417
26 0.120289 0.0803458 -0.0801972 -0.305428 0.190683 0.388716 -0.0591786 0.236488 -0.291592 0.199728 -0.448392 -0.581433 -0.098324 0.426396 -0.429704 -0.550037 0.0961728 -0.517067 0.114448 0.253709 0.933566 0.0478268 -0.528964 -0.440255 -0.053785 0.142723 -0.556668 -0.493248 3.21492 0.91926
84 -0.15531 -0.0150944 -0.0546447 -0.231015 0.302254 0.176236 -0.219741 0.021411 -0.108555 0.442074 -0.0217555 -0.46771 -0.185701 0.462854 -0.119499 -0.594938 0.281469 -0.418773 -0.0391196 0.125662 0.934826 0.289854 -0.8085 -0.514044 0.112139 -0.0503512 -0.833753 -0.529233 3.17465 0.660412
32 -0.107323 -0.0548626 0.0375139 -0.344573 0.141934 0.361129 -0.0157676 0.16469 0.340818 0.566188 -0.249491 -0.535692 -0.338905 0.395203 -0.213252 -0.667827 0.0038034 -0.759332 -0.0720521 0.197347 0.915659 -0.0814966 -0.651562 -0.36586 0.195393 0.135238 -0.568995 -0.419886 2.95658 0.87771
27 0.0343872 0.0475714 -0.194382 -0.300757 0.0542043 0.364048 -0.00359039 0.389872 -0.251417 0.301082 -0.208344 -0.568154 -0.239292 0.416095 -0.149973 -0.565516 -0.0438351 -0.65347 -0.129494 0.132663 0.951511 0.00722067 -0.622126 -0.300085 -0.0107858 0.0579404 -0.756377 -0.483389 3.13373 0.852947
313 -0.183612 0.0375372 -0.005407 -0.134972 0.315992 -0.0168623 -0.232048 -0.105403 -0.136355 -0.0143266 -0.45255 -0.692813 -0.403375 0.34552 -0.0880647 -0.670078 -0.019495 -0.302989 -0.0872946 -0.0735449 0.97818 0.174741 -0.718006 -0.373396 0.342816 0.261503 -0.594861 -0.667642 3.00874 1.14055
312 -0.0808168 0.0794484 0.0625637 -0.0811858 0.400888 -0.0331239 -0.0485806 -0.121365 -0.334534 0.0700207 -0.378696 -0.568104 -0.349889 0.556533 0.0924967 -0.83199 0.00697903 -0.213915 0.0716941 -0.0219188 1.03852 0.0328183 -0.630849 -0.235845 0.432916 0.352678 -0.600109 -0.660581 2.97419 1.29977
34 -0.0745881 -0.0947503 0.192008 -0.106807 0.284543 0.157546 -0.142016 0.0277696 -0.0860312 0.445712 -0.404442 -0.793232 -0.244426 0.332565 0.12764 -0.806565 0.0567611 -0.647669 0.0370963 0.0278612 0.975756 0.101735 -0.66726 -0.222624 0.234368 -0.0773522 -0.387989 -0.468389 3.05305 1.05528
62 -0.0771136 -0.0229001 0.345497 -0.25445 0.225592 0.348047 -0.406938 0.264434 0.408248 0.349217 -0.0925506 -0.711721 -0.280558 0.153276 -0.189689 -0.572037 -0.0735883 -0.818666 0.190223 0.296643 1.03366 -0.069708 -0.49165 -0.352918 0.0912507 0.183041 -0.659336 -0.417025 3.06381 0.827436
170 -0.0364506 0.155028 0.0252705 0.137163 0.307281 0.159126 0.00808463 -0.210547 -0.192281 0.439518 -0.190068 -1.01737 -0.771152 -4.49538e-05 0.16741 -1.20434 0.258756 -0.645678 0.102361 -0.230612 0.99415 0.146994 -0.599269 0.0975324 -0.050427 -0.235693 -0.625173 -0.0682356 3.22813 1.08582
35 -0.073937 0.0359253 -0.126891 -0.182763 0.361699 0.179297 -0.170014 0.287621 -0.338176 0.179977 -0.0922543 -0.497693 -0.192369 0.373163 0.0711084 -0.653225 0.0339118 -0.68211 0.393128 0.0328907 0.878356 0.141343 -0.554665 -0.205773 -0.19683 0.150956 -0.505372 -0.450832 3.06023 0.882868
11 0.0356941 0.00558164 -0.129823 -0.0233927 0.0966383 -0.194877 -0.209067 0.139999 -0.68311 0.319769 -0.0808417 -0.45003 -0.712853 0.262739 0.0583579 -0.598308 0.106429 -0.498307 0.528371 0.198329 0.562661 -0.00296395 -0.381972 0.0989119 0.0759985 0.230742 -0.604347 -0.541295 2.93116 0.62159
25 -0.0969874 -0.128253 -0.133742 -0.225864 0.252878 0.144584 -0.0693779 -0.0589388 -0.42898 0.411576 -0.00908802 -0.625346 -0.255524 0.438903 0.219255 -0.495376 0.0677303 -0.333887 0.0627035 0.194528 0.940667 0.129198 -0.927546 -0.178289 0.0423099 0.258214 -0.529407 -0.371664 3.09836 0.712298
95 -0.34609 0.122009 -0.442669 -0.0568293 0.30739 0.102487 0.0102034 0.0886943 -0.609875 0.306745 0.144132 -0.473435 -0.174723 0.50769 -0.244477 -0.50467 0.0301129 -0.293854 0.481097 0.173891 0.872106 -0.05494 -0.673851 -0.327941 0.138942 0.199539 -0.637297 -0.456236 3.03319 1.05531
730 0.122399 0.155932 -0.382088 -0.254918 -0.0876138 0.645805 0.156883 0.0752747 -0.524326 0.475721 -0.00158429 -0.647179 0.0876405 0.499572 -0.283337 -0.484502 -0.1142 -0.571482 -0.121523 0.533184 1.00458 -0.252764 -0.709067 -0.181552 -0.125381 0.0692396 -0.712068 -0.550946 3.55919 0.823288
271 0.167524 -0.0711392 -0.381927 -0.215703 0.118789 0.416532 0.306711 0.0543967 -0.444689 0.434991 0.125994 -0.688241 -0.151991 0.411721 -0.173409 -0.412552 0.039023 -0.116045 -0.098014 0.133391 1.01482 -0.510929 -0.834374 -0.161426 0.161045 0.0902017 -0.424483 -0.685839 3.13583 0.924585
513 0.193906 0.0103829 -0.48116 0.0097959 0.319763 0.318512 0.0819691 0.0873779 -0.172123 0.556085 0.214791 -0.983472 -0.150028 0.319943 -0.178698 -0.427686 0.0873176 0.197512 0.0737242 -0.155402 0.909743 -0.327815 -0.595392 -0.482806 0.10933 0.066967 -0.334536 -0.807257 3.28565 1.03344
512 0.0171055 -0.149501 -0.31017 -0.094907 0.216196 0.388693 0.105412 0.368611 -0.293848 0.680559 0.320024 -0.800471 -0.277716 0.218843 -0.259254 -0.411091 0.126572 0.197977 0.392598 -0.176681 0.769751 -0.189614 -0.512365 -0.292776 0.135826 0.0614419 -0.408854 -0.631785 3.15761 1.0367
407 -0.000899057 -0.0269611 0.306222 -0.489526 -0.216052 0.409109 -0.0219427 -0.0183242 -0.165123 0.540739 -0.217057 -0.525633 -0.315953 0.447584 0.521798 -0.636249 0.0517833 -0.223961 0.451517 -0.0100463 1.00573 0.377224 -0.9286 0.0857754 0.155577 -0.178138 -0.702248 -0.448915 3.08649 1.12391
48 0.0175582 -0.0162451 -0.137857 -0.032915 0.0380647 0.404009 0.173646 -0.0649235 -0.401563 0.275333 -0.460957 -0.484121 -0.31885 0.619276 -0.00643504 -0.532634 0.17314 -0.240728 0.306004 0.116237 0.839622 0.3547 -0.746556 -0.302981 0.0197443 0.0371245 -0.749972 -0.445858 2.90964 0.979791
202 0.103107 0.0933529 -0.254662 -0.376022 0.512954 0.0635143 -0.147989 -0.0320007 -0.00890367 0.388975 0.0322467 -0.52094 -0.0804852 0.286939 -0.186426 -0.880319 0.0294732 -0.537371 0.220577 0.0513968 0.980124 0.753108 -0.616009 0.125104 0.572192 0.272017 -0.134484 -0.157397 2.95279 1.09485
548 0.261955 -0.0647212 -0.39777 -0.0422014 0.447071 0.248015 -0.112472 0.133071 0.105462 0.28192 -0.0274505 -0.634133 0.129765 0.425216 -0.370392 -0.684679 0.171342 -0.135222 0.341479 -0.241765 0.73488 0.149433 -0.265836 0.107232 0.256229 0.099195 -0.695829 -0.586475 2.98626 1.04205
788 0.078032 0.220034 -0.277818 -0.172559 0.583708 0.513079 0.0661073 0.303381 -0.211854 0.270824 0.115247 -0.613728 0.349132 0.32092 -0.270752 -1.047 0.0330267 -0.140253 0.275611 -0.212379 0.850668 0.387234 -0.0232226 0.237146 0.171491 0.185683 -0.733458 -0.656712 3.04484 1.0741
785 0.250917 0.0961445 -0.351943 -0.0423605 0.737118 0.423993 0.0165596 0.326158 -0.0817352 0.118291 0.125045 -0.552572 0.184689 0.33264 -0.295114 -0.963916 0.136564 -0.0606261 0.393955 -0.238691 0.98907 0.0918654 -0.14212 0.16493 0.240597 0.000359177 -0.84744 -0.338017 3.05964 0.841437
129 -0.0309632 0.284586 -0.428308 0.0755906 0.0157064 0.477477 -0.0512409 0.116566 -0.364384 0.416249 0.023367 -0.370925 -0.149916 0.305735 -0.473931 -0.63292 -0.250514 -0.212 0.1076 0.0392112 0.736179 0.190631 -0.292115 -0.0806276 0.542411 0.0772748 -0.880958 -0.508267 2.74805 0.842026
212 0.129191 -0.0161134 -0.427674 -0.144847 0.436224 0.0963463 0.0106999 -0.0414022 0.0137133 0.287447 -0.0680519 -0.532533 -0.330279 0.225218 -0.241381 -0.681546 0.110024 -0.200193 0.0618399 0.006503 0.862119 0.147063 -0.43835 0.190219 0.437422 0.0309803 -0.399839 -0.541178 2.85086 0.934637
683 0.168772 -0.180364 -0.542028 -0.327541 0.276466 0.221286 -0.364629 -0.231102 -0.39089 0.307073 -0.0661418 -0.830173 -0.383441 0.0985843 -0.364366 -0.836416 -0.134661 -0.201403 0.364325 0.276293 1.13645 0.194015 -0.63116 -0.604989 0.454832 -0.0147351 -0.831611 -0.253512 3.71385 1.65031
698 0.173549 -0.236501 -0.431792 -0.499696 0.328282 0.297202 -0.430108 -0.159576 -0.356559 0.32432 0.0135597 -0.799784 -0.330917 0.110578 -0.13435 -0.990588 -0.257832 -0.318579 0.318862 0.120474 1.22896 0.220543 -0.624211 -0.630806 0.563989 -0.0361335 -0.805957 -0.313804 3.89107 1.74111
697 0.140382 -0.262635 -0.493256 -0.493112 0.280615 0.139558 -0.349953 -0.0991409 -0.309163 0.286387 -0.16894 -0.871692 -0.227845 0.124709 -0.352329 -0.898327 -0.0923029 -0.323026 0.249249 0.18976 1.27339 0.215453 -0.711933 -0.55714 0.526269 -0.031898 -0.865327 -0.235506 3.79879 1.65662
701 0.129846 -0.210988 -0.400892 -0.586379 0.372345 0.393581 -0.367523 -0.220667 -0.281613 0.433666 -0.0665948 -0.776182 -0.371025 0.067412 -0.216863 -0.991844 -0.189885 -0.315046 0.378714 0.344792 1.32507 0.134649 -0.659028 -0.649715 0.547325 -0.143687 -0.901434 -0.32693 3.86346 1.72027
23 0.0627969 0.0423839 -0.107599 -0.141968 0.22126 -0.0455257 0.0237776 -0.0455849 0.0337376 0.0921369 -0.207772 -0.489304 -0.346963 0.315185 -0.196352 -0.751016 0.10311 -0.388534 0.110459 0.116197 0.885679 0.253376 -0.48972 -0.173892 0.410761 0.138513 -0.544231 -0.53619 2.82933 0.884732
873 0.0570551 -0.144459 -0.288918 -0.312682 0.330953 0.35757 0.0955917 -0.0520346 -0.118344 0.487638 -0.168597 -0.964633 -0.408421 0.103178 -0.194439 -0.658378 -0.106894 -0.298615 0.382762 0.161605 1.11711 0.372696 -0.947872 -0.0255712 0.0861369 0.237373 -1.2762 -0.482582 3.97267 1.15671
874 0.109881 -0.166704 -0.286056 -0.309209 0.277555 0.350905 0.0912318 -0.0963958 -0.108997 0.512385 -0.239936 -0.999844 -0.354384 0.0444734 -0.220072 -0.689021 -0.113212 -0.334824 0.401679 0.21768 1.05738 0.36181 -0.906277 -0.05851 0.0970767 0.221022 -1.32063 -0.445614 3.98942 1.18131
245 -0.0114019 -0.267519 -0.287126 -0.271388 0.435815 0.505277 0.132212 -0.0859393 -0.0468307 0.438889 -0.240526 -1.12163 -0.316695 0.0824907 -0.167969 -0.704805 -0.173804 -0.340109 0.357534 0.190168 1.11752 0.6146 -0.959464 -0.0736772 0.210957 0.34034 -1.60721 -0.414306 4.34964 1.24078
624 -0.00937408 -0.170605 -0.227805 -0.297843 0.405551 0.489305 0.185589 -0.0571316 -0.0606635 0.481741 -0.179341 -1.03876 -0.316567 0.0656348 -0.315528 -0.518234 -0.196394 -0.287615 0.346778 0.212168 1.04059 0.483285 -0.881056 0.114386 0.15836 0.200899 -1.49496 -0.356022 4.0595 1.18166
621 0.015289 -0.233713 -0.120876 -0.343645 0.440881 0.464503 0.155618 -0.0174276 -0.158094 0.458248 -0.204996 -1.00652 -0.406736 0.0784457 -0.173445 -0.575524 -0.100537 -0.270919 0.500099 0.259015 0.992984 0.466381 -0.926462 0.0182645 0.173646 0.292645 -1.43875 -0.309961 4.19663 1.18804
622 0.0132174 -0.235732 -0.141177 -0.208024 0.365254 0.359446 0.137431 0.0294166 -0.0690773 0.481106 -0.188702 -1.04936 -0.28262 0.0205817 -0.259462 -0.522311 -0.145135 -0.322606 0.306451 0.243773 1.02698 0.447766 -0.825315 0.0922465 0.090603 0.207252 -1.39131 -0.389332 3.93805 1.16369
120 -0.150915 -0.161941 -0.170351 -0.0705457 0.765507 0.0388346 -0.0214082 -0.0174936 -0.0455604 0.145637 -0.226713 -1.00414 -0.173482 -0.0483473 -0.565539 -0.337774 -0.372741 -0.540011 0.203494 0.181643 1.02499 0.66944 -0.589535 0.128966 0.17545 0.272063 -1.27294 -0.360459 3.45498 1.08323
809 -0.238371 -0.0750383 -0.310853 -0.508598 0.899145 0.283477 -0.119804 0.0705384 -0.104656 0.612725 -0.290901 -1.32792 -0.07326 -0.104127 -0.215298 -0.421217 -0.337189 -0.639529 0.163722 0.334954 1.2536 0.594446 -0.881367 0.00608953 0.114257 0.417523 -1.52147 -0.420659 4.38784 1.57595
797 -0.169098 -0.116159 -0.258149 -0.425627 0.895949 0.297248 -0.224413 0.00906505 -0.102759 0.611912 -0.299102 -1.3382 -0.131422 -0.0305854 -0.203869 -0.4375 -0.407602 -0.765199 0.225011 0.407868 1.16741 0.593407 -0.954154 -0.0434533 0.0387819 0.408081 -1.54341 -0.313096 4.39951 1.57912
794 -0.231337 -0.0499867 -0.292896 -0.436904 0.88335 0.376711 -0.154435 -0.0121897 -0.121894 0.657115 -0.298753 -1.34826 -0.0590509 -0.0571941 -0.237801 -0.458106 -0.448378 -0.675737 0.1888 0.384965 1.19009 0.631942 -0.890522 -0.0686809 0.176369 0.430095 -1.53458 -0.430764 4.41713 1.5266
810 -0.147824 -0.103895 -0.270632 -0.380424 0.886741 0.249336 -0.15816 -0.0149944 -0.0762992 0.585685 -0.293585 -1.34799 -0.131835 -0.112047 -0.133271 -0.470284 -0.433645 -0.708542 0.171686 0.268057 1.22181 0.569448 -0.828459 -0.0348 0.0408754 0.420211 -1.57099 -0.412253 4.3071 1.53662
795 -0.134222 -0.0588131 -0.276484 -0.471359 0.917647 0.227216 -0.111787 0.0229891 -0.110227 0.550923 -0.247821 -1.38155 -0.0795541 -0.0789676 -0.150721 -0.362736 -0.415961 -0.75638 0.101803 0.387566 1.12543 0.592138 -0.905333 -0.0624247 0.102708 0.385551 -1.47788 -0.355635 4.26546 1.62769
793 -0.21992 -0.0273755 -0.224075 -0.43729 0.95807 0.25965 -0.246443 -0.0669048 -0.098576 0.609432 -0.363173 -1.29379 -0.0867942 -0.0796995 -0.228239 -0.488184 -0.409439 -0.699197 0.163539 0.379971 1.29726 0.606206 -0.965178 -0.109627 0.126207 0.383447 -1.56777 -0.352175 4.29427 1.56962
791 -0.203598 -0.108054 -0.231493 -0.464895 0.941407 0.286168 -0.215564 -0.0257205 -0.0562331 0.616229 -0.185513 -1.29692 -0.0875066 -0.0898471 -0.174439 -0.481545 -0.436661 -0.705105 0.0732024 0.45932 1.12771 0.553119 -0.89512 -0.0124935 0.0486469 0.329038 -1.5328 -0.40915 4.33093 1.51085
806 -0.211172 -0.183126 -0.217834 -0.466126 0.899941 0.296064 -0.202996 -0.0171098 -0.124576 0.674198 -0.295254 -1.36739 -0.138744 -0.0149917 -0.266011 -0.361482 -0.43142 -0.658526 0.112808 0.359725 1.20232 0.595219 -0.978592 -0.0556703 0.0997805 0.466668 -1.52998 -0.390011 4.46732 1.60528
796 -0.183661 -0.0160245 -0.313026 -0.464338 0.847834 0.271364 -0.180842 -0.0956125 -0.170898 0.684298 -0.346407 -1.42204 -0.0974184 -0.0401583 -0.197433 -0.465237 -0.368808 -0.668219 0.0999086 0.311531 1.15417 0.566834 -0.956042 -0.0505442 0.0962562 0.356197 -1.61448 -0.353554 4.401 1.55572
798 -0.212218 -0.0945124 -0.205963 -0.497219 0.829542 0.313455 -0.23703 -0.0788241 -0.0852797 0.638789 -0.299868 -1.35222 -0.0943446 -0.073882 -0.210262 -0.3761 -0.405139 -0.62971 0.139138 0.315602 1.26063 0.577181 -0.902036 -0.0382231 0.0702495 0.338486 -1.53825 -0.374048 4.32196 1.51901
808 -0.192999 -0.0508685 -0.163907 -0.404336 0.88062 0.265548 -0.275593 -0.00686666 -0.115884 0.647663 -0.182283 -1.39521 -0.141929 -0.0660885 -0.165669 -0.410315 -0.410457 -0.670982 0.133702 0.354686 1.09598 0.542329 -0.950053 -0.0156405 0.11586 0.256673 -1.51188 -0.34064 4.36257 1.59877
792 -0.177853 -0.095551 -0.276006 -0.379495 0.927476 0.230646 -0.146398 -0.0363014 -0.115331 0.597512 -0.233246 -1.37214 -0.084851 -0.0412745 -0.159463 -0.46704 -0.432319 -0.644879 0.196877 0.323418 1.0612 0.664107 -0.938219 -0.0277615 0.0559779 0.405062 -1.51627 -0.420962 4.3944 1.59382
801 -0.218288 -0.0547128 -0.295935 -0.387766 0.911995 0.317013 -0.235443 0.0661554 -0.15761 0.627728 -0.294073 -1.33262 -0.0818897 -0.0330708 -0.164924 -0.407049 -0.444562 -0.70027 0.179803 0.332046 1.20921 0.596995 -0.881178 -0.0665438 0.108833 0.331165 -1.5277 -0.415871 4.30777 1.53211
800 -0.22984 -0.0604456 -0.180275 -0.430156 0.858058 0.294821 -0.173456 -0.00471471 -0.12482 0.681615 -0.254004 -1.38327 -0.113383 -0.0768556 -0.212822 -0.37009 -0.448329 -0.692868 0.13417 0.297967 1.15249 0.61156 -0.973903 -0.0777005 0.134459 0.365157 -1.51933 -0.385086 4.33259 1.50445
807 -0.175738 0.0643423 -0.197065 -0.443661 0.95985 0.21478 -0.165612 -0.0222121 -0.101175 0.526136 -0.331262 -1.34292 -0.152626 -0.0889909 -0.234827 -0.487179 -0.424029 -0.725343 0.193049 0.349647 1.1484 0.622809 -0.955467 -0.0592006 0.246205 0.321397 -1.56336 -0.349912 4.35258 1.57009
803 -0.136662 -0.0483171 -0.256997 -0.452646 0.872807 0.237756 -0.2042 0.0492863 -0.0954767 0.52487 -0.29489 -1.39895 -0.0618913 -0.0831571 -0.190543 -0.422274 -0.478726 -0.633292 0.0696939 0.331051 1.28583 0.630792 -0.972313 0.032334 0.0801944 0.372356 -1.5728 -0.406731 4.38875 1.56397
1032 -0.0334708 -0.137983 -0.224796 -0.264976 0.161935 0.747399 -0.512107 -0.327577 -0.249458 0.413191 -0.388456 -0.703263 -0.311325 0.162948 -0.224227 -0.644336 -0.229825 -0.14892 0.327899 -0.00888396 0.996275 0.299452 -0.414983 -0.213057 0.523561 0.357908 -0.852794 -0.621883 3.65334 0.717835
1038 -0.111176 -0.176057 -0.124949 -0.164142 0.285612 0.615884 -0.629989 -0.324752 -0.368734 0.341619 -0.312851 -0.695927 -0.404646 0.0803101 -0.157191 -0.79056 -0.191586 -0.151446 0.215593 0.032856 0.995834 0.202089 -0.402058 -0.208722 0.527817 0.0555902 -0.98618 -0.6547 3.71386 0.688883
1027 -0.0240622 -0.0595187 -0.120198 -0.277276 0.201698 0.786552 -0.630008 -0.238894 -0.319193 0.46645 -0.371804 -0.634196 -0.365879 0.189366 -0.166012 -0.667452 -0.279068 -0.111844 0.328555 0.162385 1.00444 0.315691 -0.406076 -0.248819 0.533978 0.173166 -0.979042 -0.69361 3.7272 0.767591
1037 -0.016693 -0.181054 -0.122269 -0.187602 0.194125 0.678572 -0.616426 -0.341858 -0.231664 0.319095 -0.294846 -0.662311 -0.40745 0.166552 -0.302848 -0.681772 -0.320952 -0.305036 0.296166 0.0292084 0.905886 0.228472 -0.383716 -0.377743 0.500124 0.186093 -0.956988 -0.714578 3.75264 0.715062
1035 -0.0728027 -0.24383 -0.149636 -0.236585 0.187683 0.701975 -0.638479 -0.091186 -0.30608 0.33671 -0.296225 -0.719565 -0.50696 -0.0202945 -0.248182 -0.694769 -0.289849 -0.122199 0.360781 0.186349 0.944368 0.218738 -0.36067 -0.219895 0.450855 0.214571 -0.88406 -0.591817 3.78568 0.708684
142 -0.0758703 -0.102583 -0.107519 -0.347866 0.356793 0.2984 -0.418636 0.171367 -0.260397 0.571218 -0.0118552 -0.422707 -0.741754 0.246193 -0.416622 -0.242243 0.125917 -0.169809 0.126506 0.194409 0.756506 0.0654307 -0.64023 0.162422 0.353077 0.241817 -0.533446 -0.418647 2.9518 1.27433
122 -0.0206156 0.0588199 -0.0437315 -0.191233 0.478304 0.180386 -0.26086 -0.0368163 -0.189635 0.401767 0.192579 -0.511987 -0.394262 0.202561 -0.308179 -0.789814 0.00533537 -0.422931 0.334195 0.318073 0.718719 0.180351 -0.398342 0.193686 0.402768 0.0343572 -0.26501 -0.315487 2.98221 1.16496
10 0.0478508 -0.134947 -0.0665278 -0.301112 0.47664 0.50936 -0.0894596 -0.00414755 -0.378205 0.18063 0.0850873 -0.363239 -0.533973 0.290295 -0.0397304 -0.581915 -0.204275 -0.405424 0.332373 0.180636 0.518193 0.216702 -0.410542 0.1558 0.105011 0.00954199 -0.406123 -0.770283 2.93829 1.23054
176 -0.0247843 -0.206331 -0.323722 -0.427229 0.207838 0.643554 -0.278913 -0.0706623 -0.692925 0.124385 -0.0580252 -0.362445 -0.691397 0.192356 -0.130546 -0.731804 -0.376645 -0.401498 0.299153 -0.110119 0.844691 0.0237134 -0.542139 -0.263483 0.0627054 -0.171493 -0.581179 -0.645475 3.4069 1.17395
1031 -0.184914 -0.256087 -0.207171 -0.216434 0.176705 0.767363 -0.57902 -0.136062 -0.34567 0.396347 -0.299359 -0.627077 -0.392224 0.179551 -0.237208 -0.62378 -0.266948 -0.282421 0.319081 0.0664481 0.963236 0.255411 -0.390629 -0.287454 0.559214 0.29132 -1.00193 -0.576659 3.74873 0.752343
607 -0.117437 -0.247266 -0.245708 -0.259829 0.180384 0.745802 -0.418317 -0.223387 -0.287341 0.469998 -0.226797 -0.701508 -0.428583 -0.0568463 -0.180374 -0.601769 -0.283108 0.0034261 0.372421 0.232821 1.05483 0.189193 -0.437512 -0.347984 0.492409 0.263603 -0.69747 -0.68985 3.56068 0.626467
1026 0.0308993 -0.216278 -0.22278 -0.273068 0.148076 0.727428 -0.530342 -0.210705 -0.27426 0.375546 -0.313531 -0.631792 -0.428514 0.145242 -0.300369 -0.643082 -0.308151 -0.188709 0.300112 0.0772946 0.981494 0.159653 -0.41547 -0.272744 0.568662 0.218891 -0.873373 -0.725372 3.68827 0.845385
1039 -0.129815 -0.16388 -0.154275 -0.203108 0.250835 0.712873 -0.657637 -0.218696 -0.295128 0.365862 -0.236126 -0.718899 -0.257034 0.118184 -0.288613 -0.755051 -0.259878 -0.236107 0.249288 0.159365 0.92203 0.32256 -0.398055 -0.403686 0.522192 0.22327 -0.893074 -0.699981 3.75661 0.762566
90 0.0287882 0.112967 0.17561 -0.0415349 0.101555 0.583509 -0.188719 -0.301651 0.19165 0.334816 -0.281094 -0.627463 -0.340039 0.41752 0.156258 -0.771005 0.0499786 -0.322272 0.374845 -0.00674054 0.981562 0.0650964 -0.623174 0.127034 0.172845 -0.20035 -0.608707 -0.363274 2.8645 1.07001
41 -0.0715709 -0.0435164 -0.0564744 -0.363217 0.144739 0.239998 0.0575911 -0.05484 -0.288806 0.240857 -0.240415 -0.603143 -0.284431 0.428435 -0.00922948 -0.491187 0.0288065 -0.465278 0.184334 0.151017 0.895441 0.098273 -0.829199 -0.203716 0.130427 -0.112192 -0.508483 -0.553714 3.13554 0.726529
551 0.0570109 -0.0463508 -0.0474067 -0.310389 0.473508 0.001409 0.119279 -0.0940695 -0.310201 0.261945 0.0220954 -0.580619 -0.15735 0.376499 -0.0206745 -0.594432 0.205243 -0.0839928 0.178845 -0.0760326 0.985803 0.0885358 -0.761946 -0.164139 0.279656 0.181992 -0.353769 -0.779038 3.02193 1.0059
210 0.159106 0.0988091 -0.0454815 -0.730503 0.767358 0.234564 -0.190776 -0.16639 -0.421947 0.725343 0.0344807 -0.607928 -0.0609731 0.568028 0.158614 -1.18692 -0.000462968 -0.592583 0.46676 -0.142368 1.15827 0.560576 -0.721496 -0.204169 0.404979 0.787855 -0.629571 -0.207736 4.02895 1.28066
213 0.156419 0.0675005 -0.116596 -0.709781 0.838481 0.373758 -0.135538 -0.0400274 -0.525293 0.853 0.0732289 -0.591049 -0.0335497 0.630475 0.0722472 -1.21814 -0.0101311 -0.49088 0.416233 -0.201286 1.2125 0.489357 -0.755731 -0.0967893 0.443201 0.774119 -0.871241 -0.202609 4.16346 1.38464
69 0.166541 0.050239 0.104238 -0.763227 0.665979 0.268399 -0.149957 0.18946 -0.558786 0.724181 0.0046961 -0.643538 -0.170272 0.495527 -0.00288912 -1.10287 -0.00188096 -0.358083 0.407168 -0.32506 1.02966 0.226291 -0.624764 -0.0141957 0.504247 0.787325 -0.627735 -0.151196 3.9206 1.18634
209 0.227384 0.000854161 -0.1492 -0.618936 0.583518 0.323935 -0.125116 0.101143 -0.329531 0.747772 0.168443 -0.484497 -0.0169629 0.742629 -0.0665186 -1.05527 -0.0114774 -0.587121 0.393361 -0.196693 1.26383 0.556888 -0.788668 -0.101571 0.517053 0.636592 -0.682309 -0.0906543 3.83949 1.35856
214 0.19371 0.00904753 -0.119695 -0.703878 0.743943 0.35585 -0.272932 0.0460537 -0.37206 0.814781 0.104277 -0.621352 0.100641 0.572402 0.0728708 -1.21663 -0.091968 -0.594489 0.528071 -0.184216 1.23566 0.484622 -0.741419 -0.124366 0.453112 0.76099 -0.79346 -0.204603 4.18755 1.32665
195 0.186412 0.0822697 -0.0477632 -0.731746 0.800105 0.230671 -0.165686 0.0288066 -0.414386 0.790514 0.0971373 -0.69342 0.0065151 0.629816 -0.0296144 -1.288 -0.0850441 -0.731172 0.450951 -0.228985 1.16113 0.403766 -0.701113 -0.102659 0.404074 0.765032 -0.624761 -0.184124 4.22009 1.25885
189 0.273577 0.102209 -0.0419968 -0.776388 0.907885 0.372612 -0.213854 0.075757 -0.66992 0.892792 0.0228203 -0.636113 0.0313175 0.601289 0.118674 -1.14964 -0.169005 -0.599574 0.513779 -0.137897 1.30068 0.295127 -0.77994 -0.138986 0.405853 0.77001 -0.835195 -0.194187 4.30438 1.21455
221 0.16027 0.102427 -0.130151 -0.71479 0.75221 0.408424 -0.186446 0.0330191 -0.417955 0.925891 0.0853808 -0.679737 -0.0559453 0.558097 0.0396852 -1.2642 0.00191061 -0.570953 0.428006 -0.153806 1.27223 0.449094 -0.769282 -0.0805648 0.46954 0.762294 -0.704934 -0.165157 4.22935 1.31433
216 0.223609 0.0576349 -0.0985866 -0.669876 0.820984 0.367874 -0.166068 -0.0525042 -0.412941 0.835685 0.0252069 -0.639598 0.0155485 0.670322 0.0175939 -1.22451 -0.0493332 -0.599283 0.465621 -0.119196 1.20136 0.438007 -0.792007 -0.120836 0.386054 0.658462 -0.653246 -0.166368 4.21444 1.24224
220 0.213294 0.191031 -0.11132 -0.640645 0.861937 0.445324 -0.312748 0.0652979 -0.550896 0.863105 -0.0195329 -0.727218 0.0707048 0.662164 0.0691862 -1.23 -0.120955 -0.612005 0.477547 -0.155151 1.33145 0.372674 -0.774525 -0.141369 0.39091 0.835454 -0.766427 -0.166958 4.2957 1.26773
219 0.149665 -0.0280216 -0.192722 -0.602792 0.641394 0.235565 -0.139188 -0.0428336 -0.28551 0.771094 0.192883 -0.641437 -0.0420081 0.669934 -0.027598 -1.15211 -0.0945273 -0.738466 0.291881 -0.156336 1.1753 0.582632 -0.840076 -0.226256 0.540198 0.777375 -0.581672 -0.01653 3.80626 1.16826
196 0.118684 0.0666612 0.00240712 -0.676762 0.835894 0.252698 -0.232228 -0.190844 -0.532918 0.737504 0.118407 -0.649027 -0.0307769 0.68901 -0.0200281 -1.16968 -0.148181 -0.639036 0.538375 -0.15731 1.21476 0.512954 -0.791683 -0.121241 0.498972 0.775341 -0.621141 -0.16284 4.04762 1.26684
477 -0.0390854 -0.123627 -0.1012 -0.388623 0.290456 0.22783 -0.383288 0.271785 -0.340384 0.578136 0.0387783 -0.437989 -0.553092 0.423262 -0.39912 -0.359308 0.0522666 -0.340866 -0.0103825 -0.0647927 0.641147 0.267486 -0.681323 0.0711549 0.436115 0.00366445 -0.481614 -0.472376 3.01446 1.10344
24 -0.10115 -0.0517254 0.0506292 -0.403082 0.231027 0.28196 -0.122076 0.234733 -0.0346328 0.206014 -0.0748581 -0.613743 -0.430659 0.149375 -0.229188 -0.544832 -0.106966 -0.924406 0.2 0.10627 1.06025 0.394032 -0.832316 -0.386433 -0.26179 -0.0711714 -0.235259 -0.492606 3.20304 1.1382
427 -0.00255526 0.0129208 -0.114961 -0.273742 0.196068 0.293054 -0.0939757 0.329487 0.127114 0.344526 -0.212016 -0.630674 -0.422692 0.260754 -0.36184 -0.800461 0.0986302 -0.979998 0.133433 0.0624804 1.02347 -0.0833545 -0.445398 -0.240234 0.148432 0.179955 -0.316343 -0.269375 3.08827 1.0586
29 0.0133058 -0.0322408 0.0308616 -0.456623 0.354886 0.457442 -0.0399723 0.247802 -0.25918 0.0865223 -0.017583 -0.498237 -0.236003 0.182238 -0.412241 -0.503369 -0.146676 -0.880746 0.292475 0.170823 1.06182 0.115042 -0.729297 -0.446388 -0.248885 0.118469 -0.441057 -0.56019 3.22907 1.06201
136 0.0598338 0.103507 -0.159295 -0.318321 0.252994 0.392424 0.0519047 0.131459 -0.424823 0.0913487 -0.000511418 -0.555574 -0.0866389 0.296091 -0.32112 -0.472327 -0.201549 -1.07579 0.299446 0.206564 0.836839 0.0197278 -0.602891 -0.218056 -0.286697 0.296794 -0.384775 -0.630401 3.2185 0.805813
731 0.131807 0.149552 0.0398779 -0.0236495 0.507354 0.585143 -0.00477086 -0.0365422 -0.383875 -0.0688833 -0.817272 -0.548105 -0.333853 0.530364 -0.624128 -0.448005 0.154101 -0.13058 0.570482 0.11694 0.875797 0.302634 -0.678051 -0.540467 -0.0707669 0.442851 -0.626009 -0.201881 3.05068 1.11633
78 -0.0440661 0.0298805 -0.235399 0.0471935 0.501842 0.206456 -0.231303 0.0410845 -0.189948 0.231459 -0.0231171 -0.784523 -0.162083 0.497885 0.0650022 -0.568908 0.124634 -0.236692 0.257233 -0.0525295 0.818438 0.112883 -0.759854 -0.324813 0.0549131 -0.00373069 -0.337076 -0.516796 3.12 0.869881
298 0.121134 -0.167612 -0.424538 0.0356333 0.519794 0.220107 0.174635 0.0246818 0.0158255 0.36509 0.077066 -0.804179 -0.159961 0.386371 -0.111529 -0.550642 0.132725 -0.0108318 0.205264 -0.280525 0.932151 -0.245168 -0.625959 -0.0383574 0.255059 -0.0291199 -0.51303 -0.68897 3.13243 0.901108
294 0.205196 -0.223675 -0.431077 -0.0765584 0.576942 0.0974114 0.173067 0.0252164 0.145728 0.119055 -0.297568 -0.798345 -0.050769 0.419101 -0.0481778 -0.738308 0.123147 -0.406942 -0.0173605 -0.159286 0.837122 -0.192438 -0.672827 0.330627 0.320705 -0.260377 -0.481094 -0.520886 3.0879 0.743821
765 0.207795 -0.107295 -0.480878 -0.221909 0.533339 0.176445 -0.0238471 -0.149075 0.0618808 0.20273 -0.0029387 -0.452451 0.127711 0.431854 -0.0804928 -0.660155 0.0724814 -0.160302 -0.135528 0.338104 0.691722 0.0949948 -0.686259 0.352534 0.388788 -0.358576 -0.72988 -0.764078 3.16904 0.723224
92 0.189256 -0.231574 -0.609273 -0.315108 0.439646 0.296552 0.030168 -0.0551083 0.117481 0.163655 0.122241 -0.425113 0.0214418 0.461601 -0.00877442 -0.524299 0.183095 -0.343194 -0.129193 0.319689 0.726165 0.185041 -0.875245 0.314378 0.295696 -0.192494 -0.716751 -0.707323 3.17885 0.766185
104 0.0264117 0.12813 -0.0131021 -0.378832 0.552814 0.233203 -0.551413 0.119506 -0.161125 0.324685 -0.0550087 -0.425951 -0.315339 0.327481 -0.0469428 -0.581562 0.107644 -0.232034 0.169778 0.530756 0.457441 0.331084 -0.486497 0.348078 0.307171 -0.311196 -0.560389 -0.697973 3.24624 1.05592
194 0.217433 -0.0227164 -0.373234 -0.151216 0.183085 0.172569 0.0323836 0.0957152 -0.0542332 0.0913768 0.0267278 -0.433775 -0.466624 0.340936 -0.195118 -0.628566 0.0334065 -0.290629 0.116536 0.208762 0.693799 0.461112 -0.604696 0.0424675 0.388414 0.100361 -0.433637 -0.524046 2.83916 0.90721
180 0.0847732 -0.321578 -0.197717 -0.458156 0.142158 0.616782 -0.403529 -0.0782801 -0.549966 0.165757 -0.0917639 -0.250023 -0.575234 0.270377 -0.0928761 -0.691697 -0.472548 -0.370879 0.435904 0.0159142 0.84035 0.0794141 -0.598286 -0.224236 0.0721628 -0.204097 -0.689892 -0.555654 3.20621 1.14235
177 0.0825671 -0.20212 -0.211446 -0.403621 0.122818 0.664959 -0.383501 0.09594 -0.54545 0.202682 -0.119404 -0.297958 -0.572644 0.314978 -0.0795581 -0.640409 -0.378531 -0.315177 0.321366 -0.0973208 0.771425 0.0756565 -0.599634 -0.149388 0.150459 -0.305362 -0.628115 -0.701573 3.32252 1.24144
234 0.00409924 0.0605141 -0.349842 -0.458734 -0.0264136 0.549944 0.110325 -0.0467065 -0.411103 0.239706 0.0222638 -0.612388 -0.603711 0.0690975 -0.278592 -0.665462 -0.271178 -0.200672 0.0994259 0.0951022 0.919646 0.211289 -0.484405 -0.152511 0.635931 -0.178062 -0.569465 -0.274252 3.23662 0.619197
233 0.152038 0.101812 -0.278161 -0.527286 0.084397 0.480634 0.131647 -0.205645 -0.526678 0.153716 -0.00469038 -0.556573 -0.673943 -0.00104005 -0.395214 -0.660721 -0.27765 -0.30088 0.203204 0.0831501 0.92588 0.299981 -0.407586 -0.0610674 0.607253 -0.352209 -0.740699 -0.312776 3.30584 0.757171
917 0.697122 0.351794 0.139978 -0.161133 0.94696 0.585346 0.0606027 -0.404244 -0.116137 0.514594 -0.133838 -0.626997 -0.825383 0.264432 -0.408745 -0.520512 -0.1648 -0.681182 0.652869 0.118291 1.40051 -0.105087 -1.14657 -0.295272 0.138282 0.0397944 -0.75266 -0.708116 4.1382 1.07859
898 0.747738 0.248565 0.0568326 -0.153696 1.00483 0.598683 0.0106832 -0.491572 -0.00953963 0.540156 -0.106805 -0.661207 -0.81962 0.19858 -0.384131 -0.469822 -0.301973 -0.847902 0.630804 0.16041 1.4978 -0.00712734 -1.26562 -0.372705 0.148735 0.167022 -0.721507 -0.692476 4.15492 1.11639
921 0.679857 0.260735 0.0248711 0.010246 0.993408 0.568885 -0.041153 -0.437869 -0.219739 0.597428 -0.0571198 -0.626436 -0.824278 0.218251 -0.297201 -0.54209 -0.200529 -0.776192 0.655288 0.150269 1.43087 -0.0227014 -1.06602 -0.273938 0.0735633 0.112702 -0.787518 -0.715896 4.11769 1.1677
909 0.733286 0.206067 -0.0333229 -0.0689704 0.964791 0.529398 0.00451912 -0.507188 -0.0204747 0.569525 -0.1498 -0.6461 -0.78459 0.295651 -0.344462 -0.453849 -0.169578 -0.738612 0.583663 0.179479 1.37308 -0.107328 -1.17132 -0.287631 0.108386 0.0706627 -0.696112 -0.731502 4.02672 1.10745
901 0.646295 0.248223 0.17026 -0.116831 0.945062 0.474831 0.0510523 -0.386597 -0.112117 0.561687 -0.188672 -0.644959 -0.781627 0.243518 -0.263817 -0.502719 -0.131714 -0.686878 0.599719 0.127588 1.34731 0.0757804 -1.21422 -0.272935 0.182863 0.193123 -0.840502 -0.724193 4.05592 1.04705
1064 0.0453626 -0.199675 -0.457534 -0.188054 0.222232 0.599842 -0.474392 -0.48917 -0.106825 0.081962 0.0679808 -0.706394 -0.454445 0.311581 -0.0127299 -0.521679 -0.329253 -0.380028 0.135324 -0.284664 0.914312 0.36427 -0.769138 -0.279395 0.208025 0.098375 -0.799827 -0.717469 3.55765 0.986373
882 0.0414295 -0.335278 -0.449634 -0.302987 0.0012376 0.42661 -0.396244 0.0134898 -0.57239 -0.0101107 -0.136133 -0.319407 -0.620438 0.29302 0.100444 -0.659197 -0.39229 -0.260056 0.318475 -0.0499846 0.980778 0.260099 -0.388643 -0.482648 0.114086 0.0473941 -0.793157 -0.537151 3.14049 0.893433
881 0.117956 -0.366178 -0.65297 -0.13018 0.0163178 0.571101 -0.28994 0.217482 -0.48326 0.00929892 -0.183028 -0.281556 -0.671677 0.338315 0.205468 -0.679024 -0.346904 -0.37455 0.225735 -0.149091 0.945688 0.297379 -0.424034 -0.633586 0.158736 0.35431 -0.774596 -0.641829 3.14087 1.01995
880 0.0587967 -0.432607 -0.548094 -0.298748 0.0510288 0.384922 -0.239158 0.221507 -0.479995 -0.139126 -0.323225 -0.357205 -0.714294 0.3706 0.0493329 -0.559311 -0.324218 -0.182515 0.331272 -0.29087 0.977645 0.274238 -0.403083 -0.57754 0.17847 0.149328 -0.754762 -0.5702 3.04291 0.998652
257 -0.108431 -0.319687 -0.301234 -0.0332646 0.150729 0.0314616 0.179187 0.508504 -0.186646 0.16373 -0.182183 -0.600763 -0.435376 0.0464654 -0.132992 -0.130565 -0.339396 -0.455345 0.26556 0.178222 0.644937 0.65612 -0.422086 0.092608 -0.0566016 0.0851058 -1.15287 -0.366359 2.52482 0.79637
81 -0.229179 0.0161654 -0.383075 0.0718235 0.379135 -0.00720547 -0.135597 0.105098 -0.375923 0.302346 -0.204115 -0.372316 -0.100117 0.451533 -0.034843 -0.545391 0.229603 -0.0862072 0.718136 0.465248 0.793028 0.0920723 -0.519646 0.00833014 0.0972849 0.152147 -0.752505 -0.480394 2.89109 0.988247
85 -0.264307 0.0747044 -0.2391 0.00592385 0.109402 -0.0600753 0.0778601 -0.235209 -0.647109 0.556575 -0.564825 -0.633738 -0.267343 0.732095 -0.141198 -0.456804 -0.0280485 -0.16544 0.238749 -0.160431 0.856261 0.166359 -0.915348 -0.233324 0.358359 0.355787 -0.639959 -0.490783 3.07365 1.00872
550 -0.278209 0.0492412 -0.380213 -0.252846 0.558625 -0.0658666 0.111123 -0.21783 -0.182617 0.422726 0.0037245 -0.611505 -0.3863 0.421128 -0.267589 -0.397593 0.103977 -0.12546 0.441518 -0.162822 0.722367 -0.178449 -0.851236 -0.405144 0.252928 0.0587627 -0.359986 -0.606229 3.12547 0.815469
100 -0.134317 -0.188016 -0.343948 -0.218833 0.421149 -0.0373948 0.222619 0.0277705 -0.163672 0.115253 -0.127041 -0.548755 -0.195971 0.310114 -0.117919 -0.680283 0.17655 -0.184094 0.470485 -0.00524813 0.953499 -0.274678 -0.501681 -0.0610384 0.293645 0.194978 -0.561571 -0.615821 2.92606 1.17865
528 0.0683214 0.0875147 -0.0142483 -0.114581 0.500984 0.42747 -0.231663 0.132778 0.0668063 0.528833 -0.490265 -0.790768 0.0167851 0.386697 -0.262694 -0.518829 0.255316 -0.0623329 0.219555 0.158814 1.02778 0.147253 -0.687739 -0.359 0.165843 -0.366471 -0.225623 -0.411015 3.14887 0.830189
586 -0.284383 -0.0233659 0.162053 0.0601399 0.237838 0.458481 0.0182055 -0.343794 -0.215672 0.571196 -0.555872 -0.955438 -0.865874 0.138639 -0.371078 -1.20427 0.108642 -0.488322 0.0971953 -0.0543616 0.810976 0.512246 -0.345416 -0.0861039 0.100826 -0.372496 -0.902076 -0.0198884 3.41671 1.51916
585 -0.297331 0.0526824 0.184429 0.213643 0.177081 0.255082 -0.19433 -0.241718 -0.0775156 0.524148 -0.19808 -1.04515 -0.650932 0.0402336 -0.0653917 -1.1271 0.222985 -0.487387 -0.0456373 -0.0838361 0.888445 0.307902 -0.371848 -0.145766 -0.0531834 -0.271626 -0.596259 -0.0694919 2.9054 1.30871
317 -0.0536725 0.158431 0.107126 -0.157579 0.34205 -0.109463 -0.127932 -0.121649 -0.287536 0.0324858 -0.308571 -0.67261 -0.407613 0.366714 0.162554 -0.673155 -0.0358172 -0.299314 0.120288 -0.00526028 0.92042 0.107029 -0.680361 -0.263877 0.298324 0.207184 -0.527664 -0.744698 2.96275 1.35631
126 -0.115818 0.118669 -0.185812 -0.113611 0.355437 -0.0103903 -0.427207 0.21151 -0.264225 0.227789 0.0264261 -0.440557 -0.353982 0.5691 -0.386359 -0.281169 0.0968323 -0.604773 0.131449 0.155135 0.84008 0.142434 -0.831254 -0.476509 0.037664 -0.120276 -0.659589 -0.27391 3.05531 0.744507
584 0.202615 0.233261 -0.0492327 -0.155818 0.489446 0.217937 -0.127012 0.0656942 -0.255525 -0.168609 -0.77778 -0.534731 -0.307196 0.599426 -0.568774 -0.315263 0.274022 -0.186305 0.420237 -0.0570991 0.815697 0.413565 -0.741095 -0.300628 0.128477 0.186001 -0.567181 -0.233674 3.0429 0.947446
964 -0.367164 0.0645097 -0.576055 0.0289774 0.288644 0.261557 -0.410046 0.0668946 -0.0623682 0.193247 0.0399882 -0.461708 -0.267308 0.35023 0.286825 -0.79576 -0.109087 -0.232946 0.637064 0.141762 0.876213 -0.168864 -0.624121 -0.408978 0.159308 0.192612 -0.441822 -0.392263 2.97176 0.783092
963 -0.458315 0.0726411 -0.50499 0.0772318 0.360181 0.255989 -0.33177 -0.0510665 -0.385299 0.339942 0.0539624 -0.430014 -0.304836 0.596316 0.180749 -0.701247 -0.105046 -0.245096 0.50876 0.143555 0.928667 -0.0614288 -0.85912 -0.215489 0.183807 0.173954 -0.370322 -0.327357 2.99568 1.02275
86 -0.287359 0.0444676 -0.208462 -0.0496051 0.375414 0.481235 -0.253113 0.027461 -0.335204 0.217239 -0.0163351 -0.404434 -0.211429 0.367797 0.267235 -0.881931 0.0407752 -0.319933 0.562581 0.405873 1.04464 0.247569 -0.594779 -0.33276 0.158604 -0.0823279 -0.341308 -0.430584 2.9802 0.895352
82 -0.123962 -0.00397018 -0.151938 -0.317977 0.301502 0.606409 -0.0216474 0.0497608 -0.182903 0.21768 -0.283289 -0.471181 -0.302898 0.390589 0.188076 -0.671106 0.176729 0.169881 0.623115 0.522608 1.0514 0.275077 -0.694344 -0.412242 0.105625 0.126395 -0.507528 -0.554024 3.08808 1.09959
44 -0.105352 -0.0276894 -0.0421274 -0.296474 0.656647 0.293479 -0.212129 -0.140137 -0.0772803 0.198118 0.0567037 -0.802708 -0.36992 0.2107 -0.0222394 -0.354105 0.170228 0.117909 0.41594 0.364711 1.0476 0.361424 -0.958509 -0.392898 0.041773 0.277038 -0.200247 -0.394972 3.23857 0.623785
640 -0.445977 0.0574339 -0.272208 -0.271851 0.507834 0.485215 0.0198738 0.109878 -0.500529 0.167801 -0.0523226 -0.61666 0.14464 0.464403 -0.00206355 -0.763256 -0.149022 -0.409298 0.561637 0.127547 1.17827 -0.13222 -0.631186 -0.264159 0.0625946 -0.0493992 -0.432348 -0.170225 3.07905 0.979048
31 -0.0428791 0.0436916 -0.130908 -0.190964 0.265856 0.476821 -0.313416 0.268837 0.249022 0.209784 -0.108182 -0.479629 -0.323824 0.421243 -0.0742273 -0.496886 0.0850095 -0.537891 0.508957 0.305921 0.985768 -0.115672 -0.663925 -0.344866 0.116679 0.0927253 -0.656656 -0.423019 3.05067 1.1466
414 0.0141308 0.0470277 0.236013 -0.225785 -0.205032 0.237857 -0.0529243 -0.201534 -0.458573 0.321916 0.0341784 -0.664075 -0.355302 0.374363 0.255051 -0.548004 0.121272 -0.307377 0.522622 0.167591 0.803654 0.394096 -0.717571 0.145398 -0.0500147 -0.0241533 -0.8078 -0.412368 3.08007 1.37025
280 -0.0275667 0.156053 -0.153001 0.00622636 0.481155 0.301352 -0.0837509 -0.163602 -0.0474203 0.0723593 -0.206224 -0.218211 -0.42422 0.426199 -0.0383603 -0.673603 -0.0482793 -0.264551 0.886617 0.447245 1.11759 -0.0656493 -0.636249 -0.144359 0.153975 0.238211 -0.425457 -0.449239 2.73514 1.18289
3 0.194569 0.00756424 -0.213271 -0.125714 0.067314 -0.0188372 -0.208037 0.332793 -0.319603 0.372809 -0.0937317 -0.522415 -0.840965 0.184054 -0.112933 -0.716869 0.445113 -0.485422 0.176267 -0.0259297 0.916202 0.116341 -0.628977 -0.210376 0.00169298 -0.322528 -0.738489 -0.155393 3.36232 0.636638
359 0.00931585 0.016365 -0.211464 -0.282768 0.380674 0.126077 0.0400724 0.173647 -0.278004 0.452186 0.345163 -0.736934 -0.323006 0.168983 -0.139842 -0.273435 0.194334 0.122458 0.439543 -0.0488595 0.948955 -0.0158818 -0.755571 -0.36947 0.170549 0.0787325 -0.388488 -0.517232 3.17992 0.849586
97 -0.0721226 0.0745942 -0.0862376 -0.186698 0.548843 0.0321783 -0.048368 -0.149081 -0.210667 0.115551 -0.0975808 -0.628975 -0.350571 0.302024 0.088039 -0.596807 0.0812785 0.00712986 0.088938 0.117991 1.01342 0.0587317 -0.775546 -0.183633 0.387455 0.240495 -0.39126 -0.65086 3.02156 0.833252
315 -0.132181 0.0449056 0.102122 -0.119327 0.300478 -0.0390441 -0.204805 -0.222283 -0.22746 0.147565 -0.252525 -0.718248 -0.329835 0.417428 0.132035 -0.803549 0.0075144 -0.314217 0.0245123 -0.0269199 1.03601 0.0340616 -0.610687 -0.281649 0.477152 0.375738 -0.51226 -0.63543 3.10541 1.2156
267 -0.0788196 0.000921846 -0.0806044 -0.0482878 0.501019 0.175104 -0.403239 -0.0306972 0.137536 0.141013 -0.49564 -0.743688 -0.559189 0.369909 -0.0702693 -0.437915 0.156362 -0.182334 0.12335 -0.018296 1.10989 0.387454 -1.1144 -0.258048 0.32397 -0.151074 -0.506303 -0.303846 3.2793 0.748394
816 0.434966 0.271231 -0.189799 -0.365811 0.557548 0.100651 -0.981993 0.146423 -0.312248 0.571991 -0.392523 -0.721394 -0.154173 0.455836 0.0149746 -0.330556 0.17898 -0.348198 0.232929 0.396043 0.518885 0.696796 -0.83713 0.250495 0.0690994 -0.480522 -0.604513 -0.812073 4.02928 1.48278
820 0.357865 0.244009 -0.157091 -0.344604 0.506299 0.0709613 -0.976339 0.257035 -0.395054 0.699155 -0.27474 -0.764115 -0.134117 0.415518 -0.0600118 -0.328469 0.246483 -0.259158 0.355681 0.349358 0.598189 0.856321 -0.83629 0.248466 -0.0322829 -0.453111 -0.571096 -0.767302 4.12745 1.49287
826 0.402891 0.273518 -0.142155 -0.411191 0.453658 0.0729047 -0.93995 0.274634 -0.23338 0.685304 -0.295466 -0.702669 -0.144783 0.49773 0.00582058 -0.284523 0.122175 -0.390955 0.194116 0.452487 0.605647 0.854733 -0.908441 0.330769 0.193728 -0.460185 -0.663152 -0.826981 4.09436 1.43059
1089 0.183643 -0.0904695 -0.0114151 -0.219776 0.306009 0.33801 -0.249447 -0.0678129 -0.454897 0.491266 0.0555565 -0.697008 -0.421173 0.38353 -0.406674 -0.357912 -0.0616147 -0.325926 0.320401 0.323737 0.497728 0.165135 -0.555834 0.0580345 0.320477 -0.119239 -0.522873 -0.182517 3.32715 0.738946
514 0.0983435 -0.0271673 -0.409318 -0.0104498 0.269982 0.261437 0.147543 0.116026 -0.146955 0.685139 0.232503 -1.07405 -0.0189689 0.199219 -0.22302 -0.447373 0.106148 0.169022 0.114889 0.00236492 0.920423 -0.297754 -0.62901 -0.391864 0.0463214 0.15273 -0.3109 -0.782707 3.2261 1.19786
183 0.208283 -0.08207 -0.391064 0.196172 0.308231 0.351712 0.0738499 -0.0153523 -0.27559 0.726725 0.345741 -0.945983 -0.153309 0.358156 -0.210023 -0.394381 0.101237 0.0286617 0.234366 -0.109964 0.9027 -0.484752 -0.635855 -0.338325 0.143004 0.163444 -0.46931 -0.794395 3.32011 1.12658
361 -0.166996 -0.0773671 -0.148933 -0.313461 0.708106 0.0767468 -0.194566 0.126584 -0.159253 0.20822 0.505302 -0.771548 -0.34575 -0.033507 -0.021564 -0.234775 0.00158725 0.02509 0.370257 0.129324 1.11231 -0.0140522 -0.872756 -0.404154 0.136644 0.269731 -0.403126 -0.466376 3.05557 0.634522
362 -0.031199 0.0446884 -0.043455 -0.223675 0.570892 0.0898219 -0.239902 0.0761748 -0.167002 0.189011 0.446779 -0.840236 -0.358468 -0.0248902 -0.0621734 -0.154649 0.0713582 -0.0198577 0.467974 0.288315 1.20715 0.0794115 -0.871119 -0.231283 0.0297528 0.369415 -0.395118 -0.474114 3.17167 0.670293
357 -0.115052 0.0415949 -0.0684592 -0.299019 0.636264 0.127112 -0.227382 0.120386 -0.163266 0.274281 0.522888 -0.852416 -0.297588 0.147106 -0.0238164 -0.365252 0.0547384 0.0914795 0.391425 0.128867 1.22659 0.000399199 -0.781444 -0.351941 0.129482 0.320299 -0.336005 -0.4754 3.2717 0.756557
87 0.0135582 -0.0463278 0.0836851 -0.072675 0.407116 0.0577065 -0.126074 0.121789 -0.41121 0.00899792 -0.409537 -0.498545 -0.36237 0.464072 -0.0121943 -0.659763 0.170516 -0.0816932 0.409273 0.173823 0.836624 0.412608 -0.572228 -0.387703 0.145867 0.375142 -0.487524 -0.531962 2.85962 1.09884
724 0.150855 0.126193 -0.427935 -0.0850736 -0.018135 0.660869 0.135868 0.0814671 -0.478568 0.410723 0.00541099 -0.764482 0.0753885 0.632784 -0.294003 -0.419962 -0.0677148 -0.4906 -0.178668 0.495576 1.02186 -0.340629 -0.774931 -0.208846 -0.0329687 0.175569 -0.608132 -0.420971 3.31801 1.02628
132 -0.0684865 0.209466 -0.111644 0.0791269 0.854468 0.6465 -0.521802 0.438802 -0.0440658 -0.0561559 0.0189159 -0.888856 -0.00851777 0.518776 0.100191 -0.786904 -0.0811846 -0.271179 0.0773146 -0.175005 0.776991 -0.351668 -0.43192 -0.0508162 0.120944 -0.392856 -0.517534 -0.129564 3.22887 1.08604
128 0.12644 -0.000423722 -0.284745 0.0807123 0.508357 0.641804 -0.348033 0.312054 -0.15467 0.0874859 -0.38421 -0.713616 0.0253736 0.474818 -0.0237058 -0.752717 0.182758 -0.365125 -0.107583 -0.0535514 0.886077 -0.0279622 -0.49549 -0.0995898 -0.0892136 -0.363979 -0.675595 -0.35262 3.13586 1.02144
135 -0.054408 0.0861882 -0.159807 0.118751 0.739952 0.772121 -0.429424 0.314408 0.0162138 0.0594996 0.0631839 -0.708444 0.105574 0.521571 0.260471 -0.894282 -0.0389239 -0.36241 0.101406 -0.174727 0.863861 -0.123753 -0.548168 -0.194903 0.0263977 -0.233784 -0.48021 -0.170333 3.16236 0.952594
253 -0.0824168 0.025628 -0.15282 0.213375 0.660007 0.638235 -0.489456 -0.132281 0.190522 -0.0727946 0.397744 -0.735346 -0.490522 0.408932 -0.341356 -0.576745 0.0632335 -0.405786 0.370787 -0.320165 0.58154 -0.113592 -0.462088 -0.314982 0.127503 0.0994889 -0.757693 -0.173853 3.18874 0.861378
419 -0.0535061 -0.106048 -0.115797 0.224626 0.51698 0.524231 -0.362869 -0.144591 0.214299 -0.0426094 0.292563 -0.817439 -0.22511 0.51277 -0.335501 -0.417305 0.0722529 -0.31601 0.359864 -0.289583 0.721216 0.0604073 -0.574989 -0.181428 -0.0640856 0.151799 -0.757197 -0.270361 3.11692 0.935847
425 -0.0756587 0.0345069 -0.0891746 0.177273 0.490345 0.508654 -0.396905 -0.265125 0.11095 -0.0123183 0.274291 -0.73187 -0.305212 0.499013 -0.229587 -0.351755 0.070113 -0.260177 0.463866 -0.275209 0.562326 0.0906595 -0.520919 -0.100658 -0.140397 0.112148 -0.65883 -0.317428 3.08949 0.930735
190 0.152984 -0.0442263 -0.420795 -0.0781461 0.141756 0.0620894 0.0508243 0.217483 0.0317686 0.0983697 -0.0956219 -0.48148 -0.507716 0.251006 -0.267951 -0.677898 -0.0900886 -0.467231 0.199492 0.156964 0.756158 0.37922 -0.471835 0.107875 0.518543 0.0719075 -0.500552 -0.535201 2.93556 0.78007
1079 0.156873 0.139545 -0.380518 -0.233213 0.311151 -0.00855827 0.234946 0.238778 0.199052 0.0764289 0.106337 -0.428075 -0.439597 0.136742 -0.270974 -0.811487 -0.021789 -0.490833 0.260436 0.383695 0.903449 0.173873 -0.581659 0.0473688 0.593936 -0.03055 -0.524504 -0.35705 2.83759 1.00362
1078 0.120767 0.26576 -0.3976 -0.189196 0.211576 -0.00510056 0.272232 0.0752296 0.174111 0.022984 -0.0625268 -0.427821 -0.665415 0.156157 -0.328072 -0.76605 -0.0101398 -0.456177 0.250474 0.330757 0.777421 0.301083 -0.506733 -0.074084 0.593423 -0.0629121 -0.451727 -0.4212 2.82354 1.03997
468 0.146998 -0.155278 -0.417503 -0.061043 0.306751 0.315455 0.0948084 0.236761 0.0535517 0.233968 0.0445763 -0.491776 -0.178813 0.278725 -0.119288 -0.724509 -0.0578905 -0.308722 0.0999616 -0.0319922 0.697526 0.33791 -0.391324 0.271756 0.334691 0.128047 -0.755628 -0.368112 2.69643 0.893332
502 -0.0247349 -0.0478645 -0.455657 -0.0357168 0.509534 0.294574 0.126372 -0.00814213 0.236578 -0.000141193 -0.186778 -0.619676 -0.17947 0.139319 -0.288444 -0.595317 -0.246994 -0.482385 0.346007 0.0762597 0.970925 0.508093 -0.585364 0.37232 0.378204 0.223198 -0.984069 -0.388753 2.98917 0.707523
804 -0.188808 -0.134439 -0.296585 -0.462636 0.847805 0.250951 -0.0961467 0.0136537 -0.156467 0.611083 -0.297386 -1.32177 -0.0441093 -0.0845315 -0.162491 -0.534264 -0.413337 -0.734729 0.160673 0.375606 1.09524 0.557495 -0.882624 -0.140557 0.125379 0.389125 -1.58168 -0.464009 4.31888 1.63801
508 -0.207524 0.00912056 -0.320237 0.136135 0.369866 0.198284 0.186324 -0.0508639 0.0207425 0.033855 -0.0685739 -0.637441 -0.372471 0.147557 -0.31409 -0.579768 -0.209411 -0.45932 0.22237 -0.027277 1.0281 0.527573 -0.564137 0.360167 0.371209 0.225573 -1.04663 -0.463311 2.99546 0.691211
505 -0.0252239 -0.0877256 -0.40089 0.0122822 0.455278 0.244538 0.271727 -0.0417746 0.118269 0.0943268 -0.0795289 -0.651652 -0.196692 0.0750065 -0.28635 -0.592495 -0.112942 -0.360681 0.173365 0.0692524 1.01785 0.532704 -0.570881 0.325956 0.301458 0.145995 -0.985924 -0.433746 2.81216 0.790306
547 0.373529 -0.220008 -0.457693 0.0361046 0.474516 0.0937314 0.208543 0.0590165 0.11396 0.185453 -0.183826 -0.711723 0.00963928 0.405811 -0.184147 -0.780495 0.105639 -0.35324 0.162565 -0.00517492 0.985681 -0.238427 -0.542327 0.207131 0.377143 -0.124242 -0.470906 -0.556563 3.09245 0.828844
693 0.124465 0.146307 0.00862938 -0.00395262 0.222694 0.323968 -0.136974 -0.203526 -0.29198 -0.0316629 -0.0137123 -0.657453 -0.120621 0.281262 -0.464548 -0.176774 -0.0478433 -0.232502 0.490596 -0.249552 0.875938 0.590077 -0.531469 0.435944 0.0678707 0.0347803 -0.822893 -0.405949 2.81586 0.970227
814 0.427886 0.283144 -0.28367 -0.410687 0.420533 0.120902 -0.925619 0.250089 -0.254286 0.559693 -0.296705 -0.761632 -0.178441 0.527774 0.0530898 -0.313216 0.152935 -0.338552 0.322546 0.454608 0.522895 0.704299 -0.956507 0.238118 0.0413043 -0.467933 -0.59622 -0.669247 4.11308 1.50989
469 -0.0991522 -0.240323 -0.237523 -0.168285 0.219589 -0.00216239 0.16106 -0.0869345 0.0963369 0.215082 -0.204051 -0.805724 -0.120138 -0.138299 -0.415982 -0.369631 -0.0168556 -0.452797 0.242498 0.39649 0.792504 0.408986 -0.66248 0.0343527 0.197748 0.0125049 -0.851915 -0.0269206 2.51575 0.98047
386 0.0460468 -0.14988 -0.231984 -0.390516 0.420435 0.318869 0.163352 -2.12996e-05 -0.0757308 0.617803 -0.145556 -1.15726 -0.368049 -0.0409438 -0.260597 -0.430458 -0.205851 -0.344448 0.408563 0.341607 1.1305 0.59666 -1.02461 0.0323551 0.119102 0.160285 -1.64097 -0.346061 4.32743 1.36827
397 0.00739053 -0.191448 -0.20865 -0.333408 0.437191 0.3377 0.205751 -0.066667 -0.0739849 0.634623 -0.206262 -1.13747 -0.376606 -0.0299298 -0.185942 -0.493585 -0.160253 -0.337879 0.498673 0.30881 1.10189 0.678955 -0.970695 -0.0372951 0.169166 0.260428 -1.54239 -0.247278 4.268 1.35005
805 -0.178187 -0.0869532 -0.200654 -0.459767 0.942195 0.186672 -0.185885 0.0158944 -0.140113 0.674709 -0.319252 -1.34794 -0.0796198 -0.0660323 -0.223072 -0.414041 -0.456188 -0.79692 0.0891081 0.387298 1.18 0.529639 -0.961129 -0.0758988 0.191998 0.351831 -1.60831 -0.390547 4.42899 1.55138
242 -0.0319391 -0.116373 0.0624525 -0.0927943 0.382075 0.124653 0.0973473 -0.0073467 0.0350223 0.219196 -0.1218 -0.661505 -0.279554 0.0482567 -0.472088 -0.162092 -0.188985 -0.305339 0.251242 0.246302 0.699769 0.350135 -0.598524 0.216793 0.104504 0.0910075 -1.19035 -0.35772 2.5895 0.822087
394 0.0487114 -0.133841 -0.288957 -0.322558 0.562513 0.42628 0.161842 -0.11673 -0.0557206 0.701324 -0.192606 -1.16799 -0.361526 -0.0289091 -0.20505 -0.623268 -0.159491 -0.456429 0.502254 0.321866 1.06484 0.611803 -1.07085 -0.0849851 0.179634 0.200837 -1.55439 -0.369435 4.48174 1.39499
398 0.0768612 -0.142898 -0.231611 -0.366536 0.443283 0.328168 0.040726 -0.0369056 -0.144983 0.597143 -0.147728 -1.16152 -0.436192 -0.0417275 -0.189246 -0.52619 -0.136413 -0.320783 0.540026 0.287688 1.20532 0.589535 -1.11556 -0.0741323 0.118017 0.259144 -1.61323 -0.378616 4.35646 1.44738
384 -0.000705132 -0.0570442 -0.202615 -0.27776 0.494086 0.390744 -0.00100003 -0.0949854 -0.169483 0.616571 -0.137742 -1.13204 -0.452048 0.108691 -0.245269 -0.632363 -0.176987 -0.464843 0.441029 0.276176 1.16619 0.509926 -1.0247 -0.0459551 0.0775467 0.223355 -1.51434 -0.379229 4.41243 1.39361
390 0.0421708 -0.0486018 -0.167152 -0.341454 0.473607 0.349448 0.118463 -0.0444719 -0.0939883 0.62933 -0.166921 -1.1311 -0.485247 0.0352167 -0.186417 -0.593129 -0.162954 -0.388544 0.457733 0.352896 1.1142 0.533025 -1.01903 -0.0362718 0.165453 0.210312 -1.5788 -0.308887 4.34238 1.34955
383 0.00424931 -0.0600384 -0.274899 -0.298949 0.432964 0.341229 0.142326 -0.060136 -0.189434 0.608906 -0.243832 -1.17061 -0.316979 -0.0187377 -0.245723 -0.536678 -0.213197 -0.34192 0.499378 0.352442 1.20541 0.603379 -0.93041 -0.0266146 0.157527 0.215555 -1.5247 -0.362922 4.37294 1.28589
395 -0.0621576 -0.167852 -0.194486 -0.357657 0.446421 0.401609 0.132407 -0.0539511 -0.0926425 0.655024 -0.166231 -1.1278 -0.367031 0.0033018 -0.339794 -0.519887 -0.201729 -0.355389 0.497942 0.344486 1.09276 0.545195 -0.946616 0.0287092 0.169188 0.266814 -1.46835 -0.424337 4.2922 1.38229
123 -0.0691525 -0.133009 -0.0410066 -0.264151 0.268177 0.146357 -0.17902 -0.0522377 -0.329723 0.28452 -0.115258 -0.678161 -0.447601 -0.0220572 -0.511766 -0.286797 -0.0352126 -0.162722 0.302946 0.146227 0.739444 0.380627 -0.553919 0.354218 0.254476 0.177995 -0.65199 -0.41388 2.86545 1.2408
485 -0.0753896 0.0509834 -0.274493 -0.323784 0.731736 0.652686 -0.372217 -0.00593921 0.0343393 0.765275 0.07707 -0.474354 -0.956772 0.392026 -0.382543 -0.784566 0.27467 -0.34757 -0.459442 0.320447 0.887509 0.280335 -0.777972 -0.214535 0.261484 0.528353 -0.531872 -0.215981 3.28468 1.41928
487 -0.113405 -0.0788005 -0.437071 -0.345827 0.945593 0.771073 -0.390045 -0.0527828 -0.132519 0.69842 -0.16741 -0.575709 -0.899539 0.441425 -0.460128 -0.85282 0.119626 -0.209476 -0.566064 0.540915 0.978926 0.202244 -0.910384 -0.354667 0.271857 0.655275 -0.536106 -0.256501 3.74515 1.49847
488 -0.0611623 -0.144487 -0.400851 -0.3718 0.849859 0.739776 -0.312563 -0.0425637 -0.173632 0.865831 -0.0387926 -0.66607 -0.818095 0.427934 -0.548906 -0.822066 0.116985 -0.29336 -0.528342 0.483273 0.998608 0.305039 -0.918136 -0.325524 0.234498 0.666116 -0.470558 -0.287663 3.7343 1.60436
484 -0.00898831 -0.00483347 -0.380848 -0.294708 0.973181 0.779394 -0.368771 -0.101559 -0.187954 0.834587 -0.14284 -0.574474 -0.796991 0.508953 -0.473412 -0.895887 0.257348 -0.286249 -0.476037 0.477582 0.961267 0.379948 -0.881583 -0.234197 0.152922 0.693281 -0.517816 -0.240764 3.72201 1.531
483 -0.0423378 0.0679279 -0.413989 -0.374117 0.878353 0.685442 -0.363562 -0.0308413 0.012252 0.79997 0.0409218 -0.561385 -0.751674 0.515355 -0.483558 -0.896581 0.235898 -0.373042 -0.473065 0.421723 0.939608 0.28744 -0.831066 -0.280742 0.325165 0.693806 -0.469131 -0.20548 3.67823 1.5431
481 -0.00373304 0.0187583 -0.2995 -0.463163 0.832294 0.647192 -0.366415 -0.0362432 -0.0636319 0.789516 -0.0955636 -0.522444 -0.772376 0.564223 -0.529953 -0.815885 0.28661 -0.292075 -0.486342 0.520759 0.870384 0.267763 -0.793131 -0.29561 0.329998 0.799897 -0.547416 -0.269229 3.61797 1.4937
489 -0.0902127 -0.180907 -0.157198 -0.30793 0.639789 0.537391 -0.224266 0.171761 0.0345899 0.76713 -0.0111714 -0.571652 -0.883032 0.295735 -0.466108 -0.635973 0.183702 -0.428336 -0.27281 0.0537761 0.959643 0.188029 -0.808002 -0.166122 0.408588 0.371885 -0.246892 -0.286691 3.17785 1.32433
473 -0.115552 0.0100134 -0.379718 -0.45568 0.945106 0.785371 -0.407808 -0.0877541 -0.0546904 0.77594 -0.0431162 -0.64195 -0.933342 0.439419 -0.594677 -0.861501 0.112907 -0.231514 -0.50404 0.514397 1.00544 0.246089 -0.879688 -0.300077 0.225263 0.679133 -0.463821 -0.226677 3.73275 1.5565
476 -0.0419489 -0.0991055 -0.384953 -0.359863 0.929577 0.788974 -0.385693 -0.0415298 -0.105298 0.828304 0.0337738 -0.474611 -0.7873 0.50979 -0.425314 -0.870745 0.247715 -0.208224 -0.428285 0.50116 0.963886 0.449744 -0.895324 -0.404228 0.233529 0.641977 -0.530421 -0.188839 3.63943 1.50627
486 -0.0577828 -0.0953958 -0.391764 -0.322838 1.00084 0.857803 -0.338674 -0.134426 -0.17716 0.729277 -0.115526 -0.596352 -0.92 0.463554 -0.437578 -0.917485 0.221518 -0.225602 -0.528544 0.487415 1.03834 0.249423 -0.957398 -0.205354 0.20217 0.569778 -0.611548 -0.280262 3.72367 1.53637
470 -0.113616 -0.0210555 -0.47717 -0.323073 0.991121 0.657577 -0.471588 -0.14737 -0.160452 0.608538 -0.0607169 -0.624029 -0.808905 0.452234 -0.532081 -0.815863 0.193737 -0.23233 -0.53073 0.640626 0.884279 0.177261 -0.901737 -0.335018 0.244362 0.604849 -0.612311 -0.16269 3.74451 1.54376
482 -0.0574503 -0.0295345 -0.329257 -0.339432 0.930215 0.724885 -0.227675 -0.2918 -0.214287 0.55146 -0.0265236 -0.51606 -0.759087 0.536635 -0.621767 -0.687696 0.149489 -0.256474 -0.213358 0.477758 0.791091 0.0827787 -0.827004 -0.14196 0.219748 0.453464 -0.473904 0.0534953 3.36918 1.25899
70 -0.0438909 -0.0499283 -0.0569395 -0.431256 0.334359 0.214891 -0.228589 -0.0224796 -0.327947 0.238551 0.171234 -0.428986 -0.366304 0.256717 -0.116491 -0.575125 -0.00808415 -0.182855 0.0839367 0.194956 0.653212 -0.058107 -0.48989 0.261352 0.468444 0.180443 -0.565645 -0.514081 2.8927 1.14199
1009 0.230237 0.240732 0.231198 -0.255193 0.852962 0.533331 -0.0345543 -0.180035 -0.672619 0.0965058 0.282498 -0.675442 -0.689687 0.331587 -0.298336 -0.770452 0.0695975 0.115076 -0.350564 0.132578 0.969192 -0.136451 -0.725096 -0.020389 0.268744 0.48597 -0.776766 -0.327497 3.17126 1.37285
1000 0.27935 0.170346 0.235731 -0.20047 0.668257 0.413107 -0.0205862 -0.227746 -0.678819 0.0396266 0.237648 -0.765162 -0.539817 0.209877 -0.278001 -0.714402 0.128857 -0.1117 -0.33767 0.0220539 0.896781 0.0693587 -0.768944 0.0915584 0.251942 0.420791 -0.763184 -0.360391 3.09585 1.3327
969 -0.248295 0.0559402 -0.20376 -0.0372056 0.593283 -0.0527341 -0.487195 -0.071176 0.0151526 -0.150711 -0.325667 -0.80354 -0.447466 0.358262 -0.0868829 -0.490336 -0.0738821 -0.213001 0.150096 -0.0836447 1.22207 -0.0236973 -1.03153 -0.144137 0.479706 0.137101 -0.529516 -0.355045 3.28108 0.999745
80 -0.170656 -0.0998323 -0.0414864 -0.395376 0.271743 0.169813 -0.032997 0.0432291 0.00376269 0.238207 -0.35845 -0.441824 -0.395154 0.682467 0.0242809 -0.53807 0.0925425 -0.225715 -0.196845 -0.278701 0.964154 -0.168567 -0.75551 -0.204216 0.442979 0.192886 -1.03467 -0.39992 2.84597 0.796545
552 -0.0116666 -0.143373 -0.0290966 -0.542541 0.597582 0.0959417 -0.0265291 -0.198789 -0.0531493 0.114323 -0.1804 -0.486568 -0.622785 0.623204 0.102433 -0.334241 0.0857971 -0.102441 -0.169115 0.0227958 1.13361 -0.399538 -1.19403 -0.00895238 0.452253 0.0968664 -1.00196 -0.236342 3.06419 0.681627
181 -0.0329503 -0.00700607 0.0944637 -0.0448663 0.426463 0.19287 0.00994374 -0.0722951 -0.276289 0.0589808 0.285001 -0.760684 -0.358499 0.266911 0.165618 -0.525936 0.0458823 -0.0724662 0.0974622 -0.146825 0.856266 -0.00189992 -0.68134 -0.355286 0.170085 0.275605 -0.657808 -0.592682 2.94127 1.14708
422 0.0597194 -0.0637884 -0.0584285 0.109475 0.635521 0.494723 -0.289341 -0.0942321 0.122461 -0.0867528 0.308806 -0.75531 -0.183929 0.398729 -0.155479 -0.357386 0.0333665 -0.338376 0.489949 -0.203794 0.684658 -0.154012 -0.549899 -0.169225 -0.0834555 0.188945 -0.690092 -0.531587 3.2019 0.915315
504 -0.126176 -0.204646 -0.369741 0.219171 0.483919 0.34617 0.172204 -0.143763 0.161715 0.215144 -0.570694 -0.659443 -0.410324 0.149489 -0.269597 -0.746822 -0.100096 -0.446031 0.258882 0.0117065 0.970648 0.627717 -0.557453 0.124628 0.261282 0.00943735 -1.06787 -0.504557 3.17203 0.812615
269 -0.211343 -0.196585 -0.235524 0.381399 0.262456 0.889086 0.405746 -0.178963 -0.170929 0.59812 -0.707664 -0.795907 -0.625249 0.337923 -0.339653 -1.13896 -0.104951 -0.316508 0.373719 -0.0718404 1.09582 0.533742 -0.468321 -0.1623 0.0997819 0.00135855 -1.1892 -0.167925 3.38679 1.15727
911 0.725614 0.265404 0.131524 -0.100367 0.95391 0.621295 0.000404281 -0.49302 -0.0347211 0.600927 -0.104761 -0.579846 -0.865867 0.238654 -0.405146 -0.545179 -0.181164 -0.620142 0.676682 0.175711 1.39624 0.0660236 -1.09119 -0.342248 0.203354 0.182472 -0.72942 -0.726247 4.12759 1.16561
1006 0.228401 0.230656 0.270953 -0.229846 0.740651 0.381315 -0.050144 -0.0962418 -0.497403 0.11091 0.372341 -0.96077 -0.631314 0.177205 -0.0394562 -0.622446 0.0159939 0.0880749 -0.124551 0.101886 0.973163 0.0147129 -0.81515 -0.389089 0.0342888 0.345826 -0.942913 -0.577671 3.46538 1.67537
998 0.207327 0.0740421 0.226717 -0.155163 0.696802 0.408799 -0.0442172 -0.251096 -0.518176 0.134452 0.336655 -0.999306 -0.660471 0.215214 0.108318 -0.581242 -0.0131295 -0.00195104 -0.109289 0.181826 0.981533 -0.0755165 -0.937114 -0.361435 0.128534 0.44245 -0.914565 -0.537807 3.52279 1.51708
995 0.295972 0.193066 0.300066 -0.31091 0.705772 0.324845 -0.146601 -0.172161 -0.598837 0.076956 0.389917 -0.992814 -0.508263 0.290803 0.143285 -0.706231 0.0549991 -0.0584385 -0.157515 0.00650191 0.89384 -0.0205218 -0.769088 -0.261704 0.156385 0.508903 -0.80262 -0.425885 3.45452 1.5068
1074 0.0823934 -0.123425 -0.237984 -0.220625 0.082154 0.212629 0.261765 0.0545977 0.0505722 0.766434 0.00166767 -0.366754 -0.548151 0.491088 -0.420907 -0.643083 0.250836 -0.414228 0.150869 0.189597 0.659172 0.159406 -0.592652 -0.426593 0.216491 0.312047 -0.312133 -0.557528 2.88131 0.826731
1024 -0.148582 -0.154986 -0.216318 -0.276661 0.18719 0.772383 -0.562099 -0.25976 -0.368771 0.338062 -0.344384 -0.719213 -0.387855 0.106663 -0.299356 -0.653795 -0.252785 -0.14969 0.250189 0.147141 0.93726 0.330548 -0.443466 -0.313387 0.526191 0.264959 -0.77917 -0.606621 3.74934 0.685511
67 0.00390533 0.0308168 -0.159075 -0.405815 0.74358 0.504952 -0.195951 0.0182065 -0.0738504 0.399402 -0.0280825 -0.422994 -0.683973 0.167041 -0.241814 -0.663412 0.0998293 -0.106688 -0.292547 0.420612 0.872966 0.0138032 -0.610505 0.229662 0.336797 0.143771 -0.488914 -0.45294 2.92549 1.29923
480 -0.148175 -0.105326 -0.0922363 -0.381339 0.483577 0.295555 -0.452095 0.260878 -0.0643919 0.718681 0.0921606 -0.424069 -0.65078 0.433285 -0.428854 -0.473831 0.192784 -0.352428 -0.0932085 -0.0411053 0.806831 0.369708 -0.796245 -0.135753 0.446259 0.0512879 -0.345723 -0.342318 2.93399 1.21936
619 0.0841336 -0.206232 -0.241164 -0.209057 0.449957 0.380304 0.206638 -0.112594 -0.0217334 0.310527 -0.170286 -1.03183 -0.29319 -0.00910876 -0.287064 -0.490693 -0.222869 -0.37332 0.41562 0.189264 0.992028 0.467651 -0.903426 -0.0110946 0.111973 0.231597 -1.39848 -0.411368 4.00013 1.10296
352 0.0720396 -0.240662 -0.0579571 -0.361532 0.500065 0.372987 -0.384913 0.333132 -0.323583 0.581973 0.0977498 -0.377599 -0.552288 0.534887 -0.125133 -0.401996 -0.152525 -0.516729 -0.0850958 -0.0559714 0.656276 0.245053 -0.804661 -0.0332793 0.333125 0.0574738 -0.548637 -0.554911 3.11191 1.14506
884 0.106578 -0.187461 -0.027341 -0.21569 0.606469 0.642531 -0.186019 0.0938055 -0.29917 0.46607 0.14217 -0.211732 -0.53528 0.579819 -0.32714 -0.568013 -0.334334 -0.579684 0.209388 0.109754 0.870081 0.189415 -0.719565 -0.120697 0.285283 -0.225296 -0.588658 -0.768693 3.14418 1.33897
290 -0.00438629 -0.364364 -0.145882 -0.445072 0.647432 0.178012 0.267792 -0.0994382 0.024964 0.213389 -0.300577 -0.538956 -0.433209 0.553377 0.182992 -0.556558 0.22435 -0.0301707 -0.102826 -0.174881 1.10332 -0.303776 -0.98518 0.0935234 0.391736 -0.0688539 -0.981501 -0.38136 3.06653 0.71176
543 -0.0345622 -0.139737 -0.194754 0.0313752 0.197028 -0.0123134 -0.231833 -0.00159004 -0.690464 0.0799004 -0.00544358 -0.676093 -0.660675 0.195894 0.295684 -0.850715 0.125609 -0.40513 0.417245 0.131157 0.92752 0.195412 -0.471395 -0.151235 -0.178069 0.59493 -0.54852 -0.446377 3.22173 0.932378
33 0.0657975 -0.0313386 -0.298067 -0.0969277 0.0613199 -0.0164788 -0.100857 0.535729 -0.355918 0.0563984 0.0512392 -0.37967 -0.688863 0.039677 0.0446195 -0.549337 -0.126907 -0.654803 0.706361 0.0237593 0.799614 0.139841 -0.370539 -0.047174 -0.163455 0.302808 -0.556554 -0.591356 2.86669 0.76604
727 -0.125666 0.0607919 -0.023663 -0.145077 -0.0813957 0.43919 0.138988 0.26772 -0.0546093 0.373166 -0.233071 -0.721602 -0.120998 0.199777 -0.266325 -0.865575 -0.0997405 -0.659597 -0.127885 0.387151 0.913141 0.0643674 -0.300742 -0.291703 0.143856 0.224515 -0.495606 -0.54323 2.99431 0.896789
728 -0.202814 0.00519516 0.187024 -0.285324 0.0350808 0.379103 0.0240978 0.301501 0.224134 0.468776 -0.418091 -0.752813 -0.236994 0.221936 -0.180229 -0.986486 -0.0243612 -0.5792 -0.0905163 0.247802 0.916107 -0.0130906 -0.302433 -0.338541 0.250792 0.17485 -0.516559 -0.264702 2.86466 1.0127
231 -0.0202341 0.00641365 -0.431694 -0.410003 0.318837 0.277771 0.131513 -0.175792 -0.16452 0.264377 0.106364 -0.408774 -0.333106 0.287634 -0.1057 -0.479237 0.0284056 -0.205046 -0.0263736 0.111503 0.844068 -0.024657 -0.726096 0.349473 0.393674 -0.0201421 -0.408238 -0.835694 3.08108 0.730055
316 -0.0328102 0.0571375 -0.0855149 -0.22025 0.425178 -0.0509761 0.0455161 0.0639878 -0.208137 -0.0336018 -0.349772 -0.513031 -0.403787 0.422844 0.250255 -0.710838 0.0142582 -0.297439 0.0508293 0.00983274 0.871228 0.0294361 -0.615186 -0.32456 0.365643 0.252467 -0.503181 -0.824999 2.95652 0.991221
722 0.133584 0.157162 -0.170698 0.283363 0.322013 0.601559 -0.323268 0.180644 -0.14811 0.283587 -0.420129 -1.11674 0.050523 0.287201 -0.289969 -0.772162 0.15112 -0.106247 -0.0754453 -0.0635941 1.02045 -0.0454205 -0.541896 -0.308039 -0.0590105 -0.237968 -0.346169 -0.334853 3.21295 1.16825
143 0.0691951 0.0753259 -0.254972 -0.236331 0.253094 0.135667 -0.121539 0.13654 -0.0372834 0.262544 0.0394676 -0.452467 -0.612151 0.290013 -0.272457 -0.443241 0.0101087 -0.193487 0.0575892 0.0427465 0.763632 0.0987363 -0.489518 0.175543 0.461167 0.212751 -0.527983 -0.512793 2.77112 1.09933
599 0.16947 -0.213082 -0.27073 0.0228495 0.45961 0.457937 -0.240012 0.429373 -0.464396 0.400337 -0.0637554 -0.179423 -0.579569 0.57209 -0.13556 -0.457453 -0.33389 -0.590969 0.249911 -0.0181715 0.786297 0.305968 -0.552991 -0.282926 0.214446 -0.0729094 -0.413435 -0.770389 2.75263 0.987345
424 0.156804 0.176377 -0.43139 -0.0276067 0.232088 0.286681 0.147432 -0.0113546 0.223446 0.0849721 0.0691782 -0.484384 -0.454864 0.147982 -0.31569 -0.881347 -0.0673132 -0.421733 0.261417 0.312026 0.962268 0.355755 -0.470934 0.0323553 0.62509 0.093081 -0.446905 -0.41417 2.83764 0.868007
974 -0.305929 0.113118 -0.145784 -0.477996 0.225749 0.272918 -0.304884 -0.16506 0.0402193 0.468718 0.0506588 -0.32296 -0.232492 0.297142 -0.197268 -0.40963 0.284311 -0.482289 0.39164 0.15079 1.05798 0.0115108 -0.780975 -0.32162 0.00820768 -0.0513437 -0.884865 -0.573706 3.16862 1.02856
1050 -0.059342 0.644646 -0.53891 -0.433575 0.301418 0.415119 0.0765314 0.0381075 -0.642118 0.428897 -0.0198011 -0.6386 -0.588099 0.0352563 -0.4154 -0.779703 -0.316515 -0.27382 0.00740745 0.108065 1.17281 0.606187 -0.522363 -0.131385 0.589975 -0.225623 -0.86124 -0.740372 3.82021 1.03819
745 0.252501 0.149127 0.191626 -0.228553 0.180287 0.112218 -0.396673 0.111442 -0.558095 0.814061 0.0402036 -0.557923 -0.54118 0.18494 -0.319812 -0.897988 0.34047 -0.312725 0.300746 0.269339 1.1056 0.0932749 -0.359521 -0.617398 0.079102 -0.323558 -0.880085 -0.448746 3.53887 0.90815
331 0.0644363 0.115934 0.28523 -0.202259 0.494791 0.194607 -0.49901 0.0154118 -0.27798 0.555189 -0.0645139 -0.375244 -0.538397 0.464872 -0.32015 -0.89778 0.439622 -0.543544 -0.117348 0.210911 1.01379 0.279128 -0.706303 -0.671033 0.200267 -0.226202 -1.23659 -0.491806 3.55157 0.862534
5 -0.0525741 -0.047929 -0.0574607 -0.357832 0.046397 0.314243 -0.279529 -0.210217 -0.498384 0.376209 0.0179544 -0.28043 -0.569024 0.378391 0.0230474 -0.941613 0.380759 -0.346844 0.322139 -0.0623584 0.952859 0.00275179 -0.686041 -0.482235 0.0390925 -0.272287 -0.786811 -0.253531 3.30042 0.645074
103 -0.0226684 -0.138704 -0.0829403 -0.456843 0.43835 0.141487 0.193935 -0.221194 -0.141689 0.0975184 -0.172938 -0.508585 -0.801918 0.433529 0.133693 -0.255889 0.0880449 -0.0167511 -0.000776078 -0.103117 1.12995 -0.349445 -1.18203 0.0576195 0.412448 0.0290248 -0.911222 -0.325182 2.97618 0.727761
1108 0.0428123 -0.0657138 -0.00380424 0.0295152 0.616151 0.409311 -0.398679 -0.271014 -0.395009 0.4467 0.17253 -0.539632 -0.138772 0.362054 -0.40543 -0.634067 -0.0330528 -0.647942 0.573946 0.619136 0.278386 0.438088 -0.489143 -0.0835193 0.140058 -0.143631 -0.233689 -0.430589 3.1524 0.814448
1109 -0.059154 -0.0658113 0.127638 -0.00762934 0.675449 0.295256 -0.201249 -0.275884 -0.517486 0.383369 0.164777 -0.512067 -0.118936 0.48302 -0.393538 -0.639483 -0.0782837 -0.49079 0.541891 0.519889 0.403457 0.351271 -0.510786 -0.0378186 0.278544 -0.416405 -0.455237 -0.543711 3.20259 0.822535
1104 0.150971 -0.236601 -0.109455 -0.156526 0.382719 0.751424 0.027761 0.051483 -0.507791 0.292671 -0.29546 -0.262774 -0.594417 0.717061 0.0808474 -0.638913 -0.615434 -0.475145 0.302125 0.0479046 0.664527 0.176847 -0.798742 -0.1494 0.41658 -0.125184 -0.475463 -0.83117 3.04444 1.51809
