157 128
1841 0.00610339 -0.01858 0.133582 -0.0117772 -0.027832 -0.0465724 0.0576144 -0.0172992 -0.122716 0.0799084 -0.122454 -0.0257258 0.0174649 -0.0607506 0.0661845 -0.0190066 0.0421707 -0.000615404 -0.0252975 -0.0341134 0.0826147 -0.0166696 -0.0113404 0.0232331 0.0921984 -0.0301077 0.0289747 -0.138622 -0.0450419 -0.0972846 0.124938 -0.0276282 -0.13393 -0.0139449 -0.128531 -0.016952 0.259448 0.501295 -0.23857 -0.046625 -0.235053 0.261548 0.411369 0.0297788 -0.135093 0.0153067 -0.0577322 -0.135283 -0.133393 -0.441376 0.055732 0.166757 0.103267 -0.0105445 -0.375408 0.118698 -0.277575 -0.637377 -0.174286 -0.317547 -0.107842 -0.186761 0.254531 0.399507 -0.88394 0.15772 -0.41498 0.0331949 0.180104 -0.163007 0.255626 0.204931 -0.177253 -0.593158 -0.729602 -0.0879259 0.349543 -0.160312 -0.3915 0.0119795 -0.398325 -0.201799 -0.190925 -0.305939 -0.451481 -0.220384 0.559205 -0.318678 -0.525122 -0.2512 0.482867 -0.0729522 -0.0972033 0.546746 0.245331 -0.29092 -0.932981 -0.247568 -0.6446 0.807088 -0.133576 0.156164 0.887638 0.317296 0.0906703 0.116427 0.253017 -0.429753 -0.656108 0.00669414 0.412487 0.110182 0.381612 -0.534239 1.15399 0.629694 0.863777 0.266717 -0.319801 0.394263 0.047862 0.1467 -0.09638 0.0933573 -0.183039 -0.103882 -8.53201e-05 1.02353
3138 0.0376653 -0.0906489 0.0129612 -0.10048 -0.149717 -0.0925147 0.10614 0.109619 -0.192601 0.130617 -0.00719569 0.0207258 0.0897696 -0.0308763 0.077783 -0.0175868 -0.0728277 0.0770243 -0.0574255 0.160881 0.037312 -0.0183172 0.0447372 -0.0907016 0.0432821 -0.0493458 -0.0666981 -0.0884958 -0.0443035 -0.104522 0.116572 0.108251 -0.136529 -0.154984 0.0217052 0.0476826 0.281746 0.424843 -0.16975 -0.0889959 -0.0505322 0.192115 0.535136 0.114351 -0.222189 0.116137 -0.0319064 -0.247794 -0.0264659 -0.434227 -0.0313425 0.0201305 0.0487305 -0.0332538 -0.261044 0.053294 -0.294096 -0.482245 -0.209223 -0.25245 -0.076987 -0.184265 0.329504 0.258976 -0.811881 0.153146 -0.370494 0.148935 0.211454 -0.0863089 0.189607 0.178862 -0.192681 -0.61897 -0.807724 -0.0265616 0.40904 -0.137953 -0.499964 0.0503026 -0.553998 -0.126856 -0.176819 -0.149287 -0.362922 -0.20606 0.358945 -0.243251 -0.557802 -0.272998 0.30224 -0.0478292 -0.193891 0.594688 0.247643 -0.115641 -0.917317 -0.386135 -0.576396 0.676456 -0.218504 0.159992 0.77138 0.292435 0.0113762 0.156734 -0.00860082 -0.435839 -0.623662 0.0715037 0.412374 0.0871922 0.516926 -0.392449 1.1524 0.798003 0.763793 0.342126 -0.317862 0.366044 0.0809345 -0.0138165 -0.177049 0.301236 -0.241318 -0.0369338 0.0484851 1.00744
4417 0.0625903 -0.0463913 0.228361 -0.0721018 -0.0208624 0.186321 -0.0164955 -0.091656 -0.0678237 0.101081 0.0689861 -0.0544112 0.0278427 0.100148 -0.226898 -0.00524441 -0.0293831 0.181332 0.0418065 -0.0210496 0.157525 0.148253 -0.08544 0.0692721 -0.0303683 0.0873561 0.136278 -0.0504312 0.0966049 -0.0138318 -0.117819 -0.00471993 -0.0367158 0.153734 -0.10436 0.167901 0.167257 0.315056 -0.257724 0.22398 0.0302206 0.0134283 0.130915 0.00963553 0.0443313 0.0410498 -0.202671 -0.117639 0.0800247 0.280443 -0.358943 0.0460236 0.283388 -0.24084 -0.124417 0.216981 0.218386 0.0843643 -0.156421 0.0370989 -0.210419 0.0789231 0.389678 0.386276 -0.592108 0.159424 -0.306344 -0.0302738 0.133149 0.212426 0.421156 0.413008 0.199855 -0.666218 -0.85144 -0.229333 0.457727 -0.11312 -0.336129 0.106004 -0.692424 -0.0905019 -0.086889 -0.044816 -0.141814 -0.522168 0.378303 -0.207598 -0.237181 -0.280654 0.112568 -0.300655 0.0500328 0.766921 0.123189 0.0188297 -0.607196 -0.585664 -0.387397 0.537693 -0.00867916 0.244977 0.626829 -0.301564 0.165426 -0.240704 -0.282066 -0.242654 -0.258052 0.128869 0.439477 -0.284535 0.495569 0.219457 0.693599 0.498333 0.454552 0.447706 -0.0668309 0.636446 0.0498294 -0.0455786 0.102523 0.54027 -0.487528 0.374136 -0.1685 0.13634
5009 -0.105965 0.0299114 0.181524 -0.0799016 -0.0599109 -0.0299707 0.094584 -0.206472 0.0139859 0.229687 0.111097 -0.0182863 -0.0892014 0.0679204 -0.270666 -0.0155485 -0.0512587 0.26137 0.0478702 -0.117274 0.26029 0.19463 -0.0867244 0.0608341 0.0704208 0.0779619 0.1054 -0.156545 0.00977153 0.0141344 -0.028201 -0.00279368 -0.0259332 0.221931 -0.0949353 0.0607299 0.125117 0.400261 -0.168811 0.19909 -0.0456563 0.0650347 0.0776011 -0.0470105 0.0128238 0.00412761 -0.176308 -0.074078 -0.0379662 0.170082 -0.20571 0.120086 0.263893 -0.130264 -0.150864 0.19878 0.220407 0.0127167 -0.0855901 0.00556665 -0.133471 0.0640991 0.281051 0.325825 -0.592156 0.164725 -0.316254 -0.0558796 0.118198 0.0823412 0.394159 0.445433 0.0966311 -0.582054 -0.82833 -0.121975 0.472349 -0.0904563 -0.328422 0.0793198 -0.619972 -0.133001 -0.179868 -0.142145 -0.133482 -0.487427 0.380109 -0.26249 -0.294577 -0.221811 0.136338 -0.210482 0.111674 0.682221 0.111485 0.0166287 -0.663808 -0.578415 -0.327773 0.521823 -0.0597266 0.234778 0.583664 -0.161023 0.175482 -0.216363 -0.124013 -0.314077 -0.355798 0.0776959 0.524587 -0.187419 0.414173 0.178455 0.728542 0.523411 0.446882 0.431383 -0.0613958 0.59125 0.0348811 -0.02482 0.0308953 0.479502 -0.598607 0.308094 -0.155561 0.270859
4906 0.0550027 -0.0508339 0.236517 -0.043255 -0.00976611 0.200089 -0.0307385 -0.0626255 -0.053682 0.117557 0.0805114 -0.0212209 0.0378562 0.122864 -0.26629 -0.00690344 -0.0740771 0.175215 0.0363447 -0.0246568 0.177964 0.188096 -0.0711035 0.0730811 -0.0347067 0.0912111 0.11068 -0.088036 0.060482 -0.0337613 -0.114919 0.0153551 -0.0359399 0.17272 -0.132013 0.183156 0.183014 0.341811 -0.252158 0.240839 0.034262 0.00667494 0.14631 0.0235926 0.0395654 0.0395111 -0.217174 -0.125084 0.0887147 0.289429 -0.371273 0.0423594 0.29283 -0.221978 -0.128018 0.209119 0.213305 0.0799003 -0.157664 0.0425401 -0.20807 0.0849321 0.398676 0.394696 -0.625756 0.160257 -0.31673 -0.0187679 0.129319 0.21608 0.453394 0.457202 0.205234 -0.698689 -0.868997 -0.235436 0.475839 -0.10865 -0.34025 0.111406 -0.692494 -0.0843693 -0.0954661 -0.0541702 -0.143343 -0.509432 0.372479 -0.209897 -0.215812 -0.270623 0.122434 -0.314393 0.0486511 0.739408 0.129286 0.0267178 -0.596267 -0.573064 -0.40182 0.529433 0.0274786 0.230634 0.618959 -0.318291 0.178754 -0.236216 -0.283642 -0.212759 -0.24381 0.134136 0.406617 -0.313001 0.461614 0.21002 0.668541 0.46815 0.451456 0.43975 -0.0629928 0.608073 0.0632393 -0.0458112 0.0956163 0.536442 -0.486786 0.373052 -0.183617 0.112301
12436 -0.0204037 -0.0601622 0.233707 0.0230404 0.143277 0.0970802 0.0493191 0.0484282 0.0874172 0.188937 0.1361 0.133488 -0.00756286 0.145449 -0.14366 0.0641931 -0.174616 0.140242 -0.0195608 -0.0889148 0.165805 0.216851 -0.270754 0.247039 0.0962958 -0.00561568 0.0206202 -0.178513 -0.0976124 0.0280445 0.00801567 0.0567845 -0.267429 0.252945 -0.232242 -0.0187972 0.153731 0.454026 -0.157456 0.0469929 -0.311724 0.18548 0.263396 -0.19102 -0.00914155 0.0733477 -0.0830904 -0.233285 -0.0346268 0.329299 -0.207 0.161724 0.346583 -0.148701 -0.228258 0.0129549 0.232495 0.145173 -0.014078 -0.0842231 0.00549119 -0.0221617 0.205171 0.263562 -0.575998 0.0605078 -0.246605 -0.0272227 -0.0289141 0.173181 0.336239 0.488621 -0.112574 -0.273926 -0.757036 0.0316252 0.27007 -0.32247 -0.131335 0.11897 -0.479649 -0.151138 -0.419426 -0.251445 -0.0953918 -0.668474 0.537423 -0.417734 -0.249872 -0.11372 -0.227072 0.0253936 0.258253 1.03283 -0.202932 -0.104744 -0.958123 -0.757005 -0.0993493 0.351904 -0.304495 0.421313 0.642172 0.0359818 0.0974203 -0.242902 0.0457655 -0.442133 -0.361721 0.00822982 0.598575 0.0177105 0.322529 0.234891 0.89326 0.611905 0.470111 0.269041 -0.159445 0.617321 -0.0614362 -0.141932 0.0605365 0.373581 -0.793038 0.321701 -0.102325 0.379578
10489 -0.15833 -0.241168 0.253231 -0.0163353 0.193954 0.252232 0.0443889 0.141184 -0.0848793 0.219291 0.0792023 0.1068 -0.040473 0.112318 -0.0217971 0.0652327 -0.2775 0.225519 -0.19223 0.199556 0.153181 0.216976 -0.215145 0.0848406 -0.107924 0.0276817 -0.0235309 -0.0619226 -0.0204278 -0.0252625 -0.0320671 0.138565 -0.0860278 0.051354 -0.0362307 -0.0642426 0.15073 0.17657 -0.0668869 0.000879223 -0.276023 0.267021 0.279781 0.00208064 -0.0535778 0.113968 -0.076654 -0.431896 0.165029 0.217924 -0.296523 0.0901757 0.368508 -0.167132 -0.135048 -0.051034 0.187816 0.218316 -0.00956542 -0.0388732 0.0642638 -0.201352 0.145288 0.1815 -0.402217 0.0405562 -0.262354 0.112314 0.0481128 0.170266 0.227442 0.478927 -0.177387 -0.430089 -0.956958 0.0811246 0.368381 -0.180189 -0.486733 0.247265 -0.786149 -0.0408726 -0.27077 -0.0631717 -0.00430263 -0.669271 0.285026 -0.288075 -0.384561 -0.149939 -0.166324 0.074214 0.0148423 0.868647 -0.042383 0.135963 -0.917447 -0.770408 -0.0423015 0.250896 -0.461482 0.329405 0.498715 0.133501 0.00350331 -0.165084 -0.141933 -0.5289 -0.586396 0.0905421 0.678104 0.090082 0.564107 0.262818 0.868106 0.81628 0.413161 0.371866 -0.169101 0.551885 0.016278 -0.259335 -0.0297207 0.499348 -0.648182 0.265675 0.0092625 0.495206
188 -0.0601751 -0.0502864 0.389987 0.110462 0.160004 0.348486 -0.23293 -0.0405181 0.121496 0.118376 0.342106 0.170822 0.0320948 0.126685 -0.469663 0.0330467 -0.398696 0.285737 0.0125927 0.0126444 0.128886 0.414744 0.121891 0.252791 0.0936616 0.0640349 -0.0149289 -0.121469 -0.129677 -0.0763838 0.0259425 0.225145 -0.00273665 -0.198667 -0.0692265 0.116757 0.167473 0.0756584 0.0685882 -0.0242601 -0.0401298 -0.0631013 0.371309 0.123555 -0.0732448 0.0472994 -0.056814 -0.401252 0.0657583 0.10653 -0.0654564 0.083257 0.0643335 -0.0279405 -0.0209385 -0.0826237 -0.0143141 -0.105953 -0.0633842 -0.147837 -0.0333168 -0.0522438 0.253926 0.108449 -0.694213 0.154471 -0.189953 0.238609 0.0322914 0.0317378 0.308481 0.463589 -0.107 -0.537418 -0.675791 -0.091991 0.549745 -0.092175 -0.285101 0.0972909 -0.838585 -0.337263 -0.4233 -0.193796 0.0110847 -0.373035 0.534309 -0.236633 -0.29681 -0.26469 -0.387875 0.0204246 0.0115782 1.02923 0.269224 0.0562607 -0.887 -0.671663 -0.378862 0.771008 -0.196928 0.447767 0.864467 -0.0973194 0.150204 -0.171106 -0.178912 -0.478991 -0.33079 0.289755 0.641407 -0.0153945 0.458119 0.1554 0.555186 0.622599 0.454629 0.338191 0.0422397 0.432865 0.0767405 -0.0171756 -0.149354 0.60201 -0.600388 0.0812078 -0.166722 0.480536
3507 0.328557 0.360869 0.0788074 -0.112251 0.315226 0.15446 0.114855 -0.134811 0.0238549 -0.307242 0.146946 -0.0323894 0.00659895 -0.207904 0.0443702 -0.103926 -0.112185 0.161726 0.268275 -0.250561 -0.0459171 0.255989 -0.132892 0.420813 0.67202 -0.00253962 0.266571 -0.170841 -0.231354 0.0511324 0.40963 0.184372 -0.125544 -0.0300623 -0.242941 0.220973 0.255565 0.775795 -0.0737451 -0.111422 -0.412508 0.225562 0.319271 -0.106738 -0.00534888 0.0856446 0.0328345 -0.286824 -0.0557228 0.138575 0.0637204 0.14767 0.090946 -0.0295311 0.0536155 0.0395129 0.11167 0.140594 0.0390465 0.0351441 0.0189908 0.0552894 0.0449388 0.0407534 -0.448878 -0.0274196 -0.21091 0.15207 0.128421 -0.0157023 0.136923 0.258894 -0.137296 -0.306237 -0.504852 -0.0717416 0.360038 -0.0680197 -0.216945 0.122835 -0.677983 -0.114828 -0.441001 -0.186813 0.0611615 -0.449905 0.417232 -0.246895 -0.225606 -0.144468 -0.112146 -0.118623 0.0590747 0.701537 0.066261 0.101637 -0.699989 -0.515536 -0.179405 0.374748 -0.157895 0.229814 0.790722 -0.117443 0.164909 -0.331825 0.0846895 -0.426386 -0.354218 -0.0275753 0.546701 -0.00867882 0.372795 0.236642 0.587936 0.360233 0.578391 0.330015 0.0336056 0.396347 -0.00666434 -0.172435 0.0872859 0.240424 -0.552696 0.221707 -0.117533 0.305252
2324 -0.347193 0.140498 -0.0906552 0.399095 0.104036 0.089474 -0.214276 -0.0922421 -0.0571638 -0.205502 -0.158017 0.0227311 0.00172396 -0.0961165 -0.135512 0.0750869 -0.0357927 -0.0185608 0.0922118 -0.108699 -0.184368 0.0302539 -0.027473 0.409999 0.180371 -0.00191611 0.115199 0.158651 -0.00620266 0.0762005 0.192644 0.00871203 -0.0252213 0.110758 -0.129196 0.208411 0.196666 0.520763 -0.237478 0.0841366 -0.256741 0.254409 0.291015 0.0220275 0.0459948 0.117841 -0.151103 -0.32079 0.154163 0.297964 -0.20226 0.0780194 0.127525 -0.250446 0.0943802 0.131309 0.218105 0.10247 -0.138382 -0.146277 -0.0945075 -0.0289943 0.250096 0.161586 -0.507543 0.0736434 -0.262675 0.0612323 0.139707 0.0339324 0.0982325 0.327751 -0.0995819 -0.388593 -0.550188 -0.0941194 0.258039 -0.112809 -0.301473 0.139586 -0.639565 -0.188013 -0.30784 -0.0415154 -0.0465884 -0.569759 0.501677 -0.278733 -0.258444 -0.219796 -0.0837445 0.0226012 0.00854004 0.790722 0.139466 0.00172767 -0.761172 -0.594318 -0.264621 0.470149 -0.265328 0.299858 0.705027 -0.0702709 0.133477 -0.187775 -0.132702 -0.496085 -0.429629 0.112107 0.590594 0.0221971 0.53551 0.183219 0.749173 0.633833 0.518748 0.408976 -0.0297269 0.549855 0.0370723 -0.130708 0.00703231 0.484414 -0.550731 0.241244 -0.0634825 0.392753
6494 0.422389 0.254517 0.541869 -0.00997613 0.406293 0.401112 -0.112091 -0.116046 0.0556729 -0.388289 0.268867 -0.0130673 0.032402 -0.0389083 -0.189969 1.57187e-05 -0.0333591 0.243475 0.244845 -0.283754 0.0377588 0.27767 -0.126545 0.442995 0.543695 -0.021997 0.324708 -0.068396 -0.10367 0.0941689 0.30381 0.205429 -0.186861 -0.228199 -0.214171 0.0853993 0.207374 0.567711 -0.15377 -0.28742 -0.366479 0.242145 0.44246 0.0369482 0.114131 0.111175 0.119282 -0.303245 0.0573231 0.0926456 0.235557 0.137119 -0.0399702 -0.12296 0.0351239 0.0546948 0.243969 0.15762 -0.0948086 -0.155063 -0.0586874 -0.0553308 0.342977 0.234555 -0.468628 0.0325697 -0.316136 0.0639211 0.162119 0.116467 0.204143 0.265368 -0.0126294 -0.533098 -0.662836 -0.121968 0.27024 -0.0609014 -0.297988 0.239304 -0.854824 -0.134823 -0.254972 0.0357707 0.0341069 -0.520525 0.491872 -0.305531 -0.275331 -0.241952 -0.0268894 -0.0220281 -0.0306908 0.827367 0.189057 0.100497 -0.890669 -0.7135 -0.188327 0.413866 -0.194585 0.264238 0.753149 -0.0763479 0.143533 -0.238273 -0.119827 -0.523668 -0.436995 0.182383 0.550454 -0.0373061 0.584837 0.19364 0.775271 0.688159 0.584756 0.423747 -0.0214151 0.640687 0.086638 -0.174578 0.0558146 0.497609 -0.600512 0.350987 -0.0971044 0.436844
6261 0.174917 -0.000470699 0.36302 -0.156256 -0.0719781 0.172937 0.116627 0.0135588 -0.0589313 0.200645 0.243803 -0.0267667 0.153464 -0.0411174 -0.128482 -0.0245208 -0.242664 0.156888 0.114648 0.0699374 0.140279 0.272677 -0.0452823 0.115268 0.389371 -0.004911 0.0758776 -0.119784 -0.0586103 -0.115957 0.0772066 0.175975 -0.228911 -0.0416677 -0.251426 0.0658464 0.518089 0.672639 -0.32641 -0.0510505 -0.159687 0.14736 0.537579 0.00676687 -0.141142 0.0543009 -0.111043 -0.227586 -0.10514 -0.238637 -0.140226 0.152494 0.201621 -0.124074 -0.374627 0.0960484 -0.148076 -0.373748 -0.150595 -0.222749 -0.108261 -0.115256 0.262347 0.275078 -0.831543 0.154562 -0.347546 0.0634 0.065386 -0.0340676 0.310838 0.289415 -0.106445 -0.524598 -0.817181 -0.109463 0.407045 -0.228335 -0.291088 0.0743133 -0.560093 -0.253358 -0.31718 -0.308528 -0.356073 -0.502013 0.675302 -0.374091 -0.447596 -0.26254 0.120847 -0.0359617 0.0503425 0.826147 0.138796 -0.228007 -0.941915 -0.472024 -0.540031 0.798726 -0.192028 0.355509 0.962218 0.104412 0.0892885 -0.128126 0.111539 -0.42701 -0.489783 0.097964 0.576307 0.0477977 0.393478 -0.122108 0.919435 0.571694 0.691091 0.26119 -0.227335 0.457402 0.0459302 0.0404229 -0.0355052 0.222891 -0.335016 0.0166171 -0.0539814 0.588369
10625 -0.0242679 0.0928015 -0.0257506 -0.107222 -0.00387416 -0.25109 0.249226 -0.130062 0.18494 0.257931 0.258641 0.0657243 -0.106336 0.104481 -0.330474 -0.00115409 -0.177683 0.211394 0.133642 -0.196453 0.173231 0.185911 -0.214283 0.126657 0.182633 -0.0378471 0.148872 -0.116804 -0.0960743 0.0792762 0.0993452 -0.013261 -0.275568 0.279487 -0.244617 -0.0405286 0.121685 0.533213 -0.215273 -0.0423495 -0.357538 0.225374 0.287669 -0.112215 0.0467798 0.0350807 -0.0915181 -0.256468 0.0307088 0.219523 -0.124726 0.138124 0.324639 -0.139662 -0.281825 0.06967 0.278986 0.173429 -0.0529879 -0.149187 -0.0167548 -0.103505 0.246372 0.430737 -0.678198 0.0617484 -0.296845 0.0348796 -0.00503401 0.144356 0.283969 0.505202 -0.164027 -0.400247 -0.800136 -0.00475767 0.278605 -0.283759 -0.270548 0.270351 -0.817818 -0.205665 -0.346546 -0.100248 -0.0316025 -0.687211 0.59224 -0.347716 -0.204641 -0.117454 -0.318795 0.0964642 0.0671467 0.973452 -0.0369501 -0.00825933 -0.892455 -0.679016 0.0173344 0.303698 -0.320189 0.337025 0.684645 0.0724652 0.0152531 -0.282673 0.107887 -0.584831 -0.481994 0.136662 0.688863 0.188714 0.440758 0.277292 0.622323 0.664577 0.490563 0.350865 -0.0587833 0.404412 -0.0686309 -0.223257 0.0494408 0.368944 -0.70731 0.284732 -0.0122139 0.278247
6196 -0.340319 0.0626035 -0.0347942 0.341825 0.0778402 0.0070916 -0.167114 -0.0437835 -0.164523 -0.137562 -0.324584 -0.0232564 -0.0211601 -0.140548 0.0484899 0.0960055 0.0423913 -0.0492194 -0.0837511 -0.0658978 -0.0845843 0.0775562 -0.146707 0.391895 0.0818671 -0.0653702 0.1255 0.280913 0.042153 0.0635574 0.24189 -0.0157294 -0.00908763 0.153988 -0.0966952 0.0694108 0.195435 0.462147 -0.31075 0.166002 -0.273972 0.33032 0.121427 0.0086951 0.0484408 0.148326 -0.192325 -0.211865 0.221306 0.293769 -0.329386 0.0952067 0.261955 -0.243042 -0.0796258 0.137802 0.155669 0.0981589 -0.124121 -0.106165 -0.0774474 -0.139857 0.0398337 0.166147 -0.324594 -0.00910275 -0.181054 -0.0154731 0.0435153 0.0256423 -0.015663 0.127262 -0.0397328 -0.293397 -0.4251 -0.115957 0.0875592 -0.185113 -0.252421 0.140989 -0.535794 -0.081291 -0.109508 -0.00333841 -0.0960803 -0.57024 0.435899 -0.20123 -0.268163 -0.227596 0.0134159 -0.0359466 0.048288 0.876777 -0.014105 -0.0930751 -0.729346 -0.598249 -0.197273 0.428607 -0.252875 0.281259 0.68864 -0.0902906 0.0951243 -0.334224 -0.0455062 -0.433738 -0.437716 0.0715948 0.633599 0.0439307 0.580707 0.241645 0.887746 0.656859 0.562865 0.394006 -0.126656 0.671067 -0.0411762 -0.0810971 0.217135 0.432721 -0.542486 0.331952 -0.0674892 0.288651
6215 -0.175718 0.0185309 -0.108879 0.240957 0.0967819 -0.0984391 -0.0714214 0.0543112 -0.0267412 -0.0162995 -0.201899 0.0383213 -0.0531716 -0.0165189 -0.131584 0.0302554 0.0987358 -0.0539965 -0.0385177 -0.102319 -0.23841 -0.143549 -0.0750977 0.227691 -0.150108 -0.0114905 0.0686789 0.178708 0.0361018 0.0819429 0.0760152 -0.290443 0.0262226 0.197749 -0.0836982 0.0794517 -0.0587428 0.114003 -0.137391 0.127927 -0.25831 0.2413 0.092787 0.046716 0.0933894 0.0827027 -0.141019 -0.224704 0.251451 0.294586 -0.221592 0.0665578 0.193781 -0.205628 0.0627483 0.143121 0.187735 0.101437 -0.149815 -0.136371 -0.0795614 -0.110405 0.0922473 0.114342 -0.409004 0.037282 -0.238869 0.0595426 0.158951 -0.055328 0.0156766 0.331649 -0.120242 -0.41877 -0.524175 -0.0827586 0.266818 -0.106021 -0.431055 0.164435 -0.734352 -0.107315 -0.249721 0.00437036 0.0470012 -0.540498 0.414205 -0.228975 -0.312096 -0.273047 -0.0596033 0.0110313 -0.0426579 0.772448 0.158399 0.0815557 -0.783688 -0.717929 -0.259404 0.569185 -0.280836 0.268961 0.767492 -0.121794 0.156471 -0.295693 -0.146289 -0.571359 -0.52707 0.141031 0.735861 0.0318805 0.6072 0.299042 0.838975 0.725019 0.622606 0.531384 0.016151 0.578667 0.0186326 -0.15798 0.0211047 0.530663 -0.642711 0.290856 -0.0440871 0.359907
6560 -0.029087 -0.165516 0.326424 -0.00216083 0.14724 0.173549 0.0910735 0.0701774 0.070984 0.28933 0.137601 0.150747 -0.0183085 0.168354 -0.148032 0.0697981 -0.231008 0.153935 -0.0904716 -0.0191423 0.196733 0.230181 -0.280374 0.186236 0.0261551 -0.0319777 0.0169687 -0.173071 -0.0957295 -0.0150325 -0.000533798 0.0533888 -0.244996 0.285394 -0.208242 -0.0449655 0.157449 0.400629 -0.168529 0.0786629 -0.321706 0.203423 0.2642 -0.165379 -0.00426648 0.053753 -0.127495 -0.262295 0.00776073 0.306719 -0.279167 0.15849 0.433415 -0.143117 -0.322194 0.0294119 0.235126 0.129845 -0.0218811 -0.0950969 0.00332659 -0.0782533 0.192252 0.360551 -0.667475 0.0888054 -0.273136 -0.0181417 -0.0307042 0.1596 0.348962 0.578596 -0.137353 -0.348154 -0.777433 0.0513806 0.271393 -0.318413 -0.194003 0.157949 -0.554072 -0.147982 -0.411159 -0.24425 -0.129268 -0.675013 0.538142 -0.411199 -0.256014 -0.115882 -0.18362 0.0328924 0.212671 1.01862 -0.168909 -0.101921 -0.982766 -0.747156 -0.0915903 0.33381 -0.290314 0.373653 0.635486 0.0630447 0.0600593 -0.267544 0.113937 -0.447485 -0.415449 0.00696244 0.592633 0.044004 0.333097 0.228491 0.939374 0.656958 0.538664 0.278713 -0.181338 0.585047 -0.0632475 -0.151212 0.0936208 0.369123 -0.8224 0.340799 -0.0735666 0.355923
1277 0.0612545 -0.159411 -0.0910272 -0.065264 -0.110422 0.111382 -0.0859402 0.0686747 -0.0251849 -0.0770445 -0.0448422 0.0148653 0.00391434 0.02272 0.162096 0.0539539 -0.0760871 -0.219521 -0.0756081 0.209937 -0.0212903 0.0810365 0.0292696 -0.13612 0.0659883 -0.00418899 -0.0123392 -0.116351 -0.125389 -0.209074 -0.093737 0.161292 -0.0823601 0.120952 -0.252189 -0.000743322 0.236317 0.124138 -0.214455 0.113412 -0.108653 -0.107705 0.321154 0.000437433 0.0163097 -0.154335 -0.089222 -0.146633 -0.0377542 0.142483 -0.336228 0.0882333 0.201279 -0.114524 -0.117648 0.0748909 0.150933 0.03933 0.0288872 -0.0218723 -0.121843 -0.00101279 0.220571 0.339879 -0.652076 0.118487 -0.303362 0.00359057 -0.209472 0.255534 0.360446 0.523935 -0.046807 -0.442739 -0.482837 -0.0437931 0.222075 -0.176285 -0.0855497 0.183725 -0.760393 -0.397544 -0.434807 -0.277161 -0.221298 -0.647971 0.744035 -0.286745 -0.0608676 -0.131535 -0.199146 0.00271332 0.115913 0.792737 0.165431 -0.175204 -1.0745 -0.556935 -0.400566 0.712389 -0.0205088 0.30794 0.806466 -0.13466 0.187047 -0.220879 0.182786 -0.442761 -0.429016 0.200185 0.595866 -0.00910229 0.298511 0.0999544 0.468618 0.462508 0.629394 0.339354 -0.0553581 0.440912 0.0109709 -0.0678622 -0.0215638 0.341211 -0.577328 0.216079 -0.106091 0.157551
4726 0.279566 -0.105689 -0.000777558 -0.092171 -0.121249 0.218412 -0.0925903 0.11447 0.0184047 -0.238926 0.0153218 0.0810263 0.147474 0.183743 0.194123 0.142705 0.0242973 -0.243245 -0.019994 0.0992074 -0.0195384 -0.124199 -0.130383 -0.0990344 -0.00385945 -0.0881581 0.0734807 -0.0891401 0.0242045 -0.219407 -0.163448 0.116009 -0.141772 0.00235497 -0.248878 0.0977114 0.30174 0.201435 -0.461787 -0.045429 -0.137424 -0.140233 0.364745 0.014633 0.0380548 -0.12159 -0.0978581 -0.27847 0.106158 0.167264 -0.322311 0.0467217 0.165624 -0.20408 -0.173013 0.14752 0.221549 0.0665266 -0.0311818 -0.159195 -0.187258 0.0415077 0.368598 0.574815 -0.798393 0.230464 -0.380638 0.00445851 -0.097954 0.373099 0.371139 0.558056 0.135566 -0.669368 -0.628143 -0.195694 0.288529 -0.0934425 -0.191852 0.122936 -0.666568 -0.251174 -0.204193 -0.0185945 -0.231865 -0.432605 0.394185 -0.19197 -0.110714 -0.21966 -0.0572174 -0.102318 -0.00315537 0.801889 0.230211 -0.076749 -0.901072 -0.587757 -0.387196 0.592957 0.0681398 0.280783 0.773559 -0.186987 0.154025 -0.179894 -0.04027 -0.411263 -0.381942 0.23463 0.585007 -0.138668 0.399977 0.12085 0.669104 0.695911 0.674429 0.565023 -0.0680342 0.654675 0.0164806 -0.044116 -0.018967 0.581565 -0.677398 0.342852 -0.113515 0.245839
6290 0.0134731 -0.0274658 0.187766 -0.0326537 -0.038609 0.145532 -0.0156883 -0.110792 -0.0712854 0.118147 0.0570404 -0.0396414 0.0279452 0.0938533 -0.267977 0.0117928 -0.0799479 0.190598 0.0447577 -0.0511123 0.189818 0.220695 -0.0937246 0.1186 0.00483454 0.0637932 0.143192 -0.0506029 0.068646 -0.0304949 -0.061234 0.0274101 -0.0292345 0.181066 -0.124751 0.173609 0.209919 0.400502 -0.283443 0.222387 0.0149567 0.0363005 0.146721 0.0323938 0.0425368 0.0448009 -0.218807 -0.116779 0.103985 0.240035 -0.338425 0.0481994 0.267192 -0.213653 -0.140577 0.231928 0.204572 0.0856898 -0.158179 0.0264177 -0.213465 0.0702603 0.376858 0.402295 -0.622586 0.164222 -0.333083 -0.026469 0.142632 0.193971 0.435393 0.467939 0.206934 -0.710767 -0.885391 -0.230494 0.482039 -0.0992865 -0.372536 0.121118 -0.70461 -0.0683352 -0.0753348 -0.0248875 -0.142709 -0.499089 0.347427 -0.19829 -0.233441 -0.276178 0.162758 -0.316044 0.0331345 0.723284 0.13417 0.0377057 -0.59525 -0.574692 -0.362666 0.484703 0.0205551 0.202486 0.589513 -0.290432 0.15191 -0.246869 -0.258351 -0.222993 -0.259462 0.12337 0.409759 -0.28522 0.459648 0.211318 0.685998 0.481277 0.463655 0.450298 -0.0638607 0.594178 0.0543665 -0.0528659 0.0996025 0.503644 -0.478678 0.378753 -0.158027 0.1083
9859 0.451153 -0.0731959 0.423312 -0.281857 -0.0241924 -0.0368915 0.151503 0.258556 -0.138354 0.302861 0.257944 -0.04283 0.116594 0.0400464 -0.0652595 -0.0703148 -0.0306285 0.264703 -0.0198494 0.130196 0.071369 0.161896 -0.185798 0.0235795 0.164915 -0.0667693 0.0619596 -0.0402428 -0.0228895 -0.00492257 -0.0972875 -0.106094 -0.431016 -0.123094 -0.238434 0.0545487 0.13594 0.279767 -0.146961 0.111552 -0.0807114 -0.120857 0.31841 -0.137873 -0.0996049 0.216469 0.160687 -0.111466 -0.0807454 0.250306 -0.15225 0.032797 0.199173 -0.222516 -0.253717 -0.132113 0.0821592 0.0784275 -0.086313 -0.143812 -0.0676306 -0.0393216 0.550281 0.253195 -0.90124 0.00227588 -0.232696 0.0748548 0.0510753 0.447326 0.46431 0.0748781 0.109676 -0.563715 -0.845376 -0.33292 0.296918 -0.353571 0.0193488 0.145922 -0.799693 -0.370319 -0.238749 -0.0653689 -0.115709 -0.564967 0.792852 -0.247979 -0.199776 -0.210986 -0.515438 -0.0798728 0.0520268 1.18918 -0.00336414 -0.125401 -0.77949 -0.524936 -0.279204 0.627597 -0.206928 0.49734 1.03342 -0.0905743 0.136089 -0.113926 -0.164258 -0.640284 -0.328074 0.333948 0.742175 0.0547734 0.550515 0.0420966 0.470326 0.56298 0.424336 0.43221 -0.000911068 0.4458 -0.0764159 -0.161368 -0.0890922 0.514463 -0.448152 0.163004 -0.136986 0.485122
3695 0.429035 -0.129511 0.259141 -0.225515 -0.18649 -0.369898 0.0785436 0.511499 -0.163389 0.255498 0.105661 0.106975 0.0964193 -0.0549028 0.183101 0.0034364 -0.0312458 0.0588851 -0.185263 0.169039 -0.137525 0.0292125 -0.0108098 -0.0797953 0.0995432 -0.146782 -0.163806 -0.0575431 -0.19191 -0.186468 0.0652681 -0.142627 -0.287546 -0.179796 -0.235366 -0.00172386 0.137036 0.226365 -0.0885991 0.12676 -0.215202 -0.102725 0.340242 -0.0626169 -0.164028 0.180748 0.175327 -0.166709 -0.0468855 0.173552 -0.0303216 0.0588043 0.107989 -0.0444591 -0.171684 -0.149711 0.112993 0.126842 -0.000746831 -0.182692 0.0175305 -0.073386 0.480309 0.102918 -0.971674 -0.0134632 -0.322593 0.16667 0.126416 0.285368 0.35148 0.082879 0.0375968 -0.603281 -0.759999 -0.15697 0.357734 -0.147971 -0.123051 0.102363 -0.85976 -0.324415 -0.248922 0.0700915 0.0465094 -0.26451 0.553103 -0.199003 -0.310357 -0.179343 -0.412187 -0.0729985 -0.0336109 0.978656 0.118094 0.121899 -0.707061 -0.601437 -0.134809 0.476332 -0.153699 0.30879 0.860081 0.0236391 0.117878 0.00137415 -0.227934 -0.796864 -0.434073 0.350311 0.793926 0.0516661 0.499848 -0.0173362 0.380689 0.622944 0.376465 0.609693 0.0907207 0.286568 -0.0531975 -0.237318 -0.28523 0.543234 -0.482433 0.160598 -0.0594333 0.593917
4882 0.112642 -0.034447 0.331741 -0.11456 -0.0900574 0.177928 0.108945 0.0124104 -0.0678961 0.213306 0.20127 -0.00303496 0.15228 -0.0400692 -0.0977292 0.0310181 -0.293596 0.152645 0.0615096 0.110483 0.207359 0.314218 -0.0861792 0.125262 0.385141 -0.0533937 0.0590796 -0.0811185 -0.0444186 -0.121209 0.0811213 0.239807 -0.22125 -0.0351679 -0.233859 0.0359402 0.535343 0.652187 -0.356304 -0.0461998 -0.163435 0.138454 0.542822 0.00766114 -0.148925 0.051937 -0.13101 -0.26319 -0.063363 -0.212216 -0.185776 0.159243 0.227686 -0.139224 -0.403719 0.0864091 -0.122132 -0.315609 -0.128701 -0.230772 -0.0885949 -0.135449 0.232644 0.269578 -0.846761 0.166902 -0.359352 0.0794972 0.0225245 -0.0098632 0.297403 0.33813 -0.107169 -0.525907 -0.822441 -0.0902119 0.404529 -0.218909 -0.302198 0.0707452 -0.581282 -0.235698 -0.310101 -0.255981 -0.348635 -0.503812 0.628876 -0.362088 -0.455752 -0.266553 0.105914 -0.0172713 0.0468616 0.889814 0.146208 -0.205236 -0.977468 -0.533564 -0.512403 0.779573 -0.196477 0.371049 0.954689 0.119909 0.046046 -0.156772 0.10619 -0.459728 -0.504001 0.11253 0.623541 0.0626675 0.40377 -0.0763796 0.94082 0.651034 0.692621 0.299899 -0.221867 0.460559 0.0443796 0.0173455 -0.0434163 0.236128 -0.365331 0.0284317 -0.0177878 0.563561
6550 -0.330029 0.0274762 -0.283333 0.213714 -0.00914909 -0.0409951 -0.156646 -0.227623 -0.00451027 -0.501412 -0.255959 -0.0892243 -0.114442 -0.0714262 0.165516 0.197222 0.056475 -0.104857 0.0859119 0.0605776 0.10581 0.0352567 0.0461152 0.0182998 0.211712 0.0801773 0.0528809 0.0597609 0.0368047 0.0230537 0.0414689 0.361367 0.0315604 0.071746 -0.083037 -0.0726082 0.340491 0.52442 -0.295544 -0.163019 -0.17553 0.179804 0.570068 0.12956 0.0667971 -0.0502349 -0.172552 -0.407785 0.0704468 0.102276 -0.126326 0.180465 0.0770804 -0.327724 0.121694 0.234197 0.367833 0.227781 -0.104213 -0.0689686 -0.109855 0.0226604 0.323693 0.149566 -0.293396 0.133718 -0.482788 0.0351113 0.0429361 0.084275 0.205453 0.522127 -0.065826 -0.462788 -0.816515 0.0889769 0.436433 0.0669858 -0.465663 0.137861 -0.76252 -0.147526 -0.297364 -0.00094095 -0.0409952 -0.667779 0.36989 -0.360207 -0.333013 -0.18077 0.0282029 0.134437 0.0216594 0.689705 0.236831 0.175566 -0.936293 -0.811485 -0.236863 0.493362 -0.213113 0.334582 0.520071 -0.0670446 0.0404905 -0.16128 -0.300694 -0.483115 -0.510376 0.191366 0.64637 -0.0748648 0.377963 0.235504 0.594042 0.669202 0.308272 0.494132 -0.0103139 0.499718 0.156192 -0.153931 -0.161524 0.465963 -0.411145 0.211735 0.0636324 0.277568
3945 -0.19082 -0.0778546 -0.0684179 0.0584131 -0.0429272 -0.0381294 -0.0296374 -0.0825056 0.0716629 -0.265773 0.0112629 0.047818 -0.0769989 0.153841 0.0550024 0.13645 -0.00241169 0.00591981 0.0600336 -0.0289652 0.0456812 -0.0721845 -0.035106 -0.0864727 -0.0224271 0.081036 0.029538 -0.0746503 0.0363836 -0.0261174 -0.0451425 0.104433 0.0111799 0.053455 -0.0806538 -0.0678027 0.242601 0.401648 -0.294333 -0.260133 -0.237389 0.191179 0.475986 0.123031 0.0366599 -0.0618966 -0.117541 -0.444028 0.118328 -0.0613444 0.0329589 0.14714 0.0914665 -0.244461 0.021732 0.195503 0.37375 0.140722 -0.0679516 -0.149539 -0.0601307 0.0176759 0.352822 0.282079 -0.350456 0.203321 -0.507652 0.056537 0.20066 0.0397962 0.216257 0.559974 -0.0436714 -0.643567 -1.056 0.0721659 0.56464 0.13848 -0.649233 0.124707 -0.706083 -0.0177425 -0.145197 0.0940748 -0.0239365 -0.439356 0.0620456 -0.351079 -0.507075 -0.266135 0.106878 0.136339 -0.105019 0.621278 0.278509 0.268638 -0.999403 -0.94891 -0.211071 0.441609 -0.259468 0.350816 0.542462 0.0472622 0.0682201 -0.0240441 -0.464425 -0.54834 -0.586517 0.21645 0.668725 -0.139175 0.465238 0.156092 0.800627 0.919257 0.283095 0.594781 -0.0589659 0.692754 0.176467 -0.124852 -0.286218 0.723815 -0.545414 0.190232 0.0373683 0.604146
5823 -0.0511203 -0.0101317 0.116901 -0.0952169 0.108554 -0.144608 0.205383 -0.00484465 0.121506 0.401864 0.260366 0.120568 -0.101224 0.132255 -0.296636 -0.018387 -0.243857 0.268079 0.00617525 -0.154209 0.193897 0.244925 -0.341672 0.204739 0.0506673 -0.0140007 0.0685737 -0.124607 -0.0860417 0.0810239 0.0258091 -0.0908154 -0.222467 0.285571 -0.219014 -0.0381305 0.0837129 0.390131 -0.161707 0.0956871 -0.314454 0.255892 0.0389792 -0.198961 0.0260275 0.0698929 -0.14169 -0.145691 0.0209235 0.240659 -0.249811 0.133727 0.401226 -0.0979202 -0.294748 0.0143342 0.155424 0.0512801 -0.017805 -0.0759487 -0.0055603 -0.111232 0.116045 0.358436 -0.445312 0.0341004 -0.153347 -0.0356981 0.0146467 0.0939867 0.256456 0.370519 -0.111389 -0.319318 -0.757555 -0.0384306 0.245136 -0.322474 -0.283766 0.236326 -0.603965 -0.11817 -0.256002 -0.218167 -0.0883155 -0.679153 0.490006 -0.310501 -0.261554 -0.162708 -0.0970961 -0.0195218 0.143246 0.899847 -0.126375 -0.12912 -0.802323 -0.625001 -0.1086 0.351231 -0.349882 0.370989 0.62059 0.0104045 0.129994 -0.305508 0.0875687 -0.35551 -0.397473 0.000789788 0.552143 0.0436673 0.465753 0.258234 0.878312 0.575863 0.566784 0.264059 -0.195012 0.729065 -0.0534911 -0.0510586 0.223476 0.34632 -0.627598 0.274935 -0.141449 0.277144
6276 0.138675 0.231776 -0.120968 -0.0860864 0.0771423 -0.0980429 0.155984 -0.217393 0.301823 0.0916743 0.449093 0.0246734 0.0144336 0.069638 -0.323838 -0.0464069 -0.239754 0.423798 0.274932 -0.150607 0.312918 0.117561 -0.068636 0.0514349 0.243633 0.0235568 0.0538327 -0.0728137 0.0821427 0.250021 -0.0143821 0.259966 -0.211827 -0.15052 0.0692745 0.0207158 0.00275308 0.170409 0.0733973 -0.358321 -0.069711 0.110084 0.206725 -0.100943 0.0239847 0.0462374 -0.0354978 -0.212716 -0.0961675 0.0665717 0.12674 0.0900479 0.0699302 -0.127323 -0.159022 0.0155617 0.189387 -0.0630492 -0.116529 -0.149659 -0.0714497 0.0661428 0.369223 0.402576 -0.468457 0.165775 -0.190434 -0.00393976 0.1028 0.0881056 0.32366 0.357433 -0.0578503 -0.396332 -0.753328 -0.0504493 0.373406 -0.194818 -0.207882 0.110312 -0.482243 -0.128057 -0.254244 -0.185025 -0.0974766 -0.467593 0.405843 -0.346366 -0.249996 -0.181662 -0.155829 0.034923 0.10414 0.826875 -0.00348507 -0.0525213 -0.761505 -0.594753 -0.184942 0.411494 -0.267058 0.411578 0.614083 -0.00923695 0.12647 -0.207732 -0.0585341 -0.31855 -0.28174 0.0661863 0.42741 -0.0231844 0.334591 0.155942 0.728113 0.522204 0.379609 0.183892 -0.113379 0.571914 0.0041213 -0.0352478 0.0703293 0.430284 -0.627923 0.23309 -0.139643 0.372578
2752 -0.331682 -0.209943 0.361307 0.169385 0.160377 0.25572 -0.162608 -0.118135 0.167324 0.145351 0.299948 0.136995 -0.118432 0.151926 -0.606272 0.0471326 -0.419301 0.257367 -0.0261944 0.0650008 0.0555721 0.3262 0.0877722 0.14075 -0.107403 0.0119834 0.130729 0.146064 -0.0439533 -0.0551127 0.0353181 0.0463962 0.0363585 -0.1137 -0.0714497 -0.056822 0.0583148 -0.190397 -0.0138902 -0.244557 -0.0514477 -0.00569447 0.262883 0.23749 0.0866967 -0.111269 -0.0620963 -0.263078 0.0825353 -0.125198 0.127502 0.0704112 -0.0560964 -0.0239139 -0.0369089 0.0288208 0.0377419 -0.257143 -0.108034 -0.256208 -0.0851432 -0.0700428 0.285032 0.258753 -0.447938 0.236798 -0.176104 0.0896621 0.0627087 -0.0580445 0.271441 0.461585 -0.053711 -0.510609 -0.479981 -0.0811743 0.387659 0.00361929 -0.271218 0.0996245 -0.528833 -0.291698 -0.273745 -0.130685 -0.0961036 -0.301832 0.467644 -0.317663 -0.290282 -0.303392 -0.177564 0.118684 -0.0224012 0.765377 0.342698 -0.0203896 -0.918324 -0.707395 -0.427039 0.807431 -0.169295 0.44191 0.81779 -0.0880791 0.221711 -0.118894 -0.2344 -0.485486 -0.33943 0.305165 0.623534 -0.0578936 0.38044 0.104014 0.517925 0.616647 0.346908 0.323588 0.0632769 0.548222 0.114697 0.0606813 -0.216722 0.68542 -0.677471 0.0733534 -0.169255 0.559764
5786 -0.037623 -0.184507 0.374694 -0.171081 -0.205949 0.157472 0.117951 -0.113387 -0.24261 0.50913 -0.0220296 -0.110755 0.127452 0.0896912 -0.429043 -0.0795575 -0.196429 0.211888 -0.036304 0.0149374 0.404841 0.435339 -0.106785 0.103707 0.0361411 0.00832503 0.131576 -0.0711588 0.098515 -0.172649 -0.0713842 0.104551 -0.108204 0.261752 -0.258908 0.22439 0.451191 0.655664 -0.455263 0.383835 0.10646 -0.00116279 0.285771 0.03581 -0.0545349 0.080748 -0.258232 -0.020016 0.0432435 0.140155 -0.48404 0.00695076 0.299776 -0.176774 -0.380942 0.180638 -0.0784669 -0.0629736 -0.228615 -0.0017815 -0.174034 -0.0479498 0.412703 0.376911 -0.861928 0.117402 -0.2542 0.0790785 0.0408693 0.24074 0.445233 0.283117 0.143048 -0.608988 -0.874604 -0.248301 0.371195 -0.28192 -0.220769 0.126276 -0.672963 -0.136559 -0.152407 -0.0907852 -0.267366 -0.492844 0.478389 -0.218043 -0.213508 -0.278228 0.0380093 -0.332784 0.054798 0.901783 0.00779276 -0.127103 -0.651594 -0.49934 -0.483956 0.641011 -0.0373657 0.340263 0.848551 -0.233601 0.0632078 -0.237852 -0.233317 -0.326685 -0.234516 0.183773 0.507259 -0.161732 0.533168 0.123744 0.859866 0.601652 0.727411 0.413202 -0.186408 0.60898 0.0137822 -0.135269 0.119212 0.45015 -0.506277 0.323522 -0.149946 0.303036
4087 0.0758355 0.00907495 0.428245 -0.13313 -0.0807004 0.312953 0.0277683 -0.196284 -0.123789 0.161166 0.0817706 -0.157037 0.0624964 0.0148297 -0.229778 -0.0438237 -0.0349492 0.257694 0.122684 -0.0230469 0.233758 0.229457 -0.0880536 0.106288 0.158313 0.162551 0.203501 -0.108319 0.148374 -0.0445517 -0.11323 -0.00492617 -0.0560664 0.121484 -0.196199 0.156725 0.394996 0.594602 -0.378637 0.237583 -0.0758763 0.122403 0.276888 0.00737456 -0.0286884 0.0310778 -0.225409 -0.153015 -0.0557992 0.0310507 -0.304842 0.17269 0.298204 -0.239278 -0.259478 0.233122 0.0478823 -0.228099 -0.15919 -0.0900239 -0.202447 0.00399922 0.327587 0.334805 -0.702518 0.173994 -0.358048 -0.036752 0.144638 0.0611757 0.425953 0.324803 0.0630114 -0.581057 -0.907701 -0.227817 0.474701 -0.141501 -0.33649 0.0665886 -0.570221 -0.198497 -0.162878 -0.221251 -0.308663 -0.577823 0.600095 -0.321052 -0.388905 -0.259838 0.206592 -0.179755 0.0873483 0.791826 0.137837 -0.134372 -0.717792 -0.435853 -0.463706 0.681699 -0.133285 0.306108 0.804726 -0.0661168 0.130234 -0.180253 -0.013417 -0.342445 -0.436689 0.0691646 0.549722 -0.077792 0.437556 0.00196305 0.836674 0.50738 0.578878 0.37431 -0.156187 0.582033 0.0364533 0.0506584 0.0585129 0.346318 -0.391508 0.161808 -0.120002 0.424842
3238 -0.265899 0.00364603 -0.111816 0.190957 0.062091 -0.094837 -0.0571778 0.0137715 -0.128419 -0.0555469 -0.297109 -0.0225261 -0.0596124 -0.0733299 0.112731 0.0473123 0.151629 -0.106731 -0.125275 -0.0405148 -0.131926 -0.0858652 -0.14037 0.199178 -0.112007 -0.0178058 0.0580134 0.217266 0.0754533 0.0683822 0.1349 -0.167915 0.0244543 0.187106 -0.0744936 0.000558013 0.0562567 0.250637 -0.251956 0.16611 -0.295992 0.31038 -0.0171038 0.0025311 0.0766355 0.0961442 -0.183856 -0.172817 0.233683 0.296684 -0.336626 0.102054 0.303961 -0.196551 -0.105047 0.151484 0.195493 0.115995 -0.08275 -0.0862432 -0.0654118 -0.155367 0.00613064 0.208032 -0.293366 0.00897031 -0.19647 -0.0344519 0.0625244 0.01144 -0.00550866 0.144069 -0.0385614 -0.367858 -0.485423 -0.103959 0.124594 -0.149926 -0.339586 0.159283 -0.603681 -0.0605845 -0.0928482 0.0108269 -0.0721643 -0.595679 0.411434 -0.226076 -0.343893 -0.269038 0.0469501 -0.0482963 0.0299421 0.917991 0.0129064 -0.0393575 -0.80675 -0.707065 -0.18349 0.47051 -0.244756 0.260583 0.709507 -0.101931 0.126087 -0.361273 -0.0322177 -0.49265 -0.51392 0.0641062 0.719388 0.0237439 0.613481 0.277424 0.927872 0.719602 0.606726 0.514113 -0.112938 0.721356 -0.0602444 -0.0988457 0.209658 0.523011 -0.661313 0.380431 -0.0737991 0.316469
9499 -0.0442701 -0.374742 0.759664 -0.101163 0.0160907 0.26978 -0.184049 0.22643 -0.24971 0.415069 0.1013 0.0742246 0.0212434 0.128546 -0.444276 0.0143316 -0.436968 0.243963 -0.268159 0.150077 0.217455 0.634241 0.0200316 0.134134 -0.0651299 0.0429574 -0.0844085 -0.0710498 -0.136941 -0.281864 -0.0321826 0.0404432 0.0279994 0.0676669 -0.267961 -0.0214703 0.352075 0.283685 -0.207477 0.316528 -0.174157 0.0136703 0.244966 0.136322 -0.0836772 0.0381779 -0.152588 -0.206479 0.0951821 -0.00545782 -0.230137 0.122224 0.290512 -0.0124814 -0.276006 -0.0410022 -0.0314119 -0.0112557 -0.00910957 -0.0515283 -0.00799464 -0.205629 0.0543812 0.0891985 -0.611932 0.0268987 -0.309417 0.180947 -0.0214429 0.00627129 0.303194 0.446697 -0.0284678 -0.636047 -0.751584 -0.0997067 0.507569 -0.0548979 -0.402211 0.173526 -0.95682 -0.212453 -0.213211 -0.117825 -0.00452061 -0.419809 0.495816 -0.175662 -0.299215 -0.230587 -0.0456777 -0.109118 -0.0313993 0.77014 0.22503 0.0668026 -0.820028 -0.635715 -0.284445 0.660917 -0.0426859 0.250139 0.797586 -0.102512 0.100584 -0.304441 -0.0530614 -0.573682 -0.558501 0.335133 0.780959 -0.0439418 0.427462 0.179875 0.550667 0.611728 0.594407 0.486975 0.0222119 0.371234 0.110977 -0.0479807 -0.0727767 0.451703 -0.511697 0.170713 -0.116729 0.261015
4650 -0.276497 -0.159338 0.545709 0.202682 0.148653 0.296935 -0.194466 -0.0719295 0.0925974 0.196826 0.241035 0.161996 -0.143548 0.0579401 -0.408508 0.126773 -0.401715 0.257979 -0.146468 0.132608 0.166013 0.452947 0.0608584 0.189625 0.00895195 -0.0492223 0.0917834 0.110938 -0.146184 -0.149386 0.103419 0.0882513 0.0918644 -0.0744522 -0.114351 -0.131183 0.152899 -0.0446646 -0.0288567 0.0354477 -0.163098 0.0515309 0.303583 0.211176 0.0160147 -0.0509596 -0.121604 -0.324602 0.147087 -0.0784687 -0.0700148 0.163571 0.190694 0.0281388 -0.17572 0.0376399 0.0288088 -0.136408 -0.0380322 -0.184243 -0.0577681 -0.203274 0.0775284 0.212691 -0.687563 0.178661 -0.344605 0.144964 -0.0140912 -0.0981149 0.342332 0.74036 -0.14876 -0.664095 -0.703796 -0.0139066 0.533988 -0.00860889 -0.414117 0.168206 -0.942465 -0.317519 -0.402095 -0.209418 -0.0160128 -0.395318 0.558809 -0.217473 -0.317099 -0.223732 -0.14236 0.0738325 -0.00613323 0.801648 0.369749 0.0754513 -0.953036 -0.631657 -0.299037 0.718985 -0.115061 0.2584 0.783841 0.0290706 0.10874 -0.26166 0.126812 -0.52338 -0.532418 0.283344 0.685929 0.0560444 0.323881 0.145627 0.519365 0.606314 0.558666 0.380948 0.0544624 0.270518 0.102689 -0.00903736 -0.15318 0.449635 -0.608708 0.105194 -0.0895595 0.332077
7588 0.0069742 0.0915842 0.0291518 -0.076353 0.0662101 -0.20639 0.171843 -0.0441574 0.159009 0.23429 0.266707 0.128175 -0.0590116 0.124916 -0.259334 0.0358035 -0.22534 0.208355 0.0894708 -0.2059 0.189278 0.21509 -0.290224 0.224042 0.214008 -0.0325333 0.0911908 -0.194528 -0.111395 0.0825403 0.0733475 0.0421073 -0.288068 0.217277 -0.25942 -0.038212 0.166724 0.526951 -0.180136 -0.0323328 -0.394467 0.203207 0.240506 -0.163506 -0.00382912 0.0736813 -0.0628188 -0.300347 0.0409516 0.293567 -0.203496 0.15517 0.335532 -0.141911 -0.24941 -0.0282645 0.251768 0.212108 0.0220136 -0.143577 0.039708 -0.127382 0.171801 0.310481 -0.605964 0.0354861 -0.240963 0.0729918 -0.035857 0.189101 0.245536 0.444242 -0.145773 -0.329167 -0.748382 -0.00688012 0.265156 -0.254813 -0.229778 0.207582 -0.729996 -0.197877 -0.323861 -0.0801128 -0.0147337 -0.660482 0.479783 -0.29007 -0.227187 -0.103664 -0.305907 0.0736858 0.11082 0.990489 -0.0844019 0.000537188 -0.810181 -0.652291 0.0444598 0.244828 -0.350143 0.369953 0.641888 0.0655892 0.0087929 -0.274405 0.0750446 -0.547036 -0.446358 0.097862 0.706448 0.175216 0.418701 0.28293 0.65266 0.660824 0.430816 0.347447 -0.0765831 0.442283 -0.0792331 -0.202042 0.0603055 0.343931 -0.655637 0.255203 -0.00508974 0.276156
5651 -0.0251774 -0.25452 0.35199 -0.0170511 0.366766 0.19373 0.100294 0.260995 0.0921752 0.234995 0.144989 0.22804 -0.043263 0.19474 0.0409144 0.0694409 -0.183202 0.12802 -0.159234 -0.0276741 0.191559 0.148446 -0.418484 0.194931 -0.0515072 -0.000769818 -0.0323046 -0.278299 -0.131404 0.0244236 -0.0488807 0.00751356 -0.265799 0.24942 -0.223356 -0.13197 0.0823808 0.282873 -0.069506 -0.0426122 -0.393726 0.254454 0.235034 -0.207713 -0.00560152 0.0502984 -0.0388688 -0.270035 -0.00635083 0.331997 -0.20464 0.15862 0.376006 -0.135378 -0.212467 -0.0420659 0.234063 0.158434 0.01745 -0.0622745 0.0655314 -0.087558 0.172082 0.27113 -0.481561 0.0482038 -0.21995 -0.0124608 -0.0166372 0.16291 0.272449 0.423809 -0.138827 -0.241731 -0.796371 0.0936918 0.254067 -0.288527 -0.220277 0.159929 -0.444296 -0.0812781 -0.355925 -0.22368 -0.0570809 -0.578941 0.377265 -0.36908 -0.278956 -0.113551 -0.097882 0.0312087 0.208261 0.770967 -0.177708 -0.0710025 -0.802831 -0.650512 -0.118154 0.316023 -0.318712 0.369534 0.507901 0.0517066 0.119198 -0.197029 -0.0013888 -0.347309 -0.340225 -0.023352 0.503529 -0.0135613 0.325961 0.187597 0.861286 0.561099 0.419404 0.230093 -0.198842 0.639771 -0.0195376 -0.0975707 0.0470937 0.329423 -0.67912 0.264056 -0.0968848 0.409416
5877 0.0684235 0.00589024 0.189051 -0.0796223 -0.0221621 0.149464 -0.00464654 -0.113587 -0.0489231 0.0907843 0.0679907 -0.0647464 0.0334252 0.0839299 -0.230149 -0.0294294 -0.0249039 0.183516 0.0840543 -0.0866351 0.196644 0.166614 -0.0770689 0.0800916 0.0171279 0.11695 0.139961 -0.11392 0.103443 -0.00637805 -0.109112 0.0123046 -0.0122751 0.141354 -0.105006 0.163513 0.170095 0.325565 -0.199508 0.16449 0.0213943 0.0077088 0.0982067 0.0205938 0.0303979 0.0185741 -0.18564 -0.090905 0.038296 0.230708 -0.283474 0.0632314 0.213881 -0.196836 -0.0876912 0.217514 0.207056 0.0637947 -0.133835 0.0480338 -0.20646 0.110898 0.386388 0.364984 -0.610902 0.177204 -0.337669 -0.0177968 0.153225 0.193604 0.459658 0.450247 0.208962 -0.702701 -0.918512 -0.238947 0.523098 -0.0706665 -0.361572 0.0936014 -0.699741 -0.0957493 -0.0916936 -0.0394917 -0.132886 -0.505449 0.347888 -0.221506 -0.258223 -0.265895 0.144349 -0.308444 0.0541158 0.707864 0.149022 0.0609415 -0.590643 -0.582097 -0.359244 0.506283 0.00380109 0.225146 0.603793 -0.28287 0.158856 -0.232224 -0.271842 -0.249003 -0.271782 0.119392 0.455991 -0.285506 0.459606 0.220028 0.652812 0.471408 0.427581 0.458073 -0.0431832 0.589539 0.0607218 -0.0543968 0.0637346 0.503483 -0.498628 0.354508 -0.16299 0.150823
4576 -0.0779638 -0.012994 0.0498396 0.0169974 0.131542 -0.104887 0.130677 0.0171468 0.210162 0.239643 0.21312 0.169879 -0.0443503 0.132242 -0.199643 0.0354218 -0.209934 0.11893 0.0589961 -0.169683 0.185586 0.171237 -0.260579 0.216405 0.15409 -0.0136199 0.00776711 -0.241696 -0.152247 0.0827302 0.0455331 0.0623456 -0.286875 0.290575 -0.232474 -0.0231655 0.114108 0.461543 -0.12043 -0.0421661 -0.296671 0.179488 0.258769 -0.212973 0.00735947 0.0126191 -0.10025 -0.207079 -0.0747387 0.267421 -0.154638 0.156251 0.305632 -0.122391 -0.214079 0.0357049 0.220576 0.0412163 -0.0329447 -0.112119 -0.017344 -0.0057284 0.23656 0.358608 -0.629169 0.100127 -0.257499 -0.0372819 -0.0156666 0.12318 0.347559 0.541588 -0.146219 -0.340245 -0.784436 0.0509187 0.293634 -0.336931 -0.197992 0.169599 -0.536138 -0.190531 -0.450277 -0.312578 -0.125178 -0.676453 0.581479 -0.442392 -0.270319 -0.149675 -0.142549 0.0397837 0.21956 0.880549 -0.102604 -0.145199 -0.941823 -0.699232 -0.197164 0.448842 -0.284622 0.404415 0.670132 0.00884117 0.172826 -0.231631 0.0724053 -0.384612 -0.35238 -0.00497579 0.517651 -0.0210713 0.318482 0.177782 0.86006 0.537727 0.50062 0.216288 -0.163641 0.644801 -0.0264087 -0.0577114 0.0630667 0.358083 -0.733723 0.27098 -0.13387 0.383708
4285 0.254308 -0.0235216 0.374382 -0.125635 0.213726 0.149711 0.182853 -0.00264457 0.263842 -0.00514854 0.403933 0.0603938 -0.0818489 0.100538 -0.185199 -0.0246083 0.0258479 0.0615335 0.159046 -0.0600079 -0.0710468 -0.0521001 -0.0238136 -0.0402282 0.141983 -0.0209754 0.221826 -0.0605559 -0.0674782 -0.0187324 0.0253354 -0.145897 -0.186569 -0.0762647 -0.197858 -0.201605 0.04319 -0.0332587 -0.0506126 -0.476544 -0.120219 0.145209 0.410155 0.130307 0.0928963 -0.0787632 0.10589 -0.146148 -0.00996546 -0.232269 0.209783 0.0805248 -0.0130832 -0.0591726 -0.207715 0.0550375 0.0117228 -0.222487 -0.208281 -0.237915 -0.0734585 -0.146895 0.459524 0.375158 -0.548608 0.184729 -0.235645 0.0397111 0.0998746 0.0425517 0.310659 0.286495 -0.105143 -0.489678 -0.708162 0.00427938 0.255569 -0.192617 -0.236266 0.173071 -0.537465 -0.185943 -0.278237 -0.147876 -0.214213 -0.419587 0.463957 -0.37224 -0.336656 -0.251278 -0.0700494 0.10099 -0.00206365 0.708338 0.0857234 -0.0803355 -0.870842 -0.567071 -0.415992 0.635098 -0.319815 0.392375 0.779252 0.126695 0.000681208 -0.0335015 -0.173043 -0.374671 -0.315873 0.18439 0.408618 0.0534084 0.447374 -0.00515874 0.791237 0.696899 0.435505 0.147152 -0.212145 0.463092 0.101156 -0.14704 -0.1085 0.417083 -0.465593 0.112749 -0.021775 0.600344
5358 -0.0152371 0.243581 -0.092955 -0.0334839 0.101409 -0.343456 0.145057 0.100111 0.051527 0.120852 -0.0142758 0.000847385 -0.0629144 -0.299729 0.469254 0.0389716 -0.16561 0.268538 -0.0754329 0.00751289 0.308268 0.199251 -0.206035 0.0859408 0.376349 -0.0341024 -0.126388 -0.058341 -0.0635467 0.105521 0.120038 0.160688 -0.114426 -0.187338 0.074225 -0.280938 0.211634 0.309298 0.132377 -0.156229 -0.2738 0.308796 0.0209651 -0.228966 -0.148626 0.186795 -0.0232368 -0.253993 -0.200291 0.00747233 0.0522927 0.285028 0.29748 -0.120455 -0.353872 -0.168456 0.0738837 -0.0838245 0.0452136 -0.104069 0.107941 -0.12062 0.0116917 0.0563325 -0.290095 0.0594892 -0.128712 -0.00271602 0.00749187 -0.030738 0.231057 0.128746 -0.108894 -0.204076 -0.801349 0.0699853 0.424255 -0.179761 -0.136006 -0.0104069 -0.261599 -0.0966 -0.205755 -0.287462 -0.089986 -0.438469 0.286117 -0.293895 -0.406932 -0.0682754 -0.17654 0.138449 0.277324 0.912814 -0.223784 -0.062715 -0.641146 -0.468606 -0.00719667 0.26917 -0.446508 0.495967 0.464157 0.227182 -0.0557489 -0.25326 0.00836672 -0.295506 -0.311506 0.0420712 0.550472 0.153497 0.24849 0.123677 0.611004 0.433582 0.0541732 -0.0724051 -0.172106 0.368181 0.0346697 0.0183528 0.0449423 0.147326 -0.266808 -0.0337621 -0.0498189 0.410744
8342 -0.100219 -0.100248 -0.0327135 0.0332808 -0.0865622 0.0943532 -0.0866376 -0.149217 0.0164155 0.0476769 -0.052179 -0.0927658 -0.11232 -0.0340335 -0.0898747 0.000973129 -0.0424899 -0.0884105 0.0238845 0.157894 0.0867496 0.185935 0.185515 -0.120129 0.0493696 0.129373 0.0154891 -0.0697418 -0.0636223 -0.122868 -0.139707 0.0935547 0.0365707 0.196206 -0.212428 -0.0136883 0.177287 0.108285 -0.156059 0.197364 -0.118832 -0.0209039 0.297044 0.048607 0.0624159 -0.153047 -0.186154 -0.185028 0.00527454 0.171492 -0.404021 0.175735 0.292257 -0.183823 -0.214555 0.214995 0.256646 0.013831 -0.0159138 -0.0995621 -0.185604 -0.0502536 0.266063 0.488216 -0.755326 0.188606 -0.45132 -0.0445771 -0.14553 0.23907 0.421061 0.60531 0.00411158 -0.543458 -0.66242 -0.131581 0.240145 -0.130497 -0.190126 0.187054 -0.744623 -0.398918 -0.297649 -0.153686 -0.302581 -0.689414 0.791699 -0.305921 -0.17743 -0.163905 -0.0203091 -0.0217444 0.0758027 0.840115 0.199715 -0.158285 -0.873834 -0.476249 -0.272491 0.499749 -0.0354587 0.232011 0.646634 -0.0582334 0.0814025 -0.211499 0.201674 -0.362198 -0.431783 0.0998263 0.53482 0.0327514 0.322835 0.0625863 0.577949 0.529236 0.491298 0.381183 -0.098604 0.475146 -0.0552853 0.0393345 0.110901 0.30253 -0.396073 0.222147 -0.047204 0.138794
2615 0.196288 -0.133936 0.107324 -0.12109 -0.107776 0.352282 -0.0957672 0.0275558 -0.0426731 -0.224139 0.113892 0.057596 0.0694529 0.148436 0.159368 0.13105 -0.0670045 -0.130227 -0.0740372 0.242678 -0.0398772 -0.0119443 -0.101408 -0.119895 -0.00229932 -0.0725552 0.146102 -0.0441204 -0.0108192 -0.220579 -0.1176 0.102191 -0.0759667 -0.138815 -0.161155 0.0544477 0.238739 0.0783145 -0.410928 0.00618593 -0.271609 -0.0575933 0.395403 0.0704933 0.0236345 -0.0813567 -0.0540476 -0.428018 0.210499 0.0922797 -0.318334 0.0639322 0.201861 -0.156952 -0.195579 0.0623238 0.191324 0.0894996 0.0407189 -0.218874 -0.0958178 -0.136853 0.181139 0.507044 -0.620833 0.144477 -0.318918 0.0700064 -0.0894498 0.313606 0.156827 0.446695 -0.0285488 -0.532415 -0.470034 -0.148028 0.116561 -0.0465178 -0.240082 0.202004 -0.706351 -0.23863 -0.140717 0.129182 -0.205072 -0.433665 0.391515 -0.126217 -0.204177 -0.202783 -0.163658 0.0580555 -0.142054 0.983523 0.279282 -0.0531303 -1.02409 -0.602484 -0.201933 0.422426 -0.131947 0.254651 0.766227 0.0472281 0.0508679 -0.167128 0.0796514 -0.526563 -0.537403 0.185823 0.652298 0.113822 0.519053 0.0892372 0.713752 0.845072 0.602063 0.531195 -0.0870834 0.56673 -0.0677874 -0.0605696 0.0531994 0.570529 -0.591862 0.286503 -0.0262164 0.400857
4541 0.304109 -0.167418 0.0276565 -0.132806 -0.128587 -0.266931 -0.0449422 0.471859 -0.30937 0.34243 -0.428668 -0.0608083 0.346222 -0.10808 0.286204 -0.0532567 0.0115447 -0.0710008 -0.287909 -0.0727336 0.329187 0.176695 -0.059315 0.0523341 -0.0602394 -0.081136 -0.486058 -0.0695137 0.084553 -0.168268 -0.0418668 0.179703 -0.0277977 -0.0937872 -0.11463 0.0633012 0.382043 0.307184 -0.128729 0.253174 -0.157047 0.0527513 0.0479308 -0.119579 -0.200407 0.152927 -0.0764928 -0.0603589 -0.149203 0.249359 -0.0737795 0.200356 0.103053 -0.0265242 -0.289124 -0.0868131 0.074822 0.0563141 0.000815301 -0.0700511 0.0929495 0.000492103 0.211914 -0.0370197 -0.785977 0.058485 -0.279501 0.120852 0.0790602 0.0346044 0.213794 -0.0603013 0.0805808 -0.422693 -0.850556 -0.025782 0.512092 -0.0457778 -0.184102 -0.105144 -0.486064 -0.099409 -0.228033 -0.0313997 -0.00755283 -0.222975 0.222624 -0.33695 -0.488134 -0.164494 0.073578 -0.205396 0.268516 0.96112 -0.0969764 0.133993 -0.609474 -0.742341 -0.197084 0.528849 -0.156427 0.477177 0.832822 -0.0414001 0.0642795 -0.268574 -0.278174 -0.636084 -0.410992 0.152464 0.896983 -0.0946287 0.358086 0.121788 0.815128 0.612825 0.42079 0.537027 -0.0611731 0.541654 0.0226122 -0.158505 -0.149715 0.431337 -0.69782 0.258993 -0.0867795 0.640178
3864 0.0227574 -0.0677017 0.326784 0.102871 0.19475 0.323295 -0.346835 0.225534 -0.27106 0.0544867 -0.184868 -0.188161 0.157575 -0.19647 0.196006 0.0166882 -0.25281 0.331243 -0.271125 0.27142 0.373495 0.373383 -0.0460797 0.0756696 -0.00685756 0.0737172 -0.191468 0.326733 0.315767 0.0145995 -0.259275 0.201183 0.0994044 -0.57651 0.104929 -0.215412 0.281178 -0.300453 0.0264345 -0.0269936 -0.294281 0.213345 -0.0605334 -0.0119881 -0.0841093 0.15731 -0.0174389 -0.27902 -0.167074 -0.0310656 0.168244 0.378345 0.154837 -0.208635 -0.383871 -0.19102 0.0556229 -0.26797 0.0132788 -0.236283 0.0171394 -0.180255 0.0801693 0.0559658 -0.352632 0.0611688 -0.270972 -0.0412304 0.0599614 -0.0238501 0.281427 -0.12302 0.153968 -0.472288 -0.984966 -0.258289 0.519201 -0.0238608 -0.192765 -0.0184936 -0.456267 -0.181974 0.0110703 -0.200482 -0.111015 -0.507737 0.579188 -0.399895 -0.551395 -0.200006 0.0490252 0.0708685 0.270538 0.955186 -0.0439117 -0.0765559 -0.675012 -0.510883 -0.170479 0.696891 -0.358128 0.641119 0.954153 0.101459 0.151464 -0.309821 -0.052151 -0.70131 -0.630957 0.265021 1.03428 0.102039 0.371387 9.31561e-05 0.565644 0.454528 0.154215 0.232782 -0.0412193 0.604828 0.0539166 0.151843 -0.0143066 0.246289 -0.22239 -0.063432 -0.128571 0.681483
8771 -0.0792549 -0.0653383 0.0893897 0.0437549 0.121696 0.0833248 -0.0409515 -0.00796345 0.147547 0.0505307 0.261976 0.0470798 -0.00360553 0.0413627 -0.186785 0.05905 -0.384874 0.376826 0.00749803 0.15188 0.142301 0.14038 -0.0565315 0.0566922 -0.0167906 -0.0443305 -0.0105027 0.26054 0.128 0.132526 -0.0265014 0.261146 -0.129953 -0.363603 0.120259 -0.0914189 0.0729219 -0.166978 0.0751415 -0.416189 -0.00451532 0.0295688 0.213251 0.0773809 -0.00127636 0.016407 0.0375707 -0.217635 -0.00687984 -0.097502 0.189988 0.051733 -0.105489 -0.0953231 -0.0540619 -0.0712045 0.0720116 -0.173048 -0.0959555 -0.278584 -0.040838 -0.0333224 0.385079 0.239227 -0.400101 0.20435 -0.157556 0.0560495 0.09732 0.0446133 0.245496 0.24531 -0.0489686 -0.43848 -0.626616 -0.0505936 0.378046 -0.038432 -0.276921 0.100284 -0.478988 -0.219369 -0.195549 -0.0780783 -0.102452 -0.334814 0.377476 -0.331811 -0.317652 -0.263895 -0.166234 0.144905 -0.0192222 0.786595 0.234997 -0.00338276 -0.926693 -0.7375 -0.326334 0.663773 -0.261004 0.464134 0.718098 -0.0022057 0.168236 -0.0929673 -0.242647 -0.45568 -0.349439 0.262947 0.555822 -0.0302666 0.397552 0.0551423 0.616325 0.63315 0.339716 0.286352 -0.0194498 0.593785 0.097221 0.0275631 -0.177293 0.584437 -0.567499 0.0643909 -0.123145 0.5665
5553 -0.118112 -0.170395 0.373789 -0.102378 -0.0138769 0.208107 0.0751207 -0.163906 -0.00130533 0.343101 0.147773 -0.00568571 -0.0537998 0.19515 -0.34751 -0.00654118 -0.112108 0.286024 -0.00158277 -0.0409384 0.341114 0.239689 -0.212965 0.0794762 -0.0711059 0.114066 0.140857 -0.196164 0.0734998 -0.0247157 -0.166109 -0.0275557 -0.0846813 0.306869 -0.157523 0.0641439 0.157304 0.401765 -0.227043 0.233582 -0.104618 0.10676 0.167888 -0.06691 0.0281924 0.0115146 -0.189596 -0.161455 0.016047 0.269381 -0.32684 0.0916089 0.339892 -0.185183 -0.174982 0.16173 0.212212 0.0806379 -0.103601 -0.00557915 -0.0977721 -0.00885253 0.324456 0.393823 -0.617825 0.134086 -0.294398 -0.0130582 0.0560203 0.158138 0.399846 0.525022 -0.0612878 -0.450472 -0.914338 -0.0387341 0.388112 -0.234065 -0.326188 0.183639 -0.685223 -0.155752 -0.296872 -0.171347 -0.108809 -0.639105 0.492051 -0.335435 -0.253314 -0.159933 -0.0387838 -0.0669761 0.120659 0.759119 0.0020884 -0.0362944 -0.767047 -0.608695 -0.227611 0.45073 -0.213695 0.316438 0.605078 -0.0689783 0.127665 -0.21083 -0.0428695 -0.352953 -0.357988 0.0482467 0.504433 -0.0560734 0.397226 0.215551 0.771736 0.570216 0.507931 0.344893 -0.132417 0.588941 1.93964e-05 -0.105214 0.061384 0.417218 -0.669315 0.302915 -0.113782 0.299555
2090 0.0289132 0.15122 0.187905 0.223099 0.418789 0.225004 -0.0272525 -0.118474 0.237198 -0.214751 0.338116 0.0613901 -0.132458 -0.0117182 -0.280722 0.0849803 -0.264533 0.32833 0.128042 -0.0162643 -0.107356 0.124688 -0.105374 0.339259 0.19483 -0.106475 0.277381 0.401201 -0.024738 0.204733 0.258449 0.102518 -0.116417 -0.229393 -0.0402218 -0.121909 0.0273583 0.00109287 -0.00828595 -0.412697 -0.208813 0.283455 0.308118 0.192794 0.14907 0.0192352 0.0115698 -0.274766 0.221964 -0.156993 0.15889 0.0821756 0.0618456 -0.0480944 -0.124879 0.0421538 -0.0220948 -0.159081 -0.172093 -0.235258 -0.0735399 -0.26804 0.171857 0.314264 -0.345583 0.0938778 -0.231933 0.0770561 0.107676 -0.122842 0.180149 0.448574 -0.172759 -0.56125 -0.650984 -0.040308 0.321983 -0.126674 -0.52587 0.337253 -0.879457 -0.0904441 -0.233151 -0.14163 -0.0501176 -0.512909 0.552149 -0.275322 -0.262218 -0.274271 0.0276631 0.0495732 -0.138442 0.665539 0.247132 0.00278842 -0.971855 -0.638495 -0.309191 0.57814 -0.237002 0.210206 0.760912 0.0326282 0.0916075 -0.306943 0.0831844 -0.385676 -0.510301 0.206615 0.431344 0.0377122 0.481144 0.127026 0.78743 0.591249 0.760094 0.207727 -0.122832 0.45384 0.133675 -0.0814613 0.119604 0.311993 -0.43614 0.180508 -0.0787943 0.291377
10150 0.215594 -0.0306926 0.13883 -0.230324 -0.0388663 -0.0103775 0.0934698 0.157274 -0.130861 0.31707 0.160032 -0.0195192 0.0283345 -0.00225741 -0.190674 -0.10268 -0.316441 0.174706 -0.0511298 0.0335059 -0.190991 0.267813 -0.0715715 0.119914 -0.0105527 -0.0134024 -0.0421498 0.137957 -0.118663 -0.0475164 0.103563 -0.184859 -0.0996946 0.119078 -0.176434 0.0924618 0.149041 0.269245 -0.18682 0.268375 -0.198293 0.202912 -0.0700216 -0.0905146 -0.0435192 0.0917275 -0.137492 -0.018377 0.043126 -0.0272983 -0.173639 0.0958002 0.337695 0.0338306 -0.333364 -0.00445155 -0.101387 -0.198475 -0.0125406 -0.0859593 -0.03543 -0.160934 -0.10411 0.201391 -0.278873 -0.0251195 -0.0818163 -0.0317637 0.0585678 -0.120079 0.136133 0.122374 -0.073042 -0.364365 -0.514247 -0.158818 0.215953 -0.248918 -0.365568 0.243692 -0.591654 -0.0474065 -0.0891555 -0.282553 -0.142187 -0.524775 0.564293 -0.274944 -0.316044 -0.278796 0.102629 -0.100691 0.0114668 0.802171 0.00691227 -0.207141 -0.931767 -0.643998 -0.294923 0.559613 -0.228126 0.297124 0.821704 -0.0536022 0.247505 -0.353259 0.148961 -0.353889 -0.494414 0.050684 0.5184 -0.0493199 0.578578 0.140948 0.978171 0.478993 0.784992 0.235853 -0.22599 0.882354 0.0110297 0.103797 0.328683 0.358302 -0.490965 0.209139 -0.245374 0.361401
3915 0.262257 -0.0349308 0.196208 -0.265339 -0.00492566 0.0235551 0.127491 0.076896 0.0392419 0.129359 0.397473 0.0640028 -0.142281 0.118866 -0.245888 -0.0753752 -0.207502 0.104987 0.0131554 0.0502809 -0.425721 0.144485 0.0514196 -0.0551882 -0.0908481 0.00364448 0.108787 0.114536 -0.239258 -0.104859 0.131031 -0.359901 -0.0486464 0.119915 -0.203041 0.00848525 -0.0177805 0.0376847 -0.156539 0.124403 -0.203797 0.184725 0.0511835 0.0805919 0.0327532 0.014928 -0.0878611 -0.116562 0.179391 -0.202493 -0.083296 0.0385279 0.304241 0.106453 -0.283459 0.0384523 -0.109526 -0.174488 -0.0137441 -0.0762297 -0.0568123 -0.218594 -0.128588 0.224958 -0.200671 -0.0273868 -0.126417 0.016616 0.105609 -0.106044 0.132239 0.239773 -0.0894833 -0.464834 -0.583831 -0.138502 0.230906 -0.185701 -0.514143 0.3453 -0.724622 0.00739379 -0.00913792 -0.165238 -0.0994408 -0.425357 0.463923 -0.190182 -0.330152 -0.29107 0.0671224 -0.0788426 -0.158694 0.709574 0.107581 -0.0956546 -0.983703 -0.653046 -0.255319 0.450069 -0.23692 0.198122 0.742492 0.0179449 0.180066 -0.260472 0.0826198 -0.36608 -0.545665 0.0973579 0.457841 -0.0239282 0.697521 0.12376 0.967976 0.615523 0.784864 0.279576 -0.232411 0.807512 0.019175 0.0305447 0.280392 0.493215 -0.448051 0.212638 -0.206413 0.440814
8846 -0.0202675 -0.184733 0.394366 -0.0600673 0.222884 0.158818 0.131086 0.116359 0.0648562 0.269259 0.192048 0.164027 -0.0434554 0.205529 -0.166831 0.0639247 -0.224853 0.201637 -0.0897318 -0.0428752 0.174468 0.197638 -0.307689 0.159948 -0.0217637 5.59122e-05 0.0259719 -0.187658 -0.10243 0.0179391 -0.0256498 0.0150571 -0.252492 0.284501 -0.222878 -0.0668359 0.116585 0.388876 -0.135871 0.0286656 -0.402464 0.216328 0.285505 -0.135804 -0.00429308 0.0698182 -0.0676779 -0.335568 0.0556854 0.329926 -0.216493 0.127831 0.41225 -0.152639 -0.23945 0.00592915 0.291364 0.26305 -0.000516741 -0.0798764 0.0400742 -0.0905503 0.221509 0.316681 -0.607641 0.0510546 -0.279489 0.0564296 -0.0197451 0.181009 0.28489 0.521046 -0.156126 -0.354014 -0.792825 0.0581826 0.304646 -0.238402 -0.269206 0.207344 -0.728939 -0.147332 -0.371409 -0.10448 0.0077001 -0.639014 0.456398 -0.34083 -0.204098 -0.0837274 -0.28069 0.0736425 0.0898574 0.820384 -0.0713157 0.0444618 -0.804663 -0.652843 0.0179475 0.248728 -0.288274 0.2922 0.543016 0.0584398 0.0114369 -0.217077 0.0549788 -0.527243 -0.435584 0.093161 0.643597 0.118294 0.354716 0.266558 0.602016 0.616082 0.42875 0.343003 -0.0639886 0.370038 -0.0517323 -0.242108 -0.0183449 0.350392 -0.702941 0.275328 0.0155867 0.284952
7527 0.241884 -0.0779 0.293865 -0.0479774 0.107094 -0.0937887 -0.113103 0.467532 -0.429573 0.24804 -0.452689 -0.094732 0.222307 -0.29928 0.309038 -0.113229 -0.135141 0.0146148 -0.304674 -0.0651403 0.130465 0.351531 -0.164464 0.309565 0.179758 -0.10106 -0.207314 0.0455417 -0.0324974 -0.235678 0.179295 -0.0106037 -0.00431679 -0.0729465 -0.278051 0.0418957 0.447693 0.474879 -0.189444 0.214063 -0.391836 0.225316 -0.00883474 -0.123853 -0.116826 0.132548 -0.0128768 0.0182645 -0.15762 0.199636 0.0186171 0.215321 0.0927669 -0.00315003 -0.280387 -0.0825796 0.0606109 0.0616655 0.00863756 -0.0489868 0.109903 -0.0602129 0.225378 -0.0204082 -0.722137 -0.0101209 -0.223539 0.148515 0.130007 0.018428 0.182976 -0.147279 0.136616 -0.376112 -0.667402 -0.0739571 0.351177 -0.0209626 -0.08684 -0.029671 -0.466888 -0.0632779 -0.212937 0.0142711 -0.00451723 -0.271537 0.260099 -0.336281 -0.373829 -0.175696 0.13119 -0.297956 0.228047 0.813183 -0.102385 0.133008 -0.455152 -0.61728 -0.190148 0.405039 -0.148472 0.418949 0.865913 -0.123279 0.107824 -0.280402 -0.329321 -0.686108 -0.350653 0.15719 0.855023 -0.126683 0.368863 0.138804 0.674958 0.519733 0.438819 0.510067 0.014579 0.507059 0.0621193 -0.22834 -0.109619 0.371086 -0.682028 0.295782 -0.115509 0.573782
3142 0.186635 -0.204266 -0.0857395 -0.142645 0.190883 -0.181851 0.305722 0.316927 -0.129391 0.225248 -0.0297134 0.0261362 0.0150599 0.0521508 -0.163816 -0.204574 0.0199736 -0.0820918 -0.136162 0.0343625 0.0197236 0.104507 -0.0275678 -0.0375288 -0.0277783 -0.137424 0.01307 -0.0362933 -0.18779 -0.110591 0.210598 -0.00288734 -0.0834976 0.123527 -0.150976 0.00980931 0.00599455 0.109162 -0.0175169 -0.105344 -0.0536865 0.212295 0.412917 0.236172 0.0324548 0.116766 0.0702635 -0.0705318 0.226471 -0.0411043 -0.0731716 -0.191667 -0.0231211 -0.00270477 -0.0505908 -0.0252569 -0.202235 0.22046 -0.30646 0.13942 0.0303905 -0.222119 0.399271 0.0280945 -0.532041 -0.0631683 -0.233724 0.364341 0.196529 0.161898 0.180216 0.180347 -0.047136 -0.600307 -0.859161 0.0244553 0.289899 -0.152501 -0.433619 0.275622 -0.97802 0.188065 -0.253531 0.157965 0.0434389 -0.407534 0.107735 -0.207325 -0.264716 -0.281341 0.0155242 -0.263057 -0.206928 0.453327 0.0159341 0.330651 -0.634925 -0.640049 -0.395669 0.378623 -0.167814 0.194972 0.734315 -0.145564 -0.103908 -0.0758335 -0.637414 -0.541591 -0.327403 0.293888 0.445033 -0.11156 0.629725 0.154788 0.758885 0.780403 0.630941 0.376439 -0.126162 0.150803 0.190205 -0.636475 -0.188887 0.440288 -0.464565 0.346369 0.0715555 0.595247
11501 -0.0317659 -0.105092 -0.0252009 0.0275995 -0.102019 0.0870886 -0.0644606 -0.046367 0.0347181 -0.0754245 -0.0589208 0.0280953 -0.00876075 0.0339619 0.159817 0.139425 -0.0432743 -0.174013 -0.0493901 0.162702 0.0842116 0.0499732 -0.0473253 -0.0668919 0.0819111 -0.00980045 0.0293623 -0.107352 -0.0569109 -0.155764 -0.11505 0.169113 -0.12376 0.12825 -0.239156 -0.0429443 0.30566 0.273582 -0.344155 0.0629931 -0.241168 -0.0514482 0.447538 -0.0274784 0.0112518 -0.133877 -0.140617 -0.309702 0.0102257 0.188395 -0.398039 0.178121 0.278104 -0.208891 -0.246775 0.130546 0.271759 0.0660148 0.0203613 -0.203278 -0.133227 -0.0535321 0.286382 0.531677 -0.884356 0.20636 -0.437864 -0.0116943 -0.205906 0.312812 0.340277 0.626446 -0.0648461 -0.49869 -0.603972 -0.0432079 0.212029 -0.160707 -0.12367 0.140714 -0.700202 -0.416897 -0.3893 -0.126195 -0.298311 -0.631268 0.690728 -0.304754 -0.174514 -0.135195 -0.191044 0.0821307 0.091818 1.03962 0.171047 -0.17607 -1.14039 -0.630783 -0.289388 0.593919 -0.0831358 0.334886 0.764784 0.0354375 0.0629697 -0.195834 0.226234 -0.495399 -0.485992 0.159824 0.699972 0.102439 0.305631 0.0700161 0.663401 0.705443 0.592643 0.428009 -0.107312 0.458877 -0.0569744 -0.0447628 -0.0251656 0.392222 -0.632731 0.241286 -0.0127203 0.277247
6575 0.129427 -0.234534 0.4317 -0.0914562 0.115449 0.355545 0.0290182 0.192168 -0.0140058 0.00893903 0.0530479 0.150972 0.0379514 0.181325 0.221818 0.1476 -0.101904 -0.0418476 -0.156211 0.07107 0.0434126 0.0475357 -0.384791 0.0805849 -0.031015 -0.115578 0.0990324 -0.0844657 -0.0560816 -0.108726 -0.0316437 -0.00377745 -0.242966 0.135425 -0.252333 -0.0620735 0.237197 0.343448 -0.40527 0.0131413 -0.423067 0.151538 0.303613 -0.124826 0.0144532 -0.00742348 -0.0874242 -0.349047 0.113895 0.220995 -0.326947 0.157661 0.417587 -0.188674 -0.416654 0.0924752 0.305585 0.134344 0.0616559 -0.230949 -0.0445585 -0.12064 0.145159 0.54377 -0.679318 0.120477 -0.320605 -0.0515312 -0.109394 0.277554 0.178512 0.427135 -0.0376203 -0.374113 -0.53184 -0.0796644 0.0614906 -0.185296 -0.155764 0.152204 -0.435494 -0.188746 -0.162973 0.0381448 -0.245276 -0.486239 0.448193 -0.257675 -0.213132 -0.131054 -0.0903041 0.0486577 0.0181928 0.914843 0.0367642 -0.154735 -0.881932 -0.548852 -0.0697905 0.248277 -0.146979 0.25153 0.624811 0.101293 0.021375 -0.21383 0.232395 -0.484686 -0.506768 0.0535128 0.654158 0.130598 0.424564 0.0976242 0.852623 0.790628 0.607904 0.480975 -0.169984 0.627645 -0.140952 -0.0332971 0.127052 0.42617 -0.641731 0.314442 -0.0100604 0.344589
8793 0.110455 0.063694 0.201603 -0.00284459 0.172298 0.217039 -0.102498 -0.00123009 0.0449381 0.118719 0.33676 0.0511271 -0.011495 0.0268172 -0.47506 -0.0350628 -0.418381 0.27533 0.0405131 0.0403195 -0.271269 0.232509 0.0357553 0.238025 -0.0492907 0.00391521 0.0332109 0.294297 -0.0559348 0.0832457 0.115192 -0.0807695 -0.0247172 -0.114939 -0.00508245 0.0715255 0.0080298 -0.0714857 0.00132883 -0.010984 -0.0712745 0.225805 0.0137563 0.113485 0.0441861 0.0956296 -0.128977 -0.213685 0.246241 -0.0526145 -0.0548357 0.0314052 0.14525 -0.00891193 -0.0964518 -0.0377386 -0.110437 -0.206003 -0.135681 -0.163726 -0.0609781 -0.223222 -0.0778825 0.148137 -0.0491018 0.0357744 -0.0268752 0.0722468 0.0748213 -0.199904 0.00355831 0.255184 -0.181716 -0.387681 -0.42795 -0.0857814 0.23858 -0.164445 -0.514417 0.295458 -0.749923 -0.0251622 -0.10229 -0.158109 -0.0276308 -0.540616 0.461369 -0.225378 -0.321508 -0.346287 -0.0302737 0.0741442 -0.120765 0.837809 0.164578 -0.0603708 -0.908806 -0.701195 -0.279923 0.558008 -0.344286 0.308566 0.679028 -0.0525754 0.116996 -0.334073 -0.0384904 -0.214942 -0.387783 0.134692 0.339112 0.0256333 0.616214 0.235697 0.855792 0.55496 0.618197 0.0838967 -0.188131 0.703534 0.105264 0.0647686 0.317529 0.383557 -0.327223 0.152161 -0.147533 0.217001
5793 0.17334 -0.00600946 0.156959 -0.184428 0.00899459 0.0215131 0.0756971 0.0915675 -0.0528933 0.275658 0.223995 -0.00674932 -0.0180546 0.0193318 -0.26484 -0.0882403 -0.297303 0.169959 -0.00344096 0.00998484 -0.23751 0.235131 -0.0540942 0.128623 -0.0286051 0.00994971 0.015408 0.162446 -0.116716 -0.0174421 0.0997569 -0.23139 -0.104362 0.136807 -0.184794 0.0630945 0.105766 0.198446 -0.174326 0.215784 -0.185244 0.210283 -0.0603692 -0.0582501 -0.00676237 0.0601004 -0.14838 -0.0252418 0.0615165 -0.0527969 -0.153564 0.0953891 0.33894 0.0242894 -0.318375 0.0188347 -0.105514 -0.254792 -0.0333185 -0.0993039 -0.0606173 -0.161834 -0.105952 0.217187 -0.259866 -0.00627165 -0.071292 -0.0444215 0.0632977 -0.155164 0.149598 0.163562 -0.0819998 -0.365738 -0.523205 -0.162743 0.231746 -0.269187 -0.390663 0.255995 -0.580415 -0.0685383 -0.0964706 -0.325287 -0.162975 -0.553936 0.6212 -0.296232 -0.328553 -0.296785 0.101471 -0.0847182 0.0127007 0.804455 0.0214186 -0.238763 -0.963446 -0.642655 -0.334358 0.618055 -0.237338 0.308216 0.843937 -0.057594 0.261236 -0.366776 0.166261 -0.329541 -0.483237 0.0449333 0.505489 -0.0454221 0.582055 0.129625 0.989656 0.455079 0.792482 0.20196 -0.227747 0.877806 0.00750299 0.137055 0.339505 0.367077 -0.486319 0.184573 -0.259675 0.359546
12295 -0.116101 0.152021 0.350315 0.190521 0.162862 0.215561 -0.13802 -0.214022 -0.0866378 -0.148131 -0.0456784 -0.0536182 -0.0318571 -0.181216 -0.156263 0.105074 -0.14855 0.255446 0.0675351 -0.0654757 0.0863318 0.284391 -0.171704 0.467846 0.391619 -0.0881387 0.280557 0.198048 -0.00633819 0.0907196 0.278943 0.179592 -0.138955 -0.0306197 -0.106759 0.0549805 0.257609 0.553486 -0.20458 -0.0178513 -0.214274 0.277867 0.338547 0.00109707 0.0339601 0.156672 -0.0564205 -0.213328 0.0536387 0.163535 -0.0144875 0.127849 0.0882126 -0.240334 0.00900413 0.122168 0.18407 0.0442109 -0.17323 -0.167665 -0.0976996 -0.0537795 0.301893 0.135251 -0.504884 0.0597721 -0.263413 0.016714 0.13057 0.0356977 0.148913 0.262339 -0.0833696 -0.32637 -0.55371 -0.0672972 0.250983 -0.136997 -0.226176 0.137759 -0.629206 -0.199128 -0.322366 -0.0682529 -0.0474608 -0.534071 0.533464 -0.298167 -0.249427 -0.156698 -0.0431131 0.0426675 0.0787952 0.729443 0.126094 0.00917016 -0.700505 -0.510312 -0.234546 0.418816 -0.286776 0.300151 0.687803 -0.0058164 0.113318 -0.185286 -0.0814863 -0.466946 -0.396379 0.118142 0.527475 0.0459228 0.47429 0.133714 0.731114 0.564196 0.458434 0.293434 -0.0275064 0.476255 0.0702404 -0.122377 -0.0088454 0.3396 -0.457228 0.216596 -0.0425176 0.396441
6766 0.00804399 -0.00522317 0.159126 -0.0402864 -0.0669194 0.142577 -0.0262313 -0.134134 -0.0859825 0.0720981 0.0241927 -0.0855205 0.0174895 0.0419938 -0.204906 -0.00697342 -0.0135793 0.174448 0.0572367 -0.0170935 0.162165 0.149673 -0.0335076 0.0625491 0.0160679 0.0990813 0.134892 -0.0392364 0.100428 -0.0145908 -0.0979865 0.0320798 -0.0181001 0.12345 -0.0866666 0.162248 0.171785 0.312432 -0.213804 0.184922 0.046992 0.00152724 0.142934 0.0306127 0.0277541 0.0248532 -0.188493 -0.0937416 0.0394282 0.219362 -0.302553 0.0535 0.221598 -0.219856 -0.0742656 0.22506 0.210245 0.0542229 -0.156026 0.0298655 -0.211652 0.100127 0.401246 0.340673 -0.612029 0.169256 -0.325773 -0.0367842 0.136247 0.18535 0.434016 0.423633 0.177109 -0.657801 -0.851099 -0.217129 0.481024 -0.0871189 -0.321946 0.0861703 -0.680965 -0.136713 -0.133704 -0.0722321 -0.14774 -0.5226 0.408533 -0.221106 -0.240562 -0.2525 0.102502 -0.266921 0.073595 0.727861 0.155492 0.0274723 -0.623917 -0.556685 -0.389324 0.550548 -0.00901118 0.236885 0.612847 -0.266761 0.170161 -0.202988 -0.242703 -0.264643 -0.283153 0.128246 0.458084 -0.264445 0.44322 0.190684 0.650843 0.479402 0.451807 0.456876 -0.0433763 0.579431 0.0489204 -0.0486244 0.0427041 0.495607 -0.499864 0.342127 -0.155186 0.161568
7699 0.302392 0.00469715 0.425534 -0.0605454 0.136582 0.555528 -0.237664 0.00532568 0.185133 -0.220284 0.401448 0.172271 0.168258 0.270235 -0.315729 0.0471913 -0.154659 -0.00693465 0.181608 -0.132307 -0.169569 0.038621 0.0764372 0.157378 0.0795943 0.0956685 0.0461776 -0.258508 -0.0910529 -0.152993 -0.0665554 0.0485066 -0.0542215 -0.1303 -0.232868 0.192716 0.218966 0.204801 -0.189941 -0.133911 -0.257182 -0.0631522 0.393465 0.0567237 0.0178459 -0.112523 -0.0188017 -0.387384 0.0364321 0.0309943 0.030552 0.1203 0.0124645 -0.0184849 -0.0155553 0.0263483 0.123483 -0.0894371 0.0141816 -0.221628 -0.0516466 0.0107463 0.186619 0.25067 -0.586513 0.168 -0.247107 0.106504 -0.00514094 0.0268848 0.177466 0.423167 -0.120992 -0.441647 -0.416035 -0.0463921 0.350067 -0.0177934 -0.224851 0.0950791 -0.684165 -0.316342 -0.402596 -0.146186 -0.0553391 -0.341367 0.45249 -0.264901 -0.218011 -0.210264 -0.186175 0.0913241 -0.0057597 0.740589 0.288471 -0.0123023 -0.964777 -0.64807 -0.337603 0.71031 -0.0961049 0.30304 0.766932 -0.0431383 0.202147 -0.141522 0.0545511 -0.538889 -0.464334 0.222541 0.651618 0.0165099 0.355331 0.104844 0.591639 0.657994 0.59359 0.434322 0.0214459 0.510059 0.0417546 -0.0248867 -0.145736 0.526579 -0.756386 0.173725 -0.114064 0.4466
6064 0.077224 -0.0898064 0.0339199 -0.0185849 -0.0635969 0.152196 -0.08714 0.0369943 0.0508009 -0.0905289 0.00392512 0.0233537 0.00280196 0.0176715 0.167137 0.0811298 -0.0463544 -0.191868 -0.020086 0.148103 -0.0150031 0.0439242 -0.00783519 -0.0742 0.12164 0.00377183 0.0148823 -0.118599 -0.104365 -0.167524 -0.127697 0.118644 -0.136228 0.101631 -0.302981 -0.0199542 0.293055 0.20754 -0.284691 0.082407 -0.234056 -0.061194 0.385566 -0.0503243 0.00172968 -0.132887 -0.112288 -0.270182 -0.0328042 0.176855 -0.369337 0.172284 0.294549 -0.186073 -0.254023 0.103557 0.210563 -0.00345063 0.0438633 -0.148885 -0.132415 -0.0420314 0.23438 0.475847 -0.816283 0.163335 -0.369456 -0.0272459 -0.223915 0.278991 0.357519 0.536197 -0.0593208 -0.44387 -0.547972 -0.0928504 0.205356 -0.193721 -0.0661521 0.150289 -0.680292 -0.456105 -0.409995 -0.224751 -0.299565 -0.642247 0.774365 -0.295912 -0.123487 -0.117734 -0.207527 0.0580665 0.12812 0.971072 0.15143 -0.238925 -1.07277 -0.50542 -0.318988 0.639593 -0.0650363 0.338488 0.848308 -0.00614452 0.121139 -0.207591 0.33827 -0.471042 -0.485562 0.139076 0.669313 0.11245 0.264677 0.0329668 0.551614 0.558379 0.598391 0.374427 -0.0945527 0.443591 -0.0848356 0.0127977 0.0199087 0.313825 -0.566186 0.189369 -0.0536145 0.228398
516 -0.0014729 0.0573312 -0.0860542 -0.0287634 0.0826023 -0.257839 0.189311 -0.00299254 0.191902 0.201948 0.178724 0.130697 -0.0469721 0.101251 -0.0976925 0.0182248 -0.0864825 0.0719924 0.0884839 -0.189006 0.184121 0.10188 -0.209743 0.134492 0.203051 -0.0193066 -0.0166334 -0.230211 -0.138127 0.121041 0.0588753 0.0557869 -0.307222 0.286696 -0.208419 -0.0479861 0.0820924 0.460717 -0.0957388 -0.0633856 -0.263228 0.166114 0.236532 -0.228732 -0.0161086 0.0478755 -0.0660425 -0.137444 -0.110615 0.260824 -0.112081 0.15099 0.289431 -0.132772 -0.204272 0.0210173 0.192281 0.0888231 -0.032193 -0.0569 0.000582741 0.0333738 0.202319 0.214249 -0.513934 0.0517894 -0.224708 -0.0434731 -0.00763286 0.119928 0.323819 0.385103 -0.082383 -0.250791 -0.723721 0.036028 0.27343 -0.292433 -0.111427 0.0809449 -0.399443 -0.130603 -0.376605 -0.280736 -0.10389 -0.575251 0.470069 -0.389765 -0.23594 -0.116773 -0.146532 0.00067772 0.238036 0.80562 -0.166308 -0.108912 -0.84691 -0.658887 -0.174007 0.406772 -0.235143 0.392609 0.594802 -0.0120279 0.133615 -0.206909 0.0204733 -0.374563 -0.302682 0.00246838 0.537776 -0.0423716 0.277355 0.181962 0.826565 0.505082 0.446253 0.243302 -0.14406 0.591065 -0.0367707 -0.118007 0.0195739 0.33175 -0.709765 0.261136 -0.11069 0.397367
4829 0.299902 -0.174394 -0.191577 -0.351628 -0.236069 -0.282163 0.366909 0.446463 -0.299776 0.334281 0.00517485 0.0303934 0.184334 -0.00855818 0.192811 -0.120207 -0.143523 -0.0445009 -0.182897 0.249892 0.071896 0.196673 -0.0236428 -0.183381 0.120655 -0.120015 -0.238887 -0.157679 -0.22408 -0.222657 0.160775 0.192469 -0.173028 0.0106442 -0.1305 0.0682846 0.353016 0.565411 -0.201208 0.105643 -0.190532 0.251414 0.568443 0.0828396 -0.220732 0.224321 -0.0336342 -0.325696 0.140239 -0.175325 -0.236469 -0.0311156 0.247176 -0.0642625 -0.25702 -0.0308628 -0.150802 0.118301 -0.126098 0.0654097 0.064207 -0.227654 0.179825 -0.00500761 -0.549009 -0.0653148 -0.366516 0.288414 0.184508 0.113623 0.170506 0.178818 -0.11666 -0.606407 -1.07427 0.033754 0.428914 -0.145941 -0.526887 0.192039 -0.857911 0.142813 -0.150763 0.0847663 -0.0290078 -0.363961 0.086872 -0.167713 -0.448683 -0.193528 0.0713459 -0.110294 -0.182993 0.490783 0.0117508 0.253928 -0.707221 -0.568021 -0.210463 0.242946 -0.242409 0.13526 0.579942 0.144031 -0.103587 0.0298186 -0.33243 -0.547752 -0.545788 0.152717 0.469044 0.0158792 0.527525 -0.0003944 0.763036 0.736553 0.467021 0.383636 -0.195397 0.209826 0.0926475 -0.399675 -0.187046 0.32203 -0.206914 0.143976 0.140072 0.659622
4010 -0.0893393 0.0862323 0.436246 0.0929064 0.182852 0.218137 -0.0750743 -0.17954 -0.160577 -0.182237 -0.010845 -0.0433243 -0.0346433 -0.180846 -0.0731872 0.118105 -0.20457 0.331095 0.022564 -0.0298075 0.224698 0.399823 -0.245825 0.456985 0.511333 -0.0989539 0.286023 0.119403 -0.0378446 0.0457964 0.30744 0.318304 -0.159158 -0.0432805 -0.129441 0.0267378 0.385775 0.759233 -0.25728 -0.0516448 -0.24005 0.266906 0.403572 -0.00409423 -0.0127371 0.165318 -0.0587306 -0.270439 0.0428267 0.147914 -0.0723108 0.139481 0.113435 -0.240266 -0.0223105 0.110596 0.207606 0.131027 -0.131089 -0.104256 -0.0670261 -0.0466346 0.282053 0.107684 -0.485998 0.0384687 -0.294447 0.0618267 0.130681 0.0670481 0.1328 0.238246 -0.061908 -0.333647 -0.587008 -0.0478397 0.298126 -0.0958174 -0.254289 0.0869324 -0.599033 -0.155436 -0.283427 -0.0282105 -0.0345048 -0.523468 0.42786 -0.263742 -0.29725 -0.15922 -0.050557 -0.000753607 0.0713417 0.776519 0.0924537 0.0721463 -0.71973 -0.586601 -0.234656 0.438412 -0.280258 0.316868 0.717586 -0.0482229 0.103391 -0.247943 -0.149498 -0.545391 -0.490937 0.10494 0.716026 0.0156725 0.566045 0.236662 0.820086 0.696361 0.534428 0.482174 -0.0131819 0.558118 0.0447174 -0.162469 -0.00962613 0.445111 -0.556199 0.271236 -0.0378515 0.396933
6801 0.0407196 -0.0381929 0.245682 -0.0361526 -0.00837346 0.233401 -0.0498718 -0.0987531 -0.0623821 0.0673867 0.0698055 -0.0336776 0.0342033 0.101317 -0.207921 0.00666941 -0.0533294 0.174579 0.0346533 -0.0247884 0.154439 0.161643 -0.0749052 0.0921353 0.0035096 0.092568 0.119429 -0.0821779 0.0872167 -0.0287665 -0.119872 0.0286686 -0.0249215 0.114302 -0.109952 0.159239 0.180831 0.306354 -0.216134 0.174191 -0.00946673 0.00820797 0.146471 0.0147084 0.019594 0.0323951 -0.180413 -0.150215 0.0563835 0.249319 -0.309523 0.0623776 0.242572 -0.208163 -0.0953505 0.197777 0.203436 0.0687409 -0.12586 0.0108798 -0.187273 0.0844325 0.361624 0.335015 -0.618642 0.166765 -0.309635 -0.0104337 0.116445 0.192489 0.414893 0.429455 0.162703 -0.635436 -0.838654 -0.207025 0.470126 -0.0950893 -0.312893 0.087184 -0.657012 -0.134623 -0.136153 -0.0621911 -0.132147 -0.498476 0.377831 -0.212166 -0.239955 -0.244409 0.059454 -0.245442 0.0672988 0.757086 0.133232 0.0300148 -0.615009 -0.557303 -0.345739 0.517099 -0.025156 0.246461 0.616639 -0.24618 0.155071 -0.213511 -0.226928 -0.276889 -0.28709 0.12371 0.478076 -0.231441 0.445152 0.200245 0.664117 0.504123 0.45002 0.458833 -0.0495751 0.583617 0.0378273 -0.0466395 0.0454663 0.496433 -0.515714 0.327482 -0.14587 0.175317
3705 0.275278 0.0637832 0.31281 -0.131148 0.309208 0.140996 0.0988093 -0.0101593 0.253164 0.0801681 0.505388 0.0272899 -0.141822 0.108536 -0.371191 -0.114688 -0.0946109 0.237705 0.164182 -0.0651755 -0.23505 0.0105165 0.0324795 0.0235038 -0.0147273 0.0838537 0.154743 0.0455177 -0.0650227 0.116935 -0.00112702 -0.323082 -0.0884676 -0.063427 -0.114477 -0.0802054 -0.183149 -0.260594 0.130721 -0.218463 -0.164695 0.135102 0.00695021 0.0586853 0.112751 -0.0357605 0.0351009 -0.104709 0.0398516 -0.11079 0.163885 0.0997801 0.1138 0.0342114 -0.146645 -0.00156864 -0.0380335 -0.267596 -0.0778187 -0.145662 -0.0680848 -0.122499 0.0891773 0.250308 -0.177432 0.0576388 -0.0907841 -0.00923982 0.137368 -0.138811 0.231013 0.229914 -0.0792631 -0.413953 -0.542281 -0.139939 0.279382 -0.164152 -0.356319 0.234571 -0.603191 -0.105113 -0.148848 -0.278849 -0.0867736 -0.457242 0.567271 -0.302744 -0.313673 -0.298796 -0.00442515 -0.0010481 -0.0101186 0.712285 0.0946021 -0.118834 -0.829058 -0.581218 -0.302602 0.612494 -0.257243 0.315923 0.790408 -0.0383473 0.217719 -0.301883 0.0606169 -0.318459 -0.394894 0.115086 0.449113 -0.0213578 0.500232 0.129693 0.728541 0.387881 0.543668 0.123869 -0.131566 0.62701 0.0468856 0.0676328 0.21016 0.371092 -0.433486 0.122477 -0.21384 0.360201
6392 0.0395962 -0.0147475 0.249478 -0.091853 -0.0621905 0.19852 -0.00678492 -0.179834 -0.0694175 0.0907448 0.0519961 -0.102855 0.0069495 0.0884813 -0.225252 -0.0237521 0.0338783 0.191124 0.0750482 -0.0423583 0.196578 0.123472 -0.0528221 0.0380673 -0.0192399 0.140238 0.161197 -0.105894 0.135046 -0.0223495 -0.17056 -0.0244424 0.000128257 0.152059 -0.112823 0.167956 0.17788 0.338701 -0.247347 0.221017 0.0245898 0.0105934 0.14043 0.0290599 0.0328374 0.0106051 -0.194591 -0.113069 0.0359165 0.233333 -0.314375 0.0709215 0.240097 -0.229266 -0.0775476 0.241661 0.214102 0.067925 -0.146742 0.0440247 -0.20637 0.0903516 0.385665 0.338233 -0.607271 0.173495 -0.348843 -0.0215188 0.148254 0.192561 0.442675 0.431807 0.159358 -0.648035 -0.883541 -0.201662 0.486031 -0.0694419 -0.341184 0.0885066 -0.690212 -0.131339 -0.135101 -0.0613036 -0.134439 -0.525024 0.379337 -0.221335 -0.242701 -0.233189 0.103082 -0.248473 0.0606835 0.691256 0.144376 0.048658 -0.576198 -0.522044 -0.355233 0.517834 -0.0220043 0.220637 0.588735 -0.236797 0.144206 -0.189793 -0.228847 -0.271294 -0.289787 0.112712 0.454656 -0.22989 0.421655 0.180387 0.60929 0.468009 0.415439 0.453992 -0.0452238 0.528297 0.0418383 -0.0612439 0.0269045 0.46436 -0.474976 0.312966 -0.13021 0.166589
9744 -0.00549281 -0.225951 0.367651 -0.0236508 0.28566 0.226486 0.064265 0.224028 0.0904099 0.213965 0.177684 0.229222 -0.00389587 0.215685 0.00723155 0.0713584 -0.190738 0.147874 -0.120819 -0.0347984 0.181381 0.149464 -0.415965 0.213069 -0.049853 0.00793474 -0.0291503 -0.293646 -0.102099 0.00187581 -0.0745119 0.00663947 -0.237308 0.179395 -0.194577 -0.0552974 0.11251 0.32766 -0.102093 -0.00994044 -0.321303 0.187595 0.236268 -0.207585 -0.0277715 0.0650217 -0.0411788 -0.292148 -0.00463507 0.316036 -0.212106 0.13053 0.291513 -0.134639 -0.147582 -0.0589164 0.209428 0.128852 0.0185453 -0.0914837 0.0551348 -0.0558816 0.198544 0.247244 -0.497047 0.074407 -0.204053 0.00906551 0.00368195 0.184927 0.253022 0.420742 -0.133144 -0.268075 -0.771209 0.0761808 0.257458 -0.264763 -0.199305 0.121345 -0.419739 -0.115495 -0.369991 -0.178187 -0.092997 -0.572495 0.357489 -0.36707 -0.310929 -0.126613 -0.128177 0.0381071 0.191533 0.863304 -0.146074 -0.074978 -0.857306 -0.690766 -0.13042 0.315525 -0.336651 0.407368 0.543329 0.0651796 0.115493 -0.161108 -0.0358997 -0.364398 -0.33714 -0.0371291 0.525398 -0.00375918 0.334719 0.165873 0.901416 0.633644 0.401787 0.272796 -0.182034 0.637809 -0.0366278 -0.0929488 0.0256678 0.42058 -0.723788 0.285585 -0.0958119 0.47396
4456 -0.0076266 0.000183664 0.251507 -0.0648148 -0.0728289 0.186103 -0.00387161 -0.197337 -0.0873419 0.108709 0.0437028 -0.107763 -0.00222419 0.0784259 -0.260863 -0.0141329 0.0130425 0.232431 0.0699328 -0.0399693 0.18496 0.144303 -0.073089 0.0729772 -0.0160364 0.128007 0.188424 -0.0449189 0.142439 0.00171976 -0.13076 -0.0401557 -0.00492454 0.157428 -0.07977 0.159305 0.161311 0.347099 -0.243926 0.230508 0.0399282 0.0353862 0.109498 0.0252022 0.0300407 0.0436147 -0.194648 -0.0946409 0.0458582 0.214565 -0.290164 0.0640896 0.234492 -0.228158 -0.0798549 0.230413 0.20223 0.0458878 -0.153685 0.0227768 -0.204788 0.0913944 0.381972 0.322529 -0.563783 0.162785 -0.313688 -0.0414881 0.159172 0.173303 0.403704 0.382816 0.157259 -0.597908 -0.824896 -0.205575 0.455735 -0.0854231 -0.320437 0.0818257 -0.619736 -0.113509 -0.107662 -0.059951 -0.143668 -0.497745 0.370745 -0.217455 -0.240182 -0.230645 0.094757 -0.234056 0.0701394 0.700568 0.125251 0.0252335 -0.579579 -0.5199 -0.35813 0.517884 -0.0483245 0.236635 0.593967 -0.226799 0.153758 -0.189812 -0.234624 -0.267801 -0.288229 0.108166 0.449213 -0.222321 0.442863 0.175936 0.64559 0.469648 0.421196 0.427594 -0.0539656 0.573901 0.0393636 -0.0471471 0.0393077 0.488404 -0.488082 0.318115 -0.141947 0.195639
7955 0.176834 -0.157595 0.221215 -0.046934 -0.10137 0.403685 -0.150692 0.101235 -0.0518058 -0.208699 0.0448507 0.0933003 0.138098 0.178226 0.182027 0.168917 -0.0751461 -0.167161 -0.0804519 0.166968 0.0401502 0.0316416 -0.180117 -0.000716356 0.0271661 -0.0892529 0.131575 -0.074323 0.00531242 -0.255307 -0.140658 0.179818 -0.133084 -0.0399442 -0.263906 0.0899074 0.403849 0.296549 -0.519533 0.0634349 -0.179171 -0.0903342 0.418313 0.0271818 0.00563761 -0.0771865 -0.112782 -0.33041 0.134581 0.155957 -0.379468 0.0614147 0.250241 -0.207164 -0.239317 0.113056 0.165993 0.063695 -0.022546 -0.131968 -0.140985 -0.0471628 0.27365 0.481582 -0.731514 0.168019 -0.320563 0.025756 -0.134292 0.351898 0.328363 0.52024 0.0707889 -0.567591 -0.600064 -0.166934 0.24736 -0.123038 -0.17323 0.147194 -0.651821 -0.247394 -0.203484 -0.0437118 -0.219822 -0.460463 0.447181 -0.158838 -0.112342 -0.178896 -0.10262 -0.0712582 0.00515648 0.836326 0.194466 -0.105482 -0.886048 -0.502494 -0.337937 0.561553 0.0104721 0.251864 0.771273 -0.112526 0.108832 -0.190564 0.0720099 -0.397938 -0.411018 0.209604 0.569562 -0.0392675 0.383859 0.098422 0.591374 0.624987 0.619871 0.465133 -0.0810326 0.529242 -0.0181482 -0.0396637 0.0217721 0.434978 -0.540738 0.268283 -0.075807 0.19171
4019 0.038685 0.0277462 0.0622486 -0.0122534 0.185171 0.0781133 0.0908571 -0.0557647 0.216146 0.0741715 0.390086 0.0529602 -0.0578649 0.0737788 -0.184764 0.0095117 -0.234466 0.409054 0.0691277 0.129527 0.132479 0.0191116 -0.0867858 -0.0208619 -0.0209213 -0.023679 0.0621027 0.145929 0.107273 0.216817 -0.0561219 0.130801 -0.137215 -0.311062 0.152642 -0.0917591 -0.104906 -0.23697 0.167269 -0.351701 -0.0639354 0.0975046 0.204413 0.0473893 0.0345982 0.0561414 0.0514797 -0.302598 0.0674738 0.0247042 0.116464 0.0412376 0.00389079 -0.11753 -0.0192889 -0.0514709 0.132614 -0.0909587 -0.0961826 -0.24522 -0.0446245 -0.0618446 0.369659 0.309928 -0.401031 0.20241 -0.202289 0.0771215 0.159461 0.0398684 0.226748 0.343309 -0.112906 -0.469421 -0.665982 -0.034941 0.380716 -0.0476924 -0.3603 0.125599 -0.595683 -0.177609 -0.222557 -0.0599842 -0.028187 -0.406583 0.358987 -0.29462 -0.347756 -0.247886 -0.246415 0.156536 -0.0540665 0.872812 0.230039 0.0885183 -0.866441 -0.729339 -0.23084 0.558424 -0.345499 0.425642 0.695868 0.0385323 0.127846 -0.134309 -0.180342 -0.441777 -0.391834 0.195189 0.545886 0.0272725 0.447485 0.144973 0.652379 0.671211 0.35634 0.315676 -0.0261139 0.553518 0.0642599 -0.0155027 -0.0824547 0.590419 -0.571709 0.115362 -0.0908876 0.513302
6849 -0.000140855 -0.00835712 0.196157 -0.037404 -0.0269557 0.145762 -0.0163188 -0.12709 -0.0843616 0.0696133 0.0336229 -0.0807776 -0.00697513 0.0651205 -0.187799 0.00326111 0.0120418 0.192621 0.0402972 -0.010555 0.145154 0.136876 -0.0670846 0.0697867 0.000787784 0.101549 0.156158 -0.0309706 0.0994903 0.00343881 -0.102131 -0.0143077 -0.02646 0.114558 -0.0974387 0.12351 0.14879 0.303199 -0.203374 0.168482 -0.0113047 0.0367472 0.149345 0.0217691 0.0316524 0.0427074 -0.153529 -0.12386 0.0503542 0.216515 -0.263438 0.0661823 0.226064 -0.221149 -0.0779451 0.193283 0.211911 0.0746672 -0.13778 0.0213085 -0.185185 0.0592517 0.377094 0.316337 -0.582951 0.148531 -0.323074 -0.0168343 0.13549 0.190937 0.416154 0.408309 0.147403 -0.647482 -0.884245 -0.201856 0.464976 -0.100622 -0.333928 0.114466 -0.72329 -0.139988 -0.149851 -0.0774228 -0.124664 -0.550736 0.434842 -0.23737 -0.252111 -0.240228 0.0590335 -0.217216 0.061125 0.744789 0.127354 0.036535 -0.660813 -0.561341 -0.362632 0.549772 -0.0599728 0.256092 0.647509 -0.219898 0.153546 -0.202587 -0.220481 -0.322358 -0.326386 0.144599 0.496229 -0.208413 0.451949 0.179321 0.621847 0.48264 0.420679 0.422071 -0.0444262 0.543574 0.0505087 -0.0782714 0.0235348 0.47088 -0.480541 0.299261 -0.12723 0.207495
1113 0.301215 -0.0600616 0.336776 -0.157353 0.057464 -0.0258499 -0.0288193 0.431108 -0.282573 0.11514 -0.274925 -0.0738649 0.139869 -0.274538 0.502066 -0.061737 -0.00411831 0.0132346 -0.23119 0.08294 0.00401326 0.0511357 -0.0633724 0.0259337 0.123027 -0.00250228 -0.176217 -0.0689353 -0.00306118 -0.193857 0.0085099 -0.106952 0.00745686 -0.216364 -0.151838 -0.075864 0.275592 0.190111 -0.035423 0.0781026 -0.382308 0.132712 -0.0193466 -0.155378 -0.120088 0.0468183 0.0626058 -0.0993037 -0.222363 0.146216 0.0631166 0.27518 0.113191 -0.00567449 -0.212129 -0.0721369 0.207644 -0.00294299 0.128975 -0.137992 0.0960942 -0.0091854 0.174711 0.048653 -0.6752 0.082585 -0.251518 0.0351993 0.121733 -0.0170205 0.144037 -0.0497999 -0.00436408 -0.297403 -0.509933 0.00820941 0.323101 0.0782544 -0.0821874 -0.100799 -0.317865 -0.242952 -0.271795 -0.0517097 -0.0480662 -0.202562 0.290532 -0.314306 -0.468699 -0.117158 0.0206024 -0.0812 0.217487 0.862654 0.0160573 0.0997062 -0.557514 -0.566838 -0.107898 0.389533 -0.245725 0.373643 0.758045 0.0711138 0.128299 -0.191048 -0.0805315 -0.707543 -0.496923 0.045953 0.935598 0.0194771 0.357754 0.0715206 0.733653 0.6386 0.362296 0.590697 0.0119161 0.537307 -0.0300121 -0.11128 -0.161621 0.479464 -0.792294 0.238444 -0.0953871 0.696089
10000 0.742321 -0.183862 0.555583 -0.495839 -0.269418 -0.365 0.264967 0.521607 -0.0200299 0.409545 0.313061 0.0961509 0.17994 0.0757044 0.389951 0.075277 0.127855 0.136402 -0.199298 0.181263 0.0131821 -0.161779 -0.137353 -0.265267 -0.0709158 -0.150759 -0.289413 -0.106576 -0.0442725 -0.0947147 -0.13224 -0.132906 -0.380816 -0.240722 -0.101205 -0.164155 0.100524 0.0639603 -0.0688983 -0.00512772 -0.154143 -0.147654 0.334089 -0.165295 -0.233621 0.11751 0.126326 -0.228425 -0.0772195 0.161099 0.0749064 0.169177 0.108064 0.0665805 -0.330533 -0.144129 0.208172 0.113699 0.0777436 -0.321676 0.0926627 -0.0572177 0.392633 0.150224 -1.01768 0.136044 -0.409557 0.104954 0.0341177 0.165396 0.298445 0.181211 -0.0602661 -0.544409 -0.798858 0.137656 0.410346 -0.091102 -0.267474 -0.0051787 -0.699433 -0.202951 -0.273779 0.140869 0.0603379 -0.0151727 0.196548 -0.28062 -0.509468 -0.128505 -0.233262 0.0334506 0.0571079 1.03786 0.0764475 0.226134 -0.874743 -0.960569 0.0695135 0.323852 -0.0880243 0.252193 0.420275 0.25107 -0.0259132 -0.0363477 -0.11422 -0.685492 -0.41743 0.246532 0.745148 -0.00259099 0.2318 0.0258269 0.694508 0.777483 0.385804 0.650855 -0.0489755 0.323822 -0.0451236 -0.162149 -0.367447 0.530452 -0.781403 0.235284 0.0478579 0.583621
1357 -0.0402877 0.0916874 -0.064491 -0.061703 0.00561579 -0.319225 0.216768 -0.0678254 0.171458 0.229919 0.19147 0.0939425 -0.075044 0.102581 -0.250713 0.012438 -0.123323 0.12052 0.111694 -0.237244 0.153333 0.123634 -0.173754 0.1143 0.166361 -0.0436941 0.0433116 -0.16005 -0.127187 0.105086 0.0948086 0.00886255 -0.281635 0.32466 -0.223121 -0.0416658 0.0896428 0.491066 -0.158745 -0.0148481 -0.335217 0.180603 0.245544 -0.16192 0.0143199 0.0547279 -0.0823151 -0.196904 -0.00265444 0.256248 -0.126984 0.136594 0.32535 -0.12165 -0.259156 0.0459949 0.25741 0.18506 -0.0314546 -0.111319 0.00604266 -0.0591692 0.195306 0.326872 -0.638869 0.0433985 -0.27667 0.0329534 -0.0214282 0.137161 0.280557 0.474232 -0.136889 -0.340374 -0.768191 0.0228413 0.281053 -0.279917 -0.224879 0.19013 -0.725226 -0.163948 -0.372747 -0.153859 -0.0142914 -0.630789 0.497304 -0.339014 -0.215562 -0.115801 -0.258613 0.0578724 0.117309 0.892946 -0.077375 -0.0123444 -0.837051 -0.677935 -0.0309043 0.324764 -0.256775 0.336219 0.639436 0.0135249 0.0432759 -0.26697 0.0519488 -0.51877 -0.414369 0.105095 0.652142 0.095393 0.357614 0.26182 0.663722 0.593597 0.469471 0.316541 -0.0640964 0.434173 -0.0501043 -0.192551 0.0244439 0.338817 -0.685719 0.27319 -0.0374255 0.285286
11500 0.0289455 -0.0825249 -0.143802 -0.00958577 -0.0737461 0.0132508 -0.0366662 0.0628974 -0.0111155 -0.0119274 -0.0493824 -0.0105893 -0.0313404 -0.0736906 0.172453 0.0298699 -0.0834029 -0.219621 -0.0509813 0.247656 -0.0522747 0.0834252 0.0761498 -0.116891 0.123005 -1.21697e-05 -0.0243816 -0.0594763 -0.146722 -0.129299 -0.0614708 0.114547 -0.0989177 0.120446 -0.220993 -0.0214666 0.179604 0.0788265 -0.169817 0.150601 -0.151966 -0.0449997 0.32267 -0.0356687 0.00108336 -0.0961894 -0.116626 -0.185401 -0.0113898 0.177585 -0.472594 0.142133 0.304453 -0.168278 -0.253907 0.0836772 0.152207 -0.0163718 0.0285411 -0.109773 -0.146753 -0.0717878 0.17865 0.415727 -0.736047 0.121736 -0.310816 -0.0377026 -0.241335 0.293494 0.345054 0.493015 -0.0470394 -0.389255 -0.450203 -0.129161 0.115666 -0.250341 -0.0324355 0.173623 -0.643417 -0.442549 -0.352883 -0.241499 -0.356537 -0.702294 0.863388 -0.259203 -0.0920132 -0.129172 -0.195179 0.0278104 0.117975 1.00434 0.117833 -0.327875 -0.992303 -0.414114 -0.32275 0.581737 -0.0782625 0.322362 0.805555 -0.0414363 0.0995795 -0.234383 0.32816 -0.37056 -0.439883 0.102995 0.593304 0.12003 0.343306 0.0441005 0.587973 0.496583 0.58789 0.303899 -0.126216 0.443617 -0.0933831 0.0327408 0.138265 0.217358 -0.370721 0.176149 -0.0617466 0.129094
213 0.0945049 -0.14642 -0.097872 -0.0724672 0.147484 -0.232372 0.169413 0.486951 -0.382477 0.458688 -0.330179 0.0519846 0.195652 -0.268304 0.188919 -0.220545 -0.32559 0.148451 -0.280431 0.023407 0.257842 0.347392 -0.193553 0.285175 0.241971 -0.144325 -0.251023 -0.21935 -0.14728 -0.182347 0.310569 0.23401 -0.077391 -0.0227656 -0.144896 0.152338 0.385457 0.637674 0.0206725 0.122695 -0.339544 0.313516 0.169937 -0.143776 -0.201883 0.222366 0.0235802 -0.0748259 -0.157134 0.291487 -0.145872 0.0859494 0.122852 -0.0332962 -0.154049 -0.102127 0.0364325 0.118441 -0.0581567 0.0415261 0.137516 -0.0504516 0.421842 -0.00315256 -0.908834 0.0209849 -0.197218 0.271407 0.238521 0.0682401 0.14613 -0.0486974 -0.0844884 -0.331794 -0.734604 0.0654625 0.41464 -0.0781861 -0.160118 -0.0137457 -0.557945 -0.136944 -0.458528 -0.0677922 -0.0193149 -0.336431 0.256813 -0.337393 -0.463269 -0.164056 -0.00408189 -0.275543 0.200758 0.983624 -0.107429 0.190782 -0.563638 -0.630461 -0.283806 0.41007 -0.348917 0.431378 0.931838 -0.0473979 0.103233 -0.199126 -0.312702 -0.695808 -0.417029 0.00661555 0.847326 -0.0399994 0.494438 0.121884 0.917042 0.696158 0.562074 0.578818 -0.057977 0.500915 0.0203901 -0.332026 -0.153115 0.492749 -0.891313 0.346093 -0.0922636 0.772335
1525 0.164194 -0.023114 -0.0780053 -0.182666 0.337642 0.219599 0.255825 0.244861 -0.175081 0.0549865 0.300091 0.118682 -0.0546799 -0.252631 0.150709 -0.248993 -0.496636 0.427995 0.0202355 0.36571 -0.272836 0.0174337 -0.136725 0.114265 0.363924 0.00417775 0.217428 -0.232871 -0.183304 -0.0823003 0.275921 0.0172098 -0.129801 -0.279134 -0.068357 0.223214 0.112486 0.336845 0.209108 -0.248721 -0.360041 0.32643 0.234333 -0.0454528 -0.0752311 0.134291 0.211109 -0.287408 -0.0809791 0.152675 -0.13963 -0.0467821 0.114197 -0.164905 0.213539 -0.0386562 0.165769 -0.0119314 -0.0306343 -0.0112889 0.0186719 0.00303215 0.607668 0.224018 -0.631972 0.0848933 -0.0745569 0.206291 0.437597 0.117828 0.0901673 0.079002 -0.26266 -0.27026 -0.427019 -0.0446799 0.278081 -0.000946694 -0.215419 0.152972 -0.594266 -0.370489 -0.517055 -0.175782 -0.0885017 -0.530176 0.532035 -0.262999 -0.327901 -0.182791 -0.331333 -0.0773876 -0.0639325 0.910158 0.171749 0.122088 -0.522596 -0.274327 -0.372152 0.35858 -0.665393 0.368071 1.00109 -0.013437 0.309973 0.0454988 -0.166398 -0.620532 -0.505908 -0.148834 0.629083 0.132552 0.744482 0.051675 0.722072 0.644204 0.496643 0.563029 0.0386604 0.585408 -0.0543224 -0.261229 -0.0797893 0.704563 -0.814159 0.253798 -0.168801 0.773416
11879 0.163549 -0.149538 0.309277 -0.086989 -0.0737281 0.471611 -0.123552 0.0529311 -0.0720372 -0.253598 0.0185789 0.0523634 0.122908 0.175834 0.217899 0.172815 -0.0348344 -0.130441 -0.0847877 0.132485 0.0424827 -0.0238262 -0.265713 0.0231642 0.0242179 -0.111383 0.185679 -0.0112378 0.0616724 -0.212899 -0.120342 0.133864 -0.152645 -0.0368017 -0.24284 0.0476627 0.381893 0.284286 -0.546858 0.0064394 -0.209205 -0.0449198 0.36708 0.0041592 0.0261273 -0.0688596 -0.073684 -0.28943 0.091292 0.10346 -0.273041 0.0549507 0.205128 -0.192553 -0.214782 0.0776524 0.12265 0.0132399 -0.0136279 -0.145805 -0.105941 -0.057856 0.198992 0.422069 -0.578538 0.125665 -0.242833 0.00897634 -0.14049 0.278453 0.244311 0.418841 -0.0160352 -0.391421 -0.474045 -0.109662 0.15221 -0.167893 -0.104338 0.146971 -0.536449 -0.230649 -0.234477 -0.129659 -0.200269 -0.461343 0.440104 -0.18697 -0.0836275 -0.146192 -0.149472 0.0168725 0.0430407 0.764298 0.130035 -0.163757 -0.968899 -0.500584 -0.349557 0.621213 -0.0662404 0.318567 0.857957 -0.0642162 0.148232 -0.204899 0.152146 -0.475283 -0.479768 0.218384 0.642094 0.0386694 0.382146 0.0962159 0.668568 0.664913 0.732037 0.424304 -0.108501 0.601152 -0.00918131 -0.0624833 0.0153516 0.449739 -0.66954 0.259848 -0.0947223 0.3126
9285 0.191442 0.00883558 0.222176 -0.174941 0.00622847 0.0349138 0.0690135 0.0820905 -0.0636198 0.278142 0.232632 -0.0238439 -0.0041385 0.0158695 -0.282854 -0.0841459 -0.292058 0.212262 0.0043492 0.00248457 -0.180688 0.26594 -0.0721562 0.148147 0.0177476 -0.00241223 0.0467981 0.16392 -0.0847668 -0.00698331 0.0886898 -0.20788 -0.127982 0.103873 -0.184037 0.065584 0.128453 0.230265 -0.196224 0.209563 -0.195183 0.193362 -0.0336714 -0.0713253 -0.0130573 0.0957436 -0.135267 -0.0458135 0.051887 0.00310071 -0.170463 0.115052 0.342977 -0.0112553 -0.343787 -7.8361e-05 -0.083165 -0.207623 -0.0312896 -0.116045 -0.0635932 -0.147333 -0.0675096 0.22419 -0.318374 -0.0130393 -0.0759086 -0.0327424 0.0490037 -0.0890119 0.160816 0.116927 -0.0447091 -0.36087 -0.55227 -0.214094 0.239865 -0.283528 -0.333295 0.239791 -0.594932 -0.0917216 -0.0820818 -0.278288 -0.151471 -0.54891 0.64255 -0.279506 -0.311321 -0.295965 0.0185606 -0.100101 0.0263727 0.912641 0.00586253 -0.234263 -0.932875 -0.647043 -0.300203 0.606706 -0.241895 0.357208 0.901586 -0.0856943 0.249441 -0.393048 0.132178 -0.37085 -0.466778 0.0864321 0.575411 -0.0277567 0.606506 0.165712 0.944763 0.474891 0.764675 0.243878 -0.192361 0.877749 -0.013347 0.114963 0.345644 0.403286 -0.504583 0.198476 -0.260553 0.357132
3420 0.271536 -0.0536594 0.388985 -0.115391 -0.0766906 0.370963 -0.0877845 0.0362054 -0.078535 -0.189022 0.0554537 0.0530528 0.158599 0.146307 0.133695 0.137455 -0.0206913 -0.0434234 -0.028096 -0.0225066 -0.0599161 -0.0368888 -0.253478 0.0959966 0.0141133 -0.0828058 0.174077 -0.0203367 0.0858641 -0.17437 -0.0313037 -0.0634535 -0.105833 -0.117807 -0.182815 0.10262 0.317343 0.342113 -0.533414 0.0188179 -0.355166 0.0387739 0.208711 -0.0390832 0.00423369 -0.0111145 -0.0831516 -0.349427 0.198187 0.113867 -0.297898 0.139169 0.236616 -0.160494 -0.350449 0.095986 0.236164 0.0480108 0.0830224 -0.342683 -0.0848544 -0.113955 0.0889804 0.567387 -0.67614 0.160651 -0.282451 -0.0146015 -0.050575 0.267196 0.0317464 0.240595 0.0585599 -0.42736 -0.38358 -0.244624 0.0280546 -0.048173 -0.169044 0.0913603 -0.371231 -0.174013 0.0514347 0.235918 -0.281826 -0.286923 0.259287 -0.10468 -0.278708 -0.217198 0.0233888 -0.00691474 -0.0911757 1.06723 0.162544 -0.170557 -0.85956 -0.567211 -0.102384 0.288315 -0.0958399 0.270184 0.72858 0.0694322 0.0226782 -0.236758 0.148844 -0.470427 -0.509711 0.0858917 0.710195 0.115085 0.518357 0.0899252 0.929155 0.890727 0.617919 0.582423 -0.148102 0.741847 -0.152982 0.0680765 0.192773 0.555027 -0.604887 0.325019 -0.0425587 0.389187
8755 -0.0195406 0.0716536 0.446226 -0.0765426 0.233448 0.0396628 0.130931 -0.196315 -0.145141 -0.112278 -0.0608682 -0.0998433 -0.121399 -0.207066 0.113041 0.0811542 -0.0445218 0.248324 -0.0896515 0.0294366 0.309438 0.302621 -0.286501 0.264456 0.406661 -0.218358 0.355082 0.278825 0.000345519 0.0944032 0.404996 0.308088 -0.15531 -0.060194 -0.0532717 -0.200285 0.230439 0.48502 -0.252633 -0.190664 -0.221149 0.290112 0.214385 0.07032 0.0809672 0.105313 -0.0545877 -0.105908 0.160606 0.0576688 -0.10514 0.106089 0.198685 -0.164842 -0.179716 0.152937 0.188512 0.156401 -0.130624 -0.0604961 -0.0833334 -0.170696 0.105403 0.264097 -0.287334 -2.79184e-06 -0.247136 -0.0293739 0.0118451 0.0697208 0.0580036 0.168851 -0.0312808 -0.410135 -0.523295 -0.0564349 0.158133 -0.141345 -0.340783 0.190423 -0.720265 -0.0377316 -0.100367 -0.0110479 -0.0392486 -0.540303 0.348834 -0.169227 -0.230384 -0.202358 0.0389234 -0.072589 0.0131394 0.727548 0.0430266 0.0244203 -0.809159 -0.683353 -0.166532 0.45986 -0.127814 0.191275 0.65832 -0.154047 0.0911672 -0.441933 0.00539888 -0.452884 -0.506085 0.124461 0.701353 -0.00984228 0.605458 0.373153 0.878373 0.718107 0.694218 0.52831 -0.0864737 0.647199 -0.0137933 -0.151768 0.198944 0.420349 -0.605883 0.401347 -0.0615789 0.126818
