659 128
29 -0.00571976 -0.0116248 0.314356 0.0492304 0.179143 0.342653 0.0502959 -0.127614 -0.126825 0.0446936 0.166842 -0.188042 -0.175274 -0.14168 -0.061216 -0.0399051 -0.160182 -0.0219977 -0.126234 0.105562 0.111437 0.27521 -0.189607 -0.0867425 -0.081568 -0.113481 0.0620046 0.0516358 0.0164749 0.0926322 -0.0168287 0.128458 -0.262231 0.0574688 -0.0010484 0.00504297 0.162402 -0.0700966 0.00788182 -0.0508439 0.053225 -0.0174017 0.099671 0.10314 -0.0176609 0.0334719 0.0460709 0.0480937 0.135523 0.193885 0.0993619 0.137476 -0.116813 -0.171378 0.139958 -0.148171 0.184151 0.00352133 -0.0324078 -0.0112884 0.0148232 0.0480145 0.0107144 -0.06272 0.16238 -0.131077 0.114215 -0.0210853 -0.0956054 -0.175688 0.130573 -0.214962 -0.12539 -0.0728582 0.135533 0.134689 -0.0764891 0.214623 0.0661897 -0.147478 0.209522 -0.112892 -0.140032 -0.413339 -0.304064 0.0714594 0.225904 -0.154228 0.180231 -0.217807 -0.431504 -0.43046 -0.614541 0.546574 0.432825 0.0206784 -0.146005 0.0397008 0.326952 0.221491 -0.00141346 -0.318351 -0.174207 -0.199733 0.366853 0.0812984 -1.00242 -0.363362 0.412444 0.119844 0.00345072 -0.551322 -0.633698 -0.112557 -0.299451 -0.383196 -0.788494 0.600752 0.386825 0.194401 0.259065 0.464734 -1.46585 0.0289397 0.198954 0.0405647 0.155368 0.0357225
41 0.05115 0.0422628 -0.0633999 0.12515 -0.0844122 0.0874666 0.127552 -0.134514 -0.0342817 -0.164274 0.0853676 -0.00818495 -0.0597126 -0.131906 0.00463242 0.0638813 0.168915 0.147568 0.0196048 -0.0345888 0.0737704 -0.0275958 0.0799664 -0.113981 0.0478531 -0.105623 -0.118252 0.0465058 0.0265601 0.00633808 -0.150836 -0.00322952 -0.0887585 0.198422 0.122585 -0.141234 -0.0123763 -0.157485 0.130452 -0.0386663 0.0240365 -0.104585 -0.0649844 -0.049443 0.0858582 -0.127455 0.114231 0.0633609 -0.0987447 -0.0111307 0.094589 -0.00572756 0.0519878 0.00453354 -0.0510007 -0.210909 -0.00733052 0.138393 0.0126475 -0.00100654 -0.0704949 -0.0824041 0.125567 0.155803 -0.0336615 0.134332 0.0156068 -0.0426855 0.025513 -0.051864 0.0562286 -0.0506882 0.0133478 -0.137494 0.34142 0.106272 0.0749122 0.28262 0.115517 -0.236089 -0.00437265 0.0158837 0.250256 -0.0917431 -0.0965356 0.159011 0.168003 -0.193458 0.0166083 -0.0776192 -0.420394 -0.33232 -0.328048 0.550711 0.163752 0.0511166 0.000272097 0.0298042 0.233335 -0.180519 -0.124959 -0.352088 -0.360615 -0.146832 0.392953 -0.0757646 -0.751808 -0.13454 0.40906 0.193151 -0.00538217 -0.583501 -0.565116 -0.00609506 0.042858 -0.23355 -0.598176 0.343727 0.351056 0.232426 0.0838508 0.119663 -1.45067 0.305819 -0.219202 0.0747836 0.0953884 -0.267577
124 0.0451135 0.0631844 -0.122365 -0.0153023 -0.21158 0.128649 -0.0116468 -0.0361821 0.182996 -0.158666 -0.00979308 -0.151149 -0.154924 -0.0361488 -0.0950264 -0.0396435 -0.0658361 0.0291886 0.0673241 0.0638476 -0.121247 0.247713 -0.0438574 0.00532019 -0.111704 -0.0650485 -0.0581416 -0.0109062 0.131685 0.158368 -0.0672141 0.106236 -0.0739081 -0.0288725 0.0948048 -0.132189 -0.140289 0.0304879 -0.0798013 -0.0331443 -0.139335 0.0166588 0.0279509 0.284534 -0.0688167 0.050027 -0.0968951 0.00772899 -0.206805 0.0591284 -0.183361 -0.163252 0.0649855 -0.0090972 -0.0347932 -0.0661427 0.0373743 -0.0492669 -0.015538 -0.0852215 0.0173599 -0.0730643 0.129709 -0.0200804 0.0951023 0.0140231 -0.24796 0.190684 0.293766 -0.0381973 -0.00283577 0.0985576 -0.0346637 -0.0365489 0.280639 -0.0175031 0.0350681 0.442723 -0.0301332 0.119739 -0.0137954 -0.0547919 0.096496 -0.0770469 -0.309486 0.401467 0.0788226 -0.0548284 0.026648 -0.226915 -0.265968 -0.299963 -0.395958 0.168041 0.15393 0.00252494 -0.346045 -0.17119 0.03308 0.037117 -0.258242 -0.345018 -0.118962 -0.131607 0.146245 0.27603 -0.823285 0.00807338 0.487232 0.0826619 -0.0819982 -0.972856 -0.33708 -0.000238392 -0.175192 -0.935122 -0.641034 0.362368 0.269983 0.0852461 0.169992 0.0440474 -1.43719 0.183402 -0.100266 0.0832648 0.14151 -0.186003
735 0.125991 0.312236 -0.32741 -0.0399764 -0.0815595 -0.0599143 0.213309 0.060139 0.0803411 -0.128109 0.146773 -0.131624 -0.228598 -0.210702 -0.0127737 -0.0364066 -0.0123916 0.0167859 -0.0195185 0.24552 -0.0495446 0.23449 -0.0752253 -0.0947523 -0.266749 -0.185207 0.0974624 -0.0818736 0.227741 0.0302321 0.14586 -0.074276 0.128119 -0.0716781 -0.0964617 -0.0583018 -0.0755018 -0.00917604 -0.13183 0.163897 0.0886336 0.164214 -0.0901751 -0.0403299 0.0377587 -0.0598936 0.0751163 -0.150304 0.0586506 -0.0618493 0.118019 0.237555 0.0809766 0.0512607 0.00303784 -0.020515 0.0872971 0.130497 0.0583241 0.0101474 -0.177464 -0.0690442 0.0174761 -0.076713 0.0181709 -0.113766 0.0292577 0.112785 0.216709 -0.196799 -0.165758 0.267427 0.0153136 -0.209128 0.273798 -0.158214 -0.013292 0.155071 -0.0259076 -0.0352151 -0.0408889 -0.00196943 0.141599 -0.122386 -0.0590821 0.193303 -0.0635741 -0.0632106 0.0155849 -0.261977 -0.486923 -0.281596 -0.367851 0.349941 0.262538 0.0234561 -0.262892 -0.200269 0.304621 -0.0385494 -0.245931 -0.49814 -0.559359 -0.270497 0.237936 0.192519 -0.642473 -0.217825 0.219411 0.11996 0.01556 -0.753594 -0.46509 -0.101465 -0.373345 -0.604745 -0.542417 0.46713 0.0560081 0.246949 0.113904 0.245785 -1.46324 0.111201 -0.15838 0.260099 0.151974 -0.116248
78 -0.0289532 -0.151462 -0.0318875 0.00105586 0.0971261 -0.059417 0.0268875 -0.0161217 -0.0205401 -0.049496 0.0837095 -0.00704038 -0.0848898 -0.217658 -0.0939091 -0.0717763 0.125467 0.00746394 0.12752 -0.0758209 -0.00897294 -0.172017 -0.0509704 -0.0888685 0.0297164 0.0769988 0.0664524 -0.0269247 -0.0184784 -0.0270288 0.088781 -0.0285874 0.254012 -0.0854476 -0.0450542 -0.0254758 0.0241838 -0.0614119 -0.115747 -0.0376885 -0.0468374 -0.023556 0.163328 -0.0207391 0.0794733 -0.0217039 0.121664 0.059693 0.114965 -0.0503684 0.108648 0.0890478 0.223551 -0.0494222 0.0915328 0.191654 0.0400557 0.0294919 0.0497272 0.0176626 -0.0516396 -0.0765037 -0.0776053 -0.0299258 -0.0827304 -0.0448548 0.0908829 0.00830526 0.132229 -0.0396352 -0.0507718 0.245063 0.125197 -0.204661 0.278737 0.0363822 -0.0195697 0.340749 0.0802942 -0.149934 -0.12887 0.0323512 0.243573 0.00436161 -0.286328 0.299458 0.152317 -0.243959 -0.0555079 -0.0478953 -0.412431 -0.272233 -0.215335 0.438751 0.312596 -0.0882039 -0.130073 -0.0739378 0.210767 -0.0174644 -0.0302978 -0.393888 -0.160878 -0.142778 -0.00124961 -0.213282 -0.77839 -0.156432 0.353554 0.194674 -0.0284778 -0.714095 -0.437382 -0.0198643 -0.263748 -0.533342 -0.410666 0.405438 0.307653 0.326163 0.0690054 0.28768 -1.53061 0.108757 -0.0519817 0.0451723 0.18923 -0.319318
271 -0.127996 -0.139706 0.0631824 0.00393536 -0.10065 -0.0574381 0.258171 -0.0200339 0.0630444 0.0500244 -0.0369015 -0.0926414 -0.0756853 0.0837793 0.0461995 -0.022637 -0.0831062 -0.17456 0.0732138 0.120811 -0.0605326 -0.0231991 0.175808 0.0874835 0.0584736 0.109172 0.0813041 0.0490045 0.00598154 -0.0159222 0.0678871 -0.202436 0.08478 0.0207224 0.244122 -0.0837586 0.0984015 0.075819 0.20401 0.178981 -0.16298 -0.0130535 0.140358 0.0255567 0.275229 0.0397394 -0.292113 0.092995 0.116218 -0.136347 0.0702126 -0.0900177 -0.0172353 0.0691706 0.0162959 -0.410685 -0.110079 0.0455706 0.0650641 -0.0875199 -0.14266 -0.0395803 0.0845483 0.0197645 0.158374 0.0905662 -0.328944 0.0519777 0.348394 -0.221485 -0.109937 0.0420005 -0.0190812 0.0112845 -0.011315 0.0497359 0.244432 0.365493 -0.158817 -0.284566 -0.15678 -0.147319 -0.0543999 0.123391 -0.0965204 0.411794 0.295609 -0.100389 -0.0206031 -0.122316 -0.642702 -0.492747 -0.395586 0.56991 0.194969 0.317065 -0.222955 -0.0739125 0.101561 -0.0972919 -0.515408 -0.374327 -0.482143 -0.0804411 -0.04891 -0.160664 -0.609068 -0.15613 0.665844 0.203355 -0.0613313 -0.735394 -0.476054 0.0309246 -0.257565 -0.707998 -0.308583 0.341285 0.1495 0.298378 -0.0399234 0.212073 -1.51916 0.188184 -0.0143219 0.325538 0.0583571 0.273599
554 0.122639 -0.130518 0.0638474 0.0851258 -0.0133388 0.00034939 -0.0542678 0.214582 0.0915945 0.0493126 0.0271772 0.0919407 0.182627 0.164928 -0.0839513 -0.205003 0.00647241 0.0780301 -0.0734953 -0.148649 -0.0612294 -0.146124 0.089838 0.162325 0.201051 0.0673041 -0.0640859 0.00641146 -0.117344 0.0219099 -0.0606985 -0.0768585 0.179441 -0.133261 0.0804937 -0.033167 0.104555 -0.0508004 0.30645 -0.0138973 -0.405703 0.291153 0.116314 0.163463 -0.0658395 -0.0649586 0.0883893 0.170305 0.209007 -0.184881 0.098595 0.0228093 0.162392 0.14878 0.00211056 -0.149329 -0.0385666 -0.082727 0.0397564 0.00857359 0.0762117 0.0342435 0.0187475 -0.0839617 0.0536372 0.00373393 -0.149589 -0.0885225 0.273147 -0.233537 -0.0371243 0.0525207 -0.119708 -0.0832173 0.292156 0.0193322 0.187442 0.0917044 -0.0218317 -0.120552 -0.00527756 -0.00382179 0.0781302 -0.110462 0.0172097 0.136092 0.0295139 0.0760401 0.00172936 -0.0639008 -0.518324 -0.484687 -0.578093 0.850566 0.431934 0.257887 -0.365855 -0.112578 0.304865 0.0355056 -0.307365 -0.273409 -0.0374781 -0.182664 0.0299478 -0.0156406 -0.589514 -0.0902072 0.499678 0.0663224 -0.11591 -0.688744 -0.419423 0.0660203 0.0149241 -0.148906 -0.778964 0.537803 0.213178 0.270733 0.0634115 0.409318 -1.46735 0.171644 -0.140936 0.149722 0.0619167 -0.00496783
97 0.140723 -0.0161366 0.125203 -0.118339 -0.106217 -0.125271 -0.108004 0.0534894 -0.0126984 -0.0534571 0.0202536 0.11721 -0.122155 0.158386 -0.0225636 -0.0332669 0.0698863 0.0762859 0.031292 -0.0110507 -0.0430967 0.0211753 -0.0321977 0.1109 0.222346 0.256524 0.000674038 -0.0125079 -0.0655464 -0.166289 0.108011 0.116286 -0.0202806 -0.0368644 0.19312 0.0445552 0.147995 -0.121392 0.216226 -0.0664889 0.0694964 0.235061 0.00381775 -0.0649033 0.174314 0.114715 -0.0874968 0.0583699 0.0624749 -0.146561 -0.00792724 0.0879078 0.298465 0.131464 -0.0861936 -0.134147 0.0570317 0.120739 0.00847453 -0.182135 0.23665 0.123054 0.0606693 0.0655963 -0.0647739 -0.0141432 0.0618633 -0.106508 0.0966525 -0.196824 0.134368 0.170342 0.117495 -0.0481389 0.405636 0.0868264 -0.0616509 0.217177 -0.131467 -0.0761931 -0.122964 0.131466 -0.0358187 -0.0279789 -0.210585 0.143995 0.118149 -0.216534 -0.00378138 -0.156121 -0.578324 -0.302643 -0.380788 0.517405 0.284825 0.257295 -0.176993 -0.106327 0.125379 -0.38007 -0.0542629 -0.389506 -0.4538 -0.154736 0.146884 0.0696464 -0.625072 -0.157083 0.541424 0.0255565 0.0765252 -0.773566 -0.273166 -0.205172 -0.333799 -0.244154 -0.655526 0.280585 0.206264 0.599855 0.240635 0.138487 -1.54864 -0.0186867 -0.0950696 0.129803 -0.00929955 0.0289186
179 0.219029 -0.312519 0.0476414 -0.041116 -0.165271 -0.151238 0.203124 -0.10185 0.041423 -0.0402151 0.00360124 -0.0643617 -0.0873718 -0.223349 -0.0334361 0.286235 -0.0540302 0.119592 -0.0849481 0.00761176 0.070572 0.0755418 0.215067 -0.0805129 0.000977441 -0.102901 -0.0527663 -0.00779448 0.149961 0.235309 0.0564937 -0.0910708 0.278613 -0.17563 0.162161 -0.00804718 -0.138627 -0.0744026 0.25106 -0.0813136 -0.0261627 0.109994 -0.0363337 -0.0304646 0.193925 0.00755554 -0.0143468 0.0404778 0.0892317 0.0958665 0.159557 0.0303289 0.137539 0.0978527 -0.0595996 0.211013 -0.171664 -0.0386818 0.0868572 -0.0623474 0.116967 0.109734 -0.25751 -0.0032677 0.0317488 0.0627763 -0.0454174 0.041738 -0.104412 0.0496256 -0.0869956 -0.00670204 0.0237438 0.189938 0.576673 0.0718484 0.0216555 0.46744 0.0330986 -0.0288803 -0.251277 -0.000746953 0.00449228 -0.0845221 -0.287358 0.406463 -0.101589 -0.119771 -0.122033 0.0684444 -0.313816 -0.437674 -0.434642 0.437083 0.285783 0.116136 -0.112973 -0.175715 0.114791 -0.114332 -0.360888 -0.24938 -0.137135 -0.595645 0.306538 0.0315449 -0.616009 -0.321435 0.270111 0.109136 0.311456 -0.678974 -0.266967 -0.296492 -0.563552 -0.380552 -0.61419 0.556124 -0.0568463 0.344405 0.191763 0.10172 -1.42959 0.121991 -0.0995497 0.14239 0.271208 -0.0571124
515 -0.0268352 0.0272863 -0.172805 0.101266 0.192811 -0.0421265 0.146567 0.120654 0.133994 -0.172676 0.168188 0.00334372 -0.037335 0.0147066 -0.172684 0.0268514 -0.0551629 -0.190061 0.128687 0.279749 -0.0116496 0.148161 0.0296846 -0.0324498 0.0108766 -0.0298561 -0.112302 -0.155656 -0.114682 0.0130101 0.050698 -0.147031 0.25593 -0.0710165 -0.131878 0.00420978 0.0231323 0.0812072 -0.285416 0.0129726 -0.21371 0.0924079 0.0873781 0.0309223 0.0719738 0.151295 0.106204 0.10478 0.086412 -0.131159 -0.0837602 0.111625 0.0423933 -0.0968975 0.00993878 -0.153681 0.0143053 0.126848 0.225105 0.110834 0.0773265 -0.152168 -0.177122 -0.270225 0.199962 -0.279674 -0.346223 -0.0145571 0.49794 -0.17922 0.0399275 0.177725 -0.0207014 0.0353981 0.0498702 -0.336372 0.153627 0.36594 0.00071413 -0.138933 -0.000914298 -0.12443 0.152512 -0.0860064 -0.346599 0.208061 0.230506 -0.174341 -0.0941915 -0.279929 -0.21738 -0.138966 -0.429974 0.518885 0.639403 0.238074 -0.249978 -0.174225 0.453791 -0.0370788 -0.0937571 -0.558025 -0.196768 -0.319364 0.120503 0.0147619 -0.600833 -0.266127 0.192312 0.154523 -0.188894 -0.587745 -0.509801 -0.0719085 -0.428969 -0.635677 -0.209113 0.405222 -0.0811431 0.236054 0.231349 0.0930088 -1.56167 0.108172 -0.327027 0.240425 0.219887 -0.0111556
181 0.146701 -0.00400759 -0.0210847 -0.125811 -0.134753 -0.061935 -0.0684602 0.081562 -0.0708157 0.0978294 -0.0786032 0.132667 -0.102465 0.106362 0.163044 0.0413005 0.116119 -0.0424972 0.0842516 0.0313232 -0.0600797 -0.0241297 0.000581553 0.132601 0.00966482 -0.0708046 -0.0648814 -0.0801734 -0.0797048 0.124784 -0.0145346 0.0955371 -0.0687233 -0.041934 0.185844 0.0501191 0.176068 -0.0951449 -0.231831 -0.0212049 0.0512112 0.0713118 0.0698152 -0.22246 0.173155 0.166489 0.00235728 0.0838275 0.143526 -0.0852728 0.0232513 -0.0171104 0.115197 0.0924493 0.0440974 -0.0991137 0.0707829 -0.0134537 0.00766921 0.162762 0.0288194 -0.0191243 0.0565147 0.0538523 0.0266871 0.0482225 -0.00960011 0.00476279 0.126572 -0.0714005 0.0762778 0.0846053 0.00169561 -0.0382276 0.430018 -0.135706 0.0424583 0.0998387 -0.0838321 -0.0784686 -0.192993 -0.0481811 0.17174 -0.136407 -0.0943259 0.271066 0.31129 -0.356352 0.0322786 -0.187288 -0.475162 -0.505554 -0.340276 0.615408 0.348763 -0.000439477 -0.317977 -0.132159 0.226905 0.0353041 -0.363725 -0.583604 -0.0127376 -0.0669447 -0.209534 -0.124612 -0.65573 -0.114379 0.199749 0.148062 -0.0496712 -0.899384 -0.197729 0.0261105 -0.22838 -0.390085 -0.658963 0.443971 0.297024 0.341418 0.0791311 0.144459 -1.5646 -0.112965 0.140148 0.188361 0.210594 -0.0316411
83 -0.0239282 0.0433275 -0.257817 -0.215247 -0.0527705 -0.14345 -0.0965127 0.0059811 -0.136943 0.24308 -0.163696 0.141784 -0.0270012 0.180989 -0.0248227 0.0388076 0.132795 -0.0213173 -0.167677 0.287895 0.0924592 0.100594 0.00170057 0.0877659 -0.0141174 -0.101401 0.0710432 -0.0571571 -0.163766 -0.00894161 0.126271 -0.0442396 -0.144978 0.0129976 -0.0392013 0.0237302 0.168774 -0.0372428 0.00280242 0.210684 0.000111753 0.176446 -0.145183 -0.152238 -0.0948557 0.00319575 -0.0305972 0.11272 0.0678366 0.181143 -0.0342204 0.182487 -0.00147361 0.0649446 0.0238716 -0.153842 0.110662 0.0710354 -0.0307482 -0.0211201 0.0346933 -0.0218107 0.0275155 -0.0323807 0.0474156 0.00313142 -0.0998609 -0.0909549 0.119439 0.0129949 0.0974663 0.152214 0.260496 -0.164258 0.443969 0.1077 0.125251 0.116293 0.117047 -0.0464026 0.00559577 0.0417781 0.118981 -0.0101409 -0.230474 0.176892 0.0394364 -0.223714 -0.0166439 -0.0111043 -0.515382 -0.582134 -0.184479 0.506374 0.121411 0.163864 -0.178097 -0.0747432 0.269646 -0.240595 -0.250779 -0.342189 -0.241838 -0.320469 0.160763 -0.0444176 -0.747771 -0.178459 0.366058 0.10145 0.081712 -0.827645 -0.532736 -0.198136 -0.328654 -0.448247 -0.610718 0.380396 0.15509 0.470097 0.0446499 0.21367 -1.54266 0.228603 -0.00786169 0.306862 0.119525 -0.146634
34 -0.199722 0.215249 0.0233749 0.0411899 -0.0293727 0.016157 -0.117423 0.133565 0.0266065 0.0856601 0.0575179 0.0259548 0.0858178 -0.350388 0.052364 0.0316687 -0.015439 -0.055728 0.159667 -0.0636809 0.103538 0.00508778 0.0560437 -0.0677712 0.00101484 -0.116428 0.0710088 0.0655728 -0.202091 -0.230826 0.0255099 0.0852551 -0.0708153 -0.018685 -0.196406 -0.00382217 -0.129206 -0.130969 0.124816 -0.10912 -0.0365982 0.0713092 -0.118362 -0.159641 0.074307 -0.116222 -0.104356 -0.169543 0.0729414 0.0866115 0.171269 0.0921819 -0.0836555 0.101769 -0.0634834 -0.0704406 -0.0140728 0.114366 -0.14504 0.187028 0.018122 0.141107 0.17949 -0.0639178 -0.0607227 -0.0725393 -0.004732 0.0674217 0.191435 -0.203647 -0.0669316 0.0940109 -0.0419237 -0.106269 0.448767 -0.111665 0.159815 0.201297 0.0581735 -0.0175533 -0.0469908 0.163636 0.314957 -0.0264373 -0.0520466 0.309176 0.0639681 -0.247451 -0.036351 -0.00198522 -0.608732 -0.425484 -0.0885387 0.311729 0.251542 -0.0443799 -0.288695 -0.0987373 0.23359 -0.165724 -0.119542 -0.202918 0.0652881 -0.307347 0.297054 0.0418928 -0.871639 -0.425283 0.163238 0.0985542 0.0881601 -0.88266 -0.655088 -0.0490146 -0.234683 -0.413148 -0.587538 0.150701 0.157305 0.231147 0.23409 0.292774 -1.3042 0.155441 -0.218869 0.20528 0.344616 -0.137368
772 0.0233461 0.0380763 -0.0219073 0.100016 0.174143 -0.0964257 0.0590155 0.136002 0.0977291 0.0529288 0.00242753 0.026037 -0.147971 -0.205483 -0.100727 -0.110486 -0.0612912 -0.0211645 0.0336299 0.177981 -0.0216652 0.120253 0.230907 0.0274597 -0.0665805 0.244114 0.029672 -0.0232645 -0.00750236 0.0413151 -0.0217392 0.0172162 -0.230523 0.134533 -0.154364 -0.113035 -0.0672613 -0.030166 -0.114633 0.170483 0.0190683 0.218976 -0.156545 -0.0751348 -0.0154839 -0.189632 0.0170667 0.0716036 0.0186637 0.0680914 0.170864 0.19491 0.289252 0.16061 -0.136179 0.0413904 -0.0034316 0.136034 0.027227 0.039122 0.0355452 -0.00250446 0.0779128 -0.00999299 0.0845438 0.0189737 -0.0899358 0.0553942 0.0937821 -0.0855813 -0.102418 0.0544374 0.0272339 -0.0694535 0.526081 -0.268688 0.0104679 0.372691 0.0539734 -0.0670266 -0.0531576 -0.0296443 0.188399 -0.207919 -0.425338 0.432643 -0.130018 -0.312017 -0.0906136 -0.249906 -0.175112 -0.162461 -0.358045 0.511914 0.315651 0.114463 -0.468984 -0.304761 0.33756 -0.155287 -0.229057 -0.502767 -0.212175 -0.440252 0.170828 0.260005 -0.882014 -0.211568 0.455499 0.139017 0.129086 -0.991201 -0.218755 -0.15732 -0.172614 -0.145611 -0.586082 0.264068 0.0272004 0.0625119 0.173922 0.134871 -1.6592 0.198015 -0.227253 0.18966 0.146687 -0.0614656
18 0.0919054 -0.0472571 0.0922971 0.0385988 -0.0853971 -0.0325612 -0.0119782 0.0877735 0.097196 0.0573464 0.112733 -0.0326042 -0.0255586 0.0448865 -0.0111567 -0.00869614 0.0508753 -0.0202142 0.111504 0.0121458 0.060267 0.0795655 -0.0513586 -0.112753 0.0255354 -0.0608274 0.0564639 -0.0184413 0.013942 0.0615911 -0.0563503 0.0529717 -0.0545801 -0.0457617 -0.000502034 -0.113813 0.0528627 -0.109335 0.0968172 -0.0932345 -0.0233232 0.0804224 0.0136863 0.0090914 0.00291174 -0.0418624 0.136243 0.126003 0.0526921 0.0151883 0.0519443 0.0544397 0.182319 0.0486262 -0.0261817 0.138226 -0.0944991 -0.0396502 -0.008605 -0.0263964 0.0799063 0.0243336 0.0185448 0.115649 0.0596023 -0.0276008 -0.0881294 -0.11605 0.176005 -0.218927 0.0602006 0.131281 0.0862137 0.0480892 0.472549 -0.0040393 -0.00649008 0.323093 -0.0860447 -0.104858 -0.0118533 -0.0707781 0.0573721 -0.0372679 -0.290253 0.382146 0.122948 -0.244769 -0.0703732 -0.0710647 -0.460076 -0.415517 -0.361143 0.54386 0.353889 0.167097 -0.132362 -0.0524514 0.265877 -0.0255861 -0.283467 -0.399846 -0.244709 -0.455198 0.207644 0.265375 -0.693225 -0.339439 0.463337 0.192281 0.0712958 -0.461771 -0.295768 -0.115062 -0.237682 -0.244402 -0.646814 0.420159 0.162861 0.425211 0.274392 0.0817739 -1.65737 0.210824 -0.144931 0.250428 0.16535 0.186026
462 -0.0986948 -0.0401341 0.129417 -0.0698901 -0.00763327 -0.00562464 0.000838202 -0.00455639 0.0865127 0.203844 0.0580673 -0.0514332 0.119229 -0.221865 0.0306355 -0.125704 0.0800282 0.0209143 -0.0130899 0.00864001 -0.0121254 -0.00949295 -0.142908 -0.191214 0.0987302 0.0449599 -0.0121442 -0.157721 0.020614 0.246206 -0.269706 0.0570536 0.0736218 -0.123406 -0.0426487 -0.0916187 0.0810586 -0.165283 0.0267434 -0.141401 0.110627 -0.172387 0.0492545 -0.0305081 -0.0623276 0.00622927 0.326997 0.216396 0.0542719 -0.0238757 0.0653543 0.0733146 0.211587 0.0997054 -0.0539416 0.083478 0.0586682 0.026392 0.0681455 0.0662535 0.0325574 -0.0399274 0.201989 0.0762163 0.0708404 -0.097045 -0.036533 -0.0855674 0.259887 -0.273157 0.107953 0.191804 0.0829173 0.03975 0.411625 -0.101201 0.0117641 0.367735 -0.0735364 -0.185782 -0.152452 -0.0727203 0.0311145 -0.138015 -0.0883002 0.201634 -0.0344513 -0.221675 -0.177339 0.061422 -0.537017 -0.431695 -0.464092 0.594605 0.414956 0.191379 -0.226533 -0.0924381 0.310901 0.00913031 -0.262431 -0.48793 -0.333851 -0.323603 0.311222 0.0765928 -0.821635 -0.274778 0.579458 0.078347 -0.0163242 -0.595847 -0.411963 -0.119679 -0.176047 -0.29989 -0.720955 0.467826 0.211339 0.240416 0.216947 0.23973 -1.70168 0.195929 -0.238401 0.19655 0.136409 0.129719
137 -0.120932 0.0111406 0.162425 -0.0310666 0.0176706 0.140308 0.0744167 -0.0256701 0.00605128 0.0939786 -0.0708905 -0.107408 0.0339987 -0.0948583 0.0319295 0.00996697 -0.0151339 0.00587516 -0.0807068 0.0751307 0.0344996 -0.00543893 -0.0205971 0.104723 0.0511141 -0.0354715 -0.0320181 -0.144189 0.0794473 0.153365 -0.0473806 -0.0594 0.0700007 -0.184379 -0.177538 0.0546961 -0.0801156 0.0723303 -0.0655148 0.125409 0.156511 -0.0850834 0.0311788 -0.0677455 -0.0956145 0.153239 0.17822 0.0992585 0.0104951 0.016315 0.0301311 0.135607 0.162707 0.0407914 0.0486134 0.0831214 -0.0122557 0.0338045 0.193894 -0.00837514 0.0292114 -0.0216525 0.253926 0.100264 0.156688 -0.173811 -0.271727 -0.0958216 0.237139 -0.248868 0.0401425 0.197606 0.0183421 -0.00419413 0.528076 -0.0430755 0.0166056 0.315913 -0.0637796 -0.0617235 -0.143394 -0.0200588 0.0228597 -0.29278 -0.0710183 0.313567 -0.082224 -0.222591 -0.251776 0.252586 -0.473347 -0.357353 -0.421278 0.441238 0.292504 0.185761 -0.137836 -0.120757 0.273585 -0.112702 -0.300731 -0.443067 -0.159463 -0.288742 0.155469 0.0173374 -0.85036 -0.0356659 0.430684 -0.0681006 -0.0402275 -0.866726 -0.419005 -0.0728352 -0.14843 -0.338714 -0.817644 0.331401 0.105035 0.315206 0.370101 0.0142393 -1.66314 -0.042359 -0.193684 0.193858 0.185306 0.206334
693 -0.0321905 0.00953109 0.0422096 0.0410386 -0.0425352 0.0581209 0.0502273 -0.0482069 0.022969 0.0301706 0.0847352 -0.134345 -0.0221401 -0.172566 0.0882042 0.0223945 -0.0427857 0.0399104 0.0672351 -0.00726568 -0.019277 0.0880224 -0.11961 -0.176998 0.040119 9.13e-05 -0.10464 -0.0323247 0.0169725 0.0938881 -0.17507 0.0168085 0.0543654 -0.133937 -0.120124 -0.0493873 0.00093032 0.048998 0.0177115 -0.0724265 0.0929438 -0.200535 0.0540785 -0.0137236 0.0624125 0.0377115 0.0445559 0.0017296 0.0526802 0.117562 0.0208044 -0.00510372 0.0334646 -0.00453021 -0.0417584 0.218319 -0.0100717 0.00763678 -0.00283858 -0.0754424 0.293289 -0.0984917 0.184907 0.241649 0.240433 -0.131881 -0.245238 -0.0119707 0.290934 -0.249948 0.0474287 0.178902 0.0314767 0.0110373 0.499482 -0.0425553 -0.0474498 0.471367 0.0236242 -0.146057 -0.0810241 -0.152011 0.0476258 -0.202973 -0.145194 0.32929 0.0800785 -0.193904 -0.0619648 -0.0418905 -0.521489 -0.463391 -0.373097 0.50403 0.360689 0.0602696 -0.241838 -0.113668 0.317198 0.00446305 -0.340167 -0.620758 -0.350069 -0.3086 0.268763 0.113585 -0.9317 -0.297978 0.297469 0.126165 0.0397764 -0.551642 -0.361588 -0.104482 -0.311126 -0.434376 -0.706151 0.508614 0.130143 0.313255 0.2329 0.136855 -1.73535 0.158861 -0.0888945 0.2225 0.179954 0.160099
119 0.128035 -0.0493818 -0.00713705 0.216487 0.0829722 0.0875088 0.048463 0.0023622 -0.047521 0.0714631 0.0383243 -0.0833461 0.000107889 -0.0692916 0.0599238 0.0552667 0.13236 0.0404219 -0.0305944 -0.00169847 -0.00968651 0.0412529 -0.120742 -0.148417 -0.134107 -0.0122821 -0.11497 0.0152726 -0.0149266 -0.0467285 -0.0105101 -0.0138019 0.0319604 0.0224223 -0.116656 0.0192608 -0.0831694 0.0761699 -0.0787098 0.196663 -0.0160135 -0.00134784 0.0130178 0.00848322 -0.0677254 -0.0619907 -0.0886483 -0.0126532 0.0517897 0.108246 -0.0365901 -0.112024 0.0499072 0.103818 0.0729944 0.25085 -0.0649864 -0.199661 0.0600924 0.0317007 0.132201 -0.238627 0.0569037 -0.0667156 0.112831 -0.0166572 -0.12039 0.00844539 0.315027 -0.164456 -0.0239682 0.192325 0.0468147 -0.0699667 0.276701 0.0314397 0.107077 0.480183 0.0531459 -0.045128 -0.222328 -0.167563 0.0505994 -0.134732 0.078063 0.150528 -0.0437246 -0.0937405 -0.123068 0.0743492 -0.41957 -0.507479 -0.456712 0.486735 0.215613 0.0413342 -0.253662 -0.201381 0.156209 0.0508619 -0.442971 -0.512383 -0.337056 -0.448427 0.218125 0.073986 -0.73792 -0.209699 0.237572 0.0195021 0.0865818 -0.686305 -0.375355 -0.265949 -0.102335 -0.297128 -0.694798 0.385089 0.0868515 0.404551 0.25539 0.197879 -1.55829 0.225039 -0.256717 0.200517 0.194614 0.102267
491 -0.0320084 0.0342955 -0.0055905 0.0766026 -0.0705009 0.0945271 -0.141031 0.159754 0.110824 -0.0508969 0.204482 -0.105695 -0.168834 -0.0428055 -0.126703 -0.0885146 0.0832795 -0.118739 0.127115 -0.0353538 0.012573 -0.0809027 -0.0141303 -0.146847 -0.0220296 0.0181684 0.100661 -0.0235642 -0.0924926 0.0468289 0.0775738 -0.0256619 -0.0547969 0.133871 -0.146778 -0.198423 -0.305006 0.0239256 -0.0533107 -0.153918 0.0494737 0.00306213 -0.0309947 0.12757 -0.168613 -0.069477 0.0746312 -0.0707333 -0.196166 0.0392641 -0.0318786 -0.0865128 -0.0158327 0.0284494 0.0857802 0.307713 -0.222725 -0.187276 -0.156443 -0.14729 0.272611 -0.146892 0.290806 0.233316 0.0339046 -0.00282875 -0.0128487 0.125485 0.28888 -0.0999967 -0.0123613 0.112385 -0.207175 0.190991 0.585164 0.137062 0.0886942 0.355611 0.125195 -0.0328976 -0.165994 -0.288041 0.083613 -0.241123 -0.108731 0.366919 -0.0763952 -0.0790117 0.0484237 -0.0541677 -0.515936 -0.588166 -0.367447 0.699724 0.329842 0.0913927 -0.212907 -0.129762 0.29733 -0.0341852 -0.405175 -0.402974 -0.294775 -0.36495 0.329469 -0.0157864 -0.775897 -0.132976 0.365988 0.0442726 -0.0789668 -0.344227 -0.418855 -0.0926417 -0.157919 -0.328603 -0.666751 0.400162 0.269846 0.381385 0.0516374 0.29973 -1.749 0.21117 -0.143619 0.126798 0.144968 -0.13375
163 -0.0701525 -0.0363988 0.00711342 0.0359907 0.0491451 0.0296936 0.0545826 -0.0270303 0.0290553 0.0318296 0.104396 -0.0603172 0.130868 -0.198847 0.0427617 0.106605 0.118568 0.031346 0.0596782 0.0463323 -0.0498937 -0.0111492 -0.159909 -0.181892 -0.0293905 -0.00577598 -0.071555 -0.118803 -0.0532082 0.142027 -0.202788 0.0807682 0.127064 -0.098273 -0.0578515 -0.0469693 -0.0200657 0.0745235 0.130533 -0.0324168 0.0522513 -0.0656609 0.0318026 0.0568595 0.0112501 0.0184364 0.0595325 -0.0216238 0.0238383 0.14006 -0.0236542 0.08006 0.0486491 0.0333072 -0.147375 0.147019 0.0378062 0.0986559 0.0115296 -0.0206455 0.298612 -0.115479 0.294412 0.235768 0.133212 -0.064781 -0.200759 -0.0393584 0.277049 -0.222282 0.0686731 0.151364 0.00924639 0.0037756 0.467661 -0.099937 -0.0116913 0.360498 0.081978 -0.124024 -0.0783676 -0.133738 0.105844 -0.136634 -0.0829508 0.254361 -0.0990858 -0.113049 -0.111479 0.046364 -0.487466 -0.483431 -0.367308 0.618748 0.352514 0.101909 -0.330647 -0.19674 0.300017 -0.0270012 -0.352618 -0.484609 -0.218614 -0.354334 0.219572 0.112272 -0.857273 -0.274956 0.393047 0.0722086 0.0332639 -0.566748 -0.389566 -0.108379 -0.152865 -0.311807 -0.757498 0.457873 0.161944 0.317538 0.159142 0.177652 -1.65911 0.264317 -0.170679 0.163375 0.183397 0.0150697
359 -0.116227 -0.181354 0.130862 -0.0237929 -0.182065 -0.199756 0.046959 0.0128821 -0.0203396 0.0925226 -0.0383305 0.0331998 -0.0806975 0.0171932 0.0767508 -0.0282179 0.0373132 0.12909 0.112345 -0.0111507 0.0419947 -0.121765 -0.0478217 0.0556395 0.025366 -0.0338666 -0.0670468 -0.00478263 -0.00667271 -0.0551769 0.175004 -0.138099 0.175256 0.0297919 0.124209 -0.0798165 0.104499 -0.20986 0.0827936 0.0196216 -0.197371 0.0853367 0.10684 -0.314687 -0.0416147 0.0951976 0.268879 0.21688 0.071236 -0.0365401 -0.13536 -0.245733 -0.0748266 -0.143256 0.00745192 0.0869477 -0.0502161 -0.160768 0.0558571 0.0513452 -0.0766704 -0.0277613 0.0255719 -0.0406939 0.0492642 -0.0238672 0.0346014 -0.0242268 0.112153 -0.00713318 0.0098939 0.250091 0.163209 0.293286 0.256105 -0.0138315 -0.0380912 0.0960861 -0.102598 -0.0021534 -0.157226 0.00801957 -0.12698 0.028581 -0.0570456 0.276188 0.0940265 -0.146849 -0.11532 0.0493729 -0.578857 -0.463467 -0.427877 0.681505 0.34923 0.166491 -0.259427 0.131359 0.353558 -0.0430323 -0.0547993 -0.397375 -0.421076 -0.061187 -0.0956036 0.028807 -0.786063 -0.148646 0.371548 0.170066 -0.160792 -0.738917 -0.283134 0.0764647 -0.234555 -0.411828 -0.458312 0.729317 0.351708 0.593969 0.257056 0.282633 -1.3371 0.147416 -0.0758487 0.20513 0.121633 0.227818
292 -0.17891 -0.151378 0.0733189 0.064206 -0.00833179 -0.257144 -0.164283 0.220979 0.164823 -0.00127006 0.0452088 -0.00411759 0.143214 0.134783 -0.00365637 0.0407626 -0.274808 -0.0684274 -0.036471 -0.235312 -0.0607145 -0.250437 0.149348 -0.108894 0.109344 -0.234834 0.00802844 -0.0422843 -0.0685617 0.115251 -0.000141266 0.0641719 0.0347431 0.0744288 -0.098539 -0.0164372 -0.0355693 0.138028 -0.132556 0.0136907 0.00596289 0.163099 0.116526 0.0324839 -0.0244469 0.1886 -0.121788 0.047699 0.155044 -0.100569 0.0589323 -0.070173 0.120511 0.0972956 0.157601 -0.351201 -0.227189 -0.0353939 -0.00314567 -0.0361093 -0.223855 -0.00933488 0.0561412 -0.00165385 0.0152806 -0.00834182 0.100041 0.10839 0.16047 -0.0125878 -0.022847 0.2399 -0.00202729 0.129967 0.247791 -0.21843 -0.0132649 0.0272019 -0.0511177 -0.0318009 -0.0677335 -0.108994 0.0250705 -0.00529439 -0.0743304 0.0759764 0.0175888 -0.153188 -0.0746459 0.0111922 -0.580984 -0.653398 -0.294873 0.738716 0.484294 0.0842072 -0.215876 -0.0261049 0.276025 -0.116123 -0.299865 -0.540348 -0.453005 -0.418427 0.143822 -0.0421367 -0.756781 -0.175267 0.464538 0.136439 -0.188841 -0.6397 -0.393822 0.0546594 -0.0576205 -0.394509 -0.759687 0.452376 0.472534 0.577332 0.180165 0.239033 -1.48418 0.0648974 -0.253459 0.0381945 0.0230588 -0.139656
17 0.100927 0.0529087 -0.173201 -0.112979 0.0182959 -0.0649597 -0.131533 0.0185987 0.159093 0.162272 -0.174959 -0.0286412 0.128562 0.00399079 -0.00975583 0.0370612 -0.0525739 -0.082029 -0.0854872 -0.231438 -0.013375 -0.0509987 0.156329 0.128098 -0.0214405 -0.146706 -0.108946 0.0103486 0.0740907 0.0381995 -0.124806 0.0161475 0.126473 -0.0483239 -0.0281908 -0.0882477 0.0736023 -0.0211653 0.138338 -0.179054 -0.0883396 0.0988226 0.0591272 -0.0891093 -0.116788 0.0373586 -0.129695 0.0509954 -0.0165556 -0.0850499 0.144017 -0.0944556 0.16986 0.207369 0.0311041 -0.0756756 -0.0363878 -0.239014 -0.0573297 0.0669165 -0.141073 0.0646855 0.0348397 -0.106497 0.0360279 -0.19098 0.0875476 0.125989 0.0365007 0.0964558 -0.0493248 0.157123 0.178937 0.0906385 0.338688 -0.0692518 -0.0542699 0.302532 0.130903 0.0184698 -0.0462251 -0.0458052 0.0616249 -0.0799029 -0.163376 0.132416 0.0108916 -0.193532 -0.10521 -0.110892 -0.456149 -0.545887 -0.503142 0.567993 0.39131 0.0350037 -0.177938 0.0699133 0.343254 -0.099665 -0.0907515 -0.446277 -0.499113 -0.0219255 0.219339 0.0800018 -0.755257 -0.235882 0.454613 0.229401 -0.167226 -0.787447 -0.277757 0.117251 -0.316887 -0.507889 -0.590504 0.706209 0.159649 0.207271 0.289693 0.0967107 -1.39763 0.230598 -0.225268 0.294627 0.0532009 0.146077
546 -0.0302346 -0.244411 -0.0885009 -0.101621 -0.122967 -0.355765 -0.102202 0.21512 0.118689 0.0987953 -0.0607098 0.04628 0.334909 0.214817 -0.131389 0.111067 -0.4795 -0.251428 -0.050724 -0.0250871 -0.147145 -0.0852111 0.282308 -0.0750583 -0.0583508 -0.223932 -0.118763 0.0237187 -0.00827568 0.272834 -0.0621591 -0.107394 0.116755 -0.000780239 -0.0534215 -0.0259536 0.174095 0.0120558 0.0427899 0.0780007 -0.112011 -0.0394899 0.0535 0.0496565 -0.0643149 0.134064 -0.141296 0.0830689 0.0266448 0.186789 -0.0977459 -0.131754 0.0101813 0.0253603 -0.0464515 -0.235536 0.120063 0.0671236 0.0303043 0.0746513 -0.258901 -0.0521422 0.0980832 -0.00939549 0.0498448 -0.0656887 -0.0751954 0.0089307 0.0546059 -0.0180848 0.010541 0.321136 0.202844 0.0807517 0.309883 -0.238352 -0.108457 0.0882821 -0.0110222 -0.0638982 -0.0843302 -0.0265809 0.0617807 -0.116577 -0.18814 0.123555 0.185245 -0.368904 -0.0710297 -0.143338 -0.514245 -0.618471 -0.328731 0.529476 0.449254 0.163944 -0.22449 0.0652349 0.384571 -0.19433 -0.216359 -0.679258 -0.595317 -0.366281 0.37698 0.0991261 -0.767784 -0.21567 0.425802 0.12653 -0.118774 -0.917113 -0.420195 -0.043731 -0.158608 -0.445202 -0.716813 0.48938 0.290357 0.372961 0.215735 0.195957 -1.62877 0.235598 -0.193995 0.20561 0.155688 -0.0217911
549 -0.0750563 -0.147697 -0.0994422 -0.128469 -0.0887128 -0.332956 -0.139317 0.170186 0.165294 0.175897 -0.120194 0.103062 0.365978 0.207572 -0.190403 -0.0172121 -0.502018 -0.293214 -0.0603512 -0.0281653 -0.185832 -0.0711832 0.271293 -0.0908063 0.0471211 -0.228424 -0.151899 0.016297 -0.0764676 0.338902 -0.0836143 -0.151284 0.104326 -0.0369537 -0.123243 -0.0623638 0.114742 0.0553754 0.0691916 0.00296754 -0.0904068 0.0205526 0.0218766 -0.0266307 -0.0567149 0.15251 -0.183223 0.127769 -0.00885015 0.175299 -0.16617 -0.18489 0.0490697 0.115023 -0.0419653 -0.255346 0.10285 0.0354557 0.00269916 0.076117 -0.258986 -0.0167192 0.0873839 -0.046096 0.0643446 -0.0723381 -0.0710588 -0.00687324 0.137716 -0.0673054 0.0647057 0.351502 0.291569 0.0697568 0.281725 -0.220967 -0.0596012 0.12505 0.0228955 -0.0428167 -0.118897 -0.0494885 0.0771952 -0.108452 -0.177751 0.0933177 0.170932 -0.436218 -0.119283 -0.0909317 -0.503922 -0.679388 -0.367557 0.535096 0.48524 0.244396 -0.203884 0.056043 0.399798 -0.223313 -0.203519 -0.662106 -0.616817 -0.425174 0.423586 0.052686 -0.744423 -0.226478 0.4163 0.113756 -0.119022 -1.10162 -0.450001 -0.0767914 -0.22079 -0.370417 -0.728491 0.487 0.22974 0.322625 0.264117 0.158156 -1.74469 0.23917 -0.244306 0.226293 0.125287 0.0438803
1074 -0.169374 -0.22744 0.169087 0.0384018 0.102106 -0.126048 -0.175517 0.137899 0.0885604 0.167451 0.141278 -0.0356973 0.00778991 0.112304 -0.082235 0.169418 -0.314681 -0.294852 0.0387648 -0.00333305 -0.0470071 -0.188591 0.0576244 -0.0808715 -0.172657 -0.195562 0.0195759 -0.0542866 -0.0487797 0.124078 -0.227695 0.0687811 -0.0646968 0.161702 -0.100806 -0.028756 0.142301 0.0651611 0.0302471 0.0527822 -0.085867 -0.0733246 0.037257 0.141536 -0.156382 0.00310347 0.039726 0.102216 0.166324 0.191499 -0.048698 -0.0597296 0.153773 0.13036 -0.011807 -0.0180965 -0.0164055 -0.00612654 0.0749247 0.0135948 -0.0577441 -0.0772123 0.130734 -0.00132527 0.00513861 -0.0517583 0.117041 0.0500228 -0.0546263 0.0215207 0.0420925 0.282591 0.119886 0.0891242 0.22174 -0.255422 -0.173577 0.222327 0.0894146 -0.106386 0.00530203 -0.0369173 0.0595349 -0.264151 -0.169831 0.188453 0.44931 -0.500106 -0.0555018 -0.249083 -0.438286 -0.520534 -0.280962 0.645531 0.264836 0.0327454 -0.224605 -0.00502716 0.380554 -0.15792 -0.141134 -0.463481 -0.473879 -0.202325 0.35397 0.144933 -0.55905 -0.213607 0.486772 -0.0360466 -0.0955175 -0.778615 -0.287086 -0.161181 -0.0726339 -0.309333 -0.820694 0.416914 0.295174 0.660053 0.247686 0.21001 -1.58879 0.218331 -0.226394 0.153993 0.195062 0.0254301
557 -0.047695 0.108265 -0.0573848 -0.121067 -0.0991536 -0.177043 0.00626497 -0.218218 -0.000357059 -0.150538 -0.0499717 0.0713711 -0.0229882 -0.00544632 -0.247858 -0.0465143 -0.29957 -0.267474 -0.0577393 -0.11819 -0.0652754 -0.0180979 0.216031 0.0487438 0.186475 0.0155065 0.021244 0.0903781 -0.0843767 0.106378 -0.0405895 -0.13191 0.142848 -0.0402109 0.143444 -0.0203461 -0.0769999 0.0805317 0.284005 -0.28499 -0.100985 -0.0321084 0.0304702 -0.0560294 -0.0652491 0.0741659 0.22967 0.292673 0.120545 -0.169258 0.0915345 -0.010084 0.175142 0.134235 -0.0131979 -0.0753489 -0.130129 -0.0530361 -0.122189 -0.0848815 0.061973 0.0652253 0.110466 -0.0812319 0.0641668 -0.00346944 0.0428914 0.0260043 0.303525 -0.17923 0.0752434 0.25076 0.0656764 0.0732337 0.346449 -0.00463914 0.0688402 0.280757 0.0245016 -0.0504518 -0.0577922 -0.104368 -0.0336371 -0.14172 -0.160765 0.165238 0.109006 -0.260326 -0.162278 -0.0435642 -0.535799 -0.352688 -0.461779 0.651874 0.311589 0.236152 0.0927919 -0.0437224 0.122909 -0.00660203 -0.190123 -0.230016 -0.329889 -0.356134 0.322123 -0.106049 -0.531378 -0.139737 0.247425 0.0925557 -0.0565475 -0.471393 -0.320256 -0.242102 -0.347465 -0.508849 -0.65011 0.620245 0.457865 0.383023 0.079385 0.364635 -1.53612 0.23551 -0.193714 0.192029 0.0740993 -0.133295
992 -0.117876 -0.129538 0.111486 -0.200569 -0.244971 -0.342881 -0.0264986 0.162471 0.0274631 0.209944 0.0676281 0.00368371 -0.00522406 0.133739 -0.174072 0.0309667 -0.146832 -0.149851 -0.0851892 -0.00278868 -0.0155787 -0.176373 0.268406 0.0109373 0.158115 -0.120231 -0.108618 -0.0288721 -0.0907312 0.226558 -0.0933685 -0.0430795 0.0529171 -0.0904251 0.0846019 -0.0112888 0.0271578 -0.0658385 0.193298 -0.0673773 -0.170897 0.120987 0.0443686 0.186437 -0.00746953 0.0827135 -0.0234189 0.0710076 0.149616 0.101887 0.0323079 0.0457217 0.0522806 0.0487958 -0.0211572 0.0844112 0.067797 0.0225606 -0.0195634 -0.00353835 -0.182461 0.0230881 0.0735953 0.032442 -0.0619319 0.0633861 0.0334653 -0.118223 0.0975847 -0.198753 0.0617808 0.275028 0.119046 -0.0601919 0.594868 -0.0269436 -0.0211558 0.248397 0.116335 -0.137837 -0.0698058 -0.0242015 -0.00240588 -0.09033 -0.151223 0.0728115 0.148157 -0.389087 -0.0226307 -0.192054 -0.430223 -0.567987 -0.316215 0.72482 0.368567 0.195762 -0.147468 0.00732845 0.328165 -0.246952 -0.215351 -0.423063 -0.334892 -0.348183 0.378702 0.0839163 -0.842599 -0.316356 0.539923 0.13168 -0.0218697 -0.693115 -0.24643 -0.0735502 -0.0970864 -0.163902 -0.545587 0.231421 0.227901 0.402594 0.180675 0.150307 -1.57453 0.168807 -0.0380816 0.225546 0.160993 -0.093013
262 -0.0828627 -0.0651121 -0.00987672 -0.0173446 -0.0638065 -0.0759832 0.0696679 -0.0363974 0.19214 0.0697262 0.0429657 -0.099798 0.0648914 -0.0747147 0.0623804 0.0885912 -0.338862 -0.174416 -0.165917 -0.241613 -0.173321 -0.289075 0.00598712 -0.112391 -0.0510541 -0.481616 -0.0339875 0.000409131 -0.00902185 0.0463124 -0.0336402 -0.00883697 0.0527758 -0.00587725 0.0206048 0.00398665 0.160252 0.0688577 -0.112328 0.0254702 0.0876468 -0.116081 0.166842 0.00351713 -0.00399365 0.187513 0.14207 0.148158 0.0443652 0.160154 -0.16481 -0.268875 0.235091 0.051635 0.0106499 -0.141892 0.0464684 -0.0303777 0.0951187 -0.125384 0.128065 -0.0283756 0.272248 0.330619 0.165219 -0.164327 -0.0949685 0.034192 0.170805 -0.0471403 0.0338702 0.161391 0.036554 0.0784435 0.324003 -0.168118 -0.0300244 0.255676 0.0797237 -0.0121537 -0.0666409 -0.132366 -0.0365694 -0.247919 -0.156742 0.25597 0.144383 -0.249737 -0.113759 -0.0439056 -0.519334 -0.444977 -0.43136 0.577336 0.368109 0.120215 -0.127248 0.0882828 0.258005 -0.01374 -0.0795884 -0.545244 -0.112084 -0.0696144 0.255319 0.00950116 -0.599644 -0.14921 0.412572 0.119642 -0.130399 -0.695118 -0.503377 -0.0583205 -0.144987 -0.311154 -0.660622 0.521545 0.3333 0.275727 0.243897 0.168935 -1.58836 0.117987 -0.0376671 0.072175 0.114792 -0.0436427
512 -0.0863736 0.00300374 -0.215627 0.0215689 -0.239697 -0.321481 0.0616521 0.225492 0.0972971 -0.120778 0.0217994 -0.0667573 0.0380428 -0.0765849 0.0550084 0.0860575 -0.127896 -0.0655547 -0.011412 -0.122812 -0.05725 -0.131621 0.086339 0.085677 -0.0136994 -0.291171 -0.139112 -0.0653774 0.0601746 0.0558003 -0.15989 0.243185 0.213459 0.0520841 0.0434129 -0.051627 0.261122 -0.0504326 0.0325079 0.162827 0.0637791 0.039597 0.120544 -0.219166 -0.0695433 0.202002 0.270714 -0.0293389 0.0430886 -0.116142 -0.0853523 -0.0336558 -0.0158994 0.0714238 0.094894 -0.13822 0.0106202 -0.0294377 0.127999 0.0800312 -0.0506952 -0.133717 0.23325 0.139128 -0.0223035 -0.233048 0.00894044 -0.0244315 0.063237 -0.0569951 -0.0891932 0.167052 -0.00318792 0.0890547 0.102222 0.018168 -0.000918426 0.219092 0.0365299 -0.0107451 -0.220348 -0.10878 0.0632797 -0.026777 -0.11478 0.332051 0.105897 -0.111281 -0.066881 -0.0642908 -0.427725 -0.33526 -0.464309 0.321475 0.453638 0.0455561 -0.322925 -0.151006 0.39696 -0.0427484 -0.226728 -0.505238 -0.229744 -0.285381 0.2169 0.0704505 -0.707106 -0.216846 0.199118 0.0904581 -0.148739 -0.727642 -0.666562 0.10868 -0.207679 -0.53525 -0.699981 0.453279 0.24173 0.469288 0.347264 0.173776 -1.37455 0.0488957 -0.118005 0.183121 0.278118 0.0205022
518 -0.437139 0.0971446 0.12639 0.106869 0.172649 0.275931 -0.0827413 -0.0145112 0.113445 0.00612925 0.134761 -0.0724164 -0.0446294 0.0373495 -0.137239 -0.0904412 -0.0205055 0.226057 -0.0822343 0.133466 0.0684486 -0.140996 -0.117776 -0.00205033 0.0442284 -0.00327091 0.0124273 -0.0945267 -0.00335213 -0.182565 0.129697 -0.00191683 0.0561608 0.0808134 -0.0229121 -0.0887457 -0.191584 -0.142245 -0.188958 0.0250013 0.0373143 0.0391171 -0.173592 0.0451006 -0.128847 0.110864 0.207287 -0.0214 -0.0605875 -0.145815 0.0688461 -0.0968562 0.0372576 0.265556 0.000352526 0.0212268 -0.149905 -0.122288 -0.0399673 0.0608615 0.0252039 0.0580333 0.0277613 0.0514066 0.0828631 0.0225522 0.00422254 0.0800219 0.247604 -0.0574686 -0.072013 0.106651 -0.120926 0.0763208 0.343492 0.0545344 0.210966 0.105251 -0.0133392 -0.0525554 -0.0321845 0.00634962 0.163493 0.0962101 -0.141456 0.447225 0.0414322 0.0111862 0.0741056 -0.111723 -0.361524 -0.301579 -0.303439 0.488111 0.022311 -0.0299845 -0.11384 -0.0975437 0.18431 -0.0217907 -0.3767 -0.475967 -0.163423 -0.122799 0.115111 -0.128761 -0.848846 -0.0877062 0.641536 -0.0595927 -0.139777 -0.630382 -0.509949 -0.00794903 -0.144497 -0.51433 -0.936806 0.438714 0.315853 0.491717 0.133972 0.461769 -1.43606 0.125616 -0.1283 0.259813 0.201712 -0.275111
529 -0.219257 0.0120256 0.129024 -0.0851089 0.0350681 0.139747 0.0168417 -0.117825 0.0493794 -0.0753251 0.102859 -0.0111501 -0.077519 0.0490409 -0.121627 -0.0467015 0.0760353 0.0774553 -0.0466558 0.0277404 0.0307605 -0.168393 -0.072285 -0.0147739 0.145286 -0.0388457 0.131151 -0.121544 -0.0798967 -0.10612 0.0521645 0.110982 0.0272173 0.0917631 -0.129817 -0.0453183 -0.199313 0.00899281 -0.200182 -0.136394 0.14336 0.106252 -0.102926 0.0496364 -0.212759 0.0910164 0.309789 0.0324918 -0.0874022 -0.113797 -0.148323 -0.167235 -0.0647763 0.144465 0.0807181 -0.0472589 -0.13989 -0.125188 -0.115539 0.0640196 -0.102099 0.0312529 0.0473361 0.0398559 -0.00946885 0.00407415 0.181142 0.110228 0.297824 -0.129312 -0.0697698 0.0847397 -0.112443 0.0825249 0.453287 0.155617 0.138974 0.189323 0.0148378 -0.0067391 0.0588933 0.0278597 0.117949 -0.0154969 -0.12846 0.388434 -0.0730884 0.0121081 0.102092 -0.0237665 -0.454055 -0.426768 -0.252035 0.4101 0.164199 -0.02289 -0.151215 -0.0806369 0.19386 -0.0191994 -0.375633 -0.434852 -0.278029 -0.255641 0.115068 0.0201894 -0.633438 -0.145991 0.620624 0.0514571 -0.179547 -0.768097 -0.539993 0.0137653 -0.192206 -0.505503 -0.789957 0.32654 0.345533 0.46673 0.192171 0.380728 -1.43364 0.121541 -0.0244429 0.317032 0.169748 -0.363747
46 -0.245139 0.125001 -0.185834 -0.0584931 -0.0268439 -0.0849608 -0.0923527 -0.0916665 0.068423 -0.0137398 0.0551657 0.0142015 0.0780275 -0.127891 0.0471932 -0.0234028 -0.0772955 0.00958474 -0.130558 -0.148443 -0.00191234 0.0663023 -0.0610143 -0.0893017 -0.0098648 0.116187 -0.00165891 -0.0671298 0.140817 0.0856129 -0.107316 -0.0170257 0.199693 0.0492683 -0.0420867 -0.0137357 -0.035746 -0.00992848 0.208692 0.107313 0.00315808 0.0939301 -0.0458572 -0.0042611 -0.259644 -0.0316775 0.16757 -0.0734078 -0.0508621 -0.134599 -0.0141402 -0.0807126 0.0281837 0.144482 -0.0373581 0.283829 -0.0709515 0.179957 0.116705 0.0822975 0.00931594 -0.239581 0.00916367 0.0440636 -0.141112 -0.00916104 -0.0168709 -0.0948376 0.315436 -0.202111 -0.285178 0.355625 -0.0305299 -0.0306166 0.584117 0.00468604 0.016032 0.0818346 -0.0132655 -0.0862921 0.151307 0.119445 0.0190898 -0.0267547 -0.0925992 0.0666124 0.280669 -0.127827 0.191641 -0.412801 -0.384835 -0.377047 -0.239497 0.130186 0.128414 0.0188707 -0.165445 0.0641546 0.205461 -0.150724 -0.20351 -0.465601 -0.316984 -0.212128 -0.00305491 0.156708 -0.751317 -0.259034 0.655882 -0.0299494 -0.0168336 -0.49531 -0.419773 -0.125573 -0.338554 -0.522627 -0.866287 0.482959 0.0730727 0.0776187 0.210982 0.102437 -1.42527 -0.0266058 -0.236156 0.178943 0.159138 -0.362728
316 0.150299 -0.009055 0.0171977 -0.0287735 0.124133 -0.157587 -0.20546 0.0612653 -0.0391328 -0.0125425 0.0314724 0.200956 0.134926 0.119666 -0.0999677 0.0992054 0.0498689 0.0771078 -0.0193323 0.197745 0.032025 0.0446973 0.0714237 0.0204807 -0.00833317 -0.0891286 0.00557023 -0.11254 -0.152568 -0.0233022 0.114146 -0.0256894 -0.0527635 0.00606288 0.118574 0.232441 0.0614835 0.0632539 0.24048 0.00718553 -0.151272 0.373865 -0.0450182 -0.0739671 0.206332 0.160876 -0.175637 0.0399478 0.153763 -0.0472424 -0.0186411 -0.0306017 0.189713 0.186949 -0.181776 -0.159091 -0.0914866 -0.014591 -0.011503 0.0404543 0.0953565 0.200956 -0.0432557 -0.0717188 -0.00866478 0.0266825 0.0782868 -0.0225735 0.0142658 0.050105 -0.0478995 0.0896512 0.0355885 -0.238615 0.384818 -0.0223817 -0.0974618 0.231925 0.224075 -0.0582978 -0.0335977 0.102235 0.269817 -0.00640536 -0.350532 0.370471 0.0169183 -0.141952 0.0435 -0.232574 -0.255264 -0.337059 -0.489366 0.658204 0.14384 0.0838734 -0.17743 -0.15271 0.11467 -0.159891 -0.328528 -0.473323 -0.263009 -0.374912 0.0954223 -0.152183 -0.871956 -0.180065 0.397825 -0.0885279 -0.000168344 -0.850039 -0.279848 -0.123134 -0.226042 -0.358075 -0.810758 0.230433 0.0500352 0.173307 0.037624 0.185942 -1.52007 0.194463 -0.0390788 0.0981196 0.128583 -0.346052
1110 -0.162253 -0.0890675 0.270339 -0.0140887 -0.0559697 0.0790914 -0.00913255 0.0271838 0.011177 0.0596053 0.119479 -0.129489 0.101543 -0.0879834 -0.0278445 -0.0220622 0.0726938 0.112173 -0.042881 -0.0036459 0.131404 -0.00309458 -0.0690882 -0.166347 0.127705 0.195019 -0.0408118 -0.103625 0.052119 0.266456 -0.235365 0.112061 -0.0724272 -0.077245 0.0501629 -0.0727645 0.0632055 0.00125699 0.0985326 -0.0230453 -0.0141863 -0.040516 0.0573834 0.040141 -0.0617748 0.0609454 0.224728 0.183565 0.197692 0.0208433 0.132407 0.223883 0.25325 0.159813 -0.0257508 0.182828 -0.028708 -0.0322723 0.0186356 -0.0180127 0.103248 -0.00975138 0.101866 0.0461493 0.129864 -0.036155 -0.0764123 -0.027878 0.246364 -0.214543 0.0812731 0.230902 0.120994 0.00788364 0.338799 -0.066974 -0.0731897 0.312114 -0.0191837 -0.0701033 -0.135304 -0.134203 0.047305 -0.144674 -0.116065 0.255946 0.0283102 -0.221691 -0.144521 0.0657567 -0.374031 -0.431545 -0.392672 0.532052 0.360838 0.131954 -0.264301 -0.173071 0.26413 -0.00560959 -0.337544 -0.531881 -0.186562 -0.329284 0.232188 0.0526223 -0.897412 -0.285066 0.411333 0.0635632 -0.0204878 -0.747134 -0.323479 -0.170957 -0.292532 -0.347859 -0.735462 0.414196 0.17615 0.370524 0.209316 0.264655 -1.69732 0.160868 -0.131416 0.256659 0.179977 0.0387688
102 -0.166242 -0.0497681 0.301414 -0.0846774 0.0359682 0.0257503 -0.15086 0.0124642 0.0528226 -0.0235294 -0.0252967 -0.0865473 -0.0550978 0.158506 0.0832869 0.175836 0.0412711 0.110777 -0.0548584 -0.0023015 0.0958605 0.0642179 -0.0172033 0.0806463 0.0583615 0.049955 0.0197221 -0.134531 0.116097 0.0168841 -0.171161 0.0738219 0.0181188 -0.00277796 -0.0538379 -0.0231255 0.0530981 0.15113 0.107739 -0.0897171 -0.098105 -0.00492448 0.0523093 0.0277155 -0.0461875 0.0979968 0.17845 0.105811 0.125856 -0.10516 0.0779482 0.138772 0.122252 0.15004 0.0737025 -0.0332567 -0.03759 -0.0100426 0.0268667 -0.100456 0.27298 -0.045065 -0.0432015 -0.0690273 0.0622742 -0.152049 -0.12655 0.164707 0.272867 -0.10733 0.136434 0.180192 -0.0445261 0.157916 0.331645 0.00945892 -0.126578 0.444306 0.139785 0.00558591 -0.111166 -0.197028 0.036669 -0.281295 -0.170414 0.372098 0.134434 -0.312176 -0.152343 -0.0115456 -0.352194 -0.461906 -0.325518 0.514448 0.29695 0.0789192 -0.469532 -0.317332 0.270309 -0.145311 -0.330541 -0.317917 -0.451906 -0.223823 0.203086 0.0626477 -0.816778 -0.29144 0.519424 -0.0818574 -0.0136615 -0.59261 -0.201848 -0.22128 -0.165202 -0.231758 -0.82126 0.178763 0.0736672 0.526988 0.236922 0.253658 -1.69202 0.128985 -0.179833 0.264057 0.235672 0.0691424
191 0.0351407 -0.11708 0.0720611 0.131976 0.099875 0.17898 0.0128313 -0.027147 0.0673783 0.0704814 0.139058 -0.1391 0.052582 -0.170594 0.0621799 0.204571 0.159036 0.107895 0.169229 0.00906103 0.0822129 -0.0592236 -0.0463446 -0.0293137 0.0463467 0.0902454 -0.116489 -0.150626 -0.135187 0.0839211 -0.231599 0.0921301 -0.118652 0.0214743 -0.0228701 -0.0561396 0.058374 0.0272254 0.125346 0.0161629 -0.0608056 0.0674273 -0.0604884 -0.071538 -0.046101 -0.00792553 -0.00701748 0.0437599 0.0851014 0.141279 0.0509201 0.143507 0.144363 0.111632 -0.000740692 0.149997 -0.139889 -0.0216531 -0.035849 -0.0938697 0.372397 -0.114988 0.152381 0.155229 0.259582 -0.106899 -0.107118 0.105525 0.0949722 -0.022126 0.126524 0.0382337 0.0196037 0.0751828 0.289839 -0.076224 -0.0434957 0.347113 0.149438 -0.0612328 -0.0494524 -0.204463 0.145381 -0.212133 -0.0936124 0.344746 0.136808 -0.290652 -0.135141 0.13563 -0.43197 -0.530155 -0.218594 0.486855 0.260913 0.0095133 -0.296251 -0.255366 0.305968 -0.208567 -0.335289 -0.396531 -0.40256 -0.411837 0.348067 -0.0179474 -0.848879 -0.156616 0.350449 0.0468705 0.123205 -0.807189 -0.347638 -0.199678 -0.357288 -0.470923 -0.605192 0.300167 -0.0549625 0.446563 0.141561 0.013631 -1.76489 0.215953 -0.120156 0.317223 0.290996 -0.000159611
211 0.0925145 -0.0548435 -0.0380099 0.118752 0.0969934 -0.00339057 -0.154461 0.102608 0.0935243 0.0545734 0.156699 -0.165553 -0.00789722 -0.0848049 0.0496581 0.168965 -0.027872 -0.00800215 0.0758071 -0.0671974 0.0934711 -0.0596412 0.0778031 0.0627671 -0.00668513 0.160843 -0.130256 0.0177775 -0.100316 -0.0701902 -0.218823 0.0191515 -0.244733 0.20416 -0.104377 -0.0684514 -0.0246121 0.170394 0.0995969 0.128589 -0.145049 -0.0327647 -0.0728162 -0.031072 -0.0839896 -0.0713914 0.0473689 -0.0166426 0.0259915 0.122392 0.0670366 0.112019 0.0690963 0.0885636 0.0659641 0.249659 -0.104855 -0.0932538 0.0327014 -0.0920346 0.270451 -0.112872 0.12401 0.0717656 0.164533 -0.124761 -0.172886 0.0243427 0.259962 -0.0939181 0.097719 0.19028 0.00500427 0.0709816 0.273698 -0.0998865 -0.000702645 0.304074 0.138701 -0.00678555 -0.0788492 -0.282116 0.0869241 -0.285536 -0.29099 0.300892 0.209242 -0.393489 -0.0778341 -0.140785 -0.386004 -0.512177 -0.344388 0.588084 0.311775 0.123944 -0.357109 -0.213178 0.3867 -0.136204 -0.219108 -0.355617 -0.245049 -0.280453 0.350568 -0.0016668 -0.829548 -0.243872 0.3961 0.0292489 0.0181269 -0.669994 -0.304595 -0.190361 -0.257362 -0.347042 -0.660666 0.361046 0.0738064 0.309896 0.135106 0.141445 -1.72424 0.230732 -0.194491 0.249001 0.260294 -0.115212
23 0.110372 -0.130419 0.050739 0.0420179 -0.0237086 0.00298448 -0.113999 0.0106797 0.144034 0.0489967 -0.0344466 -0.137585 0.00536982 -0.0637307 -0.0893354 -0.0259806 -1.08024e-05 -0.0268583 -0.00975677 0.0961672 -0.101701 0.222666 0.21245 0.0586136 -0.0520602 -0.0297233 -0.0182727 -0.0223749 -0.0877589 -0.0564924 0.00262664 0.0525215 0.125898 -0.086423 -0.0459644 -0.0834865 -0.0192214 -0.111508 -0.0872668 0.0108563 0.0536891 -0.0235751 0.119493 0.0891086 0.0454051 -0.0541684 0.00660969 0.182807 0.232249 0.085736 0.0115797 0.0758926 0.191755 0.112927 -0.0403393 0.159593 0.00450722 -0.0743121 -0.0308693 -0.00522955 0.0680368 0.0627527 0.083269 -0.0599284 0.0483835 -0.0905205 -0.177852 0.112631 0.0975846 0.0994098 0.0380689 0.0509484 -0.150048 -0.0563969 0.233997 -0.0193594 0.10913 0.0649336 0.0936282 -0.0687207 -0.00717736 -0.170396 0.0921034 -0.129669 -0.329958 0.330916 0.0526531 -0.215485 0.0194551 -0.127637 -0.4249 -0.380277 -0.253574 0.569212 0.118877 0.102537 -0.266631 -0.233998 0.152524 -0.275851 -0.35415 -0.512945 -0.392558 -0.421401 0.228853 -0.0102201 -1.00217 -0.176331 0.418632 -0.0280183 0.242264 -0.738209 -0.150095 -0.19245 -0.232591 -0.293638 -0.632917 0.0473148 -0.184775 0.237792 0.206116 0.108301 -1.46554 0.143007 -0.242421 0.239152 0.281942 -0.0520084
317 -0.0417189 0.117817 -0.132975 -0.0778103 0.0355691 -0.010126 -0.0742196 0.00136174 -0.133657 -0.0350652 -0.186952 0.176247 -0.0170979 0.020995 0.0815393 0.0297907 0.0375558 -0.0567389 0.211521 0.175214 0.146115 0.0278833 0.0806677 0.185268 0.0354982 0.0251792 0.0644818 -0.0221636 -0.154491 -0.143384 0.0911439 -0.0344075 -0.146529 0.0570347 0.0662026 0.0727673 0.125954 0.0141764 0.0994397 0.0340412 0.0178124 0.180737 -0.0881604 -0.307114 -0.0404952 0.0690931 0.0015551 0.019307 -0.0816522 -0.0382885 0.00698901 0.203892 -0.0553395 -0.00327148 -0.0593783 -0.104288 -0.0731268 0.129419 0.00748467 0.0501374 0.134266 0.0341834 0.00720679 -0.0130907 0.105002 0.0192544 -0.0816251 -0.11673 0.0775457 -0.0424562 0.0152452 0.0591293 0.199946 -0.315144 0.53304 -0.0243503 -0.0741048 0.196166 0.139469 -0.0206394 0.131448 0.0283296 0.242489 -0.0990382 -0.171734 0.312703 0.123531 -0.267631 0.0179421 -0.0343216 -0.417521 -0.541238 -0.231903 0.472602 0.115852 0.0418885 -0.135214 -0.143814 0.196344 -0.182657 -0.270899 -0.431564 -0.0968885 -0.295563 0.0971043 0.0395105 -0.750188 -0.199417 0.281343 0.0364634 -0.00652084 -1.04612 -0.377744 -0.121993 -0.326905 -0.40627 -0.636331 0.222579 0.0106548 0.382905 0.152999 0.0802538 -1.55178 0.133677 0.0227628 0.30205 0.255322 -0.282642
313 -0.0477986 0.255199 -0.223238 -0.00887691 -0.0674008 0.0786821 -0.0665135 -1.20892e-05 0.0632906 -0.0467016 -0.0311499 0.0550961 0.0510362 0.111745 0.0420239 0.0388308 0.198971 -0.0716336 0.225834 0.00663536 0.0921772 -0.0514253 0.176856 0.148697 0.00179541 -0.0273366 0.084329 0.00556137 -0.0992322 0.0629155 0.0626826 -0.100433 -0.25941 0.0791101 0.230293 -0.0424466 0.0955626 -0.125693 0.0358786 -0.0225366 0.0697481 0.0893888 -0.076579 -0.125287 -0.0535335 -0.0203541 0.0131115 -0.0208454 -0.134422 -0.0824381 0.193463 0.27362 0.0520828 -0.0422829 0.056307 0.00507353 0.0207592 0.185601 -0.0622344 -0.109524 0.0818677 -0.156006 -0.0544305 0.0512279 -0.140342 0.130479 0.0616849 0.0388823 0.12236 -0.0316666 0.128276 0.084801 0.0417697 -0.314055 0.298396 -0.0670593 0.0399494 0.257139 0.163573 -0.0199646 -0.103203 -0.243145 0.152249 -0.213823 1.34822e-05 0.238325 -0.00797993 -0.229977 0.0194365 -0.0722943 -0.380213 -0.54591 -0.211608 0.689548 0.228775 -0.00297078 0.0355821 -0.115671 0.128946 -0.213342 -0.328993 -0.450144 -0.0715094 -0.259853 -0.0177072 -0.0473412 -0.996484 -0.184081 0.485868 0.0769063 -0.0422693 -0.951947 -0.342106 -0.184108 -0.301916 -0.494131 -0.67909 0.00423177 0.058727 0.366976 0.240147 0.120548 -1.48642 -0.100205 0.062371 0.105665 0.138704 -0.198254
100 -0.133662 -0.0342376 0.0087521 0.0323137 -0.0714211 -0.0317277 0.229302 -0.0671054 -0.0243566 -0.108607 0.0546733 -0.00438536 -0.105922 0.244411 -0.268543 -0.0907776 -0.172687 -0.0990847 -0.0262276 0.0868176 0.0921673 -0.29925 0.131439 0.0167721 -0.137973 0.0775603 -0.255868 0.0853277 -0.0332604 -0.00905842 0.251445 -0.116685 0.277392 0.00202257 0.09069 -0.0203817 -0.00891615 -0.00487444 0.0490202 -0.00968977 -0.0953995 0.0167949 0.00551269 -0.0491464 0.000887141 -0.0481441 0.157971 0.222223 0.132396 0.0273773 0.370724 0.198812 0.133468 0.0808064 -0.296202 -0.142668 0.00511357 -0.150979 0.0708064 0.121796 0.183429 0.0131038 -0.0542509 -0.0423332 0.0121777 -0.115269 -0.288093 -0.132364 -0.123255 0.0732982 0.12869 0.0642182 0.0720236 0.112002 0.431102 -0.238884 -0.0779581 0.41049 0.175112 -0.112381 -0.157871 -0.0193729 0.0701572 -0.134638 -0.285971 0.155506 -0.0253378 -0.37914 -0.250341 0.0413439 -0.0690129 -0.231939 -0.566197 0.594314 0.272343 0.139594 -0.101531 -0.0167754 0.0984326 -0.124457 -0.238816 -0.621477 -0.329822 -0.5046 0.379907 0.0240256 -0.578551 -0.325741 0.48249 0.208101 -0.132971 -0.512496 -0.172304 -0.104853 -0.354468 -0.416517 -0.400176 0.337499 0.0495884 0.447568 0.344696 0.126629 -1.56279 0.385921 -0.0779058 0.44394 0.25511 0.0233096
175 0.0143537 -0.202124 0.0681334 0.04688 0.144996 -0.150149 -0.125154 0.134375 0.0483097 -0.00903898 0.16723 -0.234208 0.034547 -0.318307 0.0249242 0.314692 -0.239826 -0.0146497 0.0926698 0.0706571 0.17544 0.0732613 0.152306 -0.117765 -0.0597902 0.0491544 0.0126354 -0.131649 -0.0573839 0.0180656 -0.195076 0.0535715 0.0970025 0.093222 -0.0666705 -0.0557833 0.103823 -0.0706631 0.219288 0.108741 -0.0317674 0.0462749 -0.0420627 -0.0982918 0.0464017 0.0205267 0.175988 0.0809272 0.141996 -0.0101469 0.142054 0.0304407 0.0185265 0.109782 -0.138943 0.104116 -0.214517 0.0259587 -0.047873 0.0246717 0.19546 -0.0484158 0.109608 0.101875 0.257564 -0.134387 0.102853 0.26424 -0.0966798 0.0459095 -0.0447395 0.0076206 -0.102516 0.0529427 0.316366 -0.0718831 0.0525622 0.454779 0.0235918 -0.13813 -0.0900537 -0.0478558 0.0756276 -0.203312 -0.318095 0.54727 -0.0168775 -0.34559 0.00754381 -0.00312609 -0.302798 -0.283622 -0.456431 0.49072 0.386349 0.0311321 -0.231057 -0.223594 0.133404 0.0289848 -0.410543 -0.438549 -0.308796 -0.57617 0.139322 0.0123263 -0.644141 -0.101684 0.181523 0.0834465 0.110412 -0.657719 -0.356897 -0.156021 -0.421334 -0.528056 -0.58921 0.416579 0.0823213 0.370874 0.230827 0.248876 -1.68229 0.0873084 -0.212978 0.203909 0.181226 0.024063
30 0.18379 -0.0234794 -0.0123901 -0.0329818 0.0726503 0.0302122 0.0494496 0.0643263 0.0217138 0.119471 0.00856043 -0.178383 -0.0681101 -0.0179954 0.13289 0.135174 0.03128 -0.145843 -0.0692534 -0.0541622 0.030272 -0.104559 -0.0356704 -0.0207745 -0.020682 -0.121813 -0.0705745 -0.213314 -0.00188036 -0.129112 -0.0311498 -0.0125974 -0.00903533 -0.00526173 -0.147612 0.00576074 0.321367 -0.171725 0.166057 0.066772 -0.178775 0.099748 0.0212247 0.0851979 0.064319 -0.00752904 -0.0708771 0.0439154 0.0308819 0.117052 0.199226 0.159995 0.164201 0.107102 0.0142876 -0.0169877 -0.0427452 -0.0422018 0.0964236 -0.128026 0.220025 -0.182724 -0.200641 -0.155157 0.211527 -0.224024 -0.140875 0.271373 0.13683 0.026814 0.133433 0.0357995 -0.068058 0.00991354 0.454576 -0.191368 0.235959 0.582499 -0.0923121 -0.0336049 -0.390372 -0.333079 0.0305993 -0.3452 -0.313688 0.533915 0.0798107 -0.518113 -0.114085 -0.0578899 -0.195228 -0.285048 -0.209681 0.356354 0.269243 0.0665332 -0.120297 -0.116299 0.052927 0.0124406 -0.214793 -0.625016 -0.0130087 -0.237837 0.258785 -0.00618443 -0.80407 -0.220351 0.647911 0.105922 0.104701 -0.652349 -0.199045 -0.351982 -0.308803 -0.30192 -0.830755 0.45037 0.127073 0.382987 0.330645 0.422415 -1.59105 -0.021338 -0.303571 0.360776 0.131277 0.0339872
468 0.213231 -0.258757 0.113963 0.125165 0.212985 0.0185455 0.177529 -0.00809093 -0.0108376 -0.002242 0.0439834 -0.0191351 -0.0361634 0.0901347 0.193942 0.25758 -0.196443 -0.0685435 0.0973522 0.00363186 -0.0578707 -0.08078 0.0377183 0.0672727 -0.113696 -0.285193 0.0601179 -0.109238 -0.00363523 -0.131296 -0.0793988 0.0617298 -0.240693 0.162425 -0.119663 0.0930479 0.140851 0.0547846 -0.0672721 0.0946778 -0.0825306 0.142834 -0.017596 0.0240519 -0.0179663 0.0433128 -0.0826398 0.0868047 0.0315614 0.184582 0.0383979 -0.0306775 0.23957 0.122526 0.0210292 0.0576895 -0.11884 0.0018396 0.0846116 -0.112352 0.297281 -0.0392887 0.082073 0.135883 0.306572 -0.133339 -0.176582 0.112666 0.0723134 0.011989 0.0197208 0.00711505 -0.0619285 0.0646295 0.476829 -0.183445 0.0124965 0.38209 -0.0546445 -0.0137989 -0.0297165 -0.107726 0.115472 -0.381448 -0.378212 0.414302 0.0920985 -0.314864 -0.0799932 -0.0545314 -0.440947 -0.324243 -0.233459 0.468317 0.287946 -0.00425101 -0.296902 -0.144321 0.160969 -0.0868483 -0.152505 -0.406791 -0.232079 -0.160958 0.110067 0.197078 -0.69498 -0.0888775 0.507242 0.0830819 0.172263 -0.789153 -0.246755 -0.195382 -0.164564 -0.38293 -0.82737 0.380762 0.126578 0.495062 0.212416 0.0417634 -1.57113 0.149447 -0.190063 0.269164 0.202703 -0.0416239
264 0.115605 0.0596798 -0.102738 -0.115922 -0.14885 -0.0917655 0.0175511 0.159175 -0.0321199 0.0425971 0.15667 0.0479674 -0.329087 -0.068378 -0.0474696 -0.24476 0.119107 -0.180742 0.0824938 0.209333 0.151316 -0.0456439 0.0979764 0.193882 0.129605 -0.0711042 0.0603914 -0.101555 -0.144652 -0.13734 0.0784117 -0.0382531 -0.00627082 -0.18623 0.170959 0.128265 0.27325 -0.135853 0.140737 -0.0203218 -0.166333 0.152384 0.0632966 0.00872887 0.00567775 0.0830944 0.192406 0.0578919 0.219125 -0.274555 0.103382 0.240735 0.247631 0.0296834 0.168553 -0.0462945 -0.0380469 0.080235 0.0334699 -0.0760053 0.227223 0.107421 0.211767 0.204289 0.0471171 -0.0802479 0.116357 -0.128998 0.357474 -0.187906 0.0535667 0.0793099 -0.0768045 -0.158992 0.506609 -0.0787916 0.160041 0.272998 0.178615 -0.115546 0.00370713 -0.134797 0.150665 -0.155494 0.100466 0.0576994 0.012727 -0.113694 -0.0370958 -0.099459 -0.569484 -0.455086 -0.233141 0.726915 0.251611 0.218045 -0.123599 -0.212464 0.178378 -0.070476 -0.208853 -0.356992 -0.155353 -0.32894 0.281725 -0.154278 -0.890805 -0.1573 0.499781 -0.0344108 -0.00416324 -0.834237 -0.536533 -0.0956828 -0.446309 -0.57833 -0.573489 0.303528 0.285611 0.672309 -0.020227 0.242943 -1.66233 0.0244179 -0.0785672 0.102178 0.13967 -0.25416
266 -0.170323 -0.111468 0.138497 -0.217712 -0.252022 -0.367252 0.0969041 -0.126054 -0.0225999 0.0934 -0.061717 0.152397 -0.0242949 0.175641 -0.22993 0.140644 -0.168127 -0.09538 -0.225532 -0.148266 -0.0151532 -0.311322 0.305459 0.0708128 0.12536 -0.111608 -0.0446175 0.0317173 -0.0157498 0.19792 -0.0395011 -0.0843111 0.16695 -0.0388759 0.193976 0.000678085 -0.0304947 0.0532394 0.312182 -0.224125 -0.281421 0.209006 0.0333467 0.198085 0.0149217 0.0590805 -0.0949089 0.0867253 0.0735053 -0.00836075 0.0744243 -0.0496176 0.114878 0.118423 -0.0188218 0.0894987 -0.0547181 -0.128734 -0.084839 -0.103716 -0.0864502 0.062945 -0.0647476 -0.0902386 -0.0804745 0.113011 0.13157 -0.0242012 0.0698893 -0.0120575 0.0582719 0.274195 0.197961 0.0334874 0.366606 -0.0415837 -0.00198141 0.157774 0.173088 -0.00345712 -0.136843 -0.044614 -0.0775603 -0.0853159 -0.144425 0.00313878 0.120018 -0.336788 -0.170281 -0.0441752 -0.333084 -0.540416 -0.274661 0.612003 0.315422 0.164274 -0.0977339 -0.0416139 0.221237 -0.192595 -0.198463 -0.393613 -0.427618 -0.333378 0.532945 -0.0233514 -0.789654 -0.339697 0.597071 0.163604 -0.0226858 -0.731239 -0.225027 -0.252258 -0.347374 -0.415119 -0.455701 0.3629 0.294874 0.629426 0.087941 0.127142 -1.45949 0.227141 -0.0535906 0.293398 0.165661 -0.107515
95 -0.209505 0.142394 -0.0873388 -0.0494745 -0.137727 -0.0751166 0.17257 -0.113983 0.0430963 0.00966667 0.000406619 -0.0692492 -0.060384 0.153526 -0.262886 0.0420447 -0.32855 -0.210487 -0.201857 -0.125257 -0.124883 -0.0412437 0.140154 -0.00110731 0.284268 0.060457 -0.13016 0.134842 -0.0693967 0.0326272 0.0185926 -0.109767 0.132762 -0.122521 0.0975419 -0.0560453 -0.0749926 0.134887 0.0516911 -0.03414 0.0473332 0.0467034 -0.0902732 0.0925605 -0.0776664 0.111681 0.149406 0.0997124 0.233834 -0.0752584 0.104619 0.030735 0.104838 0.319486 0.0664957 0.169266 -0.176711 -0.224482 -0.181517 -0.0587771 -0.129368 0.0418488 -0.0523279 -0.000831554 -0.0500247 0.0769351 0.256046 0.0577524 -0.0557524 -0.0929596 0.054635 0.154687 -0.0112266 0.223846 0.414225 0.112443 0.144089 0.401847 0.125815 -0.150666 -0.119001 -0.155129 -0.00476761 0.0176551 -0.0947938 0.132374 0.0955354 -0.216092 -0.130426 -0.047009 -0.314712 -0.535139 -0.358169 0.530396 0.321326 0.205586 0.164945 -0.0847415 0.343112 -0.208325 -0.425241 -0.452175 -0.0918673 -0.258592 0.438583 -0.176413 -0.641208 -0.271551 0.220977 0.156283 -0.134165 -0.71017 -0.481164 -0.0968046 -0.488504 -0.506544 -0.75759 0.541402 0.26196 0.499892 0.22128 0.231467 -1.39995 0.112798 0.0659072 0.23858 0.094201 0.0579158
16 -0.17188 0.148849 0.17209 -0.0799411 -0.177724 -0.211531 -0.0986516 -0.0891203 0.0754655 0.0231788 -0.00243976 0.0816822 -0.0402209 0.167295 -0.214201 -0.0688619 -0.215943 -0.0392431 -0.152949 -0.0865118 -0.0206024 -0.147519 0.164813 -0.03874 0.115017 0.00759933 -0.048644 0.085075 0.0753935 0.213107 -0.0269009 -0.0588036 0.0701235 0.0171458 0.0176132 -0.078239 0.115138 -0.0260817 -0.0171988 -0.222109 -0.0927324 -0.0427345 -0.0504527 0.0994281 -0.051853 0.0318229 0.00801318 0.0421796 -0.0859156 -0.0160434 -0.0841424 -0.214196 -0.0027389 0.0973603 0.0303102 0.168011 0.0132386 -0.206911 -0.0209087 0.00835685 0.0437691 0.0469768 -0.0440859 -0.0793656 -0.106999 0.00718558 0.0359075 -0.158538 0.148831 -0.152703 0.0787537 0.33021 0.301267 0.239646 0.365853 -0.0720238 -0.0311415 0.268207 0.0621756 -0.114444 -0.191181 -0.0164821 0.111233 -0.0765596 -0.219979 0.0549843 0.275215 -0.453761 -0.205094 -0.0912818 -0.499289 -0.5613 -0.307295 0.477291 0.32896 0.229323 0.00892367 -0.00256655 0.371249 -0.217553 -0.3273 -0.69956 -0.356687 -0.337143 0.471466 -0.0119063 -0.671649 -0.36903 0.592974 0.142518 -0.165448 -0.734543 -0.387807 -0.234849 -0.360507 -0.357761 -0.574242 0.46245 0.365136 0.459203 0.201283 0.267537 -1.51329 0.184384 -0.0920906 0.147496 0.116826 -0.0935521
374 0.110269 -0.0366978 0.126718 0.0413456 0.0173498 0.0269362 -0.0758547 0.0650496 0.0829548 0.0954917 0.148935 -0.148205 -0.0364129 0.00199963 -0.0523322 -0.12192 -0.0453727 -0.079525 0.111514 0.143878 0.0573355 0.160165 0.0242448 -0.105648 -0.0404117 0.0979583 0.0480224 -0.0140174 0.032992 0.0784403 -0.194568 -0.0249038 -0.0979032 0.0521655 0.0144623 -0.10449 0.0474503 -0.0957932 0.128085 -0.0580504 -0.163837 -0.0929202 0.047127 0.15743 -0.0201221 -0.0411267 0.155412 0.119945 0.132272 -0.0130417 0.158263 0.131982 0.141256 0.132098 -0.0574015 0.135279 0.00764626 -0.0011328 0.0443806 0.036131 0.0536846 0.0121413 0.143372 0.0549193 0.0869585 -0.0490095 -0.144356 -0.0792715 0.289508 -0.250525 0.0512837 0.251596 0.0354677 0.021551 0.503685 -0.0181904 0.0582728 0.474154 0.0288343 -0.265385 -0.0860778 -0.0779711 0.0969053 -0.132887 -0.274375 0.327351 0.145989 -0.294609 -0.0453585 -0.163848 -0.491421 -0.449988 -0.386805 0.609373 0.322721 0.187937 -0.208717 -0.0570432 0.264679 -0.0108472 -0.238491 -0.345996 -0.220054 -0.257951 0.179185 0.0785501 -0.775214 -0.294418 0.528957 0.0938814 -0.0602355 -0.644077 -0.387353 -0.0397373 -0.187917 -0.331312 -0.756555 0.42026 0.231372 0.314645 0.180429 0.275541 -1.66037 0.202422 -0.181076 0.187385 0.144333 0.0277639
33 -0.0130451 -0.177091 -0.0764488 -0.0284612 -0.00647147 0.20742 0.0437069 0.0329025 0.0495918 0.00506378 -0.0531732 -0.0145334 -0.190227 -0.118595 -0.0488279 -0.151205 -0.228127 -0.33929 0.196346 0.0176321 0.0401411 -0.158936 -0.0231995 0.0690212 -0.056926 -0.103873 0.275055 -0.0625322 -0.0267668 -0.0444561 -0.139188 -0.00139207 -0.153574 0.100573 -0.193487 -0.0294837 0.271648 -0.0167805 0.220338 0.029977 -0.219883 0.112341 0.047023 0.138756 -0.0350178 -0.0284868 -0.0510873 0.0698721 0.036413 0.108747 0.165248 0.0893783 0.276149 0.0789029 -0.0328857 0.174372 -0.0439057 -0.049935 0.0549537 -0.113807 0.0730801 -0.0138726 -0.108981 -0.18384 0.0972799 -0.160311 0.104991 0.142158 0.0468372 -0.0615081 0.0458966 0.0119345 -0.18317 -0.0124259 0.356874 -0.264101 0.219286 0.449629 -0.219062 -0.0971923 -0.136514 -0.191387 0.111472 -0.376815 -0.231546 0.263979 -0.00111679 -0.313383 0.00438064 0.0123717 -0.294277 -0.243684 -0.217832 0.307086 0.418677 0.0476691 0.0168227 -0.0875839 0.220791 -0.0795068 -0.478864 -0.901962 -0.0399035 -0.301234 0.395166 -0.0824594 -0.933932 -0.15316 0.710951 0.222354 -0.0342905 -0.563035 -0.439688 -0.130012 -0.166966 -0.355674 -0.908356 0.45146 0.395536 0.196908 0.0849924 0.32083 -1.49303 -0.0346445 -0.113586 0.0303263 -0.0303956 0.0188018
11 0.232015 -0.146247 0.0261268 -0.246986 0.110987 0.0637849 -0.0664563 -0.0235706 -0.0385513 0.0299111 -0.174771 -0.00757472 -0.128519 -0.0661028 -0.179257 -0.30659 -0.172117 0.0205327 0.185917 0.0342338 0.216617 -0.0267707 -0.167063 -0.0968118 0.00419401 -0.0172257 0.280371 -0.112489 0.156148 -0.0580974 -0.0957916 -0.0716202 0.152036 -0.0507619 -0.212541 0.0271554 0.0916094 0.0189805 0.0447938 -0.0479432 -0.119727 0.0810138 0.0240125 -0.0837752 -0.270676 0.111249 0.0460579 -0.0357622 -0.127461 0.0531605 0.105662 0.182106 0.155366 0.0313181 -0.137745 0.550581 0.00488723 0.0216131 0.00303803 -0.0847238 0.0718052 -0.0907242 -0.238316 -0.164759 0.0490291 -0.0044835 0.0216974 0.0523585 -0.144006 0.0326693 -0.0455707 -0.173403 -0.0218289 0.206467 0.496794 -0.0060466 0.00124083 0.538898 -0.117777 0.0234501 -0.0132751 -0.00657543 0.234778 -0.168777 -0.0787523 0.247693 -0.0375261 -0.298664 -0.0291575 0.111432 -0.441493 -0.44994 -0.224757 0.366997 0.198283 -0.0739182 -0.0972303 -0.206951 0.314602 -0.167025 -0.716618 -0.845779 -0.101733 -0.397412 0.256383 0.0484146 -0.748423 -0.122379 0.563401 0.0856133 0.060153 -0.602338 -0.528024 -0.391282 -0.0878781 -0.294669 -0.553051 0.356605 0.0547911 0.200423 0.172789 0.227981 -1.53699 0.213654 -0.146128 0.0935181 0.0906038 -0.0187801
28 -0.140997 -0.126841 0.0795851 -0.0182583 0.155917 -0.184154 0.0557219 -0.0118472 -0.188431 -0.0281211 0.137384 0.0126726 0.00379084 0.0319414 0.00108179 -0.0669574 0.0390137 -0.16238 -0.16524 -0.116809 -0.0011946 -0.0110565 -0.0842286 -0.0306188 -0.121191 -0.220377 -0.0316996 -0.0833502 0.00220618 0.0122977 -0.129448 0.102676 -0.0411251 0.156196 -0.248625 0.0910484 0.136184 -0.0390535 -0.0153133 -0.0440538 0.0842904 -0.104749 0.027535 0.0175087 -0.0293324 -0.15306 -0.0558483 -0.0434578 -0.0176325 -0.138957 0.0992106 0.0804691 -0.0101451 0.0983838 -0.0106058 0.0629003 -0.148073 -0.164927 0.00253482 -0.106278 0.0176481 -0.114545 0.110014 -0.0287298 0.0554787 0.0271315 -0.00900907 -0.115949 -0.0471453 0.116739 0.011099 -0.110502 0.0388916 0.0443387 0.249075 -0.0365124 0.10791 0.171549 0.0523461 -0.126658 -0.242656 -0.149553 0.0798998 -0.218171 -0.233876 0.242132 0.0794993 -0.232749 -0.00293983 -0.172913 -0.394285 -0.500842 -0.35259 0.53658 0.182805 0.0846704 -0.258439 -0.13376 0.361437 0.114518 -0.0882185 -0.327995 -0.0760852 -0.20173 0.396977 -0.07326 -0.869406 -0.102913 0.315852 -0.0926915 -0.0248024 -0.614083 -0.330665 -0.193277 -0.0381998 -0.193961 -0.595446 0.594286 0.110649 0.229103 0.054453 0.412965 -1.39096 0.321075 -0.421307 0.32758 0.0473847 -0.172037
416 -0.393692 -0.0565803 0.203577 0.0703385 0.115488 -0.076116 -0.135723 0.0756741 0.0167552 0.0653431 0.133552 -0.0791893 -0.153781 -0.0381474 -0.0676551 0.0307592 -0.226824 -0.268569 0.0286706 0.0658314 0.0238763 -0.0447906 0.0313776 -0.148972 -0.158417 -0.178191 0.139809 -0.0434464 -0.0573494 0.0152992 -0.136503 0.128122 -0.127474 0.206664 -0.174542 -0.0906199 0.0594913 -0.00352795 -0.000149886 -0.0153079 0.0385683 -0.0501308 0.0744623 0.112357 -0.040727 0.0194714 0.15327 0.121077 0.16662 0.0896737 0.126739 0.00858883 0.122109 0.138419 -0.0749308 0.0335951 -0.0421632 0.00384201 0.0856373 0.0573655 0.0423625 -0.00599363 0.126646 0.126098 0.0227388 -0.0977969 0.0513167 0.0248989 -0.00323084 -0.0523956 0.00158818 0.185689 0.0212699 0.0486216 0.405518 -0.143299 -0.0462016 0.326355 -0.000363335 -0.1795 -0.0695371 0.00760868 0.0261483 -0.143884 -0.273057 0.328832 0.122576 -0.309168 -0.00851887 -0.138823 -0.411217 -0.369772 -0.407559 0.687828 0.399941 0.0585534 -0.251967 -0.00308509 0.278764 -0.0311094 -0.157768 -0.524987 -0.201979 -0.198847 0.143338 0.061195 -0.73016 -0.246378 0.531896 0.133085 -0.078846 -0.740096 -0.410232 0.0131493 -0.0888663 -0.147376 -0.814193 0.481284 0.350178 0.490996 0.236276 0.280977 -1.57773 0.148876 -0.153075 0.173738 0.155738 -0.0435187
26 0.0367893 0.0594646 0.0817119 0.046923 -0.116119 -0.0554068 -0.0234744 -0.0203047 0.0706897 0.0241265 0.0351403 -0.196317 -0.107726 -0.1687 0.0152472 -0.0805212 -0.255016 0.131272 0.0375018 0.132126 0.0768672 0.0346719 -0.0822618 -0.136372 0.0529434 0.0966212 0.0460936 0.0881322 0.0515356 -0.0222928 -0.0679808 0.0636733 -0.140941 0.0367677 0.148779 -0.0783994 0.253611 -0.0800083 0.0222164 0.123979 -0.0685764 -0.111076 0.017288 0.141963 0.034213 0.0477783 -0.0311327 -0.159916 -0.0374321 0.0604876 0.0178348 0.0451939 -0.0853739 -0.178331 0.0544612 0.0264255 0.165755 0.0603258 -0.00176003 -0.0472777 -0.109607 0.0571913 0.213432 0.0486387 0.0835606 0.00440809 -0.166822 0.121984 0.118954 -0.067732 -0.0783257 0.0963864 -0.0920283 0.034125 0.466435 0.053995 0.00330511 0.0311303 0.128215 -0.0970857 0.179862 -0.133705 0.0688824 -0.0298255 -0.375817 0.108348 0.102704 -0.124976 -0.0204301 -0.238642 -0.375033 -0.360024 -0.267765 0.449287 0.193788 0.178229 -0.361381 -0.18815 0.151099 0.036376 -0.256509 -0.376781 -0.136842 -0.2784 0.346317 0.213472 -0.823996 -0.340695 0.483908 0.0667337 -0.159036 -0.590024 -0.58167 -0.0213912 -0.184689 -0.606312 -0.570823 0.270202 0.324708 0.150894 0.171529 0.254783 -1.35759 0.213975 -0.199216 -0.071852 0.207417 -0.153346
57 -0.348799 -0.0153456 0.163356 -0.0093033 0.0376488 0.0887267 -0.0267828 -0.00623535 -0.271567 -0.0189179 -0.0165695 -0.140674 -0.266743 -0.0852249 0.0713159 0.281046 0.00753411 -0.149601 -0.191115 0.0232357 0.185376 0.221605 -0.239215 -0.0798726 -0.137997 -0.0571478 0.0531605 0.0615236 0.141249 0.0617952 -0.0784421 0.330933 -0.331602 0.135676 -0.0779673 -0.0381407 0.0178014 0.130722 0.285864 0.0200411 -0.0961261 0.0558024 0.170928 0.184294 -0.0040697 0.004447 -0.0149477 -0.0696154 0.0234833 0.140727 0.0869869 0.0164531 -0.0759218 -0.158695 0.111629 -0.187452 0.0878839 0.130846 0.0597302 -0.0886796 0.181231 -0.0869739 -0.182378 -0.0801494 -0.135321 -0.0134796 0.0617907 0.0600697 -0.145025 -0.0276119 -0.0477397 -0.112088 -0.0225796 -0.125558 0.355732 0.201718 -0.0930304 0.193147 -0.0618438 0.12384 -0.182149 0.00257125 -0.0544807 -0.218404 -0.326648 0.262287 0.122422 -0.152972 0.153352 -0.212648 -0.386774 -0.46598 -0.605025 0.703864 0.437474 -0.0836652 -0.320989 -0.0612612 0.227685 0.179757 -0.150029 -0.567228 -0.125223 -0.327688 0.297575 -0.00460834 -0.821522 -0.274852 0.264672 0.107379 0.0276242 -0.673661 -0.34285 -0.249897 -0.270981 -0.231775 -0.909958 0.56989 0.369028 0.528853 0.291133 0.226218 -1.62681 0.0340453 -0.0427103 0.126969 0.203756 0.00851938
64 -0.46485 -0.106588 0.318223 0.0496992 0.143233 0.136553 -0.0155434 -0.0397324 -0.250826 0.0365333 0.0297821 -0.167382 -0.273312 0.0104225 0.0176351 0.266324 -0.0437654 -0.134904 -0.201095 0.0179456 0.183206 0.0870176 -0.322163 -0.138905 -0.20551 -0.0380591 0.0785796 0.052029 0.0750972 0.107543 -0.0473798 0.330676 -0.317343 0.205131 -0.0604613 -0.0575238 -0.048843 0.119701 0.159593 0.0774567 -0.0586712 0.0540129 0.159667 0.218454 -0.0594387 0.005012 -0.00457802 -0.0526999 0.0526277 0.189866 0.120704 0.124465 -0.160318 -0.137845 0.0843802 -0.291288 0.0719887 0.0602964 0.0672073 -0.0446761 0.151844 -0.101691 -0.123798 -0.145271 -0.104018 0.00784091 0.0119601 0.0196667 -0.16593 -0.00293435 0.0262548 -0.0460688 -0.000720448 -0.0365612 0.307878 0.134753 -0.082008 0.135548 0.0118537 0.0787693 -0.141996 -0.0322685 -0.110652 -0.210211 -0.271706 0.23616 0.131405 -0.124083 0.119425 -0.1361 -0.415863 -0.584375 -0.574513 0.743944 0.312486 -0.0535915 -0.271065 0.0258194 0.23096 0.156796 -0.181819 -0.505393 -0.0410541 -0.229218 0.209708 -0.0200912 -0.865513 -0.295529 0.375295 0.0253874 -0.0968689 -0.690786 -0.343606 -0.211064 -0.23814 -0.251646 -0.957438 0.503954 0.363005 0.51017 0.303889 0.348574 -1.66165 0.0223864 0.0481705 0.195309 0.210114 -0.0269019
36 -0.244474 0.0324729 0.235844 0.00615405 0.0989626 0.0867075 -0.0939923 -0.00948551 -0.129945 0.0443747 -0.117896 -0.0694879 -0.145943 -0.09565 0.0739471 0.146231 -0.0597 -0.179961 -0.12938 0.028552 0.123182 0.252413 -0.0995024 0.0271904 -0.177851 -0.0511011 0.110986 0.0865046 0.159145 0.0837432 -0.0808448 0.150073 -0.319141 0.184181 -0.0678477 -0.121752 -0.0380718 0.0703128 0.221516 -0.0862314 -0.181085 -0.0373473 0.181822 0.160806 -0.037498 -0.0761487 0.0906418 0.0123902 -0.0898665 0.0650068 0.107828 0.0317153 -0.155068 -0.161766 0.103732 -0.271651 0.0356539 0.0449294 0.0613643 -0.0487135 0.0231645 -0.00210262 -0.112055 -0.136187 -0.0773934 -0.0199116 0.0208095 0.0293612 0.0468261 0.0130108 -0.00563304 0.0658734 -0.0590234 -0.155728 0.150521 0.0389753 0.0107233 0.135217 -0.0191607 0.121933 -0.174435 -0.0722714 -0.0588732 -0.276521 -0.301852 0.25909 0.0799447 -0.14967 0.159135 -0.23321 -0.366094 -0.434701 -0.601782 0.760961 0.382793 -0.010434 -0.213308 -0.0543967 0.165474 0.267021 -0.10051 -0.33788 -0.151282 -0.298386 0.371261 -0.163834 -0.789904 -0.316114 0.324122 0.0991703 0.00546667 -0.736962 -0.309322 -0.260804 -0.325437 -0.246285 -0.849318 0.544636 0.371015 0.537488 0.189458 0.398108 -1.52731 0.0466869 -0.0667765 0.139673 0.228986 -0.0559039
47 -0.0485871 -0.132726 0.123467 -0.0185225 0.137132 0.142426 0.0800366 -0.0803925 -0.102255 0.12918 0.03776 0.0358322 -0.0181392 0.103851 0.110799 0.0753662 -0.127821 -0.406994 0.109173 0.107793 0.138446 0.103682 -0.0965297 -0.0697421 -0.113974 -0.104429 0.323227 -0.00793542 -0.0368753 -0.276796 -0.113369 -0.0175681 -0.213114 0.117889 -0.127582 0.0809107 0.30727 -0.0424652 0.289201 -0.0928751 -0.0962307 -0.113425 0.00607235 0.0582831 0.0722729 -0.123711 -0.129014 -0.0514408 -0.152492 0.0664528 0.109707 -0.179534 0.147485 0.0989484 0.0808078 -0.000690243 -0.000298787 0.13488 0.0596921 -8.78762e-05 0.181823 0.027929 -0.0735654 -0.0300288 -0.115789 0.0333464 0.167954 0.0801421 0.022864 -0.0277701 -0.176226 -0.186405 -0.144542 0.14955 0.352614 -0.148298 0.277125 0.230066 -0.112386 0.0801338 -0.203951 -0.0568698 0.117845 -0.252001 -0.134331 0.103907 -0.11332 -0.118849 0.0129407 -0.200055 -0.508007 -0.335157 -0.407274 0.632019 0.250282 0.139695 -0.102074 -0.204539 0.116034 0.124947 -0.354101 -0.578607 0.166029 -0.253703 0.306188 -0.0448183 -0.559104 -0.204146 0.495199 0.0595951 0.0676614 -0.760156 -0.50042 -0.303051 -0.317495 -0.388862 -0.950221 0.591814 0.295055 0.358327 0.0875028 0.386816 -1.51656 0.206228 -0.278587 0.0552069 0.0813146 -0.150198
961 -0.326158 -0.0655188 0.146999 -0.131039 -0.080578 -0.356626 0.0282713 -0.106202 -0.141637 -0.0652573 0.0264652 0.0562354 -0.353311 -0.0426614 -0.171179 0.272527 -0.189915 -0.20372 -0.148153 0.00788333 0.088414 -0.214937 0.315319 0.0564848 0.0158481 0.0574387 0.0365846 0.0228796 -0.088408 0.119218 0.062101 0.00173114 0.10167 0.0998801 0.328687 -0.0422914 0.057766 -0.153451 0.3463 -0.226251 -0.18437 0.130012 -0.0232651 0.18356 0.152641 0.0218489 0.0469756 0.154085 0.140947 -0.0691219 0.204297 0.0714185 0.0810459 0.100272 -0.166324 0.112482 -0.173176 -0.161186 -0.00634763 -0.0277012 0.118133 0.0873998 0.0757669 -0.0316963 0.079152 0.00633276 0.0849155 0.0422861 -0.122578 0.0158452 0.0782335 0.0871835 0.0946228 0.028891 0.466293 0.0135053 0.0160369 0.422808 0.187475 -0.244269 -0.044752 0.0679631 -0.151597 -0.0737732 -0.36527 0.213035 -0.0151215 -0.217201 -0.108664 -0.0606863 -0.205152 -0.252098 -0.601177 0.75401 0.341517 0.130935 -0.109118 -0.0474748 0.113905 -0.0300492 -0.210291 -0.305483 -0.350027 -0.451743 0.377998 0.0752683 -0.719235 -0.285712 0.594998 0.210781 -0.0197937 -0.738193 -0.248134 -0.218208 -0.37272 -0.399121 -0.581531 0.500294 0.357919 0.618919 0.241695 0.179383 -1.48665 0.192897 -0.119564 0.292554 0.174792 0.0348819
673 0.175726 0.0583366 -0.0547841 0.0287379 0.104944 -0.291646 -0.0570491 0.092786 0.0228949 0.040624 0.0129545 0.00487363 -0.0237397 0.0263641 -0.0749425 0.0580155 -0.0138279 -0.0749787 0.0143751 0.266585 0.0118654 0.0786457 0.163138 -0.0988318 -0.015038 0.0582662 -0.0032721 -0.0543837 0.00152639 0.126516 -0.0486041 0.040741 -0.269642 0.261681 -0.0448636 -0.118448 -0.0958906 -0.0768324 -0.238658 0.0340823 0.108635 -0.0346969 -0.0844058 -0.185966 -0.0338462 0.0770055 0.289115 0.192289 0.184562 -0.162914 0.341422 0.404933 0.187939 0.169877 -0.0241121 -0.0204708 -0.093584 0.0563587 0.00769837 0.061396 0.0556997 -0.0297856 0.0218123 0.0122268 0.0577342 -0.00592384 -0.132737 -0.0530695 0.232095 -0.0482964 0.0876467 0.109603 0.182348 0.0281273 0.576318 0.00875737 0.0233272 0.315631 0.102953 -0.20206 -0.173448 -0.0818028 0.1942 0.0637934 -0.181022 0.307995 -0.0583194 -0.149639 -0.103681 -0.0306233 -0.443305 -0.450486 -0.0669218 0.32965 0.143565 0.0554114 -0.137913 -0.119196 0.287737 -0.114373 -0.119942 -0.297844 -0.389853 -0.290645 0.0867613 -0.0585858 -1.01886 -0.243659 0.3321 0.0726718 -0.0341636 -0.892575 -0.451392 -0.104311 -0.376538 -0.526395 -0.690082 0.403049 0.135919 0.396066 0.0972187 0.109062 -1.55495 0.152078 -0.159881 0.362436 0.181308 -0.10807
311 0.0344585 0.0283415 -0.155104 -0.0505373 -0.0390132 -0.0220027 -0.168119 -0.115682 0.0817735 0.183694 -0.226581 0.0452978 -0.106591 0.147317 0.0229591 -0.023317 0.0435647 -0.0380613 0.12356 0.0424605 0.154196 -0.0012949 0.0195699 0.133273 0.0395881 0.00998502 0.077306 0.161476 -0.170201 0.0264616 -0.0273468 -0.0836532 -0.140953 -0.0386728 0.0426452 -0.0587068 -0.0633265 0.0332023 0.0374843 -0.201643 0.0733172 0.0881596 0.0332021 -0.136102 -0.0890487 0.0163545 -0.00127988 0.0431062 0.11412 -0.0867573 0.161338 0.181589 0.00442533 0.0940373 -0.0350011 -0.0978049 0.116754 0.221694 -0.0630945 -0.0140143 -0.0887378 -0.0784376 -0.0890409 0.0158127 -0.175055 0.129038 0.0830209 0.0322226 -0.0387721 0.0585003 0.133481 0.199112 0.122954 -0.0707146 0.494181 -0.0963852 0.0816371 0.389619 0.236813 0.00607243 -0.0124502 -0.211011 0.155616 -0.278879 -0.137406 0.296832 0.155623 -0.354377 -0.00914582 -0.0843863 -0.278934 -0.440135 -0.116568 0.518034 0.0944926 0.0504391 -0.253888 -0.144645 0.160183 -0.181662 -0.292887 -0.338808 0.07242 -0.259677 0.023607 0.0874315 -1.15438 -0.130901 0.435283 0.0387055 -0.012942 -1.07108 -0.260353 -0.0147602 -0.157563 -0.297315 -0.67539 0.158962 0.0886028 0.315909 0.140911 0.0786608 -1.34338 0.150314 -0.0592589 0.256124 0.178588 -0.360901
672 -0.0150566 0.155903 0.222207 -0.0487832 0.0739711 -0.159969 0.00272645 0.0280895 0.0498018 0.174076 -0.267769 -0.072656 0.25549 0.0838232 -0.116085 -0.0276864 -0.229765 -0.0841682 -0.217709 -0.049058 -0.143522 0.373825 0.44189 0.0564078 -0.0990112 -0.0732309 -0.0202048 0.163037 0.278317 0.057821 -0.111546 0.0617228 -0.0810497 0.161389 -0.0522818 -0.0842883 -0.132339 0.1161 -0.225942 0.0577861 -0.0102085 -0.151805 0.23904 0.113663 0.0529752 0.110566 -0.211622 -0.0584059 0.0564414 0.0286794 0.113538 0.113029 0.0939759 0.00670332 -0.0114522 0.129293 0.0599391 0.110259 -0.162386 -0.074348 -0.0452898 -0.0839831 -0.0514655 0.0960188 0.138981 -0.00370632 -0.11521 0.0682706 0.0925137 0.0162368 -0.0155764 -0.00942629 -0.0327485 0.024846 0.309947 -0.0145208 -0.0496029 0.25641 -0.0380275 -0.0646148 -0.0287304 -0.185983 0.179578 0.0648346 -0.343261 0.313995 0.182441 -0.396979 0.0671372 -0.349256 -0.31805 -0.393728 0.129988 0.240996 0.277444 -0.13116 -0.12587 -0.0565925 0.27731 -0.102474 -0.0772406 -0.327348 -0.554344 -0.186924 0.232606 -0.00752053 -1.07145 -0.387524 0.497536 0.302506 0.175326 -1.05198 -0.55123 -0.114974 -0.142002 -0.377482 -0.551596 0.36852 0.296362 0.424111 0.224739 0.104191 -1.36418 0.19078 -0.178506 0.277083 0.216371 -0.0266747
56 -0.405655 -0.0695893 0.233508 0.0356493 0.00465964 0.213344 -0.0549263 0.0310211 -0.288581 0.0252619 0.00742917 -0.212196 -0.118645 -0.00569184 0.105149 0.325281 0.0836663 -0.0429063 -0.238116 0.0921251 0.35284 0.299129 -0.409813 -0.0675535 -0.15877 -0.126235 -0.0469658 0.0799766 0.160747 0.050267 -0.0572169 0.347817 -0.336782 0.15844 0.0386128 -0.0430477 -0.00633368 0.193999 0.241131 0.146893 -0.129955 0.139744 0.131278 0.107708 -0.0623901 0.126803 -0.0110654 -0.065547 -0.00862768 0.081304 0.0733144 0.0705566 -0.203211 -0.127566 0.126749 -0.222084 -0.0200897 -0.0206756 0.0566403 -0.0612079 0.150344 -0.105526 -0.17898 -0.123752 -0.0159298 0.0157356 -0.0668369 -0.0678548 0.0161744 -0.0521171 0.00579993 -0.0753824 0.111106 -0.0725657 0.302983 0.167262 -0.0355839 0.37174 -0.0273637 0.181173 -0.202944 -0.116616 0.0028737 -0.20958 -0.32308 0.373645 0.201012 -0.25519 -0.00477043 -0.00645484 -0.297684 -0.616529 -0.587271 0.547734 0.333842 -0.115152 -0.208539 -0.146854 0.210468 0.185594 -0.245508 -0.558751 0.165643 -0.331065 0.171678 -0.0466205 -0.824888 -0.227578 0.193326 0.0982116 -0.0173233 -0.663317 -0.390596 -0.304958 -0.252905 -0.262687 -0.809244 0.475997 0.307566 0.54648 0.340901 0.132973 -1.64449 -0.0165802 0.118929 0.304601 0.294921 0.0550263
283 -0.260153 -0.0367266 0.177561 -0.117093 0.130317 0.176438 -0.120706 -0.160459 -0.261917 -0.0618941 -0.106779 0.0746167 -0.190141 0.0249502 0.0234708 0.0271155 0.14373 0.0751565 -0.146037 -0.0688791 0.135366 0.101828 -0.360838 0.0710234 0.0512893 -0.0756768 -0.0210923 0.0129743 0.0634319 -0.0190706 -0.0202298 0.252927 -0.242956 0.156678 -0.0775159 0.0235863 0.00346364 0.0837495 0.0786555 -0.16198 -0.0581506 0.133916 0.0242703 -0.0392108 -0.000396525 0.00510731 -0.0315733 -0.0931898 -0.190753 -0.0206832 -0.166328 -0.17387 -0.393612 -0.16012 0.17188 -0.333147 0.0628947 -0.0971075 -0.00319033 -0.0559629 0.221762 0.0148141 -0.323371 -0.313448 -0.130117 0.0180785 -0.0576736 -0.131759 0.085624 -0.0877063 0.0766122 0.0138938 0.143056 -0.105492 0.211708 0.274838 -0.0360897 0.258591 0.0346057 0.093752 -0.159137 0.0290305 0.0894818 -0.22236 -0.309673 0.239993 0.315961 -0.289935 0.105424 -0.127349 -0.390442 -0.560554 -0.490048 0.551884 0.212063 -0.0760685 -0.182052 -0.0945532 0.299598 -0.0503787 -0.291098 -0.592874 -0.185276 -0.159329 0.357594 -0.238206 -0.80591 -0.286143 0.411967 -0.0363822 -0.00324915 -0.765064 -0.269025 -0.42149 -0.277064 -0.125135 -0.701094 0.311553 0.0895489 0.328777 0.225124 0.307068 -1.39657 0.0492468 0.0495796 0.237992 0.201778 -0.0257909
844 -0.445829 -0.0760825 0.332179 0.00984778 0.0928428 0.150639 -0.0112025 -0.130331 -0.196354 -0.0129643 0.123508 -0.244221 -0.182657 -0.0678426 0.0363093 0.203926 -0.0471446 -0.0570876 -0.150175 0.0503263 0.198803 0.310407 -0.291384 -0.0920124 -0.0885052 -0.1624 -0.0394606 -0.0437804 0.115189 0.0808941 -0.210937 0.264681 -0.258369 0.141554 0.0319999 0.0352229 0.13604 0.134079 0.322596 0.0117768 -0.178997 0.0815363 0.136604 0.160469 -0.00366489 0.0620972 0.0377008 -0.02682 0.106776 0.114651 0.0107041 0.014959 -0.195251 -0.0894392 0.0761831 -0.255955 0.0910573 0.113574 0.0409765 -0.091641 0.158111 -0.0622346 -0.124477 -0.0470657 0.0161139 -0.0721075 -0.0387893 0.0257634 0.0309427 -0.0759089 0.0332129 0.0702966 0.0234811 -0.143192 0.210745 0.0984302 -0.097244 0.254108 0.0471389 0.0830188 -0.0867624 -0.0692048 -0.06188 -0.270049 -0.219345 0.229029 0.159011 -0.220297 0.049797 -0.10661 -0.31706 -0.389299 -0.479037 0.524696 0.309958 -0.0512405 -0.278259 -0.139421 0.194177 0.06137 -0.168045 -0.486485 -0.136064 -0.203872 0.265807 -0.0401179 -0.856828 -0.247091 0.272471 -0.00514446 0.0527402 -0.599355 -0.198147 -0.28447 -0.300463 -0.252701 -0.782752 0.409488 0.189884 0.467082 0.269972 0.274254 -1.54127 0.0526694 -0.0449108 0.22622 0.206546 0.00652419
54 -0.151332 0.0397093 0.136802 0.110372 0.103803 0.000712316 -0.0218328 0.113042 -0.205714 -0.0673462 0.0497206 -0.142327 -0.112325 -0.071032 0.0540284 0.277231 -0.0435132 -0.285451 -0.180037 0.0836416 0.158034 0.250751 -0.310016 -0.235538 -0.20304 -0.0323971 0.196922 0.140715 0.149937 0.0323602 -0.0493197 0.350273 -0.488672 0.245772 -0.0162167 -0.0518297 -0.0190777 0.133273 0.0861781 0.00182108 -0.0695876 -0.0199463 0.183254 0.169629 -0.0914973 -0.02107 0.158153 0.0270726 0.0022669 0.0607314 0.112502 -0.00181139 -0.214911 -0.266598 0.231654 -0.309644 0.0358739 0.0766836 0.0485369 0.00273981 0.00368108 -0.0618767 -0.161688 -0.137646 -0.21875 0.0799687 0.0311244 -0.0484779 0.0854287 -0.0795018 -0.0141608 0.0447066 0.00988039 -0.0220604 0.193654 0.070259 -0.151396 0.168855 0.0306449 0.0882059 -0.132875 -0.116655 -0.150743 -0.201231 -0.339666 0.180568 0.22391 -0.195143 0.0608817 -0.193039 -0.31574 -0.59267 -0.547068 0.813011 0.45184 -0.0456817 -0.334866 -0.0709288 0.241526 0.156453 -0.119432 -0.428434 0.042417 -0.243107 0.289194 -0.0522917 -0.75239 -0.389066 0.441272 0.124534 -0.0598986 -0.719789 -0.379573 -0.252968 -0.295905 -0.308413 -0.905957 0.449411 0.32251 0.530439 0.212399 0.168262 -1.62926 0.0629808 0.0743967 0.226708 0.329979 -0.00680457
42 -0.0598371 0.00427991 0.181593 0.13184 0.122081 -0.0524184 -0.0834127 0.111769 -0.065396 -0.0126657 0.0489659 -0.0165567 -0.210773 -0.191558 0.126747 -0.0339777 -0.137453 -0.0528441 0.077088 0.00223552 0.147898 0.218418 -0.0970936 -0.159589 -0.17317 0.157912 0.116413 0.142622 0.0580508 -0.0943993 -0.0926217 0.0514329 -0.35866 0.212008 -0.161217 -0.0179119 -0.07121 0.0377152 -0.0969058 0.082558 0.0442399 -0.168337 0.0325551 -0.0867933 -0.137357 -0.367025 0.151173 0.0897094 -0.0775691 0.0159687 0.214566 0.0118816 0.100532 -0.227466 -0.00947764 -0.24461 0.0575699 0.13772 0.11061 0.00414271 0.0669204 -0.00689139 0.0753826 -0.00860655 -0.201029 0.133351 -0.0656343 -0.07694 0.0631144 0.0458681 -0.0261169 -0.00782436 -0.0888475 -0.0438387 0.130109 -0.223416 -0.0866232 0.203471 0.0268033 0.00323781 -0.031542 0.155516 -0.12609 -0.294276 -0.391598 0.223347 -0.0159401 -0.15575 -0.0149811 -0.110766 -0.51615 -0.378942 -0.508479 0.691266 0.494507 0.0684758 -0.48096 0.025474 0.365729 0.0335217 -0.00812179 -0.337092 0.0921478 -0.313329 0.146626 0.0470729 -0.758209 -0.320681 0.47605 0.156124 -0.0804757 -0.835287 -0.424242 -0.270073 -0.249322 -0.287831 -0.763579 0.429191 0.33945 0.2857 0.172778 0.398484 -1.47406 0.0188592 -0.00525643 0.00542245 0.247004 -0.14048
32 -0.017532 -0.0702798 0.0159993 0.241446 0.141057 0.0941342 -0.0258045 0.0519636 0.251354 0.160941 0.225762 -0.13016 0.360334 -0.129585 0.0622978 -0.172841 0.031588 -0.113211 0.168169 -0.143483 -0.0374286 0.0152208 0.0510271 -0.0530577 -0.196469 0.140273 0.164329 0.205035 -0.0499509 -0.156831 -0.0166198 -0.00535486 -0.208269 0.178262 0.0638206 -0.0556969 -0.142761 -0.0486149 -0.0632715 0.0720425 -0.0435416 -0.0141779 0.0309857 0.00907434 -0.0605556 -0.295463 0.117734 0.0362713 0.0806799 0.129285 0.0924294 -0.0246535 0.112538 -0.101769 0.00311737 -0.317219 -0.0706112 0.0622429 -0.0345303 -0.00496462 -0.219112 0.116809 0.0879691 -0.0225431 -0.151115 0.101024 0.0306864 -0.0220368 0.0851964 0.00912398 0.100397 0.155583 -0.0824831 0.0328062 0.309622 -0.283965 -0.112298 0.0230314 0.0913922 0.025812 0.0566277 -0.117625 -0.0366244 -0.389095 -0.294512 0.414568 -0.0480649 -0.158063 -0.123845 -0.0514513 -0.442329 -0.374604 -0.219516 0.776763 0.203268 -0.0646 -0.408891 -0.152765 0.355251 -0.0905552 -0.123881 -0.278419 -0.212893 -0.337259 0.179275 0.209823 -0.717857 -0.349057 0.573713 0.0954701 -0.00621277 -1.01623 -0.396413 -0.152275 -0.0562467 -0.311973 -0.668102 0.278344 0.270807 0.342076 0.158907 0.226256 -1.32269 0.242058 -0.0273611 0.168259 0.271049 0.00279961
80 0.287904 0.0653494 0.106735 0.0923839 0.24867 0.148643 -0.227845 0.0276149 0.0625239 0.309347 -0.17168 0.247598 0.236522 -0.0769416 -0.139986 -0.357184 -0.122361 0.102708 -0.156422 0.0167103 0.0466374 -0.177051 0.101568 0.0920992 -0.0276107 0.0528161 0.0392594 0.0711079 -0.0718653 -0.107781 0.0509939 -0.0698333 -0.292121 0.146368 -0.0404757 -0.0518157 -0.0797413 -0.039329 -0.162976 0.00935507 -0.0875369 -0.0616464 0.0654038 -0.0108856 -0.143351 -0.17664 0.2037 0.118367 -0.0428121 -0.166059 0.3058 -0.0156393 0.16226 -0.0841194 0.0367011 -0.323287 0.0624459 0.121926 0.0647082 0.0068834 0.241535 0.0421078 -0.0618578 0.147596 -0.118587 0.0304884 -0.0220488 -0.00104621 0.202747 0.145887 0.0294597 0.140141 0.151883 -0.122605 0.46957 0.0354709 0.141797 0.149154 0.223398 -0.0897532 -0.102668 -0.0365426 0.0619032 -0.123422 -0.317299 0.277682 0.161718 -0.198334 -0.137271 0.0363913 -0.379171 -0.620677 -0.218749 0.507597 0.252183 0.0847162 -0.14618 -0.0365774 0.132784 0.0924176 -0.0532509 -0.289924 -0.164717 -0.268044 0.319619 -0.216196 -0.655311 -0.223549 0.398167 -0.0651317 -0.126656 -0.89216 -0.465597 -0.245973 -0.434377 -0.417234 -0.689233 0.529091 0.137204 0.578852 0.160029 0.0381395 -1.42285 0.186031 -0.203081 0.0272748 0.233833 0.207969
84 -0.131258 -0.0839743 -0.0594266 -0.108845 0.0654534 -0.166951 0.00788421 0.218973 -0.0431368 0.102469 -0.0356635 0.0226471 0.193282 0.0997291 -0.155554 -0.236216 0.0375871 0.272325 -0.0182524 0.0184185 0.0702755 -0.0934678 -0.0218235 -0.235879 0.085594 0.16274 0.0221344 -0.0581858 0.0353417 0.173995 0.0512108 -0.108659 -0.0770815 -0.0604808 -0.156115 -0.0375998 -0.296108 0.0348863 -0.126768 -0.00181019 -0.208052 0.0809172 -0.0282114 0.0727418 -0.2282 0.0429445 0.142547 0.147152 0.0340063 0.132239 -0.0426845 0.140717 -0.00309086 0.0113462 -0.0156621 -0.183015 -0.067763 0.245325 -0.0383113 -0.0536627 0.141889 -0.0106182 0.0360259 0.125625 0.151466 0.140434 0.122427 -0.0211693 -0.124233 -0.0182163 0.0951772 -0.0921549 -0.0165625 0.137592 0.249081 -0.124558 0.0864137 0.274244 -0.0389161 -0.00976858 -0.0764011 -0.0983023 0.246956 -0.0144406 -0.0134562 0.341963 0.0955191 -0.0722237 0.127079 -0.104515 -0.713518 -0.60279 -0.175984 0.58236 0.275015 0.0863933 -0.204305 0.0940616 0.163959 0.017594 -0.219269 -0.304284 -0.163082 -0.305045 0.108822 -0.0288246 -0.829624 -0.177227 0.632678 0.0589181 -0.0438702 -0.615847 -0.335265 0.0459483 -0.297663 -0.406608 -0.505904 0.230976 0.318569 0.451369 0.20378 0.279982 -1.37512 0.195994 -0.179701 0.238865 0.0455266 -0.0760489
430 -0.0984061 -0.0118256 0.0565803 0.0982533 0.04377 -0.0124347 0.282616 -0.0694462 -0.0897146 -0.204526 0.159609 -0.143836 0.126653 0.0848246 0.0208501 -0.0353391 -0.137303 -0.128306 -0.0243448 0.0394474 -0.13765 0.0192527 -0.285016 -0.213651 -0.085042 0.250262 0.185589 0.0128415 -0.0136778 -0.0196888 0.18264 0.0792266 -0.125041 0.158374 0.20422 -0.0657011 0.247348 -0.1257 -0.0868193 0.158988 0.176389 0.264339 -0.249176 0.0293854 -0.122151 -0.0308905 0.0934614 -0.0788664 -0.0112073 0.194483 0.133331 0.344271 0.085702 0.176184 0.0819626 0.230827 0.0419143 -0.151676 -0.00288392 0.0221614 0.0510558 -0.0468171 0.092035 -0.0622769 0.0464458 -0.0245961 -0.159545 0.104339 0.0510452 -0.14808 -0.100819 0.0790373 -0.173603 0.157228 0.578822 0.174385 0.177072 -0.22343 0.0339168 -0.24468 0.169426 -0.173419 0.099501 -0.162319 -0.398413 0.038015 0.0494883 -0.0243343 0.0891075 -0.254665 -0.452198 -0.339614 -0.149468 0.339452 0.0703413 0.19775 -0.268082 -0.123219 0.217393 -0.297028 -0.276277 -0.343802 -0.255591 -0.03038 0.0402074 0.227879 -0.69913 -0.276403 0.579991 0.0682866 -0.0725146 -0.591017 -0.584468 -0.164538 -0.356854 -0.532202 -0.741241 0.432789 0.00882949 0.253491 0.166874 0.420189 -1.49077 0.13649 -0.0524239 0.325095 0.19059 -0.231111
427 -0.1465 0.200239 -0.0521865 0.248574 0.27656 0.208716 0.198645 -0.11949 -0.00722506 0.0971341 -0.0143765 0.131473 0.0619508 -0.0512762 -0.108639 -0.0287087 -0.0809548 -0.0637384 0.204394 0.0653633 -0.0957326 -0.217752 -0.221239 0.0694749 -0.182378 0.076157 0.0189501 -0.0251742 -0.00242685 -0.0937426 -0.208695 0.0553559 -0.287915 0.157793 -0.0357169 0.0467248 -0.00249402 -0.0446863 0.209725 0.152834 -0.15646 0.180759 -0.132856 0.0298671 -0.0815267 -0.179243 0.0697898 -0.0074366 -0.148391 0.140366 0.186405 0.0979552 0.352282 0.178264 -0.0791427 0.0249323 0.10336 0.109028 0.114669 0.113267 0.080976 0.0536675 0.12621 0.0269845 -0.0622826 -0.0463434 -0.019501 -0.0427831 0.0968446 -0.141507 -0.00118006 -0.0438526 -0.098937 0.0812479 0.418387 -0.0582929 0.173499 0.0202717 -0.0549612 0.0766353 -0.184531 0.0207417 0.231641 -0.00327 -0.342555 0.264026 0.171149 -0.25952 -0.149735 -0.126244 -0.452186 -0.196193 -0.36035 0.692861 0.193427 0.205127 -0.312578 -0.0402236 0.175047 -0.173863 -0.0183678 -0.0970857 -0.253919 -0.258073 0.294371 0.107117 -0.72922 -0.0800142 0.605608 -0.0156037 -0.0417854 -0.625045 -0.303455 0.0173584 -0.118588 -0.533787 -0.744759 0.269942 0.151955 0.293883 0.0914775 0.0448358 -1.6265 0.312519 -0.099019 0.224609 0.280291 -0.135243
293 -0.0185551 -0.188016 0.00609524 -0.163688 -0.176806 -0.324135 -0.109635 0.274654 0.0657397 0.284094 0.0179851 0.0910072 0.133967 0.123087 -0.0129011 0.0227577 -0.234327 -0.189645 -0.0741007 -0.0250434 -0.0351308 -0.209361 0.279778 -0.0201872 0.0832589 -0.163497 -0.0416353 0.0273967 -0.0785889 0.20143 0.0792611 -0.215827 -0.0465309 -0.127141 0.114384 -0.0182759 0.0801624 -0.173156 0.0674409 -0.0980613 -0.172816 -0.00637487 0.0172777 0.179635 -0.000996744 0.0678639 0.00422106 0.0760605 0.133271 0.0726527 0.123756 0.055992 0.104108 0.0320812 0.0546119 0.108608 0.00780647 0.0125801 0.0666816 -0.00238046 -0.159361 0.0630968 0.0281749 0.0706805 0.0110603 0.0238472 -0.0470667 -0.140967 0.0916569 -0.16223 0.017754 0.232869 0.0879761 0.0390921 0.580055 -0.0936779 -0.00984411 0.304178 0.0706406 -0.185555 -0.0298614 -0.0357763 -0.0224094 -0.118336 -0.184747 0.122278 0.110067 -0.257223 -0.0494115 -0.207219 -0.388018 -0.48768 -0.364124 0.714289 0.404147 0.18983 -0.111057 0.0647419 0.306252 -0.0713679 -0.0870706 -0.284792 -0.244229 -0.355063 0.374386 0.147154 -0.771244 -0.337684 0.547138 0.16458 -0.0252303 -0.629031 -0.364429 -0.0824503 -0.125181 -0.156911 -0.567756 0.402249 0.265742 0.453712 0.221172 0.157606 -1.54874 0.148796 -0.121986 0.191033 0.198941 0.0405291
125 -0.122951 -0.17219 -0.0263768 -0.0793851 0.0405103 0.0133899 0.494028 -0.280914 -0.205537 -0.235365 0.0894845 0.0165926 -0.35493 0.00409208 -0.0193991 -0.112676 -0.0666567 -0.0815022 0.085535 0.169398 -0.0421048 0.0442757 -0.0750349 0.0660877 -0.0114636 0.0328091 0.158498 -0.000561483 0.122485 -0.0608238 -0.172886 0.0536079 -0.0415168 -0.0958758 -0.170899 0.105826 -0.0810298 0.263245 -0.0565997 -0.0604049 0.0984365 -0.050485 0.0898962 0.0951332 0.0277367 -0.0739774 0.193681 0.15113 0.306658 -0.0419077 0.112328 0.139467 0.284809 0.177877 -0.0525619 0.0669632 0.0584325 0.281781 0.0316941 -0.0384978 0.0291053 -0.00112456 -0.0920585 0.0448162 -0.0949724 0.102323 0.167583 0.0724079 0.381604 -0.260605 -0.132464 0.383587 0.043432 -0.068952 0.461529 -0.0775132 -0.0945961 0.450844 -0.11166 -0.122553 0.0659864 0.150516 0.142016 -0.226613 -0.229195 0.34979 0.23975 -0.183082 0.0711688 -0.275329 -0.523402 -0.152918 -0.122983 0.28766 0.135948 -0.0233509 -0.227429 -0.151074 0.250976 -0.04695 -0.265736 -0.480303 -0.0244454 0.128747 0.125048 0.184322 -0.88825 -0.225989 0.463103 0.10012 0.0562182 -0.921754 -0.305489 -0.0597329 -0.253892 -0.62408 -0.981455 0.648998 0.3076 0.509992 0.00961341 0.252376 -1.49512 0.278205 -0.0684088 0.197404 0.0166979 -0.0759642
35 -0.162044 0.0312353 0.0762628 0.01703 0.0529162 0.0493347 0.0530213 -0.112548 -0.111007 -0.194007 -0.0733263 0.111307 0.0707328 0.0234715 0.0170949 -0.0088204 -0.0887746 -0.0272344 0.212708 0.0645054 -0.127195 0.162124 -0.0386941 0.0139457 -0.0408351 -0.0930167 0.163072 0.100198 0.195304 -0.0426549 -0.0415845 -0.186379 -0.040578 0.0500446 0.0568857 0.0460267 0.0415741 0.0995095 0.0947587 -0.181506 -0.0914034 -0.0613175 0.114588 0.146741 0.0351728 -0.114189 0.00295696 0.0184989 -0.0511634 -0.0344477 0.126216 -0.0782824 0.219685 -0.034654 -0.151081 0.195674 -0.0335266 -0.120387 -0.117663 -0.0764591 0.0327104 0.212151 0.0540845 0.111024 0.0778795 -0.00317476 -0.0649924 -0.0366472 0.0912861 -0.0624758 -0.0680343 0.00799186 -0.19774 -0.00401727 0.515616 -0.00960962 -0.0570476 0.171345 -0.149019 -0.119568 0.0692379 0.112943 0.147772 -0.331961 -0.357526 0.287413 -0.0492813 -0.131612 -0.0325891 0.0761764 -0.443841 -0.144577 -0.0184151 0.267788 0.343634 -0.0243432 -0.0108626 -0.179745 0.245809 0.0156167 -0.37065 -0.463294 -0.295153 -0.46724 0.50165 -0.0418332 -0.763227 -0.100674 0.246641 0.224388 0.128277 -0.532918 -0.485236 -0.321585 -0.125903 -0.387426 -0.671108 0.597234 0.339897 0.464099 -0.0788782 0.33424 -1.4062 0.197584 0.0056581 0.0467435 0.0735736 -0.0105806
729 0.067977 -0.0326084 0.120278 0.0315092 -0.127814 0.163943 0.224752 -0.0358044 0.101886 -0.0236396 -0.153351 -0.108177 0.15359 0.0738523 -0.0722248 -0.190835 -0.161983 -0.00637048 0.017934 -0.0254317 -0.0471661 0.210726 0.0839119 0.201957 -0.0860394 0.0961171 -0.050555 0.272453 0.182149 0.0783079 -0.0354495 0.00616245 0.0825586 -0.0479735 0.226266 -0.102219 0.0245841 -0.0589032 0.104808 0.0471866 -0.190268 -0.105403 0.140175 0.140348 -0.0319075 0.0242655 -0.103654 -0.086378 -0.211302 -0.0664058 -0.0155267 -0.142254 -0.11674 -0.118558 -0.0511658 -0.183342 0.193721 0.0527531 -0.0654188 -0.0661909 -0.00478472 -0.115558 0.150394 0.0328304 0.0758573 0.10736 -0.236732 -0.00671628 0.182384 -0.0967505 0.0704691 -0.003192 -0.0842965 0.0753596 0.219949 0.0653516 0.143141 0.507125 0.0759123 -0.0353238 -0.16321 -0.260253 0.0639503 -0.137473 -0.25933 0.370639 0.146314 -0.195588 0.00888 -0.20179 -0.279493 -0.364557 -0.373385 0.264335 0.235518 0.11181 -0.250581 -0.141442 0.142773 0.0123695 -0.295952 -0.298675 -0.105206 -0.0396938 0.0898139 0.0939784 -0.826016 -0.108339 0.698608 0.121106 -0.112901 -0.876014 -0.457137 0.0721971 -0.122109 -0.770892 -0.696787 0.454344 0.248415 0.173397 0.1252 0.237392 -1.37574 0.231532 -0.0381026 0.297603 0.13203 -0.143776
